
#include <eml_net.h>
static const float mynet_layer_0_biases[100] = { 0.056302f, 0.006955f, 0.142968f, -0.019592f, 0.044193f, 0.131097f, 0.256284f, 0.001125f, 0.290269f, 0.110270f, 0.226842f, 0.317747f, -0.103866f, 0.012644f, -0.106627f, -0.205654f, 0.210126f, 0.252185f, 0.009185f, 0.064057f, -0.025343f, 0.079135f, -0.178120f, -0.033802f, 0.150215f, -0.061964f, 0.132243f, 0.105414f, -0.266661f, 0.041160f, 0.141319f, -0.147739f, -0.042686f, -0.117399f, -0.149509f, 0.171568f, 0.026710f, -0.213772f, 0.112454f, -0.154906f, -0.152087f, 0.021845f, 0.033280f, -0.170429f, 0.188102f, -0.028187f, -0.163238f, 0.010199f, -0.134838f, -0.242080f, 0.165437f, 0.194415f, -0.135444f, 0.004141f, 0.214775f, 0.009265f, 0.224642f, 0.054131f, -0.023127f, 0.042226f, -0.089220f, -0.029648f, -0.028297f, 0.063379f, -0.050242f, -0.080990f, -0.203502f, 0.218278f, 0.088818f, 0.029990f, 0.081762f, 0.081998f, 0.109145f, 0.095334f, -0.040680f, 0.030832f, -0.086110f, -0.057914f, 0.251457f, -0.094833f, 0.022527f, 0.101886f, 0.152747f, -0.184621f, 0.019662f, -0.082000f, 0.408730f, 0.028480f, 0.046442f, 0.164262f, 0.040230f, 0.153279f, -0.017551f, -0.144106f, -0.138563f, -0.114348f, -0.024442f, 0.078579f, -0.071695f, -0.101072f };
static const float mynet_layer_0_weights[700] = { -0.132186f, -0.133780f, 0.022929f, -0.054816f, 0.149325f, -0.126296f, -0.001303f, -0.005019f, -0.088486f, -0.235918f, 0.121206f, -0.228334f, 0.166066f, 0.147372f, -0.065690f, 0.017989f, 0.236794f, -0.090096f, 0.045389f, -0.036776f, 0.179500f, 0.104006f, 0.121787f, -0.090469f, -0.169809f, -0.082885f, -0.053518f, -0.226389f, -0.146125f, 0.098159f, 0.135802f, 0.017422f, 0.099255f, -0.276348f, 0.016533f, 0.172804f, 0.057624f, -0.065666f, 0.137659f, 0.157403f, -0.073725f, -0.050438f, 0.044729f, 0.077465f, 0.029606f, -0.222052f, -0.229147f, 0.212441f, -0.210838f, -0.088031f, 0.208713f, 0.120752f, 0.141019f, -0.090415f, 0.016757f, 0.214204f, -0.169466f, -0.278331f, -0.028860f, 0.085688f, -0.062537f, 0.033136f, 0.036988f, 0.114453f, 0.175707f, -0.266148f, -0.256866f, 0.037669f, -0.049593f, 0.084819f, -0.243908f, 0.048375f, -0.093094f, -0.046019f, 0.069837f, -0.058292f, 0.067099f, -0.237528f, -0.258196f, 0.076137f, 0.068762f, 0.130360f, -0.100296f, 0.146404f, 0.144344f, 0.024695f, -0.231234f, 0.066880f, -0.146811f, -0.005819f, 0.135062f, -0.081198f, 0.164478f, -0.206903f, -0.230956f, 0.081865f, -0.199228f, -0.084609f, -0.234913f, -0.147736f, -0.038612f, 0.088497f, 0.075266f, 0.043035f, 0.066446f, -0.165971f, 0.027137f, 0.389227f, -0.244067f, 0.152167f, 0.014617f, 0.192454f, -0.157583f, 0.028059f, 0.056031f, 0.041417f, -0.112768f, 0.028787f, -0.058047f, 0.041192f, -0.014510f, 0.119266f, 0.043078f, -0.016838f, 0.196228f, 0.046598f, 0.001164f, -0.244921f, -0.151344f, 0.223259f, 0.118773f, -0.087935f, -0.079897f, 0.096520f, -0.133361f, 0.021556f, 0.080840f, 0.017467f, -0.114361f, 0.120397f, 0.032214f, -0.165432f, 0.121025f, 0.115683f, 0.188582f, -0.119144f, 0.167502f, -0.175885f, 0.204424f, 0.222412f, 0.028214f, 0.040294f, 0.145564f, 0.247453f, -0.135371f, 0.145313f, -0.012590f, 0.017398f, -0.030871f, -0.229291f, 0.456318f, 0.385272f, -0.174763f, 0.130326f, -0.186351f, -0.229064f, 0.063187f, -0.134626f, 0.084527f, 0.225374f, -0.091093f, -0.116155f, 0.262350f, -0.000737f, -0.201619f, -0.036856f, -0.148569f, -0.126335f, -0.015093f, 0.113454f, 0.251364f, 0.358098f, -0.196242f, 0.158231f, 0.045452f, -0.065228f, -0.306578f, -0.111429f, 0.207304f, 0.114308f, -0.204712f, 0.218814f, 0.220054f, 0.018169f, 0.461879f, -0.172273f, 0.029543f, 0.434649f, -0.027264f, 0.030661f, 0.131641f, -0.245324f, -0.057468f, -0.142277f, 0.050181f, -0.135608f, 0.007538f, -0.113046f, 0.096478f, 0.106352f, 0.011232f, 0.137518f, -0.130272f, -0.126202f, 0.052142f, 0.149010f, 0.071680f, 0.168825f, -0.065607f, 0.179250f, 0.103191f, -0.039947f, -0.158577f, 0.117917f, -0.198694f, 0.171348f, -0.264864f, -0.129754f, -0.056375f, 0.017274f, 0.077857f, 0.197865f, 0.216778f, -0.088532f, 0.034989f, 0.221545f, 0.017029f, -0.112104f, 0.081988f, 0.113712f, 0.203534f, -0.210987f, 0.171432f, 0.234000f, 0.172882f, 0.128039f, 0.224558f, -0.044143f, 0.080622f, 0.088203f, 0.176489f, 0.201913f, 0.007978f, 0.064332f, -0.198454f, -0.233660f, 0.112329f, 0.075897f, 0.229024f, -0.223276f, -0.172410f, 0.045870f, -0.005062f, 0.150735f, 0.224592f, 0.261206f, 0.169938f, 0.107688f, 0.165988f, -0.114620f, 0.132446f, 0.117556f, 0.344050f, 0.064610f, 0.199084f, 0.075926f, 0.051341f, 0.040292f, 0.216787f, 0.147300f, -0.037942f, -0.199784f, 0.157641f, 0.096228f, 0.055152f, 0.021771f, -0.218543f, -0.017597f, -0.081737f, -0.179690f, -0.054319f, -0.178925f, -0.091673f, 0.175530f, -0.093920f, 0.133256f, 0.052090f, -0.124610f, -0.174743f, 0.190693f, 0.197247f, -0.026925f, -0.125665f, -0.120627f, -0.099519f, -0.267328f, 0.114808f, -0.230543f, 0.198214f, 0.045955f, -0.210292f, 0.043521f, 0.152171f, -0.174302f, -0.149970f, 0.200684f, -0.116443f, -0.178148f, 0.230915f, 0.214394f, -0.036242f, 0.179008f, -0.151142f, 0.228540f, -0.041778f, 0.111684f, 0.104053f, -0.245773f, -0.161251f, -0.254302f, -0.148369f, 0.124195f, -0.088926f, 0.067281f, 0.217160f, 0.190262f, -0.011314f, 0.098475f, -0.044993f, 0.069580f, 0.093561f, 0.112024f, -0.026695f, -0.203434f, -0.080744f, 0.120737f, 0.088160f, -0.000756f, 0.157231f, -0.160212f, 0.059744f, 0.076859f, 0.146540f, -0.186368f, -0.153146f, -0.255927f, -0.218766f, -0.010023f, -0.092158f, 0.137176f, 0.114572f, -0.071837f, -0.120642f, -0.195809f, 0.165313f, -0.036115f, -0.171510f, -0.162538f, -0.197862f, -0.015599f, 0.022794f, 0.049024f, -0.146000f, 0.036493f, 0.112869f, 0.187686f, 0.215067f, 0.232412f, -0.046615f, 0.155776f, -0.041770f, -0.032393f, -0.167962f, -0.056895f, -0.046468f, 0.113470f, -0.065971f, -0.114294f, -0.144547f, -0.212165f, 0.046638f, -0.084584f, 0.028499f, 0.001523f, -0.045753f, 0.233285f, -0.034755f, -0.102884f, 0.201901f, 0.107948f, -0.160912f, 0.016840f, -0.129238f, 0.060465f, -0.027323f, 0.209312f, -0.260194f, 0.019574f, -0.095337f, -0.135380f, -0.238860f, -0.243621f, -0.131372f, -0.106714f, -0.035501f, 0.122078f, 0.121945f, 0.027420f, 0.086519f, -0.071353f, 0.078902f, 0.149516f, 0.082237f, -0.171760f, -0.104581f, 0.018004f, 0.257993f, 0.171505f, -0.006776f, 0.049090f, -0.027383f, -0.191273f, -0.031633f, 0.133943f, -0.066124f, -0.159081f, -0.068224f, 0.190711f, -0.082455f, 0.022201f, 0.224674f, -0.129105f, 0.039760f, 0.162805f, 0.023390f, 0.175905f, 0.143207f, -0.138237f, -0.168981f, 0.109889f, -0.071377f, 0.073596f, -0.161919f, 0.108895f, -0.172306f, 0.104675f, -0.020929f, -0.169186f, 0.063210f, -0.140935f, -0.159863f, -0.117655f, -0.107157f, -0.112666f, -0.045113f, -0.079397f, -0.314488f, 0.095911f, -0.092218f, 0.178189f, 0.095020f, -0.024595f, -0.051506f, 0.102280f, -0.192235f, -0.239242f, 0.064888f, 0.035088f, 0.137048f, -0.093276f, 0.176350f, -0.473947f, -0.062865f, -0.210396f, 0.221562f, 0.002858f, -0.190873f, -0.149944f, 0.191420f, -0.032102f, -0.122809f, 0.120797f, -0.251968f, -0.218016f, 0.053991f, 0.063507f, -0.118244f, 0.138462f, 0.202054f, -0.130353f, -0.047774f, -0.229864f, -0.147876f, 0.268282f, 0.079246f, 0.166113f, 0.107411f, -0.088144f, 0.024374f, 0.174009f, -0.016915f, 0.274083f, 0.175542f, 0.043679f, -0.220506f, -0.004108f, -0.133844f, -0.111517f, 0.052032f, 0.219329f, 0.022743f, -0.155459f, -0.083089f, -0.113796f, -0.192214f, 0.135227f, 0.016535f, 0.028288f, -0.055970f, -0.067784f, -0.030717f, 0.110034f, -0.212928f, -0.062601f, -0.132710f, -0.143922f, -0.119907f, -0.173943f, 0.182508f, 0.003398f, 0.059317f, -0.110307f, 0.198354f, 0.026466f, -0.007453f, -0.166021f, -0.037822f, -0.018265f, -0.053750f, -0.194543f, 0.199606f, 0.220092f, -0.133193f, 0.073485f, 0.135451f, 0.128609f, -0.094755f, -0.167943f, -0.209709f, 0.078807f, 0.125451f, 0.206716f, -0.267424f, -0.091142f, 0.039575f, 0.026981f, -0.209913f, -0.107408f, 0.213198f, -0.020600f, 0.037285f, -0.027639f, 0.171564f, -0.248654f, -0.131906f, 0.137419f, -0.100204f, 0.096017f, 0.041171f, -0.007628f, 0.094759f, -0.133042f, -0.260248f, -0.235505f, -0.141355f, 0.079540f, -0.245832f, 0.100752f, -0.120195f, 0.107806f, -0.133932f, 0.137925f, -0.173972f, 0.138743f, 0.220837f, 0.037063f, -0.214588f, 0.068302f, -0.156097f, 0.076222f, 0.166116f, 0.018714f, -0.080307f, 0.184368f, 0.055948f, 0.018685f, -0.052520f, -0.074069f, -0.234722f, -0.163317f, -0.205251f, 0.035402f, -0.006070f, 0.096068f, 0.083621f, -0.051719f, -0.052968f, -0.074741f, 0.130755f, -0.124926f, -0.069808f, -0.065270f, 0.079721f, -0.092900f, -0.149711f, -0.158644f, -0.240291f, -0.177108f, -0.113430f, 0.070440f, 0.070293f, 0.026537f, 0.247792f, -0.109222f, 0.050691f, 0.233999f, -0.123102f, -0.080419f, -0.278605f, -0.041573f, -0.030943f, -0.042333f, 0.062660f, -0.185713f, 0.039550f, 0.144950f, 0.161761f, 0.082143f, 0.225642f, 0.114309f, -0.066393f, -0.089857f, -0.027461f, 0.004769f, -0.232300f, 0.209639f, -0.231305f, 0.140736f, 0.016868f, 0.198844f, 0.154214f, 0.307206f, -0.024033f, 0.114231f, 0.132185f, -0.027014f, 0.177711f, 0.245622f, 0.009081f, 0.144902f, 0.182365f, -0.124907f, 0.216696f, -0.034608f, -0.191401f, 0.162586f, 0.079689f, 0.030241f, -0.301475f, 0.018109f, -0.072452f, -0.141091f, -0.281712f, 0.148677f, 0.117604f, 0.161089f, -0.368332f, 0.025629f, 0.021879f, 0.110163f, -0.063307f, 0.211367f, -0.217785f, -0.026633f, -0.127934f, -0.065315f, 0.001424f, -0.267677f, 0.070307f, 0.244826f };
static const float mynet_layer_1_biases[27] = { 0.155773f, -0.022934f, -0.168677f, 0.060886f, 0.001066f, 0.050139f, -0.068422f, -0.212311f, 0.187295f, 0.116074f, -0.194869f, 0.028722f, -0.115169f, 0.218573f, 0.169774f, 0.257932f, -0.126701f, -0.072658f, -0.015481f, 0.091263f, -0.220321f, 0.025967f, -0.019594f, 0.182152f, 0.016593f, 0.114698f, 0.103696f };
static const float mynet_layer_1_weights[2700] = { -0.131354f, 0.076428f, 0.186256f, -0.069098f, -0.167215f, -0.078107f, -0.217033f, -0.083864f, 0.127588f, -0.015640f, 0.110603f, -0.011401f, 0.075241f, -0.247750f, -0.114729f, 0.156186f, -0.047021f, 0.144782f, -0.073461f, 0.113109f, -0.152050f, -0.171226f, -0.150218f, -0.213316f, -0.076466f, -0.037500f, -0.130403f, 0.288427f, 0.134835f, 0.080891f, -0.056456f, -0.104621f, -0.245333f, 0.183713f, -0.052939f, 0.059296f, -0.151492f, -0.065881f, -0.105375f, 0.036533f, 0.160604f, 0.123211f, 0.070647f, 0.011713f, -0.033836f, 0.078310f, 0.185352f, -0.167583f, 0.015200f, -0.006131f, -0.035455f, -0.216659f, 0.022629f, 0.144246f, -0.032841f, -0.028309f, 0.088715f, -0.301930f, 0.076088f, -0.004307f, 0.135893f, -0.125358f, -0.027962f, 0.035949f, 0.130453f, 0.159345f, 0.014306f, -0.111308f, -0.134815f, 0.100846f, -0.226119f, -0.220103f, 0.037535f, 0.010581f, 0.178683f, -0.093859f, -0.028473f, -0.203728f, -0.001923f, 0.035489f, 0.143755f, -0.015927f, -0.040830f, -0.116317f, -0.005681f, -0.196924f, -0.000000f, 0.092242f, -0.164537f, 0.130204f, -0.000000f, -0.115061f, -0.165774f, -0.493539f, -0.000002f, -0.172449f, -0.027113f, -0.020892f, -0.268168f, 0.250589f, -0.138662f, -0.079495f, 0.145654f, 0.060628f, -0.000384f, -0.226450f, -0.143545f, -0.053134f, 0.038349f, -0.025574f, 0.219336f, 0.136079f, 0.027888f, -0.814168f, 0.142593f, -0.085954f, 0.119350f, -0.028124f, 0.080178f, -0.364274f, -0.287919f, -0.073467f, -0.016758f, -0.241401f, -0.667955f, 0.034577f, 0.228331f, 0.132605f, -0.137297f, -0.212539f, 0.053774f, 0.059298f, -0.072572f, -0.027186f, -0.217439f, -0.000000f, -0.001683f, -0.160029f, -0.000889f, -0.149155f, -0.000000f, -0.003419f, -0.131591f, -0.107185f, -0.000000f, -0.113433f, -0.000000f, -0.000000f, -0.000003f, -0.391866f, -0.037884f, -0.000000f, -0.000000f, -0.096152f, -0.001790f, -0.000000f, -0.000519f, -0.729750f, 0.317919f, -0.000000f, -0.000000f, -0.000000f, 0.160070f, 0.028157f, -0.019726f, 0.085961f, -0.090930f, 0.112014f, -0.165222f, 0.163184f, 0.151977f, -0.088061f, -0.072576f, -0.087878f, 0.037878f, -0.033791f, 0.129332f, -0.154551f, -0.019855f, -0.139713f, 0.137977f, -0.231012f, -0.226062f, -0.121333f, -0.153609f, 0.042545f, -0.379266f, -0.052864f, -0.170153f, 0.018290f, 0.094281f, 0.052877f, 0.034259f, -0.222597f, 0.237543f, 0.076825f, -0.087549f, -0.084782f, -0.356787f, -0.034209f, 0.045054f, 0.034968f, 0.322230f, -0.767616f, 0.129122f, -0.164988f, 0.004361f, -0.214504f, -0.215236f, -0.705348f, -0.013140f, -0.017963f, 0.161355f, -0.569568f, 0.137067f, 0.070854f, 0.252292f, -0.088749f, 0.142191f, 0.210949f, -0.077152f, 0.001240f, 0.057495f, -0.099184f, -0.175281f, 0.121255f, -0.014121f, -0.123261f, 0.196404f, 0.018289f, -0.285590f, -0.129868f, 0.124121f, -0.159701f, -0.047911f, -0.168197f, -0.168699f, -0.127975f, -0.118581f, -0.154566f, -0.142775f, -0.064710f, 0.158065f, -0.167339f, -0.043702f, -0.119188f, 0.178343f, -0.167368f, -0.134746f, -0.114817f, 0.020008f, -0.014635f, -0.011988f, 0.108885f, -0.129187f, -0.031987f, 0.097997f, -0.095966f, 0.009368f, -0.079436f, 0.158166f, 0.025230f, -0.089821f, -0.044786f, -0.311734f, 0.054500f, 0.069341f, 0.146185f, 0.265701f, 0.084941f, 0.209162f, -0.079972f, -0.010765f, -0.225466f, -0.063187f, 0.115379f, 0.010715f, 0.045523f, -0.164396f, -0.039773f, -0.017643f, -0.019361f, 0.052531f, 0.126328f, 0.059183f, -0.124998f, -0.005995f, 0.061063f, -0.101859f, -0.102714f, 0.070939f, -0.016840f, -0.003634f, 0.035699f, -0.102542f, 0.106949f, 0.028692f, 0.003247f, -0.006849f, 0.227863f, 0.033717f, 0.294379f, -0.000000f, 0.097760f, -0.094108f, -0.137077f, -0.000000f, 0.107741f, 0.403288f, 0.176161f, -0.000000f, 0.165372f, 0.000057f, -0.080352f, -0.090948f, 0.468193f, 0.099585f, -0.497700f, -0.197906f, -0.148575f, -0.114284f, -0.181617f, -0.323059f, -0.236709f, -0.048529f, 0.149052f, -0.005324f, -0.083744f, -0.162093f, -0.195016f, 0.131570f, -0.025103f, 0.034189f, -0.382656f, -0.151324f, -0.003654f, -0.107270f, -0.230473f, 0.141417f, 0.069889f, -0.096515f, -0.040214f, -0.043043f, 0.068902f, -0.234722f, 0.132767f, 0.076354f, -0.165848f, -0.302875f, 0.114889f, -0.094839f, -0.018676f, -0.000021f, 0.210442f, 0.000422f, -0.132029f, -0.000000f, 0.021065f, 0.000685f, -0.000181f, -0.000000f, -0.115668f, -0.000000f, -0.000000f, -0.006581f, 0.104403f, -0.060425f, -0.000000f, 0.000000f, -0.176593f, -0.216630f, -0.000000f, -0.000041f, -0.201318f, 0.003238f, -0.000000f, -0.078378f, 0.000398f, -0.109165f, -0.097476f, 0.119860f, 0.080019f, 0.026200f, -0.151945f, -0.061675f, -0.094805f, -0.342707f, -0.063494f, -0.040752f, 0.113969f, 0.158986f, -0.126815f, -0.072664f, -0.180262f, -0.123257f, 0.108553f, -0.085780f, 0.172422f, 0.128794f, 0.046304f, -0.003161f, 0.098855f, -0.354320f, 0.034569f, -0.193254f, -0.064869f, 0.087855f, 0.095486f, -0.023332f, 0.053874f, 0.026418f, -0.201012f, 0.113329f, -0.137382f, 0.209594f, 0.079451f, -0.062346f, -0.186276f, 0.178896f, 0.141192f, -0.202879f, 0.193166f, 0.028737f, 0.155999f, -0.150123f, -0.153792f, 0.073830f, -0.002800f, -0.188587f, -0.130138f, -0.070697f, 0.076387f, -0.014291f, 0.144918f, -0.149788f, 0.067757f, -0.006052f, 0.118045f, 0.163019f, -0.170343f, 0.201197f, 0.133923f, 0.108802f, 0.005505f, -0.049828f, -0.132998f, -0.026300f, -0.109934f, 0.236337f, 0.014800f, -0.185017f, -0.139890f, -0.043341f, -0.294162f, -0.033730f, 0.099417f, -0.116065f, -0.225888f, 0.190264f, 0.124966f, 0.078102f, -0.027555f, -0.001173f, 0.110728f, -0.209154f, 0.091882f, -0.137046f, -0.224305f, -0.059872f, 0.037486f, -0.598245f, -0.430955f, 0.402302f, -0.428430f, -0.091953f, -0.221758f, -0.211237f, 0.101626f, 0.259522f, 0.405044f, 0.040823f, -0.001726f, -0.111319f, -0.293890f, 0.090983f, -0.604466f, 0.068217f, 0.065739f, 0.113443f, 0.160393f, -0.145340f, -0.172322f, -0.105302f, -0.199212f, 0.150068f, -0.219310f, 0.056580f, 0.091281f, 0.044071f, -0.186807f, 0.160768f, -0.001669f, -0.135859f, -0.197062f, 0.195148f, 0.109153f, 0.106231f, 0.153168f, 0.080033f, -0.052674f, -0.056066f, 0.145853f, -0.151006f, -0.183450f, -0.099891f, 0.147349f, -0.014466f, 0.117795f, 0.131043f, 0.183392f, -0.035051f, 0.064683f, -0.212911f, 0.030313f, 0.234107f, -0.063789f, -0.283691f, -0.235594f, -0.137218f, -0.120853f, -0.085346f, -0.078964f, -0.200907f, 0.064002f, 0.000074f, -0.169525f, 0.129271f, 0.095171f, -0.083368f, 0.084144f, 0.090062f, -0.199694f, 0.172227f, -0.106566f, -0.110578f, 0.067297f, -0.216419f, 0.043452f, -0.077259f, -0.123414f, 0.060224f, 0.166189f, -0.021084f, 0.159093f, -0.003086f, 0.243465f, -0.130482f, -0.101992f, 0.070311f, 0.149517f, -0.161227f, -0.028716f, 0.208978f, 0.013362f, -0.008412f, 0.062361f, 0.178353f, -0.116350f, 0.032657f, 0.067241f, 0.085324f, 0.126027f, -0.038949f, -0.051117f, 0.074609f, -0.129061f, -0.188562f, 0.030630f, 0.096442f, 0.196769f, 0.174478f, -0.009639f, -0.046156f, 0.142815f, -0.132000f, 0.088902f, 0.092118f, -0.002434f, 0.210722f, 0.195432f, -0.042966f, -0.096492f, -0.091919f, 0.148566f, 0.174342f, -0.130637f, 0.124959f, 0.076361f, 0.031715f, -0.073406f, -0.130524f, 0.103179f, -0.102508f, 0.158516f, 0.144026f, 0.175682f, -0.109683f, 0.047744f, 0.229647f, -0.047848f, 0.183310f, -0.127747f, -0.164225f, 0.063696f, 0.088371f, 0.103209f, -0.007454f, 0.169242f, -0.234551f, -0.096585f, 0.039370f, 0.167223f, 0.002804f, 0.023746f, 0.061457f, 0.047066f, 0.111424f, -0.034139f, 0.000711f, -0.048938f, 0.158603f, 0.075586f, -0.222297f, -0.114814f, -0.072955f, 0.217208f, -0.019405f, -0.126305f, -0.166924f, -0.141637f, -0.149449f, 0.087120f, -0.260772f, 0.001246f, -0.171462f, 0.111727f, -0.173047f, -0.156886f, -0.130757f, -0.140323f, 0.130439f, -0.149356f, -0.019974f, -0.182456f, -0.186081f, -0.117124f, 0.061553f, -0.164276f, -0.241857f, -0.230653f, -0.201958f, -0.140043f, -0.051356f, 0.231780f, -0.035569f, -0.031499f, 0.060808f, -0.165758f, -0.017658f, 0.037529f, -0.051991f, -0.010635f, -0.214373f, -0.085635f, 0.028874f, -0.138592f, 0.213047f, -0.115605f, 0.036766f, 0.048882f, -0.065921f, -0.087454f, 0.179845f, -0.203910f, 0.004216f, -0.068864f, -0.166624f, 0.153001f, -0.180922f, 0.143924f, 0.107098f, -0.184326f, 0.027387f, -0.040418f, -0.027761f, 0.227909f, 0.187284f, -0.038511f, 0.094871f, 0.067876f, 0.009126f, 0.104656f, -0.079629f, -0.022020f, -0.074921f, -0.031084f, -0.026709f, -0.537464f, -0.086733f, -0.014745f, -0.051457f, 0.043609f, -0.258722f, -0.040085f, -0.146053f, -0.079933f, -0.107479f, -0.108103f, 0.166526f, -0.071165f, 0.010655f, -0.096689f, -0.094268f, 0.092177f, 0.068308f, 0.023696f, -0.225091f, -0.265130f, -0.218681f, 0.006122f, -0.054316f, -0.057153f, 0.126075f, -0.212414f, -0.075516f, 0.116218f, -0.001168f, -0.063420f, -0.200047f, -0.154791f, 0.041724f, 0.006042f, -0.011151f, 0.110272f, 0.009268f, -0.106606f, 0.061936f, -0.256046f, -0.080715f, 0.087167f, -0.107771f, -0.038604f, -0.117072f, 0.000751f, -0.264107f, -0.253238f, -0.087070f, 0.047114f, 0.058319f, -0.051108f, -0.172209f, -0.251351f, -0.314430f, 0.016918f, -0.138633f, 0.122668f, 0.071021f, -0.132814f, -0.216330f, -0.208273f, -0.266665f, -0.079902f, -0.165179f, -0.126108f, 0.075380f, -0.170773f, -0.077577f, -0.069603f, -0.008395f, 0.121449f, -0.091451f, -0.240283f, -0.047045f, -0.007020f, 0.172158f, 0.007004f, -0.048029f, -0.085657f, 0.184469f, -0.012674f, -0.052272f, -0.126461f, 0.135713f, 0.041376f, -0.207451f, -0.152709f, 0.162845f, -0.183181f, -0.009871f, -0.135029f, 0.045219f, 0.045387f, -0.060375f, -0.007606f, -0.221382f, -0.303613f, -0.187697f, -0.250972f, -0.005971f, -0.237131f, 0.000234f, -0.021095f, -0.151545f, -0.232025f, 0.067025f, -0.125050f, 0.174505f, 0.073563f, -0.011358f, -0.161979f, -0.123408f, 0.101354f, -0.157012f, 0.133741f, -0.000523f, 0.227698f, -0.157552f, 0.039650f, 0.092263f, 0.145483f, 0.158038f, -0.146618f, -0.025246f, 0.094779f, -0.113908f, 0.032925f, -0.107980f, -0.073851f, 0.031001f, -0.178857f, 0.209762f, 0.183637f, -0.072964f, 0.109588f, 0.114466f, -0.193942f, 0.000988f, 0.164502f, -0.034164f, 0.210503f, -0.130504f, 0.000014f, 0.043752f, -0.113805f, 0.022268f, 0.229133f, 0.109758f, -0.059043f, -0.010116f, 0.043904f, 0.010311f, -0.074233f, 0.022257f, -0.175069f, 0.002168f, -0.019145f, -0.142828f, -0.055766f, -0.207829f, 0.227443f, -0.163313f, -0.030540f, 0.072877f, 0.104944f, -0.077447f, 0.078295f, -0.042876f, -0.141449f, 0.008651f, -0.120597f, -0.065894f, -0.128348f, 0.065920f, 0.186934f, -0.216096f, -0.033102f, -0.028383f, -0.054878f, 0.095075f, 0.080480f, -0.116596f, 0.138786f, 0.130306f, 0.166562f, -0.217355f, -0.171510f, -0.348839f, -0.107511f, -0.175685f, 0.352296f, -0.276763f, -0.212418f, 0.350920f, -0.142795f, -0.443072f, 0.137820f, -0.124865f, -0.037874f, 0.254646f, -0.138915f, 0.300893f, -0.015668f, -0.121360f, -0.042175f, -0.030080f, -0.347855f, 0.138383f, -0.337589f, -0.160144f, -0.159347f, 0.123488f, -0.125008f, -0.187872f, -0.175871f, 0.073652f, -0.074692f, 0.055354f, -0.067852f, 0.014938f, -0.103646f, -0.027309f, -0.223407f, 0.023099f, 0.122215f, 0.174017f, 0.154939f, -0.209169f, 0.015792f, 0.144480f, 0.160283f, -0.866729f, -0.121949f, 0.059382f, 0.062868f, 0.264451f, 0.051481f, 0.203243f, 0.068559f, -0.118307f, 0.182659f, 0.021449f, 0.154221f, -0.085221f, 0.033493f, -0.085363f, 0.093619f, -0.128777f, 0.008429f, 0.070571f, -0.077531f, 0.023590f, -0.171712f, -0.142920f, 0.067738f, -0.175040f, 0.150568f, -0.099488f, -0.260448f, -0.123841f, -0.104694f, -0.066079f, -0.100778f, 0.089868f, -0.151847f, -0.022224f, 0.228949f, -0.068823f, 0.019034f, 0.176786f, -0.139296f, -0.116690f, 0.005219f, -0.033223f, -0.162914f, 0.091353f, 0.117323f, -0.124502f, -0.008367f, -0.177034f, 0.132489f, -0.086818f, 0.083633f, -0.244327f, 0.168960f, -0.073136f, -0.089059f, 0.136053f, 0.028314f, -0.149836f, -0.090487f, -0.122476f, -0.197131f, -0.018719f, -0.235136f, -0.033929f, -0.126618f, 0.084987f, 0.070662f, -0.016839f, 0.117631f, 0.180180f, -0.096952f, 0.013553f, 0.005509f, 0.181926f, -0.099530f, 0.267316f, -0.256793f, 0.044998f, -0.146238f, -0.078090f, 0.001903f, -0.047536f, -0.131937f, 0.042291f, -0.047102f, 0.084879f, 0.146944f, 0.015093f, 0.160352f, 0.114749f, -0.212595f, -0.104799f, 0.102704f, -0.085295f, -0.240236f, -0.103872f, -0.145359f, -0.099525f, -0.187841f, -0.029496f, -0.044224f, -0.460832f, -0.079088f, -0.070417f, -0.013962f, 0.001666f, -0.008991f, -0.001640f, 0.155002f, -0.165841f, -0.144227f, 0.182099f, 0.010524f, -0.103399f, 0.088866f, -0.144223f, 0.087409f, -0.143994f, 0.120313f, 0.041523f, 0.000684f, -0.085900f, 0.165782f, -0.140691f, 0.218825f, -0.071896f, 0.019482f, -0.155749f, 0.068405f, 0.074808f, 0.128649f, -0.095675f, 0.123995f, 0.116691f, -0.093850f, 0.123274f, 0.110698f, 0.144524f, 0.126881f, 0.090863f, 0.227073f, 0.139780f, -0.018486f, 0.162854f, -0.071470f, 0.039424f, 0.183301f, 0.105906f, -0.094393f, -0.191492f, 0.054572f, 0.075856f, 0.045884f, -0.046759f, 0.131163f, 0.047409f, 0.143115f, -0.107228f, -0.020499f, 0.140917f, 0.155079f, 0.175649f, -0.067203f, 0.128197f, 0.218655f, 0.136694f, 0.147541f, -0.042763f, -0.134277f, -0.210944f, -0.164618f, -0.153991f, -0.018972f, 0.001238f, -0.147044f, -0.089811f, 0.082441f, -0.041514f, -0.033381f, -0.015749f, 0.050743f, 0.040331f, -0.202901f, -0.250329f, 0.002958f, -0.292090f, 0.017584f, -0.012502f, -0.001843f, -0.095763f, 0.008587f, -0.027926f, -0.065780f, -0.153949f, 0.030443f, -0.051139f, 0.106539f, 0.045247f, 0.075445f, 0.040930f, -0.084053f, -0.181384f, 0.023501f, 0.223437f, -0.182736f, -0.107924f, -0.334097f, -0.222417f, 0.005398f, -0.043893f, -0.195632f, 0.171842f, -0.132352f, -0.053904f, 0.028800f, -0.054565f, -0.093638f, 0.275224f, -0.084410f, -0.059473f, -0.035772f, 0.198578f, -0.151065f, 0.123190f, 0.078416f, -0.040624f, 0.134501f, -0.067941f, -0.073941f, -0.017193f, -0.114658f, -0.217684f, 0.090082f, 0.205938f, 0.154393f, 0.078207f, -0.183548f, -0.134461f, 0.081711f, 0.199399f, 0.109838f, -0.189487f, 0.261449f, -0.031622f, -0.050102f, 0.097033f, 0.057559f, -0.265447f, -0.137270f, 0.167627f, -0.050751f, 0.042983f, -0.110580f, -0.216124f, 0.179823f, 0.205993f, -0.199707f, -0.078770f, -0.057110f, -0.188930f, 0.098441f, 0.092559f, 0.238226f, 0.103272f, -0.097077f, 0.149802f, 0.157858f, -0.188727f, 0.033791f, -0.317682f, 0.032265f, -0.079199f, -0.062584f, -0.174595f, 0.125964f, 0.049369f, 0.012539f, -0.086792f, 0.152948f, -0.066991f, -0.054327f, 0.228522f, 0.013112f, -0.023539f, -0.129568f, 0.174019f, 0.092708f, -0.112700f, 0.003190f, -0.046877f, 0.151480f, -0.086457f, -0.114711f, -0.057691f, -0.071329f, -0.202433f, -0.665722f, -0.139101f, 0.003794f, 0.027604f, -0.049463f, -0.302135f, -0.105624f, 0.021590f, -0.160893f, -0.209920f, 0.112799f, -0.073824f, 0.124057f, 0.025887f, 0.128616f, -0.152392f, 0.146809f, 0.071437f, -0.150304f, -0.098212f, -0.003287f, 0.032525f, 0.113006f, -0.149430f, -0.080850f, 0.055886f, -0.191591f, -0.156086f, 0.131889f, 0.143893f, -0.147186f, 0.006961f, -0.035769f, -0.238409f, 0.033217f, -0.136546f, 0.184990f, 0.011104f, 0.154080f, 0.163224f, -0.065158f, -0.121578f, -0.149959f, -0.119030f, -0.184805f, -0.131810f, -0.211091f, -0.081423f, -0.108317f, 0.170319f, 0.172839f, 0.124923f, 0.124896f, -0.185030f, 0.088321f, 0.104670f, 0.011865f, -0.248941f, 0.193764f, -0.171311f, 0.019086f, -0.131227f, 0.010288f, 0.157324f, 0.197195f, 0.141261f, 0.066122f, 0.173221f, 0.076018f, 0.166348f, -0.065448f, 0.216262f, -0.454815f, -0.076744f, -0.001319f, -0.287528f, 0.149060f, -0.128460f, 0.127436f, 0.032200f, 0.132213f, 0.063121f, 0.157242f, -0.184589f, -0.088307f, -0.363392f, 0.190540f, 0.121252f, -0.081145f, 0.084464f, -0.113389f, 0.233193f, 0.182826f, -0.090886f, -0.017477f, 0.027830f, 0.090290f, 0.021204f, -0.225327f, 0.109803f, -0.015870f, -0.100290f, 0.066897f, -0.149664f, 0.174847f, 0.201820f, 0.044653f, 0.161766f, -0.041982f, -0.001165f, -0.156270f, 0.055735f, -0.057838f, -0.050149f, -0.179197f, -0.060792f, -0.198198f, -0.102801f, -0.071097f, 0.070711f, -0.177804f, 0.020391f, 0.044767f, -0.105704f, -0.075398f, -0.003482f, 0.051489f, 0.107270f, -0.374334f, -0.014058f, -0.162763f, -0.155062f, -0.107080f, -0.196373f, -0.070298f, 0.010968f, -0.002516f, -0.006934f, 0.107339f, -0.090971f, -0.007449f, -0.215851f, 0.006320f, -0.056051f, 0.183880f, 0.162235f, -0.034034f, 0.052487f, -0.114252f, -0.135386f, 0.122901f, 0.152406f, -0.172545f, -0.092055f, 0.032623f, 0.011066f, 0.239626f, 0.030892f, -0.145968f, 0.032682f, 0.087354f, -0.122530f, 0.059553f, 0.150496f, -0.013428f, -0.092401f, -0.000921f, -0.112400f, -0.146467f, -0.127500f, 0.219003f, -0.170858f, 0.114392f, 0.137045f, 0.029822f, -0.071584f, 0.185494f, -0.016308f, -0.200763f, -0.261012f, 0.117798f, -0.068584f, 0.215323f, 0.002888f, -0.157259f, 0.042115f, 0.058493f, 0.159738f, -0.254920f, -0.262001f, 0.070017f, 0.166953f, -0.042869f, -0.160501f, -0.286704f, 0.157312f, -0.232467f, 0.078492f, -0.225285f, 0.093144f, 0.067875f, 0.151598f, 0.488079f, 0.111740f, 1.037827f, -0.556810f, 0.311014f, -0.027570f, 0.033926f, 0.128597f, 0.082227f, 0.096388f, -0.141359f, -0.249897f, -0.068164f, -0.160283f, -0.386788f, 0.055104f, -0.012614f, -0.096518f, -0.008096f, 0.007363f, -0.015556f, 0.185657f, -0.227940f, -0.090581f, 0.019954f, -0.276730f, -0.005879f, -0.119780f, 0.042430f, -0.134344f, -0.000001f, 0.103521f, 0.024773f, -0.066491f, -0.276641f, -0.000467f, 0.052774f, -0.238826f, -0.041394f, -0.072171f, -0.000017f, -0.275006f, -0.036071f, -0.002901f, -0.065727f, -0.145782f, -0.149966f, -0.044800f, 0.081513f, -0.241340f, 0.065217f, -0.000000f, -0.191403f, -0.045791f, -0.174582f, -0.000068f, -0.034941f, -0.202857f, -0.078253f, -0.154827f, -0.015234f, -0.039510f, 0.087588f, -0.206429f, -0.129792f, 0.117414f, -0.031205f, -0.181161f, -0.062975f, -0.177019f, -0.008592f, -0.111363f, -0.216753f, 0.214408f, -0.086690f, -0.222127f, 0.050187f, -0.095061f, 0.136357f, 0.142919f, 0.028056f, 0.078856f, -0.136381f, -0.032490f, 0.010193f, -0.229032f, 0.128221f, 0.065259f, -0.159640f, -0.169923f, -0.174401f, -0.212566f, -0.006019f, -0.024366f, -0.196682f, 0.004890f, -0.195654f, 0.036576f, 0.163172f, -0.213916f, 0.091229f, 0.252523f, 0.131364f, -0.218070f, 0.096553f, 0.125272f, -0.176469f, -0.051457f, -0.010887f, -0.079530f, -0.236047f, -0.025142f, 0.028926f, -0.097891f, -0.094692f, 0.052104f, -0.003887f, 0.072334f, 0.049632f, -0.009470f, -0.027086f, 0.076443f, -0.000100f, 0.067522f, -0.010574f, 0.219734f, -0.122752f, -0.159263f, -0.128574f, 0.143345f, -0.169497f, -0.016390f, 0.207360f, -0.200470f, -0.193916f, -0.237179f, -0.028456f, -0.098463f, 0.180316f, 0.142901f, -0.044866f, -0.094335f, -0.068503f, 0.077948f, 0.131861f, -0.242050f, 0.216808f, 0.210146f, 0.126929f, -0.013378f, 0.115121f, 0.182769f, -0.062848f, -0.153651f, -0.075220f, -0.202823f, 0.210567f, -0.045442f, -0.017770f, -0.000000f, 0.055118f, -0.183372f, -0.121159f, 0.017557f, 0.055927f, -0.223877f, 0.158429f, -0.000000f, 0.112170f, 0.155116f, -0.221953f, 0.024524f, -0.017848f, -0.202642f, -0.149700f, -0.037412f, -0.245149f, -0.092260f, 0.024428f, 0.142885f, -0.201896f, 0.059981f, 0.085225f, -0.057481f, 0.180483f, 0.168711f, -0.174176f, 0.580827f, -0.096787f, 0.218170f, -0.096614f, 0.164501f, 0.204311f, -0.049421f, -0.242487f, -0.087906f, 0.167041f, -0.041390f, 0.176064f, -0.066604f, -0.000657f, 0.165189f, -0.192855f, 0.086362f, -0.032988f, -0.284091f, -0.014328f, -0.063111f, -0.012298f, -0.296455f, 0.198071f, -0.080831f, -0.193461f, -0.029942f, -0.032784f, -0.464294f, 0.084956f, -0.012145f, 0.031045f, -0.247339f, -0.777983f, -0.000166f, 0.003020f, -0.219350f, -0.293807f, -0.019557f, 0.169190f, -0.019079f, -0.399357f, -0.410314f, -0.134251f, 0.116148f, -0.808232f, -0.166620f, -0.094488f, 0.241784f, -0.260671f, 0.088371f, -0.211936f, 0.045830f, -0.149227f, 0.121948f, -0.234183f, -0.037218f, 0.140774f, -0.003399f, -0.176094f, -0.008796f, 0.037683f, 0.082719f, 0.185251f, -0.196787f, 0.023984f, -0.224643f, 0.233473f, -0.056137f, -0.195355f, -0.062545f, 0.011274f, 0.037468f, -0.193120f, -0.193290f, -0.123534f, 0.063665f, 0.187303f, 0.041218f, -0.189923f, 0.067108f, -0.035148f, 0.036142f, 0.118121f, 0.264469f, -0.021649f, -0.138611f, 0.001685f, 0.102862f, -0.018200f, 0.034131f, -0.111971f, 0.042564f, -0.137149f, 0.134315f, 0.027767f, 0.159966f, 0.087826f, -0.034555f, -0.243135f, 0.074301f, -0.274595f, -0.008859f, -0.043156f, -0.192976f, 0.126651f, 0.093147f, 0.012621f, -0.205401f, -0.009328f, -0.005197f, -0.009328f, -0.158474f, -0.221456f, 0.077237f, 0.054685f, -0.049723f, -0.184899f, -0.002924f, 0.174958f, 0.120024f, 0.066893f, -0.212431f, -0.070019f, -0.032858f, -0.079243f, 0.268679f, 0.132076f, 0.170977f, 0.029501f, -0.123832f, -0.099636f, -0.044615f, -0.252945f, -0.249389f, 0.171422f, -0.085615f, -0.236796f, 0.079271f, -0.068124f, 0.008603f, 0.184314f, -0.074200f, 0.021342f, 0.057776f, 0.141818f, -0.211099f, -0.408255f, 0.080231f, -0.016856f, -0.011081f, -0.012893f, -0.088557f, -0.690147f, -0.078970f, 0.005260f, -0.103405f, -0.056684f, -0.092056f, -0.098437f, 0.041121f, -0.083335f, 0.004608f, 0.135689f, -0.114722f, 0.071353f, 0.000894f, 0.024665f, -0.239837f, -0.025836f, 0.119261f, -0.218043f, -0.073353f, -0.133965f, 0.096326f, -0.213221f, -0.280275f, -0.191150f, -0.001107f, -0.165159f, 0.011622f, 0.257077f, 0.111008f, 0.045068f, 0.126397f, 0.010762f, -0.146018f, 0.120681f, -0.478874f, 0.038480f, 0.242661f, 0.007596f, -0.147108f, 0.121614f, 0.139185f, -0.012524f, 0.273244f, -0.298796f, -0.097934f, -0.080106f, 0.504802f, -0.055782f, -0.026525f, -0.193384f, 0.068337f, -0.000001f, -0.101189f, -0.074169f, -0.057197f, 0.464928f, -0.025504f, -0.132995f, 0.206496f, -0.145062f, -0.155600f, -0.000000f, 0.103152f, -0.204976f, 0.125521f, -0.000000f, 0.221435f, -0.313868f, 0.143989f, -0.000001f, -0.072248f, 0.137622f, 0.000844f, 0.059250f, -0.082520f, 0.000242f, -0.290244f, 0.030409f, -0.229079f, -0.192495f, -0.313838f, -0.145633f, -0.136661f, -0.231989f, 0.101370f, -0.036426f, 0.091535f, -0.215881f, -0.108519f, -0.160834f, -0.161500f, 0.171889f, 0.090156f, 0.212937f, -0.252473f, -0.239907f, 0.156536f, 0.115346f, -0.152709f, -0.130497f, -0.116525f, 0.132760f, -0.124092f, -0.118410f, 0.080635f, 0.094202f, 0.201604f, 0.218212f, -0.173295f, -0.266939f, -0.264040f, -0.089223f, -0.046072f, 0.016201f, 0.079765f, 0.029652f, -0.000018f, -0.005534f, 0.027615f, 0.022513f, 0.184270f, -0.021603f, 0.066746f, 0.000022f, 0.072499f, -0.191591f, 0.122136f, 0.001778f, 0.059794f, -0.463236f, 0.208869f, -0.131703f, -0.266160f, 0.009002f, -0.205441f, -0.172360f, 0.004198f, -0.026484f, -0.165505f, -0.191644f, -0.127883f, -0.117121f, -0.126464f, -0.124437f, -0.190608f, -0.119296f, -0.130003f, -0.186550f, 0.030626f, 0.046360f, 0.189370f, 0.155102f, -0.091992f, -0.071377f, 0.112199f, -0.083020f, -0.209235f, -0.083044f, -0.016351f, -0.107516f, -0.111647f, -0.022669f, -0.155581f, 0.186076f, -0.009332f, 0.355547f, 0.150939f, -0.564619f, 0.371531f, 0.429790f, -0.185493f, 0.489974f, -0.395150f, -0.029608f, 0.298689f, 0.248826f, 0.746760f, -0.195491f, -0.087941f, -0.322304f, -1.234843f, -1.192967f, -0.715321f, -0.049518f, 0.258574f, -0.538595f, 0.261251f, 0.148180f, 0.660545f, 0.663806f, -0.605498f, 0.092504f, 0.131279f, -0.076669f, 0.091240f, 0.041020f, 0.126525f, 0.062878f, -0.227535f, -0.150577f, -0.065790f, -0.129728f, -0.232926f, -0.149540f, -0.050788f, 0.225070f, -0.078831f, -0.026644f, -0.109975f, 0.015899f, -0.078607f, -0.149973f, 0.106261f, -0.137084f, -0.113174f, 0.117189f, -0.129124f, 0.134883f, -0.065414f, -0.060642f, -0.197170f, 0.247074f, 0.137734f, 0.062455f, -0.051765f, -0.060932f, -0.054135f, 0.132784f, -0.145461f, 0.015960f, -0.107564f, -0.024870f, -0.046841f, -0.083842f, -0.062029f, -0.080787f, -0.228868f, 0.020693f, 0.089362f, 0.009726f, 0.073994f, -0.139101f, -0.139797f, 0.035831f, 0.191607f, -0.159786f, 0.142995f, -0.201835f, 0.092928f, -0.100021f, 0.001428f, -0.199589f, -0.108126f, -0.006066f, 0.129474f, 0.240709f, -0.012681f, 0.004961f, -0.072429f, 0.118527f, -0.145460f, -0.074493f, 0.183827f, 0.033703f, -0.073424f, -0.133192f, 0.013190f, 0.173726f, -0.128160f, -0.009774f, 0.176584f, -0.078312f, 0.139799f, -0.019751f, -0.231765f, 0.160147f, -0.119861f, 0.074030f, 0.109313f, 0.048879f, -0.162147f, 0.017902f, 0.174092f, 0.016771f, 0.008716f, -0.109430f, -0.022491f, -0.007461f, 0.145140f, -0.104581f, -0.005725f, 0.218855f, 0.171100f, -0.062957f, 0.004771f, 0.054021f, -0.146900f, 0.042183f, 0.134012f, 0.097457f, -0.201665f, 0.142385f, -0.215738f, -0.056092f, -0.129222f, -0.141058f, 0.054616f, 0.202015f, 0.001169f, -0.096092f, 0.252806f, 0.173983f, -0.211317f, -0.225362f, 0.024839f, -0.152287f, 0.083663f, -0.103813f, -0.619593f, -0.106223f, 0.010135f, 0.102970f, 0.074837f, 0.031296f, -0.056698f, 0.054811f, 0.160297f, -0.087877f, -0.120971f, 0.089449f, 0.017981f, -0.650543f, -0.572967f, -0.192143f, 0.072358f, -0.251617f, -0.074491f, 0.068256f, 0.146468f, -0.252693f, -0.005891f, -0.103783f, -0.064640f, 0.076646f, 0.250605f, 0.020331f, 0.244353f, -0.270023f, -0.027649f, 0.107383f, -0.037308f, 0.155984f, -0.256161f, 0.119894f, 0.005957f, 0.028676f, 0.045127f, -0.102020f, -0.022982f, -0.179405f, 0.149410f, -0.088176f, -0.014366f, -0.066403f, -0.232021f, -0.043135f, -0.045973f, -0.070281f, -0.135942f, -0.081181f, 0.132181f, 0.213715f, -0.098391f, -0.096704f, 0.106808f, 0.188384f, 0.150636f, 0.038354f, 0.225338f, 0.027355f, -0.012560f, -0.064046f, 0.202320f, 0.069040f, 0.213810f, 0.198735f, 0.021682f, -0.235531f, -0.001030f, -0.211854f, 0.053194f, -0.001549f, 0.227176f, 0.117907f, 0.095204f, 0.025145f, 0.071968f, -0.035556f, -0.099589f, -0.184461f, 0.127251f, -0.128024f, 0.071595f, 0.204187f, 0.130245f, -0.196740f, 0.014396f, 0.203878f, -0.943888f, 0.086523f, -0.192905f, -0.058082f, -0.786140f, 0.275955f, -0.231364f, 0.132950f, 0.399180f, 0.114137f, 0.013441f, -0.017937f, -0.589850f, -0.810065f, -0.110168f, 0.135809f, -0.031931f, -0.002769f, -1.011274f, -0.452825f, 0.009680f, -0.004163f, -0.781594f, -0.045267f, -0.064862f, -0.432519f, -0.007603f, -0.035558f, 0.147788f, 0.096439f, -0.210440f, -0.236279f, -0.164475f, 0.024343f, -0.010565f, 0.084316f, -0.223278f, -0.261220f, 0.027274f, 0.040250f, 0.048187f, 0.221199f, -0.031354f, 0.272566f, 0.145443f, 0.072666f, -0.250252f, -0.121692f, -0.129350f, 0.009885f, 0.006298f, 0.097947f, -0.153463f, 0.133813f, -0.054238f, -0.220110f, -0.121368f, 0.190087f, 0.198756f, 0.112287f, 0.061923f, -0.185437f, 0.113407f, -0.085554f, -0.204691f, 0.131809f, 0.012273f, 0.051396f, 0.238036f, -0.198645f, -0.028064f, 0.128909f, 0.086594f, -0.087366f, -0.108514f, 0.006468f, -0.044174f, -0.062066f, 0.210747f, -0.208286f, -0.132282f, -0.127968f, -0.149654f, -0.224812f, -0.226506f, -0.175120f, 0.091740f, 0.171716f, -0.164688f, 0.161377f, 0.076448f, 0.165322f, 0.048842f, 0.057571f, 0.100376f, 0.123672f, 0.165116f, 0.115646f, -0.051927f, -0.087249f, -0.191245f, -0.135431f, -0.094716f, 0.178498f, 0.187276f, -0.230456f, -0.000476f, -0.032286f, -0.182686f, -0.072278f, -0.037316f, 0.203107f, -0.150414f, 0.101986f, 0.105228f, 0.186382f, 0.020266f, -0.036972f, 0.159113f, -0.157958f, 0.139282f, 0.195059f, 0.143042f, 0.020476f, 0.020227f, 0.094282f, -0.074724f, -0.064064f, 0.087883f, 0.185196f, -0.221498f, 0.005904f, -0.160033f, 0.235451f, 0.470443f, -0.000855f, -0.182367f, -0.193789f, -0.001544f, -0.000082f, -0.158050f, -0.000058f, -0.001127f, -0.168341f, -0.001776f, -0.000092f, -0.001151f, -0.016023f, -0.021405f, -0.415041f, -0.021416f, -0.072893f, -0.000971f, -0.019995f, -0.000565f, -0.000995f, -0.006804f, -0.000212f, -0.000010f, -0.212633f, -0.000031f, -0.008237f, -0.000037f, 0.123758f, 0.000060f, -0.134147f, -0.000000f, -0.106031f, 0.003196f, -0.000110f, -0.000000f, 0.054797f, -0.000000f, -0.000000f, -0.000000f, 0.100655f, -0.000000f, -0.000000f, 0.130898f, -0.108308f, -0.179687f, -0.000000f, -0.000000f, -0.116112f, -0.015084f, -0.000000f, 0.016294f, 0.022263f, 0.042277f, 0.002500f, 0.011560f, -0.085962f, 0.176473f, -0.120037f, 0.139389f, 0.025074f, 0.100801f, -0.214107f, -0.226918f, -0.123889f, 0.099746f, 0.034348f, -0.063746f, -0.082727f, -0.249496f, -0.075968f, -0.224584f, 0.021341f, 0.228882f, -0.136108f, 0.000554f, -0.038908f, 0.057834f, 0.203383f, -0.214853f, -0.000438f, -0.000232f, 0.057162f, -0.043437f, -0.242815f, -0.000000f, -0.081456f, 0.001138f, -0.000377f, -0.000000f, -0.092561f, -0.000000f, -0.000000f, -0.000000f, -0.123024f, -0.000013f, -0.000000f, -0.000000f, -0.196832f, 0.185529f, -0.039537f, -0.000000f, -0.112122f, -0.187691f, -0.000157f, 0.071338f, 0.079484f, 0.022066f, 0.121452f, -0.203897f, 0.225195f, -0.167233f, -0.139834f, -0.173116f, -0.023743f, 0.132483f, 0.191703f, -0.050950f, 0.075031f, -0.169908f, -0.028440f, -0.027076f, 0.082067f, -0.155644f, -0.019455f, -0.024047f, 0.158773f, -0.118398f, -0.174182f, 0.079470f, -0.176798f, -0.114698f, 0.079939f, -0.011366f, -0.235260f, 0.070687f, 0.002476f, 0.021757f, -0.031241f, -0.000000f, -0.059783f, -0.027762f, -0.019019f, 0.072798f, -0.095443f, -0.164516f, -0.252074f, -0.000001f, -0.126454f, 0.187782f, 0.100414f, -0.103626f, 0.214010f, 0.176709f, 0.091135f, -0.109321f, 0.152473f, 0.121981f, 0.070681f, 0.008303f, -0.019350f, -0.045730f, -0.009293f, 0.001643f, 0.234154f, -0.133477f, 0.039490f, 0.184011f, 0.091041f, -0.034200f, -0.057110f, 0.003050f, -0.207785f, -0.140929f, -0.136410f, -0.160389f, 0.193659f, -0.239860f, -0.111895f, -0.170245f, -0.171920f, -0.148432f, -0.000798f, 0.142177f, 0.143435f, -0.243472f, 0.045707f, -0.149237f, -0.019419f, -0.160551f, 0.107523f, -0.017505f, -0.128295f, -0.098287f, 0.149043f, 0.048758f, 0.069769f, 0.017648f, 0.248763f, -0.158069f, 0.235629f, -0.020368f, 0.028915f, 0.023671f, -0.000000f, -0.113364f, 0.054751f, 0.099639f, -0.067821f, -0.211070f, -0.145230f, 0.175849f, -0.285035f, -0.153048f, -0.044510f, -0.139129f, -0.205864f, -0.192788f, -0.088761f, -0.231656f, -0.049081f, -0.178093f, -0.264230f, 0.004510f, -0.000000f, -0.296148f, 0.127821f, -0.176688f, -0.000004f, -0.089311f, -0.172390f, -0.195956f, -0.057299f, 0.081637f, -0.194698f, -0.312550f, -0.092370f, 0.298793f, 0.017333f, -0.147620f, -0.182527f, -0.097598f, -0.219430f, -0.019359f, -0.145419f, 0.018397f, -0.090872f, -0.075218f, -0.098994f, -0.150193f, 0.189241f, -0.017533f, -0.139675f, 0.167429f, -0.093741f, -0.201457f, 0.033537f, -0.002177f, -0.063808f, 0.159827f, 0.039125f, -0.025001f, 0.186585f, 0.154265f, -0.125663f, -0.109561f, -0.066742f, -0.103766f, -0.166731f, 0.100795f, 0.045599f, 0.131143f, -0.089773f, 0.159743f, -0.121602f, 0.044564f, -0.197597f, -0.534855f, -0.013831f, 0.144455f, 0.123858f, 0.020807f, -0.234183f, -0.024724f, -0.039323f, 0.031680f, 0.209417f, -0.011595f, -0.072434f, -0.126824f, 0.003189f, -0.028682f, -0.108883f, -0.126139f, -0.035481f, -0.004834f, 0.274498f, 0.042697f, 0.147495f, -0.114496f, -0.240710f, 0.230305f, -0.127880f, -0.552627f, -0.044647f, -0.664986f, -0.019501f, -0.480036f, -0.080744f, 0.367436f, 0.086184f, -0.199983f, -0.242859f, 0.012347f, -0.463792f, -0.099388f, -0.371432f, -0.812998f, 0.184611f, 0.140993f, -0.678580f, -0.142655f, -0.724266f, 0.109204f, 0.083330f, 0.159871f, 0.069304f, -0.036519f, -0.125466f, -0.220443f, -0.131222f, 0.196945f, -0.043471f, -0.231288f, -0.097446f, -0.142557f, -0.202295f, 0.112525f, 0.098552f, 0.146118f, 0.002919f, 0.138055f, -0.077774f, 0.108848f, 0.107733f, -0.213056f, -0.177392f, -0.008331f, 0.144777f, -0.077337f, -0.160996f, -0.157191f, -0.055236f, -0.051445f, 0.092962f, -0.226538f, 0.171559f, 0.257901f, -0.017860f, 0.007779f, -0.137034f, -0.058093f, -0.080452f, -0.062268f, -0.052079f, 0.033152f, -0.037359f, -0.178353f, -0.023206f, -0.119396f, 0.223909f, -0.326344f, -0.148828f, -0.118182f, 0.070967f, -0.050845f, -0.176818f };
static float mynet_buf1[100];
static float mynet_buf2[100];
static const EmlNetLayer mynet_layers[2] = { 
{ 100, 7, mynet_layer_0_weights, mynet_layer_0_biases, EmlNetActivationRelu }, 
{ 27, 100, mynet_layer_1_weights, mynet_layer_1_biases, EmlNetActivationSoftmax } };
static EmlNet mynet = { 2, mynet_layers, mynet_buf1, mynet_buf2, 100 };

    int32_t
    mynet_predict(const float *features, int32_t n_features)
    {
        return eml_net_predict(&mynet, features, n_features);
    }
    

    int32_t
    mynet_regress(const float *features, int32_t n_features, float *out, int32_t out_length)
    {
        return eml_net_regress(&mynet, features, n_features, out, out_length);
    }
    

    float
    mynet_regress1(const float *features, int32_t n_features)
    {
        return eml_net_regress1(&mynet, features, n_features);
    }
    