{"learner":{"attributes":{"scikit_learn":"{\"_estimator_type\": \"classifier\"}"},"feature_names":[],"feature_types":[],"gradient_booster":{"model":{"gbtree_model_param":{"num_parallel_tree":"1","num_trees":"1300"},"iteration_indptr":[0,26,52,78,104,130,156,182,208,234,260,286,312,338,364,390,416,442,468,494,520,546,572,598,624,650,676,702,728,754,780,806,832,858,884,910,936,962,988,1014,1040,1066,1092,1118,1144,1170,1196,1222,1248,1274,1300],"tree_info":[0,1,2,3,4,5,6,7,8,9,10,11,12,13,14,15,16,17,18,19,20,21,22,23,24,25,0,1,2,3,4,5,6,7,8,9,10,11,12,13,14,15,16,17,18,19,20,21,22,23,24,25,0,1,2,3,4,5,6,7,8,9,10,11,12,13,14,15,16,17,18,19,20,21,22,23,24,25,0,1,2,3,4,5,6,7,8,9,10,11,12,13,14,15,16,17,18,19,20,21,22,23,24,25,0,1,2,3,4,5,6,7,8,9,10,11,12,13,14,15,16,17,18,19,20,21,22,23,24,25,0,1,2,3,4,5,6,7,8,9,10,11,12,13,14,15,16,17,18,19,20,21,22,23,24,25,0,1,2,3,4,5,6,7,8,9,10,11,12,13,14,15,16,17,18,19,20,21,22,23,24,25,0,1,2,3,4,5,6,7,8,9,10,11,12,13,14,15,16,17,18,19,20,21,22,23,24,25,0,1,2,3,4,5,6,7,8,9,10,11,12,13,14,15,16,17,18,19,20,21,22,23,24,25,0,1,2,3,4,5,6,7,8,9,10,11,12,13,14,15,16,17,18,19,20,21,22,23,24,25,0,1,2,3,4,5,6,7,8,9,10,11,12,13,14,15,16,17,18,19,20,21,22,23,24,25,0,1,2,3,4,5,6,7,8,9,10,11,12,13,14,15,16,17,18,19,20,21,22,23,24,25,0,1,2,3,4,5,6,7,8,9,10,11,12,13,14,15,16,17,18,19,20,21,22,23,24,25,0,1,2,3,4,5,6,7,8,9,10,11,12,13,14,15,16,17,18,19,20,21,22,23,24,25,0,1,2,3,4,5,6,7,8,9,10,11,12,13,14,15,16,17,18,19,20,21,22,23,24,25,0,1,2,3,4,5,6,7,8,9,10,11,12,13,14,15,16,17,18,19,20,21,22,23,24,25,0,1,2,3,4,5,6,7,8,9,10,11,12,13,14,15,16,17,18,19,20,21,22,23,24,25,0,1,2,3,4,5,6,7,8,9,10,11,12,13,14,15,16,17,18,19,20,21,22,23,24,25,0,1,2,3,4,5,6,7,8,9,10,11,12,13,14,15,16,17,18,19,20,21,22,23,24,25,0,1,2,3,4,5,6,7,8,9,10,11,12,13,14,15,16,17,18,19,20,21,22,23,24,25,0,1,2,3,4,5,6,7,8,9,10,11,12,13,14,15,16,17,18,19,20,21,22,23,24,25,0,1,2,3,4,5,6,7,8,9,10,11,12,13,14,15,16,17,18,19,20,21,22,23,24,25,0,1,2,3,4,5,6,7,8,9,10,11,12,13,14,15,16,17,18,19,20,21,22,23,24,25,0,1,2,3,4,5,6,7,8,9,10,11,12,13,14,15,16,17,18,19,20,21,22,23,24,25,0,1,2,3,4,5,6,7,8,9,10,11,12,13,14,15,16,17,18,19,20,21,22,23,24,25,0,1,2,3,4,5,6,7,8,9,10,11,12,13,14,15,16,17,18,19,20,21,22,23,24,25,0,1,2,3,4,5,6,7,8,9,10,11,12,13,14,15,16,17,18,19,20,21,22,23,24,25,0,1,2,3,4,5,6,7,8,9,10,11,12,13,14,15,16,17,18,19,20,21,22,23,24,25,0,1,2,3,4,5,6,7,8,9,10,11,12,13,14,15,16,17,18,19,20,21,22,23,24,25,0,1,2,3,4,5,6,7,8,9,10,11,12,13,14,15,16,17,18,19,20,21,22,23,24,25,0,1,2,3,4,5,6,7,8,9,10,11,12,13,14,15,16,17,18,19,20,21,22,23,24,25,0,1,2,3,4,5,6,7,8,9,10,11,12,13,14,15,16,17,18,19,20,21,22,23,24,25,0,1,2,3,4,5,6,7,8,9,10,11,12,13,14,15,16,17,18,19,20,21,22,23,24,25,0,1,2,3,4,5,6,7,8,9,10,11,12,13,14,15,16,17,18,19,20,21,22,23,24,25,0,1,2,3,4,5,6,7,8,9,10,11,12,13,14,15,16,17,18,19,20,21,22,23,24,25,0,1,2,3,4,5,6,7,8,9,10,11,12,13,14,15,16,17,18,19,20,21,22,23,24,25,0,1,2,3,4,5,6,7,8,9,10,11,12,13,14,15,16,17,18,19,20,21,22,23,24,25,0,1,2,3,4,5,6,7,8,9,10,11,12,13,14,15,16,17,18,19,20,21,22,23,24,25,0,1,2,3,4,5,6,7,8,9,10,11,12,13,14,15,16,17,18,19,20,21,22,23,24,25,0,1,2,3,4,5,6,7,8,9,10,11,12,13,14,15,16,17,18,19,20,21,22,23,24,25,0,1,2,3,4,5,6,7,8,9,10,11,12,13,14,15,16,17,18,19,20,21,22,23,24,25,0,1,2,3,4,5,6,7,8,9,10,11,12,13,14,15,16,17,18,19,20,21,22,23,24,25,0,1,2,3,4,5,6,7,8,9,10,11,12,13,14,15,16,17,18,19,20,21,22,23,24,25,0,1,2,3,4,5,6,7,8,9,10,11,12,13,14,15,16,17,18,19,20,21,22,23,24,25,0,1,2,3,4,5,6,7,8,9,10,11,12,13,14,15,16,17,18,19,20,21,22,23,24,25,0,1,2,3,4,5,6,7,8,9,10,11,12,13,14,15,16,17,18,19,20,21,22,23,24,25,0,1,2,3,4,5,6,7,8,9,10,11,12,13,14,15,16,17,18,19,20,21,22,23,24,25,0,1,2,3,4,5,6,7,8,9,10,11,12,13,14,15,16,17,18,19,20,21,22,23,24,25,0,1,2,3,4,5,6,7,8,9,10,11,12,13,14,15,16,17,18,19,20,21,22,23,24,25,0,1,2,3,4,5,6,7,8,9,10,11,12,13,14,15,16,17,18,19,20,21,22,23,24,25],"trees":[{"base_weights":[1.0714701E-1,-3.1994945E-1,7.3300476E0,4.355392E-1,-5.1862624E-2,1.03887005E1,1.4657384E0,2.6561654E0,-3.523259E-1,1.1554783E1,-3.3262264E-2,-2.1720585E-1,5.03367E0,8.237463E0,5.476295E-1,-4.4349682E-1,1.6195285E0,1.2093023E-1,1.2165115E0,1.049156E-1,-4.2170025E-2,-2.7349232E-2,7.595326E-1,-3.1633835E-2,1.067267E0,-2.2125978E-3,5.630814E-1,-1.4966259E-2,-5.1107276E-2,-3.1026253E-2,3.1744185E-1,-3.464956E-2,7.1802326E-2],"categories":[],"categories_nodes":[],"categories_segments":[],"categories_sizes":[],"default_left":[0,0,0,0,0,0,0,0,0,0,0,0,0,0,0,0,0,0,0,0,0,0,0,0,0,0,0,0,0,0,0,0,0],"id":0,"left_children":[1,3,5,7,-1,9,11,13,15,17,-1,19,21,23,25,27,29,-1,-1,31,-1,-1,-1,-1,-1,-1,-1,-1,-1,-1,-1,-1,-1],"loss_changes":[1.5592764E3,7.189459E1,4.9093286E2,1.758291E2,0E0,2.3364966E2,6.616718E1,3.0494824E2,1.4141871E1,9.014551E1,0E0,5.9246194E-1,4.9861313E1,1.5208453E2,5.8502163E1,1.356205E0,1.1531436E1,0E0,0E0,1.3648535E0,0E0,0E0,0E0,0E0,0E0,0E0,0E0,0E0,0E0,0E0,0E0,0E0,0E0],"parents":[2147483647,0,0,1,1,2,2,3,3,5,5,6,6,7,7,8,8,9,9,11,11,12,12,13,13,14,14,15,15,16,16,19,19],"right_children":[2,4,6,8,-1,10,12,14,16,18,-1,20,22,24,26,28,30,-1,-1,32,-1,-1,-1,-1,-1,-1,-1,-1,-1,-1,-1,-1,-1],"split_conditions":[1.03E2,2.2E1,-8.19781E0,-9.523434E0,-5.1862624E-2,2.9E1,1.23E2,1.94255E-1,1E2,1.1E2,-3.3262264E-2,-1.63712E-1,-1.2E1,-6.65205E-1,8.875872E0,1.470389E0,-3E0,1.2093023E-1,1.2165115E0,9.6E1,-4.2170025E-2,-2.7349232E-2,7.595326E-1,-3.1633835E-2,1.067267E0,-2.2125978E-3,5.630814E-1,-1.4966259E-2,-5.1107276E-2,-3.1026253E-2,3.1744185E-1,-3.464956E-2,7.1802326E-2],"split_indices":[2,0,6,6,0,0,4,8,2,4,0,10,0,5,8,7,0,0,0,3,0,0,0,0,0,0,0,0,0,0,0,0,0],"split_type":[0,0,0,0,0,0,0,0,0,0,0,0,0,0,0,0,0,0,0,0,0,0,0,0,0,0,0,0,0,0,0,0,0],"sum_hessian":[5.0369824E2,4.764793E2,2.7218935E1,9.89645E1,3.775148E2,1.7381657E1,9.837278E0,2.5295858E1,7.366864E1,1.5606509E1,1.7751479E0,7.3224854E0,2.514793E0,6.1390533E0,1.9156805E1,7.115385E1,2.514793E0,1.035503E0,1.4571006E1,3.0325444E0,4.289941E0,1.1094675E0,1.4053255E0,1.5532545E0,4.5857987E0,1.8121302E1,1.035503E0,1.3905326E1,5.7248524E1,1.47929E0,1.035503E0,1.9970415E0,1.035503E0],"tree_param":{"num_deleted":"0","num_feature":"11","num_nodes":"33","size_leaf_vector":"1"}},{"base_weights":[-1.5835817E-1,1.0719737E1,-4.985459E-1,1.2052609E0,-3.220721E-2,2.6747527E0,-5.1893454E-2,4.648256E-1,-2.8964614E-2],"categories":[],"categories_nodes":[],"categories_segments":[],"categories_sizes":[],"default_left":[0,0,0,0,0,0,0,0,0],"id":1,"left_children":[1,3,5,-1,-1,7,-1,-1,-1],"loss_changes":[1.8730278E3,2.2977942E2,3.311325E1,0E0,0E0,2.0610634E1,0E0,0E0,0E0],"parents":[2147483647,0,0,1,1,2,2,5,5],"right_children":[2,4,6,-1,-1,8,-1,-1,-1],"split_conditions":[-1.4E1,1E1,-1.3E1,1.2052609E0,-3.220721E-2,5.8E1,-5.1893454E-2,4.648256E-1,-2.8964614E-2],"split_indices":[4,1,4,0,0,1,0,0,0],"split_type":[0,0,0,0,0,0,0,0,0],"sum_hessian":[5.0369824E2,1.43491125E1,4.8934912E2,1.2721894E1,1.627219E0,2.2928994E0,4.870562E2,1.035503E0,1.2573965E0],"tree_param":{"num_deleted":"0","num_feature":"11","num_nodes":"9","size_leaf_vector":"1"}},{"base_weights":[-2.0392996E-1,2.052044E0,-5.18828E-2,9.923106E0,-5.0910898E-2,-3.720539E-2,1.1981219E0],"categories":[],"categories_nodes":[],"categories_segments":[],"categories_sizes":[],"default_left":[0,0,0,0,0,0,0],"id":2,"left_children":[1,3,-1,5,-1,-1,-1],"loss_changes":[3.5960318E2,1.2553271E3,0E0,3.2811682E2,0E0,0E0,0E0],"parents":[2147483647,0,0,1,1,3,3],"right_children":[2,4,-1,6,-1,-1,-1],"split_conditions":[-2.690729E0,5E1,-5.18828E-2,1.1E1,-5.0910898E-2,-3.720539E-2,1.1981219E0],"split_indices":[5,3,0,1,0,0,0],"split_type":[0,0,0,0,0,0,0],"sum_hessian":[5.0369824E2,6.102071E1,4.4267752E2,1.4275148E1,4.6745564E1,2.514793E0,1.1760355E1],"tree_param":{"num_deleted":"0","num_feature":"11","num_nodes":"7","size_leaf_vector":"1"}},{"base_weights":[-2.653528E-1,4.1796035E-1,-5.1858958E-2,-3.5552067E-1,5.141939E0,3.1279554E0,-4.8083973E-1,9.585858E0,-4.652972E-2,-3.5465665E-2,6.837307E-1,-5.153519E-2,4.7334194E-1,-3.3262264E-2,1.1565459E0,-3.720539E-2,1.7005813E-1],"categories":[],"categories_nodes":[],"categories_segments":[],"categories_sizes":[],"default_left":[0,0,0,0,0,0,0,0,0,0,0,0,0,0,0,0,0],"id":3,"left_children":[1,3,-1,5,7,9,11,13,-1,-1,-1,-1,15,-1,-1,-1,-1],"loss_changes":[8.754973E1,5.0248914E2,0E0,5.3312233E1,4.8645605E2,5.738471E1,4.04492E0,2.1663275E2,0E0,0E0,0E0,0E0,5.3536544E0,0E0,0E0,0E0,0E0],"parents":[2147483647,0,0,1,1,3,3,4,4,5,5,6,6,7,7,12,12],"right_children":[2,4,-1,6,8,10,12,14,-1,-1,-1,-1,16,-1,-1,-1,-1],"split_conditions":[5.3E1,3.8E1,-5.1858958E-2,-1.89368E-1,1.6E1,1.1E1,3.5E1,4.4E1,-4.652972E-2,-3.5465665E-2,6.837307E-1,-5.153519E-2,3.4E1,-3.3262264E-2,1.1565459E0,-3.720539E-2,1.7005813E-1],"split_indices":[4,4,0,8,1,1,4,2,0,0,0,0,0,0,0,0,0],"split_type":[0,0,0,0,0,0,0,0,0,0,0,0,0,0,0,0,0],"sum_hessian":[5.0369824E2,1.360207E2,3.6767752E2,1.1767752E2,1.8343195E1,3.254438E0,1.1442308E2,9.837278E0,8.505918E0,2.1449704E0,1.1094675E0,1.1087279E2,3.5502958E0,1.7751479E0,8.06213E0,2.514793E0,1.035503E0],"tree_param":{"num_deleted":"0","num_feature":"11","num_nodes":"17","size_leaf_vector":"1"}},{"base_weights":[-6.9195986E-2,1.0237781E1,-4.6758386E-1,1.2184484E0,-3.8613863E-2,2.8129828E0,-5.1891714E-2,8.437175E-1,-4.304636E-2],"categories":[],"categories_nodes":[],"categories_segments":[],"categories_sizes":[],"default_left":[0,0,0,0,0,0,0,0,0],"id":4,"left_children":[1,3,5,-1,-1,7,-1,-1,-1],"loss_changes":[2.077166E3,3.940454E2,8.3450226E1,0E0,0E0,1.4330553E2,0E0,0E0,0E0],"parents":[2147483647,0,0,1,1,2,2,5,5],"right_children":[2,4,6,-1,-1,8,-1,-1,-1],"split_conditions":[-4.474578E0,-9.63111E-1,-4.10728E0,1.2184484E0,-3.8613863E-2,-2.791228E0,-5.1891714E-2,8.437175E-1,-4.304636E-2],"split_indices":[5,7,5,0,0,7,0,0,0],"split_type":[0,0,0,0,0,0,0,0,0],"sum_hessian":[5.0369824E2,1.7825445E1,4.858728E2,1.4940828E1,2.8846154E0,6.656805E0,4.79216E2,1.8491125E0,4.8076925E0],"tree_param":{"num_deleted":"0","num_feature":"11","num_nodes":"9","size_leaf_vector":"1"}},{"base_weights":[1.09128386E-1,5.2691884E0,-5.0557166E-1,1.5092437E0,1.1051736E1,6.789988E-1,-5.1883787E-2,4.478894E-2,6.8246036E0,-2.1665503E-9,1.2163237E0,-4.0188175E-2,2.6831394E-1,1.9335827E0,-4.965278E-2,9.06144E0,-3.274918E-2,-4.1887227E-2,6.588076E-1,2.5708276E-1,1.0095836E0],"categories":[],"categories_nodes":[],"categories_segments":[],"categories_sizes":[],"default_left":[0,0,0,0,0,0,0,0,0,0,0,0,0,0,0,0,0,0,0,0,0],"id":5,"left_children":[1,3,5,7,9,11,-1,13,15,-1,-1,-1,-1,17,-1,19,-1,-1,-1,-1,-1],"loss_changes":[1.6035106E3,1.1532745E3,7.4536057E0,2.625345E2,2.5850952E2,1.2858018E1,0E0,2.9055885E1,1.1954523E2,0E0,0E0,0E0,0E0,7.20199E1,0E0,1.1547638E1,0E0,0E0,0E0,0E0,0E0],"parents":[2147483647,0,0,1,1,2,2,3,3,4,4,5,5,7,7,8,8,13,13,15,15],"right_children":[2,4,6,8,10,12,-1,14,16,-1,-1,-1,-1,18,-1,20,-1,-1,-1,-1,-1],"split_conditions":[-2E0,6.697511E0,2E0,9.71276E-1,1E1,-1.239482E0,-5.1883787E-2,-1.9548E-2,1.969293E0,-2.1665503E-9,1.2163237E0,-4.0188175E-2,2.6831394E-1,-6.109E-3,-4.965278E-2,6.1E1,-3.274918E-2,-4.1887227E-2,6.588076E-1,2.5708276E-1,1.0095836E0],"split_indices":[4,7,4,8,1,6,0,10,5,0,0,0,0,9,0,1,0,0,0,0,0],"split_type":[0,0,0,0,0,0,0,0,0,0,0,0,0,0,0,0,0,0,0,0,0],"sum_hessian":[5.0369824E2,5.2810654E1,4.5088757E2,3.2766273E1,2.0044378E1,4.43787E0,4.464497E2,2.647929E1,6.2869825E0,1.923077E0,1.8121302E1,3.4023669E0,1.035503E0,5.3254437E0,2.1153847E1,4.5857987E0,1.7011834E0,4.142012E0,1.183432E0,1.1094675E0,3.4763315E0],"tree_param":{"num_deleted":"0","num_feature":"11","num_nodes":"21","size_leaf_vector":"1"}},{"base_weights":[-2.3959483E-1,2.8089235E0,-5.102668E-1,-3.9258942E-1,8.641345E0,4.6697564E-2,-5.145553E-1,-5.00225E-2,9.898477E-2,-1.5640482E-1,1.1087448E1,-2.4638614E-1,-5.1885623E-2,-3.5465665E-2,2.2674417E-2,4.1264915E-1,1.1703069E0,-4.56388E-2,7.1802326E-2],"categories":[],"categories_nodes":[],"categories_segments":[],"categories_sizes":[],"default_left":[0,0,0,0,0,0,0,0,0,0,0,0,0,0,0,0,0,0,0],"id":6,"left_children":[1,3,5,7,9,-1,11,-1,-1,13,15,17,-1,-1,-1,-1,-1,-1,-1],"loss_changes":[4.1788422E2,7.747687E2,2.1865082E0,4.6060615E0,3.177246E2,0E0,4.0597534E-1,0E0,0E0,3.97965E-1,1.0009766E0,2.1929898E0,0E0,0E0,0E0,0E0,0E0,0E0,0E0],"parents":[2147483647,0,0,1,1,2,2,3,3,4,4,6,6,9,9,10,10,11,11],"right_children":[2,4,6,8,10,-1,12,-1,-1,14,16,18,-1,-1,-1,-1,-1,-1,-1],"split_conditions":[-1.1E1,-1.9E1,-1E1,-2.3E1,7.7E1,4.6697564E-2,-8E0,-5.00225E-2,9.898477E-2,5.7E1,-1.5882E-2,3.482754E0,-5.1885623E-2,-3.5465665E-2,2.2674417E-2,4.1264915E-1,1.1703069E0,-4.56388E-2,7.1802326E-2],"split_indices":[0,0,0,0,4,0,0,0,0,2,8,7,0,0,0,0,0,0,0],"split_type":[0,0,0,0,0,0,0,0,0,0,0,0,0,0,0,0,0,0,0],"sum_hessian":[5.0369824E2,4.0310654E1,4.6338757E2,2.662722E1,1.3683433E1,1.5532545E0,4.6183432E2,2.5295858E1,1.3313609E0,3.1804736E0,1.0502959E1,8.210059E0,4.5362427E2,2.1449704E0,1.035503E0,1.47929E0,9.023669E0,7.1745563E0,1.035503E0],"tree_param":{"num_deleted":"0","num_feature":"11","num_nodes":"19","size_leaf_vector":"1"}},{"base_weights":[5.1668312E-2,-4.4527367E-1,7.8293867E0,-4.7008407E-1,1.9148445E0,-3.9036086E-1,1.2338053E0,-4.947303E-1,2.4759655E-1,5.630814E-1,-3.9337177E-2,2.2674417E-2,-4.7135346E-2,-4.9905282E-1,5.2767523E-2,5.630814E-1,-4.859578E-2,-3.8387343E-2,-5.1865127E-2],"categories":[],"categories_nodes":[],"categories_segments":[],"categories_sizes":[],"default_left":[0,0,0,0,0,0,0,0,0,0,0,0,0,0,0,0,0,0,0],"id":7,"left_children":[1,3,5,7,9,11,-1,13,15,-1,-1,-1,-1,17,-1,-1,-1,-1,-1],"loss_changes":[1.9541826E3,2.873359E1,1.1301058E3,8.456993E0,4.631938E1,6.928961E-1,0E0,2.2780533E0,6.714518E1,0E0,0E0,0E0,0E0,8.268051E-1,0E0,0E0,0E0,0E0,0E0],"parents":[2147483647,0,0,1,1,2,2,3,3,4,4,5,5,7,7,8,8,13,13],"right_children":[2,4,6,8,10,12,-1,14,16,-1,-1,-1,-1,18,-1,-1,-1,-1,-1],"split_conditions":[9.409776E0,8.612965E0,3.8E1,2.460565E0,5.6E1,1.2E1,1.2338053E0,1.41E2,3.2E1,5.630814E-1,-3.9337177E-2,2.2674417E-2,-4.7135346E-2,1E0,5.2767523E-2,5.630814E-1,-4.859578E-2,-3.8387343E-2,-5.1865127E-2],"split_indices":[5,5,4,9,1,0,0,4,2,0,0,0,0,0,0,0,0,0,0],"split_type":[0,0,0,0,0,0,0,0,0,0,0,0,0,0,0,0,0,0,0],"sum_hessian":[5.0369824E2,4.7433432E2,2.9363907E1,4.7019232E2,4.142012E0,1.0724853E1,1.8639053E1,4.5488168E2,1.5310651E1,1.035503E0,3.106509E0,1.035503E0,9.689349E0,4.5347635E2,1.4053255E0,1.035503E0,1.4275148E1,6.893491E1,3.8454144E2],"tree_param":{"num_deleted":"0","num_feature":"11","num_nodes":"19","size_leaf_vector":"1"}},{"base_weights":[-1.8213476E-1,2.7147856E0,-5.1664674E-1,-5.0694495E-2,1.1968614E0,-2.1665503E-9,-5.1884796E-2],"categories":[],"categories_nodes":[],"categories_segments":[],"categories_sizes":[],"default_left":[0,0,0,0,0,0,0],"id":8,"left_children":[1,3,5,-1,-1,-1,-1],"loss_changes":[4.9048276E2,1.5684451E3,5.155029E-1,0E0,0E0,0E0,0E0],"parents":[2147483647,0,0,1,1,2,2],"right_children":[2,4,6,-1,-1,-1,-1],"split_conditions":[-3E0,7.5E1,-1E0,-5.0694495E-2,1.1968614E0,-2.1665503E-9,-5.1884796E-2],"split_indices":[4,3,4,0,0,0,0],"split_type":[0,0,0,0,0,0,0],"sum_hessian":[5.0369824E2,5.1405327E1,4.522929E2,3.8831364E1,1.2573965E1,1.923077E0,4.5036984E2],"tree_param":{"num_deleted":"0","num_feature":"11","num_nodes":"7","size_leaf_vector":"1"}},{"base_weights":[1.3884912E-1,-3.7711307E-1,5.1533437E0,-4.0928954E-1,4.3014703E0,1.0764382E1,-4.987293E-2,-4.387312E-1,1.3058035E0,6.837307E-1,-2.7349232E-2,-3.835404E-2,1.2282175E0,-4.6467006E-1,1.2157506E0,6.613372E-1,-4.4482466E-2,-2.2676293E-2,-5.1855773E-2,-4.269068E-2,4.2454955E-1],"categories":[],"categories_nodes":[],"categories_segments":[],"categories_sizes":[],"default_left":[0,0,0,0,0,0,0,0,0,0,0,0,0,0,0,0,0,0,0,0,0],"id":9,"left_children":[1,3,5,7,9,11,-1,13,15,-1,-1,-1,-1,17,19,-1,-1,-1,-1,-1,-1],"loss_changes":[1.307744E3,7.0789955E1,1.5008053E3,2.3615112E1,3.9213966E1,4.0584058E2,0E0,1.9849945E1,7.683459E1,0E0,0E0,0E0,0E0,5.563835E0,3.771041E1,0E0,0E0,0E0,0E0,0E0,0E0],"parents":[2147483647,0,0,1,1,2,2,3,3,4,4,5,5,7,7,8,8,13,13,14,14],"right_children":[2,4,6,8,10,12,-1,14,16,-1,-1,-1,-1,18,20,-1,-1,-1,-1,-1,-1],"split_conditions":[6.375676E0,4.162436E0,4.3E1,1.1274981E1,3.7E1,-8.553144E0,-4.987293E-2,5.505885E0,4.5E1,6.837307E-1,-2.7349232E-2,-3.835404E-2,1.2282175E0,3.2E1,-1.0094122E1,6.613372E-1,-4.4482466E-2,-2.2676293E-2,-5.1855773E-2,-4.269068E-2,4.2454955E-1],"split_indices":[5,9,4,7,0,6,0,5,0,0,0,0,0,4,6,0,0,0,0,0,0],"split_type":[0,0,0,0,0,0,0,0,0,0,0,0,0,0,0,0,0,0,0,0,0],"sum_hessian":[5.0369824E2,4.575444E2,4.6153847E1,4.5532547E2,2.218935E0,2.2707102E1,2.3446747E1,4.483728E2,6.952663E0,1.1094675E0,1.1094675E0,2.810651E0,1.989645E1,4.4215976E2,6.213018E0,1.035503E0,5.91716E0,8.261835E1,3.5954144E2,4.5857987E0,1.627219E0],"tree_param":{"num_deleted":"0","num_feature":"11","num_nodes":"21","size_leaf_vector":"1"}},{"base_weights":[7.3463514E-2,1.2927945E0,-4.7270525E-1,4.986895E0,-4.2234918E-1,2.1127471E-1,-4.9484113E-1,8.607399E-2,1.0479843E1,8.810086E-1,-5.148628E-2,3.02214E-1,-4.6924632E-2,-1.2111803E-1,-4.976082E-1,-3.2192403E-1,1.782372E0,-3.421053E-2,1.1464271E1,-4.3967094E-2,4.648256E-1,-3.3262264E-2,2.2674417E-2,-4.175589E-1,-5.110939E-1,-4.952903E-2,1.1087419E-1,3.55684E-1,-3.655536E-2,1.2071025E0,-2.645349E-2,-5.1014688E-2,2.0967741E-1,-3.728404E-2,-5.180512E-2],"categories":[],"categories_nodes":[],"categories_segments":[],"categories_sizes":[],"default_left":[0,0,0,0,0,0,0,0,0,0,0,0,0,0,0,0,0,0,0,0,0,0,0,0,0,0,0,0,0,0,0,0,0,0,0],"id":10,"left_children":[1,3,5,7,9,11,13,15,17,19,-1,-1,-1,21,23,25,27,-1,29,-1,-1,-1,-1,31,33,-1,-1,-1,-1,-1,-1,-1,-1,-1,-1],"loss_changes":[3.367202E2,9.930394E2,5.3931046E0,1.3361753E3,1.3443596E1,2.3704563E1,2.8993988E-1,1.943826E1,2.5333179E2,3.940281E1,0E0,0E0,0E0,3.5578674E-1,1.4912415E-1,6.2090597E0,2.2026247E1,0E0,1.5611401E2,0E0,0E0,0E0,0E0,1.3613841E1,7.901001E-2,0E0,0E0,0E0,0E0,0E0,0E0,0E0,0E0,0E0,0E0],"parents":[2147483647,0,0,1,1,2,2,3,3,4,4,5,5,6,6,7,7,8,8,9,9,13,13,14,14,15,15,16,16,18,18,23,23,24,24],"right_children":[2,4,6,8,10,12,14,16,18,20,-1,-1,-1,22,24,26,28,-1,30,-1,-1,-1,-1,32,34,-1,-1,-1,-1,-1,-1,-1,-1,-1,-1],"split_conditions":[3.4E1,4.9E1,3.8E1,6.9E1,6E1,8E0,3.9E1,6.6E1,1.6E1,6.2E1,-5.148628E-2,3.02214E-1,-4.6924632E-2,5.572884E0,4E0,6.723832E0,4E0,-3.421053E-2,9.5E1,-4.3967094E-2,4.648256E-1,-3.3262264E-2,2.2674417E-2,8E0,-1.52716E-1,-4.952903E-2,1.1087419E-1,3.55684E-1,-3.655536E-2,1.2071025E0,-2.645349E-2,-5.1014688E-2,2.0967741E-1,-3.728404E-2,-5.180512E-2],"split_indices":[0,2,0,3,2,1,0,4,2,3,0,0,0,7,1,6,1,0,3,0,0,0,0,2,8,0,0,0,0,0,0,0,0,0,0],"split_type":[0,0,0,0,0,0,0,0,0,0,0,0,0,0,0,0,0,0,0,0,0,0,0,0,0,0,0,0,0,0,0,0,0,0,0],"sum_hessian":[5.0369824E2,1.5539941E2,3.4829883E2,4.866864E1,1.06730774E2,1.06508875E1,3.3764795E2,2.6257397E1,2.2411243E1,6.508876E0,1.0022189E2,1.4053255E0,9.245563E0,2.810651E0,3.3483728E2,2.1819527E1,4.43787E0,1.923077E0,2.0488167E1,5.473373E0,1.035503E0,1.7751479E0,1.035503E0,5.2884617E1,2.8195267E2,2.0044378E1,1.7751479E0,2.071006E0,2.366864E0,1.9452663E1,1.035503E0,5.177515E1,1.1094675E0,1.612426E1,2.658284E2],"tree_param":{"num_deleted":"0","num_feature":"11","num_nodes":"35","size_leaf_vector":"1"}},{"base_weights":[6.553798E-2,1.0452069E1,-5.043138E-1,-4.0188175E-2,1.2082708E1,2.2766498E-1,-5.1682055E-2,3.1744185E-1,1.2359501E0],"categories":[],"categories_nodes":[],"categories_segments":[],"categories_sizes":[],"default_left":[0,0,0,0,0,0,0,0,0],"id":11,"left_children":[1,3,5,-1,7,-1,-1,-1,-1],"loss_changes":[2.992471E3,4.702627E2,1.7850624E1,0E0,1.7215332E1,0E0,0E0,0E0,0E0],"parents":[2147483647,0,0,1,1,2,2,4,4],"right_children":[2,4,6,-1,8,-1,-1,-1,-1],"split_conditions":[-2.3E1,-4.613362E0,-1.9E1,-4.0188175E-2,6E1,2.2766498E-1,-5.1682055E-2,3.1744185E-1,1.2359501E0],"split_indices":[0,6,0,0,2,0,0,0,0],"split_type":[0,0,0,0,0,0,0,0,0],"sum_hessian":[5.0369824E2,2.5295858E1,4.7840237E2,3.4023669E0,2.1893492E1,1.3313609E0,4.77071E2,1.035503E0,2.0857988E1],"tree_param":{"num_deleted":"0","num_feature":"11","num_nodes":"9","size_leaf_vector":"1"}},{"base_weights":[8.9314565E-2,-3.9829302E-1,4.5792804E0,-4.9435684E-1,4.4991484E-1,1.0262574E1,4.403267E-1,-3.624075E-1,-5.1849056E-2,2.8260868E0,-2.3808771E-1,1.1359736E1,-3.421053E-2,3.4749272E0,-4.9792793E-2,-4.5910534E-1,2.3580132E-1,-2.6477894E-1,5.5791945E0,2.4252605E-1,-4.2157513E-1,2.2674417E-2,1.1992382E0,5.456292E0,-3.655536E-2,8.609268E-3,-5.1018815E-2,-3.4948558E-2,2.6831394E-1,-4.1103538E-2,1.7615175E-2,8.9046854E-1,-3.464956E-2,-5.0355542E-2,1.6455693E-2,-2.9695434E-2,7.7687013E-1],"categories":[],"categories_nodes":[],"categories_segments":[],"categories_sizes":[],"default_left":[0,0,0,0,0,0,0,0,0,0,0,0,0,0,0,0,0,0,0,0,0,0,0,0,0,0,0,0,0,0,0,0,0,0,0,0,0],"id":12,"left_children":[1,3,5,7,9,11,13,15,-1,17,19,21,-1,23,-1,25,27,29,31,-1,33,-1,-1,35,-1,-1,-1,-1,-1,-1,-1,-1,-1,-1,-1,-1,-1],"loss_changes":[1.1067808E3,3.7392723E1,1.1603513E3,1.1184845E0,7.73978E1,2.4615698E2,8.628789E1,3.9697027E0,0E0,9.180874E1,1.9258698E1,1.3039355E2,0E0,5.6318436E1,0E0,1.6537981E0,1.5189625E1,4.5647615E-1,1.1461575E2,0E0,1.8013363E0,0E0,0E0,6.579549E1,0E0,0E0,0E0,0E0,0E0,0E0,0E0,0E0,0E0,0E0,0E0,0E0,0E0],"parents":[2147483647,0,0,1,1,2,2,3,3,4,4,5,5,6,6,7,7,9,9,10,10,11,11,13,13,15,15,16,16,17,17,18,18,20,20,23,23],"right_children":[2,4,6,8,10,12,14,16,-1,18,20,22,-1,24,-1,26,28,30,32,-1,34,-1,-1,36,-1,-1,-1,-1,-1,-1,-1,-1,-1,-1,-1,-1,-1],"split_conditions":[1.22E2,1.03E2,-5.10868E-1,3E1,-7.75275E-1,1.11E2,3.21835E-1,8E0,-5.1849056E-2,1.279152E0,5.9E1,7.9E1,-3.421053E-2,1.47E2,-4.9792793E-2,4.171886E0,7.9E1,1.5882E-2,7.7E1,2.4252605E-1,1.19E2,2.2674417E-2,1.1992382E0,8.8E1,-3.655536E-2,8.609268E-3,-5.1018815E-2,-3.4948558E-2,2.6831394E-1,-4.1103538E-2,1.7615175E-2,8.9046854E-1,-3.464956E-2,-5.0355542E-2,1.6455693E-2,-2.9695434E-2,7.7687013E-1],"split_indices":[0,0,5,3,5,4,5,2,0,8,3,4,0,0,0,7,0,9,2,0,0,0,0,1,0,0,0,0,0,0,0,0,0,0,0,0,0],"split_type":[0,0,0,0,0,0,0,0,0,0,0,0,0,0,0,0,0,0,0,0,0,0,0,0,0,0,0,0,0,0,0,0,0,0,0,0,0],"sum_hessian":[5.0369824E2,4.5517752E2,4.852071E1,4.0924557E2,4.5931953E1,1.9822485E1,2.8698225E1,6.575444E1,3.4349112E2,9.615385E0,3.631657E1,1.7899408E1,1.923077E0,6.1390533E0,2.2559172E1,5.6804733E1,8.949704E0,4.9556212E0,4.6597633E0,1.5532545E0,3.4763313E1,1.035503E0,1.6863905E1,3.7721894E0,2.366864E0,4.8076925E0,5.1997044E1,7.9142013E0,1.035503E0,3.7721894E0,1.183432E0,2.6627219E0,1.9970415E0,3.0621302E1,4.142012E0,1.3313609E0,2.4408286E0],"tree_param":{"num_deleted":"0","num_feature":"11","num_nodes":"37","size_leaf_vector":"1"}},{"base_weights":[9.129595E-2,-2.7251044E-1,1.7380712E0,7.1190596E-1,-4.7490934E-1,-3.5833383E-1,4.4732842E0,4.0550103E0,1.6476077E-1,1.0842648E0,-4.8921767E-1,1.2967848E0,-4.697131E-1,-4.939151E-2,9.013924E0,4.427244E-1,7.24844E0,-3.4947893E-1,2.109058E0,2.1918605E-1,-3.0381305E-2,-4.9776006E-1,2.4120277E-1,-3.1026253E-2,2.5708276E-1,-5.0892014E-2,8.280252E-2,-3.780291E-2,1.04118595E1,1.581081E-1,-3.9337177E-2,8.801242E-1,1.7749077E-1,-4.44522E-2,7.552973E-2,-1.7765274E-2,4.2840907E-1,-5.148899E-2,-3.6357187E-2,1.2093023E-1,-3.7510306E-2,7.1802326E-2,-3.5465665E-2,1.094345E0,3.1036034E-1],"categories":[],"categories_nodes":[],"categories_segments":[],"categories_sizes":[],"default_left":[0,0,0,0,0,0,0,0,0,0,0,0,0,0,0,0,0,0,0,0,0,0,0,0,0,0,0,0,0,0,0,0,0,0,0,0,0,0,0,0,0,0,0,0,0],"id":13,"left_children":[1,3,5,7,9,11,13,15,17,19,21,23,25,-1,27,29,31,33,35,-1,-1,37,39,-1,-1,-1,41,-1,43,-1,-1,-1,-1,-1,-1,-1,-1,-1,-1,-1,-1,-1,-1,-1,-1],"loss_changes":[3.0284207E2,8.2873184E1,5.2603687E2,1.2928368E2,8.2091675E0,1.0324364E1,9.011509E2,1.1156656E2,6.2821495E1,5.955946E0,2.252449E0,8.145422E0,1.1277018E0,0E0,2.7732178E2,6.0791745E0,2.8710815E1,5.582084E0,6.606625E1,0E0,0E0,5.900345E-1,3.2126567E0,0E0,0E0,0E0,1.4163347E0,0E0,3.6586304E1,0E0,0E0,0E0,0E0,0E0,0E0,0E0,0E0,0E0,0E0,0E0,0E0,0E0,0E0,0E0,0E0],"parents":[2147483647,0,0,1,1,2,2,3,3,4,4,5,5,6,6,7,7,8,8,9,9,10,10,11,11,12,12,14,14,15,15,16,16,17,17,18,18,21,21,22,22,26,26,28,28],"right_children":[2,4,6,8,10,12,14,16,18,20,22,24,26,-1,28,30,32,34,36,-1,-1,38,40,-1,-1,-1,42,-1,44,-1,-1,-1,-1,-1,-1,-1,-1,-1,-1,-1,-1,-1,-1,-1,-1],"split_conditions":[9.9E1,-9.310472E0,1.05E2,3.1E1,-2.864958E0,-4.190536E0,6.7E1,1.3E1,7.6E1,8.6E1,8.87465E0,9.6E1,1.07E2,-4.939151E-2,-1.294517E0,1E0,2.011168E0,8.87465E0,9.9E1,2.1918605E-1,-3.0381305E-2,7.269395E0,1.04E2,-3.1026253E-2,2.5708276E-1,-5.0892014E-2,1.1E2,-3.780291E-2,3.823731E0,1.581081E-1,-3.9337177E-2,8.801242E-1,1.7749077E-1,-4.44522E-2,7.552973E-2,-1.7765274E-2,4.2840907E-1,-5.148899E-2,-3.6357187E-2,1.2093023E-1,-3.7510306E-2,7.1802326E-2,-3.5465665E-2,1.094345E0,3.1036034E-1],"split_indices":[1,6,4,2,10,10,0,0,0,1,8,4,3,0,7,2,5,8,4,0,0,6,0,0,0,0,1,0,5,0,0,0,0,0,0,0,0,0,0,0,0,0,0,0,0],"split_type":[0,0,0,0,0,0,0,0,0,0,0,0,0,0,0,0,0,0,0,0,0,0,0,0,0,0,0,0,0,0,0,0,0,0,0,0,0,0,0,0,0,0,0,0,0],"sum_hessian":[5.0369824E2,4.1323965E2,9.045858E1,7.004438E1,3.4319528E2,5.1701183E1,3.8757397E1,8.949704E0,6.1094677E1,2.4408286E0,3.4075446E2,2.5887575E0,4.9112427E1,1.8934912E1,1.9822485E1,4.733728E0,4.215976E0,4.8964497E1,1.21301775E1,1.035503E0,1.4053255E0,3.371302E2,3.6242604E0,1.47929E0,1.1094675E0,4.5931953E1,3.1804736E0,2.6627219E0,1.7159763E1,1.627219E0,3.106509E0,2.810651E0,1.4053255E0,4.5636097E1,3.3284025E0,6.360947E0,5.769231E0,2.964497E2,4.0680473E1,1.035503E0,2.5887575E0,1.035503E0,2.1449704E0,1.5532545E1,1.627219E0],"tree_param":{"num_deleted":"0","num_feature":"11","num_nodes":"45","size_leaf_vector":"1"}},{"base_weights":[8.3370425E-2,1.2559475E0,-4.8615977E-1,-1.3559183E-1,9.277622E0,-3.558102E-2,-5.1836293E-2,-3.6562312E-1,1.6478872E0,-4.414656E-2,1.2203206E0,-4.5206928E-1,3.8536283E-1,-4.702305E-1,3.5826766E-1,-4.7234274E-2,4.967093E0,-4.95027E-2,7.5318636E-3,1.0028417E-2,-5.0547183E-2,3.0420873E-1,-3.4022797E-2,8.801242E-1,-3.780291E-2],"categories":[],"categories_nodes":[],"categories_segments":[],"categories_sizes":[],"default_left":[0,0,0,0,0,0,0,0,0,0,0,0,0,0,0,0,0,0,0,0,0,0,0,0,0],"id":14,"left_children":[1,3,5,7,9,11,-1,13,15,-1,-1,17,-1,19,21,-1,23,-1,-1,-1,-1,-1,-1,-1,-1],"loss_changes":[3.376572E2,1.8461378E3,4.921112E0,5.8788456E1,7.0050586E2,4.0262917E1,0E0,9.743338E0,1.1765257E2,0E0,0E0,5.442157E-1,0E0,2.2806396E0,3.2027515E1,0E0,1.3599242E2,0E0,0E0,0E0,0E0,0E0,0E0,0E0,0E0],"parents":[2147483647,0,0,1,1,2,2,3,3,4,4,5,5,7,7,8,8,11,11,13,13,14,14,16,16],"right_children":[2,4,6,8,10,12,-1,14,16,-1,-1,18,-1,20,22,-1,24,-1,-1,-1,-1,-1,-1,-1,-1],"split_conditions":[6.8E1,8.6E1,7.3E1,4.8E1,3.9E1,1.05E2,-5.1836293E-2,3.4E1,5.4E1,-4.414656E-2,1.2203206E0,6.99901E-1,3.8536283E-1,-1E1,9.49951E-1,-4.7234274E-2,7.7E1,-4.95027E-2,7.5318636E-3,1.0028417E-2,-5.0547183E-2,3.0420873E-1,-3.4022797E-2,8.801242E-1,-3.780291E-2],"split_indices":[4,0,4,4,2,0,0,4,1,0,0,5,0,0,5,0,3,0,0,0,0,0,0,0,0],"split_type":[0,0,0,0,0,0,0,0,0,0,0,0,0,0,0,0,0,0,0,0,0,0,0,0,0],"sum_hessian":[5.0369824E2,1.6427515E2,3.394231E2,1.408284E2,2.3446747E1,2.2781065E1,3.1664203E2,1.2544379E2,1.5384616E1,5.621302E0,1.7825445E1,2.137574E1,1.4053255E0,1.0991125E2,1.5532545E1,9.9112425E0,5.473373E0,1.9822485E1,1.5532545E0,6.2869825E0,1.0362426E2,2.514793E0,1.3017752E1,2.810651E0,2.6627219E0],"tree_param":{"num_deleted":"0","num_feature":"11","num_nodes":"25","size_leaf_vector":"1"}},{"base_weights":[4.7705546E-2,3.7587926E0,-3.0452943E-1,1.0196959E1,-3.568301E-1,3.9312937E0,-4.1465142E-1,-3.6688637E-2,1.1664823E0,-5.004993E-2,1.7005813E-1,1.031746E0,-4.546131E-2,7.421481E-1,-4.590378E-1,2.0056099E-2,-2.645349E-2,7.908459E-1,-4.8644524E-2,-4.9481097E-1,3.7872198E-1,-5.186833E-2,-7.625112E-3,4.4968554E-1,-4.876793E-2],"categories":[],"categories_nodes":[],"categories_segments":[],"categories_sizes":[],"default_left":[0,0,0,0,0,0,0,0,0,0,0,0,0,0,0,0,0,0,0,0,0,0,0,0,0],"id":15,"left_children":[1,3,5,7,9,11,13,15,-1,-1,-1,-1,-1,17,19,-1,-1,-1,-1,21,23,-1,-1,-1,-1],"loss_changes":[6.608735E2,1.1648842E3,2.1707408E2,2.5766174E2,9.03924E0,3.3516504E2,2.350158E1,2.230613E-1,0E0,0E0,0E0,0E0,0E0,1.5396606E2,1.3224762E1,0E0,0E0,0E0,0E0,4.1335297E0,6.777796E1,0E0,0E0,0E0,0E0],"parents":[2147483647,0,0,1,1,2,2,3,3,4,4,5,5,6,6,7,7,13,13,14,14,19,19,20,20],"right_children":[2,4,6,8,10,12,14,16,-1,-1,-1,-1,-1,18,20,-1,-1,-1,-1,22,24,-1,-1,-1,-1],"split_conditions":[-1.1149357E1,5.4E1,-5.365905E0,4.1E1,1.28E2,1.6E1,-3.201597E0,4.2E1,1.1664823E0,-5.004993E-2,1.7005813E-1,1.031746E0,-4.546131E-2,3.7E1,3.123965E0,2.0056099E-2,-2.645349E-2,7.908459E-1,-4.8644524E-2,1.27E2,3.271794E0,-5.186833E-2,-7.625112E-3,4.4968554E-1,-4.876793E-2],"split_indices":[6,2,7,4,4,1,7,1,0,0,0,0,0,2,9,0,0,0,0,4,9,0,0,0,0],"split_type":[0,0,0,0,0,0,0,0,0,0,0,0,0,0,0,0,0,0,0,0,0,0,0,0,0],"sum_hessian":[5.0369824E2,4.2825443E1,4.608728E2,1.612426E1,2.6701183E1,1.0798817E1,4.5007397E2,2.1449704E0,1.397929E1,2.5665682E1,1.035503E0,3.846154E0,6.952663E0,1.6050297E1,4.3402368E2,1.1094675E0,1.035503E0,1.5532545E0,1.4497042E1,4.1664203E2,1.7381657E1,3.9393494E2,2.2707102E1,2.2928994E0,1.50887575E1],"tree_param":{"num_deleted":"0","num_feature":"11","num_nodes":"25","size_leaf_vector":"1"}},{"base_weights":[-1.8213476E-1,4.4301972E0,-4.581274E-1,1.1862541E0,-4.913653E-2,2.1315439E0,-5.1888645E-2,8.866415E-1,-4.6214618E-2],"categories":[],"categories_nodes":[],"categories_segments":[],"categories_sizes":[],"default_left":[0,0,0,0,0,0,0,0,0],"id":16,"left_children":[1,3,5,-1,-1,7,-1,-1,-1],"loss_changes":[6.4449524E2,1.0515698E3,7.617727E1,0E0,0E0,1.9857309E2,0E0,0E0,0E0],"parents":[2147483647,0,0,1,1,2,2,5,5],"right_children":[2,4,6,-1,-1,8,-1,-1,-1],"split_conditions":[-3.711268E0,-2.799603E0,-1.4869001E1,1.1862541E0,-4.913653E-2,-3.32722E0,-5.1888645E-2,8.866415E-1,-4.6214618E-2],"split_indices":[7,5,6,0,0,5,0,0,0],"split_type":[0,0,0,0,0,0,0,0,0],"sum_hessian":[5.0369824E2,2.7588758E1,4.7610947E2,1.0428994E1,1.7159763E1,1.0133137E1,4.6597635E2,2.1449704E0,7.988166E0],"tree_param":{"num_deleted":"0","num_feature":"11","num_nodes":"9","size_leaf_vector":"1"}},{"base_weights":[5.5631075E-2,1.6180506E0,-4.9719238E-1,2.784764E-1,5.3567114E0,7.525408E-1,-5.1858645E-2,-3.0665368E-1,1.8687137E0,-3.466314E-1,9.00306E0,3.6656976E-1,-4.281234E-2,-4.9367088E-1,3.8666168E-1,2.2321306E-1,8.339216E0,-4.814815E-2,7.1802326E-2,1.1751155E0,5.229531E-1,-5.1069465E-2,1.3499459E-3,-4.8385773E-2,5.006756E-1,-4.859578E-2,1.5572916E-1,1.5501355E-1,9.8903036E-1,-4.1103538E-2,2.1097851E-1],"categories":[],"categories_nodes":[],"categories_segments":[],"categories_sizes":[],"default_left":[0,0,0,0,0,0,0,0,0,0,0,0,0,0,0,0,0,0,0,0,0,0,0,0,0,0,0,0,0,0,0],"id":17,"left_children":[1,3,5,7,9,11,-1,13,15,17,19,-1,-1,21,23,25,27,-1,-1,-1,29,-1,-1,-1,-1,-1,-1,-1,-1,-1,-1],"loss_changes":[4.3673364E2,6.6028894E2,1.0378059E1,9.2075455E1,7.2687146E2,2.4597473E1,0E0,9.623213E0,2.8126633E2,2.4325595E0,4.894469E2,0E0,0E0,5.053377E-1,6.683217E1,2.1786278E1,4.1153107E1,0E0,0E0,0E0,1.0132406E1,0E0,0E0,0E0,0E0,0E0,0E0,0E0,0E0,0E0,0E0],"parents":[2147483647,0,0,1,1,2,2,3,3,4,4,5,5,7,7,8,8,9,9,10,10,13,13,14,14,15,15,16,16,20,20],"right_children":[2,4,6,8,10,12,-1,14,16,18,20,-1,-1,22,24,26,28,-1,-1,-1,30,-1,-1,-1,-1,-1,-1,-1,-1,-1,-1],"split_conditions":[1.4E1,4E0,-3.70184E-1,7.89632E-1,5.9E1,3.9E1,-5.1858645E-2,6E0,8.6E1,8.3E1,1E2,3.6656976E-1,-4.281234E-2,3E0,1E1,8E0,5E0,-4.814815E-2,7.1802326E-2,1.1751155E0,7.873583E0,-5.1069465E-2,1.3499459E-3,-4.8385773E-2,5.006756E-1,-4.859578E-2,1.5572916E-1,1.5501355E-1,9.8903036E-1,-4.1103538E-2,2.1097851E-1],"split_indices":[2,2,8,5,3,2,0,1,0,4,4,0,0,2,3,3,1,0,0,0,7,0,0,0,0,0,0,0,0,0,0],"split_type":[0,0,0,0,0,0,0,0,0,0,0,0,0,0,0,0,0,0,0,0,0,0,0,0,0,0,0,0,0,0,0],"sum_hessian":[5.0369824E2,1.3113905E2,3.7255917E2,9.733728E1,3.3801777E1,5.6952662E0,3.6686392E2,7.174557E1,2.5591717E1,1.3535503E1,2.0266273E1,1.035503E0,4.6597633E0,5.673077E1,1.5014793E1,2.1227812E1,4.3639054E0,1.25E1,1.035503E0,1.5014793E1,5.2514796E0,5.4881657E1,1.8491125E0,1.3387574E1,1.627219E0,1.4275148E1,6.952663E0,1.183432E0,3.1804736E0,3.7721894E0,1.47929E0],"tree_param":{"num_deleted":"0","num_feature":"11","num_nodes":"31","size_leaf_vector":"1"}},{"base_weights":[1.99662E-2,8.0485735E0,-2.3138933E-1,-4.281234E-2,1.1783836E0,-4.068688E-1,2.7821672E0,-4.9764094E-1,5.828459E-1,-4.8440665E-2,6.1111107E0,6.896278E-1,-5.0695163E-1,-3.803255E-1,4.358656E0,2.484909E-1,9.403021E0,1.7005813E-1,-3.274918E-2,-3.3110783E-2,-5.1620107E-2,-4.7054294E-2,8.198198E-2,-3.8613863E-2,7.0567214E-1,-4.0931992E-2,1.5501355E-1,1.0826367E0,5.9633024E-2],"categories":[],"categories_nodes":[],"categories_segments":[],"categories_sizes":[],"default_left":[0,0,0,0,0,0,0,0,0,0,0,0,0,0,0,0,0,0,0,0,0,0,0,0,0,0,0,0,0],"id":18,"left_children":[1,3,5,-1,-1,7,9,11,13,-1,15,17,19,21,23,25,27,-1,-1,-1,-1,-1,-1,-1,-1,-1,-1,-1,-1],"loss_changes":[1.02036096E3,4.9103906E2,2.6043707E2,0E0,0E0,4.1996666E1,2.9775513E2,5.0562744E0,1.4516954E2,0E0,2.5820282E2,4.3992143E0,5.171509E-1,3.8896108E0,1.0642676E2,5.6705866E0,1.01574524E2,0E0,0E0,0E0,0E0,0E0,0E0,0E0,0E0,0E0,0E0,0E0,0E0],"parents":[2147483647,0,0,1,1,2,2,5,5,6,6,7,7,8,8,10,10,11,11,12,12,13,13,14,14,15,15,16,16],"right_children":[2,4,6,-1,-1,8,10,12,14,-1,16,18,20,22,24,26,28,-1,-1,-1,-1,-1,-1,-1,-1,-1,-1,-1,-1],"split_conditions":[-4.494917E0,2.3E1,8.875872E0,-4.281234E-2,1.1783836E0,1.07E2,-2.61206E0,-3.2E1,1.11E2,-4.8440665E-2,9.8E1,8.1E1,-1.9E1,7.331609E0,1.146162E0,2.136791E0,1.15E2,1.7005813E-1,-3.274918E-2,-3.3110783E-2,-5.1620107E-2,-4.7054294E-2,8.198198E-2,-3.8613863E-2,7.0567214E-1,-4.0931992E-2,1.5501355E-1,1.0826367E0,5.9633024E-2],"split_indices":[7,1,8,0,0,1,10,0,0,0,3,3,0,7,5,5,4,0,0,0,0,0,0,0,0,0,0,0,0],"split_type":[0,0,0,0,0,0,0,0,0,0,0,0,0,0,0,0,0,0,0,0,0,0,0,0,0,0,0,0,0],"sum_hessian":[5.0369824E2,1.43491125E1,4.8934912E2,4.6597633E0,9.689349E0,4.6323965E2,2.6109468E1,4.247781E2,3.846154E1,1.36094675E1,1.25E1,2.7366865E0,4.2204144E2,3.1360947E1,7.1005917E0,4.881657E0,7.6183434E0,1.035503E0,1.7011834E0,2.2928995E1,3.9911243E2,2.9733728E1,1.627219E0,2.8846154E0,4.215976E0,3.698225E0,1.183432E0,6.360947E0,1.2573965E0],"tree_param":{"num_deleted":"0","num_feature":"11","num_nodes":"29","size_leaf_vector":"1"}},{"base_weights":[4.7705546E-2,4.2860928E0,-1.2767307E-1,8.477939E0,-1.9070026E-1,1.2330338E0,-4.900164E-1,1.113122E0,-3.655536E-2,1.2093023E-1,-4.6613548E-2,3.0965106E0,-2.8429958E-1,-5.1853824E-2,-1.2917799E-1,5.2280027E-1,9.610756E0,3.680147E0,-5.105698E-2,-4.9879346E-2,1.4143069E0,5.791469E-1,-3.6967434E-2,1.0667773E0,5.2767523E-2,5.8892006E-1,-2.7349232E-2,5.1395345E-1,-4.143115E-2],"categories":[],"categories_nodes":[],"categories_segments":[],"categories_sizes":[],"default_left":[0,0,0,0,0,0,0,0,0,0,0,0,0,0,0,0,0,0,0,0,0,0,0,0,0,0,0,0,0],"id":19,"left_children":[1,3,5,7,9,11,13,-1,-1,-1,-1,15,17,-1,19,21,23,25,-1,-1,27,-1,-1,-1,-1,-1,-1,-1,-1],"loss_changes":[3.7570084E2,3.784918E2,2.400335E2,2.4794476E2,4.6856184E0,2.90433E2,3.8872223E0,0E0,0E0,0E0,0E0,7.6694543E2,5.3333813E1,0E0,1.7521572E1,1.623063E2,1.1901318E2,2.9724182E1,0E0,0E0,4.2699184E1,0E0,0E0,0E0,0E0,0E0,0E0,0E0,0E0],"parents":[2147483647,0,0,1,1,2,2,3,3,4,4,5,5,6,6,11,11,12,12,14,14,15,15,16,16,17,17,20,20],"right_children":[2,4,6,8,10,12,14,-1,-1,-1,-1,16,18,-1,20,22,24,26,-1,-1,28,-1,-1,-1,-1,-1,-1,-1,-1],"split_conditions":[-3.411072E0,9.7E1,-9.237493E0,1.506282E0,1.02E2,7.657E-2,1.02E2,1.113122E0,-3.655536E-2,1.2093023E-1,-4.6613548E-2,1.11E2,-4.92357E-1,-5.1853824E-2,8.07458E0,1.5E1,1.01E2,6.6E1,-5.105698E-2,-4.9879346E-2,2.95659E-1,5.791469E-1,-3.6967434E-2,1.0667773E0,5.2767523E-2,5.8892006E-1,-2.7349232E-2,5.1395345E-1,-4.143115E-2],"split_indices":[10,1,6,5,1,5,3,0,0,0,0,4,9,0,7,1,1,0,0,0,8,0,0,0,0,0,0,0,0],"split_type":[0,0,0,0,0,0,0,0,0,0,0,0,0,0,0,0,0,0,0,0,0,0,0,0,0,0,0,0,0],"sum_hessian":[5.0369824E2,1.908284E1,4.846154E2,9.393492E0,9.689349E0,1.0140533E2,3.8321008E2,7.0266275E0,2.366864E0,1.035503E0,8.653847E0,4.504438E1,5.6360947E1,3.5473373E2,2.8476332E1,3.306213E1,1.1982249E1,2.218935E0,5.4142014E1,2.352071E1,4.9556212E0,3.994083E0,2.9068048E1,1.0576923E1,1.4053255E0,1.1094675E0,1.1094675E0,1.035503E0,3.9201183E0],"tree_param":{"num_deleted":"0","num_feature":"11","num_nodes":"29","size_leaf_vector":"1"}},{"base_weights":[9.72401E-2,2.303432E0,-4.739005E-1,3.6288008E-1,5.2815433E0,-1.3984208E-1,-5.1298606E-1,8.351969E-2,6.3312566E-1,1.0300757E1,-4.443135E-1,-4.598602E-1,5.1668596E-1,-3.3733648E-1,-5.1849928E-2,3.1712437E0,-1.0794017E-1,4.3918915E-2,1.1072243E1,-4.926996E-2,2.2674417E-2,-5.0667275E-2,1.2871285E-1,-4.790112E-2,6.746142E-2,6.1220926E-1,-3.220721E-2,9.102536E-2,-4.0219728E-2,1.5501355E-1,1.1582478E0,7.1802326E-2,-3.37487E-2],"categories":[],"categories_nodes":[],"categories_segments":[],"categories_sizes":[],"default_left":[0,0,0,0,0,0,0,0,0,0,0,0,0,0,0,0,0,0,0,0,0,0,0,0,0,0,0,0,0,0,0,0,0],"id":20,"left_children":[1,3,5,7,9,11,13,15,-1,17,19,21,-1,23,-1,25,27,-1,29,-1,-1,-1,31,-1,-1,-1,-1,-1,-1,-1,-1,-1,-1],"loss_changes":[6.3703455E2,5.9887866E2,5.1737213E0,1.0620979E2,1.1811876E3,7.617415E1,1.7301941E-1,3.7094864E1,0E0,1.6143384E2,7.638037E-1,1.2197342E0,0E0,2.3010302E0,0E0,3.9728004E1,1.8194714E1,0E0,8.033716E1,0E0,0E0,0E0,1.3095689E0,0E0,0E0,0E0,0E0,0E0,0E0,0E0,0E0,0E0,0E0],"parents":[2147483647,0,0,1,1,2,2,3,3,4,4,5,5,6,6,7,7,9,9,10,10,11,11,13,13,15,15,16,16,18,18,22,22],"right_children":[2,4,6,8,10,12,14,16,-1,18,20,22,-1,24,-1,26,28,-1,30,-1,-1,-1,32,-1,-1,-1,-1,-1,-1,-1,-1,-1,-1],"split_conditions":[6E0,9.3E1,8E0,8.9E1,9E0,9.9E1,1.4E1,-1.297478E0,6.3312566E-1,6.7E1,9.8E1,9.1E1,5.1668596E-1,1.12E2,-5.1849928E-2,1E0,5E0,4.3918915E-2,0E0,-4.926996E-2,2.2674417E-2,-5.0667275E-2,8.2E1,-4.790112E-2,6.746142E-2,6.1220926E-1,-3.220721E-2,9.102536E-2,-4.0219728E-2,1.5501355E-1,1.1582478E0,7.1802326E-2,-3.37487E-2],"split_indices":[1,4,2,3,2,4,2,10,0,3,0,4,0,4,0,2,0,0,1,0,0,0,0,0,0,0,0,0,0,0,0,0,0],"split_type":[0,0,0,0,0,0,0,0,0,0,0,0,0,0,0,0,0,0,0,0,0,0,0,0,0,0,0,0,0,0,0,0,0],"sum_hessian":[5.0369824E2,1.0295858E2,4.0073965E2,6.3017754E1,3.994083E1,4.2455624E1,3.5828403E2,6.116864E1,1.8491125E0,2.0857988E1,1.908284E1,4.0902367E1,1.5532545E0,1.2795858E1,3.454882E2,2.6627219E0,5.850592E1,1.627219E0,1.923077E1,1.8047338E1,1.035503E0,3.8017754E1,2.8846154E0,1.1686391E1,1.1094675E0,1.035503E0,1.627219E0,1.2647929E1,4.585799E1,1.183432E0,1.8047338E1,1.035503E0,1.8491125E0],"tree_param":{"num_deleted":"0","num_feature":"11","num_nodes":"33","size_leaf_vector":"1"}},{"base_weights":[6.553798E-2,1.2069671E0,-3.5721597E-1,2.3817317E0,-4.2064667E-1,-3.389711E-1,7.7515525E-1,3.2802668E-1,-4.8263496E-1,-4.4935692E-2,2.2674417E-2,-4.0625E-1,1.3232957E0,8.716666E-2,-5.069858E-1,-4.9537685E-2,7.1802326E-2,5.4692E-1,5.9943862E-2,1.8571427E-1,-4.856249E-2,-5.1870704E-2,-2.7965996E-2],"categories":[],"categories_nodes":[],"categories_segments":[],"categories_sizes":[],"default_left":[0,0,0,0,0,0,0,0,0,0,0,0,0,0,0,0,0,0,0,0,0,0,0],"id":21,"left_children":[1,-1,3,5,7,9,-1,11,13,-1,-1,15,17,19,21,-1,-1,-1,-1,-1,-1,-1,-1],"loss_changes":[2.5655515E3,0E0,8.587059E1,1.6635977E2,2.2355408E1,6.2622154E-1,0E0,2.7700537E1,6.1787186E0,0E0,0E0,2.5755727E0,4.478263E1,2.0137602E1,9.851227E-1,0E0,0E0,0E0,0E0,0E0,0E0,0E0,0E0],"parents":[2147483647,0,0,2,2,3,3,4,4,5,5,7,7,8,8,11,11,12,12,13,13,14,14],"right_children":[2,-1,4,6,8,10,-1,12,14,-1,-1,16,18,20,22,-1,-1,-1,-1,-1,-1,-1,-1],"split_conditions":[-1.3E1,1.2069671E0,0E0,5.9E1,3E0,1E0,7.7515525E-1,-7.5747E-2,-2.10138E-1,-4.4935692E-2,2.2674417E-2,1.09E2,-5.22901E-1,-2.99103E-1,7.493124E0,-4.9537685E-2,7.1802326E-2,5.4692E-1,5.9943862E-2,1.8571427E-1,-4.856249E-2,-5.1870704E-2,-2.7965996E-2],"split_indices":[2,0,1,3,1,3,0,10,8,0,0,4,9,5,6,0,0,0,0,0,0,0,0],"split_type":[0,0,0,0,0,0,0,0,0,0,0,0,0,0,0,0,0,0,0,0,0,0,0],"sum_hessian":[5.0369824E2,1.6198225E1,4.875E2,1.0207101E1,4.772929E2,7.39645E0,2.810651E0,3.616864E1,4.4112427E2,6.360947E0,1.035503E0,2.1153847E1,1.5014793E1,1.7973373E1,4.231509E2,2.0118343E1,1.035503E0,1.2573965E0,1.3757397E1,3.846154E0,1.4127219E1,4.0118344E2,2.1967457E1],"tree_param":{"num_deleted":"0","num_feature":"11","num_nodes":"23","size_leaf_vector":"1"}},{"base_weights":[1.99662E-2,5.701754E0,-4.609742E-1,-4.956329E-2,1.232013E0,-8.931921E-2,-5.16253E-2,-5.1000684E-2,1.9957899E0,7.230009E-1,-3.3572453E-1,-4.4790816E-2,2.2674417E-2],"categories":[],"categories_nodes":[],"categories_segments":[],"categories_sizes":[],"default_left":[0,0,0,0,0,0,0,0,0,0,0,0,0],"id":22,"left_children":[1,3,5,-1,-1,7,-1,-1,9,-1,11,-1,-1],"loss_changes":[1.3817673E3,1.6246858E3,9.532562E0,0E0,0E0,5.503189E1,0E0,0E0,1.3107117E2,0E0,6.2204015E-1,0E0,0E0],"parents":[2147483647,0,0,1,1,2,2,5,5,8,8,10,10],"right_children":[2,4,6,-1,-1,8,-1,-1,10,-1,12,-1,-1],"split_conditions":[1E0,1.8E1,5.4E1,-4.956329E-2,1.232013E0,6.071788E0,-5.16253E-2,-5.1000684E-2,-1.228714E0,7.230009E-1,7.3E1,-4.4790816E-2,2.2674417E-2],"split_indices":[3,4,3,0,0,6,0,0,5,0,4,0,0],"split_type":[0,0,0,0,0,0,0,0,0,0,0,0,0],"sum_hessian":[5.0369824E2,3.846154E1,4.652367E2,2.0340237E1,1.8121302E1,6.0576923E1,4.0465976E2,5.1035503E1,9.54142E0,2.2928994E0,7.248521E0,6.213018E0,1.035503E0],"tree_param":{"num_deleted":"0","num_feature":"11","num_nodes":"13","size_leaf_vector":"1"}},{"base_weights":[8.077909E-3,-1.1785224E-1,4.262772E0,-4.516079E-1,6.570949E-1,-4.611781E-2,9.863455E0,-4.8801312E-1,3.2421944E-1,-3.8791436E-1,2.4633138E0,1.0703084E0,2.6831394E-1,-5.183195E-2,-5.641576E-3,-4.8367094E-2,4.4852135E-1,-5.140497E-2,9.7110635E-1,6.9916143E0,2.8667495E-1,-4.9148142E-2,2.7481616E-1,3.8743508E-1,-4.4057842E-2,-4.423332E-2,1.0572561E0,-5.0222494E-2,2.665843E-1],"categories":[],"categories_nodes":[],"categories_segments":[],"categories_sizes":[],"default_left":[0,0,0,0,0,0,0,0,0,0,0,0,0,0,0,0,0,0,0,0,0,0,0,0,0,0,0,0,0],"id":23,"left_children":[1,3,5,7,9,-1,11,13,15,17,19,-1,-1,-1,21,-1,-1,-1,23,25,27,-1,-1,-1,-1,-1,-1,-1,-1],"loss_changes":[2.709168E2,1.2733256E2,3.8911966E2,9.871368E0,2.8080484E2,0E0,1.1646545E1,4.8050156E0,5.6005127E1,1.6747635E1,5.349403E2,0E0,0E0,0E0,2.871444E1,0E0,0E0,0E0,3.611952E1,4.7431683E2,7.235105E1,0E0,0E0,0E0,0E0,0E0,0E0,0E0,0E0],"parents":[2147483647,0,0,1,1,2,2,3,3,4,4,6,6,7,7,8,8,9,9,10,10,14,14,18,18,19,19,20,20],"right_children":[2,4,6,8,10,-1,12,14,16,18,20,-1,-1,-1,22,-1,-1,-1,24,26,28,-1,-1,-1,-1,-1,-1,-1,-1],"split_conditions":[2.267532E0,1.846063E0,7.215557E0,1.03114E0,6.503692E0,-4.611781E-2,6E1,9.8E1,8.877372E0,2.289931E0,-5.430511E0,1.0703084E0,2.6831394E-1,-5.183195E-2,7.356733E0,-4.8367094E-2,4.4852135E-1,-5.140497E-2,5.724828E0,-7.952547E0,2.7E1,-4.9148142E-2,2.7481616E-1,3.8743508E-1,-4.4057842E-2,-4.423332E-2,1.0572561E0,-5.0222494E-2,2.665843E-1],"split_indices":[10,5,7,9,7,0,1,2,7,6,6,0,0,0,7,0,0,0,7,6,1,0,0,0,0,0,0,0,0],"split_type":[0,0,0,0,0,0,0,0,0,0,0,0,0,0,0,0,0,0,0,0,0,0,0,0,0,0,0,0,0],"sum_hessian":[5.0369824E2,4.9016272E2,1.3535503E1,3.428994E2,1.4726332E2,7.8402367E0,5.6952662E0,3.278846E2,1.5014793E1,9.378699E1,5.3476334E1,4.6597633E0,1.035503E0,3.0843195E2,1.9452663E1,1.331361E1,1.7011834E0,8.639053E1,7.39645E0,1.6642012E1,3.683432E1,1.7233728E1,2.218935E0,1.8491125E0,5.5473375E0,5.6952662E0,1.0946746E1,2.8254438E1,8.579882E0],"tree_param":{"num_deleted":"0","num_feature":"11","num_nodes":"29","size_leaf_vector":"1"}},{"base_weights":[8.138904E-2,2.7328935E0,-5.1873904E-2,-3.385827E-1,8.975031E0,-4.784264E-1,1.9306929E0,1.2134775E0,-4.6017703E-2,-5.1127225E-2,7.1802326E-2,3.8401082E-1,-3.274918E-2],"categories":[],"categories_nodes":[],"categories_segments":[],"categories_sizes":[],"default_left":[0,0,0,0,0,0,0,0,0,0,0,0,0],"id":24,"left_children":[1,3,-1,5,7,9,11,-1,-1,-1,-1,-1,-1],"loss_changes":[8.045149E2,1.7919874E3,0E0,2.1075035E1,9.240493E2,2.7491922E0,1.8007336E1,0E0,0E0,0E0,0E0,0E0,0E0],"parents":[2147483647,0,0,1,1,3,3,4,4,5,5,6,6],"right_children":[2,4,-1,6,8,10,12,-1,-1,-1,-1,-1,-1],"split_conditions":[1.1E1,8E1,-5.1873904E-2,4.195815E0,4.8E1,5.7E1,7.274181E0,1.2134775E0,-4.6017703E-2,-5.1127225E-2,7.1802326E-2,3.8401082E-1,-3.274918E-2],"split_indices":[0,1,0,5,4,1,5,0,0,0,0,0,0],"split_type":[0,0,0,0,0,0,0,0,0,0,0,0,0],"sum_hessian":[5.0369824E2,9.230769E1,4.1139053E2,6.25E1,2.9807693E1,5.9615387E1,2.8846154E0,2.2115385E1,7.692308E0,5.8579884E1,1.035503E0,1.183432E0,1.7011834E0],"tree_param":{"num_deleted":"0","num_feature":"11","num_nodes":"13","size_leaf_vector":"1"}},{"base_weights":[4.7705546E-2,1.0156283E0,-4.728102E-1,-4.5710668E-1,5.7029967E0,2.2653785E-1,-5.025202E-1,4.8785273E-2,-5.1571976E-2,-1.5169226E-2,1.1782069E0,-4.7877084E-2,3.7231502E-1,-3.106698E-1,-5.1820952E-2,2.0967741E-1,-2.6621163E-1,-4.95027E-2,3.3237907E-1,2.1918605E-1,-4.994745E-2,3.0737132E-2,-4.710145E-2],"categories":[],"categories_nodes":[],"categories_segments":[],"categories_sizes":[],"default_left":[0,0,0,0,0,0,0,0,0,0,0,0,0,0,0,0,0,0,0,0,0,0,0],"id":25,"left_children":[1,3,5,7,9,11,13,15,-1,17,-1,-1,-1,19,-1,-1,21,-1,-1,-1,-1,-1,-1],"loss_changes":[2.5475679E2,1.2231958E3,6.9472733E0,4.0420265E0,1.4721796E3,3.65354E1,7.8954315E-1,1.0221477E1,0E0,3.82074E1,0E0,0E0,0E0,1.3554239E1,0E0,0E0,1.7740842E0,0E0,0E0,0E0,0E0,0E0,0E0],"parents":[2147483647,0,0,1,1,2,2,3,3,4,4,5,5,6,6,7,7,9,9,13,13,16,16],"right_children":[2,4,6,8,10,12,14,16,-1,18,-1,-1,-1,20,-1,-1,22,-1,-1,-1,-1,-1,-1],"split_conditions":[1E1,5.5E1,-1.31947E-1,1.7E1,3.2E1,-1.44164E-1,1.4E1,-1.77151E-1,-5.1571976E-2,5E0,1.1782069E0,-4.7877084E-2,3.7231502E-1,-3.77515E-1,-5.1820952E-2,2.0967741E-1,-2.07694E-1,-4.95027E-2,3.3237907E-1,2.1918605E-1,-4.994745E-2,3.0737132E-2,-4.710145E-2],"split_indices":[1,2,8,0,0,8,1,8,0,0,0,0,0,9,0,0,10,0,0,0,0,0,0],"split_type":[0,0,0,0,0,0,0,0,0,0,0,0,0,0,0,0,0,0,0,0,0,0,0],"sum_hessian":[5.0369824E2,1.7581361E2,3.278846E2,1.3446745E2,4.1346153E1,1.3091717E1,3.147929E2,1.397929E1,1.2048817E2,2.1819527E1,1.9526628E1,1.1612427E1,1.47929E0,2.5369823E1,2.894231E2,1.1094675E0,1.28698225E1,1.9822485E1,1.9970415E0,1.035503E0,2.433432E1,3.254438E0,9.615385E0],"tree_param":{"num_deleted":"0","num_feature":"11","num_nodes":"23","size_leaf_vector":"1"}},{"base_weights":[9.974508E-2,-3.302594E-1,3.2069745E0,1.1032712E0,-4.2466962E-1,-3.2266435E-1,3.6438713E0,4.087315E0,-4.9098387E-2,2.2112072E-2,-5.1686343E-2,-4.419261E-2,2.3423575E-2,-4.101761E-2,3.9512696E0,4.356732E-1,1.10627174E-1,-5.067208E-2,7.4217254E-1,4.1743618E-1,-3.678315E-2,-4.9836133E-2,5.326225E-1],"categories":[],"categories_nodes":[],"categories_segments":[],"categories_sizes":[],"default_left":[0,0,0,0,0,0,0,0,0,0,0,0,0,0,0,0,0,0,0,0,0,0,0],"id":26,"left_children":[1,3,5,7,9,11,13,15,-1,17,-1,-1,-1,-1,19,-1,-1,-1,21,-1,-1,-1,-1],"loss_changes":[6.789777E2,6.091197E1,9.643475E1,1.3460907E2,1.7300377E1,6.1642957E-1,7.022467E1,3.0617218E0,0E0,2.8080801E1,0E0,0E0,0E0,0E0,5.0931458E1,0E0,0E0,0E0,1.8015508E2,0E0,0E0,0E0,0E0],"parents":[2147483647,0,0,1,1,2,2,3,3,4,4,5,5,6,6,7,7,9,9,14,14,18,18],"right_children":[2,4,6,8,10,12,14,16,-1,18,-1,-1,-1,-1,20,-1,-1,-1,22,-1,-1,-1,-1],"split_conditions":[1.02E2,-1.8E1,1.09E2,-9.723235E0,2.2E1,5.413761E0,7.9E1,2.3E1,-4.9098387E-2,3.2E1,-5.1686343E-2,-4.419261E-2,2.3423575E-2,-4.101761E-2,4E1,4.356732E-1,1.10627174E-1,-5.067208E-2,4.8E1,4.1743618E-1,-3.678315E-2,-4.9836133E-2,5.326225E-1],"split_indices":[2,0,4,6,0,5,1,3,0,1,0,0,0,0,0,0,0,0,4,0,0,0,0],"split_type":[0,0,0,0,0,0,0,0,0,0,0,0,0,0,0,0,0,0,0,0,0,0,0],"sum_hessian":[5.0637744E2,4.4560464E2,6.07728E1,2.687327E1,4.1873138E2,6.7226596E0,5.405014E1,8.813271E0,1.806E1,7.175561E1,3.4697577E2,5.7069535E0,1.0157062E0,3.7859335E0,5.0264206E1,7.6595473E0,1.1537232E0,4.154215E1,3.0213455E1,4.782732E1,2.4368887E0,2.447998E1,5.7334757E0],"tree_param":{"num_deleted":"0","num_feature":"11","num_nodes":"23","size_leaf_vector":"1"}},{"base_weights":[-1.5109028E-1,3.746168E0,-5.171966E-2,4.0865245E-1,-3.9426383E-2],"categories":[],"categories_nodes":[],"categories_segments":[],"categories_sizes":[],"default_left":[0,0,0,0,0],"id":27,"left_children":[1,3,-1,-1,-1],"loss_changes":[7.0350433E2,6.128485E1,0E0,0E0,0E0],"parents":[2147483647,0,0,1,1],"right_children":[2,4,-1,-1,-1],"split_conditions":[-1.3E1,1.1E1,-5.171966E-2,4.0865245E-1,-3.9426383E-2],"split_indices":[4,1,0,0,0],"split_type":[0,0,0,0,0],"sum_hessian":[4.9070276E2,4.134512E1,4.4935764E2,3.8216614E1,3.128506E0],"tree_param":{"num_deleted":"0","num_feature":"11","num_nodes":"5","size_leaf_vector":"1"}},{"base_weights":[-1.9573936E-1,1.4431002E0,-5.1709175E-2,3.6888452E0,-5.06455E-2,-3.644472E-2,3.9717358E-1],"categories":[],"categories_nodes":[],"categories_segments":[],"categories_sizes":[],"default_left":[0,0,0,0,0,0,0],"id":28,"left_children":[1,3,-1,5,-1,-1,-1],"loss_changes":[2.582921E2,3.540301E2,0E0,4.444519E1,0E0,0E0,0E0],"parents":[2147483647,0,0,1,1,3,3],"right_children":[2,4,-1,6,-1,-1,-1],"split_conditions":[-2.690729E0,5E1,-5.1709175E-2,1.1E1,-5.06455E-2,-3.644472E-2,3.9717358E-1],"split_indices":[5,3,0,1,0,0,0],"split_type":[0,0,0,0,0,0,0],"sum_hessian":[4.8803134E2,7.943523E1,4.0859613E2,3.6498955E1,4.293627E1,2.3623664E0,3.413659E1],"tree_param":{"num_deleted":"0","num_feature":"11","num_nodes":"7","size_leaf_vector":"1"}},{"base_weights":[-2.5429183E-1,3.7368312E-1,-5.168438E-2,-4.9321666E-1,2.361766E0,2.4238126E-1,-5.1296867E-2,3.8861682E0,-4.8627686E-2,-2.8965307E-2,7.144885E-2,-3.7351288E-2,4.322109E-1],"categories":[],"categories_nodes":[],"categories_segments":[],"categories_sizes":[],"default_left":[0,0,0,0,0,0,0,0,0,0,0,0,0],"id":29,"left_children":[1,3,-1,5,7,9,-1,11,-1,-1,-1,-1,-1],"loss_changes":[7.971682E1,2.4724663E2,0E0,1.5809879E0,1.9086919E2,1.0360216E0,0E0,5.447043E1,0E0,0E0,0E0,0E0,0E0],"parents":[2147483647,0,0,1,1,3,3,4,4,5,5,7,7],"right_children":[2,4,-1,6,8,10,-1,12,-1,-1,-1,-1,-1],"split_conditions":[5.3E1,3.1E1,-5.168438E-2,-1.89368E-1,1.6E1,6.940382E0,-5.1296867E-2,4.4E1,-4.8627686E-2,-2.8965307E-2,7.144885E-2,-3.7351288E-2,4.322109E-1],"split_indices":[4,4,0,8,1,7,0,2,0,0,0,0,0],"split_type":[0,0,0,0,0,0,0,0,0,0,0,0,0],"sum_hessian":[4.813241E2,1.4178284E2,3.3954126E2,9.925486E1,4.252798E1,2.3007276E0,9.695413E1,2.746367E1,1.5064308E1,1.2634118E0,1.0373158E0,2.5630155E0,2.4900656E1],"tree_param":{"num_deleted":"0","num_feature":"11","num_nodes":"13","size_leaf_vector":"1"}},{"base_weights":[-6.674059E-2,3.48144E0,-5.1717676E-2,4.0641195E-1,-4.5491934E-2],"categories":[],"categories_nodes":[],"categories_segments":[],"categories_sizes":[],"default_left":[0,0,0,0,0],"id":30,"left_children":[1,3,-1,-1,-1],"loss_changes":[7.983093E2,1.3091101E2,0E0,0E0,0E0],"parents":[2147483647,0,0,1,1],"right_children":[2,4,-1,-1,-1],"split_conditions":[-4.10728E0,-9.63111E-1,-5.1717676E-2,4.0641195E-1,-4.5491934E-2],"split_indices":[5,7,0,0,0],"split_type":[0,0,0,0,0],"sum_hessian":[4.9736966E2,5.5269688E1,4.4209998E2,4.811501E1,7.1546755E0],"tree_param":{"num_deleted":"0","num_feature":"11","num_nodes":"5","size_leaf_vector":"1"}},{"base_weights":[9.820856E-2,2.7810063E0,-5.051465E-1,-4.8491474E-2,3.3813808E0,5.9722865E-1,-5.171026E-2,-3.4567773E-1,4.145936E0,-3.8515344E-2,2.1690814E-1,6.4651005E-2,-4.797182E-2,4.2106232E-1,1.8838253E-2],"categories":[],"categories_nodes":[],"categories_segments":[],"categories_sizes":[],"default_left":[0,0,0,0,0,0,0,0,0,0,0,0,0,0,0],"id":31,"left_children":[1,3,5,-1,7,9,-1,11,13,-1,-1,-1,-1,-1,-1],"loss_changes":[8.265853E2,1.8546863E2,5.8053894E0,0E0,2.2745935E2,8.461367E0,0E0,2.2285438E0,1.6076294E1,0E0,0E0,0E0,0E0,0E0,0E0],"parents":[2147483647,0,0,1,1,2,2,4,4,5,5,7,7,8,8],"right_children":[2,4,6,-1,8,10,-1,12,14,-1,-1,-1,-1,-1,-1],"split_conditions":[-1E0,4.523632E0,2E0,-4.8491474E-2,1.1E1,-1.239482E0,-5.171026E-2,5.6E1,1.9E1,-3.8515344E-2,2.1690814E-1,6.4651005E-2,-4.797182E-2,4.2106232E-1,1.8838253E-2],"split_indices":[4,7,4,0,1,6,0,0,2,0,0,0,0,0,0],"split_type":[0,0,0,0,0,0,0,0,0,0,0,0,0,0,0],"sum_hessian":[5.087862E2,9.275317E1,4.1603302E2,1.4432963E1,7.8320206E1,3.938567E0,4.1209445E2,1.3424797E1,6.489541E1,2.8883586E0,1.0502082E0,1.1427493E0,1.2282048E1,6.378882E1,1.1065907E0],"tree_param":{"num_deleted":"0","num_feature":"11","num_nodes":"15","size_leaf_vector":"1"}},{"base_weights":[-2.288872E-1,1.8615108E0,-5.1246464E-1,-4.966233E-2,3.432103E0,-2.2970115E-1,-5.1711585E-2,-2.7139604E-1,4.0758505E0,-4.505753E-2,6.95918E-2,-4.1826688E-2,2.3926206E-2,-2.6847258E-2,4.240296E-1],"categories":[],"categories_nodes":[],"categories_segments":[],"categories_sizes":[],"default_left":[0,0,0,0,0,0,0,0,0,0,0,0,0,0,0],"id":32,"left_children":[1,3,5,-1,7,9,-1,11,13,-1,-1,-1,-1,-1,-1],"loss_changes":[2.88091E2,2.1680095E2,4.4321442E-1,0E0,8.451605E1,2.0951438E0,0E0,5.5895287E-1,2.24758E1,0E0,0E0,0E0,0E0,0E0,0E0],"parents":[2147483647,0,0,1,1,2,2,4,4,5,5,7,7,8,8],"right_children":[2,4,6,-1,8,10,-1,12,14,-1,-1,-1,-1,-1,-1],"split_conditions":[-1E1,-2.3E1,-8E0,-4.966233E-2,7.8E1,3.482754E0,-5.1711585E-2,4.6426E-2,-1.8326E-2,-4.505753E-2,6.95918E-2,-4.1826688E-2,2.3926206E-2,-2.6847258E-2,4.240296E-1],"split_indices":[0,0,0,0,4,7,0,10,8,0,0,0,0,0,0],"split_type":[0,0,0,0,0,0,0,0,0,0,0,0,0,0,0],"sum_hessian":[4.8338263E2,5.707662E1,4.2630603E2,2.3090961E1,3.3985657E1,7.7142134E0,4.185918E2,5.1183033E0,2.8867355E1,6.6424003E0,1.0718131E0,4.115552E0,1.0027517E0,1.0297905E0,2.7837564E1],"tree_param":{"num_deleted":"0","num_feature":"11","num_nodes":"15","size_leaf_vector":"1"}},{"base_weights":[4.477366E-2,-4.6465465E-1,3.1809075E0,-4.9110636E-1,2.6143065E-1,3.9619622E-1,-4.796343E-2,-4.9576133E-1,5.0996702E-2,-4.8287224E-2,4.4021055E-1,-3.7251574E-1,-5.1692028E-2,7.6191165E-2,-5.096453E-2],"categories":[],"categories_nodes":[],"categories_segments":[],"categories_sizes":[],"default_left":[0,0,0,0,0,0,0,0,0,0,0,0,0,0,0],"id":33,"left_children":[1,3,5,7,9,-1,-1,11,-1,-1,-1,13,-1,-1,-1],"loss_changes":[8.1130115E2,8.520149E0,2.0477985E2,2.2189407E0,5.1469215E1,0E0,0E0,9.0393066E-1,0E0,0E0,0E0,1.0529433E1,0E0,0E0,0E0],"parents":[2147483647,0,0,1,1,2,2,3,3,4,4,7,7,11,11],"right_children":[2,4,6,8,10,-1,-1,12,-1,-1,-1,14,-1,-1,-1],"split_conditions":[8.612965E0,2.460565E0,2.5E1,1.41E2,4.06062E0,3.9619622E-1,-4.796343E-2,1E0,5.0996702E-2,-4.8287224E-2,4.4021055E-1,2.9E1,-5.1692028E-2,7.6191165E-2,-5.096453E-2],"split_indices":[5,9,1,4,6,0,0,0,0,0,0,2,0,0,0],"split_type":[0,0,0,0,0,0,0,0,0,0,0,0,0,0,0],"sum_hessian":[5.0588858E2,4.3592886E2,6.995971E1,4.2091818E2,1.5010676E1,5.758944E1,1.2370274E1,4.194724E2,1.4457636E0,1.3472351E1,1.5383258E0,6.418964E1,3.5528278E2,6.4311028E0,5.7758537E1],"tree_param":{"num_deleted":"0","num_feature":"11","num_nodes":"15","size_leaf_vector":"1"}},{"base_weights":[-1.746194E-1,1.7764313E0,-5.147355E-1,-5.0407972E-2,3.9598885E-1,1.0122126E-3,-5.171141E-2],"categories":[],"categories_nodes":[],"categories_segments":[],"categories_sizes":[],"default_left":[0,0,0,0,0,0,0],"id":34,"left_children":[1,3,5,-1,-1,-1,-1],"loss_changes":[3.2650406E2,3.6579352E2,5.278168E-1,0E0,0E0,0E0,0E0],"parents":[2147483647,0,0,1,1,2,2],"right_children":[2,4,6,-1,-1,-1,-1],"split_conditions":[-3E0,7.5E1,-1E0,-5.0407972E-2,3.9598885E-1,1.0122126E-3,-5.171141E-2],"split_indices":[4,3,4,0,0,0,0],"split_type":[0,0,0,0,0,0,0],"sum_hessian":[4.8965338E2,7.2060524E1,4.1759286E2,3.5623116E1,3.6437412E1,1.8692498E0,4.157236E2],"tree_param":{"num_deleted":"0","num_feature":"11","num_nodes":"7","size_leaf_vector":"1"}},{"base_weights":[1.2530516E-1,-3.918871E-1,2.5369542E0,-4.2662185E-1,3.1987023E0,3.6481905E0,-4.9806308E-2,-4.588735E-1,1.1880995E0,4.420348E-1,-2.6297474E-2,-4.3631565E-2,4.0100405E-1,-2.0934269E-1,-5.1682062E-2,4.3957302E-1,-4.392822E-2,-5.107528E-2,1.0233656E-1],"categories":[],"categories_nodes":[],"categories_segments":[],"categories_sizes":[],"default_left":[0,0,0,0,0,0,0,0,0,0,0,0,0,0,0,0,0,0,0],"id":35,"left_children":[1,3,5,7,9,11,-1,13,15,-1,-1,-1,-1,17,-1,-1,-1,-1,-1],"loss_changes":[6.3900543E2,5.4003014E1,3.0690765E2,2.2360283E1,1.8761105E1,9.97937E1,0E0,5.8406982E0,4.620536E1,0E0,0E0,0E0,0E0,2.9955421E1,0E0,0E0,0E0,0E0,0E0],"parents":[2147483647,0,0,1,1,2,2,3,3,4,4,5,5,7,7,8,8,13,13],"right_children":[2,4,6,8,10,12,-1,14,16,-1,-1,-1,-1,18,-1,-1,-1,-1,-1],"split_conditions":[5.505885E0,3.714061E0,4.3E1,1.1274981E1,3.7E1,-7.952547E0,-4.9806308E-2,3.2E1,4.5E1,4.420348E-1,-2.6297474E-2,-4.3631565E-2,4.0100405E-1,7.226324E0,-5.1682062E-2,4.3957302E-1,-4.392822E-2,-5.107528E-2,1.0233656E-1],"split_indices":[5,9,4,7,0,6,0,4,0,0,0,0,0,7,0,0,0,0,0],"split_type":[0,0,0,0,0,0,0,0,0,0,0,0,0,0,0,0,0,0,0],"sum_hessian":[5.1051947E2,4.210585E2,8.946097E1,4.1789703E2,3.161481E0,6.533667E1,2.4124294E1,4.104154E2,7.4816203E0,2.1321092E0,1.0293717E0,5.3004293E0,6.0036243E1,7.821592E1,3.321995E2,1.9456214E0,5.535999E0,6.3319344E1,1.4896577E1],"tree_param":{"num_deleted":"0","num_feature":"11","num_nodes":"19","size_leaf_vector":"1"}},{"base_weights":[6.532836E-2,9.870318E-1,-4.7325283E-1,2.5875914E0,-4.3349263E-1,1.23836E-1,-4.9418887E-1,-1.4889248E-1,3.6495514E0,6.0080767E-1,-5.1270273E-2,2.3739365E-1,-4.6727102E-2,-4.0772852E-1,-5.087708E-1,6.527964E-1,-4.412124E-1,-3.8561698E-2,3.8458462E0,-4.398757E-2,3.6405206E-1,-5.076583E-2,2.1593101E-1,-3.6330515E-1,-5.162662E-2,-4.2502694E-2,2.5740093E-1,-4.8962735E-2,2.810944E-3,-3.685369E-2,4.009883E-1,-4.8422586E-2,6.332354E-2],"categories":[],"categories_nodes":[],"categories_segments":[],"categories_sizes":[],"default_left":[0,0,0,0,0,0,0,0,0,0,0,0,0,0,0,0,0,0,0,0,0,0,0,0,0,0,0,0,0,0,0,0,0],"id":36,"left_children":[1,3,5,7,9,11,13,15,17,19,-1,-1,-1,21,23,25,27,-1,29,-1,-1,-1,-1,31,-1,-1,-1,-1,-1,-1,-1,-1,-1],"loss_changes":[2.5261266E2,4.277934E2,4.0773544E0,2.573852E2,8.523552E0,1.664833E1,1.8414307E-1,6.3038917E0,5.1947998E1,2.562342E1,0E0,0E0,0E0,1.3886067E1,9.780884E-2,1.6132626E1,4.5475554E-1,0E0,4.354236E1,0E0,0E0,0E0,0E0,2.2588308E0,0E0,0E0,0E0,0E0,0E0,0E0,0E0,0E0,0E0],"parents":[2147483647,0,0,1,1,2,2,3,3,4,4,5,5,6,6,7,7,8,8,9,9,13,13,14,14,15,15,16,16,18,18,23,23],"right_children":[2,4,6,8,10,12,14,16,18,20,-1,-1,-1,22,24,26,28,-1,30,-1,-1,-1,-1,32,-1,-1,-1,-1,-1,-1,-1,-1,-1],"split_conditions":[3.5E1,5.1E1,3.9E1,9E1,6E1,8E0,4E0,1E0,2.1E1,6.6E1,-5.1270273E-2,2.3739365E-1,-4.6727102E-2,1E1,-1.52716E-1,3.974478E0,7.6E1,-3.8561698E-2,1.41177E-1,-4.398757E-2,3.6405206E-1,-5.076583E-2,2.1593101E-1,-1.58825E-1,-5.162662E-2,-4.2502694E-2,2.5740093E-1,-4.8962735E-2,2.810944E-3,-3.685369E-2,4.009883E-1,-4.8422586E-2,6.332354E-2],"split_indices":[0,2,0,4,2,1,1,1,2,3,0,0,0,2,8,6,4,0,6,0,0,0,0,8,0,0,0,0,0,0,0,0,0],"split_type":[0,0,0,0,0,0,0,0,0,0,0,0,0,0,0,0,0,0,0,0,0,0,0,0,0,0,0,0,0,0,0,0,0],"sum_hessian":[5.0693588E2,1.8666066E2,3.2027524E2,8.7382195E1,9.927846E1,1.0683062E1,3.0959216E2,2.467049E1,6.2711708E1,6.593794E0,9.268466E1,1.5950978E0,9.087963E0,4.8858456E1,2.607337E2,6.2624717E0,1.8408018E1,2.8644125E0,5.9847294E1,5.549235E0,1.0445589E0,4.779994E1,1.0585186E0,1.5200523E1,2.4553319E2,4.5106916E0,1.7517802E0,1.6647415E1,1.7606031E0,2.19546E0,5.7651833E1,1.4014134E1,1.1863884E0],"tree_param":{"num_deleted":"0","num_feature":"11","num_nodes":"33","size_leaf_vector":"1"}},{"base_weights":[5.4832496E-2,3.6799242E0,-5.1491626E-2,-4.1695174E-2,3.940579E0,3.9823917E-1,6.96464E-2],"categories":[],"categories_nodes":[],"categories_segments":[],"categories_sizes":[],"default_left":[0,0,0,0,0,0,0],"id":37,"left_children":[1,3,-1,-1,5,-1,-1],"loss_changes":[1.0546208E3,7.570062E1,0E0,0E0,6.083679E0,0E0,0E0],"parents":[2147483647,0,0,1,1,4,4],"right_children":[2,4,-1,-1,6,-1,-1],"split_conditions":[-1.9E1,-1.342373E0,-5.1491626E-2,-4.1695174E-2,1.6E1,3.9823917E-1,6.96464E-2],"split_indices":[0,6,0,0,1,0,0],"split_type":[0,0,0,0,0,0,0],"sum_hessian":[5.086981E2,6.835062E1,4.4034747E2,4.052666E0,6.429794E1,6.3255093E1,1.0428547E0],"tree_param":{"num_deleted":"0","num_feature":"11","num_nodes":"7","size_leaf_vector":"1"}},{"base_weights":[8.2272634E-2,-4.1052958E-1,2.4384696E0,-4.9065658E-1,3.210183E-1,3.530298E0,-4.975478E-2,-3.4985438E-1,-5.167174E-2,1.966718E0,-3.1050155E-1,3.8115592E0,-4.2076886E-2,-4.5258322E-1,2.4330337E-1,-2.2523496E-1,3.194384E0,1.8625484E-1,-5.009253E-2,-4.0933367E-2,4.0659866E0,9.259774E-3,-5.076061E-2,-3.4660574E-2,2.658267E-1,-3.9260767E-2,2.1863682E-2,4.3895775E-1,-3.4065794E-2,-3.5544902E-2,4.246733E-1],"categories":[],"categories_nodes":[],"categories_segments":[],"categories_sizes":[],"default_left":[0,0,0,0,0,0,0,0,0,0,0,0,0,0,0,0,0,0,0,0,0,0,0,0,0,0,0,0,0,0,0],"id":38,"left_children":[1,3,5,7,9,11,-1,13,-1,15,17,19,-1,21,23,25,27,-1,-1,-1,29,-1,-1,-1,-1,-1,-1,-1,-1,-1,-1],"loss_changes":[5.899453E2,2.479612E1,2.834624E2,1.2107925E0,4.43639E1,7.292682E1,0E0,3.907907E0,0E0,3.250351E1,1.387989E1,6.6115295E1,0E0,1.6511097E0,1.4955345E1,4.7026008E-1,3.3761375E1,0E0,0E0,0E0,4.6817444E1,0E0,0E0,0E0,0E0,0E0,0E0,0E0,0E0,0E0,0E0],"parents":[2147483647,0,0,1,1,2,2,3,3,4,4,5,5,7,7,9,9,10,10,11,11,13,13,14,14,15,15,16,16,20,20],"right_children":[2,4,6,8,10,12,-1,14,-1,16,18,20,-1,22,24,26,28,-1,-1,-1,30,-1,-1,-1,-1,-1,-1,-1,-1,-1,-1],"split_conditions":[1.19E2,1.03E2,3.21835E-1,3E1,-8.02792E-1,9.1E1,-4.975478E-2,8E0,-5.167174E-2,1.279152E0,4.9E1,6E0,-4.2076886E-2,4.171886E0,8.6E1,9.6E1,8.783021E0,1.8625484E-1,-5.009253E-2,-4.0933367E-2,7.1E1,9.259774E-3,-5.076061E-2,-3.4660574E-2,2.658267E-1,-3.9260767E-2,2.1863682E-2,4.3895775E-1,-3.4065794E-2,-3.5544902E-2,4.246733E-1],"split_indices":[0,0,5,3,5,3,0,2,0,8,3,1,0,7,0,4,8,0,0,0,4,0,0,0,0,0,0,0,0,0,0],"split_type":[0,0,0,0,0,0,0,0,0,0,0,0,0,0,0,0,0,0,0,0,0,0,0,0,0,0,0,0,0,0,0],"sum_hessian":[5.0621255E2,4.1933395E2,8.687858E1,3.782349E2,4.109907E1,6.3180855E1,2.3697723E1,6.1325916E1,3.1690897E2,1.081129E1,3.028778E1,5.9015102E1,4.1657495E0,5.247481E1,8.851106E0,4.1744666E0,6.6368237E0,1.7327831E0,2.8554996E1,3.3204694E0,5.5694633E1,4.7479525E0,4.7726856E1,7.801813E0,1.0492923E0,3.1152709E0,1.0591959E0,4.779237E0,1.8575866E0,2.1493907E0,5.3545242E1],"tree_param":{"num_deleted":"0","num_feature":"11","num_nodes":"31","size_leaf_vector":"1"}},{"base_weights":[9.021149E-2,-2.7350658E-1,1.2583815E0,5.887901E-1,-4.6902698E-1,-3.436089E-1,2.552469E0,2.5576708E0,-5.513538E-2,1.0172431E0,-4.8463824E-1,1.4116727E0,-4.6954888E-1,-4.904948E-2,3.6599152E0,3.0174482E-1,4.4466906E0,-4.1368526E-1,1.1492563E0,2.235112E-1,-3.187043E-2,-4.9400175E-1,3.1047747E-1,-3.359387E-2,3.119391E-1,-5.0769616E-2,9.65345E-2,-3.7416365E-2,3.894044E0,-4.4524964E-2,1.8191929E-1,5.6739576E-2,4.9996123E-1,-4.80355E-2,3.1130228E-2,-4.440193E-2,2.565127E-1,-5.127555E-2,-3.4875367E-2,-3.5871487E-2,1.2316306E-1,-3.5099357E-2,7.362572E-2,3.7426338E-2,4.0251848E-1],"categories":[],"categories_nodes":[],"categories_segments":[],"categories_sizes":[],"default_left":[0,0,0,0,0,0,0,0,0,0,0,0,0,0,0,0,0,0,0,0,0,0,0,0,0,0,0,0,0,0,0,0,0,0,0,0,0,0,0,0,0,0,0,0,0],"id":39,"left_children":[1,3,5,7,9,11,13,15,17,19,21,23,25,-1,27,29,31,33,35,-1,-1,37,39,-1,-1,-1,41,-1,43,-1,-1,-1,-1,-1,-1,-1,-1,-1,-1,-1,-1,-1,-1,-1,-1],"loss_changes":[2.1421599E2,6.513049E1,2.4901453E2,9.084504E1,7.781555E0,1.2680819E1,2.2531479E2,7.3886475E1,2.4179123E1,6.549844E0,2.4728165E0,1.2654721E1,1.1606112E0,0E0,4.7499023E1,1.1145483E1,1.7615372E1,2.229556E0,3.0142706E1,0E0,0E0,6.6095734E-1,3.0555549E0,0E0,0E0,0E0,1.4293927E0,0E0,1.9801086E1,0E0,0E0,0E0,0E0,0E0,0E0,0E0,0E0,0E0,0E0,0E0,0E0,0E0,0E0,0E0,0E0],"parents":[2147483647,0,0,1,1,2,2,3,3,4,4,5,5,6,6,7,7,8,8,9,9,10,10,11,11,12,12,14,14,15,15,16,16,17,17,18,18,21,21,22,22,26,26,28,28],"right_children":[2,4,6,8,10,12,14,16,18,20,22,24,26,-1,28,30,32,34,36,-1,-1,38,40,-1,-1,-1,42,-1,44,-1,-1,-1,-1,-1,-1,-1,-1,-1,-1,-1,-1,-1,-1,-1,-1],"split_conditions":[9.7E1,-9.310472E0,1.05E2,3.9E1,-2.864958E0,-4.190536E0,5.8E1,7.19043E-1,7.6E1,8.5E1,8.87465E0,9.8E1,1.07E2,-4.904948E-2,-1.294517E0,1.9548E-2,-3E0,8.87465E0,1E2,2.235112E-1,-3.187043E-2,7.269395E0,8.9E1,-3.359387E-2,3.119391E-1,-5.0769616E-2,-5.769095E0,-3.7416365E-2,8.8E1,-4.4524964E-2,1.8191929E-1,5.6739576E-2,4.9996123E-1,-4.80355E-2,3.1130228E-2,-4.440193E-2,2.565127E-1,-5.127555E-2,-3.4875367E-2,-3.5871487E-2,1.2316306E-1,-3.5099357E-2,7.362572E-2,3.7426338E-2,4.0251848E-1],"split_indices":[1,6,4,2,10,10,0,7,0,1,8,4,3,0,7,9,0,8,4,0,0,6,4,0,0,0,7,0,3,0,0,0,0,0,0,0,0,0,0,0,0,0,0,0,0],"split_type":[0,0,0,0,0,0,0,0,0,0,0,0,0,0,0,0,0,0,0,0,0,0,0,0,0,0,0,0,0,0,0,0,0,0,0,0,0,0,0,0,0,0,0,0,0],"sum_hessian":[5.023646E2,3.8367157E2,1.18693016E2,7.0543724E1,3.1312784E2,5.336515E1,6.5327866E1,1.6653038E1,5.3890686E1,2.587875E0,3.1053998E2,2.8891196E0,5.0476032E1,1.7579964E1,4.7747902E1,8.118004E0,8.535034E0,4.203369E1,1.1856997E1,1.0016775E0,1.5861974E0,3.0729984E2,3.2401524E0,1.8248857E0,1.064234E0,4.738593E1,3.090102E0,2.5863597E0,4.5161545E1,5.9135294E0,2.2044742E0,1.3175173E0,7.217517E0,3.8802822E1,3.2308698E0,5.9019475E0,5.9550486E0,2.699189E2,3.7380917E1,2.230405E0,1.0097471E0,2.0837305E0,1.0063716E0,1.7606311E0,4.3400913E1],"tree_param":{"num_deleted":"0","num_feature":"11","num_nodes":"45","size_leaf_vector":"1"}},{"base_weights":[7.490252E-2,9.5822436E-1,-5.005375E-1,-1.6052742E-1,3.3519723E0,-1.6701907E-1,-5.1662106E-2,-4.6422467E-1,6.833545E-1,-4.6126932E-2,3.9103959E0,-4.820835E-2,1.8078317E-1,1.0857596E-1,-5.024183E-1,-4.9466256E-2,2.1113832E0,4.015197E-1,-3.0006517E-2,-4.3472093E-2,1.6670889E-1,-7.7191773E-3,-5.127236E-2,4.369226E-1,-3.503758E-2],"categories":[],"categories_nodes":[],"categories_segments":[],"categories_sizes":[],"default_left":[0,0,0,0,0,0,0,0,0,0,0,0,0,0,0,0,0,0,0,0,0,0,0,0,0],"id":40,"left_children":[1,3,5,7,9,11,-1,13,15,-1,17,-1,-1,19,21,-1,23,-1,-1,-1,-1,-1,-1,-1,-1],"loss_changes":[2.587799E2,5.382832E2,1.567833E0,3.5632862E1,1.3808936E2,1.0617858E1,0E0,2.2844334E0,6.3071617E1,0E0,2.5885254E1,0E0,0E0,6.8159595E0,3.799343E-1,0E0,9.5226746E1,0E0,0E0,0E0,0E0,0E0,0E0,0E0,0E0],"parents":[2147483647,0,0,1,1,2,2,3,3,4,4,5,5,7,7,8,8,10,10,13,13,14,14,16,16],"right_children":[2,4,6,8,10,12,-1,14,16,-1,18,-1,-1,20,22,-1,24,-1,-1,-1,-1,-1,-1,-1,-1],"split_conditions":[7E1,8.3E1,7.3E1,3.4E1,3.9E1,1.05E2,-5.1662106E-2,-1E1,3.7E1,-4.6126932E-2,7.9E1,-4.820835E-2,1.8078317E-1,7.038488E0,-1.2496516E1,-4.9466256E-2,7.4E1,4.015197E-1,-3.0006517E-2,-4.3472093E-2,1.6670889E-1,-7.7191773E-3,-5.127236E-2,4.369226E-1,-3.503758E-2],"split_indices":[4,0,4,4,2,0,0,0,1,0,3,0,0,7,6,0,3,0,0,0,0,0,0,0,0],"split_type":[0,0,0,0,0,0,0,0,0,0,0,0,0,0,0,0,0,0,0,0,0,0,0,0,0],"sum_hessian":[5.0716626E2,1.9980025E2,3.07366E2,1.367985E2,6.300176E1,1.466418E1,2.927018E2,1.0092674E2,3.5871742E1,8.069882E0,5.4931877E1,1.3298455E1,1.3657247E0,6.1937966E0,9.473295E1,2.0014708E1,1.5857036E1,5.3643047E1,1.2888317E0,5.1274405E0,1.0663564E0,2.442411E0,9.2290535E1,7.866921E0,7.990115E0],"tree_param":{"num_deleted":"0","num_feature":"11","num_nodes":"25","size_leaf_vector":"1"}},{"base_weights":[4.6378676E-2,-3.528792E-1,1.9427736E0,7.550024E-1,-4.471398E-1,3.1548376E0,-5.015867E-2,3.0188236E0,-4.510834E-1,8.4349984E-1,-4.7982016E-1,4.1672435E0,-4.8056427E-2,-3.4617983E-2,3.633584E-1,-4.9393784E-2,1.609155E-2,3.3672953E-1,-4.4825323E-2,-5.060498E-1,4.8922455E-1,-3.560276E-2,4.4007E0,-2.240617E-2,-5.168711E-2,2.7138183E-1,-4.568846E-2,1.6964655E-1,4.484181E-1],"categories":[],"categories_nodes":[],"categories_segments":[],"categories_sizes":[],"default_left":[0,0,0,0,0,0,0,0,0,0,0,0,0,0,0,0,0,0,0,0,0,0,0,0,0,0,0,0,0],"id":41,"left_children":[1,3,5,7,9,11,-1,13,15,17,19,21,-1,-1,-1,-1,-1,-1,-1,23,25,-1,27,-1,-1,-1,-1,-1,-1],"loss_changes":[3.815033E2,4.3815105E1,2.612008E2,9.150976E1,1.6614655E1,2.1811322E2,0E0,2.5267166E1,6.672449E-1,3.3633224E1,9.790962E0,5.0174866E1,0E0,0E0,0E0,0E0,0E0,0E0,0E0,1.0012131E0,2.313617E1,0E0,2.2911987E0,0E0,0E0,0E0,0E0,0E0,0E0],"parents":[2147483647,0,0,1,1,2,2,3,3,4,4,5,5,7,7,8,8,9,9,10,10,11,11,19,19,20,20,22,22],"right_children":[2,4,6,8,10,12,-1,14,16,18,20,22,-1,-1,-1,-1,-1,-1,-1,24,26,-1,28,-1,-1,-1,-1,-1,-1],"split_conditions":[1.22E2,-1.1803794E1,6.1E1,5E1,-5.365905E0,6.375676E0,-5.015867E-2,-2.772106E0,5.443672E0,1.5E1,3.123965E0,4.3669E-1,-4.8056427E-2,-3.4617983E-2,3.633584E-1,-4.9393784E-2,1.609155E-2,3.3672953E-1,-4.4825323E-2,-3.201597E0,7.2E1,-3.560276E-2,2.7E1,-2.240617E-2,-5.168711E-2,2.7138183E-1,-4.568846E-2,1.6964655E-1,4.484181E-1],"split_indices":[4,6,2,2,7,5,0,10,5,1,9,5,0,0,0,0,0,0,0,7,3,0,2,0,0,0,0,0,0],"split_type":[0,0,0,0,0,0,0,0,0,0,0,0,0,0,0,0,0,0,0,0,0,0,0,0,0,0,0,0,0],"sum_hessian":[5.019616E2,4.1533328E2,8.662835E1,3.2016865E1,3.833164E2,5.7717705E1,2.8910643E1,1.0606148E1,2.1410717E1,8.853569E0,3.7446283E2,4.5030956E1,1.268675E1,1.7058347E0,8.900313E0,2.018986E1,1.2208579E0,2.453404E0,6.4001646E0,3.650594E2,9.403469E0,2.184318E0,4.2846638E1,1.42936E1,3.5076578E2,2.2483974E0,7.155072E0,1.921582E0,4.0925056E1],"tree_param":{"num_deleted":"0","num_feature":"11","num_nodes":"29","size_leaf_vector":"1"}},{"base_weights":[-1.7300422E-1,2.4724753E0,-4.520893E-1,4.002052E-1,-4.8756804E-2,1.6978928E0,-5.171432E-2,4.488092E-1,-4.565427E-2],"categories":[],"categories_nodes":[],"categories_segments":[],"categories_sizes":[],"default_left":[0,0,0,0,0,0,0,0,0],"id":42,"left_children":[1,3,5,-1,-1,7,-1,-1,-1],"loss_changes":[3.6210248E2,2.1389905E2,6.285479E1,0E0,0E0,8.1683975E1,0E0,0E0,0E0],"parents":[2147483647,0,0,1,1,2,2,5,5],"right_children":[2,4,6,-1,-1,8,-1,-1,-1],"split_conditions":[-3.711268E0,-2.799603E0,-1.4869001E1,4.002052E-1,-4.8756804E-2,-3.32722E0,-5.171432E-2,4.488092E-1,-4.565427E-2],"split_indices":[7,5,6,0,0,5,0,0,0],"split_type":[0,0,0,0,0,0,0,0,0],"sum_hessian":[4.8793124E2,4.5812267E1,4.4211896E2,2.9972315E1,1.5839954E1,1.2247536E1,4.2987143E2,4.864438E0,7.3830976E0],"tree_param":{"num_deleted":"0","num_feature":"11","num_nodes":"9","size_leaf_vector":"1"}},{"base_weights":[5.354139E-2,1.2386187E0,-4.937169E-1,-3.9594352E-1,2.4524977E0,7.3545873E-1,-5.1681727E-2,-5.1077336E-2,7.539263E-1,-4.9534526E-2,3.3647664E0,3.388835E-1,-4.2642333E-2,-4.2388085E-2,3.1783774E-1,5.024531E-1,4.1384587E0,3.4191138E-1,-1.3240096E-2,-3.6501717E-2,4.3439522E-1],"categories":[],"categories_nodes":[],"categories_segments":[],"categories_sizes":[],"default_left":[0,0,0,0,0,0,0,0,0,0,0,0,0,0,0,0,0,0,0,0,0],"id":43,"left_children":[1,3,5,7,9,11,-1,-1,13,-1,15,-1,-1,-1,-1,17,19,-1,-1,-1,-1],"loss_changes":[3.2719153E2,3.171733E2,1.018174E1,9.466032E0,2.4796942E2,2.2348541E1,0E0,0E0,2.0331804E1,0E0,1.5309796E2,0E0,0E0,0E0,0E0,3.0168934E1,5.250592E1,0E0,0E0,0E0,0E0],"parents":[2147483647,0,0,1,1,2,2,3,3,4,4,5,5,8,8,10,10,15,15,16,16],"right_children":[2,4,6,8,10,12,-1,-1,14,-1,16,-1,-1,-1,-1,18,20,-1,-1,-1,-1],"split_conditions":[1.4E1,2.21336E-1,-3.70184E-1,8.5E1,2.9E1,8.2E1,-5.1681727E-2,-5.1077336E-2,1.1E1,-4.9534526E-2,5E0,3.388835E-1,-4.2642333E-2,-4.2388085E-2,3.1783774E-1,-8.74759E-1,3.300899E0,3.4191138E-1,-1.3240096E-2,-3.6501717E-2,4.3439522E-1],"split_indices":[2,5,8,3,3,4,0,0,1,0,1,0,0,0,0,10,7,0,0,0,0],"split_type":[0,0,0,0,0,0,0,0,0,0,0,0,0,0,0,0,0,0,0,0,0],"sum_hessian":[5.0255917E2,1.5836325E2,3.4419592E2,6.777453E1,9.058873E1,5.7804327E0,3.384155E2,6.2126198E1,5.648332E0,2.1517042E1,6.9071686E1,1.1766512E0,4.603781E0,4.3568993E0,1.291433E0,1.5048488E1,5.4023197E1,1.9060414E0,1.3142446E1,2.3236277E0,5.169957E1],"tree_param":{"num_deleted":"0","num_feature":"11","num_nodes":"21","size_leaf_vector":"1"}},{"base_weights":[2.0941878E-2,-4.1097966E-1,1.9744003E0,3.5506108E-1,-4.7537008E-1,-9.179963E-2,3.2738643E0,8.4662724E-1,-4.8734123E-1,2.793444E-1,-4.719893E-1,3.9845328E0,9.136949E-1,-3.4269657E-2,2.1391514E-1,6.861784E-1,-4.9712256E-1,-5.018412E-2,1.629805E-2,-3.9068058E-2,4.33315E-1,-3.669551E-2,3.4075956E0,-3.3055205E-2,1.7389041E-1,-5.0427657E-2,-1.6040152E-2,-4.635562E-2,8.2884915E-2,6.9644295E-2,4.1581178E-1],"categories":[],"categories_nodes":[],"categories_segments":[],"categories_sizes":[],"default_left":[0,0,0,0,0,0,0,0,0,0,0,0,0,0,0,0,0,0,0,0,0,0,0,0,0,0,0,0,0,0,0],"id":44,"left_children":[1,3,5,-1,7,9,11,13,15,-1,17,19,21,-1,-1,23,25,-1,-1,-1,-1,27,29,-1,-1,-1,-1,-1,-1,-1,-1],"loss_changes":[4.2353647E2,1.0656033E2,2.4433826E2,0E0,6.8288345E0,4.0879803E1,8.9995605E1,6.887657E0,4.9603806E0,0E0,7.0203066E-1,6.66828E1,3.3821877E1,0E0,0E0,4.5849447E0,8.8191986E-1,0E0,0E0,0E0,0E0,4.5530686E0,5.108078E0,0E0,0E0,0E0,0E0,0E0,0E0,0E0,0E0],"parents":[2147483647,0,0,1,1,2,2,4,4,5,5,6,6,7,7,8,8,10,10,11,11,12,12,15,15,16,16,21,21,22,22],"right_children":[2,4,6,-1,8,10,12,14,16,-1,18,20,22,-1,-1,24,26,-1,-1,-1,-1,28,30,-1,-1,-1,-1,-1,-1,-1,-1],"split_conditions":[1.05E2,-6.853044E0,7.7E1,3.5506108E-1,-5.769095E0,-2.981457E0,1.12E2,1.6E1,-3.2E1,2.793444E-1,8.07458E0,9.6E1,3.823731E0,-3.4269657E-2,2.1391514E-1,7.844869E0,1.03E2,-5.018412E-2,1.629805E-2,-3.9068058E-2,4.33315E-1,-7.875976E0,5.260771E0,-3.3055205E-2,1.7389041E-1,-5.0427657E-2,-1.6040152E-2,-4.635562E-2,8.2884915E-2,6.9644295E-2,4.1581178E-1],"split_indices":[1,7,0,0,7,7,4,1,0,0,7,3,5,0,0,7,1,0,0,0,0,6,8,0,0,0,0,0,0,0,0],"split_type":[0,0,0,0,0,0,0,0,0,0,0,0,0,0,0,0,0,0,0,0,0,0,0,0,0,0,0,0,0,0,0],"sum_hessian":[5.000129E2,4.1012204E2,8.989086E1,5.6934466E0,4.044286E2,3.5065178E1,5.4825684E1,3.0036805E0,4.0142493E2,3.3435576E0,3.172162E1,4.160869E1,1.3216997E1,1.9469997E0,1.0566808E0,2.7466154E0,3.986783E2,3.0497498E1,1.2241212E0,3.0618029E0,3.8546886E1,1.0283418E1,2.9335794E0,1.7461623E0,1.0004531E0,3.8989688E2,8.781408E0,7.198009E0,3.0854084E0,1.054022E0,1.8795574E0],"tree_param":{"num_deleted":"0","num_feature":"11","num_nodes":"31","size_leaf_vector":"1"}},{"base_weights":[4.8555963E-2,1.2598337E0,-4.1580054E-1,2.389158E0,-2.9195344E-1,2.393897E0,-4.8600006E-1,6.213133E-1,3.8090262E0,3.1949143E0,-5.0934263E-2,3.706794E-1,-3.8250007E-2,-5.1675167E-2,-1.1143006E-1,3.7231982E0,-2.9907343E-1,4.0942955E0,-3.8084887E-2,4.0480238E-1,6.695213E-2,-4.9584225E-2,1.2906481E0,4.8494196E-1,-1.9941917E-3,-4.9853653E-2,7.681174E-2,7.1184024E-2,4.2291594E-1,4.104316E-1,-4.1301653E-2],"categories":[],"categories_nodes":[],"categories_segments":[],"categories_sizes":[],"default_left":[0,0,0,0,0,0,0,0,0,0,0,0,0,0,0,0,0,0,0,0,0,0,0,0,0,0,0,0,0,0,0],"id":45,"left_children":[1,3,5,7,9,11,13,15,17,19,-1,-1,-1,-1,21,23,25,27,-1,-1,-1,-1,29,-1,-1,-1,-1,-1,-1,-1,-1],"loss_changes":[2.825964E2,2.4468272E2,7.281466E1,2.0017242E2,4.6754623E1,3.4310444E1,4.034363E0,1.0713292E2,5.481201E1,5.113262E0,0E0,0E0,0E0,0E0,1.5853798E1,3.6232025E1,6.6760187E0,1.6056946E1,0E0,0E0,0E0,0E0,3.214101E1,0E0,0E0,0E0,0E0,0E0,0E0,0E0,0E0],"parents":[2147483647,0,0,1,1,2,2,3,3,4,4,5,5,6,6,7,7,8,8,9,9,14,14,15,15,16,16,17,17,22,22],"right_children":[2,4,6,8,10,12,14,16,18,20,-1,-1,-1,-1,22,24,26,28,-1,-1,-1,-1,30,-1,-1,-1,-1,-1,-1,-1,-1],"split_conditions":[-9.237493E0,5.07278E-1,-3.6713E0,1.11E2,-1.037249E0,9.1E1,1.02E2,1E1,1.02E2,6.4E1,-5.0934263E-2,3.706794E-1,-3.8250007E-2,-5.1675167E-2,8.07458E0,-9.774E-3,1E2,7E0,-3.8084887E-2,4.0480238E-1,6.695213E-2,-4.9584225E-2,4.15155E-1,4.8494196E-1,-1.9941917E-3,-4.9853653E-2,7.681174E-2,7.1184024E-2,4.2291594E-1,4.104316E-1,-4.1301653E-2],"split_indices":[6,5,10,4,9,1,3,1,1,0,0,0,0,0,7,10,4,1,0,0,0,0,5,0,0,0,0,0,0,0,0],"split_type":[0,0,0,0,0,0,0,0,0,0,0,0,0,0,0,0,0,0,0,0,0,0,0,0,0,0,0,0,0,0,0],"sum_hessian":[5.0049384E2,1.3822354E2,3.622703E2,7.968939E1,5.8534145E1,8.0237255E0,3.5424658E2,3.6135506E1,4.3553886E1,2.6313417E0,5.5902805E1,5.220131E0,2.8035944E0,3.270193E2,2.7227308E1,7.571798E0,2.8563707E1,4.079889E1,2.754998E0,1.5162163E0,1.1151254E0,2.1875881E1,5.351427E0,5.593345E0,1.9784526E0,2.4514652E1,4.049055E0,1.8050644E0,3.8993824E1,1.4868035E0,3.8646235E0],"tree_param":{"num_deleted":"0","num_feature":"11","num_nodes":"31","size_leaf_vector":"1"}},{"base_weights":[9.1698684E-2,1.615648E0,-4.9533808E-1,6.294003E-2,3.6842003E0,8.9601964E-2,-5.113766E-1,-1.3940173E-1,3.3172388E0,4.205164E0,1.8223993E0,-4.6558343E-2,2.5594407E-1,-3.0654335E-1,-5.1692344E-2,2.065432E0,-3.9777046E-1,-3.185406E-2,5.172231E-1,-3.167481E-2,4.3581733E-1,-2.748062E-1,2.8472564E0,-4.7073003E-2,7.036878E-2,-2.8087527E-2,6.3506E-1,6.543313E-2,-5.103127E-2,-4.2991307E-2,2.3506097E-2,3.410054E-1,-3.0976523E-2],"categories":[],"categories_nodes":[],"categories_segments":[],"categories_sizes":[],"default_left":[0,0,0,0,0,0,0,0,0,0,0,0,0,0,0,0,0,0,0,0,0,0,0,0,0,0,0,0,0,0,0,0,0],"id":46,"left_children":[1,3,5,7,9,11,13,15,17,19,21,-1,-1,23,-1,25,27,-1,-1,-1,-1,29,31,-1,-1,-1,-1,-1,-1,-1,-1,-1,-1],"loss_changes":[4.537383E2,4.5273074E2,3.4819717E0,5.4178734E1,5.0970886E1,1.576164E1,2.4674988E-1,4.511868E1,3.4125366E1,3.3532837E1,3.298373E1,0E0,0E0,2.2984383E0,0E0,8.541458E1,8.674737E0,0E0,0E0,0E0,0E0,5.6211513E-1,1.9093971E1,0E0,0E0,0E0,0E0,0E0,0E0,0E0,0E0,0E0,0E0],"parents":[2147483647,0,0,1,1,2,2,3,3,4,4,5,5,6,6,7,7,8,8,9,9,10,10,13,13,15,15,16,16,21,21,22,22],"right_children":[2,4,6,8,10,12,14,16,18,20,22,-1,-1,24,-1,26,28,-1,-1,-1,-1,30,32,-1,-1,-1,-1,-1,-1,-1,-1,-1,-1],"split_conditions":[7E0,9.1E1,1E1,8.5E1,-1.18508E-1,1.05E2,1.4E1,5E0,6.209374E0,-1.164309E0,-2.6878E-2,-4.6558343E-2,2.5594407E-1,1.2E2,-5.1692344E-2,5.919843E0,-1.297478E0,-3.185406E-2,5.172231E-1,-3.167481E-2,4.3581733E-1,-2.99103E-1,7E0,-4.7073003E-2,7.036878E-2,-2.8087527E-2,6.3506E-1,6.543313E-2,-5.103127E-2,-4.2991307E-2,2.3506097E-2,3.410054E-1,-3.0976523E-2],"split_indices":[2,4,2,3,10,4,2,0,6,8,9,0,0,4,0,6,10,0,0,0,0,5,1,0,0,0,0,0,0,0,0,0,0],"split_type":[0,0,0,0,0,0,0,0,0,0,0,0,0,0,0,0,0,0,0,0,0,0,0,0,0,0,0,0,0,0,0,0,0],"sum_hessian":[5.052942E2,1.4002823E2,3.6526596E2,8.057615E1,5.9452084E1,9.625591E0,3.5564038E2,7.676059E1,3.815561E0,4.547011E1,1.3981971E1,8.521557E0,1.104035E0,1.0860088E1,3.4478027E2,7.3179016E0,6.944269E1,1.5688667E0,2.2466943E0,1.4532034E0,4.401691E1,4.8300037E0,9.151966E0,9.801197E0,1.0588914E0,5.3325586E0,1.9853429E0,6.245207E0,6.319748E1,3.8236299E0,1.006374E0,7.6992784E0,1.4526882E0],"tree_param":{"num_deleted":"0","num_feature":"11","num_nodes":"33","size_leaf_vector":"1"}},{"base_weights":[6.119983E-2,3.8125286E0,-3.7011954E-1,-3.8795304E-2,4.0556937E-1,7.9750943E-1,-4.694981E-1,3.8762116E-1,4.5701352E-1,2.5405424E-2,-4.9215573E-1,4.24962E-1,8.602691E-2,-4.848717E-2,1.4277188E0,3.30926E-2,-5.0428176E-1,2.6102993E-1,-1.4237053E-2,4.6448675E-1,-3.9971143E-2,9.768669E-2,-4.4868138E-2,-5.1695224E-2,-2.635186E-2],"categories":[],"categories_nodes":[],"categories_segments":[],"categories_sizes":[],"default_left":[0,0,0,0,0,0,0,0,0,0,0,0,0,0,0,0,0,0,0,0,0,0,0,0,0],"id":47,"left_children":[1,3,5,-1,-1,7,9,11,-1,13,15,-1,17,-1,19,21,23,-1,-1,-1,-1,-1,-1,-1,-1],"loss_changes":[8.188941E2,5.487982E1,5.3060863E1,0E0,0E0,5.387265E1,4.7116013E0,3.8712334E1,0E0,1.4500253E1,2.5692368E0,0E0,1.8901934E1,0E0,3.3614475E1,4.9769106E0,1.0589523E0,0E0,0E0,0E0,0E0,0E0,0E0,0E0,0E0],"parents":[2147483647,0,0,1,1,2,2,5,5,6,6,7,7,9,9,10,10,12,12,14,14,15,15,16,16],"right_children":[2,4,6,-1,-1,8,10,12,-1,14,16,-1,18,-1,20,22,24,-1,-1,-1,-1,-1,-1,-1,-1],"split_conditions":[-1.2E1,0E0,2E0,-3.8795304E-2,4.0556937E-1,8.605787E0,-2.10138E-1,-4.65479E-1,4.5701352E-1,-1.24617E-1,3E0,4.24962E-1,-3.412165E0,-4.848717E-2,-2.99103E-1,1.3E1,7.493124E0,2.6102993E-1,-1.4237053E-2,4.6448675E-1,-3.9971143E-2,9.768669E-2,-4.4868138E-2,-5.1695224E-2,-2.635186E-2],"split_indices":[2,3,1,0,0,7,8,8,0,10,1,0,5,0,5,0,6,0,0,0,0,0,0,0,0],"split_type":[0,0,0,0,0,0,0,0,0,0,0,0,0,0,0,0,0,0,0,0,0,0,0,0,0],"sum_hessian":[5.0423642E2,5.1189037E1,4.530474E2,2.7685785E0,4.8420456E1,3.498406E1,4.1806332E2,3.255028E1,2.4337776E0,1.8296537E1,3.9976678E2,1.4095883E0,3.1140692E1,1.3894726E1,4.4018116E0,8.981854E0,3.9078494E2,1.7185326E0,2.942216E1,1.0360758E0,3.3657358E0,2.6881802E0,6.2936745E0,3.7015778E2,2.0627169E1],"tree_param":{"num_deleted":"0","num_feature":"11","num_nodes":"25","size_leaf_vector":"1"}},{"base_weights":[1.471321E-2,2.7778678E0,-4.5506546E-1,-4.9204834E-2,3.9032617E-1,-7.606953E-2,-5.1428795E-2,-5.0761353E-2,1.5871768E0,4.0992537E0,-3.3033863E-1,4.7393504E-1,1.3315961E-1,2.2980874E-2,-4.452342E-2],"categories":[],"categories_nodes":[],"categories_segments":[],"categories_sizes":[],"default_left":[0,0,0,0,0,0,0,0,0,0,0,0,0,0,0],"id":48,"left_children":[1,3,5,-1,-1,7,-1,-1,9,11,13,-1,-1,-1,-1],"loss_changes":[6.57565E2,2.727984E2,9.679321E0,0E0,0E0,4.3648403E1,0E0,0E0,6.175277E1,3.4370804E0,6.195241E-1,0E0,0E0,0E0,0E0],"parents":[2147483647,0,0,1,1,2,2,5,5,8,8,9,9,10,10],"right_children":[2,4,6,-1,-1,8,-1,-1,10,12,14,-1,-1,-1,-1],"split_conditions":[1E0,1.8E1,5.4E1,-4.9204834E-2,3.9032617E-1,6.071788E0,-5.1428795E-2,-5.0761353E-2,-1.228714E0,-3.0543E-2,-3.62513E-1,4.7393504E-1,1.3315961E-1,2.2980874E-2,-4.452342E-2],"split_indices":[3,4,3,0,0,6,0,0,5,8,5,0,0,0,0],"split_type":[0,0,0,0,0,0,0,0,0,0,0,0,0,0,0],"sum_hessian":[5.0459702E2,7.2609245E1,4.3198776E2,1.8735275E1,5.3873966E1,5.868916E1,3.732986E2,4.715038E1,1.153878E1,4.502457E0,7.0363226E0,3.0781465E0,1.4243107E0,1.0273854E0,6.0089374E0],"tree_param":{"num_deleted":"0","num_feature":"11","num_nodes":"15","size_leaf_vector":"1"}},{"base_weights":[1.3286698E-2,-1.0717289E-1,2.6623425E0,-4.4485697E-1,5.720387E-1,4.2509894E0,-4.557642E-2,-4.8384583E-1,3.2560596E-1,-3.7665698E-1,1.7307315E0,4.4844475E-1,6.892728E-2,-5.1653642E-2,1.6533883E-2,4.859675E-1,-4.8352126E-2,-5.1180404E-2,8.957231E-1,2.7485096E0,-4.966312E-2,2.348152E-1,-4.8824813E-2,-4.51404E-2,4.8692298E-1,3.8453278E-1,-4.9018677E-2],"categories":[],"categories_nodes":[],"categories_segments":[],"categories_sizes":[],"default_left":[0,0,0,0,0,0,0,0,0,0,0,0,0,0,0,0,0,0,0,0,0,0,0,0,0,0,0],"id":49,"left_children":[1,3,5,7,9,11,-1,13,15,17,19,-1,-1,-1,21,-1,-1,-1,23,25,-1,-1,-1,-1,-1,-1,-1],"loss_changes":[1.5913535E2,1.09683784E2,1.0938245E2,9.747242E0,1.7529239E2,8.937805E0,0E0,4.985565E0,6.0954105E1,1.5620591E1,1.6390488E2,0E0,0E0,0E0,2.4247679E1,0E0,0E0,0E0,4.9462296E1,1.7724338E2,0E0,0E0,0E0,0E0,0E0,0E0,0E0],"parents":[2147483647,0,0,1,1,2,2,3,3,4,4,5,5,7,7,8,8,9,9,10,10,14,14,18,18,19,19],"right_children":[2,4,6,8,10,12,-1,14,16,18,20,-1,-1,-1,22,-1,-1,-1,24,26,-1,-1,-1,-1,-1,-1,-1],"split_conditions":[2.267532E0,1.846063E0,4.667201E0,1.03114E0,6.503692E0,1.05E2,-4.557642E-2,9.8E1,1.078788E0,2.289931E0,2.289931E0,4.4844475E-1,6.892728E-2,-5.1653642E-2,1.05E2,4.859675E-1,-4.8352126E-2,-5.1180404E-2,3.089134E0,7.9E1,-4.966312E-2,2.348152E-1,-4.8824813E-2,-4.51404E-2,4.8692298E-1,3.8453278E-1,-4.9018677E-2],"split_indices":[10,5,5,9,7,3,0,2,9,6,6,0,0,0,4,0,0,0,5,1,0,0,0,0,0,0,0],"split_type":[0,0,0,0,0,0,0,0,0,0,0,0,0,0,0,0,0,0,0,0,0,0,0,0,0,0,0],"sum_hessian":[4.9679984E2,4.7610944E2,2.0690414E1,3.1823657E2,1.5787285E2,1.3466189E1,7.2242236E0,3.0326218E2,1.4974413E1,8.717338E1,7.069947E1,1.2394691E1,1.0714978E0,2.846343E2,1.862787E1,1.5095192E0,1.3464894E1,7.934358E1,7.8297963E0,4.8365303E1,2.2334167E1,2.665225E0,1.5962646E1,6.5093465E0,1.3204495E0,3.5989708E1,1.2375595E1],"tree_param":{"num_deleted":"0","num_feature":"11","num_nodes":"27","size_leaf_vector":"1"}},{"base_weights":[6.911743E-2,1.7696183E0,-5.1699426E-2,-4.0617603E-1,3.444693E0,-5.0906997E-2,1.356203E0,3.8946807E0,-4.5801636E-2,2.6441127E-1,-3.0418525E-2,3.990929E-1,-3.2304287E-2],"categories":[],"categories_nodes":[],"categories_segments":[],"categories_sizes":[],"default_left":[0,0,0,0,0,0,0,0,0,0,0,0,0],"id":50,"left_children":[1,3,-1,5,7,-1,9,11,-1,-1,-1,-1,-1],"loss_changes":[5.1012308E2,4.7950858E2,0E0,1.120022E1,1.3213611E2,0E0,8.224651E0,2.8348633E1,0E0,0E0,0E0,0E0,0E0],"parents":[2147483647,0,0,1,1,3,3,4,4,6,6,7,7],"right_children":[2,4,-1,6,8,-1,10,12,-1,-1,-1,-1,-1],"split_conditions":[1.1E1,6.3E1,-5.1699426E-2,4.195815E0,4.8E1,-5.0906997E-2,-6.55753E0,8.511271E0,-4.5801636E-2,2.6441127E-1,-3.0418525E-2,3.990929E-1,-3.2304287E-2],"split_indices":[0,1,0,5,4,0,6,5,0,0,0,0,0],"split_type":[0,0,0,0,0,0,0,0,0,0,0,0,0],"sum_hessian":[5.0990274E2,1.301823E2,3.7972046E2,5.6957005E1,7.322528E1,5.4487003E1,2.4699998E0,6.5657E1,7.5682836E0,1.0573673E0,1.4126323E0,6.4244705E1,1.4122922E0],"tree_param":{"num_deleted":"0","num_feature":"11","num_nodes":"13","size_leaf_vector":"1"}},{"base_weights":[4.233539E-2,7.7580875E-1,-4.9950254E-1,-4.556393E-1,2.831218E0,-1.9048524E-1,-5.1651563E-2,3.983316E-2,-5.1405556E-2,-4.933014E-2,3.9245467E0,-4.8554298E-2,2.0638004E-1,1.827135E-1,-2.6566976E-1,-3.673923E-3,4.062322E0,-4.70245E-2,3.000733E-2,4.1737738E-1,-3.214999E-2],"categories":[],"categories_nodes":[],"categories_segments":[],"categories_sizes":[],"default_left":[0,0,0,0,0,0,0,0,0,0,0,0,0,0,0,0,0,0,0,0,0],"id":51,"left_children":[1,3,5,7,9,11,-1,13,-1,-1,15,-1,-1,-1,17,-1,19,-1,-1,-1,-1],"loss_changes":[2.0146805E2,5.463878E2,1.4346771E0,3.9433098E0,2.9571478E2,1.2177025E1,0E0,8.797136E0,0E0,0E0,3.3404724E1,0E0,0E0,0E0,1.7467463E0,0E0,3.01167E1,0E0,0E0,0E0,0E0],"parents":[2147483647,0,0,1,1,2,2,3,3,4,4,5,5,7,7,10,10,14,14,16,16],"right_children":[2,4,6,8,10,12,-1,14,-1,-1,16,-1,-1,-1,18,-1,20,-1,-1,-1,-1],"split_conditions":[1.2E1,5.5E1,1.4E1,1.7E1,5E0,9.9E1,-5.1651563E-2,-1.77151E-1,-5.1405556E-2,-4.933014E-2,8.2E1,-4.8554298E-2,2.0638004E-1,1.827135E-1,2.4E1,-3.673923E-3,9.9E1,-4.70245E-2,3.000733E-2,4.1737738E-1,-3.214999E-2],"split_indices":[1,2,1,0,0,3,0,8,0,0,3,0,0,0,2,0,2,0,0,0,0],"split_type":[0,0,0,0,0,0,0,0,0,0,0,0,0,0,0,0,0,0,0,0,0],"sum_hessian":[5.0496014E2,2.1435754E2,2.9060263E2,1.3453345E2,7.98241E1,1.5800801E1,2.7480182E2,1.4222212E1,1.2031123E2,1.9890682E1,5.9933414E1,1.4665839E1,1.1349614E0,1.3490486E0,1.2873163E1,2.039095E0,5.7894318E1,9.57838E0,3.2947836E0,5.6505665E1,1.3886544E0],"tree_param":{"num_deleted":"0","num_feature":"11","num_nodes":"21","size_leaf_vector":"1"}},{"base_weights":[9.336769E-2,-3.2275903E-1,2.318099E0,9.6535695E-1,-4.1944697E-1,2.5438902E0,-4.4281594E-2,2.8702128E0,-4.881634E-2,2.190736E-2,-5.1559187E-2,-2.9052728E-1,2.7779953E0,6.667489E-2,3.0131158E-1,-5.049173E-2,6.641622E-1,-4.2241346E-2,1.805754E-2,9.244197E-2,2.8023335E-1,-4.958804E-2,3.3799785E-1],"categories":[],"categories_nodes":[],"categories_segments":[],"categories_sizes":[],"default_left":[0,0,0,0,0,0,0,0,0,0,0,0,0,0,0,0,0,0,0,0,0,0,0],"id":52,"left_children":[1,3,5,7,9,11,-1,13,-1,15,-1,17,19,-1,-1,-1,21,-1,-1,-1,-1,-1,-1],"loss_changes":[4.6920645E2,5.3606045E1,5.09086E1,8.481709E1,1.690152E1,4.9888947E1,0E0,2.1426392E0,0E0,2.4750286E1,0E0,4.8315102E-1,4.9597168E-1,0E0,0E0,0E0,1.0547883E2,0E0,0E0,0E0,0E0,0E0,0E0],"parents":[2147483647,0,0,1,1,2,2,3,3,4,4,5,5,7,7,9,9,11,11,12,12,16,16],"right_children":[2,4,6,8,10,12,-1,14,-1,16,-1,18,20,-1,-1,-1,22,-1,-1,-1,-1,-1,-1],"split_conditions":[1.02E2,-1.8E1,4E1,-9.723235E0,2.2E1,9.9E1,-4.4281594E-2,7.11865E-1,-4.881634E-2,3.2E1,-5.1559187E-2,1.26E2,1.04E2,6.667489E-2,3.0131158E-1,-5.049173E-2,4.8E1,-4.2241346E-2,1.805754E-2,9.244197E-2,2.8023335E-1,-4.958804E-2,3.3799785E-1],"split_indices":[2,0,0,6,0,3,0,5,0,1,0,2,1,0,0,0,4,0,0,0,0,0,0],"split_type":[0,0,0,0,0,0,0,0,0,0,0,0,0,0,0,0,0,0,0,0,0,0,0],"sum_hessian":[5.0502008E2,4.26163E2,7.885709E1,2.9127697E1,3.970353E2,7.296826E1,5.8888335E0,1.218476E1,1.6942936E1,7.11576E1,3.258777E2,5.5485406E0,6.7419716E1,1.0871655E0,1.1097594E1,3.9209183E1,3.194842E1,4.415706E0,1.1328347E0,1.3789889E0,6.604073E1,2.2959034E1,8.989387E0],"tree_param":{"num_deleted":"0","num_feature":"11","num_nodes":"23","size_leaf_vector":"1"}},{"base_weights":[-1.4600806E-1,2.617594E0,-5.1594734E-2,2.7907345E-1,-3.8822632E-2],"categories":[],"categories_nodes":[],"categories_segments":[],"categories_sizes":[],"default_left":[0,0,0,0,0],"id":53,"left_children":[1,3,-1,-1,-1],"loss_changes":[4.907894E2,3.0582733E1,0E0,0E0,0E0],"parents":[2147483647,0,0,1,1],"right_children":[2,4,-1,-1,-1],"split_conditions":[-1.3E1,1.1E1,-5.1594734E-2,2.7907345E-1,-3.8822632E-2],"split_indices":[4,1,0,0,0],"split_type":[0,0,0,0,0],"sum_hessian":[4.7773203E2,5.568274E1,4.220493E2,5.2717674E1,2.9650667E0],"tree_param":{"num_deleted":"0","num_feature":"11","num_nodes":"5","size_leaf_vector":"1"}},{"base_weights":[-1.8973945E-1,1.202624E0,-5.1583827E-2,2.588704E0,-5.045232E-2,-3.5894707E-2,2.7357298E-1],"categories":[],"categories_nodes":[],"categories_segments":[],"categories_sizes":[],"default_left":[0,0,0,0,0,0,0],"id":54,"left_children":[1,3,-1,5,-1,-1,-1],"loss_changes":[2.1587367E2,2.1488737E2,0E0,2.2641693E1,0E0,0E0,0E0],"parents":[2147483647,0,0,1,1,3,3],"right_children":[2,4,-1,6,-1,-1,-1],"split_conditions":[-2.690729E0,5E1,-5.1583827E-2,1.1E1,-5.045232E-2,-3.5894707E-2,2.7357298E-1],"split_indices":[5,3,0,1,0,0,0],"split_type":[0,0,0,0,0,0,0],"sum_hessian":[4.7307608E2,8.9261795E1,3.8381427E2,4.8978447E1,4.0283348E1,2.258447E0,4.6719997E1],"tree_param":{"num_deleted":"0","num_feature":"11","num_nodes":"7","size_leaf_vector":"1"}},{"base_weights":[-2.4750018E-1,3.412811E-1,-5.155768E-2,-4.904846E-1,1.8174466E0,2.3618044E-1,-5.1143207E-2,2.6723616E0,-4.8328668E-2,7.2059475E-2,-2.930213E-2,-3.6974236E-2,2.89109E-1],"categories":[],"categories_nodes":[],"categories_segments":[],"categories_sizes":[],"default_left":[0,0,0,0,0,0,0,0,0,0,0,0,0],"id":55,"left_children":[1,3,-1,5,7,9,-1,11,-1,-1,-1,-1,-1],"loss_changes":[7.359239E1,1.8030638E2,0E0,1.5554371E0,1.0529291E2,1.063492E0,0E0,2.6822021E1,0E0,0E0,0E0,0E0,0E0],"parents":[2147483647,0,0,1,1,3,3,4,4,5,5,7,7],"right_children":[2,4,-1,6,8,10,-1,12,-1,-1,-1,-1,-1],"split_conditions":[5.3E1,3.1E1,-5.155768E-2,-1.89368E-1,1.6E1,5.9E1,-5.1143207E-2,4.4E1,-4.8328668E-2,7.2059475E-2,-2.930213E-2,-3.6974236E-2,2.89109E-1],"split_indices":[4,4,0,8,1,0,0,2,0,0,0,0,0],"split_type":[0,0,0,0,0,0,0,0,0,0,0,0,0],"sum_hessian":[4.641366E2,1.4512436E2,3.1901224E2,9.324942E1,5.1874935E1,2.3248782E0,9.0924545E1,3.7703426E1,1.4171508E1,1.0249803E0,1.2998979E0,2.4827373E0,3.5220688E1],"tree_param":{"num_deleted":"0","num_feature":"11","num_nodes":"13","size_leaf_vector":"1"}},{"base_weights":[-6.47062E-2,2.4704275E0,-5.1592566E-2,2.7702186E-1,-4.507145E-2],"categories":[],"categories_nodes":[],"categories_segments":[],"categories_sizes":[],"default_left":[0,0,0,0,0],"id":56,"left_children":[1,3,-1,-1,-1],"loss_changes":[5.610077E2,6.614542E1,0E0,0E0,0E0],"parents":[2147483647,0,0,1,1],"right_children":[2,4,-1,-1,-1],"split_conditions":[-4.10728E0,-9.63111E-1,-5.1592566E-2,2.7702186E-1,-4.507145E-2],"split_indices":[5,7,0,0,0],"split_type":[0,0,0,0,0],"sum_hessian":[4.8831927E2,7.310587E1,4.152134E2,6.634834E1,6.757529E0],"tree_param":{"num_deleted":"0","num_feature":"11","num_nodes":"5","size_leaf_vector":"1"}},{"base_weights":[9.131058E-2,2.0567412E0,-5.1075864E-1,-4.8523486E-2,2.4270492E0,3.6803268E-2,-5.1585473E-2,-2.6118E-1,2.8018248E0,1.10075906E-1,-4.762027E-2,2.8420594E-1,-2.8003192E-2],"categories":[],"categories_nodes":[],"categories_segments":[],"categories_sizes":[],"default_left":[0,0,0,0,0,0,0,0,0,0,0,0,0],"id":57,"left_children":[1,3,5,-1,7,-1,-1,9,11,-1,-1,-1,-1],"loss_changes":[6.0274084E2,1.1360281E2,1.9365845E0,0E0,1.0592743E2,0E0,0E0,4.5333905E0,1.2169312E1,0E0,0E0,0E0,0E0],"parents":[2147483647,0,0,1,1,2,2,4,4,7,7,8,8],"right_children":[2,4,6,-1,8,-1,-1,10,12,-1,-1,-1,-1],"split_conditions":[1E0,4.523632E0,2E0,-4.8523486E-2,1E1,3.6803268E-2,-5.1585473E-2,5.6E1,2E1,1.10075906E-1,-4.762027E-2,2.8420594E-1,-2.8003192E-2],"split_indices":[4,7,4,0,1,0,0,0,2,0,0,0,0],"split_type":[0,0,0,0,0,0,0,0,0,0,0,0,0],"sum_hessian":[5.0747415E2,1.1843425E2,3.890399E2,1.5019902E1,1.03414345E2,1.8323932E0,3.8720752E2,1.2690408E1,9.072394E1,1.1686964E0,1.1521711E1,8.9631584E1,1.0923545E0],"tree_param":{"num_deleted":"0","num_feature":"11","num_nodes":"13","size_leaf_vector":"1"}},{"base_weights":[-2.2224098E-1,1.4936963E0,-5.1092273E-1,-4.940706E-2,2.4380484E0,-2.1836214E-1,-5.158627E-2,-2.6271832E-1,2.7679374E0,6.62569E-2,-4.4657614E-2,-4.1351732E-2,2.3910018E-2,2.861794E-1,-2.83968E-2],"categories":[],"categories_nodes":[],"categories_segments":[],"categories_sizes":[],"default_left":[0,0,0,0,0,0,0,0,0,0,0,0,0,0,0],"id":58,"left_children":[1,3,5,-1,7,9,-1,11,13,-1,-1,-1,-1,-1,-1],"loss_changes":[2.3272845E2,1.2826999E2,4.6775818E-1,0E0,4.1762573E1,1.9850959E0,0E0,5.473707E-1,1.2594299E1,0E0,0E0,0E0,0E0,0E0,0E0],"parents":[2147483647,0,0,1,1,2,2,4,4,5,5,7,7,8,8],"right_children":[2,4,6,-1,8,10,-1,12,14,-1,-1,-1,-1,-1,-1],"split_conditions":[-1E1,-2.3E1,-8E0,-4.940706E-2,7.8E1,7.5E1,-5.158627E-2,4.6426E-2,1.927419E0,6.62569E-2,-4.4657614E-2,-4.1351732E-2,2.3910018E-2,2.861794E-1,-2.83968E-2],"split_indices":[0,0,0,0,4,2,0,10,5,0,0,0,0,0,0],"split_type":[0,0,0,0,0,0,0,0,0,0,0,0,0,0,0],"sum_hessian":[4.6727634E2,6.6690544E1,4.0058582E2,2.1632694E1,4.5057854E1,7.4023156E0,3.931835E2,4.9267435E0,4.0131107E1,1.1314632E0,6.2708526E0,3.9236343E0,1.0031092E0,3.8994194E1,1.1369131E0],"tree_param":{"num_deleted":"0","num_feature":"11","num_nodes":"15","size_leaf_vector":"1"}},{"base_weights":[4.2026754E-2,-4.6050173E-1,2.3140635E0,-4.8830098E-1,2.586197E-1,2.7262345E-1,-4.7608197E-2,-4.9322686E-1,4.861891E-2,-4.7984544E-2,3.25723E-1,-3.6420637E-1,-5.1565964E-2,6.888512E-2,-5.0787218E-2],"categories":[],"categories_nodes":[],"categories_segments":[],"categories_sizes":[],"default_left":[0,0,0,0,0,0,0,0,0,0,0,0,0,0,0],"id":59,"left_children":[1,3,5,7,9,-1,-1,11,-1,-1,-1,13,-1,-1,-1],"loss_changes":[5.748812E2,8.370155E0,1.061694E2,2.1473083E0,3.699699E1,0E0,0E0,9.5796967E-1,0E0,0E0,0E0,9.735839E0,0E0,0E0,0E0],"parents":[2147483647,0,0,1,1,2,2,3,3,4,4,7,7,11,11],"right_children":[2,4,6,8,10,-1,-1,12,-1,-1,-1,14,-1,-1,-1],"split_conditions":[8.612965E0,2.460565E0,2.5E1,1.41E2,4.06062E0,2.7262345E-1,-4.7608197E-2,1E0,4.861891E-2,-4.7984544E-2,3.25723E-1,2.9E1,-5.1565964E-2,6.888512E-2,-5.0787218E-2],"split_indices":[5,9,1,4,6,0,0,0,0,0,0,2,0,0,0],"split_type":[0,0,0,0,0,0,0,0,0,0,0,0,0,0,0],"sum_hessian":[5.015697E2,4.1137845E2,9.019125E1,3.963766E2,1.5001859E1,7.860267E1,1.1588579E1,3.9487442E2,1.5021601E0,1.2711409E1,2.2904503E0,6.104041E1,3.33834E2,6.872292E0,5.4168118E1],"tree_param":{"num_deleted":"0","num_feature":"11","num_nodes":"15","size_leaf_vector":"1"}},{"base_weights":[-1.6900039E-1,1.4425762E0,-5.133408E-1,-5.019026E-2,2.725778E-1,1.4312948E-3,-5.1586658E-2],"categories":[],"categories_nodes":[],"categories_segments":[],"categories_sizes":[],"default_left":[0,0,0,0,0,0,0],"id":60,"left_children":[1,3,5,-1,-1,-1,-1],"loss_changes":[2.652398E2,2.1139621E2,5.3176117E-1,0E0,0E0,0E0,0E0],"parents":[2147483647,0,0,1,1,2,2],"right_children":[2,4,6,-1,-1,-1,-1],"split_conditions":[-3E0,7.5E1,-1E0,-5.019026E-2,2.725778E-1,1.4312948E-3,-5.1586658E-2],"split_indices":[4,3,4,0,0,0,0],"split_type":[0,0,0,0,0,0,0],"sum_hessian":[4.7563458E2,8.317427E1,3.924603E2,3.3308952E1,4.9865314E1,1.8474745E0,3.9061282E2],"tree_param":{"num_deleted":"0","num_feature":"11","num_nodes":"7","size_leaf_vector":"1"}},{"base_weights":[1.1789796E-1,-3.847506E-1,1.9365051E0,-4.207548E-1,2.4758623E0,2.5663474E0,-4.9556736E-2,-4.5437405E-1,1.0584747E0,3.1284985E-1,1.7059604E-2,-4.3127995E-2,2.7517548E-1,-1.9846454E-1,-5.155571E-2,3.1801757E-1,-4.345528E-2,-4.7840025E-2,1.0495621E-1],"categories":[],"categories_nodes":[],"categories_segments":[],"categories_sizes":[],"default_left":[0,0,0,0,0,0,0,0,0,0,0,0,0,0,0,0,0,0,0],"id":61,"left_children":[1,3,5,7,9,11,-1,13,15,-1,-1,-1,-1,17,-1,-1,-1,-1,-1],"loss_changes":[4.677868E2,4.2354523E1,1.7099936E2,2.0223373E1,7.185961E0,5.0190674E1,0E0,5.9862595E0,3.0279476E1,0E0,0E0,0E0,0E0,2.7283695E1,0E0,0E0,0E0,0E0,0E0],"parents":[2147483647,0,0,1,1,2,2,3,3,4,4,5,5,7,7,8,8,13,13],"right_children":[2,4,6,8,10,12,-1,14,16,-1,-1,-1,-1,18,-1,-1,-1,-1,-1],"split_conditions":[5.505885E0,3.714061E0,4.3E1,1.1274981E1,7.9E1,-7.952547E0,-4.9556736E-2,3.2E1,4.5E1,3.1284985E-1,1.7059604E-2,-4.3127995E-2,2.7517548E-1,2E1,-5.155571E-2,3.1801757E-1,-4.345528E-2,-4.7840025E-2,1.0495621E-1],"split_indices":[5,9,4,7,3,6,0,4,0,0,0,0,0,4,0,0,0,0,0],"split_type":[0,0,0,0,0,0,0,0,0,0,0,0,0,0,0,0,0,0,0],"sum_hessian":[5.099194E2,4.0011832E2,1.0980109E2,3.9598727E2,4.131052E0,8.717092E1,2.2630165E1,3.8786487E2,8.122391E0,2.9412541E0,1.189798E0,5.000345E0,8.217058E1,7.565742E1,3.1220746E2,2.8881297E0,5.2342615E0,6.2300026E1,1.3357388E1],"tree_param":{"num_deleted":"0","num_feature":"11","num_nodes":"19","size_leaf_vector":"1"}},{"base_weights":[6.166277E-2,8.3125716E-1,-4.8840192E-1,1.9169623E0,-4.5053142E-1,-1.02192715E-1,-4.9154583E-1,-1.7431065E-1,2.5524836E0,3.0239058E-1,-5.1137526E-2,2.3929967E-2,-3.2226928E-2,-4.00653E-1,-5.069933E-1,5.760671E-1,-4.4553858E-1,-4.1349255E-2,2.6826048E0,-4.428331E-2,2.7214736E-1,-5.0595082E-2,2.1068993E-1,-3.5514653E-1,-5.1495124E-2,-4.2683206E-2,2.1250343E-1,3.177379E-4,-4.9078643E-2,-3.8028304E-2,2.7891788E-1,-4.8129365E-2,6.0291495E-2],"categories":[],"categories_nodes":[],"categories_segments":[],"categories_sizes":[],"default_left":[0,0,0,0,0,0,0,0,0,0,0,0,0,0,0,0,0,0,0,0,0,0,0,0,0,0,0,0,0,0,0,0,0],"id":62,"left_children":[1,3,5,7,9,11,13,15,17,19,-1,-1,-1,21,23,25,27,-1,29,-1,-1,-1,-1,31,-1,-1,-1,-1,-1,-1,-1,-1,-1],"loss_changes":[2.1401291E2,2.9407678E2,3.0783844E-1,1.5230627E2,4.6180687E0,3.5095716E-1,2.0720673E-1,5.8671646E0,3.495453E1,1.5470804E1,0E0,0E0,0E0,1.3534328E1,1.1441803E-1,1.2953938E1,4.2411423E-1,0E0,2.8527466E1,0E0,0E0,0E0,0E0,2.1603432E0,0E0,0E0,0E0,0E0,0E0,0E0,0E0,0E0,0E0],"parents":[2147483647,0,0,1,1,2,2,3,3,4,4,5,5,6,6,7,7,8,8,9,9,13,13,14,14,15,15,16,16,18,18,23,23],"right_children":[2,4,6,8,10,12,14,16,18,20,-1,-1,-1,22,24,26,28,-1,30,-1,-1,-1,-1,32,-1,-1,-1,-1,-1,-1,-1,-1,-1],"split_conditions":[3.8E1,5.3E1,3.9E1,9E1,6E1,1.0996E-2,4E0,1E0,4.882555E0,9.6E1,-5.1137526E-2,2.3929967E-2,-3.2226928E-2,1.5E1,-1.52716E-1,6E0,2E0,-4.1349255E-2,2.1E1,-4.428331E-2,2.7214736E-1,-5.0595082E-2,2.1068993E-1,-1.58825E-1,-5.1495124E-2,-4.2683206E-2,2.1250343E-1,3.177379E-4,-4.9078643E-2,-3.8028304E-2,2.7891788E-1,-4.8129365E-2,6.0291495E-2],"split_indices":[0,2,0,4,2,9,1,1,7,4,0,0,0,2,8,2,1,0,2,0,0,0,0,8,0,0,0,0,0,0,0,0,0],"split_type":[0,0,0,0,0,0,0,0,0,0,0,0,0,0,0,0,0,0,0,0,0,0,0,0,0,0,0,0,0,0,0,0,0],"sum_hessian":[5.0359116E2,2.0969545E2,2.938957E2,1.1326327E2,9.643219E1,2.6436727E0,2.91252E2,2.6566881E1,8.669639E1,6.913234E0,8.951895E1,1.0018134E0,1.6418594E0,4.622145E1,2.4503058E2,6.754896E0,1.9811985E1,3.55211E0,8.314428E1,5.9096475E0,1.0035868E0,4.512479E1,1.0966631E0,1.4474228E1,2.3055635E2,4.5399117E0,2.2149847E0,1.8999782E0,1.7912006E1,2.7093897E0,8.043488E1,1.32298975E1,1.2443309E0],"tree_param":{"num_deleted":"0","num_feature":"11","num_nodes":"33","size_leaf_vector":"1"}},{"base_weights":[5.068159E-2,2.5833204E0,-5.135248E-2,-4.1134536E-2,2.7175584E0,6.017406E-2,2.7403393E-1],"categories":[],"categories_nodes":[],"categories_segments":[],"categories_sizes":[],"default_left":[0,0,0,0,0,0,0],"id":63,"left_children":[1,3,-1,-1,5,-1,-1],"loss_changes":[7.2445905E2,3.824823E1,0E0,0E0,2.6184082E0,0E0,0E0],"parents":[2147483647,0,0,1,1,4,4],"right_children":[2,4,-1,-1,6,-1,-1],"split_conditions":[-1.9E1,-1.342373E0,-5.135248E-2,-4.1134536E-2,2.8E1,6.017406E-2,2.7403393E-1],"split_indices":[0,6,0,0,3,0,0],"split_type":[0,0,0,0,0,0,0],"sum_hessian":[5.0506534E2,9.1364586E1,4.1370078E2,3.831209E0,8.753337E1,1.2244569E0,8.6308914E1],"tree_param":{"num_deleted":"0","num_feature":"11","num_nodes":"7","size_leaf_vector":"1"}},{"base_weights":[7.704794E-2,-4.0437818E-1,1.8645147E0,-4.878267E-1,3.0242193E-1,2.4888952E0,-4.951735E-2,-3.404434E-1,-5.154441E-2,1.5960237E0,-3.008541E-1,2.6344118E0,-4.1467864E-2,-4.475529E-1,2.4295616E-1,-2.1535932E-1,2.3656542E0,1.6110219E0,-4.988339E-2,-4.0315524E-2,2.7625563E0,9.1349855E-3,-5.056898E-2,-3.424698E-2,2.3996916E-1,-3.8697742E-2,2.2038471E-2,3.01242E-1,-3.3504903E-2,2.7092144E-1,-2.6894072E-2,-3.4941632E-2,2.851214E-1],"categories":[],"categories_nodes":[],"categories_segments":[],"categories_sizes":[],"default_left":[0,0,0,0,0,0,0,0,0,0,0,0,0,0,0,0,0,0,0,0,0,0,0,0,0,0,0,0,0,0,0,0,0],"id":64,"left_children":[1,3,5,7,9,11,-1,13,-1,15,17,19,-1,21,23,25,27,29,-1,-1,31,-1,-1,-1,-1,-1,-1,-1,-1,-1,-1,-1,-1],"loss_changes":[4.3541498E2,2.3666504E1,1.5940253E2,1.2777481E0,3.3822453E1,3.7030945E1,0E0,3.8135657E0,0E0,1.9673538E1,1.2150717E1,3.269513E1,0E0,1.6266165E0,1.3252039E1,4.603619E-1,1.8006577E1,7.024381E0,0E0,0E0,2.2510254E1,0E0,0E0,0E0,0E0,0E0,0E0,0E0,0E0,0E0,0E0,0E0,0E0],"parents":[2147483647,0,0,1,1,2,2,3,3,4,4,5,5,7,7,9,9,10,10,11,11,13,13,14,14,15,15,16,16,17,17,20,20],"right_children":[2,4,6,8,10,12,-1,14,-1,16,18,20,-1,22,24,26,28,30,-1,-1,32,-1,-1,-1,-1,-1,-1,-1,-1,-1,-1,-1,-1],"split_conditions":[1.19E2,1.03E2,3.21835E-1,3E1,-8.02792E-1,9.1E1,-4.951735E-2,8E0,-5.154441E-2,1.279152E0,4.9E1,6E0,-4.1467864E-2,4.171886E0,8.8E1,1.5882E-2,8.783021E0,7.564909E0,-4.988339E-2,-4.0315524E-2,7.1E1,9.1349855E-3,-5.056898E-2,-3.424698E-2,2.3996916E-1,-3.8697742E-2,2.2038471E-2,3.01242E-1,-3.3504903E-2,2.7092144E-1,-2.6894072E-2,-3.4941632E-2,2.851214E-1],"split_indices":[0,0,5,3,5,3,0,2,0,8,3,1,0,7,0,9,8,7,0,0,4,0,0,0,0,0,0,0,0,0,0,0,0],"split_type":[0,0,0,0,0,0,0,0,0,0,0,0,0,