
#include <eml_net.h>
static const float MLP_layer_0_biases[100] = { 0.052088f, 0.054810f, -0.424562f, 0.160513f, -0.304590f, 0.831571f, 0.248802f, -0.413884f, -0.488981f, -0.018277f, 0.618010f, -0.342639f, 0.570965f, 0.534955f, 0.059739f, -0.296041f, 0.590828f, 0.066634f, -0.117941f, -0.431834f, 0.273359f, -0.109225f, 0.382300f, -0.166097f, 0.353215f, -0.007787f, -0.012385f, 0.033132f, 0.530764f, 0.993408f, 0.091137f, -0.074335f, 0.273497f, 0.238974f, 0.077724f, 0.798492f, -0.206902f, 0.468695f, -0.330587f, 0.434283f, -0.291926f, 0.699182f, 0.019426f, 0.419768f, 0.138803f, 0.685524f, 0.027510f, -0.315552f, 0.279459f, -0.004160f, 0.202787f, -0.141735f, 0.172994f, -0.502690f, 0.259700f, 0.140182f, -0.418914f, 0.151365f, -0.019830f, -0.443736f, -0.206125f, 0.231125f, -0.380410f, -0.607578f, -0.656542f, -0.776975f, 0.498890f, -0.103382f, -0.799612f, 0.178285f, 0.132044f, 0.121507f, 0.146129f, 0.526504f, 0.352862f, -0.107393f, -0.106619f, -0.114825f, -0.550089f, -0.016188f, -0.175722f, 0.616517f, -0.090131f, -0.249768f, 0.124029f, 0.194682f, -0.248795f, 0.602418f, 0.167046f, 0.323758f, 0.407972f, -0.209618f, 0.117702f, -0.655053f, -0.159199f, -0.269780f, 0.362149f, 0.254810f, -0.432041f, 0.049155f };
static const float MLP_layer_0_weights[700] = { -0.086123f, 0.024302f, 0.062136f, -0.027874f, 0.102543f, 0.002216f, 0.094870f, 0.238863f, 0.345040f, 0.037181f, -0.192727f, -0.006111f, 0.107436f, -0.338886f, 0.136302f, -0.078865f, 0.049997f, -0.020196f, -0.227927f, -0.108595f, -0.145433f, 0.228844f, 0.083826f, -0.162628f, 0.017122f, -0.127825f, -0.115693f, 0.287428f, 0.036530f, -0.002024f, -0.283225f, -0.880560f, -0.202067f, -0.068045f, 0.234293f, 0.061327f, 0.093216f, -0.132912f, -0.099380f, 0.212542f, 0.019944f, -0.267732f, 0.035421f, -0.131734f, -0.117142f, 0.001877f, -0.149665f, 0.027649f, -0.084845f, -0.452760f, -0.290536f, 0.052462f, 0.061212f, 0.145648f, -0.024006f, -0.207929f, -0.284611f, -0.162578f, 0.264311f, 0.133974f, -0.433217f, -0.154994f, -0.508413f, -0.075033f, 0.118173f, 0.033341f, 0.086540f, 0.109000f, 0.146521f, -0.327670f, -0.003441f, 0.070377f, 0.127380f, 0.063173f, 0.082922f, -0.330012f, 0.165854f, -0.031261f, -0.184894f, -0.010969f, -0.048870f, 0.024613f, -0.177864f, 0.192885f, 0.061965f, -0.275221f, 0.122981f, 0.006321f, -0.000814f, -0.096491f, 0.037975f, -0.690790f, -0.060579f, -0.478494f, 0.097714f, -0.533532f, 0.134298f, -0.101552f, 0.164762f, -0.308829f, 0.050498f, 0.015202f, -0.334202f, 0.214925f, 0.138355f, -0.327243f, 0.337855f, -0.240247f, 0.304755f, -0.162701f, -0.165818f, -0.110921f, -0.207148f, 0.174232f, 0.086591f, 0.146033f, -0.101127f, -0.276139f, -0.231917f, 0.131054f, -0.119163f, -0.309214f, 0.081757f, 0.170928f, -0.112028f, 0.057820f, -0.004566f, -0.019877f, 0.166705f, -0.337294f, -0.140716f, -0.207481f, -0.139601f, -0.003605f, 0.192483f, -0.096745f, -0.373673f, -0.157963f, -0.180042f, 0.163832f, 0.009500f, 0.409517f, -0.167605f, -0.206675f, -0.374493f, 0.078586f, 0.152832f, 0.212463f, -0.260426f, -0.011044f, 0.285038f, -0.159927f, -0.036914f, -0.063294f, -0.080535f, 0.219719f, -0.316919f, 0.070184f, -0.109745f, -0.130144f, 0.103647f, -0.011352f, -0.060179f, -0.412161f, 0.018575f, 0.122070f, 0.302913f, 0.054425f, -0.264120f, 0.635573f, 0.075584f, -0.113496f, 0.120971f, -0.048266f, -0.112766f, -0.065793f, 0.206516f, 0.100505f, 0.239895f, -0.055799f, 0.143607f, -0.008192f, -0.149793f, 0.146256f, 0.327015f, -0.223469f, 0.230578f, 0.061580f, 0.160082f, -0.238219f, -0.819591f, 0.119681f, 0.141033f, -0.193766f, -0.267108f, 0.062722f, 0.226387f, 0.245568f, -0.062873f, -0.087383f, -0.176742f, -0.123451f, -0.133124f, 0.074160f, -0.076494f, 0.117402f, 0.058695f, -0.014667f, -0.662163f, 0.028142f, 0.098838f, 0.034563f, -0.155378f, -0.094351f, -0.320988f, 0.098432f, 0.019141f, -0.161100f, 0.234401f, -0.093257f, -0.091927f, 0.131182f, 0.198869f, 0.046092f, -0.075250f, 0.278648f, 0.062129f, -0.227248f, -0.295376f, 0.112224f, 0.226819f, 0.217286f, 0.260303f, 0.311400f, -0.126742f, -0.098699f, -0.059426f, 0.241255f, 0.011255f, 0.230938f, 0.194523f, -0.167706f, 0.181590f, -0.220390f, 0.377682f, -0.022435f, -0.168182f, 0.162952f, -0.025285f, 0.092547f, 0.143631f, 0.012477f, -0.252195f, -0.232453f, -0.144973f, 0.130892f, 0.100695f, -0.236348f, -0.049619f, 0.100502f, 0.105939f, -0.028980f, -0.073064f, 0.136110f, -0.183342f, 0.136850f, 0.072343f, 0.123170f, -0.599499f, 0.094206f, -0.119620f, -0.047394f, 0.157447f, 0.032112f, -0.112970f, 0.309778f, 0.039917f, 0.148444f, 0.033793f, -0.112434f, -0.038027f, 0.358427f, 0.137562f, -0.080930f, -0.079395f, 0.053602f, -0.535437f, -0.115815f, 0.204252f, 0.348427f, -1.133742f, 0.091366f, 0.112293f, 0.185860f, -0.363593f, 0.003396f, 0.077001f, -0.208478f, -0.176171f, -0.009218f, 0.028884f, 0.272002f, 0.001044f, -0.004481f, -0.017325f, 0.240697f, -0.316206f, -0.108853f, -0.275493f, 0.232653f, 0.228267f, 0.020701f, 0.152606f, 0.028412f, -0.211231f, -0.043464f, 0.128399f, -0.150753f, 0.034918f, -0.130849f, 0.220973f, -0.225866f, 0.131824f, 0.062977f, 0.198710f, -0.044347f, 0.032276f, 0.209486f, 0.172400f, 0.285812f, -0.046039f, -0.121131f, -0.204529f, -0.103866f, -0.091033f, 0.336950f, -0.062430f, -0.153010f, 0.054052f, -0.018057f, -0.082488f, -0.167793f, 0.009916f, 0.083775f, -0.102878f, -0.169434f, -0.207178f, 0.164849f, 0.078933f, -0.074086f, 0.064182f, 0.170369f, -0.267586f, 0.194916f, 0.138545f, -0.073104f, 0.153035f, 0.171679f, -0.232924f, -0.271159f, -0.102237f, -0.033672f, 0.206039f, -0.112193f, 0.225321f, 0.172592f, 0.100090f, 0.108545f, -0.130893f, -0.013123f, -0.059589f, 0.176802f, -0.244772f, -0.101135f, 0.251918f, -0.014132f, -0.125917f, 0.163444f, -0.032993f, -0.010549f, 0.112391f, 0.179725f, 0.018188f, 0.122989f, -0.087535f, 0.027916f, 0.051864f, 0.175411f, -0.001551f, -0.036699f, -0.172806f, 0.040463f, 0.118868f, -0.157251f, 0.158594f, -0.036276f, -0.062293f, -0.084266f, 0.107237f, 0.032442f, -0.597880f, -0.673761f, 0.186901f, 0.120165f, 0.120548f, -0.049978f, 0.036886f, 0.122331f, -0.061726f, -0.142035f, -0.057302f, -0.209332f, -0.142949f, 0.075513f, -0.168766f, 0.247775f, 0.023897f, 0.421258f, 0.234665f, 0.094774f, -0.123525f, 0.087771f, -0.243712f, 0.114118f, 0.039699f, -0.116592f, 0.168443f, -0.012173f, 0.017540f, -0.224751f, 0.083047f, 0.118020f, 0.042657f, -0.239549f, -0.130342f, 0.090508f, 0.292690f, 0.219080f, 0.192535f, -0.122641f, -0.107425f, 0.379104f, -0.166412f, -0.276632f, 0.011213f, 0.273661f, -0.051299f, -0.061709f, -0.168815f, -0.136392f, -0.189377f, -0.107035f, 0.017727f, 0.115783f, -0.012688f, -0.121588f, 0.149738f, 0.102420f, -0.148112f, -0.082014f, -0.182698f, -0.385795f, -0.145455f, 0.199842f, -0.000935f, -0.090364f, 0.079229f, -0.183315f, 0.109108f, 0.024497f, 0.169676f, -0.126248f, -0.223943f, -0.356922f, -0.259916f, -0.102191f, -0.059637f, 0.125235f, -0.060932f, -0.158768f, -0.179307f, -0.226243f, 0.179007f, -0.156057f, 0.140138f, 0.124530f, -0.203423f, 0.160453f, -0.240506f, -0.218211f, 0.250352f, -0.027126f, 0.041701f, 0.175885f, -0.190119f, 0.005701f, -0.132817f, -0.144183f, 0.146746f, 0.082632f, -0.104739f, -0.079959f, -0.189578f, 0.030420f, -0.074986f, 0.001900f, 0.159656f, -0.149927f, 0.176863f, 0.231652f, 0.149439f, 0.215989f, 0.133565f, -0.113008f, -0.016648f, -0.030919f, -0.140351f, -0.197182f, -0.156963f, 0.264420f, 0.186629f, -0.160150f, -0.059951f, 0.182012f, 0.057471f, -0.002376f, 0.115948f, 0.201229f, -0.222586f, -0.022995f, 0.084826f, 0.244174f, 0.190004f, -0.211730f, -0.313283f, 0.152077f, -0.001615f, 0.211334f, 0.008161f, -0.027702f, 0.186812f, 0.076641f, 0.051089f, -0.133703f, 0.089744f, -0.054404f, 0.028931f, 0.091355f, -0.021130f, 0.102838f, 0.235851f, -0.084713f, 0.174663f, 0.055287f, -0.148043f, 0.249599f, -0.073329f, 0.008157f, 0.098712f, -0.136691f, -0.177998f, -0.060045f, -0.177960f, -0.137156f, 0.244146f, 0.033134f, 0.031637f, 0.047448f, 0.118176f, 0.176888f, -0.015366f, 0.059569f, 0.189754f, -0.319810f, -0.048600f, -0.188917f, -0.109272f, 0.088521f, 0.095087f, -0.115654f, -0.032792f, -0.078439f, 0.084128f, -0.008297f, 0.128951f, 0.154382f, 0.139547f, 0.099859f, 0.211477f, 0.247274f, 0.107417f, -0.020776f, -0.113934f, -0.067953f, 0.110179f, -0.107148f, -0.112704f, -0.081021f, 0.089050f, -0.191662f, -0.025351f, -0.007248f, -0.148184f, 0.315084f, 0.092045f, 0.253377f, -0.227900f, 0.218025f, 0.099232f, 0.059226f, -0.234072f, -0.054954f, 0.120493f, -0.126868f, 0.046953f, 0.020261f, 0.110974f, -0.152300f, -0.066425f, -0.225027f, 0.297697f, 0.184157f, 0.041897f, -0.308951f, 0.083275f, -0.255000f, 0.360886f, 0.141711f, -0.074085f, -0.033309f, 0.208623f, -0.164891f, 0.034408f, -0.214416f, 0.050940f, 0.017571f, -0.126676f, 0.105818f, -0.109249f, -0.352515f, 0.219374f, 0.087208f, 0.300520f, -0.143551f, 0.140199f, 0.203343f, -0.027416f, 0.115782f, -0.227849f, 0.002703f, 0.091971f, 0.121479f, -0.100270f, -0.081223f, 0.221135f, -0.401027f, -0.120646f, -0.210218f, 0.303818f, 0.018605f, 0.111029f, -0.055900f, 0.095086f, -0.103212f, -0.206997f, -0.033610f, -0.094949f, 0.081058f, -0.212434f, -0.081530f, -0.190270f, 0.139934f, -0.042567f, -0.284572f, -0.267013f, 0.304377f, -0.107052f, -0.091116f, 0.315645f, 0.192607f, -0.077387f, -0.057815f, -0.040545f, 0.163725f, 0.096292f, -0.214710f, -0.038547f, 0.087193f, -0.188261f, 0.228305f, -0.038706f, 0.087160f, -0.135493f, 0.228069f, -0.113358f, 0.001035f, 0.158452f, -0.113211f, -0.111738f, 0.023350f };
static const float MLP_layer_1_biases[27] = { 0.295856f, -0.164633f, 0.112126f, 0.367990f, -0.142362f, -0.021360f, 0.185622f, 0.010959f, 0.111455f, -0.149292f, -0.211017f, -0.159122f, -0.172849f, -0.018753f, 0.004362f, 0.105865f, 0.178886f, -0.481891f, 0.712947f, -0.489169f, 0.096777f, -0.267984f, 0.040763f, -0.134966f, -0.127135f, 0.148708f, 0.133379f };
static const float MLP_layer_1_weights[2700] = { 0.343178f, -0.151006f, -0.010851f, -0.002751f, -0.044464f, -0.021143f, 0.027856f, -0.000087f, -0.001084f, -0.000910f, -0.005761f, -0.000816f, -0.144075f, -0.085854f, 0.015160f, -0.028988f, -0.157151f, -0.018490f, -0.009632f, -0.222779f, -0.194162f, -0.008089f, -0.000091f, -0.012484f, -0.000000f, -0.367847f, -0.034199f, 0.551056f, -0.059770f, 0.097538f, -0.302621f, -0.125489f, -0.007983f, 0.190861f, -0.000242f, -0.001346f, 0.486029f, 0.059599f, -0.001196f, -0.029372f, -0.077944f, -0.022243f, -0.513768f, -0.131269f, -0.438472f, -0.114418f, -0.102519f, -0.090440f, -0.000675f, -0.000134f, -0.011336f, 0.059793f, 0.169098f, -0.118973f, -0.007974f, 0.131136f, -0.149109f, -0.158818f, -0.020186f, 0.052585f, 0.024914f, 0.041314f, -0.126470f, -0.040924f, 0.136841f, 0.068772f, 0.163160f, -0.037016f, 0.237546f, -0.118441f, 0.139815f, 0.200045f, -0.178748f, 0.162606f, 0.078039f, -0.075886f, 0.103051f, -0.025582f, -0.105151f, 0.026306f, -0.073748f, -0.310109f, 0.127468f, 0.052909f, -0.095531f, -0.180504f, -0.005977f, -0.137851f, 0.027331f, 0.178745f, 0.114926f, 0.177269f, 0.181913f, 0.143856f, -0.023112f, 0.026084f, -0.071796f, -0.111924f, 0.136271f, 0.117910f, 0.063203f, 0.195007f, 0.076924f, -0.141168f, 0.160410f, -0.028512f, 0.124610f, -0.218285f, -0.267820f, 0.203034f, -0.216648f, 0.048196f, -0.034185f, 0.098350f, -0.032775f, 0.004849f, 0.131375f, 0.043933f, 0.131608f, 0.171392f, -0.243671f, 0.250775f, 0.185849f, -0.183017f, 0.174967f, 0.173702f, 0.083586f, 0.067133f, -0.142366f, 0.081615f, -0.075246f, 0.121990f, 0.108368f, 0.017224f, 0.132876f, -0.580980f, -0.280349f, -0.100524f, -0.013243f, 0.039415f, -0.244811f, -0.263484f, 0.149183f, 0.110345f, -0.294473f, -0.200399f, 0.027607f, -0.083132f, -0.939389f, 0.085333f, 0.097889f, 0.222095f, -0.138569f, 0.038803f, -0.089088f, 0.007319f, -0.130631f, -0.151808f, 0.127841f, 0.069203f, -0.188327f, 0.165605f, -0.154025f, -0.107829f, 0.247912f, -0.005184f, -0.061586f, 0.220190f, 0.627850f, -0.000000f, -0.003780f, -0.008689f, -0.163093f, 0.032473f, -0.536803f, 0.182082f, -0.207256f, -0.011016f, -0.001085f, -0.098951f, -0.365141f, -0.000021f, 0.059974f, -0.075362f, -0.566180f, 0.464559f, -0.409517f, -0.112760f, -0.009941f, -0.257984f, 0.178504f, -0.084438f, -0.025361f, 0.134984f, 0.216241f, -0.146287f, -0.002963f, 0.222329f, 0.085708f, 0.023668f, 0.256930f, -0.149597f, 0.137013f, 0.090283f, 0.066458f, 0.257919f, 0.195759f, -0.070433f, -0.014682f, -0.087213f, -0.035890f, 0.652006f, -0.170906f, -0.085385f, 0.006256f, -0.014492f, -0.088349f, -0.002772f, 0.152906f, -0.067103f, -0.422394f, 0.081001f, 0.214322f, -0.000000f, -0.195522f, -0.100956f, -0.347783f, -0.006128f, -0.185584f, -0.117512f, -0.046579f, -0.008539f, -0.101403f, 0.045044f, -0.721453f, -0.000001f, 0.107258f, 0.347662f, 0.450881f, 0.213636f, 0.145109f, 0.185177f, -0.054633f, -0.000632f, 0.122910f, 0.078132f, -0.258330f, -0.075554f, -0.037781f, -0.042902f, -0.204373f, 0.111713f, 0.172076f, 0.201699f, 0.225548f, -0.205430f, -0.000000f, -0.537652f, 0.094300f, -0.304561f, 0.119895f, 0.217732f, -0.021517f, -0.245358f, 0.234311f, -0.112911f, 0.167748f, -0.163364f, -0.043799f, -0.100061f, 0.172056f, -0.030364f, -0.174193f, -0.079808f, 0.226996f, -0.082968f, -0.019336f, -0.502462f, -0.031884f, 0.078786f, -0.165177f, -0.030077f, 0.109647f, -0.000001f, -1.125866f, -0.406468f, -0.122303f, -0.044595f, 0.142242f, -0.189417f, 0.082284f, 0.062506f, 0.043448f, -0.194514f, -0.090239f, 0.040079f, 0.323296f, -0.000583f, -0.000015f, 0.206311f, -0.246924f, 0.207111f, 0.018799f, -0.031743f, -0.013753f, -0.242519f, 0.181200f, -0.102086f, -0.025007f, -0.093641f, -0.000000f, -0.000004f, -0.000046f, -0.015715f, 0.016725f, -0.107344f, -0.000000f, -0.139483f, -0.087129f, 0.048288f, -0.202078f, -0.089302f, -0.202137f, -0.242532f, -0.000217f, -0.025925f, -0.004180f, 0.096741f, -0.048631f, -0.159078f, -0.039092f, -0.177208f, -0.142925f, -0.147773f, -0.006205f, 0.020184f, -0.015786f, 0.002093f, 0.033358f, 0.102432f, -0.331333f, -0.106541f, 0.101116f, -0.000000f, 0.314295f, -0.145114f, -0.004025f, -0.042893f, 0.018926f, 0.192194f, -0.156994f, 0.016755f, 0.197617f, -0.043296f, -0.159185f, -0.251952f, -0.189003f, 0.250407f, -0.476600f, 0.132105f, -0.667452f, -0.019368f, -0.913802f, -0.234752f, -0.328619f, 0.316668f, 0.461835f, -0.206385f, -0.068333f, -0.024560f, 0.147029f, 0.143916f, -0.119975f, -0.019054f, -0.106541f, -0.653537f, 0.170762f, -0.296060f, -0.358777f, -0.004183f, 0.187488f, -0.000102f, -0.000074f, -0.004228f, 0.377491f, -0.000000f, -0.000162f, 0.020584f, -0.040295f, 0.001124f, 0.003779f, -0.110511f, 0.001533f, -0.008430f, -0.052821f, 0.393680f, 0.137042f, -0.082025f, -0.077668f, -0.000010f, -0.028426f, -0.384872f, -0.229655f, -0.087685f, -0.000003f, 0.000066f, -0.018901f, -0.006549f, -0.172233f, -0.013194f, 0.208517f, -0.086612f, 0.166633f, 0.127755f, -0.117507f, -0.227481f, 0.163477f, -0.098085f, 0.279997f, 0.031859f, -0.240342f, -0.059308f, 0.119604f, -0.036391f, 0.161294f, -0.133052f, 0.074227f, -0.155634f, -0.130673f, 0.267106f, -0.146765f, -0.184013f, -0.202241f, 0.000650f, 0.058613f, 0.021825f, -0.208190f, -0.048820f, -0.184254f, 0.071470f, 0.108728f, 0.051227f, 0.178179f, 0.056409f, 0.092780f, 0.136541f, 0.212419f, 0.109677f, -0.090734f, -0.036687f, 0.136387f, 0.104719f, -0.048563f, -0.031155f, -0.324582f, -0.153078f, 0.254747f, -0.205585f, 0.166086f, 0.077835f, 0.149419f, -0.359284f, -0.594031f, 0.090840f, -0.341323f, 0.099039f, -0.404489f, -0.071178f, -1.094213f, -0.021598f, -0.005185f, -0.075403f, 0.209699f, 0.031830f, -0.419279f, 0.260066f, 0.040004f, 0.523801f, 0.204958f, -0.185857f, -0.397085f, -0.611396f, 0.420647f, -0.501269f, -0.691217f, -0.220279f, 0.153540f, -0.004592f, 0.084930f, 0.042983f, 0.010330f, -0.062551f, -0.091809f, 0.099888f, 0.106496f, -0.165645f, -0.048956f, 0.181237f, 0.000545f, 0.118799f, 0.177682f, 0.161513f, -0.132133f, 0.207414f, -1.153669f, 0.133868f, -0.174720f, 0.198059f, 0.157606f, 0.163453f, 0.021901f, 0.040592f, -0.132756f, -0.066664f, -0.000025f, -0.105809f, -0.109991f, 0.166979f, -0.110855f, -0.033613f, -0.080074f, 0.096995f, -0.144406f, -0.152509f, -0.021803f, -0.054248f, -0.000000f, -0.000012f, -0.000011f, -0.097936f, 0.036411f, -0.254003f, -0.000000f, 0.023999f, -0.020563f, 0.202700f, 0.067457f, -0.308017f, 0.158555f, 0.045169f, -0.000642f, -0.000019f, -0.208949f, 0.147211f, -0.232281f, -0.001511f, -0.006537f, 0.125374f, 0.030892f, 0.174069f, -0.092203f, -0.150777f, -0.320898f, -0.000003f, -1.631197f, -0.000296f, -0.752909f, 0.097402f, 0.221262f, -0.000000f, 0.095356f, 0.234798f, -0.144732f, -0.073904f, -0.137289f, -0.097079f, -0.408263f, -0.087843f, -0.055491f, -0.086095f, 0.063185f, -0.370360f, -0.147832f, -0.157301f, -0.201092f, -0.383482f, -0.164580f, -0.477948f, 0.343259f, 0.063514f, 0.264210f, -0.250085f, -0.149814f, 0.360413f, -0.050640f, -0.308069f, 0.324083f, 0.325832f, -0.141598f, -0.075723f, 0.056623f, -0.062850f, 0.047561f, -0.144945f, 0.179621f, 0.104984f, 0.096826f, 0.252173f, -0.102255f, 0.136563f, 0.040928f, -0.188800f, -0.141436f, 0.266127f, 0.194857f, -0.161416f, -0.115548f, -0.049086f, 0.008413f, 0.059247f, 0.101896f, -0.076231f, 0.421834f, 0.085508f, 0.029645f, -0.468954f, -0.197971f, 0.132236f, 0.022495f, 0.167029f, 0.119348f, -0.208813f, -0.114717f, -0.148282f, 0.122184f, -0.186834f, -0.046667f, -0.189678f, -0.120507f, 0.049870f, -0.068053f, -0.088872f, 0.009071f, 0.166687f, 0.073703f, 0.093439f, 0.119591f, -0.034356f, -0.000901f, -0.082881f, 0.027499f, 0.117581f, -0.052333f, -0.005581f, 0.014678f, 0.098809f, -0.071627f, -0.096298f, -0.165285f, -0.166046f, 0.092841f, 0.069652f, 0.069736f, 0.066180f, -0.036794f, 0.208932f, 0.028518f, -0.004455f, -0.081878f, -0.085761f, 0.073145f, -0.563830f, 0.242461f, -0.319263f, 0.123603f, 0.039661f, 0.003228f, -0.426414f, 0.090403f, -0.113772f, 0.162743f, 0.138864f, -0.170011f, -0.231811f, 0.170587f, -0.170098f, 0.104974f, 0.170075f, 0.281158f, 0.089157f, -0.130883f, -0.009040f, -0.141400f, -0.075522f, 0.231232f, -0.033343f, -0.338443f, 0.294408f, 0.011014f, -0.270758f, -0.130457f, -0.167674f, -0.110615f, -0.841698f, -0.051506f, -0.029057f, -0.068134f, -0.018235f, 0.157385f, -0.045192f, -0.058045f, 0.099050f, -0.000605f, -0.213526f, 0.109536f, 0.023526f, 0.139027f, -0.363002f, -0.008285f, 0.054994f, 0.036196f, -0.176064f, -0.058613f, -0.163841f, 0.212904f, -0.571144f, -0.286382f, 0.026592f, -0.054656f, 0.045963f, -0.005081f, -0.741444f, 0.145922f, -0.015383f, 0.042504f, 0.089650f, 0.206438f, 0.154527f, 0.009706f, -0.000606f, -0.017528f, 0.078394f, -0.063816f, -0.196860f, -0.888888f, -0.090594f, -0.292885f, 0.174852f, -0.215013f, 0.131368f, 0.088259f, -0.254826f, -0.830174f, 0.828563f, -0.221781f, -0.085543f, -0.088644f, 0.185010f, -0.059390f, -0.281137f, 0.148963f, 0.098452f, -0.014836f, 0.138239f, -0.237206f, -0.076437f, 0.067718f, 0.159787f, -0.148173f, -0.093342f, -0.039494f, -0.034404f, -0.175023f, -0.248865f, 0.091463f, -0.001277f, 0.015757f, -0.233106f, -0.110447f, 0.035196f, 0.029484f, 0.236821f, 0.026799f, -0.017041f, 0.224603f, 0.007047f, -0.063316f, -0.154425f, -0.063091f, -0.234508f, 0.131659f, 0.088845f, -0.099115f, 1.026390f, -0.992658f, -0.259603f, 0.719624f, 0.322212f, -0.970634f, -0.281405f, 0.427976f, -0.679157f, 0.317640f, 0.172909f, -0.084572f, -0.290375f, -1.223768f, -0.165675f, -0.495906f, 0.641639f, 0.002954f, -0.021742f, -1.159585f, -0.073963f, -0.122036f, -0.279464f, -0.665747f, -0.223652f, -0.124109f, 0.422527f, -0.001137f, -0.134398f, 0.144876f, 0.062965f, -0.162167f, 0.165784f, -0.058673f, 0.048963f, 0.164924f, -0.220635f, 0.018518f, 0.098701f, 0.097784f, 0.039624f, 0.103002f, -0.185383f, 0.144143f, -0.050482f, -0.252432f, -0.046494f, 0.323728f, 0.203107f, -0.225409f, -0.219944f, -0.411678f, 0.106646f, -0.056333f, -0.113096f, -0.003689f, -0.456044f, -0.532630f, -0.746329f, -0.134937f, -0.005321f, -0.329657f, -0.425758f, -0.008837f, -0.770679f, 0.288990f, 0.643736f, 0.000000f, -0.079580f, 0.000722f, -0.140930f, -0.472472f, -0.374852f, -0.000000f, 0.071787f, -0.759824f, -0.328844f, -0.445786f, -0.074370f, -0.247223f, -0.202207f, 0.010559f, -0.000014f, -0.179573f, 0.026943f, -0.103268f, -0.032691f, -0.005838f, -0.126100f, -0.172575f, -0.117729f, -0.102049f, -0.298173f, 0.257570f, -0.000000f, -0.000001f, -0.000172f, -0.056901f, 0.117865f, -0.573738f, -0.000000f, 0.122207f, -0.155986f, -0.035450f, 0.177974f, -0.254738f, 0.020271f, -0.031390f, 0.131145f, -0.080316f, -0.123013f, 0.256546f, 0.083951f, -0.104716f, 0.083205f, -0.254594f, -0.002220f, 0.151987f, -0.199594f, -0.011953f, -0.124292f, 0.164745f, -0.466683f, -0.044044f, 0.055557f, 0.229767f, -0.177695f, -0.098493f, 0.099016f, 0.045768f, 0.003710f, -0.132592f, -0.974728f, 0.024114f, -0.186072f, 0.177609f, -0.256457f, -0.015871f, -0.406229f, -0.255063f, 0.075778f, 0.204686f, -0.331704f, -0.281370f, -0.010408f, -0.298620f, -0.124632f, -0.000468f, 0.243942f, 0.006128f, 0.108359f, -0.331024f, -0.049822f, -0.036066f, 0.144411f, -0.279801f, 0.084179f, -0.121409f, 0.044335f, -1.101099f, -0.258378f, -0.296370f, -0.543541f, -0.754278f, -0.022529f, 0.162758f, 0.012603f, 0.014110f, -0.256037f, 0.201114f, 0.115675f, -0.255738f, -0.013772f, -0.143607f, 0.072217f, -0.257873f, 0.108462f, -0.312712f, 0.084094f, -0.064011f, 0.190565f, -0.358286f, 0.188059f, 0.124598f, -0.020453f, 0.050846f, 0.138937f, 0.041739f, 0.125420f, 0.101492f, -0.035177f, 0.097151f, -0.069100f, 0.104518f, 1.129786f, -0.038809f, -0.341987f, -0.115836f, -0.042867f, 0.100407f, 0.188621f, -0.202646f, -1.766643f, -1.321955f, -0.194316f, 0.556468f, -0.079464f, -0.095810f, -1.221121f, -0.163505f, -0.000252f, 0.024759f, -0.113755f, -0.360751f, -0.112881f, 0.466075f, -0.000425f, -0.000016f, 0.154930f, -0.261517f, 0.198799f, 0.045903f, -0.020702f, -0.052757f, -0.051980f, -0.134075f, -0.082133f, 0.173137f, -0.078511f, 0.033137f, -0.333419f, 0.030723f, -0.265120f, 0.198250f, 0.110274f, 0.023941f, 0.060675f, -0.003811f, -0.066929f, 0.037011f, -0.373611f, -0.037469f, -0.176290f, -0.347377f, 0.055047f, 0.091724f, 0.047988f, -0.064126f, -0.184517f, -0.080220f, -0.160847f, 0.058673f, -0.295235f, 0.018412f, -0.087397f, 0.131767f, -0.218979f, 0.109655f, -0.374410f, 0.146749f, 0.158072f, -0.118555f, 0.075675f, 0.068452f, -0.022544f, 0.228773f, 0.034735f, -0.058675f, -0.215810f, 0.041394f, -0.037916f, 0.106885f, 0.167476f, 0.172727f, -0.163447f, 0.203903f, -0.145935f, 0.066156f, -0.123695f, 0.019879f, 0.009651f, 0.130558f, -0.172541f, 0.190244f, 0.117390f, -0.158061f, -0.537197f, 0.087752f, 0.132112f, -0.021527f, -0.080613f, -0.208508f, -0.076036f, 0.023608f, 0.282941f, -0.041694f, 0.084286f, -0.000211f, -0.000012f, -0.021393f, -0.274394f, 0.702810f, -0.000687f, -0.031015f, 0.010914f, -0.322644f, -0.004973f, 0.023190f, -0.326495f, 0.118136f, -0.000000f, -0.412702f, -0.000144f, -0.540950f, 0.283133f, -0.159128f, -0.000000f, 0.029394f, -0.107419f, -0.379245f, -0.107255f, -0.257991f, -0.200857f, -0.365708f, -0.232909f, 0.585976f, -0.252256f, -0.004726f, -0.946020f, -0.514949f, 0.402651f, 0.206088f, 0.197501f, -0.066003f, -0.322404f, -0.012357f, -0.176089f, -0.339131f, 0.491491f, -1.100767f, -0.009299f, 0.046897f, 0.738462f, -0.363336f, 0.095828f, -1.321534f, 0.247289f, -0.134771f, -0.578638f, 0.097963f, -0.411963f, -0.000191f, -0.182896f, -0.014787f, -0.028089f, 0.276153f, -0.057449f, -0.008281f, 0.060825f, 0.003532f, 0.115839f, 0.098392f, -0.109745f, 0.254562f, 0.064007f, -0.033556f, 0.143011f, -0.155793f, 0.168109f, 0.269316f, -0.038084f, 0.190632f, -0.068997f, -0.038371f, -0.174729f, 0.194810f, -0.141807f, -0.038602f, 0.184671f, -0.232478f, -0.067310f, -0.004692f, -0.189291f, 0.056207f, -0.379060f, -0.000123f, -0.010726f, -0.003050f, -0.005924f, -0.001116f, -0.218547f, -0.020885f, -0.110357f, -0.122561f, -0.204779f, 0.019843f, -0.014061f, -0.618440f, 0.074014f, -0.012001f, -0.000157f, -0.020998f, -0.000000f, -0.135522f, 0.046344f, -0.002345f, -0.215835f, -0.123536f, -0.303955f, -0.025536f, 0.002965f, -0.004007f, -0.082782f, -0.075442f, -0.013363f, 0.128530f, -0.307707f, 0.002752f, -0.001342f, 0.021764f, -0.053231f, 0.692293f, -0.215836f, -0.936543f, -0.121032f, 0.038306f, 0.363654f, 0.060721f, -0.214406f, -0.439123f, -0.242906f, -0.022670f, -0.183856f, -0.008273f, -0.271041f, 0.009111f, -0.165572f, -0.067211f, 0.081571f, 0.064781f, 0.168163f, -0.123617f, -0.187320f, 0.104243f, -0.199448f, -0.015384f, -0.183619f, -0.002756f, 0.059002f, -0.171690f, 0.040672f, -0.114230f, 0.116331f, 0.186607f, -1.363858f, 0.463399f, -0.040387f, -0.177058f, -0.179314f, -0.063888f, -0.201372f, -0.000038f, -0.071324f, -0.070588f, -0.050966f, -0.146598f, -0.032979f, -0.000001f, -0.000001f, -0.000002f, -0.000000f, 0.080735f, -0.000017f, -0.054090f, -0.000332f, -0.142331f, 0.109838f, 0.037244f, -0.023830f, -0.152704f, 0.114636f, -0.000002f, 0.092953f, -0.000093f, 0.089701f, 0.021856f, -0.192573f, 0.099175f, 0.107533f, -0.203725f, 0.181765f, 0.161644f, 0.035698f, 0.194761f, -0.093851f, -0.049428f, 0.183445f, -0.165081f, 0.038189f, 0.041099f, -0.129395f, 0.004581f, -0.064208f, -0.097152f, -0.153421f, 0.054918f, 0.078636f, 0.230752f, -0.036574f, 0.043920f, 0.076766f, 0.161913f, 0.017246f, 0.249349f, -0.025934f, -0.158207f, -0.062338f, 0.157694f, -0.115724f, -0.226585f, -0.000058f, 0.156441f, -0.006809f, 0.097631f, -0.138107f, -0.161710f, -0.000191f, -0.060640f, -0.011754f, -0.280235f, -1.184816f, 0.016493f, -0.033741f, -0.111504f, -0.145638f, 0.089339f, 0.020040f, -0.042830f, -0.175651f, 0.031016f, -0.038383f, -0.000006f, -0.017662f, 0.047856f, 0.094004f, -0.000014f, -0.060818f, -0.003944f, -0.003787f, -0.002630f, -0.000363f, -0.337341f, -0.882105f, -0.000000f, -0.000000f, -0.000003f, -0.000240f, -0.148442f, -0.277759f, -0.101103f, 0.479261f, -0.000000f, -0.133326f, -0.223759f, -0.000001f, -0.136693f, 0.000001f, -0.158717f, -0.328477f, -0.001239f, 0.081847f, 0.205288f, -0.012602f, -0.127217f, -0.001842f, 0.106274f, 0.066679f, 0.149795f, 0.113318f, -0.166255f, -0.000000f, -0.000044f, -0.026428f, -0.110067f, 0.260866f, 0.390446f, 0.069299f, -0.041260f, -0.315183f, 0.242083f, 0.029792f, 0.107096f, -0.059053f, -0.049988f, -0.133239f, -0.064499f, -0.223896f, -0.087107f, 0.054966f, 0.118262f, 0.028249f, -0.012064f, -0.031038f, -0.058983f, -0.233931f, 0.008914f, -0.105397f, -0.126900f, -0.086777f, 0.164364f, -0.015980f, -0.078810f, 0.031227f, -0.049908f, -0.122954f, 0.059544f, -0.180581f, -0.202866f, 0.185743f, 0.025197f, 0.177419f, -0.000027f, -0.000008f, 0.139596f, -0.170821f, -0.107854f, -0.036571f, -0.043748f, -0.000000f, 0.161799f, 0.004079f, -0.046887f, -0.238306f, -0.022360f, -0.000000f, -0.000000f, -0.000004f, -0.000000f, 0.094063f, 0.059761f, -0.000000f, 0.219735f, -0.244128f, -0.353556f, 0.020986f, -0.236018f, -0.225742f, -0.000000f, -0.195798f, -0.200504f, -0.007709f, -0.026485f, 0.133291f, -0.105424f, 0.063473f, -0.185883f, 0.101345f, -0.018728f, 0.169982f, 0.019623f, -0.061681f, -0.142541f, 0.230076f, -0.250572f, -0.080941f, -0.094934f, -0.134718f, 0.154977f, -0.167399f, 0.089632f, 0.181535f, -0.214737f, 0.015318f, -0.088090f, 0.074104f, -0.126159f, 0.035128f, 0.014053f, -0.143918f, 0.190142f, -0.058090f, 0.134715f, -0.051570f, -0.113381f, 0.093753f, -0.237924f, -0.210720f, -0.298280f, -0.021190f, 0.184497f, 0.033422f, 0.078276f, -0.020161f, 0.152788f, -0.012938f, 0.128232f, -0.020039f, -0.191358f, 0.025910f, -0.081100f, 0.196529f, -0.164364f, 0.040800f, -0.034524f, -0.034601f, -0.085204f, 0.052817f, -0.016860f, -0.026234f, -0.000001f, -0.090546f, 0.040385f, -0.454687f, -0.342288f, -0.200522f, -0.000001f, -0.000100f, -0.005613f, -0.029500f, -0.716156f, -0.044173f, -0.000076f, 0.043986f, -1.147625f, 0.200588f, 0.226900f, 0.157652f, 0.019526f, -0.180641f, 0.162991f, -0.034903f, -0.035754f, -0.279083f, -0.200175f, -0.491323f, -0.201704f, 0.019288f, -0.126616f, -0.198056f, -0.083621f, -0.019620f, -0.114419f, 0.085568f, 0.215359f, -0.162689f, 0.272618f, 0.122474f, -0.670451f, 0.146602f, -0.050329f, 0.841894f, -0.313974f, -0.246405f, 0.193111f, 0.112110f, -0.178089f, -0.107351f, -0.017235f, 0.138880f, 0.073139f, 0.137494f, -0.100019f, 0.189590f, -0.210895f, -0.086987f, -0.030700f, -0.219304f, -0.020855f, -0.172509f, -0.153326f, 0.055866f, -0.063405f, 0.226551f, 0.054560f, 0.093915f, 0.165069f, 0.156859f, 0.092533f, 0.127321f, -0.152669f, 0.120543f, 0.067866f, -0.101900f, 0.097772f, 0.023428f, -0.111901f, -0.069974f, 0.007057f, 0.097553f, 0.229497f, -0.203888f, -0.100832f, 0.009102f, -0.061975f, 0.218491f, -0.013750f, -0.088380f, -0.173004f, -0.000004f, -0.011226f, -0.130585f, 0.356807f, -0.046458f, 0.194353f, -0.451792f, -0.036007f, -0.159502f, 0.168594f, 0.044999f, 0.153825f, -0.033115f, 0.250196f, -0.109816f, 0.432248f, -0.141310f, -0.163346f, 0.005130f, -0.070085f, -0.000787f, 0.062470f, -0.004058f, -0.000565f, -0.173989f, -0.323584f, -0.071025f, -0.570193f, 0.004799f, 0.212651f, -0.053289f, -0.051233f, -0.170677f, 0.025156f, -0.099479f, 0.015399f, -0.004490f, 0.103800f, -0.227506f, 0.150586f, -0.271823f, -0.010527f, -0.411344f, -0.208701f, -0.163749f, -0.182994f, -0.585914f, -0.459615f, -0.633843f, -0.005623f, -0.000704f, 0.005595f, -0.185682f, -0.498803f, -1.040911f, -0.241499f, 0.195641f, -0.009864f, 0.284756f, -0.090856f, 0.049349f, -0.000058f, -0.014595f, -0.000000f, 0.279021f, 0.102424f, 0.298972f, 0.056705f, -0.007379f, -0.002425f, 0.050313f, -0.113939f, 0.022425f, 0.061803f, -0.000659f, -0.001045f, -0.003553f, -0.000428f, 0.159729f, -0.006594f, 0.062283f, -0.029027f, 0.024864f, -0.144437f, -0.005409f, -0.077498f, 0.073659f, -0.065245f, -0.000060f, -0.010777f, -0.000000f, -0.038012f, -0.141533f, -0.107653f, -0.420590f, -0.012511f, -0.011273f, -0.114246f, -0.176067f, -0.232538f, -0.146680f, 0.509155f, -0.199356f, -0.018300f, -0.002112f, 0.088517f, -0.068815f, -0.462515f, -0.554975f, 0.211738f, 0.167553f, -0.010550f, 0.201164f, -0.012852f, -0.172944f, -0.000502f, -0.011828f, -0.231359f, 0.245637f, -0.125076f, 0.089244f, 0.168194f, -0.042020f, -0.406167f, -0.169998f, 0.284101f, -0.192516f, -0.248648f, -0.533695f, -0.449106f, -0.013429f, -0.479656f, 0.195891f, -0.625546f, -0.358269f, -0.361927f, 0.152610f, 0.236235f, -0.007877f, 0.280339f, -0.050001f, 0.018299f, -0.000645f, -0.116163f, -0.958681f, -0.374373f, 0.089895f, -0.131646f, -0.196659f, -0.055478f, -0.204688f, 0.015094f, 0.075442f, -0.108320f, -0.440880f, -0.098172f, 0.132409f, -0.190824f, 0.184715f, 0.174908f, -0.017751f, -0.408647f, -0.134115f, 0.219747f, 0.049214f, -0.005384f, -0.209046f, -0.433300f, 0.059169f, 0.131844f, 0.154970f, -0.088126f, 0.148289f, 0.023732f, -0.050736f, -0.145067f, -0.179844f, -0.008581f, 0.177385f, -0.105417f, -0.132799f, 0.168627f, -0.193510f, -0.010549f, 0.035079f, 0.086271f, -0.034919f, -0.096660f, -0.090812f, 0.038456f, -0.195965f, -0.038990f, -0.080803f, 0.146572f, 0.119112f, 0.173506f, 0.168667f, -0.208931f, 0.109981f, -0.140262f, -0.084514f, -0.235074f, -0.162577f, 0.051602f, 0.098560f, -0.175559f, 0.059882f, 0.190020f, 0.123165f, 0.038028f, 0.068550f, 0.075082f, -0.090585f, 0.008753f, 0.211220f, -0.149987f, 0.143908f, -0.168232f, 0.084388f, 0.077974f, -0.176376f, 0.183208f, -0.148101f, -0.020802f, 0.055703f, 0.270152f, 0.155759f, -0.002658f, -0.463245f, 0.006239f, 0.185337f, 0.208378f, -0.194928f, 0.137039f, 0.017793f, -0.166242f, -0.028607f, 0.064584f, 0.150992f, 0.120353f, -0.044490f, -0.110328f, 0.039456f, 0.032138f, -0.071266f, 0.083946f, 0.032606f, -0.080365f, -0.077738f, 0.036267f, -0.189490f, -0.035406f, 0.046314f, -0.095490f, -0.064531f, -0.126305f, -0.000490f, -0.011953f, -0.041916f, -0.102496f, 0.088705f, -0.061462f, -0.000000f, -0.050101f, -0.108316f, 0.018940f, -0.319501f, -0.142205f, -0.000001f, -0.012517f, -0.001060f, -0.101746f, 0.051847f, -0.217259f, -0.000007f, 0.050914f, -0.017006f, 0.192638f, 0.137135f, -0.233027f, -0.053465f, -0.234916f, -0.001542f, 0.262012f, -0.514662f, 0.458890f, 0.095935f, 0.071555f, -0.158352f, -0.224927f, -0.147435f, -0.104967f, 0.103803f, 0.375072f, 0.065678f, -0.290809f, -0.046461f, 0.015941f, -0.089939f, -0.418546f, -0.273038f, -0.132254f, 0.145926f, -0.887476f, 0.976999f, -0.032109f, -0.043877f, 0.196255f, -0.717864f, -0.036571f, -0.025424f, -0.076563f, 0.041628f, -0.100185f, 0.014308f, 0.094267f, -0.013014f, -0.175367f, -0.062872f, -0.138792f, 0.215928f, -0.020193f, 0.022548f, 0.132097f, -0.056516f, -0.153409f, -0.120879f, -0.023820f, 0.125296f, -0.184457f, -0.024578f, -0.035914f, 0.209390f, -0.107730f, -0.225280f, -0.318927f, -0.000240f, 0.025742f, 0.149530f, -0.235688f, -0.005087f, 0.084614f, -0.019080f, 0.094773f, 0.092823f, -0.127522f, 0.117330f, 0.206915f, -0.061989f, -0.082016f, -0.180204f, 0.063693f, 0.148639f, 0.112477f, 0.072696f, -0.000009f, -0.196042f, -0.069456f, 0.038916f, -0.052480f, -0.097782f, 0.118199f, 0.058910f, -0.000030f, -0.000008f, 0.112771f, 0.001729f, -0.463247f, 0.008472f, -0.051959f, -0.000000f, -0.061116f, 0.080620f, 1.336633f, -0.108918f, -0.805585f, -0.000022f, -0.000000f, -0.000011f, -0.000000f, -0.248326f, -0.064325f, -0.000000f, 0.198193f, -0.000672f, -0.114286f, 0.157672f, 0.082876f, 0.159800f, -0.000000f, 0.108880f, -0.252139f, -0.096818f, -0.076641f, -0.214101f, -0.171522f, -0.008971f, -0.223409f, -0.003787f, 0.257845f, -0.140106f, -0.010937f, 0.166492f, 0.077974f, -0.320564f, 0.237177f, 0.111202f, -0.197378f, -0.191452f, -0.176845f, 0.111558f, -0.015868f, -0.022816f, -0.108461f, -0.144431f, 0.001218f, -0.016773f, 0.191170f, 0.030287f, -0.005765f, 0.214840f, -0.002611f, -0.122067f, -0.101303f, -0.029551f, -0.213538f, -0.084056f, 0.069320f, -0.262734f, 0.030904f, -0.924050f, 0.142075f, 0.165711f, 0.041323f, -0.213930f, -0.114983f, -0.469291f, -0.225246f, -0.201650f, 0.016097f, 0.029508f, -0.169025f, -0.140742f, -0.085108f, -0.248077f, 0.205105f, -0.165944f, -0.403651f, 0.077064f, -0.093154f, 0.106638f, 0.203390f, 0.150970f, 0.223138f, 0.117263f, -0.176029f, 0.214445f, -0.537754f, -0.116960f, 0.092132f, -0.021568f, 0.143813f, -0.255971f, 0.054269f, 0.181009f, -0.062761f, -0.000070f, -0.036699f, -0.503417f, -0.060363f, -0.699788f, -0.066048f, -0.105709f, 0.188119f, 0.173627f, 0.140183f, 0.018482f, 0.074863f, 0.080600f, -0.051715f, -0.070288f, -0.169318f, -0.284815f, 0.135166f, -0.045799f, -0.084245f, -0.165439f, -0.338942f, -0.154001f, -0.113318f, 0.002516f, -0.261711f, 0.161204f, -0.120598f, -0.294759f, 0.099612f, 0.067850f, -0.020889f, -0.010673f, -0.012785f, -0.189373f, -0.013995f, 0.194084f, 0.198404f, -0.210080f, -0.124985f, -0.033714f, -0.045596f, 0.149312f, 0.083198f, -0.169701f, -0.065146f, -0.103369f, 0.154608f, -0.114142f, 0.216623f, -0.097176f, -0.152710f, 0.038871f, -0.035858f, -0.054191f, 0.111097f, 0.133626f, -0.162362f, -0.038722f, -0.000036f, -0.023055f, 0.179911f, 0.099249f, -0.304982f, -0.092413f, -0.008570f, -0.012903f, 0.084402f, -0.052890f, 0.189513f, -0.222614f, 0.125967f, -0.028362f, -0.068928f, 0.192997f, -0.320093f, 0.181338f, -0.696642f, -0.444580f, -0.610646f, -0.008125f, -0.048542f, -0.025240f, -0.047221f, -0.134548f, -0.004438f, -0.138067f, 0.032554f, 0.054989f, -0.001611f, -0.079894f, -0.004165f, -0.038613f, 0.050815f, 0.134424f, -0.003883f, 0.028825f, 0.037064f, -0.004952f, -0.031346f, 0.026114f, 0.085147f, -0.334673f, 0.183429f, -0.007204f, -0.514768f, 0.084994f, 0.000224f, -0.000041f, -0.008389f, -0.000000f, -0.113943f, -0.004372f, -0.119418f, -0.210556f, -0.068416f, -0.064976f, 0.140502f, 0.207990f, -0.101247f, 0.171028f, -0.000392f, -0.106249f, -0.223068f, 0.049382f, -0.027519f, -0.037686f, 0.160741f, 0.056262f, -0.027189f, -0.099934f, -0.058030f, -0.119006f, -0.032625f, 0.035748f, 0.003726f, -0.169039f, -0.424840f, 0.090073f, 0.056245f, -0.173615f, 0.026352f, -0.072339f, -0.008738f, 0.121591f, -0.111001f, 0.179033f, 0.018072f, -0.449595f, -0.118496f, -0.222309f, -0.038887f, 0.242955f, -0.200043f, 0.026507f, -0.029294f, -0.230938f, -0.140945f, 0.207726f, 0.094332f, 0.134914f, -0.716617f, -0.781990f, -0.222721f, -0.103064f, 0.028507f, 0.135511f, 0.000506f, -0.100618f, 0.113642f, -0.187208f, -0.147723f, 0.101369f, -0.005620f, 0.187106f, -0.007802f, -0.008747f, -0.090830f, 0.144271f, 0.141182f, -0.244987f, -0.252406f, 0.017107f, 0.038731f, 0.091232f, -0.144566f, -0.178195f, 0.244036f, -0.113657f, 0.047174f, 0.063033f, 0.147015f, -0.064404f, 0.215110f, -0.245413f, -0.124904f, -0.060248f, 0.023926f, 0.113625f, 0.247453f, 0.092796f, -0.119502f, 0.164523f, 0.051460f, -0.173736f, -0.118988f, -0.222778f, 0.023391f, 0.012067f, 0.132540f, -0.247530f, 0.064727f, -0.026770f, -0.080400f, -0.263023f, 0.082678f, -0.076899f, -0.096963f, -0.103200f, 0.017684f, 0.145082f, -0.259879f, 0.336177f, -0.022247f, -0.011347f, 0.171444f, 0.220242f, 0.143349f, 0.106341f, 0.080252f, 0.031152f, 0.067015f, 0.263394f, 0.184860f, 0.183886f, 0.086240f, -0.212284f, 0.096326f, 0.002517f, 0.025360f, -0.368018f, 0.053604f, -0.044701f, 0.146035f, 0.024705f, -0.077405f, -0.036889f, -0.250363f, 0.057683f, -0.000216f, -0.157506f, 0.100115f, -0.194985f, -0.032096f, -0.011018f, -0.421166f, 0.041986f, -0.229825f, -0.163553f, 0.166672f, 0.070294f, -0.000000f, -0.148843f, 0.012877f, -0.350532f, 0.188909f, 0.089061f, -0.057037f, -0.227175f, 0.029122f, 0.089870f, 0.075724f, -0.200654f, -0.054626f, -0.088807f, 0.087750f, -0.052513f, 0.128728f, 0.112120f, -0.008283f, -0.135895f, -0.132946f, -0.162824f, 0.067463f, -0.188246f, 0.053123f, -0.322420f, 0.048311f, -0.056263f, -0.035443f, -0.002468f, 0.022584f, -0.003265f, -0.358430f, 0.052516f, 0.142447f, -0.111041f, 0.036874f, 0.116256f, -0.241468f, 0.189483f, 0.129827f, -0.332292f, -0.049126f, 0.145359f, 0.150117f, -0.123663f, -0.034293f, 0.072846f, -0.187745f, -0.070431f, -0.258456f, -0.044461f, 0.167048f, 0.122765f, -0.051907f, 0.274030f, -0.138550f, -0.029387f, -0.197304f, 0.192329f, -0.105218f, 0.079525f, 0.031858f, -0.067386f, -0.030043f, -0.123883f, 0.012083f, -0.003147f, -0.030845f, -0.161914f, -0.073420f, 0.007320f, 0.129532f, -0.060115f, -0.061013f, -0.061197f, -0.141173f, -0.148419f, 0.209872f, -0.194590f, -0.158976f, -0.000002f, -0.082737f, -0.074513f, -0.021383f, 0.230395f, 0.027672f, -0.036519f, -0.213613f, -0.249484f, 0.065321f, -0.102953f, -0.074745f, -0.004665f, 0.008551f, -0.000384f, -0.000016f, 0.044231f, -0.156773f, -0.031457f, -0.001974f, -0.016255f, 0.089310f, 0.150540f, 0.040654f, -0.076112f, -0.140595f, -0.006948f, -0.000000f, -0.056665f, -0.100591f, -0.416514f, 0.149650f, 0.239874f, -0.000000f, 0.045545f, -0.258569f, -0.833040f, -0.002161f, -0.082592f, -0.043993f, -0.310887f, -0.156180f, -0.000557f, 0.175739f, -0.056421f, -0.115863f, -0.031357f, -0.031280f, -0.000000f, -0.095468f, 0.109104f, -0.177595f, -0.163276f, 0.145690f, -0.000000f, -0.006442f, -0.001081f, -0.167315f, -0.174822f, 0.779319f, -0.008876f, 0.021338f, -1.109600f, 0.555364f, -0.142363f, 0.075369f, 0.003908f, -0.010793f, -0.084890f, 0.244899f, -0.072351f, -0.157842f, -0.205734f, -0.051017f, 0.078069f, -0.072442f, -0.061559f, -0.251171f, 0.127430f, 0.149122f, 0.085590f, -0.062674f, 0.114152f, -0.055551f, -0.632024f, 0.030903f, -0.178189f, -0.366425f, -0.375765f, -0.111036f, -0.319576f, -0.198479f, -0.050687f, 0.156941f, -0.225071f, 0.070631f, -0.046622f, 0.109961f, -0.090743f, 0.000098f, -0.112785f, 0.091747f, -0.083737f, -0.107422f, 0.033864f, 0.099773f, -0.105247f, -0.045941f, -0.161019f, 0.019097f, 0.050619f, -0.074664f, -0.171327f, 0.010297f, 0.082824f, -0.142732f, -0.032153f, -0.195723f, -0.144993f, -0.043029f, 0.066484f, -0.108423f, -0.468689f, -0.051258f, 0.147075f, -0.197302f, -0.072978f, 0.061476f, 0.007487f, 0.129855f, 0.035462f, -0.161586f, 0.173693f, -0.153668f, 0.347617f, 0.008733f, 0.052695f, -0.119225f, 0.151769f, -0.011892f, -0.351414f, -0.418902f, -0.500348f, -0.248883f, -0.044635f, 0.125032f, -0.192370f, 0.069102f, 0.035641f, 0.186254f, 0.155997f, 0.180392f, 0.063820f, -0.013661f, -0.190717f, -0.035270f, 0.055517f, 0.052603f, 0.172360f, 0.014945f, -0.244078f, 0.090093f, -0.000000f, -0.066910f, -0.201380f, -0.187305f, -0.123691f, 0.205095f, -0.054122f, 0.067879f, 0.219403f, 0.269303f, -0.143708f, 0.136437f, 0.177501f, -0.102527f, 0.161676f, 0.343812f, 0.088301f, 0.004009f, 0.127934f, -0.120727f, -0.015845f, -0.041764f, -0.204185f, -0.273966f, -0.195415f, 0.153399f, 0.012226f, -0.223391f, 0.051457f, -0.133383f, -0.064680f, 0.323201f, -0.004166f, -0.036579f, -0.055815f, -0.047757f, -0.000037f, -0.006839f, -0.038686f, -0.146835f, -0.011268f, 0.106359f, 0.162347f, 0.193214f, -0.064533f, -0.198124f, -0.055188f, 0.062524f, -0.063841f, -0.128989f, -0.135493f, -0.137123f, -0.034218f, -0.251723f, 0.047010f, -0.031427f, 0.211050f, -0.101863f, -0.069355f, -0.215673f, 0.087031f, 0.108857f, -0.041710f, -0.160161f, -0.106105f, 0.232505f, -0.071905f, -0.037262f, 0.158711f, 0.019716f, -0.010461f, -0.143112f, -0.036470f, 0.089625f, 0.202214f, 0.030252f, -0.000939f, -0.145526f, -0.004106f, -0.000721f, -0.198869f, -0.184925f, 0.128258f, 0.099192f, -0.017467f, 0.193980f, 0.108957f, -0.025006f, -0.129217f, -0.030324f, -0.000279f, 0.113335f, -0.070768f, 0.271735f, -0.175070f, 0.067122f, -0.140473f, 0.067380f, 0.172231f, 0.077538f, 0.079922f, 0.154197f, -0.481458f, -0.115228f, 0.120451f, -0.095536f, -0.085606f, -0.067283f, -0.060900f, 0.337981f, -0.153105f, 0.249020f, -0.267940f, -0.068597f, -0.427815f, -0.103398f, 0.079582f, -0.015600f, 0.144897f, 0.202943f, 0.176139f, -0.119917f, 0.008765f, 0.210921f, -0.142629f, 0.110821f, 0.139929f, -0.428049f, -0.028866f, 0.051378f, -0.063097f, -0.219637f, 0.073386f, -0.121992f, 0.083352f, -0.276547f, 0.128055f, 0.126698f, 0.040151f, -0.024640f, -0.222688f, -0.060391f, 0.154316f, -0.234615f, -0.000216f, 0.155645f, -0.224328f, -0.129152f, -0.236347f };
static float MLP_buf1[100];
static float MLP_buf2[100];
static const EmlNetLayer MLP_layers[2] = { 
{ 100, 7, MLP_layer_0_weights, MLP_layer_0_biases, EmlNetActivationRelu }, 
{ 27, 100, MLP_layer_1_weights, MLP_layer_1_biases, EmlNetActivationSoftmax } };
static EmlNet MLP = { 2, MLP_layers, MLP_buf1, MLP_buf2, 100 };

    int32_t
    MLP_predict(const float *features, int32_t n_features)
    {
        return eml_net_predict(&MLP, features, n_features);
    }
    

    int32_t
    MLP_regress(const float *features, int32_t n_features, float *out, int32_t out_length)
    {
        return eml_net_regress(&MLP, features, n_features, out, out_length);
    }
    

    float
    MLP_regress1(const float *features, int32_t n_features)
    {
        return eml_net_regress1(&MLP, features, n_features);
    }
    