
#include <eml_net.h>
static const float MLP_layer_0_biases[100] = { 0.109117f, -0.196725f, 0.168586f, 0.043079f, -0.198848f, -0.109134f, 0.073865f, -0.221397f, 0.201229f, -0.193327f, 0.249642f, -0.108519f, 0.023911f, -0.144209f, 0.035805f, -0.186946f, -0.154295f, -0.057990f, 0.202847f, 0.116777f, 0.021062f, 0.336439f, 0.210212f, -0.223864f, 0.148278f, 0.167452f, 0.166708f, -0.166290f, 0.206520f, -0.115068f, -0.149970f, 0.209221f, -0.165667f, 0.150836f, 0.257905f, -0.077407f, -0.169331f, 0.197334f, 0.065079f, -0.206770f, -0.062201f, -0.202067f, 0.207874f, 0.249243f, 0.132582f, 0.008532f, -0.157790f, -0.040400f, -0.122498f, 0.133441f, 0.240079f, 0.180123f, -0.094614f, 0.106430f, -0.157218f, 0.076683f, -0.255311f, -0.181442f, 0.243332f, -0.263496f, 0.055532f, -0.023832f, -0.070739f, 0.219316f, -0.039344f, -0.008607f, 0.200463f, -0.099480f, -0.130312f, -0.110454f, 0.029736f, 0.098852f, -0.253563f, -0.133805f, 0.002623f, -0.070621f, -0.177103f, 0.101928f, -0.099598f, 0.043640f, -0.015585f, 0.144760f, 0.199953f, -0.102023f, -0.201393f, 0.092719f, 0.103085f, -0.246174f, -0.055203f, 0.054056f, 0.090761f, 0.214570f, 0.109224f, -0.154922f, 0.164474f, -0.198696f, -0.083344f, -0.207710f, -0.056361f, -0.074486f };
static const float MLP_layer_0_weights[700] = { -0.058165f, 0.216663f, 0.181085f, 0.107958f, -0.023435f, 0.076787f, -0.161012f, 0.149646f, 0.167855f, 0.199256f, 0.159897f, 0.029761f, -0.135230f, 0.185252f, -0.092154f, 0.057366f, -0.031437f, -0.175854f, 0.071421f, -0.230934f, -0.163974f, -0.278205f, 0.250081f, 0.022368f, -0.003108f, -0.186947f, -0.054471f, -0.165008f, 0.137867f, 0.110707f, -0.124622f, 0.090207f, -0.002815f, -0.160497f, 0.024372f, -0.132496f, -0.074372f, 0.056167f, 0.080914f, 0.057789f, 0.289036f, -0.137632f, -0.036200f, -0.059278f, -0.117928f, -0.230740f, 0.220000f, 0.064854f, 0.090187f, -0.062851f, -0.002102f, 0.133777f, 0.174668f, -0.134278f, -0.024616f, -0.052406f, -0.171149f, -0.191781f, -0.137328f, 0.052500f, -0.051415f, 0.100208f, 0.129239f, 0.139081f, -0.003468f, -0.122673f, -0.017070f, 0.024242f, 0.155370f, 0.004386f, 0.178626f, 0.168337f, 0.108096f, -0.143820f, -0.027134f, 0.259167f, -0.076921f, 0.092696f, -0.278494f, 0.230375f, 0.169235f, 0.164217f, 0.309893f, 0.071905f, 0.048249f, 0.075800f, 0.127156f, -0.242627f, -0.044440f, -0.014415f, 0.064234f, -0.015153f, 0.222357f, -0.173634f, 0.083145f, 0.005661f, -0.193408f, 0.067543f, -0.190002f, 0.075376f, 0.034173f, -0.162309f, 0.062859f, 0.204473f, 0.110241f, 0.138367f, -0.039856f, 0.135307f, 0.128890f, 0.062814f, 0.059217f, -0.092608f, 0.138457f, 0.242415f, -0.217589f, 0.210162f, 0.140389f, -0.149749f, 0.184575f, 0.299592f, -0.051640f, 0.193079f, -0.196322f, 0.251050f, 0.179176f, -0.000583f, 0.286789f, 0.048805f, 0.197618f, 0.150115f, 0.104237f, -0.096191f, 0.019179f, -0.197516f, 0.116196f, 0.113610f, 0.012362f, 0.142708f, -0.203593f, 0.199855f, -0.062264f, -0.111501f, -0.050828f, 0.092157f, 0.142274f, -0.219657f, -0.142585f, -0.172710f, -0.027193f, -0.020274f, 0.240419f, 0.016335f, 0.108927f, 0.248006f, -0.086573f, -0.272150f, 0.001189f, -0.112633f, 0.103820f, 0.128051f, -0.169032f, 0.169278f, -0.127179f, 0.097150f, -0.046915f, 0.143899f, -0.127317f, -0.151926f, -0.265423f, 0.184694f, 0.189138f, 0.104451f, -0.403729f, 0.174056f, 0.259302f, -0.063182f, -0.118845f, -0.009410f, -0.035495f, -0.197442f, -0.098808f, 0.002155f, -0.104607f, 0.009109f, -0.236527f, -0.087766f, -0.226193f, -0.073542f, 0.117770f, 0.197528f, -0.179247f, 0.576002f, 0.122875f, 0.007017f, 0.172845f, -0.177680f, 0.096625f, -0.110987f, 0.101732f, 0.135978f, -0.042707f, 0.196084f, 0.180223f, -0.190686f, 0.189749f, 0.236491f, 0.236294f, 0.195368f, -0.069652f, -0.162652f, -0.190744f, -0.165014f, 0.134174f, 0.138240f, -0.127994f, -0.084740f, 0.257459f, 0.084336f, 0.114844f, 0.271188f, -0.061834f, 0.034228f, 0.143136f, -0.289412f, 0.138850f, 0.129283f, 0.006776f, -0.005354f, 0.116335f, 0.044987f, -0.155186f, -0.162080f, -0.020471f, 0.015348f, 0.239707f, 0.017365f, -0.221738f, 0.033312f, -0.257912f, -0.105735f, 0.131596f, 0.192928f, 0.165256f, -0.184637f, 0.183029f, -0.232330f, 0.071474f, 0.065486f, 0.142298f, -0.002941f, -0.008380f, -0.167078f, -0.097301f, -0.074081f, 0.021631f, 0.114044f, -0.018250f, 0.036942f, 0.219900f, -0.253487f, -0.146668f, -0.175979f, 0.137728f, -0.043243f, -0.015817f, 0.042910f, 0.145662f, 0.073708f, 0.027061f, -0.067661f, 0.202432f, -0.076563f, -0.035160f, 0.117636f, -0.159426f, -0.079058f, 0.090357f, -0.024048f, 0.101823f, 0.209841f, 0.170107f, -0.001914f, 0.005678f, -0.052830f, 0.023955f, -0.218324f, 0.030956f, -0.158259f, 0.028958f, 0.268068f, 0.162363f, -0.086545f, -0.010572f, 0.212707f, 0.026208f, 0.179420f, -0.042450f, -0.048620f, 0.197054f, -0.175748f, -0.240736f, -0.232161f, 0.059836f, 0.159139f, -0.017170f, 0.031868f, 0.184622f, 0.117175f, -0.064712f, 0.142079f, -0.197451f, -0.115183f, 0.128605f, -0.108499f, -0.063880f, 0.175837f, -0.238638f, 0.124602f, -0.041421f, -0.037377f, 0.175519f, -0.042445f, -0.240191f, 0.007786f, 0.083745f, -0.130273f, -0.212679f, 0.044736f, -0.072745f, -0.191212f, 0.098031f, 0.120056f, 0.112140f, 0.038279f, 0.045806f, -0.180761f, 0.012141f, 0.032673f, 0.178128f, 0.026236f, 0.137712f, 0.008734f, 0.081219f, 0.108461f, 0.111012f, 0.150079f, 0.035067f, -0.130712f, 0.110727f, 0.026462f, 0.100073f, 0.190266f, 0.052596f, 0.066987f, 0.031586f, 0.174142f, 0.205723f, 0.002718f, 0.015031f, -0.067951f, -0.001559f, -0.160784f, 0.124497f, 0.176555f, 0.073464f, -0.124801f, -0.126988f, 0.102555f, 0.059952f, 0.150304f, -0.047668f, 0.182634f, 0.042472f, 0.127021f, -0.003391f, -0.127059f, 0.047472f, -0.180758f, 0.039537f, -0.118920f, -0.218539f, -0.225497f, -0.173544f, 0.182556f, 0.156427f, -0.067715f, -0.147088f, 0.013446f, 0.127687f, 0.022647f, 0.040954f, -0.092306f, -0.135045f, 0.106375f, -0.067677f, 0.122745f, -0.115951f, -0.245478f, 0.054919f, 0.153368f, -0.224850f, 0.071803f, 0.081308f, 0.165912f, -0.276430f, -0.013547f, 0.104993f, 0.001436f, -0.037547f, 0.082985f, -0.142376f, 0.052660f, -0.176392f, 0.087057f, 0.123814f, 0.161209f, -0.149329f, -0.138570f, 0.061552f, -0.112711f, -0.044643f, 0.196248f, -0.078194f, -0.040556f, 0.094092f, 0.047253f, 0.077402f, -0.241358f, -0.164939f, 0.193819f, 0.164697f, 0.142683f, 0.018288f, -0.220151f, 0.015513f, -0.191121f, 0.163165f, 0.163380f, 0.055281f, -0.088940f, -0.201024f, 0.189256f, 0.188405f, -0.160447f, 0.091959f, -0.093514f, 0.054636f, -0.051247f, -0.188936f, -0.097388f, -0.033195f, 0.022587f, 0.042087f, 0.190780f, 0.073338f, -0.077416f, 0.028148f, -0.054572f, 0.020697f, 0.158265f, -0.181417f, -0.238220f, -0.182275f, -0.197697f, 0.051249f, -0.269806f, -0.149325f, 0.028897f, 0.081086f, 0.120866f, 0.073777f, 0.062954f, -0.082245f, 0.193900f, 0.103151f, 0.107856f, 0.232287f, -0.015603f, -0.062389f, -0.034521f, 0.277694f, -0.053293f, 0.101662f, -0.160873f, -0.190164f, -0.143854f, -0.219717f, 0.095521f, -0.228203f, -0.274602f, 0.046799f, -0.028675f, 0.069797f, 0.037795f, -0.065325f, -0.172175f, -0.032482f, -0.168946f, 0.069424f, -0.078964f, 0.212654f, 0.045037f, 0.054618f, -0.207663f, -0.199118f, -0.160964f, 0.142552f, -0.166576f, 0.009257f, -0.208408f, -0.009595f, -0.161100f, -0.114509f, 0.003842f, -0.166239f, 0.073867f, -0.138396f, -0.209154f, -0.147799f, 0.254687f, -0.128977f, 0.048266f, -0.164964f, 0.072014f, -0.153183f, 0.104617f, -0.037057f, -0.124739f, -0.001766f, -0.137131f, 0.060419f, -0.044248f, 0.126798f, 0.216604f, -0.115496f, -0.277370f, -0.118283f, 0.143348f, -0.133676f, -0.099634f, 0.152535f, -0.012949f, -0.064987f, -0.117869f, -0.010124f, 0.009047f, -0.091541f, 0.115471f, -0.117668f, -0.096739f, -0.141068f, 0.028670f, -0.001971f, 0.066821f, -0.054882f, -0.020095f, 0.178239f, -0.245456f, 0.018191f, 0.060389f, -0.204608f, -0.019549f, 0.209969f, -0.135835f, 0.008710f, -0.164847f, 0.097922f, 0.114059f, 0.007260f, -0.168948f, 0.033836f, 0.015461f, 0.040312f, 0.161961f, -0.135596f, 0.060645f, 0.185400f, 0.099466f, 0.104732f, 0.235215f, -0.001120f, -0.053482f, -0.081957f, -0.177201f, -0.063535f, -0.122622f, 0.062775f, -0.123478f, -0.063213f, 0.072699f, -0.004725f, 0.183899f, -0.050707f, 0.022273f, 0.121795f, -0.153204f, 0.001251f, 0.099702f, -0.009920f, 0.010115f, 0.104169f, -0.018341f, 0.132591f, -0.058198f, 0.088399f, 0.058942f, 0.143626f, -0.017142f, -0.181241f, -0.033962f, -0.205931f, 0.222323f, -0.013726f, -0.115834f, 0.117350f, 0.079048f, 0.069544f, -0.099920f, -0.109538f, -0.081619f, -0.124238f, -0.048032f, -0.110984f, -0.172639f, 0.088825f, -0.128320f, -0.087000f, -0.039566f, -0.017436f, 0.200904f, 0.182568f, 0.203185f, 0.078825f, -0.117424f, -0.012866f, -0.066645f, 0.235800f, -0.038798f, -0.087222f, 0.214511f, -0.214550f, 0.150214f, -0.025685f, 0.237595f, -0.000187f, -0.080797f, -0.092092f, 0.062364f, 0.097508f, -0.145328f, 0.138908f, -0.056558f, -0.120625f, 0.209893f, -0.228306f, -0.099323f, 0.127166f, 0.145304f, 0.049034f, -0.230709f, 0.033260f, 0.038124f, 0.131583f, -0.020496f, 0.312599f, 0.174671f, 0.145906f, 0.072033f, -0.124752f, 0.114691f, 0.026801f, -0.158237f, -0.126876f, -0.069058f, -0.044122f, 0.062788f, 0.021908f, -0.118654f, -0.115531f, 0.143337f, -0.182266f, -0.001052f, -0.097624f, 0.139578f, 0.100590f, -0.050201f, 0.150060f, 0.070515f, -0.053637f, -0.049472f, -0.236296f, -0.127926f, -0.017889f, -0.019288f, 0.205893f, 0.099604f, 0.008747f, 0.027295f, -0.164466f, 0.168829f };
static const float MLP_layer_1_biases[26] = { 0.067909f, -0.006877f, 0.132935f, 0.259382f, -0.032006f, -0.100187f, 0.004468f, 0.169568f, 0.113549f, 0.089233f, -0.164557f, 0.090118f, 0.042215f, -0.158316f, 0.076824f, -0.039168f, 0.189354f, -0.094512f, 0.145031f, -0.093226f, -0.223873f, -0.147974f, -0.166525f, -0.168823f, -0.177459f, -0.069046f };
static const float MLP_layer_1_weights[2600] = { -0.120444f, 0.182553f, -0.129560f, 0.022443f, -0.210373f, -0.012083f, -0.000000f, 0.175973f, 0.001550f, 0.111411f, -0.000000f, -0.008952f, -0.000087f, -0.083702f, -0.000000f, -0.088061f, -0.000000f, -0.050186f, -0.000000f, 0.010763f, -0.071853f, -0.146358f, -0.250445f, -0.000560f, -0.000001f, -0.172009f, -0.036846f, -0.106488f, -0.019674f, 0.039068f, -0.223825f, -0.198713f, -0.028173f, 0.124979f, -0.225372f, -0.053143f, -0.028475f, 0.151839f, -0.150889f, 0.114467f, 0.134604f, -0.041618f, -0.152794f, 0.040379f, -0.114827f, -0.088132f, -0.072791f, -0.115820f, 0.221282f, -0.078211f, 0.046624f, 0.107776f, -0.127986f, -0.060197f, -0.038884f, -0.157934f, 0.243434f, 0.001850f, 0.116217f, 0.065682f, -0.162035f, -0.077185f, -0.008125f, -0.099431f, 0.086140f, 0.183675f, 0.168092f, 0.028711f, 0.158402f, 0.047120f, 0.058147f, 0.225249f, -0.182356f, -0.216164f, -0.150624f, 0.070105f, -0.069400f, 0.018392f, -0.044546f, -0.227277f, -0.025717f, -0.227446f, -0.094202f, 0.149600f, 0.155929f, -0.043153f, 0.191200f, -0.093747f, -0.014686f, -0.119253f, -0.135361f, -0.163880f, 0.209780f, 0.164091f, -0.132241f, -0.087375f, -0.079287f, -0.006306f, -0.048051f, 0.034582f, -0.154416f, -0.191815f, -0.139169f, -0.009156f, 0.009945f, -0.000000f, 0.143388f, -0.212785f, 0.225408f, -0.124939f, -0.123459f, -0.121487f, 0.255226f, -0.067814f, -0.030916f, -0.013624f, 0.130618f, 0.109208f, 0.103503f, -0.111329f, -0.037195f, 0.061257f, 0.067882f, -0.116033f, 0.048140f, 0.137560f, -0.246612f, -0.180894f, 0.073465f, 0.060672f, 0.103254f, -0.213664f, 0.209853f, 0.151357f, -0.081879f, 0.081183f, 0.222029f, 0.115306f, -0.109086f, 0.113857f, -0.176040f, 0.177807f, -0.112538f, 0.145907f, 0.189925f, 0.038793f, -0.008639f, -0.164470f, -0.068616f, 0.155386f, 0.158188f, 0.134709f, -0.105947f, 0.060587f, 0.029568f, -0.026993f, -0.060865f, 0.154602f, -0.101985f, 0.219743f, 0.034339f, 0.148252f, -0.076076f, -0.205319f, 0.179644f, 0.163032f, 0.049299f, 0.041816f, -0.056419f, -0.042039f, -0.239534f, 0.006041f, -0.160765f, 0.147368f, 0.151120f, 0.001541f, 0.001607f, -0.168239f, -0.032348f, -0.112629f, 0.040565f, 0.180387f, -0.055691f, -0.087745f, 0.003098f, 0.027279f, -0.103262f, 0.069364f, 0.151717f, 0.126361f, 0.046025f, 0.075864f, 0.163469f, 0.024190f, -0.009129f, 0.108061f, -0.024634f, 0.011708f, 0.035803f, 0.082685f, 0.144141f, -0.097535f, 0.122891f, 0.018240f, 0.091973f, 0.190853f, -0.031130f, 0.036093f, 0.013983f, -0.014221f, 0.198774f, -0.104534f, 0.116747f, 0.016732f, -0.066352f, 0.071698f, 0.100984f, -0.170653f, -0.162881f, -0.153265f, 0.179491f, -0.276740f, 0.052658f, 0.089401f, 0.053066f, -0.204849f, -0.127734f, 0.128343f, -0.322053f, 0.212272f, 0.201478f, -0.093828f, 0.126927f, -0.068721f, -0.047834f, -0.168098f, 0.035268f, -0.264852f, 0.117220f, -0.160053f, 0.191289f, -0.120051f, 0.152522f, -0.142856f, 0.121157f, -0.009419f, 0.229152f, 0.198408f, -0.185309f, 0.016053f, -0.036260f, -0.188871f, 0.129660f, -0.174594f, -0.094539f, -0.132877f, 0.095628f, -0.029269f, -0.097817f, -0.071486f, -0.086965f, 0.249917f, 0.170458f, -0.171478f, -0.003070f, -0.019132f, 0.025799f, 0.160237f, 0.060598f, -0.248758f, -0.000000f, 0.124658f, 0.007288f, 0.134733f, -0.154383f, -0.077701f, -0.000000f, 0.141908f, -0.224182f, 0.020202f, 0.011370f, -0.571569f, -0.112883f, -0.005097f, 0.112270f, 0.151906f, -0.099881f, -0.000000f, 0.146983f, -0.175796f, 0.178251f, 0.126339f, 0.017540f, 0.192933f, 0.131238f, -0.011079f, 0.015387f, -0.136211f, -0.155110f, -0.079260f, 0.175261f, 0.015379f, 0.107969f, 0.185599f, 0.118475f, 0.081272f, 0.102058f, -0.006967f, -0.000000f, -0.065081f, -0.052733f, -0.183455f, -0.082818f, -0.011038f, -0.161317f, -0.082823f, -0.054100f, -0.029756f, 0.173273f, 0.028192f, 0.021747f, -0.067093f, -0.029616f, 0.098800f, -0.212877f, 0.181386f, 0.125020f, -0.029074f, 0.098311f, 0.114916f, 0.100857f, 0.209557f, -0.062902f, -0.228118f, 0.060833f, -0.040619f, 0.214825f, -0.123000f, 0.178699f, -0.086124f, -0.084519f, -0.017407f, 0.014235f, -0.163001f, -0.148785f, -0.245365f, -0.108145f, 0.123049f, 0.065969f, -0.017611f, 0.208170f, -0.102370f, 0.150914f, -0.033941f, -0.000160f, -0.040606f, -0.173739f, 0.008313f, 0.090808f, -0.056966f, -0.032687f, 0.188538f, 0.081685f, -0.148357f, 0.009939f, -0.000000f, -0.207194f, 0.117028f, 0.156493f, -0.106523f, -0.096285f, -0.035804f, -0.163044f, 0.022994f, -0.174952f, -0.208999f, 0.069804f, -0.185551f, -0.088973f, -0.114001f, -0.050196f, 0.028489f, -0.151142f, -0.156041f, 0.162173f, -0.150258f, -0.006781f, 0.138219f, 0.025450f, 0.147402f, 0.201911f, -0.188615f, -0.111864f, 0.083777f, -0.133543f, -0.209657f, -0.054429f, 0.168221f, -0.200626f, -0.172995f, -0.027501f, -0.129584f, -0.014673f, -0.167524f, 0.164989f, -0.182159f, -0.186762f, 0.025160f, -0.081110f, -0.162461f, -0.143044f, -0.016260f, -0.145556f, -0.076492f, -0.062683f, 0.108700f, 0.121198f, -0.000000f, -0.145311f, -0.160674f, 0.076876f, 0.038936f, -0.134859f, -0.037871f, 0.202375f, -0.183852f, -0.100948f, -0.133799f, 0.284159f, -0.277558f, 0.054924f, -0.095366f, -0.209875f, 0.092385f, 0.133947f, -0.243181f, -0.010138f, -0.012215f, -0.000000f, -0.169193f, 0.246682f, -0.107438f, -0.103325f, -0.000000f, -0.159123f, -0.113763f, 0.082310f, 0.061073f, -0.078619f, -0.162699f, 0.006569f, 0.015945f, 0.067830f, 0.183151f, -0.189934f, -0.178584f, -0.034214f, 0.206006f, 0.241661f, 0.061723f, 0.167446f, 0.054184f, 0.164769f, 0.182715f, -0.246534f, -0.022422f, 0.131226f, -0.111050f, 0.125820f, -0.006175f, 0.207492f, -0.226684f, 0.025754f, 0.134400f, -0.154772f, -0.118180f, -0.046195f, 0.193760f, -0.267350f, -0.212582f, 0.057114f, -0.163144f, -0.212588f, 0.072619f, -0.165685f, 0.027302f, 0.087671f, -0.067381f, -0.161891f, -0.225661f, 0.212867f, -0.191458f, 0.041404f, -0.075419f, 0.053893f, -0.098549f, -0.388070f, -0.014716f, -0.056051f, -0.004205f, 0.480549f, 0.038441f, -0.183631f, 0.007970f, -0.034678f, 0.146094f, -0.063942f, -0.072494f, -0.252895f, -0.204789f, -0.037098f, 0.020183f, -0.000915f, 0.112374f, -0.327150f, 0.023883f, 0.188261f, -0.129229f, 0.364891f, -0.220716f, -0.053092f, 0.156928f, 0.045956f, -0.033938f, -0.143215f, 0.098312f, -0.160854f, -0.181395f, -0.060970f, -0.239278f, 0.111062f, -0.129417f, 0.037832f, 0.027884f, 0.042845f, -0.002101f, 0.049084f, 0.120537f, 0.063615f, 0.056235f, -0.066274f, 0.051566f, 0.104792f, 0.002104f, 0.058869f, 0.119275f, 0.256028f, 0.043571f, -0.045510f, 0.098870f, 0.022428f, 0.163646f, -0.174389f, 0.169099f, -0.023148f, -0.170850f, 0.212591f, 0.222601f, -0.151670f, 0.138276f, -0.226482f, -0.047990f, -0.072656f, 0.040498f, -0.082588f, 0.206394f, -0.325123f, 0.186188f, 0.005867f, -0.369289f, 0.216049f, -0.276458f, -0.215820f, 0.165230f, 0.024170f, -0.035909f, -0.138750f, -0.016705f, 0.166825f, -0.219861f, 0.130717f, 0.014247f, -0.001722f, -0.172394f, 0.197884f, -0.295007f, 0.088349f, -0.004233f, 0.139375f, 0.117140f, 0.146892f, -0.151380f, -0.022761f, 0.105667f, 0.154952f, 0.110712f, 0.173706f, 0.143230f, 0.001797f, 0.172724f, -0.213326f, -0.187530f, 0.013352f, -0.159368f, -0.158717f, 0.071050f, -0.005012f, 0.065754f, -0.158054f, -0.026811f, -0.047098f, -0.092767f, 0.010158f, -0.110707f, -0.000000f, -0.374210f, -0.016412f, 0.042573f, -0.093749f, 0.408304f, -0.122426f, -0.264562f, -0.025273f, -0.288834f, -0.036164f, -0.027298f, -0.122457f, 0.101883f, -0.144057f, 0.121600f, 0.029989f, -0.027661f, 0.070404f, 0.186819f, 0.059082f, -0.112338f, 0.007027f, -0.165070f, -0.055718f, 0.027495f, 0.103594f, 0.175920f, -0.051836f, 0.197974f, 0.119455f, -0.209949f, -0.219463f, 0.093108f, -0.174022f, 0.197476f, -0.002999f, 0.037635f, -0.093792f, -0.153100f, 0.142236f, 0.063784f, -0.223376f, -0.195191f, 0.000460f, -0.107210f, -0.057854f, 0.140782f, 0.109872f, 0.113893f, -0.162154f, 0.036020f, 0.145751f, 0.133923f, -0.015065f, -0.087031f, 0.061466f, -0.122993f, -0.031795f, -0.006460f, 0.192011f, -0.162786f, 0.231899f, -0.134378f, -0.197973f, -0.077689f, -0.021641f, 0.304376f, -0.003991f, -0.015678f, -0.497467f, 0.023878f, -0.000000f, -0.007576f, 0.687941f, -0.450533f, 0.226214f, -1.403657f, -0.243779f, 0.176625f, -0.092280f, 0.044669f, 0.076664f, -0.328989f, 0.380226f, -0.914767f, 0.140392f, 0.084427f, 0.039552f, -0.000000f, -0.089708f, 0.086038f, -0.210150f, 0.196125f, 0.096357f, -0.000014f, -0.150547f, -0.014375f, -0.067256f, -0.165768f, -0.082320f, 0.079280f, 0.122524f, 0.134099f, -0.145549f, -0.009868f, -0.208139f, -0.140397f, -0.166854f, 0.167418f, -0.218230f, -0.223659f, 0.201033f, 0.161294f, -0.156814f, 0.242962f, 0.165566f, -0.213398f, -0.097447f, 0.071204f, 0.172493f, 0.004303f, -0.092040f, 0.257989f, -0.126107f, -0.170813f, 0.076009f, -0.168175f, -0.097746f, -0.219307f, -0.076839f, 0.132656f, -0.205482f, -0.022788f, 0.145104f, 0.163472f, 0.029874f, 0.215707f, 0.007709f, 0.199993f, 0.118178f, -0.137963f, -0.025532f, -0.004755f, 0.233679f, -0.053734f, -0.028720f, 0.090781f, 0.144584f, -0.199493f, -0.223731f, 0.065152f, -0.001151f, -0.111987f, 0.066808f, 0.134557f, 0.161021f, 0.168922f, 0.207667f, -0.030370f, -0.042680f, 0.091066f, -0.077644f, 0.210271f, 0.135004f, -0.234591f, -0.170285f, -0.017656f, -0.252386f, 0.130034f, -0.243797f, -0.078226f, 0.033178f, 0.083968f, -0.212323f, 0.123624f, 0.172865f, 0.016660f, 0.120785f, -0.073159f, -0.079700f, 0.160607f, 0.168226f, -0.085232f, -0.018296f, 0.027602f, 0.099616f, -0.143727f, -0.084877f, -0.130276f, -0.076979f, -0.370883f, 0.121994f, 0.132760f, -0.111972f, -0.113005f, 0.026439f, -0.075848f, -0.027296f, 0.201884f, 0.069816f, 0.006447f, 0.183457f, 0.117546f, -0.191325f, -0.134406f, -0.167535f, 0.228807f, 0.052073f, 0.021483f, -0.090443f, 0.136277f, -0.115268f, 0.178797f, -0.068806f, -0.096726f, 0.027482f, 0.028798f, -0.056357f, 0.054961f, -0.430727f, 0.211485f, 0.131075f, 0.081466f, 0.086435f, -0.090114f, 0.014940f, -0.029436f, -0.004006f, -0.148877f, -0.207318f, -0.155654f, 0.002767f, -0.160923f, 0.170559f, 0.220721f, -0.042393f, 0.103353f, -0.158499f, 0.091465f, 0.257207f, 0.198087f, 0.005689f, -0.027798f, -0.006477f, 0.137372f, -0.044119f, 0.029213f, 0.134959f, -0.002770f, -0.049782f, 0.121899f, 0.000000f, 0.055898f, -0.032696f, -0.177277f, -0.152111f, -0.068294f, -0.000000f, -0.127728f, -0.000346f, 0.397422f, -0.000000f, -0.076092f, -0.375604f, -0.676480f, -0.280071f, -0.623331f, -0.000580f, -0.615911f, -0.094439f, -0.149423f, 0.225628f, 0.163522f, 0.158883f, 0.048251f, -0.002538f, -0.186161f, -0.080927f, 0.160374f, 0.101110f, -0.085193f, -0.005466f, 0.203511f, 0.069905f, -0.027763f, 0.081997f, -0.215508f, 0.214468f, -0.071364f, -0.256253f, -0.021467f, 0.026005f, 0.157525f, 0.215649f, 0.004276f, -0.030341f, -0.000000f, -0.102662f, 0.166426f, 0.037475f, 0.253999f, 0.047365f, -0.000003f, 0.076157f, 0.099728f, -0.000000f, -0.000008f, -0.301289f, -0.271649f, 0.183501f, -0.285497f, -0.103882f, -0.019743f, 0.135990f, -0.526634f, 0.192825f, 0.010663f, -0.000000f, -0.051472f, 0.174226f, -0.019516f, -0.064131f, -0.000078f, 0.058691f, -0.114085f, -0.072668f, -0.121751f, -0.117074f, 0.088843f, 0.068296f, -0.138370f, -0.196240f, -0.131175f, 0.024257f, -0.026525f, -0.284231f, 0.037316f, -0.127536f, 0.122442f, 0.199023f, -0.088728f, -0.067720f, 0.157876f, 0.003515f, -0.001204f, 0.017681f, -0.135138f, -0.056939f, -0.175596f, 0.030857f, -0.152492f, 0.038691f, 0.191714f, 0.164631f, -0.216985f, -0.116034f, -0.072910f, 0.023448f, 0.050093f, -0.189303f, 0.026914f, 0.023579f, 0.144249f, 0.108342f, 0.192534f, 0.131303f, 0.054824f, 0.028436f, 0.132743f, 0.173809f, -0.170410f, -0.086356f, -0.184464f, -0.762219f, -0.464175f, 0.169562f, -1.040735f, -0.351558f, 0.049864f, -0.943985f, 0.043401f, -0.294283f, -0.732726f, -0.302787f, -1.434691f, -0.135958f, 0.280631f, 0.004915f, 0.613643f, 0.634233f, -0.067312f, -0.163768f, -0.310633f, 0.301428f, -0.308165f, -0.468737f, -0.759576f, -0.754963f, 0.374229f, 0.059720f, 0.000006f, 0.022588f, -0.046803f, 0.215644f, 0.183798f, 0.076916f, 0.212482f, 0.229869f, -0.009388f, -0.152915f, -0.161361f, -0.069889f, 0.155758f, 0.123058f, 0.148984f, 0.085913f, 0.179481f, 0.167412f, -0.083136f, -0.134118f, -0.149503f, -0.095472f, 0.198116f, -0.158939f, 0.104324f, -0.173752f, -0.016125f, 0.183478f, 0.132355f, 0.158633f, 0.085411f, -0.155910f, 0.141497f, 0.218779f, 0.062891f, -0.144403f, -0.189388f, 0.010811f, -0.128962f, -0.301388f, -0.129567f, -0.101729f, -0.105425f, -0.135636f, -0.115290f, 0.051492f, 0.011889f, -0.099505f, 0.001250f, -0.007474f, 0.045054f, 0.246364f, -0.141967f, -0.076328f, -0.057988f, -0.005013f, 0.096078f, -0.059009f, -0.167267f, 0.067405f, 0.157666f, -0.130207f, 0.063785f, 0.210735f, 0.182306f, -0.257046f, 0.045241f, 0.239117f, 0.108885f, 0.057218f, 0.144731f, 0.060365f, 0.007252f, -0.053042f, 0.134950f, 0.193129f, -0.130112f, -0.056957f, -0.174636f, 0.139831f, 0.037170f, -0.040780f, 0.141209f, 0.098940f, 0.094082f, -0.084086f, 0.085675f, 0.124766f, 0.114885f, -0.157648f, 0.170985f, -0.124367f, 0.222480f, 0.202346f, -0.024607f, -0.142682f, -0.129507f, 0.114949f, 0.193486f, -0.048602f, 0.051347f, -0.142912f, 0.084801f, -0.098179f, -0.000000f, -0.231502f, -0.164901f, -0.087472f, 0.026566f, 0.072869f, 0.170720f, 0.020444f, -0.011089f, 0.053369f, 0.115067f, 0.033956f, 0.072335f, -0.023657f, -0.113781f, -0.008714f, -0.209177f, 0.018088f, -0.036040f, -0.040381f, -0.184733f, -0.000000f, -0.063072f, 0.028412f, 0.044922f, 0.235010f, 0.048471f, -0.094119f, -0.002549f, -0.060275f, 0.078591f, 0.063327f, 0.199100f, -0.099167f, -0.217229f, 0.066582f, 0.221379f, 0.118352f, -0.093201f, -0.115863f, -0.143796f, 0.006835f, -0.138916f, 0.016285f, -0.089071f, 0.027603f, -0.173448f, 0.073154f, -0.139857f, 0.054058f, -0.193301f, -0.000000f, 0.079099f, -0.000000f, 0.058746f, -0.139872f, -0.000000f, -0.000031f, 0.012084f, -0.000000f, 0.056778f, -0.035903f, 0.134378f, -0.132982f, 0.144330f, 0.160062f, -0.027961f, 0.010718f, 0.031002f, -0.000000f, -0.001144f, -0.169547f, -0.003473f, -0.123752f, -0.003700f, -0.000000f, 0.073968f, -0.100990f, 0.063901f, -0.069406f, 0.081551f, -0.038439f, 0.194985f, -0.199863f, -0.109307f, 0.083399f, 0.179288f, -0.097819f, 0.149333f, 0.078172f, -0.140387f, 0.133799f, -0.119882f, -0.012715f, 0.131440f, -0.075321f, 0.017029f, 0.204387f, -0.115354f, 0.086340f, 0.118729f, -0.185248f, -0.039238f, 0.007385f, 0.141392f, 0.018866f, 0.065195f, 0.083451f, -0.032251f, -0.000047f, 0.092440f, 0.053058f, -0.122279f, -0.007383f, 0.066270f, -0.234202f, 0.106760f, -0.162542f, -0.207056f, -0.001212f, -0.117725f, -0.000000f, -0.076099f, 0.054769f, 0.131266f, -0.074473f, 0.078692f, -0.000217f, -0.188099f, -0.128362f, -0.093930f, -0.143849f, 0.012658f, 0.054652f, -0.096966f, -0.125898f, -0.148155f, 0.236550f, -0.061761f, -0.181152f, -0.137331f, 0.035760f, 0.146042f, 0.177710f, -0.025337f, -0.137874f, -0.216362f, -0.149019f, 0.067908f, 0.050461f, 0.186485f, 0.120355f, -0.184800f, 0.153674f, 0.186781f, -0.128818f, -0.000000f, -0.128750f, 0.094975f, -0.255331f, -0.132095f, -0.026414f, -0.005277f, -0.074115f, -0.226952f, 0.012512f, 0.028017f, -0.028869f, -0.185609f, -0.043743f, -0.108990f, 0.160403f, 0.192508f, -0.024742f, 0.091366f, -0.048835f, -0.077370f, -0.042018f, 0.024294f, 0.230314f, -0.092227f, -0.068795f, -0.000101f, 0.088264f, -0.239180f, 0.217190f, -0.085585f, -0.057936f, 0.194588f, 0.043549f, 0.049006f, -0.190702f, -0.154406f, -0.188447f, -0.004717f, 0.148671f, 0.112207f, 0.036013f, -0.061558f, 0.047061f, -0.098547f, -0.050101f, -0.046128f, 0.067330f, 0.143603f, 0.105452f, -0.178667f, 0.120104f, 0.040109f, -0.077385f, 0.223137f, -0.150309f, -0.128289f, -0.043406f, 0.101427f, 0.096252f, 0.129899f, -0.058111f, 0.105816f, 0.070439f, 0.226565f, 0.086218f, -0.041732f, -0.151900f, -0.157378f, 0.013690f, 0.169537f, 0.215078f, -0.208815f, 0.178452f, 0.218105f, 0.018228f, -0.153683f, -0.157371f, 0.072992f, 0.165056f, 0.058648f, -0.057177f, 0.161368f, 0.171167f, -0.149873f, -0.068972f, 0.183154f, -0.017846f, 0.016273f, -0.149911f, 0.068261f, 0.031703f, 0.158677f, 0.035824f, 0.175894f, -0.143528f, -0.086688f, -0.087107f, 0.031118f, 0.030441f, 0.210950f, -0.135926f, 0.145513f, 0.212193f, -0.179569f, -0.633578f, -0.120160f, 0.136117f, -0.092658f, -0.056514f, 0.045366f, -0.119633f, -0.130889f, 0.067033f, 0.080445f, -0.095127f, 0.062488f, -0.102630f, 0.006291f, -0.138276f, -0.091779f, 0.004160f, -0.097622f, -0.069750f, 0.112643f, -0.062362f, 0.254535f, -0.058529f, -0.180803f, 0.100036f, -0.217898f, 0.225182f, 0.078844f, -0.128008f, -0.099004f, -0.054427f, -0.358703f, -0.140523f, -0.055780f, 0.030773f, 0.164783f, 0.007831f, 0.185254f, -0.021113f, 0.190495f, -0.066562f, -0.236794f, 0.237409f, 0.032463f, -0.002867f, -0.023420f, 0.145820f, 0.164740f, 0.009041f, 0.057087f, -0.078033f, 0.030029f, 0.055949f, 0.093874f, -0.230099f, -0.027482f, 0.103336f, -0.215949f, 0.301078f, -0.196652f, 0.070405f, 0.070814f, 0.004314f, 0.152813f, 0.072396f, 0.009279f, 0.091140f, 0.050490f, -0.016487f, 0.062845f, 0.046437f, 0.007245f, 0.080983f, -0.201403f, -0.211428f, 0.244846f, -0.209192f, 0.146100f, -0.326089f, -0.139538f, -0.170575f, -0.206646f, -0.162656f, -0.104673f, -0.116474f, 0.047155f, 0.203334f, 0.086193f, -0.217082f, -0.013955f, 0.175209f, -0.084511f, -0.014500f, 0.088620f, -0.152144f, 0.100614f, 0.126773f, -0.173092f, 0.228573f, -0.089237f, -0.192969f, -0.126106f, 0.026693f, -0.000000f, -0.307228f, -0.186829f, -0.170056f, 0.119925f, 0.117187f, -0.066121f, -0.078928f, 0.168128f, -0.206546f, 0.121342f, -0.062952f, 0.125020f, 0.069803f, -0.146267f, 0.187744f, -0.219576f, -0.112968f, -0.115360f, 0.027817f, 0.117287f, -0.000000f, 0.097140f, -0.024740f, -0.191327f, 0.082168f, 0.088827f, -0.142287f, 0.221879f, -0.111288f, -0.159249f, -0.079678f, -0.043350f, -0.015796f, -0.179476f, 0.054876f, -0.042863f, -0.090876f, -0.191606f, 0.080798f, 0.063685f, 0.149224f, 0.202278f, -0.195289f, -0.112994f, -0.122324f, 0.016121f, -0.090486f, 0.136269f, -0.070117f, 0.066261f, -0.038841f, -0.129962f, -0.214440f, -0.202354f, -0.032154f, 0.117643f, -0.067725f, -0.210404f, 0.101615f, 0.012700f, -0.177794f, 0.036575f, -0.118518f, -0.088967f, -0.277208f, -0.029699f, 0.004260f, -0.093000f, -0.039280f, 0.010022f, 0.115880f, 0.080778f, 0.077121f, -0.054767f, -0.253243f, -0.009456f, -0.000000f, -0.000000f, -0.202263f, -0.000000f, -0.046343f, 0.057037f, 0.004378f, -0.000000f, -0.134252f, -0.046800f, -0.000000f, -0.000001f, -0.000002f, 0.124048f, -0.065975f, -0.000000f, 0.168256f, 0.188600f, 0.066475f, -0.009556f, 0.150453f, -0.131278f, -0.000000f, -0.211600f, -0.051774f, -0.000000f, 0.006908f, -0.054694f, 0.054696f, -0.013094f, 0.124645f, -0.076344f, -0.049170f, 0.094257f, -0.202679f, -0.001163f, -0.000000f, -0.000010f, -0.188514f, -0.004640f, 0.162635f, 0.132807f, -0.000000f, -0.095320f, -0.018559f, 0.034694f, 0.117933f, 0.120446f, -0.244108f, -0.175671f, -0.037037f, -0.140288f, 0.040807f, 0.226215f, 0.202623f, 0.132019f, -0.010579f, -0.046103f, -0.136589f, 0.152011f, 0.168413f, -0.131212f, -0.121505f, -0.071346f, 0.152908f, -0.169644f, -0.063631f, -0.107515f, 0.035259f, -0.143031f, -0.164883f, -0.149188f, 0.002634f, 0.140443f, -0.063988f, 0.043900f, -0.093439f, -0.128263f, -0.020036f, 0.059300f, 0.040055f, -0.152292f, 0.137003f, 0.053484f, -0.208937f, -0.148760f, -0.013890f, -0.127790f, -0.206725f, -0.041798f, -0.153473f, 0.075984f, 0.203607f, -0.004183f, -0.018936f, 0.089052f, 0.035028f, 0.093792f, -0.213667f, 0.111722f, -0.135930f, -0.028884f, 0.154482f, -0.126970f, 0.072186f, -0.066762f, -0.699018f, -0.142822f, -0.253208f, -0.150606f, 0.233627f, 0.228218f, -0.252151f, 0.164018f, 0.078574f, 0.104746f, 0.101567f, 0.086407f, -0.444493f, -0.134901f, -0.220484f, 0.174882f, -0.309724f, -0.172145f, 0.014150f, -0.228677f, -0.237330f, 0.048380f, -0.243346f, -0.094701f, -0.170558f, -0.000000f, 0.131966f, 0.183357f, 0.179221f, 0.220002f, -0.177539f, -0.141815f, 0.166760f, 0.168745f, -0.039052f, 0.097190f, -0.070877f, 0.111467f, 0.115864f, -0.249485f, 0.149598f, -0.014005f, 0.133635f, 0.051849f, 0.008779f, -0.118545f, -0.000000f, 0.026983f, -0.007040f, 0.122703f, -0.038172f, 0.072470f, -0.007985f, -0.175668f, 0.077632f, -0.004072f, -0.141170f, 0.082366f, 0.000245f, -0.056691f, 0.089116f, -0.096815f, -0.039075f, -0.178450f, -0.001084f, -0.213018f, -0.110397f, -0.231416f, -0.000000f, -0.040688f, 0.124192f, 0.105632f, -0.015523f, -0.058343f, -0.000195f, -0.087466f, -0.267012f, 0.229043f, -0.047571f, -0.009932f, -0.275857f, -0.039152f, 0.100832f, -0.150443f, -0.045045f, -0.046894f, 0.071766f, -0.060273f, 0.122626f, -0.392867f, -0.029665f, 0.197665f, -0.012695f, 0.071429f, 0.141046f, 0.181409f, 0.026210f, -0.040762f, 0.038703f, 0.202931f, -0.075429f, -0.062585f, -0.235693f, -0.130634f, 0.032576f, 0.177971f, -0.196105f, -0.226332f, -0.319114f, 0.034823f, -0.401860f, -0.107105f, -0.197265f, 0.082660f, -0.093998f, 0.136524f, -0.627107f, 0.128748f, -0.155507f, -0.138167f, -0.234274f, -0.244961f, 0.027495f, -0.058412f, -0.129154f, -0.007216f, -0.244779f, 0.222721f, -0.011286f, -0.054963f, -0.107181f, -0.093215f, 0.017693f, -0.159873f, 0.185976f, -0.023963f, 0.080469f, -0.219496f, -0.025902f, -0.156057f, 0.162796f, 0.134613f, -0.162073f, -0.093131f, -0.096003f, -0.108965f, 0.092889f, 0.182228f, 0.114818f, 0.155393f, -0.270470f, -0.140672f, -0.004162f, 0.172797f, 0.129852f, -0.170557f, -0.087619f, 0.181807f, -0.066938f, -0.142722f, -0.127244f, 0.157976f, 0.210264f, -0.004095f, -0.007411f, 0.086274f, 0.198080f, 0.050920f, -0.067215f, -0.044168f, 0.134868f, 0.195352f, 0.032026f, 0.025279f, 0.142122f, 0.115379f, 0.045466f, -0.012514f, -0.133587f, 0.159989f, -0.082764f, 0.041394f, -0.024775f, -0.085132f, 0.112820f, -0.104337f, -0.080433f, 0.046283f, -0.174449f, -0.222492f, 0.002925f, -0.095165f, -0.148820f, 0.050366f, -0.090665f, -0.174795f, -0.173653f, 0.111664f, -0.069671f, 0.100350f, -0.102628f, 0.202593f, 0.060240f, -0.002941f, 0.175688f, -0.174541f, -0.066599f, -0.133600f, -0.010730f, -0.147732f, 0.106721f, 0.075518f, -0.167936f, -0.139971f, 0.024067f, 0.154460f, 0.000475f, 0.021345f, -0.129240f, 0.043282f, -0.051576f, 0.130236f, -0.213205f, 0.064548f, -0.002615f, -0.046201f, 0.272757f, -0.130950f, -0.038306f, -0.295275f, -0.035554f, -0.099481f, -0.105032f, -0.070283f, -0.067379f, -0.172585f, 0.108309f, -0.212868f, 0.046372f, 0.025469f, -0.225228f, 0.103945f, -0.091721f, -0.136132f, 0.075033f, -0.043497f, 0.021453f, -0.164782f, -0.100966f, 0.017826f, -0.181885f, -0.130005f, 0.106711f, 0.195038f, 0.017309f, 0.084870f, 0.069809f, 0.089105f, 0.070551f, -0.000000f, -0.173110f, 0.063153f, 0.136870f, 0.096386f, -0.235455f, 0.176814f, -0.146382f, -0.073673f, 0.105430f, 0.005994f, 0.167436f, 0.050324f, -0.100376f, 0.027057f, 0.188650f, -0.049793f, 0.169712f, 0.058574f, 0.069197f, -0.075372f, 0.022726f, -0.182274f, -0.026646f, -0.086825f, 0.053432f, 0.038476f, -0.076675f, 0.130505f, -0.402360f, -0.031622f, -0.033919f, 0.056596f, -0.111700f, -0.206394f, -0.411947f, -0.378527f, 0.345168f, 0.504307f, -0.387695f, -0.063276f, -0.213414f, 0.058122f, -0.713679f, -0.451086f, -0.016691f, 0.113041f, 0.200415f, -0.452440f, -0.000316f, -0.067200f, -0.276349f, 0.112495f, -0.605307f, 0.027426f, 0.063023f, -0.074750f, 0.173574f, 0.039187f, -0.037399f, 0.096126f, 0.080554f, 0.108164f, -0.060334f, -0.211736f, 0.037009f, 0.053258f, -0.137267f, -0.151535f, 0.010541f, 0.038922f, 0.089063f, 0.167939f, -0.085926f, -0.030607f, -0.003991f, 0.143007f, -0.000243f, 0.685704f, 0.011639f, 0.020765f, -0.020516f, -0.015193f, -0.013014f, -0.087080f, -0.004137f, -0.013701f, 0.021321f, -0.030327f, 0.041950f, 0.011714f, 0.002392f, -0.057260f, -0.004656f, -0.013937f, -0.039153f, 0.001593f, 0.004489f, -0.356149f, 0.615956f, -0.027599f, -0.009554f, -0.039477f, 0.080655f, 0.158511f, -0.000000f, -0.221048f, 0.116839f, -0.000000f, -0.470454f, 0.074978f, -0.000000f, -0.374137f, 0.159613f, 0.206151f, -0.060044f, 0.047570f, -0.049050f, -0.069409f, -0.198480f, -0.181231f, -0.000000f, -0.298130f, -0.079009f, -0.189245f, 0.093842f, -0.053224f, -0.000585f, 0.015144f, 0.101700f, 0.197029f, -0.089183f, -0.012319f, 0.021330f, 0.163691f, 0.018415f, -0.203825f, -0.275145f, 0.161272f, -0.054455f, -0.000679f, -0.082335f, 0.113021f, -0.223524f, 0.034125f, -0.217880f, 0.115885f, 0.013112f, -0.310098f, 0.098575f, -0.198720f, -0.076496f, -0.135017f, -0.002346f, 0.153459f, -0.115849f, 0.082163f, -0.074213f, -0.148276f, 0.173280f, -0.357507f, -0.054431f, -0.104561f, -0.100706f, -0.176988f, 0.070237f, 0.117485f, 0.210682f, 0.138134f, 0.061750f, 0.015492f, -0.059175f, -0.235502f, -0.015178f, 0.178226f, -0.014962f, 0.145212f, 0.114502f, 0.213496f, -0.263332f, 0.096587f, -0.051030f, 0.078582f, 0.115202f, -0.059433f, 0.091599f, 0.291276f, 0.000026f, -0.026252f, 0.041866f, -0.010890f, -0.000000f, -0.107894f, -0.143208f, -0.228810f, -0.085246f, -0.248526f, -0.001174f, -0.187999f, 0.134839f, -0.016675f, -0.064532f, -0.103227f, -0.094709f, 0.147885f, 0.138657f, 0.109860f, -0.283517f, 0.208267f, -0.293622f, -0.043327f, -0.046746f, 0.141113f, 0.020341f, -0.007683f, -0.091689f, 0.087664f, -0.202410f, -0.014182f, 0.222207f, -0.154768f, 0.014149f, 0.071091f, -0.779100f, 0.047926f, 0.108384f, -0.504430f, -0.698622f, -0.388609f, 0.262203f, -0.239634f, -0.418096f, 0.004561f, -0.162984f, 0.007019f, 0.051277f, 0.161305f, 0.097704f, 0.085446f, -0.038984f, 0.074313f, 0.014971f, 0.138061f, 0.180291f, 0.182126f, -0.092333f, -0.178516f, -0.125259f, -0.139214f, 0.195498f, -0.227713f, 0.110535f, 0.138631f, -0.109773f, -0.061254f, -0.209257f, -0.008666f, -0.070527f, -0.019394f, 0.037262f, 0.100941f, -0.052257f, -0.088277f, 0.072793f, 0.105661f, 0.089354f, -0.217475f, 0.136479f, -0.105059f, -0.072407f, -0.191450f, -0.014045f, -0.011212f, -0.257677f, 0.198433f, 0.026145f, 0.209853f, -0.027180f, -0.038323f, -0.269669f, 0.190408f, 0.110416f, -0.011564f, 0.034542f, 0.033879f, -0.000000f, -0.000000f, -0.102055f, -0.000000f, 0.078890f, 0.009379f, -0.004722f, -0.000001f, -0.087811f, -0.007054f, -0.000000f, -0.000000f, -0.000003f, -0.081155f, 0.022279f, -0.000000f, -0.000000f, 0.063465f, -0.038967f, -0.057041f, -0.000001f, -0.140774f, -0.000000f, -0.224214f, -0.012560f, -0.000000f, 0.015486f, -0.066530f, 0.138987f, -0.203465f, -0.151911f, -0.000688f, -0.000000f, -0.012886f, -0.040830f, -0.179651f, 0.089618f, -0.003329f, 0.020804f, -0.143696f, -0.000393f, -0.127076f, 0.000000f, -0.166760f, -0.000000f, 0.088450f, 0.037362f, -0.074216f, 0.108175f, 0.004507f, -0.000001f, -0.039646f, -0.029858f, -0.000000f, -0.078651f, 0.172421f, 0.038095f, -0.194955f, -0.000104f, -0.041967f, -0.139588f, 0.046818f, -0.054718f, 0.132992f, 0.045316f, -0.216114f, 0.028003f, 0.004614f, 0.142497f, 0.006774f, -0.151155f, 0.055123f, -0.201319f, -0.219385f, -0.000675f, -0.173204f, 0.054951f, -0.231429f, 0.237033f, 0.000042f, 0.022965f, 0.012075f, -0.055641f, 0.017303f, 0.060422f, -0.110121f, -0.109474f, 0.028237f, -0.155824f, -0.008630f, -0.104236f, -0.079609f, 0.181277f, -0.129124f, 0.027546f, 0.189876f, -0.192433f, 0.083469f, -0.027313f, 0.188909f, -0.225697f, 0.112872f, -0.032317f, 0.008842f, -0.062605f, -0.175396f, 0.107175f, 0.020505f, -0.154069f, -0.508069f, -1.183228f, 0.123227f, 0.546547f, 0.368977f, -0.953014f, 0.410326f, -1.113266f, -0.855540f, -0.007064f, -1.862516f, -1.039642f, -1.003010f, -0.673338f, -0.293963f, -0.586264f, -0.406497f, -1.192424f, 0.072921f, 0.204010f, -0.625522f, 0.127364f, -0.003437f, -0.000925f, -0.010630f, -0.050612f, -0.116618f, -0.091622f, -0.010004f, 0.079838f, -0.043375f, 0.199563f, -0.158485f, -0.176018f, -0.077561f, 0.141085f, 0.047852f, 0.176052f, 0.066642f, -0.145373f, 0.019550f, 0.188280f, 0.020002f, -0.074211f, -0.013211f, 0.042843f, 0.167667f, 0.172314f, 0.243099f, -0.297822f, 0.070853f, -0.229883f, 0.834799f, -0.071261f, 0.055438f, -0.741376f, 0.056977f, -0.480460f, -0.468073f, 0.013492f, 0.059439f, -0.184469f, 0.089249f, -0.000035f, -0.019107f, -1.598267f, -0.060842f, -0.701972f, 0.514748f, 0.037428f, -0.510558f, 0.193544f, -0.012078f, 0.233236f, -0.096949f, 0.151126f, -0.233360f, 0.140327f, 0.159137f, -0.166264f, 0.070897f, 0.182867f, 0.113343f, 0.034837f, -0.213207f, 0.255312f, 0.161252f, -0.012612f, -0.082407f, -0.254879f, 0.195397f, 0.126385f, -0.228254f, -0.344624f, -0.111773f, 0.093211f, -0.221346f, 0.074497f, 0.004380f, -0.052174f, 0.015711f, 0.246213f, -0.115997f, -0.107223f, -0.254471f, 0.076366f, -0.082996f, -0.153809f, 0.197197f, -0.012605f, 0.123661f, -0.041669f, -0.143424f, -0.064305f, -0.007062f, -0.115230f, -0.179604f, -0.057366f, 0.182913f, -0.000299f, 0.021690f, 0.164807f, 0.142247f, 0.121355f, 0.011322f, -0.003266f, -0.128738f, -0.090776f, 0.153690f, 0.114171f, -0.063879f, -0.083378f, 0.058185f, -0.073155f, 0.203655f, -0.114944f, -0.137423f, -0.043309f, -0.004789f, -0.032999f, 0.136224f, -0.204653f, 0.106161f, -0.204495f, -0.314509f, -0.224073f, -0.102949f, 0.045324f, -0.270515f, -0.034257f, -0.042564f, 0.232054f, -0.000271f, 0.216101f, 0.088767f, 0.172242f, 0.117845f, 0.047256f, -0.092831f, 0.006337f, 0.064370f, -0.039967f, 0.104435f, -0.019503f, 0.041346f, -0.079725f, 0.041225f, 0.039105f, 0.118332f, 0.101708f, 0.210201f, -0.232998f, 0.018636f, 0.122446f, 0.031045f, -0.011910f, -0.026103f, -0.137639f, -0.000000f, -0.057959f, 0.011008f, 0.006121f, -0.079858f, 0.000000f, -0.000000f, -0.000000f, -0.007500f, -0.000000f, -0.000000f, -0.000000f, 0.171811f, 0.092308f, -0.000000f, 0.000065f, -0.077112f, 0.043243f, -0.000000f, 0.136575f, 0.079571f, -0.000000f, -0.004510f, -0.185751f, -0.038656f, 0.117526f, -0.041583f, 0.023098f, 0.062904f, 0.100366f, 0.007917f, -0.000000f, 0.000632f, -0.021018f, 0.004787f, -0.000000f, 0.136620f, -0.219137f, 0.111582f, 0.000254f, -0.060897f, 0.000000f, -0.055179f, -0.000000f, 0.008803f, -0.025942f, -0.061321f, -0.003874f, -0.036470f, -0.000000f, -0.150044f, 0.193660f, -0.261811f, 0.207837f, 0.249642f, -0.089871f, -0.147291f, 0.127032f, 0.000363f, -0.100927f, -0.206405f, 0.119904f, 0.085308f, 0.162618f, 0.104426f, 0.088415f, 0.025942f, 0.090691f, 0.133142f, -0.022907f, 0.042370f, 0.121868f, 0.122776f, -0.061808f, -0.051929f, -0.168801f, 0.117751f, 0.024397f, 0.034365f, 0.040647f, 0.101239f, 0.173536f, 0.112893f, 0.141223f, 0.131687f, -0.108977f, 0.019726f, 0.115215f, -0.041730f, -0.059793f, 0.080376f, 0.152434f, 0.013115f, -0.141975f, 0.214628f, -0.090659f, -0.218331f, -0.101737f, 0.095850f, -0.261387f, 0.139174f, -0.060527f, -0.118048f };
static float MLP_buf1[100];
static float MLP_buf2[100];
static const EmlNetLayer MLP_layers[2] = { 
{ 100, 7, MLP_layer_0_weights, MLP_layer_0_biases, EmlNetActivationRelu }, 
{ 26, 100, MLP_layer_1_weights, MLP_layer_1_biases, EmlNetActivationSoftmax } };
static EmlNet MLP = { 2, MLP_layers, MLP_buf1, MLP_buf2, 100 };

    int32_t
    MLP_predict(const float *features, int32_t n_features)
    {
        return eml_net_predict(&MLP, features, n_features);
    }
    

    int32_t
    MLP_regress(const float *features, int32_t n_features, float *out, int32_t out_length)
    {
        return eml_net_regress(&MLP, features, n_features, out, out_length);
    }
    

    float
    MLP_regress1(const float *features, int32_t n_features)
    {
        return eml_net_regress1(&MLP, features, n_features);
    }
    