#include "markov.h"
#include <eml_net.h>
static const float MLP_layer_0_biases[100] = { -0.237567f, -0.125823f, 0.045389f, -0.054856f, 0.176463f, -0.055475f, 0.403675f, 0.018358f, -0.103364f, 0.047470f, 0.013301f, -0.103322f, -0.018585f, 0.094145f, 0.175608f, 0.079494f, 0.151771f, -0.071156f, 0.200890f, -0.188939f, -0.048766f, 0.107473f, 0.019765f, 0.094174f, 0.041434f, -0.030314f, 0.229711f, -0.245443f, 0.128751f, 0.168037f, -0.006432f, -0.128557f, 0.220880f, -0.165256f, 0.123083f, 0.007008f, 0.378515f, 0.017935f, 0.121739f, -0.257402f, 0.182096f, -0.154761f, -0.156501f, 0.182678f, -0.197089f, 0.056101f, 0.105806f, -0.028462f, -0.262362f, 0.082008f, -0.031255f, -0.142928f, 0.111395f, 0.152413f, -0.037106f, 0.208860f, -0.042143f, 0.213458f, -0.061589f, -0.025416f, -0.075333f, 0.216292f, -0.086512f, -0.260788f, -0.188383f, -0.197731f, -0.000114f, 0.009129f, 0.187215f, 0.059088f, 0.115695f, 0.118567f, 0.369033f, -0.102517f, 0.039932f, -0.137750f, -0.092850f, -0.082553f, 0.101355f, -0.075699f, -0.098956f, 0.261531f, -0.001626f, 0.234191f, 0.070118f, -0.100393f, 0.046731f, 0.027235f, -0.168186f, 0.146400f, 0.079655f, -0.048594f, -0.112304f, 0.028289f, -0.099691f, 0.061726f, -0.067204f, -0.120290f, -0.001909f, 0.114200f };
static const float MLP_layer_0_weights[700] = { -0.085976f, 0.118114f, -0.218403f, -0.105953f, 0.035992f, -0.206861f, -0.279273f, -0.022069f, -0.044853f, 0.030611f, -0.138495f, 0.063546f, -0.139497f, 0.207032f, -0.164907f, 0.160418f, -0.025194f, 0.076156f, -0.152756f, -0.177668f, 0.179715f, 0.236099f, -0.118375f, 0.062368f, 0.131588f, 0.171689f, -0.215950f, -0.231226f, -0.081394f, 0.170589f, -0.209170f, -0.144584f, 0.157305f, 0.044904f, 0.045509f, -0.044456f, 0.125299f, 0.120927f, -0.200393f, 0.097593f, 0.202216f, 0.086160f, -0.128227f, 0.190463f, -0.219718f, -0.012799f, 0.240688f, -0.110514f, -0.076972f, -0.225303f, -0.215095f, 0.069474f, -0.172250f, -0.135081f, -0.026305f, -0.248989f, 0.046294f, -0.349626f, -0.009775f, 0.083405f, -0.215734f, -0.139045f, 0.052453f, -0.102604f, -0.189322f, -0.001665f, 0.065426f, -0.009353f, 0.191659f, -0.005822f, 0.232494f, -0.117646f, -0.239268f, 0.133895f, -0.035978f, -0.112291f, 0.183844f, -0.099230f, 0.151499f, 0.106226f, 0.147153f, 0.007166f, 0.099256f, -0.161727f, -0.079344f, 0.137257f, -0.010967f, 0.217336f, 0.033822f, 0.102007f, -0.240278f, 0.177472f, -0.057318f, 0.057938f, -0.001050f, -0.086653f, 0.185786f, 0.078130f, -0.250188f, 0.029928f, -0.119395f, 0.021001f, 0.139492f, -0.103396f, 0.221858f, 0.023494f, 0.078872f, 0.200432f, 0.044908f, 0.211007f, -0.109508f, -0.185461f, 0.213567f, 0.115293f, -0.196321f, 0.159236f, 0.108625f, 0.260683f, 0.176790f, 0.041228f, -0.313135f, -0.206173f, -0.253386f, -0.164532f, 0.256301f, 0.033025f, 0.075884f, 0.160866f, -0.196376f, -0.125215f, 0.014041f, 0.195152f, 0.051341f, -0.462989f, 0.154898f, -0.102730f, 0.255075f, -0.083605f, 0.182939f, 0.115424f, 0.008364f, -0.223101f, -0.234293f, -0.245337f, -0.241200f, -0.231512f, -0.163218f, 0.103797f, -0.103031f, -0.250090f, -0.234476f, 0.222333f, -0.127543f, -0.168060f, -0.142228f, 0.124163f, -0.163190f, 0.090650f, 0.190451f, 0.164523f, -0.165899f, -0.013047f, 0.038996f, 0.168761f, -0.164992f, -0.247219f, -0.263451f, -0.131456f, 0.074717f, 0.015940f, -0.096330f, 0.513865f, 0.816609f, -0.080218f, 0.023190f, 0.112972f, 0.072065f, -0.134433f, -0.085868f, -0.080214f, 0.049541f, -0.168738f, 0.157821f, -0.124425f, 0.343994f, 0.123598f, -0.302707f, 0.059100f, -0.000858f, 0.232067f, -0.093316f, -0.190309f, 0.082871f, 0.198254f, 0.193118f, 0.176132f, -0.240212f, -0.179340f, 0.024111f, 0.246218f, 0.179256f, 0.030341f, 0.161254f, 0.059473f, -0.022313f, -0.035953f, 0.174489f, 0.011163f, 0.157450f, 0.185965f, -0.039845f, 0.194814f, -0.148944f, -0.151914f, -0.130653f, 0.033689f, -0.245851f, 0.241766f, 0.151945f, -0.232404f, -0.130795f, -0.123272f, -0.144872f, 0.099056f, -0.056780f, 0.182828f, 0.070814f, 0.165591f, 0.141204f, 0.153343f, -0.013770f, -0.013824f, 0.100022f, -0.115521f, -0.023194f, 0.089106f, -0.153322f, 0.072394f, -0.029092f, 0.116888f, -0.113699f, 0.172575f, 0.010938f, -0.166198f, 0.133908f, 0.076623f, -0.244723f, -0.083719f, 0.026739f, 0.203675f, -0.200711f, 0.206802f, -0.060372f, 0.198868f, 0.025917f, 0.150288f, 0.028910f, 0.179109f, -0.087729f, 0.022268f, 0.076551f, 0.163694f, 0.143143f, 0.076363f, 0.155742f, 0.018553f, 0.054595f, -0.055085f, -0.057207f, -0.051448f, -0.058572f, 0.282641f, 0.077123f, -0.062512f, 0.255735f, 0.087848f, -0.135202f, -0.021289f, -0.034675f, 0.134808f, 0.127169f, 0.204741f, 0.052863f, -0.173178f, -0.202335f, 0.152618f, -0.011151f, 0.154083f, 0.007771f, 0.153593f, 0.030344f, 0.102279f, 0.011517f, 0.047680f, -0.050169f, -0.233907f, -0.035258f, -0.235312f, 0.175934f, -0.150223f, 0.124450f, 0.134614f, 0.052499f, 0.052172f, -0.304422f, -0.045185f, -0.018972f, -0.170597f, -0.004808f, -0.093815f, 0.251280f, 0.160458f, -0.119969f, -0.180328f, -0.197913f, -0.013960f, 0.119597f, -0.157760f, -0.117817f, 0.139265f, 0.018769f, 0.073808f, -0.153477f, -0.235230f, 0.000704f, -0.037866f, -0.116230f, 0.017960f, 0.009820f, 0.010287f, -0.184355f, 0.127435f, -0.178336f, 0.063710f, 0.081454f, -0.198832f, -0.072566f, 0.195103f, 0.158305f, -0.041593f, 0.197189f, 0.165616f, 0.141208f, 0.183344f, -0.191802f, 0.099217f, 0.077063f, 0.091594f, 0.102123f, -0.275545f, 0.108542f, 0.073292f, -0.065856f, -0.143526f, 0.054638f, -0.075857f, 0.161900f, 0.066819f, 0.219009f, 0.204071f, -0.131061f, -0.163836f, 0.167667f, -0.025047f, 0.208244f, 0.163872f, 0.218201f, -0.000759f, -0.014440f, -0.203332f, -0.066873f, -0.258364f, -0.102519f, 0.118088f, -0.163951f, -0.051244f, 0.161125f, 0.089905f, 0.100751f, -0.132728f, -0.052116f, 0.050832f, 0.196911f, -0.081595f, -0.128655f, -0.126984f, 0.087683f, 0.008793f, -0.235695f, -0.013326f, -0.103459f, 0.120349f, -0.121196f, -0.205235f, 0.092187f, 0.144024f, -0.022583f, 0.101842f, -0.016876f, 0.076056f, 0.190305f, 0.081974f, -0.282358f, 0.145218f, 0.151092f, 0.186656f, -0.080720f, -0.107918f, -0.214982f, -0.071132f, -0.149073f, 0.034905f, 0.204717f, 0.084413f, 0.175304f, -0.123322f, 0.201061f, -0.073989f, 0.202432f, 0.080533f, -0.116756f, -0.166890f, -0.249080f, -0.238965f, -0.065504f, -0.217740f, -0.128617f, 0.066196f, -0.071720f, 0.057393f, 0.001979f, 0.050908f, -0.015766f, 0.020566f, 0.112511f, 0.003814f, 0.228427f, -0.181357f, 0.093810f, -0.205156f, 0.124814f, -0.284532f, 0.008817f, -0.193218f, 0.206373f, 0.231707f, 0.114482f, 0.158040f, -0.209507f, -0.108625f, -0.108668f, 0.012257f, 0.233301f, 0.211863f, 0.056736f, 0.100882f, 0.182382f, -0.036779f, -0.071567f, -0.187598f, -0.217672f, 0.154052f, -0.123379f, -0.097702f, 0.114386f, 0.010205f, 0.171071f, -0.118919f, 0.009280f, -0.066886f, 0.221973f, 0.044139f, 0.050561f, -0.012377f, 0.277297f, -0.239222f, 0.110749f, 0.179382f, -0.224316f, 0.035541f, -0.118501f, 0.194258f, 0.004537f, 0.166531f, 0.008549f, 0.020750f, -0.108632f, -0.136241f, 0.016383f, -0.129843f, -0.004487f, 0.161707f, -0.062736f, -0.206764f, -0.040175f, 0.181220f, 0.256014f, 0.149425f, 0.150504f, -0.058331f, -0.175828f, -0.151498f, -0.044204f, -0.164758f, -0.006268f, -0.014740f, 0.235647f, -0.159103f, 0.139685f, -0.098177f, -0.063842f, -0.058156f, -0.232798f, -0.174138f, 0.126661f, 0.017730f, 0.058089f, -0.165513f, 0.045103f, 0.206151f, 0.182383f, 0.081394f, 0.195776f, 0.156435f, 0.047736f, -0.199206f, -0.271204f, -0.185842f, -0.092912f, -0.052603f, 0.208959f, -0.121925f, 0.195133f, 0.161238f, 0.159325f, 0.106508f, 0.038594f, -0.021180f, -0.219234f, -0.031618f, -0.014269f, 0.132290f, 0.000911f, 0.000526f, -0.185493f, -0.197121f, 0.076075f, -0.051624f, 0.197479f, -0.069187f, -0.042130f, -0.016738f, 0.118367f, 0.023208f, -0.162566f, -0.133867f, 0.034040f, -0.022899f, 0.131010f, -0.153872f, -0.203799f, -0.033448f, 0.113422f, -0.196631f, 0.080344f, 0.050816f, -0.027062f, 0.172205f, 0.027036f, -0.248412f, -0.035198f, 0.249454f, 0.211290f, 0.027550f, 0.075141f, 0.083197f, -0.142030f, -0.001307f, 0.126846f, -0.055818f, 0.147205f, -0.161537f, 0.083854f, -0.006994f, 0.156187f, -0.034887f, 0.130949f, -0.065161f, -0.111923f, 0.147861f, -0.140097f, 0.131646f, 0.083827f, -0.191251f, -0.153092f, -0.119873f, -0.187147f, -0.033024f, -0.213947f, -0.181846f, 0.036369f, 0.111185f, -0.274914f, -0.055741f, -0.223725f, 0.179272f, 0.172966f, -0.070755f, -0.092004f, 0.166744f, -0.117848f, 0.106156f, 0.057042f, -0.089069f, -0.182404f, 0.213279f, -0.102254f, -0.207086f, -0.076681f, -0.061793f, -0.257677f, 0.106501f, -0.118457f, 0.023136f, 0.172187f, -0.139715f, 0.017905f, 0.057792f, 0.019089f, -0.076379f, -0.118851f, 0.282528f, 0.171428f, 0.033913f, 0.120558f, -0.213774f, 0.197727f, -0.042256f, -0.099793f, -0.110515f, -0.148684f, 0.207082f, -0.099271f, -0.154164f, -0.081834f, -0.150564f, -0.030037f, -0.230541f, -0.025473f, -0.057303f, -0.033545f, -0.226316f, 0.115361f, -0.141193f, 0.231237f, -0.118613f, -0.038493f, -0.183305f, 0.215432f, -0.086350f, -0.068156f, 0.141681f, -0.123212f, 0.079529f, -0.071635f, 0.163126f, 0.106760f, -0.148688f, 0.161651f, -0.228411f, 0.148624f, 0.184522f, -0.066062f, 0.157506f, 0.057210f, 0.270707f, -0.070138f, -0.250889f, 0.288371f, 0.218949f, 0.142385f, 0.067072f, 0.170555f, 0.206228f, -0.004116f, 0.085280f, 0.072428f, 0.122440f, 0.006130f, 0.119972f, -0.306335f, 0.081462f, 0.160777f, -0.131191f, -0.148335f, -0.192437f, -0.044107f, 0.113818f, 0.020840f, -0.070823f };
static const float MLP_layer_1_biases[26] = { 0.270016f, -0.183072f, 0.159383f, -0.108558f, 0.037284f, 0.064017f, 0.125751f, -0.128928f, 0.072916f, -0.127368f, 0.266595f, 0.176878f, -0.068728f, 0.187036f, 0.109361f, 0.200361f, -0.117330f, 0.060842f, -0.209538f, -0.086091f, -0.164599f, 0.125628f, -0.001723f, 0.131046f, -0.061356f, -0.094314f };
static const float MLP_layer_1_weights[2600] = { 0.154928f, -0.112721f, -0.017826f, 0.134610f, -0.068688f, 0.159291f, -0.103752f, 0.073214f, 0.089292f, -0.100889f, -0.178176f, 0.006680f, 0.177837f, -0.073202f, 0.182971f, -0.109690f, -0.035328f, -0.131408f, 0.113284f, 0.087863f, 0.104754f, -0.162869f, 0.015244f, -0.083051f, 0.014620f, -0.005557f, -0.082933f, -0.170613f, 0.016007f, 0.063422f, 0.022673f, 0.044365f, -0.119436f, -0.134259f, 0.023608f, 0.188197f, -0.091116f, 0.009409f, -0.070137f, -0.006791f, -0.095493f, -0.046258f, -0.073782f, 0.172598f, 0.134059f, -0.046426f, 0.093052f, -0.127700f, -0.037721f, -0.049551f, 0.199354f, 0.121110f, 0.063173f, -0.158211f, -0.047663f, 0.281983f, 0.155121f, 0.030991f, -0.117385f, 0.021016f, -0.012287f, 0.061899f, -0.083076f, -0.027534f, 0.120832f, 0.087623f, -0.036834f, 0.160217f, -0.172818f, 0.139763f, -0.175647f, -0.052370f, -0.079401f, -0.202896f, 0.002056f, -0.220495f, -0.040555f, -0.215411f, 0.090872f, 0.094960f, -0.085985f, -0.167362f, 0.000056f, -0.096822f, 0.125484f, 0.016088f, 0.004568f, -0.183358f, 0.006237f, -0.020334f, -0.146843f, -0.028949f, 0.000515f, 0.027555f, 0.243686f, -0.199121f, 0.151782f, 0.029694f, 0.089717f, -0.443627f, -0.151472f, 0.204349f, -0.149952f, 0.257329f, 0.091081f, -0.107722f, 0.310695f, -0.347082f, -0.003035f, -0.486729f, 0.146904f, -0.194527f, 0.002321f, 0.040543f, 0.098962f, -0.144868f, 0.059934f, 0.535642f, -0.179542f, -0.330640f, -0.262679f, -0.001960f, -0.095456f, -0.197139f, -0.078611f, -0.696886f, 0.642906f, -0.245153f, 0.051367f, -0.022045f, -0.203308f, 0.011024f, -0.012604f, -0.129635f, -0.078161f, 0.174740f, -0.207851f, 0.116422f, 0.042441f, 0.069881f, -0.254884f, -0.120302f, -0.022246f, 0.141231f, -0.133093f, 0.117620f, -0.055575f, -0.176687f, -0.169920f, -0.038134f, -0.098617f, 0.007234f, -0.195459f, -0.177823f, -0.176304f, -0.213111f, -0.000000f, -0.000208f, -0.086106f, -0.026303f, 0.175679f, 0.091383f, -0.000000f, 0.159432f, -0.488184f, -0.190547f, 0.061511f, 0.092063f, 0.313689f, -0.002543f, -0.000110f, -0.261547f, -0.000008f, 0.436248f, -0.085366f, -0.238959f, -0.327914f, -0.425389f, -0.299415f, -0.108159f, -0.046333f, -0.359282f, 0.164906f, -0.101387f, -0.087492f, -0.108308f, -0.019233f, -0.182848f, 0.220223f, 0.152432f, 0.090853f, -0.025010f, -0.042094f, -0.130230f, -0.007811f, 0.238654f, -0.266106f, 0.037940f, -0.082211f, -0.014532f, -0.021883f, 0.128812f, 0.074133f, 0.048291f, -0.068043f, -0.213019f, -0.143103f, -0.185867f, -0.215622f, 0.060459f, 0.093693f, -0.052100f, 0.178907f, -0.003451f, -0.000015f, -0.197010f, -0.169592f, -0.043772f, -0.141874f, 0.066271f, 0.047105f, 0.017689f, -0.068407f, 0.113253f, -0.026576f, -0.257055f, 0.127070f, 0.070542f, 0.096666f, 0.206250f, -0.253049f, -0.085288f, -0.152880f, -0.022807f, 0.134263f, -0.164101f, -0.056157f, -0.115951f, 0.038550f, 0.141789f, -0.147178f, 0.017121f, -0.108722f, 0.258814f, 0.242604f, -0.016397f, 0.169275f, -0.053612f, 0.128928f, -0.064766f, -0.109274f, 0.135727f, 0.100971f, -0.191139f, 0.114004f, 0.010930f, -0.013548f, 0.133276f, -0.053193f, -0.066992f, 0.339017f, -0.319485f, -0.227423f, 0.154940f, 0.042610f, -0.537466f, -0.370711f, -0.155097f, -0.146438f, 0.024140f, -0.182711f, 0.240413f, -0.219636f, -0.240478f, 0.334448f, 0.044700f, 0.320062f, 0.007512f, -0.201269f, 0.266714f, 0.047172f, 0.092924f, -0.046028f, -0.260195f, -0.275582f, 0.137401f, -0.140227f, -0.137136f, -0.168164f, 0.115609f, 0.027290f, 0.175033f, -0.105848f, 0.061536f, 0.057881f, 0.079039f, -0.140753f, 0.149223f, 0.193951f, -0.008957f, -0.045034f, 0.139615f, -0.176814f, -0.033938f, 0.176313f, 0.033362f, 0.205804f, -0.002181f, 0.084749f, 0.209824f, -0.040348f, -0.112309f, 0.093479f, 0.002351f, -0.187279f, -0.088714f, -0.237191f, -0.144882f, 0.171426f, -0.197072f, -0.055520f, -0.210264f, 0.161824f, -0.037440f, -0.128783f, 0.228576f, -0.028712f, -0.020426f, 0.058308f, -0.156528f, -0.010921f, -0.083036f, -0.177849f, -0.025033f, 0.015836f, -0.321356f, 0.267306f, -0.207253f, 0.211472f, 0.102728f, -0.151021f, 0.060613f, -0.042071f, 0.115948f, 0.037456f, 0.036830f, 0.006695f, 0.076698f, -0.005289f, -0.223531f, 0.088465f, 0.236545f, 0.061120f, -0.237272f, -0.225130f, -0.053558f, -0.040269f, 0.017716f, -0.037087f, -0.024625f, -0.015619f, -0.319843f, -0.180976f, -0.323858f, -0.084548f, 0.099080f, -0.005660f, 0.024626f, -0.024434f, -0.082285f, -0.172412f, -0.038048f, -0.154392f, -0.146533f, 0.075287f, 0.038972f, -0.091129f, 0.117367f, -0.076473f, 0.130691f, -0.002747f, -0.019493f, -0.108094f, -0.009572f, 0.099935f, -0.172378f, 0.233733f, 0.029272f, -0.190668f, 0.028430f, 0.117710f, -0.197108f, 0.190291f, -0.275817f, 0.141162f, 0.078962f, 0.010046f, -0.158198f, 0.099416f, 0.256851f, 0.193518f, -0.054570f, 0.147792f, -0.000672f, -0.235732f, -0.481191f, -0.422079f, 0.281345f, -0.136357f, 0.157597f, -0.232825f, -0.128886f, -0.241191f, 0.052136f, -0.147632f, -0.068196f, -0.033944f, 0.240565f, 0.184616f, -0.187850f, -0.083657f, -0.034587f, 0.074266f, 0.073765f, 0.033840f, -0.104153f, -0.192887f, 0.219034f, -0.246270f, 0.121104f, -0.027598f, 0.085755f, -0.030531f, 0.214305f, -0.178747f, -0.148686f, 0.222818f, 0.130709f, -0.054235f, -0.174631f, -0.088535f, -0.162485f, -0.136184f, 0.182108f, 0.117208f, 0.169271f, -0.051683f, 0.147867f, 0.046938f, -0.110835f, -0.147913f, 0.242889f, -0.104192f, -0.072047f, -0.142508f, 0.190521f, -0.111208f, -0.115829f, 0.102934f, -0.159255f, -0.153314f, 0.155031f, 0.045102f, -0.014331f, -0.160043f, 0.079336f, 0.112088f, -0.037927f, -0.232882f, 0.197443f, -0.065674f, 0.066392f, -0.155221f, 0.033707f, -0.105537f, -0.024438f, -0.174901f, -0.217591f, -0.115558f, -0.026366f, 0.163908f, 0.195401f, 0.003872f, -0.229895f, 0.084001f, -0.042356f, -0.029670f, -0.061138f, -0.377096f, 0.280758f, 0.273753f, 0.227002f, 0.004552f, -0.009383f, -0.000000f, 0.103861f, 0.004865f, 0.014742f, 0.097485f, -0.201329f, -0.003317f, -0.100846f, 0.127083f, 0.157932f, -0.012875f, 0.001564f, 0.152319f, 0.031934f, -0.000353f, 0.033030f, -0.000000f, -0.131287f, -0.048214f, -0.104858f, -0.066423f, 0.240329f, 0.090357f, -0.070898f, -0.022810f, -0.016964f, 0.171485f, 0.151548f, 0.190933f, -0.178231f, -0.060153f, -0.147937f, 0.119684f, -0.137604f, -0.143767f, -0.205803f, -0.380594f, -0.126678f, -0.452508f, -0.083544f, -0.034054f, -0.111582f, -0.003589f, 0.025039f, -0.075024f, 0.017291f, 0.176360f, 0.101332f, 0.037112f, -0.144290f, -0.072303f, 0.115542f, -0.000000f, 0.177125f, 0.002777f, 0.054636f, -0.164609f, 0.097465f, -0.000000f, -0.247300f, -0.243112f, -0.078966f, 0.174824f, -0.304088f, -0.153751f, 0.073374f, -0.275177f, 0.139611f, -0.000000f, -0.022866f, 0.132350f, 0.039926f, 0.137154f, 0.040178f, 0.134175f, -0.062518f, 0.118614f, -0.086627f, -0.124338f, -0.209996f, -0.177557f, 0.011414f, -0.099529f, -0.000000f, -0.000000f, -0.024005f, -0.000000f, -0.000000f, -0.285754f, -0.000000f, -0.000000f, -0.232460f, -0.000000f, -0.111601f, -0.000000f, 0.090392f, 0.000548f, -0.000000f, -0.000000f, -0.128622f, -0.104163f, -0.000000f, 0.051030f, -0.000000f, -0.000000f, 0.135486f, 0.042010f, -0.066561f, 0.085983f, -0.027779f, 0.000000f, 0.190022f, -0.000002f, -0.000000f, -0.142362f, -0.080045f, -0.021607f, -0.064279f, -0.000000f, 0.162883f, -0.000000f, 0.114308f, 0.151977f, 0.000000f, -0.000000f, -0.232332f, -0.234379f, -0.000000f, -0.000000f, -0.000000f, -0.103999f, 0.194433f, 0.013278f, -0.121640f, -0.013811f, 0.087336f, -0.092414f, 0.080803f, 0.209950f, 0.199244f, 0.221905f, -0.079639f, -0.072615f, -0.178168f, -0.161203f, 0.151698f, -0.142605f, 0.216285f, 0.123420f, 0.130461f, -0.150128f, 0.243182f, 0.038125f, -0.075270f, -0.028909f, -0.154483f, -0.017870f, -0.182244f, -0.147741f, -0.053873f, 0.060626f, 0.026558f, 0.203362f, -0.161942f, 0.007723f, -0.138403f, -0.047478f, 0.090694f, 0.178628f, -0.207317f, -0.149660f, -0.140564f, -0.180832f, -0.165821f, -0.010501f, -0.217955f, -0.160957f, 0.008602f, -0.139901f, -0.075434f, 0.080465f, 0.011304f, 0.139340f, -0.003973f, 0.002727f, -0.365839f, -0.077813f, -0.279808f, 0.233105f, 0.077099f, 0.131603f, -0.007082f, 0.131163f, 0.087772f, -0.134293f, -0.164252f, -0.046132f, -0.206859f, -0.082105f, -0.024875f, 0.338818f, -0.360146f, 0.163744f, -0.002893f, -0.067132f, 0.055896f, -0.089470f, -0.023615f, 0.054551f, -0.004216f, -0.193769f, -0.046030f, -0.094648f, 0.113020f, -0.085166f, -0.012288f, -0.101517f, 0.118338f, 0.162134f, -0.130428f, 0.111919f, -0.126001f, -0.168060f, -0.146454f, 0.217254f, 0.071123f, -0.047862f, 0.208601f, 0.076165f, -0.100036f, -0.062042f, 0.078748f, -0.093179f, -0.209192f, 0.651951f, -0.303238f, -0.022539f, -0.011205f, -0.137738f, 0.095779f, -0.755820f, -0.072142f, -0.138487f, -0.048519f, -0.284943f, 0.138460f, -0.124014f, -1.158123f, -1.882661f, -0.263653f, 0.081937f, 0.123257f, -0.563977f, -0.064228f, -0.290276f, 0.081075f, -0.024328f, 0.039401f, 0.091467f, 0.265095f, 0.157458f, -0.002909f, 0.035863f, -0.020179f, 0.084338f, 0.059460f, 0.001478f, 0.132451f, 0.003139f, 0.169027f, -0.046547f, -0.117661f, 0.190766f, 0.119348f, -0.065029f, 0.062530f, 0.229498f, -0.152740f, -0.194441f, 0.039343f, -0.072776f, 0.105099f, 0.034022f, 0.116139f, -0.142149f, -0.129030f, -0.000000f, -0.073562f, -0.158775f, -0.066267f, -0.020973f, -0.098515f, 0.001051f, 0.177380f, -0.000000f, -0.000000f, -0.161958f, 0.044240f, -0.049316f, -0.103373f, -0.000000f, 0.015199f, -0.000000f, -0.024553f, 0.000000f, -0.000003f, -0.189296f, -0.084648f, 0.118097f, -0.000007f, -0.000328f, 0.003640f, -0.078616f, 0.193336f, -0.252179f, -0.182111f, 0.077226f, 0.029499f, 0.001969f, -0.112973f, 0.090338f, -0.161613f, -0.038369f, -0.038394f, 0.008734f, 0.041246f, 0.196970f, 0.190704f, 0.095675f, 0.169094f, -0.020488f, 0.203046f, -0.329586f, 0.288132f, -0.144657f, 0.051640f, 0.132972f, -0.093116f, -0.000000f, -0.030691f, 0.150505f, 0.063697f, -0.135286f, 0.154754f, -0.012716f, 0.164060f, 0.058256f, -0.218406f, -0.078823f, 0.132642f, 0.110277f, 0.139874f, -0.064819f, -0.021796f, -0.000000f, 0.080754f, -0.145664f, -0.074839f, -0.096137f, 0.137171f, 0.216108f, -0.155915f, -0.004123f, -0.081576f, -0.000000f, -0.139847f, 0.089692f, -0.087184f, -0.086987f, 0.144807f, 0.022040f, 0.015144f, -0.119665f, 0.149538f, 0.147856f, 0.141455f, -0.144066f, 0.111443f, -0.545207f, 0.007076f, -0.000000f, 0.140859f, -0.079587f, 0.015533f, 0.264135f, 0.031545f, -0.172528f, -0.562419f, -0.015844f, -0.189679f, -0.186050f, 0.148751f, -0.187035f, -0.145716f, 0.151132f, 0.188771f, -0.087768f, 0.181352f, -0.158739f, 0.154216f, -0.031496f, 0.168391f, 0.153279f, 0.123394f, 0.088767f, 0.169363f, -0.099896f, 0.212014f, 0.012077f, 0.204108f, -0.160127f, 0.147102f, 0.027077f, 0.049714f, -0.079993f, -0.065892f, -0.053228f, -0.166844f, 0.146119f, -0.067646f, -0.156801f, 0.070060f, -0.052166f, 0.082201f, -0.022401f, -0.136222f, 0.102884f, -0.259779f, 0.170539f, 0.153721f, -0.097870f, -0.152871f, -0.018398f, -0.027735f, 0.022576f, -0.101909f, -0.108889f, 0.082941f, 0.248244f, -0.018608f, 0.028121f, -0.025503f, 0.021750f, -0.033250f, -0.069071f, -0.243102f, 0.170188f, -0.010948f, 0.209486f, 0.044621f, 0.167116f, -0.314553f, 0.241142f, 0.197475f, -0.068893f, 0.279755f, -0.121621f, -0.013224f, -0.160670f, 0.083236f, -0.204556f, 0.066521f, -0.158992f, -0.092178f, -0.178217f, 0.009787f, -0.632629f, 0.107256f, -0.163941f, 0.014168f, 0.029812f, -0.038445f, -0.093189f, -0.127826f, -0.168585f, 0.049600f, 0.001520f, 0.043517f, 0.151293f, -0.154191f, 0.150511f, 0.102548f, 0.128365f, -0.051892f, 0.000501f, 0.018867f, 0.151332f, 0.142190f, 0.068344f, 0.009831f, 0.118544f, 0.243473f, 0.092985f, 0.171554f, -0.069197f, 0.203402f, 0.096189f, 0.011474f, 0.066845f, 0.132727f, 0.159480f, -0.133328f, 0.024663f, 0.198745f, 0.061338f, 0.007124f, 0.167820f, -0.128594f, -0.035827f, 0.219930f, 0.164171f, 0.072133f, -0.173494f, -0.043879f, -0.203278f, -0.182787f, 0.042423f, 0.113535f, 0.035962f, -0.037106f, 0.029116f, 0.008722f, 0.047260f, 0.127610f, -0.085150f, 0.122130f, -0.050727f, 0.025444f, 0.150740f, -0.148043f, 0.146178f, -0.234140f, -0.011519f, 0.050651f, -0.229148f, 0.146454f, 0.044556f, -0.172508f, 0.094722f, -0.198269f, -0.009678f, -0.232006f, -0.010919f, -0.077637f, 0.108078f, 0.130966f, 0.007824f, 0.069216f, 0.153336f, 0.122038f, 0.047976f, -0.032022f, -0.001335f, 0.120830f, 0.091739f, -0.128190f, 0.079632f, 0.200214f, -0.200488f, 0.142034f, 0.193334f, 0.010633f, -0.172036f, -0.134956f, 0.158691f, -0.223876f, -0.000661f, 0.109014f, -0.128383f, 0.255274f, -0.126758f, 0.054470f, 0.020046f, -0.147884f, 0.000909f, -0.039148f, 0.129325f, 0.033890f, -0.000000f, 0.048923f, -0.004988f, 0.019462f, 0.120825f, -0.096538f, 0.146144f, 0.009124f, 0.156300f, -0.146609f, -0.009425f, 0.207011f, 0.004667f, 0.072143f, 0.052984f, -0.044473f, 0.144084f, -0.081734f, 0.112457f, 0.259169f, -0.147721f, -0.150318f, -0.221506f, 0.074138f, -0.224516f, 0.190395f, -0.135051f, 0.202260f, -0.141825f, -0.063228f, 0.033109f, 0.100882f, 0.026365f, -0.035275f, -0.282018f, 0.037811f, -0.076967f, -0.150787f, -0.174008f, -0.166360f, 0.128027f, 0.094605f, -0.137233f, -0.180926f, -0.119032f, 0.085226f, 0.100770f, 0.076969f, 0.229249f, 0.159122f, 0.031299f, -0.052242f, -0.200037f, -0.236978f, 0.041306f, -0.232708f, 0.090446f, -0.076166f, 0.097426f, -0.228435f, -0.513280f, -0.113669f, -0.655494f, 0.046899f, 0.081841f, -0.170430f, 0.206822f, 0.089530f, 0.004850f, -0.852636f, -0.525913f, 0.063265f, 0.078696f, -0.043765f, -0.184711f, -0.033206f, 0.019109f, 0.123071f, -0.297999f, 0.146580f, 0.107626f, -0.022534f, -0.159837f, -0.307882f, -0.070183f, 0.020643f, -0.210515f, 0.089858f, 0.196397f, -0.002622f, 0.244743f, 0.192219f, -0.060544f, 0.127231f, -0.014496f, -0.179002f, -0.074729f, -0.208192f, -0.191360f, -0.139652f, -0.234213f, 0.032322f, -0.221298f, -0.095051f, -0.207288f, -0.102050f, 0.196548f, 0.015382f, -0.211683f, 0.046142f, 0.164111f, 0.163494f, 0.007862f, -0.048255f, 0.149348f, -0.146772f, -0.090859f, -0.184848f, 0.201875f, -0.012185f, 0.023811f, 0.137393f, 0.170817f, 0.035965f, -0.039175f, 0.106460f, -0.180480f, 0.167574f, 0.029397f, 0.010551f, -0.066111f, -0.137883f, -0.101703f, -0.038502f, 0.163215f, -0.115468f, -0.062418f, -0.137214f, 0.672308f, 0.131382f, -0.515566f, -0.110740f, -0.231902f, -0.260137f, -0.029989f, 0.089849f, 0.180473f, -0.110620f, 0.042488f, 0.096041f, 0.109867f, 0.229374f, -0.091727f, -0.004762f, 0.008910f, -0.009416f, -0.063425f, -0.185032f, -0.097551f, 0.085338f, 0.006029f, 0.170239f, -0.018101f, -0.117995f, 0.087773f, -0.060962f, -0.176957f, 0.109658f, -0.009864f, -0.018736f, 0.128104f, 0.333302f, -0.137112f, -0.116039f, -0.030525f, -0.099196f, -0.000000f, 0.107484f, 0.170507f, 0.018152f, -0.108317f, -0.157192f, 0.000160f, -0.150316f, 0.036384f, 0.067148f, -0.065927f, -0.099491f, -0.167955f, -0.185592f, -0.000088f, -0.215451f, -0.000000f, -0.161273f, 0.045315f, -0.170110f, -0.017906f, -0.149166f, -0.092486f, -0.013119f, -0.017860f, -0.052377f, -0.104005f, 0.069510f, -0.171149f, -0.092702f, -0.061050f, -0.102299f, -0.036561f, -0.028386f, -0.171451f, -0.260368f, -0.094005f, 0.046350f, -0.139746f, 0.114091f, -0.041786f, -0.039957f, -0.355381f, -0.003522f, -0.512521f, 0.153084f, -0.193181f, -0.119678f, 0.087092f, 0.004287f, -0.135670f, -0.049640f, 0.029414f, -0.004197f, 0.057158f, 0.099408f, 0.017081f, -0.129353f, 0.084169f, 0.086339f, -0.120211f, -0.328226f, 0.139215f, -0.199824f, 0.037920f, -0.132858f, 0.090292f, -0.096553f, -0.166058f, -0.004359f, -0.528209f, 0.079062f, -0.080347f, -0.160401f, 0.025273f, 0.030867f, -0.250446f, -0.018324f, 0.155644f, 0.173655f, 0.098815f, 0.030277f, 0.139617f, 0.169512f, -0.175558f, -0.081033f, 0.008722f, 0.136905f, -0.130444f, -0.016452f, -0.111524f, -0.037527f, 0.007870f, 0.067485f, 0.017774f, 0.051773f, 0.023329f, -0.024327f, -0.202726f, -0.065666f, -0.062083f, -0.111920f, 0.089996f, 0.089871f, -0.000000f, -0.112379f, 0.057536f, -0.165318f, -0.292167f, 0.071269f, -0.007184f, 0.088566f, -0.064856f, -0.231883f, 0.006748f, 0.141818f, -0.125560f, -0.163148f, -0.096397f, -0.025798f, -0.003717f, -0.123458f, 0.027622f, -0.081158f, 0.096931f, -0.075724f, 0.056499f, -0.334235f, -0.023023f, -0.072076f, -0.106337f, 0.088532f, -0.031701f, 0.070960f, -0.089030f, 0.187591f, -0.076357f, -0.056715f, 0.065126f, -0.012982f, -0.100716f, 0.050243f, -0.073141f, -0.029722f, -0.227363f, 0.048065f, -0.058307f, -0.389792f, -0.171747f, 0.084850f, -0.001602f, 0.027180f, 0.158671f, -0.002244f, 0.095892f, -0.076808f, 0.206620f, -0.079564f, 0.003407f, -0.206168f, -0.058070f, 0.107429f, 0.076941f, 0.127588f, -0.003510f, 0.146278f, 0.140868f, -0.035535f, -0.031804f, -0.189777f, 0.047243f, 0.027403f, 0.210325f, -0.247988f, 0.145210f, 0.008570f, -0.015513f, -0.209224f, -0.170907f, -0.071932f, -0.172923f, 0.123517f, 0.157095f, 0.043661f, -0.020147f, 0.019203f, -0.156910f, -0.075629f, 0.050019f, 0.157343f, -0.169003f, -0.049997f, 0.049768f, -0.075168f, -0.209253f, -0.135493f, -0.156876f, 0.008010f, 0.084957f, 0.113303f, 0.234211f, -0.039172f, 0.040507f, -0.150267f, -0.102108f, -0.088811f, 0.021228f, -0.217096f, -0.113250f, -0.138676f, 0.193168f, -0.033160f, 0.163847f, 0.075047f, -0.093679f, 0.120303f, 0.075254f, -0.138912f, 0.060158f, 0.132767f, -0.066222f, -0.231343f, 0.026160f, 0.163736f, 0.232349f, 0.078238f, -0.172191f, 0.105336f, 0.073882f, 0.135154f, 0.168003f, 0.243138f, 0.040009f, 0.190417f, 0.159951f, 0.032843f, 0.104422f, 0.212737f, 0.016331f, -0.480890f, -0.271219f, 0.086524f, -0.083436f, 0.009780f, 0.089641f, -0.065633f, 0.263854f, -0.563312f, 0.464043f, -0.255416f, 0.019188f, -0.843425f, 0.070124f, 0.274489f, 0.016488f, -0.047369f, 0.089650f, -0.195939f, 0.290019f, -0.067276f, -0.100109f, 0.045644f, 0.032382f, 0.131994f, -0.111240f, -0.153462f, -0.064768f, -0.074616f, 0.214718f, -0.082564f, 0.110489f, 0.094890f, -0.064184f, -0.421303f, 0.267555f, -0.167475f, -0.089010f, -0.019279f, -0.006481f, -0.213056f, 0.056417f, -0.149615f, 0.166418f, 0.114912f, 0.014622f, -0.159744f, 0.081254f, 0.184193f, -0.135049f, 0.174069f, -0.069625f, 0.189377f, 0.130467f, 0.050105f, 0.169174f, -0.044849f, 0.229301f, 0.073331f, 0.081696f, 0.005690f, 0.164682f, 0.092930f, -0.129462f, 0.036266f, -0.104104f, 0.174578f, -0.176542f, -0.054458f, -0.258240f, 0.011157f, 0.068823f, 0.092270f, 0.279818f, -0.086829f, -0.060999f, 0.047697f, -0.007922f, 0.047199f, -0.165933f, -0.066144f, 0.000495f, -0.139883f, -0.238891f, -0.226281f, -0.034367f, -0.250446f, -0.001553f, -0.210318f, -0.091496f, -0.017661f, -0.158685f, -0.158280f, -0.267915f, 0.144748f, -0.006785f, -0.112573f, -0.164623f, -0.063487f, -0.054353f, 0.232368f, -0.138068f, -0.006106f, -0.000838f, -0.170606f, -0.025035f, 0.166688f, -0.148344f, -0.035972f, -0.157095f, -0.217388f, -0.141027f, 0.111619f, 0.159602f, -0.041089f, -0.166126f, 0.102983f, 0.084361f, -0.061578f, 0.146072f, 0.143501f, -0.068761f, -0.097131f, 0.111964f, 0.168994f, -0.096312f, -0.005098f, -0.132166f, -0.146593f, 0.121234f, -0.148738f, -0.125654f, 0.043295f, -0.273929f, -0.150471f, -0.039232f, -0.032437f, -0.052038f, 0.065528f, -0.131824f, -0.085124f, 0.084428f, -0.135193f, 0.103827f, 0.086113f, -0.121185f, -0.094302f, 0.088399f, 0.010585f, 0.034177f, 0.208648f, -0.164911f, 0.218550f, -0.215934f, -0.141980f, -0.160663f, 0.121167f, 0.021108f, 0.088645f, -0.164629f, -0.083927f, -0.044763f, 0.036727f, -0.050642f, 0.152258f, 0.045285f, -0.129929f, -0.094620f, -0.146895f, 0.145774f, 0.198677f, 0.099597f, -0.142424f, -0.076685f, 0.028333f, 0.073212f, -0.117623f, -0.193036f, 0.120788f, -0.240403f, 0.124512f, 0.132584f, 0.051380f, -0.084298f, 0.106039f, -0.035358f, 0.082488f, 0.175531f, -0.097875f, -0.042081f, -0.230030f, 0.172452f, 0.055116f, -0.149504f, 0.086720f, -0.134397f, -0.005741f, 0.034329f, -0.047298f, -0.052519f, -0.094622f, -0.144285f, 0.053115f, -0.872693f, -0.171965f, -0.102873f, -0.172062f, 0.121989f, -0.223714f, -0.000002f, 0.020212f, 0.055168f, -0.106162f, 0.263521f, 0.081220f, 0.014662f, -0.037044f, -2.148474f, -0.037443f, -0.115924f, -0.006045f, -0.083165f, -0.224564f, 0.028055f, -0.203245f, 0.090878f, 0.200854f, -0.031917f, -0.055675f, 0.053176f, -0.160728f, -0.150013f, 0.051179f, 0.089223f, 0.021707f, 0.090864f, -0.130656f, 0.107908f, 0.155476f, -0.102607f, -0.072530f, 0.031938f, -0.087972f, 0.192490f, -0.162996f, -0.106041f, 0.122300f, 0.197226f, 0.179011f, 0.235393f, -0.152996f, -0.156626f, -0.142206f, 0.027403f, 0.207149f, 0.083222f, 0.087347f, -0.105288f, 0.139391f, -0.106758f, -0.207630f, -0.075252f, -0.001605f, 0.035628f, -0.214872f, -0.068963f, -0.195378f, -0.067979f, -0.124270f, -0.036438f, -0.102994f, -0.000060f, 0.108368f, 0.128600f, -0.199044f, 0.102783f, -0.086077f, 0.176192f, -0.096847f, -0.249089f, -0.101232f, -0.069711f, -0.148416f, -0.151844f, -0.182641f, -0.085685f, 0.175231f, -0.040067f, 0.074543f, -0.055339f, -0.273322f, -0.163990f, -0.193077f, -0.126134f, 0.176650f, 0.101841f, -0.098286f, -0.060198f, 0.164870f, 0.105377f, -0.122253f, -0.164857f, -0.164771f, 0.095719f, -0.055488f, -0.265201f, -0.125527f, 0.206230f, -0.002036f, -0.027472f, -0.071126f, -0.026924f, -0.260375f, -0.052688f, -0.110569f, -0.140806f, -0.120983f, -0.045204f, 0.068483f, 0.163102f, 0.051016f, -0.051474f, -0.133799f, -0.148467f, -0.027481f, 0.143523f, 0.062769f, -0.186414f, -0.086489f, -0.011987f, -0.234471f, 0.166551f, -0.119388f, 0.013764f, 0.112474f, 0.231539f, -0.023649f, 0.142988f, -0.062478f, 0.080207f, 0.171089f, 0.108016f, -0.162143f, 0.104106f, -0.063891f, -0.094663f, 0.119006f, -0.089218f, 0.024634f, 0.219158f, -0.002435f, -0.145719f, -0.059273f, 0.196209f, 0.165672f, 0.157534f, -0.158374f, -0.205719f, 0.255434f, -0.000000f, 0.178466f, 0.268101f, -0.158346f, 0.269354f, -0.100942f, -0.115033f, 0.148114f, 0.131191f, -0.188785f, 0.383869f, -0.235534f, 0.277513f, -0.233489f, -0.102505f, 0.011271f, -0.003186f, -0.919255f, -0.062072f, -0.495188f, -0.131563f, 0.111567f, 0.274342f, 0.032988f, 0.558096f, -0.479567f, -1.290978f, -0.049924f, -0.146211f, -0.154966f, -0.161010f, -0.012433f, 0.294097f, -0.195084f, 0.311213f, -0.309476f, -0.062260f, 0.163563f, 0.257083f, -0.382334f, -0.615044f, 0.065220f, -0.834067f, 0.071627f, -0.514889f, 0.253283f, -0.766695f, 0.461305f, 0.151453f, 0.039837f, 0.053515f, 0.041459f, -0.033864f, -0.007891f, 0.119108f, 0.105201f, -0.053195f, -0.049859f, 0.072127f, 0.067976f, 0.228494f, 0.199161f, -0.087689f, -0.087656f, 0.087919f, 0.055035f, 0.193146f, 0.161287f, -0.066539f, -0.032124f, -0.051070f, -0.112305f, 0.078182f, 0.087698f, -0.146048f, 0.047453f, 0.169198f, -0.040761f, -0.250084f, 0.182374f, 0.002371f, -0.266339f, 0.151049f, -0.056071f, 0.105255f, -0.053551f, -0.156211f, -0.208146f, -0.007703f, 0.151486f, -0.088696f, 0.106735f, 0.145446f, -0.003790f, -0.176408f, -0.172904f, 0.112522f, 0.236181f, 0.061636f, 0.124899f, 0.124816f, 0.194565f, -0.116412f, -0.089809f, 0.049111f, 0.115252f, 0.039707f, -0.136970f, 0.107865f, 0.156492f, -0.000001f, -0.164215f, 0.075502f, 0.001714f, 0.217692f, -0.001254f, -0.220105f, -0.019694f, -0.034173f, 0.090259f, 0.012436f, -0.043441f, -0.030750f, -0.173655f, -0.073631f, -0.000005f, 0.070070f, -0.009450f, -0.078743f, -0.000000f, -0.109982f, -0.069850f, -0.037918f, -0.094430f, 0.061426f, -0.216084f, -0.033947f, 0.086524f, 0.202736f, 0.154677f, -0.084179f, -0.102898f, -0.182723f, 0.163815f, -0.074784f, 0.129486f, -0.076751f, -0.190885f, 0.093579f, 0.074524f, -0.126018f, -0.004014f, 0.193148f, -0.108186f, -0.143244f, 0.081901f, 0.229040f, -0.141316f, -0.030412f, 0.050507f, -0.173731f, -0.251244f, 0.073658f, -0.248066f, -0.111213f, -0.004276f, -0.175933f, -0.168124f, 0.070940f, -0.097110f, -0.034334f, 0.240789f, -0.098855f, 0.078029f, 0.172191f, 0.175905f, -0.061632f, -0.061231f, -0.171931f, 0.223858f, 0.155135f, 0.068689f, -0.000000f, -0.168500f, 0.057962f, -0.137724f, -0.044106f, -0.174553f, -0.000001f, -0.050562f, 0.105670f, -0.019223f, 0.274511f, -0.210613f, -0.043248f, 0.095250f, -0.079975f, -0.061540f, -0.000006f, 0.196206f, -0.238314f, 0.170951f, -0.099622f, -0.143457f, -0.025069f, -0.198161f, -0.004205f, -0.171972f, 0.012242f, -0.177363f, -0.053177f, 0.117689f, 0.085197f, -0.170535f, 0.158718f, 0.167792f, 0.200927f, -0.059236f, 0.056204f, 0.087152f, 0.028748f, 0.109801f, 0.034655f, -0.131185f, -0.196560f, 0.049230f, -0.057644f, -0.091366f, -0.002484f, 0.007704f, -0.169784f, 0.190782f, 0.000064f, 0.108431f, 0.171103f, -0.005884f, -0.039486f, 0.027014f, 0.030826f, -0.040925f, 0.009778f, 0.152259f, 0.016962f, -0.165642f, 0.082451f, -0.121459f, -0.178767f, 0.107133f, -0.092323f, 0.085711f, -0.000002f, -0.019293f, -0.117018f, -0.260846f, 0.006508f, 0.114346f, -0.194159f, -0.114146f, -0.005226f, 0.095345f, 0.072589f, -0.057810f, -0.261974f, -0.078308f, -0.155975f, -0.242738f, 0.076979f, 0.217664f, -0.043403f, -0.064089f, 0.073495f, 0.189320f, 0.110553f, 0.086244f, 0.024039f, 0.117999f, -0.090824f, -0.067934f, 0.131813f, 0.183158f, -0.098973f, -0.162258f, -0.233361f, 0.009198f, -0.079500f, 0.117886f, 0.050196f, -0.148179f, -0.171539f, 0.150692f, -0.059898f, -0.001828f, 0.215675f, 0.091105f, -0.046254f, -0.168321f, 0.067752f, -0.035688f, -0.209721f, 0.076358f, 0.029289f, 0.017851f, 0.136978f, 0.217200f, 0.021507f, -0.088306f, -0.127634f, -0.148526f, -0.102641f, 0.119330f, 0.130276f, -0.098503f, -0.118440f, -0.120770f, -0.000003f, 0.081930f, -0.175147f, -0.153086f, -0.065197f, -0.158330f, 0.259760f, 0.123502f, -0.036650f, -0.332139f, -0.130357f, 0.123295f, 0.171032f, -0.219420f, -0.043403f, -0.398626f, -0.287518f, -0.097384f, -0.150572f, -0.021827f, 0.006542f, -0.232096f, -0.012879f, -0.000043f, 0.005504f, -0.035481f, 0.036051f, 0.127280f, -0.049777f, -0.000394f, 0.103341f, -0.146813f, -0.124023f, -0.005772f, -0.106090f, 0.071957f, -0.131858f, -0.055011f, -0.000000f, -0.019937f, -0.000000f, -0.639453f, -0.000005f, 0.000327f, 0.085466f, 0.124257f, 0.119168f, -0.000000f, -0.000146f, 0.022923f, 0.038656f, -0.195807f, 0.176454f, 0.146766f, 0.108642f, 0.101315f, -0.092484f, 0.066261f, -0.168765f, 0.137736f, -0.169106f, 0.057143f, -0.042081f, -0.086089f, 0.056157f, -0.111028f, 0.157827f, -0.156162f, 0.186372f, 0.182072f, -0.104067f, 0.107039f, 0.158821f, 0.011157f, -0.011680f, -0.055046f, -0.000000f, -0.139434f, 0.200806f, -0.055576f, 0.187852f, 0.124282f, -0.000041f, -0.003526f, 0.104131f, -0.082557f, -0.167015f, -0.035191f, 0.174951f, -0.222702f, -0.052513f, 0.041412f, -0.000000f, 0.049060f, -0.087615f, 0.012741f, 0.225206f, -0.148126f, 0.111990f, -0.150984f, -0.012997f, 0.085503f, -0.128742f, 0.168904f, 0.112466f, 0.121742f, -0.128958f, 0.095028f, -0.047867f, 0.102403f, -0.345427f, -0.072952f, 0.076169f, 0.022816f, -0.037238f, 0.162359f, 0.158062f, -0.098503f, 0.052666f, 0.049609f, 0.045093f, -0.190155f, -0.520841f, 0.075525f, 0.098729f, -0.043218f, 0.080064f, 0.019371f, -0.063770f, -0.046261f, -0.108161f, -0.285816f, -0.036652f, 0.165404f, 0.193830f, -0.010877f, -0.124244f, -0.118206f, 0.146044f, -0.027550f, -0.144611f, -0.094900f, 0.150118f, -0.152167f, -0.191998f, -0.007328f, 0.150358f, 0.064642f, -0.066760f, 0.074441f, -0.029755f, -0.091734f, -0.137864f, 0.025245f, -0.142021f, 0.042218f, 0.228735f, -0.168702f, 0.224128f, 0.100615f, -0.080676f, 0.086887f, 0.233595f, 0.102105f, 0.137720f, -0.177857f, 0.225548f, -0.140080f, -0.272245f, 0.071100f, 0.144778f, 0.147310f, -0.295770f, -0.214726f, 0.025476f, -0.031815f, 0.140041f, 0.233011f, 0.273945f, 0.109650f, 0.255112f, -0.136017f, -0.200844f, 0.082560f, -0.073142f, -0.113014f, -0.057201f, -0.007578f, -0.081096f, -0.190826f, -0.200712f, -0.047281f, -0.147885f, 0.062230f, -0.012832f, -0.196873f, 0.268422f, -0.015998f, -0.059236f, -0.294811f, -0.081197f, -0.113377f, -0.038509f, -0.003955f, 0.183012f, -0.304720f, 0.070501f, -0.125948f, 0.225526f, 0.118288f, 0.018702f, 0.012228f, -0.252561f, -0.145900f, -0.126554f, -0.103719f, -0.117920f, 0.040872f, 0.081476f, -0.174261f, 0.062468f, -0.172189f, 0.057418f, 0.091272f, 0.012050f, 0.121725f, -0.054550f, 0.064300f, -0.083690f, -0.125768f, -0.147746f, -0.151744f, -0.000000f, 0.066273f, -0.151434f, 0.113530f, -0.101051f, 0.159459f, -0.000000f, 0.135009f, -0.093812f, -0.035891f, -0.013810f, -0.000000f, -0.066339f, 0.041084f, -0.000000f, 0.142964f, -0.000000f, -0.090985f, -0.082901f, 0.003280f, -0.000000f, -0.160505f, 0.173909f, -0.000000f, -0.000000f, -0.000000f, -0.099263f, -0.203656f, 0.085014f, -0.169664f, -0.024302f, -0.037322f, -0.033002f, 0.115206f, 0.001998f, 0.291050f, -0.013437f, -0.274507f, -0.071146f, -0.133049f, -0.323315f, -0.061956f, -0.040189f, -0.018697f, 0.050398f, -0.131198f, -0.035103f, -0.177712f, -0.193594f, 0.026473f, -0.021519f, -0.167389f, 0.033024f, 0.182551f, 0.117748f, 0.053018f, -0.169149f, 0.058382f, 0.107643f, 0.036241f, 0.127620f, 0.173067f, -0.001475f, -0.027496f, -0.161105f, 0.052913f, 0.127927f, 0.187865f, 0.201942f, -0.014226f, -0.092103f, -0.074392f, 0.143298f, -0.001424f, 0.076939f, 0.059405f, 0.052658f, -0.024527f, 0.019999f, -0.193641f, 0.105544f, 0.012623f, -0.271293f, 0.121841f, -0.121831f, -0.196165f, 0.001096f, 0.173710f, -0.232046f, -0.153761f, 0.117856f, 0.131441f, 0.180156f, 0.008995f, -0.002692f, -0.111705f, 0.068750f, 0.096798f, 0.134168f, 0.244738f, -0.013127f, -0.023269f, -0.032870f, -0.113733f, -0.063516f, 0.098994f, 0.095767f, 0.014479f, -0.182478f, -0.160712f, 0.115021f, 0.173516f, -0.219777f, -0.107239f, 0.067787f, 0.052304f, -0.152997f, 0.066999f, 0.080220f, 0.166303f, 0.020028f, -0.091944f, -0.075664f, -0.154621f, -0.040723f, 0.026980f, 0.128772f, 0.116489f, -0.230535f, 0.039036f, -0.133356f, 0.019078f, 0.153923f, -0.036142f, -0.112048f, 0.091860f, 0.007360f, -0.060676f, 0.174132f, 0.164307f, -0.373392f, 0.045815f, 0.100641f, -0.089185f, 0.239973f, 0.165558f, -0.127363f, -0.021240f, 0.007240f, -0.142536f, 0.230995f, 0.140802f, 0.173848f, 0.020379f, -0.207392f, 0.191661f, 0.135321f, 0.045510f, 0.094125f, 0.113182f, 0.040048f, 0.006622f, 0.053661f, 0.184893f, 0.059587f, -0.103222f, 0.027117f, 0.031124f, -0.123946f, -0.212423f, -0.082998f, 0.098365f, 0.195265f, 0.047179f, -0.121519f, -0.172234f, 0.034011f, -0.167890f, -0.137214f, -0.197161f, -0.119896f, -0.138796f, -0.138635f, -0.018830f, 0.090489f, 0.223312f, 0.076480f, -0.016289f, 0.145843f, -0.057547f, -0.239827f, -0.130754f, -0.166024f, 0.137957f, 0.051299f, -0.110073f, 0.054114f, 0.036858f, -0.189303f, -0.043717f, 0.136909f, -0.239395f, 0.099888f, 0.126934f, 0.094558f, -0.213729f, 0.077673f, -0.282165f };
static float MLP_buf1[100];
static float MLP_buf2[100];
static float MLP_buf_w_markov[100];
static const EmlNetLayer MLP_layers[2] = { 
{ 100, 7, MLP_layer_0_weights, MLP_layer_0_biases, EmlNetActivationRelu }, 
{ 26, 100, MLP_layer_1_weights, MLP_layer_1_biases, EmlNetActivationSoftmax } };
static EmlNet MLP = { 2, MLP_layers, MLP_buf1, MLP_buf2, 100 };

    int32_t
    MLP_predict(const float *features, int32_t n_features)
    {
        return eml_net_predict(&MLP, features, n_features);
    }
    
    int32_t
    MLP_predict_w_markov(const float *features, int32_t n_features, int32_t last_class){
        int32_t normal_pred = eml_net_predict(&MLP, features, n_features);
        int32_t markov_pred = 0;
        int32_t max = 0;
        for(i = 0; i < 27; i++){
            MLP_buf_w_markov[i] = MLP_buf2[i]*transition_matrix[last_class][i];
            if (MLP_buf_w_markov[i] > max){
                max = MLP_buf_w_markov[i];
                markov_pred = i;
            }
        }
        return markov_pred
    }

    int32_t
    MLP_regress(const float *features, int32_t n_features, float *out, int32_t out_length)
    {
        return eml_net_regress(&MLP, features, n_features, out, out_length);
    }
    

    float
    MLP_regress1(const float *features, int32_t n_features)
    {
        return eml_net_regress1(&MLP, features, n_features);
    }
    