
#include <eml_net.h>
static const float MLP_layer_0_biases[50] = { -0.066135f, -0.278877f, 0.455817f, 0.027128f, 0.075318f, -0.257112f, -0.623209f, 0.236237f, 0.055071f, 0.098265f, -0.372980f, 0.365715f, -0.522015f, -0.314360f, -0.281417f, -0.119411f, -0.333538f, -0.303065f, 0.631356f, 0.020447f, 0.584097f, 0.579078f, -0.538015f, 0.194158f, 0.117729f, 0.295331f, 0.288645f, -0.098406f, 0.185750f, -0.177561f, 0.176307f, 0.268606f, -0.053668f, 0.276473f, -0.092893f, 0.026143f, 0.331421f, -0.132947f, 0.408774f, 0.425977f, -0.192062f, -0.060148f, -0.030328f, -0.179037f, -0.125764f, -0.333965f, 0.018890f, -0.019064f, -0.652671f, 0.185542f };
static const float MLP_layer_0_weights[350] = { 0.280103f, 0.058443f, -0.068394f, 0.083662f, 0.358459f, -0.181946f, 0.053598f, -0.359067f, 0.162707f, -0.110280f, -0.038126f, 0.278982f, -0.152520f, -0.250788f, 0.079109f, -0.269482f, -0.058937f, 0.083193f, -0.050119f, -0.228516f, 0.002076f, 0.135236f, -0.026372f, -0.053276f, 0.288341f, -0.306233f, 0.132883f, 0.118963f, -0.156850f, 0.413961f, -0.259803f, -0.302084f, 0.074486f, 0.119365f, -0.416882f, -0.062766f, -0.289668f, -0.228062f, 0.136154f, 0.009637f, -0.047381f, 0.097541f, -0.232690f, -0.073062f, -0.208084f, 0.176916f, -0.214942f, -0.187928f, -0.249164f, 0.011301f, -0.132809f, 0.179410f, 0.029875f, -0.002027f, -0.118788f, -0.211330f, 0.248106f, -0.214846f, 0.023381f, -0.015230f, 0.033274f, -0.017574f, 0.160606f, -0.107538f, -0.030366f, 0.091697f, 0.058977f, 0.336330f, 0.076726f, -0.174152f, -0.019505f, 0.009120f, -0.216975f, -0.009561f, 0.209804f, -0.656062f, 0.138397f, -0.349910f, 0.221629f, 0.063043f, 0.063556f, 0.039614f, 0.477086f, 0.169271f, -0.200929f, 0.417186f, -0.098547f, 0.141352f, -0.369815f, 0.330142f, 0.262953f, 0.265319f, -0.054705f, -0.461928f, 0.284337f, -0.334000f, -0.246244f, 0.007445f, -0.015770f, -0.525542f, 0.036090f, 0.145764f, -0.047247f, 0.007992f, -0.332926f, -0.016157f, -0.069009f, 0.317786f, -0.337783f, 0.103091f, 0.320507f, -0.354760f, 0.306167f, -0.173875f, 0.248505f, -0.233621f, 0.355065f, -0.398509f, -0.338768f, -0.146510f, -0.283887f, -0.186992f, 0.324827f, -0.383643f, 0.038851f, 0.208590f, -0.016457f, -0.120061f, 0.311487f, 0.089463f, -0.426778f, -0.283195f, -0.044389f, -0.107028f, 0.268241f, -0.283779f, 0.120246f, 0.284723f, 0.054890f, -0.285209f, 0.123285f, 0.202816f, 0.110524f, 0.054423f, 0.287128f, 0.161021f, 0.038703f, 0.126411f, 0.218883f, 0.169291f, -0.351289f, -0.229591f, -0.149712f, 0.099702f, 0.152333f, -0.124966f, 0.328136f, 0.220616f, -0.011240f, 0.251992f, 0.124872f, -0.185090f, -0.213035f, 0.051821f, 0.336272f, 0.023636f, -0.294472f, 0.002033f, 0.278151f, -0.088089f, 0.001372f, -0.388015f, 0.089574f, 0.284516f, -0.290991f, 0.008923f, -0.081585f, 0.115543f, 0.002754f, -0.247031f, 0.183887f, 0.231047f, 0.094959f, -0.011890f, 0.078743f, -0.035049f, -0.183850f, 0.083310f, -0.102747f, 0.105140f, -0.238351f, -0.275300f, 0.058908f, -0.122235f, -0.001810f, 0.034507f, 0.047677f, 0.290448f, -0.095198f, 0.189921f, 0.052325f, -0.193175f, -0.064854f, 0.233352f, 0.025025f, 0.133899f, -0.306880f, -0.192956f, -0.062878f, -0.310487f, -0.283703f, 0.079035f, -0.106283f, 0.235067f, -0.408571f, 0.224332f, 0.011240f, -0.115193f, -0.171311f, 0.287389f, -0.188761f, 0.294014f, 0.233740f, -0.133987f, 0.056449f, 0.191137f, -0.396386f, 0.158732f, -0.164697f, -0.196361f, 0.205350f, 0.153704f, 0.067431f, 0.149438f, -0.022490f, 0.007405f, 0.276834f, -0.077686f, 0.025497f, -0.189665f, 0.187772f, 0.032716f, 0.183782f, -0.055086f, -0.318066f, 0.230749f, 0.230247f, 0.091575f, 0.005854f, 0.120020f, -0.177955f, -0.137571f, -0.288826f, -0.224316f, 0.110091f, -0.254155f, 0.210528f, -0.109227f, 0.061019f, 0.175815f, 0.122481f, -0.179340f, -0.042756f, 0.214673f, 0.126959f, -0.284324f, 0.103331f, -0.227263f, 0.085060f, -0.212209f, -0.306297f, -0.028471f, 0.192402f, 0.128602f, -0.122691f, 0.050128f, -0.018771f, -0.055658f, 0.126965f, 0.043729f, -0.166846f, 0.038629f, -0.387232f, 0.341956f, -0.208200f, 0.044508f, -0.128602f, 0.199921f, -0.178854f, 0.017414f, -0.012568f, 0.168108f, -0.268821f, 0.407658f, -0.142144f, 0.137828f, -0.015406f, -0.047491f, -0.098171f, 0.003747f, -0.200004f, -0.168124f, -0.022521f, -0.234707f, 0.126369f, 0.310971f, -0.078537f, -0.176633f, -0.058921f, -0.290903f, -0.172388f, 0.212873f, 0.146654f, 0.440959f, 0.015995f, 0.317723f, -0.149256f, 0.125445f, -0.521598f, 0.262077f, -0.195448f, -0.184089f, 0.104590f, 0.138670f, -0.232161f, -0.299106f, 0.171427f, 0.361955f, -0.288148f, -0.016609f, -0.329798f, 0.051693f, 0.358887f, 0.173124f, 0.010443f, 0.028960f, 0.131693f, 0.419731f, -0.348146f, 0.444255f, 0.476757f, 0.550442f, -0.016509f, -0.369777f, 0.004224f, 0.144732f, -0.278848f, 0.202504f, 0.467830f, -0.033743f };
static const float MLP_layer_1_biases[100] = { 0.068253f, 0.281695f, 0.010862f, 0.042876f, 0.199351f, 0.027019f, 0.127950f, -0.080550f, -0.056062f, 0.018848f, -0.129717f, -0.168992f, -0.054331f, 0.233514f, 0.070549f, 0.238247f, 0.029102f, 0.173788f, 0.121618f, -0.124419f, 0.033118f, -0.004865f, -0.222989f, -0.183057f, 0.083243f, 0.062598f, -0.069775f, -0.080633f, 0.078169f, 0.020807f, -0.139854f, 0.071212f, 0.098667f, -0.041309f, -0.157150f, 0.147537f, 0.126713f, 0.051531f, 0.219426f, 0.023801f, 0.123810f, -0.168514f, 0.168329f, 0.016599f, -0.090801f, -0.122791f, 0.254825f, 0.258657f, -0.044498f, -0.162407f, -0.133235f, 0.150612f, 0.201008f, 0.166360f, -0.108394f, 0.115327f, -0.193184f, -0.068691f, -0.082509f, 0.336429f, 0.114910f, -0.114344f, 0.368363f, 0.120862f, -0.038260f, 0.216335f, -0.076405f, 0.069747f, 0.261708f, -0.114862f, 0.047581f, 0.199703f, 0.341755f, -0.213772f, -0.011344f, 0.120838f, -0.003328f, -0.085097f, 0.068777f, -0.068230f, 0.020512f, 0.085455f, 0.003163f, 0.146648f, 0.266270f, -0.037575f, 0.042175f, 0.073206f, 0.083400f, 0.082016f, 0.299580f, 0.056380f, 0.111158f, -0.203642f, 0.234324f, 0.177251f, 0.298944f, -0.094664f, 0.034037f, -0.124879f };
static const float MLP_layer_1_weights[5000] = { 0.211567f, -0.588443f, -0.653536f, -0.430060f, 0.780897f, -0.454408f, 0.581680f, -0.516746f, 0.551640f, 0.529623f, 0.115961f, -0.718047f, -0.578957f, 0.598779f, 0.330107f, -0.045868f, -0.494356f, 0.157468f, -0.158175f, 0.703176f, -0.224847f, 0.471735f, -0.040810f, -0.413434f, -0.552059f, 0.275486f, -0.074480f, -0.339817f, -0.102534f, -0.558546f, 0.038353f, -0.101915f, 0.164456f, 0.167964f, 0.509309f, 0.402597f, 0.523150f, 0.610987f, 0.567458f, -0.590329f, 0.425546f, -0.496101f, -0.232081f, 0.309550f, 0.253742f, -0.763965f, 0.288438f, -0.072492f, -0.722738f, -0.685166f, -0.573724f, 0.185982f, 0.539329f, -0.276285f, 0.390044f, 0.701486f, 0.142403f, 0.556423f, 0.051396f, -0.505325f, 0.571011f, 0.091904f, 0.783405f, -0.728489f, 0.279826f, -0.208150f, 0.296162f, -0.280311f, -0.825801f, 0.515625f, -0.188410f, 0.635301f, 0.150150f, -0.467250f, 0.613747f, 0.241512f, -0.005867f, -0.492515f, 0.190568f, -0.244782f, 0.576059f, -0.501006f, 0.242857f, -0.218400f, -0.168921f, -0.509299f, 0.567639f, 0.353215f, 0.249089f, -0.472127f, -0.030394f, 0.394334f, -0.814761f, -0.088086f, -0.565291f, -0.132501f, 0.779423f, 0.177197f, 0.678317f, -0.595773f, 0.322175f, -0.597848f, -0.326546f, -0.729958f, -0.299818f, -0.321718f, 0.027665f, 0.361895f, 0.158696f, 0.095233f, 0.293947f, 0.108126f, -0.197956f, 0.315125f, 0.159023f, -0.822898f, 0.010908f, 0.284592f, 0.273756f, -0.322394f, -0.339414f, -0.496441f, -0.196613f, -0.326463f, -0.528510f, -0.534100f, 0.061458f, 0.065359f, 0.744561f, -0.488796f, -0.364921f, -0.473565f, 0.311892f, 0.294459f, 0.045053f, 0.144091f, 0.009011f, -0.193280f, 0.402954f, 0.111304f, 0.522308f, 0.119331f, -0.222500f, -0.115568f, 0.066847f, -0.072139f, 0.236114f, -0.380638f, -0.190597f, -0.686807f, -0.312553f, -0.077585f, 0.135042f, -0.118575f, 0.284010f, 0.566890f, 0.082171f, 0.248795f, 0.368850f, -0.111501f, 0.598696f, 0.358887f, -0.206817f, -0.329647f, -0.046280f, -0.377108f, -0.163863f, -0.312962f, 0.262981f, 0.015806f, -0.153851f, 0.259539f, -0.050666f, 0.034465f, 0.449542f, 0.482890f, -0.011504f, -0.335786f, -0.154288f, 0.077653f, 0.493517f, 0.108784f, 0.260992f, -0.290255f, -0.517704f, 0.284603f, 0.257044f, -0.270862f, -0.238785f, -0.512462f, 0.155390f, 0.276028f, -0.446734f, -0.261444f, -0.452546f, -0.091504f, 0.679217f, 0.600756f, 0.806712f, -0.198059f, 0.485938f, -0.216752f, -0.445823f, -0.498311f, -0.327819f, -0.447880f, 0.116592f, 0.251703f, -0.329552f, -0.099693f, 0.187699f, -0.191958f, 0.450540f, -0.423330f, 0.501454f, 0.364790f, -0.040695f, 0.477697f, 0.125285f, 0.106694f, -0.378526f, -0.522850f, -0.364963f, -0.343961f, -0.183041f, -0.430295f, 0.408198f, 0.142958f, 0.061241f, -0.706486f, -0.565696f, 0.589743f, 0.634165f, 0.454284f, 0.299206f, -0.268242f, 0.155127f, 0.315090f, 0.328498f, -0.343504f, 0.655264f, 0.456751f, -0.462402f, -0.589771f, 0.264706f, -0.387020f, 0.630198f, 0.077613f, 0.422628f, -0.449821f, 0.190700f, 0.447170f, 0.334105f, -0.429181f, 0.090564f, 0.299160f, -0.538795f, 0.477228f, 0.474403f, 0.293993f, -0.038037f, 0.239873f, -0.328045f, 0.301483f, 0.137103f, 0.189414f, -0.437415f, 0.066056f, -0.082015f, 0.188764f, -0.379685f, 0.483043f, -0.020893f, -0.080090f, -0.162954f, 0.311238f, 0.253175f, -0.467061f, 0.644233f, -0.647535f, 0.005600f, 0.131726f, 0.023626f, -0.326167f, 0.345174f, 0.113312f, 0.428673f, -0.544589f, -0.523012f, 0.162678f, -0.045764f, -0.171261f, -0.032286f, 0.331056f, 0.081228f, -0.493923f, 0.537601f, -0.179358f, 0.146455f, 0.376516f, 0.367196f, -0.272782f, 0.188985f, 0.031093f, 0.053958f, 0.214005f, -0.170829f, 0.061255f, 0.073657f, 0.170883f, 0.108440f, -0.058438f, 0.064555f, 0.581310f, 0.231684f, 0.438396f, 0.513565f, 0.476823f, -0.228182f, -0.168857f, 0.143070f, -0.277547f, -0.224969f, 0.048828f, 0.173202f, -0.340085f, 0.110203f, 0.106448f, 0.395871f, -0.156062f, -0.269222f, -0.192238f, -0.200056f, -0.346827f, 0.124382f, 0.379370f, -0.006093f, -0.273340f, 0.202736f, 0.322994f, 0.364011f, -0.179569f, 0.088452f, -0.082069f, 0.101389f, -0.146172f, 0.264849f, 0.172801f, 0.275384f, 0.301740f, 0.311703f, -0.465879f, 0.173411f, -0.174520f, -0.609735f, 0.334250f, -0.012014f, 0.017687f, -0.133041f, -0.005570f, 0.017517f, -0.177857f, 0.031785f, 0.636221f, 0.030376f, -0.414441f, 0.105622f, 0.290495f, 0.052227f, 0.079227f, 0.118049f, -0.244513f, 0.142993f, -0.304068f, 0.479804f, -0.445502f, 0.347008f, 0.446262f, 0.502483f, -0.046774f, 0.016915f, 0.532551f, 0.468019f, -0.040828f, 0.070883f, 0.448249f, -0.135092f, -0.194572f, -0.078544f, 0.248719f, 0.046537f, -0.561993f, -0.119013f, -0.264422f, -0.357102f, 0.450895f, 0.274228f, 0.338841f, -0.339493f, -0.058221f, -0.108922f, 0.566658f, -0.194791f, 0.569175f, 0.384610f, 0.431499f, -0.541296f, -0.698342f, 0.020161f, -0.441360f, -0.229295f, 0.438645f, -0.329763f, 0.487272f, -0.043352f, 0.792293f, 0.608896f, 0.728213f, 0.148256f, -0.215960f, -0.720861f, -0.507441f, -0.517805f, -0.454429f, -0.570557f, 0.232546f, 0.883588f, -0.141579f, -0.877517f, 0.475063f, 0.002987f, 0.055240f, 0.444340f, -0.464275f, 0.688082f, 0.320341f, -0.307363f, -0.092285f, 0.285425f, 0.369992f, -0.221258f, -0.050176f, 0.455488f, 0.422224f, -0.048238f, -0.503696f, 0.757401f, 0.204462f, -0.189045f, -0.113889f, -0.106150f, 0.459828f, 0.711423f, 0.155965f, 0.036594f, -0.286896f, 0.512651f, -0.445419f, -0.748458f, 0.257485f, -0.176972f, -0.740115f, 0.288560f, -0.801793f, -0.522693f, 0.065743f, -0.749763f, -0.358271f, -0.332481f, -0.501646f, -0.523703f, 0.676091f, 0.502308f, 0.013948f, 0.501943f, -0.411759f, -0.180947f, 0.121464f, 0.676908f, -0.469082f, -0.414733f, 0.725017f, 0.346053f, 0.758394f, 0.529203f, -0.236625f, 0.239536f, 0.137836f, 0.547064f, -0.327430f, 0.113585f, -0.186405f, 0.239433f, -0.597666f, -0.033021f, 0.328127f, -0.033911f, -0.403628f, -0.865138f, 0.399459f, 0.734295f, 0.538218f, -0.284117f, 0.581246f, 0.180117f, -0.500049f, 0.361514f, -0.208001f, -1.031937f, 0.239662f, -0.625847f, -0.461688f, 0.437456f, -0.382035f, 0.341486f, 0.446926f, 0.089391f, -0.727104f, 0.940850f, 0.293252f, 0.155455f, -0.286029f, -1.066339f, 0.638808f, 0.095417f, -0.384616f, 0.151356f, 0.542042f, -0.740797f, -0.460588f, 0.907188f, 0.276136f, -0.184917f, -0.404970f, 0.508492f, 0.515489f, -0.232232f, 0.410279f, -0.660228f, 0.358777f, -0.031319f, 0.944157f, -0.696579f, -0.403772f, -0.756176f, 0.645127f, 0.469516f, -0.596873f, 0.194147f, 0.258685f, 0.340377f, 0.868323f, 0.881371f, -0.372374f, 0.666707f, -0.546993f, -0.614351f, -0.120289f, -0.513986f, 0.005288f, -0.214914f, -0.402068f, 0.831768f, -0.140711f, 0.336512f, 0.930078f, 0.128006f, -0.801226f, -0.350716f, 0.162780f, -0.598775f, -0.693135f, -0.511648f, 0.151601f, 0.114490f, 0.604472f, 0.493969f, -0.407164f, 0.611089f, -0.222041f, -0.474556f, -0.371481f, -0.565358f, -0.471188f, 0.211563f, 0.156574f, -0.165393f, -0.451700f, -0.368175f, -0.420498f, -0.060291f, -0.323763f, 0.766655f, 0.645002f, 0.748084f, -0.187634f, -0.327146f, -0.152600f, -0.509319f, -0.291464f, -0.527348f, -0.249612f, -0.764221f, 0.204759f, -0.639202f, 1.003633f, -0.308018f, 0.210510f, -0.302494f, -0.552792f, -0.280946f, 0.803455f, -0.356801f, 0.605895f, -0.744616f, -0.430003f, 0.460217f, -0.141742f, 0.102620f, -0.653191f, 0.999982f, 0.520307f, 0.047825f, -1.082164f, 0.185448f, 0.146935f, -0.716687f, -0.099566f, 0.471805f, 0.901741f, 1.036098f, -0.846377f, 0.746271f, 0.304189f, -0.866594f, 0.906186f, -0.076728f, -0.894663f, -0.172553f, 0.524458f, -0.674831f, 0.278977f, 1.031050f, 0.858037f, -0.060762f, 0.022269f, 0.217399f, -0.050866f, -0.180139f, -0.016897f, -0.488630f, 0.008497f, -0.324299f, 0.643199f, -0.283117f, 0.150386f, 0.278384f, 0.388140f, 0.340985f, 0.675285f, -0.003767f, 0.238291f, -0.231826f, 0.717139f, -0.781832f, -0.492091f, -0.703980f, -0.363894f, 0.564948f, -0.859788f, 0.755825f, -0.593343f, -0.018979f, -0.182311f, -0.607122f, 0.283518f, -0.775880f, 0.027989f, -0.883981f, 0.649559f, -0.271714f, 0.442241f, 0.684107f, 0.639816f, 0.449263f, -0.469738f, -0.804333f, 0.751943f, 0.260537f, -0.468898f, 0.653799f, 0.376201f, 0.447431f, -0.512660f, -0.111887f, 0.362148f, -0.142294f, -0.176320f, 0.560737f, -0.082147f, -0.276620f, -0.224852f, 0.754381f, -1.176499f, -0.878686f, -1.349174f, 0.928336f, 0.706747f, -0.573600f, 0.228089f, 0.370278f, -0.754350f, 1.206455f, -0.902832f, 1.153254f, -0.895433f, -1.069747f, -0.720936f, -0.994277f, 0.668931f, -0.655083f, 0.373834f, 0.748942f, 0.747960f, 0.585396f, -0.150052f, -1.004534f, -0.611263f, 0.902960f, -1.240665f, -0.045251f, 0.950362f, -0.583285f, 0.359284f, 0.745197f, -1.555917f, -0.218662f, 1.251966f, -0.109336f, -0.789193f, -0.407006f, 0.914799f, -1.234401f, -0.758046f, 0.059820f, 0.389253f, -0.838308f, -0.304575f, -0.060808f, 0.398890f, 0.416267f, -0.113752f, -1.022246f, -1.016910f, 0.360853f, 0.278681f, -0.314505f, 0.469745f, 0.739902f, -0.207103f, 0.640340f, 0.620953f, -0.466048f, 0.201027f, 1.495437f, 0.167546f, 0.599235f, 0.620592f, -0.625139f, 0.729276f, -0.132199f, -0.543068f, -0.573337f, 1.047400f, -0.620266f, 0.524024f, 0.042992f, -0.121014f, 0.834367f, 0.132941f, 0.043622f, -1.162967f, -0.638243f, -0.567444f, -0.518746f, 0.397680f, 0.866461f, -0.960549f, -0.049500f, 0.825481f, -0.127966f, -0.019068f, 0.192448f, 0.449044f, 0.294605f, 0.063358f, -0.210081f, 0.074697f, 0.789374f, -0.358735f, -0.456854f, 0.166964f, -0.401686f, -0.608518f, 0.174064f, -0.058379f, 0.545884f, -0.402719f, -0.389661f, -0.355671f, 0.250056f, -0.741450f, -0.135145f, 0.338205f, 0.010674f, -0.211229f, -0.479312f, 0.632227f, 0.239193f, 0.397167f, 0.175431f, -0.722498f, -0.805980f, -0.734435f, -0.235949f, -0.941160f, -0.307588f, 0.124121f, 0.323490f, 0.097340f, 0.341270f, -0.377313f, 0.450912f, 0.708216f, -0.187331f, 0.195780f, 0.465499f, 0.397534f, 0.290652f, 0.321493f, 0.691428f, 0.523684f, 0.457845f, 0.555668f, -0.670432f, 0.027837f, 0.341086f, -0.874502f, 0.149404f, 0.315489f, 0.548161f, 0.106903f, 0.564393f, -0.476174f, 0.072785f, -0.008546f, -0.572873f, -0.632047f, -0.311333f, 0.145625f, 0.417098f, -0.313860f, 0.604912f, 0.183266f, 0.545676f, -0.155837f, 0.448837f, 0.565009f, -0.599130f, -0.230833f, -0.516955f, -0.166539f, 0.241166f, -0.219730f, 0.665295f, 0.308393f, -0.246422f, 0.252619f, 0.153916f, 0.261711f, -0.483732f, -0.364797f, -0.111117f, -0.691464f, 0.190330f, 0.848017f, 0.260412f, 0.276513f, 0.525007f, -0.387255f, 0.416423f, -0.777581f, 0.454544f, -0.411109f, 0.507855f, 0.164782f, 0.631373f, 0.036949f, 1.019027f, -0.576780f, 0.433580f, 0.257775f, 0.265251f, -0.937259f, -1.115258f, 0.519542f, -0.172392f, -0.243766f, 0.555213f, -0.387144f, -0.904295f, -0.492732f, -0.617899f, 0.336938f, -0.807209f, -0.729107f, -0.242849f, -0.582307f, -0.008586f, 0.578481f, 0.769428f, 0.659007f, 0.061777f, -0.526308f, -0.231951f, -0.011785f, 0.550249f, -0.780913f, -0.534821f, -0.686117f, -0.928996f, 0.977218f, 0.678562f, 1.051161f, -0.420482f, -0.634295f, -0.688691f, 0.686770f, -0.152315f, -1.213343f, -0.841050f, 0.183053f, 0.428657f, -0.567697f, -0.561773f, -0.372530f, -0.861336f, 0.862245f, -0.264662f, -0.829302f, 0.279304f, 0.274121f, -0.009363f, 0.950540f, 0.286050f, 0.921963f, -0.440543f, 0.603894f, 0.441604f, 0.981686f, 0.830476f, 0.048954f, 0.333469f, -0.468656f, -0.756887f, 0.311563f, -0.209532f, -1.034743f, 0.727667f, 0.588833f, 1.214582f, 0.173783f, 0.119664f, -0.759138f, -0.954757f, 0.979852f, 0.165807f, -0.582304f, 0.064066f, -0.714301f, -0.201785f, -0.703154f, -0.619970f, 0.362696f, 0.432233f, -0.359129f, -1.154025f, 0.041009f, 0.322311f, 0.725504f, 0.772229f, 0.488798f, 0.502881f, -0.404734f, 0.866160f, 0.577566f, -0.673254f, 0.781230f, 0.181097f, -0.936078f, 0.045505f, -0.372812f, 0.160807f, -0.153416f, -0.647511f, 0.751249f, -0.014291f, -0.149991f, 0.002138f, -0.375398f, -0.261324f, 0.761715f, -0.430540f, 0.020500f, -0.555009f, -0.302427f, 0.002153f, -0.137744f, -0.076060f, -0.462749f, 0.061249f, 0.375852f, 0.188042f, -0.451764f, -0.134447f, 0.131800f, 0.133570f, 0.095095f, 0.561684f, -0.120093f, -0.233421f, -0.345836f, -0.029628f, 0.370228f, -0.488903f, -0.204150f, -0.469437f, -0.563535f, 0.601996f, 0.549924f, -0.706173f, -0.100311f, 0.602356f, 0.268546f, 0.114822f, -0.405582f, 0.201620f, 0.180849f, -0.148984f, -0.418056f, -0.594372f, 0.300288f, -0.485814f, 0.723974f, 0.201273f, 0.544811f, 0.185446f, 0.581636f, 0.367719f, -0.280754f, -0.152934f, 0.452866f, -0.674300f, -0.222996f, -0.511233f, -0.470236f, -0.740241f, -0.206049f, 0.545993f, -0.053172f, -0.025881f, 0.504201f, 0.007465f, -0.150275f, 0.153243f, 0.313398f, -0.542979f, -0.445904f, -0.326107f, 0.233733f, 0.426591f, 0.448222f, 0.204105f, 0.513320f, 0.044713f, -0.497794f, 0.210489f, 0.563246f, -0.394657f, 0.457165f, -0.087097f, 0.600415f, -0.276445f, -0.220816f, -0.766501f, -0.198040f, -0.497742f, 0.372247f, 0.279456f, -0.319455f, -0.474801f, -0.131236f, -0.998036f, 0.172599f, 1.057932f, 0.131972f, -0.368192f, -0.313667f, -0.898375f, -0.307194f, 0.774436f, -0.696690f, -0.331547f, 0.469218f, 1.002388f, 0.524437f, 0.036591f, -1.140111f, 0.390254f, 0.193068f, -1.055014f, -1.181181f, -0.457784f, -0.294914f, -0.672808f, 0.686822f, -0.707282f, 0.589684f, -0.714473f, -0.339636f, 0.571079f, -0.647597f, 0.891028f, -0.068555f, 0.760656f, -0.467961f, 0.572073f, 0.769967f, -0.425064f, 0.322888f, -0.393980f, 0.435565f, -0.856192f, -0.671612f, -0.519998f, 0.288390f, 0.962591f, -0.426723f, 0.673152f, -0.491627f, 0.042483f, -0.270084f, 1.010815f, -0.932280f, 0.037222f, -0.568649f, -0.180391f, 0.382755f, 0.730985f, 0.596111f, -0.384457f, -0.641416f, 0.611681f, -0.558259f, 0.476818f, 0.838554f, -0.262898f, -0.337801f, -0.426418f, -0.417906f, -1.167606f, 0.484634f, 0.510303f, 0.356553f, 0.935611f, -0.176907f, -0.646324f, -0.689559f, 0.018271f, 0.276044f, -0.782989f, -0.124982f, -0.327476f, 0.566839f, 0.796085f, 0.802640f, 0.824875f, -0.483556f, 1.092149f, -0.515972f, 0.791861f, -0.625259f, 0.587921f, 0.343070f, 0.608776f, -0.310320f, 0.955196f, -0.504716f, 0.592901f, -0.149786f, 0.629166f, -0.239696f, -0.403414f, -0.136120f, -0.731524f, -0.224267f, -0.032764f, -0.050363f, -0.094493f, 0.310071f, 0.339450f, 0.015334f, 0.562567f, -0.652643f, 0.141294f, -0.527270f, -0.261888f, -0.457507f, 0.360255f, -0.033448f, -0.099768f, 0.344421f, -0.258495f, -0.511097f, 0.032556f, 0.217235f, -0.848397f, 0.368566f, 0.248486f, 0.098449f, 0.746365f, 0.838502f, 0.441097f, 0.561887f, 0.275177f, -0.872358f, -0.116605f, 0.709631f, -0.576879f, 0.152364f, -0.133874f, 0.722022f, -0.823621f, -0.111671f, -0.072244f, 0.468086f, 0.361647f, -0.764010f, -0.583294f, -0.289324f, -0.490556f, 0.748485f, -0.603940f, -0.562677f, 0.453154f, -0.408681f, -0.479291f, -0.200166f, 0.164257f, -0.654214f, -0.024652f, 0.549651f, 0.435614f, 0.031680f, 0.233940f, 0.480380f, -0.441777f, -0.507823f, -0.342928f, 0.152777f, -0.587071f, 0.353254f, -0.630627f, 0.597518f, -0.042246f, 0.484552f, -0.503104f, -0.286868f, 0.559514f, 0.527673f, 0.489391f, -0.712442f, 0.076498f, 0.351396f, -0.545225f, -0.548134f, 0.041397f, -0.330076f, -0.242449f, -0.183491f, -0.501840f, 0.301000f, 0.031726f, 0.546644f, -0.026743f, -0.642269f, -0.346742f, 0.149329f, 0.414107f, 0.334390f, 1.081941f, 0.465356f, -0.331448f, -0.753798f, -0.043366f, -0.066383f, -0.558379f, -0.456775f, 0.491058f, -0.046172f, 0.166326f, -0.128156f, 0.501051f, -0.172274f, 0.499733f, -0.667142f, 0.388140f, -0.068665f, 0.353685f, -0.443514f, 0.385105f, -0.027258f, -0.841497f, -0.572051f, -0.554578f, -0.152462f, -0.244573f, -0.323743f, 0.691159f, -0.185611f, -0.771506f, 0.453608f, 0.590952f, -0.363968f, -0.319682f, -0.201513f, -0.676710f, 0.173563f, -0.639043f, 0.417496f, 0.149512f, 0.372431f, -0.315933f, -0.425579f, -0.533105f, 0.614765f, 0.006400f, -0.447226f, 0.774841f, 0.188448f, 0.317114f, -0.722890f, 0.288283f, -0.678917f, -0.234742f, 0.385117f, -0.436677f, -0.695566f, -0.290955f, 0.159609f, 0.305768f, -0.439729f, 0.494445f, 0.130170f, 0.432403f, 0.374982f, 0.060090f, 0.173952f, -0.236383f, 0.394354f, 0.173246f, 0.245799f, 0.450508f, 0.084059f, -0.807979f, 0.135951f, 0.429013f, 0.314903f, 0.534368f, -0.404636f, -0.268114f, -0.428428f, 0.363406f, -0.542310f, 0.529352f, 0.647728f, -0.365648f, -0.566671f, 0.332613f, -0.341615f, 0.664248f, -0.662198f, 0.433345f, -0.247973f, 0.482212f, 0.326030f, -0.226856f, 0.301465f, 0.328022f, -0.412486f, -0.441915f, -0.278310f, 0.048181f, 0.316192f, 0.021392f, 0.796194f, -0.259359f, -0.466857f, -0.740580f, -0.614014f, -0.426446f, 0.129402f, -0.405272f, 0.529769f, -0.492824f, -0.754704f, 0.362260f, -0.445164f, 0.270504f, -0.516705f, 0.972534f, 0.907849f, 0.560547f, -0.648558f, 0.729071f, 0.444629f, -0.732696f, 0.373142f, 0.786590f, 1.055743f, 1.123327f, -0.727659f, 0.440610f, -0.409833f, -0.859967f, 0.818341f, -0.402911f, -0.864001f, 0.214225f, 0.653320f, -0.673721f, 0.235180f, 0.964429f, 0.807219f, -0.551895f, -0.251642f, 0.356775f, -0.341999f, -0.503803f, 0.117794f, -0.725478f, -0.288649f, -0.676334f, 0.747690f, 0.024713f, 0.284387f, 0.768500f, 0.364535f, -0.113361f, 0.241265f, -0.130385f, 0.418856f, 0.137057f, 0.823343f, -0.777570f, -0.820229f, -0.400145f, -0.508841f, -0.021847f, -0.626498f, 0.592593f, -0.007095f, -0.198775f, -0.189947f, -0.373509f, -0.143744f, -0.309098f, 0.278657f, -0.874760f, 0.811997f, 0.524019f, 0.210631f, 0.564732f, 0.635517f, 0.215276f, -0.651803f, -0.310440f, 0.747809f, -0.293278f, -0.208356f, -0.358236f, 0.494308f, -0.622765f, -0.410539f, -0.543766f, -0.125622f, 0.482445f, -0.532644f, 0.268682f, -0.328539f, -0.032880f, -0.429744f, -0.153436f, 0.239184f, 0.712458f, -0.239309f, -0.004119f, 0.293299f, 0.567122f, 0.515701f, 0.642085f, 0.519684f, 0.576871f, -0.630336f, 0.037719f, -0.078768f, -0.275082f, 0.335101f, 0.154277f, -0.383155f, -0.143906f, -0.379359f, 0.568018f, 0.090290f, -0.130842f, 0.030457f, 0.554434f, -0.012507f, 0.037572f, 0.605566f, -0.218511f, 0.165914f, 0.023629f, 0.266277f, -0.031954f, -0.271692f, 0.574952f, 0.313251f, -0.338025f, 0.232501f, 0.702820f, -0.341665f, -0.083983f, -0.138792f, 0.531984f, 0.307886f, -0.325090f, -0.188412f, 0.206691f, 0.423385f, 0.617159f, -0.371920f, -0.299946f, -0.592505f, 0.307197f, -0.373203f, 0.511884f, -0.266478f, -0.470411f, -0.595808f, -0.614472f, -0.143445f, -0.511020f, 0.393199f, 0.297232f, -0.087186f, 0.229924f, 0.016409f, 0.129155f, 0.389099f, -0.210128f, 0.007715f, -0.285118f, 0.367312f, -0.148859f, 0.450714f, -0.151254f, 0.111297f, -0.205536f, -0.418425f, -0.077262f, -0.180614f, -0.585217f, -0.217089f, -0.318680f, 0.579094f, -0.107557f, -0.362111f, -0.655406f, -0.107190f, -0.711949f, -0.580246f, 0.148524f, 0.673782f, 0.123536f, -0.989483f, -0.283503f, 0.276961f, -0.238072f, 0.795820f, 0.787495f, -0.436983f, -0.043526f, -0.533960f, -0.345780f, -0.363568f, 0.780237f, -0.002376f, 0.469035f, 0.193403f, -0.145549f, 0.838020f, 0.037295f, -0.054401f, 0.110652f, -0.024853f, -0.685441f, 0.297826f, -0.379602f, -0.628289f, -0.390726f, 0.121766f, 0.637196f, -0.874982f, -0.447167f, -0.345931f, -0.389421f, 0.291210f, 0.491449f, -0.638741f, 0.026569f, -0.336878f, 0.085247f, -0.012269f, 0.258410f, -0.750948f, -0.071068f, -0.264232f, 0.649727f, 0.330068f, -0.460951f, 0.358347f, 0.199360f, 0.499778f, 0.222710f, -0.339880f, 0.711666f, -0.588177f, -0.454445f, -0.585205f, -0.915729f, 0.557740f, -0.715412f, 0.138116f, -0.087210f, 0.662868f, -0.206475f, 0.578511f, 0.363908f, -0.298875f, -0.444585f, 0.295697f, -0.313417f, 0.397106f, -0.048153f, -0.130959f, -0.886404f, -0.427490f, 0.209030f, 0.770322f, -0.843268f, 0.556402f, -0.322016f, -0.128544f, 0.718032f, 0.193620f, -0.761355f, -0.309677f, 0.363206f, 0.270028f, 0.247348f, 0.326961f, 0.726927f, 0.865035f, -0.543270f, -0.545764f, 0.608646f, 0.409446f, 0.468817f, 0.659784f, -0.159540f, 0.546994f, -0.225243f, 0.113452f, -0.676509f, 0.084925f, -0.434301f, 0.685233f, 0.459496f, -0.640975f, 0.520787f, -0.320189f, -0.567863f, -0.624192f, 0.055190f, 0.137946f, -0.357526f, -0.111203f, -0.600404f, -0.002724f, 0.233007f, 0.175628f, 0.543410f, -0.405906f, 0.516978f, 0.454262f, 0.190786f, 0.203485f, 0.501783f, 0.045791f, -0.573077f, -0.516473f, -0.322834f, -0.318410f, -0.586565f, 0.188394f, 0.705804f, 0.021565f, 0.059505f, -0.516056f, -0.586533f, 0.154046f, 0.761187f, 0.238735f, 0.468791f, -0.024024f, -0.001500f, 0.558722f, 0.392053f, -0.181705f, 0.378684f, 0.437180f, -0.580932f, -0.599073f, 0.105307f, -0.335595f, 0.598923f, 0.143835f, 0.295250f, -0.437130f, 0.253927f, 0.243822f, 0.335787f, -0.449891f, 0.281550f, 0.534351f, 0.157251f, 0.338026f, 0.338881f, -0.040889f, -0.097952f, 0.128513f, 0.011340f, -0.467604f, 0.066679f, -0.071270f, -0.707453f, 0.017656f, -0.470947f, -0.101835f, -0.577480f, 0.800177f, -0.417128f, -0.193525f, 0.276887f, 0.750389f, -0.365488f, -0.476257f, 0.632843f, -0.843630f, 0.218531f, 0.257172f, -0.163078f, 0.273698f, 0.454893f, 0.385942f, 0.475170f, -0.374269f, -0.307229f, -0.559321f, -0.310896f, 0.034201f, -0.378815f, 0.473802f, -0.214834f, -0.796015f, 0.611614f, -0.256596f, 0.502956f, 0.628812f, -0.836046f, -0.091268f, 0.094158f, -1.079868f, -0.084361f, 0.601765f, 0.003039f, -0.179304f, -0.777543f, -0.482301f, -0.590287f, -0.600245f, 0.003092f, 0.485461f, -0.393404f, -0.620508f, -0.200585f, -1.136550f, -0.031105f, 0.713077f, 0.263601f, -0.182318f, 0.734033f, -0.111983f, 0.802639f, 0.497188f, -0.649252f, -0.904850f, -0.387373f, 0.320682f, 0.498663f, 0.271712f, 0.305657f, 0.459064f, -0.187817f, 0.221381f, 0.603774f, 0.464819f, 0.465586f, -0.669087f, 0.077873f, -0.574710f, -0.187169f, 0.313459f, -0.516523f, 0.367446f, -0.568589f, 0.714513f, 0.568206f, 0.495790f, -0.247245f, -0.251386f, 0.470231f, -0.401587f, 0.461959f, 0.141616f, 0.646625f, -0.033979f, 0.458521f, 0.942864f, 0.724221f, -0.488197f, 0.176935f, -0.346038f, -0.853812f, -0.642693f, 0.769044f, -0.488209f, 0.705884f, -0.543548f, -0.373170f, -1.142578f, -0.206160f, -0.477040f, -1.231204f, 0.518749f, 0.708651f, -0.670306f, -0.089060f, 0.543354f, -0.410054f, -0.653499f, -0.820334f, -0.820329f, 0.404747f, 0.262195f, 0.654426f, 0.476930f, 1.067471f, -0.109955f, 0.980375f, 0.002085f, 0.139991f, -0.771345f, 0.124987f, 0.704367f, 0.618558f, -0.361954f, 0.031515f, -1.096881f, 0.805300f, 0.493717f, 0.048842f, 0.927368f, 0.376587f, -0.640082f, 0.137827f, 0.451302f, -0.628152f, 0.510519f, -0.579091f, -0.175528f, 0.262800f, -0.354499f, 0.508954f, 0.726264f, 0.396938f, -0.154312f, 0.960430f, -0.024643f, -0.195283f, -0.571981f, -1.113722f, 0.658586f, -0.266063f, -0.465851f, 0.605821f, 0.191180f, -0.816793f, -0.304169f, 0.191648f, 0.391285f, -0.453254f, -0.448700f, 0.383067f, 0.579696f, -0.224215f, 0.035555f, -0.887299f, 0.710971f, 0.079222f, 0.362478f, -0.767942f, -0.494199f, -0.151207f, 0.494620f, -0.077202f, -0.241431f, 0.293944f, 0.258320f, 0.530742f, 0.822705f, 0.859368f, -0.387181f, 0.564722f, -0.590773f, -0.210542f, -0.416178f, -0.725257f, 0.199842f, -0.274430f, -0.493181f, 0.932139f, -0.454723f, 0.322049f, 0.932249f, 0.450620f, -0.903221f, -0.065117f, -0.117218f, -0.493860f, -0.748009f, -0.165140f, 0.320312f, -0.114459f, -0.318436f, 0.655923f, -0.554434f, 0.179491f, -0.416029f, -0.476836f, -0.128142f, -0.672196f, -0.680447f, 0.290968f, 0.446862f, -0.273642f, -0.607882f, -0.229054f, -0.004850f, 0.536779f, -0.425501f, 0.756291f, 0.164708f, 0.845672f, 0.155837f, -0.551294f, -0.657715f, -0.589514f, 0.261848f, 0.385416f, -0.630117f, -0.829781f, 0.602795f, 0.729310f, 0.533460f, 0.040517f, 0.287393f, -0.614043f, -0.679479f, -0.230300f, -0.698629f, -0.538857f, 0.471400f, 0.770676f, 0.532689f, 0.599936f, -0.833584f, -1.005420f, -0.472755f, -0.731033f, -0.822868f, -0.057444f, -0.648451f, 0.765264f, -0.353050f, -0.505356f, -0.020193f, 0.416010f, -0.783478f, -0.785174f, 0.449866f, 0.694114f, -0.082246f, 1.018912f, 0.005108f, -0.487490f, -0.037175f, 0.843639f, -1.051702f, -0.397480f, -0.949428f, -0.375422f, -0.888746f, 0.197033f, 0.114572f, 0.433220f, 0.576603f, 0.975979f, -0.226419f, 0.430841f, -0.942275f, 0.999592f, -0.148078f, -0.923390f, 0.934729f, -0.621772f, 0.617116f, 0.969162f, 1.149757f, 0.228109f, -0.429576f, -0.402069f, 0.785254f, -0.760212f, -0.804809f, -0.380402f, 0.089291f, 0.598705f, -0.779044f, -0.637244f, 0.574752f, 0.222727f, -0.761277f, -0.875972f, 0.202068f, -0.639081f, -0.655098f, 0.443670f, 0.279184f, -0.214536f, 0.883909f, 0.654936f, 0.632973f, 1.365065f, 0.477776f, 0.802636f, -0.873962f, -0.903369f, 0.669930f, 0.768661f, -0.886476f, 0.455726f, 0.101876f, 0.960831f, 0.250824f, 0.579956f, -0.804540f, -0.177282f, -0.144142f, -0.410735f, -0.293078f, -0.064669f, -0.532869f, 0.726369f, -1.058853f, 0.321380f, -0.484496f, 0.396530f, 0.658449f, -0.121499f, -0.686383f, -0.611367f, 0.300484f, 0.169142f, -0.303831f, -0.565481f, -0.052508f, -1.085903f, 0.506307f, -1.005003f, -0.805527f, 0.797734f, -0.613543f, 0.856254f, 0.624204f, 0.205927f, -0.493203f, -0.252462f, -0.446369f, -0.531349f, 0.167049f, -0.259497f, 0.193439f, 0.926555f, -1.043766f, 0.753672f, 0.691026f, 0.624001f, -0.715650f, 0.569225f, -0.589816f, -0.695053f, 0.074608f, -0.368143f, -0.446981f, -0.265218f, 0.668471f, 1.029758f, 0.308955f, -0.418721f, -0.933729f, 0.485664f, -0.867852f, -0.249112f, 0.633443f, 0.214051f, -0.212738f, 0.250961f, 0.841715f, 0.294736f, -0.516313f, 0.388358f, -0.246393f, 0.193266f, -0.673243f, 0.605796f, -0.515516f, -0.256190f, 0.868192f, -0.770253f, -0.202074f, 0.815675f, -0.480676f, 0.055234f, 0.087857f, 0.394624f, -0.718315f, 1.024368f, -0.204764f, -0.086684f, -0.615414f, 0.159076f, -0.218544f, 0.362079f, 0.671423f, 0.612127f, -0.260093f, 1.036906f, -0.001026f, 0.281373f, -0.652420f, -0.671964f, -0.005964f, -0.519457f, 0.763595f, 0.553589f, 0.349879f, -0.124902f, -0.709357f, -0.284632f, 0.428895f, 0.547281f, -0.512953f, -0.217508f, -0.305242f, 0.001095f, -0.093170f, 0.316496f, 0.559212f, -0.057765f, 0.270770f, 0.639602f, -0.632202f, -0.151544f, -0.348111f, -0.520483f, 0.562036f, 0.587454f, 0.185217f, 0.445102f, 0.756602f, 0.536183f, 0.521904f, -0.144016f, 0.491021f, -0.070183f, -0.309491f, -0.139773f, 0.252867f, 0.734199f, -0.048142f, -0.429669f, -0.227714f, -0.446825f, 0.356329f, 0.077777f, 0.039472f, -0.188574f, 0.171081f, 0.331161f, 0.303007f, 0.132735f, 0.723171f, -0.034704f, -0.101199f, -0.188008f, -0.681743f, -0.904877f, 0.061113f, -0.294107f, 0.628120f, -0.719305f, -0.059612f, 0.855080f, -0.292024f, 0.665083f, -0.240399f, -0.309391f, -0.647745f, 0.092506f, -0.095208f, 0.183794f, -0.341848f, 0.676433f, 0.494812f, 0.193259f, 0.208891f, -0.550631f, 0.414394f, 0.132533f, -0.266220f, -0.490290f, 0.423304f, 0.172741f, 0.046584f, 0.449424f, 0.266831f, -0.385044f, -0.238904f, -0.115255f, -0.516660f, -0.388719f, -0.430566f, -0.501252f, -0.645911f, -0.045405f, 0.413441f, 0.569548f, -0.268920f, -0.475998f, 0.878477f, 0.333573f, 0.295537f, -0.092378f, 0.094281f, 0.082166f, 0.486616f, 0.237312f, 0.412844f, -0.791357f, 0.602581f, -0.552253f, 0.320208f, -0.147695f, 0.839692f, -0.726221f, -0.488251f, -0.160158f, -0.271324f, 0.585096f, 0.765289f, 0.032376f, -0.167883f, 0.212229f, -0.104276f, 0.480245f, 0.074701f, 0.235444f, 0.230052f, -0.607009f, -0.607607f, 0.114487f, -0.560634f, -0.311097f, 1.030266f, 0.237286f, -0.489651f, -0.746604f, 0.820042f, 0.353838f, 0.595279f, 0.692737f, 0.595020f, -0.388966f, -0.788993f, 0.082188f, 0.275843f, -0.462591f, -0.126801f, -0.173692f, -0.043408f, -0.064305f, 0.000701f, -0.042821f, 0.846522f, -0.108960f, 0.235031f, 0.421402f, 0.413798f, 0.404998f, -0.642589f, 0.522940f, -0.143492f, 0.612703f, -0.730352f, 0.720959f, -0.651625f, -0.072822f, 0.176893f, 0.321812f, -0.723573f, 0.282046f, -0.618500f, 0.513226f, 0.161031f, -0.396676f, -0.369985f, 0.527154f, -0.678371f, -0.497839f, -0.292596f, 0.530713f, 0.395226f, -0.089879f, 0.497555f, -0.824616f, -0.325347f, -0.766887f, -0.461170f, -0.704332f, -0.383791f, -0.773886f, 0.239086f, 0.472613f, 0.377415f, -0.196095f, -0.667637f, 0.600791f, -0.534736f, 0.609741f, -0.264783f, 0.475295f, 0.033211f, 0.600599f, -0.316867f, 0.285719f, -0.549696f, 0.405313f, 0.722191f, -0.599592f, -0.337477f, -0.036240f, 0.404820f, 0.722140f, -0.211241f, 0.530539f, 0.220487f, -0.439263f, 0.132894f, -0.450078f, -0.105155f, -0.291650f, 0.473625f, -0.011497f, 0.635317f, -0.321840f, 0.143662f, -0.409544f, 0.413970f, -0.247451f, -0.045215f, 0.178501f, 0.015464f, 0.583427f, -0.298315f, -0.310625f, 0.224226f, -0.591858f, -0.213155f, 0.171843f, -0.624577f, -0.537606f, 0.255443f, 0.258237f, 0.250783f, 0.633758f, -0.244405f, 0.519840f, 0.137097f, 0.174739f, -0.489704f, 0.274708f, 0.398739f, 0.475324f, -0.500670f, 0.708038f, 0.040978f, -0.405615f, -0.328122f, -0.542753f, 0.652652f, 0.240630f, 0.255638f, -0.145024f, -0.067843f, -0.191182f, 0.663853f, 0.175019f, 0.016000f, -0.146005f, 0.523707f, -0.683700f, -0.165535f, -0.356488f, -0.101584f, -0.061018f, 0.262504f, 0.217512f, -0.426568f, -0.506862f, 0.085654f, -0.273940f, -0.298520f, 0.764622f, -0.290835f, -0.303225f, -0.142961f, -0.404684f, 0.385741f, 0.276706f, 0.294990f, -0.155014f, 0.326823f, -0.256483f, -0.407405f, 0.535503f, 0.389291f, -0.213284f, 0.016176f, -0.279523f, 0.132518f, -0.178405f, 0.271837f, -0.374102f, -0.276343f, 0.363047f, -0.375328f, 0.422975f, -0.114679f, 1.116728f, 0.919796f, 0.754883f, 0.102597f, -0.989598f, -0.687047f, -0.643920f, -0.619732f, 1.010700f, 0.244905f, -0.712490f, -0.195213f, 0.041723f, -0.144374f, -0.764890f, 1.023374f, -0.035348f, 1.071278f, -1.000000f, 0.351166f, 0.439356f, 0.645406f, -0.980296f, -0.341806f, -0.572468f, -0.886252f, 0.940860f, -0.817717f, -1.085260f, -0.610967f, -0.862083f, 1.060258f, -0.197522f, 0.319211f, 1.018480f, 0.221136f, 0.248965f, 0.121902f, -0.182315f, -0.869522f, 0.639383f, 0.043684f, 0.417755f, -0.632785f, 0.548242f, -0.505766f, -0.511271f, 0.602268f, 0.330479f, -0.091658f, 0.521902f, 0.083556f, -0.087974f, 0.681746f, -0.300740f, 0.883872f, -1.047141f, 0.156154f, -0.447968f, 0.630147f, -0.640434f, -0.898198f, 0.889927f, 0.645256f, 0.044263f, 0.426024f, 0.454336f, 0.119794f, -0.287429f, 0.970525f, 0.792250f, 0.658086f, 0.772092f, -0.675350f, -0.590678f, 0.011285f, 0.658913f, 0.421833f, 0.786270f, -0.981218f, -0.714214f, 0.755335f, 0.693209f, -0.535684f, 0.703882f, -0.406202f, -1.134652f, 0.361327f, 0.258777f, 0.777714f, 0.256529f, -0.333095f, -0.116140f, -0.614049f, 0.707135f, 0.422496f, -0.619230f, 0.919953f, -0.823084f, -0.720253f, 0.110025f, 0.452986f, -0.509975f, 0.542336f, -0.091315f, 0.734454f, 0.609378f, -0.388311f, -0.644846f, -0.752690f, -0.533001f, -0.719175f, -0.623258f, 0.358930f, -0.338289f, 0.354816f, -0.064387f, -0.800218f, -0.561187f, 0.564565f, -0.290176f, -0.009218f, -0.266681f, -0.509296f, -0.409662f, -0.607197f, -0.568243f, -0.047463f, -0.323647f, -0.221726f, -0.304297f, 0.612270f, 0.357468f, 0.781769f, 0.412511f, -0.789768f, -0.495064f, 0.287670f, 0.632834f, 0.282009f, -0.748567f, 0.242918f, 0.514242f, -0.428278f, -0.365022f, 0.114472f, 0.343321f, 0.815618f, 0.390757f, -0.639156f, 0.038541f, 0.536165f, 0.274775f, 0.762505f, 0.340679f, 0.421940f, -0.886272f, 0.360281f, 0.302879f, 0.642855f, 0.699279f, 0.571698f, 0.286647f, -0.497207f, -0.749759f, 0.315918f, -0.532452f, -0.444537f, 0.402088f, -0.713375f, 0.883812f, 0.533577f, 0.102808f, -0.331459f, -0.941862f, 0.609617f, -0.431911f, -0.499730f, -0.426902f, 0.624243f, 0.223052f, -0.150059f, -0.349959f, 0.403196f, 0.935226f, -0.395358f, 0.059464f, 0.145287f, 0.104708f, -0.169192f, 0.626224f, 0.195644f, 0.521029f, -0.815804f, 0.839914f, -0.439801f, -0.370787f, -0.723017f, 0.235728f, -0.375052f, 0.578074f, 0.613052f, -0.129515f, 0.556054f, 0.442172f, -0.182911f, -0.128567f, -0.314019f, -0.526726f, -0.346541f, -0.526744f, -0.432312f, -0.006726f, 0.087642f, 0.627131f, 0.429438f, 0.347776f, -0.538095f, 0.564895f, 0.278053f, 0.283591f, -0.037448f, -0.391810f, 0.324996f, -0.115215f, 0.396545f, 0.416454f, 0.049815f, -0.477137f, 0.086700f, -0.472676f, 0.599221f, 0.423811f, -0.437323f, 0.135690f, 0.176676f, -0.435704f, 0.212960f, -0.136484f, 0.071804f, -0.061405f, -0.449142f, 0.019284f, -0.479614f, -0.454739f, 0.439243f, 0.339818f, -0.115585f, 0.059617f, -0.113692f, 0.060733f, -0.193857f, 0.551922f, 0.023102f, -0.203469f, -0.375695f, -0.364824f, -0.413625f, -0.525963f, 0.405983f, -0.232670f, -0.288724f, 0.554566f, 0.003806f, 0.258542f, 0.508027f, 0.166901f, -0.311059f, -0.253626f, -0.291037f, -0.171174f, 0.475969f, 0.567284f, -0.223686f, 0.041638f, -0.407515f, 0.655883f, 0.258145f, 0.148453f, -0.167431f, -0.139339f, -0.244526f, 0.241354f, -0.058307f, 0.686416f, -0.420321f, 0.209392f, -0.494487f, 0.364563f, -0.110898f, 0.369096f, 0.171595f, 0.714107f, -0.307164f, 0.785968f, 0.636142f, -0.207043f, -0.623843f, -0.505417f, 0.134347f, 0.364672f, -0.185568f, 0.135337f, -0.037259f, -0.751892f, 0.466041f, 0.266562f, 0.641194f, 0.691260f, -0.403981f, 0.074155f, 0.540313f, -0.158908f, -0.114442f, -0.739596f, -0.121731f, 0.375848f, 0.511266f, -0.434305f, -0.527809f, 0.429534f, 0.358910f, -0.468773f, -0.017541f, 0.253219f, -0.034590f, -0.130902f, 0.325445f, 0.556237f, -0.345625f, -0.128610f, -0.543165f, -0.141632f, 0.516736f, -0.567228f, -0.425213f, 0.019762f, -0.474187f, 0.107147f, -0.200567f, -0.509329f, 0.406522f, 0.122354f, 0.140230f, 0.155355f, -0.627012f, 0.095212f, 0.480674f, 0.076302f, -0.500168f, -0.614415f, 0.364216f, -0.697671f, 0.489476f, -0.323505f, 0.264936f, -0.596578f, 0.459202f, 0.397989f, 0.295402f, -0.014708f, 0.553577f, -0.728231f, -0.132140f, -0.428095f, -0.314719f, -0.507725f, 0.188804f, 0.721823f, 0.197363f, 0.337376f, -0.208390f, -0.031607f, -0.191788f, -0.248755f, 0.468252f, -0.417003f, 0.074847f, 0.197255f, -0.070703f, 0.257900f, 0.243706f, 0.475469f, 0.620753f, -0.401194f, -0.295336f, -0.561221f, 0.489195f, -0.292139f, 0.713927f, 0.472481f, 0.507150f, -0.432749f, 0.234978f, -0.783294f, -0.295647f, -0.443474f, 0.645297f, 0.415175f, -0.007829f, 0.867919f, -0.120501f, -1.266209f, -0.270691f, 0.229932f, 0.117131f, -0.411836f, -0.690546f, -0.194894f, -0.455361f, -0.095930f, 0.058292f, -0.253396f, 0.456525f, 0.364771f, -0.042563f, -0.058479f, 0.137127f, 0.859082f, -0.369358f, 0.207961f, 0.039017f, -0.406137f, -1.185145f, -0.199730f, 0.500569f, -0.907029f, 0.668315f, 0.292050f, 0.204250f, 0.914526f, -0.687143f, 0.922944f, -0.255109f, -0.265708f, 0.366686f, 0.378962f, -0.289678f, -0.014386f, 0.341649f, 0.367188f, 0.431589f, -0.023087f, 0.541067f, 0.127139f, -0.240108f, 1.187663f, -0.860787f, -0.479735f, -0.681813f, -1.149676f, 0.672745f, 0.389109f, -0.377502f, -0.244166f, 0.120803f, -0.313669f, -0.034885f, -0.238697f, 0.190331f, -0.207158f, -0.350416f, 0.500132f, 0.520263f, -0.410246f, 0.356697f, -0.711468f, -0.744897f, -0.206173f, -0.414565f, -0.594565f, 0.791521f, 0.555174f, -0.239223f, 0.661627f, -0.497511f, -0.275541f, -0.581217f, 0.251997f, 0.901063f, 0.487303f, -0.182868f, 1.050619f, 0.742749f, 0.296490f, -0.780800f, 0.644100f, 0.112204f, 0.071982f, -0.694730f, 0.259963f, 0.348979f, -0.606123f, -0.399121f, -0.192039f, -0.129195f, 0.649015f, -0.346208f, 0.730601f, 0.070420f, -0.340089f, -0.281726f, 0.666300f, 0.397852f, -0.888968f, -0.252918f, -0.205602f, 0.272118f, 1.146184f, 0.566856f, 0.446288f, 0.304382f, 0.160025f, -0.436126f, -0.899638f, 0.054257f, -0.397940f, 0.748426f, -0.403918f, -0.141385f, 0.007459f, -0.126423f, 0.567708f, 0.065736f, 0.281103f, 0.277786f, 1.020669f, -0.134663f, -0.718558f, 0.720845f, 0.207155f, 0.818638f, 0.001538f, 0.690228f, 0.145998f, -0.228499f, 0.526514f, 0.527425f, 0.607402f, -0.664779f, 0.493021f, -0.604765f, 0.219661f, 0.232371f, 0.673219f, 0.156862f, -0.760964f, 0.094265f, -0.251128f, 0.194464f, 0.921487f, -0.466902f, -0.061918f, -0.002023f, 0.562743f, -0.172635f, 0.778515f, -0.234635f, -0.301273f, -0.437133f, -0.445307f, -0.279263f, -0.387363f, -0.198560f, 0.167487f, -0.753711f, 0.358057f, -0.698191f, 0.169423f, 0.457567f, 0.119928f, -0.322093f, -0.124248f, 0.053630f, 0.359930f, 1.095622f, 0.211514f, 0.099448f, 0.031117f, -0.526168f, 0.103603f, -0.133428f, -0.376802f, -0.089993f, -0.568393f, 0.212476f, -0.974641f, -0.154895f, -0.066203f, 0.096423f, -0.478291f, -0.049360f, -0.189459f, 0.471068f, -0.290332f, -0.230033f, -0.387846f, 1.099533f, -0.759457f, 0.475399f, -0.130738f, 0.291134f, 0.607909f, 0.315386f, -0.431855f, 0.564869f, -0.479649f, 0.467721f, -0.511688f, 0.249415f, 0.151430f, 0.312538f, 0.426942f, -0.110522f, 0.232265f, 0.000231f, 0.519659f, -0.134428f, -0.151052f, -0.388943f, 0.446666f, -0.611951f, -0.286578f, 0.328160f, 0.652636f, -0.120038f, 0.300467f, -0.078776f, -0.170147f, 0.638026f, -0.155624f, 0.127340f, -0.378303f, -0.417473f, -0.343056f, -0.137970f, -0.368184f, -0.559096f, -0.674887f, 0.118388f, 0.205667f, 0.403955f, 0.053040f, -0.177240f, -0.268415f, 0.624352f, -0.494863f, 0.361235f, 0.960704f, 0.738876f, 0.568154f, -0.758703f, 0.075460f, 0.061376f, -0.547674f, -0.548942f, -0.051951f, -0.130729f, 0.280764f, 0.144500f, -0.550891f, -0.244638f, -0.367485f, 0.809076f, 0.646112f, 0.311103f, 0.008081f, 0.495463f, 0.691619f, 0.250892f, -0.031625f, -0.796401f, -0.064006f, 0.050131f, -0.086752f, -0.099096f, -0.144453f, 0.492057f, 0.079422f, -0.077133f, -0.597837f, 0.645860f, -0.537170f, -0.268269f, 0.117852f, 0.806632f, -0.616932f, -0.124952f, -0.028538f, 0.435400f, 0.506757f, -0.737602f, 0.606574f, 0.028549f, 0.265266f, 0.189466f, -0.433954f, 0.311536f, -0.351926f, -0.007110f, -0.519005f, -0.360294f, 0.058392f, 0.745182f, 0.604561f, 0.154038f, -0.195267f, 0.457206f, -0.213575f, 0.208365f, 0.446232f, -0.358204f, -0.456891f, -0.047910f, -0.112974f, 0.702519f, 0.376978f, 0.479025f, -0.196173f, -0.573905f, -0.164018f, 0.117609f, -0.213396f, 0.338865f, 0.238013f, 0.245808f, 0.085906f, 0.750869f, 0.283911f, 0.565447f, 0.441900f, 0.073541f, -0.385333f, -0.425981f, 0.276714f, 0.463294f, -0.224200f, -0.239678f, 0.550987f, 0.349119f, -0.186135f, -0.133618f, 0.117251f, -0.139363f, 0.646836f, -0.121534f, 0.263979f, 0.043229f, -0.215813f, 0.152823f, 0.447106f, -0.203866f, -0.275900f, 0.627706f, -0.162121f, -0.595367f, 0.380865f, -0.141285f, -0.319678f, 0.049191f, -0.588286f, 0.171691f, -0.523950f, -0.107825f, -0.071997f, -0.532464f, -0.275997f, 0.000404f, -0.414914f, -0.537414f, 0.667015f, 0.388444f, 0.214777f, 0.488905f, 0.670796f, -0.447161f, -0.240422f, -0.061233f, -0.526750f, 0.533126f, 0.518576f, 0.687751f, 0.410898f, 0.647230f, -0.074364f, 0.135765f, -0.404951f, -0.246405f, -0.174982f, 0.194249f, -0.277476f, -0.035784f, -0.316104f, -0.189605f, -0.610033f, -0.317498f, 0.323327f, -0.706995f, -0.285228f, 0.788967f, -0.268976f, 0.396434f, 0.309731f, 0.689964f, 0.488831f, 0.389963f, -0.215660f, -0.416856f, 0.081960f, -0.210557f, 0.166969f, -0.144705f, -0.402072f, 0.197698f, -0.326540f, 0.239869f, 0.289560f, -0.191399f, -0.215120f, -0.273986f, 0.184550f, 0.292536f, 0.187916f, -0.067481f, -0.175047f, -0.253284f, -0.159213f, 0.446263f, 0.041457f, 0.424866f, 0.068075f, 0.256142f, -0.006257f, -0.302387f, 0.048023f, -0.141829f, -0.220716f, -0.036660f, -0.190873f, 0.295517f, -0.301005f, -0.102444f, 0.439261f, 0.298683f, -0.424970f, 0.019030f, 0.277467f, 0.288417f, 0.258273f, 0.425143f, -0.208079f, -0.371561f, 0.381227f, 0.116605f, -0.434270f, -0.198051f, -0.061458f, -0.421342f, -0.488579f, -0.239732f, -0.515140f, 0.217001f, 0.632345f, -0.036503f, -0.151154f, -0.027087f, -0.189468f, 0.145990f, -0.287587f, -0.287072f, -0.147729f, 0.492357f, 0.606915f, 0.184623f, 0.458004f, -0.170257f, -0.473668f, 0.508948f, 0.583939f, 0.345572f, -0.062155f, 0.421402f, -0.058809f, 0.623562f, 0.530559f, 0.183612f, 0.054359f, 0.516112f, 0.583876f, -0.103602f, -0.231129f, -0.148283f, 0.240660f, -0.432954f, -0.188117f, -0.076062f, -0.469422f, -0.151588f, -0.514839f, -0.182915f, -0.267357f, -0.105765f, 0.267823f, -0.642592f, -0.053120f, -0.992756f, 0.578252f, 0.471238f, -0.417830f, 0.336116f, 0.553766f, -0.454102f, 1.048781f, -0.926071f, 1.037797f, -0.692546f, -0.945436f, -0.839702f, -0.053037f, 0.727822f, -1.220898f, -0.429998f, 0.650894f, 0.600589f, 0.197361f, -0.147592f, -0.303960f, -0.167717f, -0.000410f, -0.952072f, 0.075019f, 1.008074f, -0.150544f, 0.470164f, 0.711664f, -1.210593f, 0.243747f, 0.880763f, -0.306189f, -0.619500f, 0.044782f, 0.840077f, -1.029498f, -0.795414f, -0.116837f, 0.774856f, -0.619814f, -0.623836f, 0.154070f, 0.231746f, 0.797842f, -0.037227f, 0.207018f, -1.178953f, 0.455001f, -0.186243f, -0.027761f, 0.327633f, 0.582211f, -0.502870f, 0.107663f, 0.421340f, 0.119863f, -0.482412f, 1.469103f, 0.343766f, 0.572718f, 0.158447f, -0.893829f, 0.575276f, -0.775432f, -0.115539f, -0.333959f, 0.949881f, 0.003308f, 0.671348f, 0.000980f, -0.121896f, 1.137781f, -0.531619f, -0.005082f, -0.829379f, -0.726872f, -0.399616f, -0.295700f, 0.722791f, 0.927246f, -0.877613f, -0.165822f, 0.152969f, -0.668122f, -0.557050f, 0.686742f, 0.496727f, 0.700100f, -0.565115f, -0.142915f, -0.262068f, 0.505385f, 0.150286f, 1.104936f, -0.398973f, -0.546515f, 1.000235f, 0.246466f, 0.833374f, -1.159503f, -0.939759f, -0.201733f, -0.203759f, 0.578538f, 0.952264f, -0.554826f, 0.154055f, -0.846276f, 0.829979f, 1.565120f, -0.173649f, -0.200596f, -0.680067f, -0.391245f, -1.152288f, -0.944520f, -0.932206f, -0.445457f, -0.121808f, 0.403148f, 0.658490f, 0.043410f, 0.279697f, -0.753063f, 0.042051f, 0.791844f, 0.487811f, 0.410775f, -0.127974f, -0.611402f, -0.720820f, 0.330068f, 0.756923f, -0.298305f, 0.065982f, 0.878019f, 0.102502f, -0.579388f, 0.564306f, 0.878149f, 0.261192f, 1.158959f, -0.303476f, 0.106745f, -0.766844f, 0.909847f, 0.610547f, 0.233694f, 0.417537f, -0.583104f, -0.578851f, 0.652062f, 0.708947f, -0.998978f, -0.067466f, 0.021763f, -0.546545f, -0.822435f, -0.477969f, -0.912226f, -0.837615f, 0.752528f, -0.769287f, -0.144276f, 0.186062f, 0.620141f, -0.151338f, -0.103615f, 0.694909f, -0.820325f, -0.629298f, -0.198186f, -0.336116f, 0.454315f, 0.791442f, 0.784895f, 0.786969f, 0.809335f, 0.259429f, -0.656798f, 0.219052f, 0.408452f, -0.453149f, 0.368517f, -0.928944f, 0.099919f, 0.416738f, 0.132945f, -0.636148f, -0.665601f, -0.104844f, 0.091364f, -0.167194f, -0.560337f, -0.302486f, 0.408100f, -0.458442f, 0.622687f, -0.533814f, 0.522711f, 0.728934f, 0.255653f, 0.508686f, 0.337310f, 0.103769f, 0.641536f, -0.639104f, 0.566087f, -0.297620f, -0.558989f, -0.459409f, -0.121200f, 0.492459f, -0.543245f, -0.329382f, 0.836198f, 0.860985f, -0.267714f, -0.021452f, 0.105820f, -0.714229f, 0.198611f, -0.496778f, -0.485728f, 0.723185f, -0.526338f, 0.266190f, 0.423816f, -0.414644f, 0.298491f, 0.508514f, -0.509183f, -0.269389f, 0.288574f, 0.083830f, -0.458448f, -0.484724f, 0.335413f, 0.610594f, -1.015037f, 0.209601f, 0.362441f, 0.447903f, 0.879596f, -0.638347f, -0.436857f, -0.506760f, 0.205847f, -0.260166f, 0.076137f, 0.330669f, 0.594703f, -0.468666f, -0.201056f, 0.584565f, -0.105548f, -0.042694f, 0.845343f, 0.224869f, 0.704439f, 0.626548f, -0.132966f, 0.467451f, -0.147671f, -0.421092f, -0.514162f, 0.422357f, -0.631872f, 0.457743f, 0.199299f, 0.190826f, 0.175436f, -0.597726f, -0.252672f, -0.436181f, -0.790125f, -0.633103f, -0.264393f, 0.715327f, 0.251912f, -0.187186f, 0.104917f, 0.321051f, -0.433382f, -0.193319f, 0.394679f, 0.417922f, 0.352650f, -0.241961f, -0.403983f, -0.230753f, 0.247096f, 0.214413f, 0.027542f, 0.254069f, 0.403702f, 0.497892f, 0.322176f, 0.449131f, -0.201685f, 0.523605f, -0.579203f, -0.467406f, 0.160716f, 0.616666f, 0.358409f, -0.152673f, 0.211805f, 0.032027f, 0.508203f, -0.308247f, 0.448902f, -0.770196f, 0.035833f, -0.746996f, 0.119379f, 0.448632f, -0.291545f, -0.474536f, -0.023469f, 0.555440f, 0.542330f, 0.198391f, -0.575783f, -0.123616f, 0.007035f, -0.401518f, -0.407403f, -0.262726f, -0.850176f, -0.841500f, -0.328746f, 0.829804f, -0.627660f, 0.248277f, 0.541536f, -0.236332f, -0.196897f, 0.499350f, 0.371327f, -0.265751f, 0.470969f, 0.325916f, 0.606418f, -0.343540f, -0.184006f, 0.669684f, -0.527928f, -0.566619f, 0.219824f, -0.227648f, -0.091459f, 0.157915f, -0.467242f, 0.142020f, -0.272645f, 0.380669f, -0.445116f, 0.461937f, -0.652403f, 0.552425f, 0.693654f, -0.455008f, 0.093599f, -0.079117f, 0.198149f, 0.535943f, 0.221445f, -0.419664f, -0.716236f, 0.230104f, -0.647346f, 0.358223f, -0.223822f, 0.950822f, 0.463451f, 0.705068f, 0.491807f, 0.348166f, -0.284749f, -0.206547f, 0.145337f, 0.419500f, 0.297739f, -0.605183f, 0.761549f, -0.136447f, 0.212974f, 0.023176f, -0.564263f, -0.500688f, -0.134683f, 0.556080f, 0.292946f, 0.064444f, -0.107682f, -0.047410f, -0.366135f, -0.639831f, 0.175200f, -0.305239f, 0.600508f, 0.453139f, -0.458715f, -0.647003f, -0.473708f, 0.173319f, 0.514584f, 0.361092f, -0.429679f, 0.263644f, -0.522022f, 0.754911f, -0.102977f, 0.410037f, -0.238562f, -0.222939f, 0.466257f, 0.530310f, 0.339613f, -0.627532f, -0.593501f, -0.296541f, -0.258503f, 0.707788f, 0.176234f, 0.444139f, 0.559916f, -0.129823f, 0.735284f, 0.817053f, 0.344534f, -0.633285f, 0.584350f, -0.383636f, -0.644002f, -0.399525f, 0.388228f, -0.639052f, -0.256024f, 0.476508f, -0.553913f, -0.388704f, -0.045453f, 0.116812f, 0.311455f, -0.254282f, -0.207597f, 0.682754f, -0.258428f, 0.072599f, -0.047048f, 0.358229f, 0.366883f, -0.474898f, -0.146571f, -0.464000f, 0.209397f, -0.116957f, 0.647032f, -0.285860f, -0.465060f, 0.375715f, -0.010982f, 0.439566f, 0.049875f, -0.411504f, -0.438769f, 0.302980f, 0.648907f, -0.247929f, 0.206136f, -0.545952f, 0.254868f, -0.669512f, 0.095430f, -0.513590f, -0.084543f, -0.556157f, 0.236294f, -0.403961f, -0.241104f, 0.168617f, 0.360479f, 0.265299f, -0.482011f, 0.202283f, 0.030926f, 0.114377f, 0.519245f, 0.278992f, -0.104510f, -0.267794f, 0.314849f, 0.487613f, -0.687238f, 0.629039f, 0.744214f, 0.542203f, 0.049065f, -0.670916f, -0.834152f, -0.395450f, 0.737176f, -1.070813f, -0.303317f, -0.326692f, -0.808691f, -0.009743f, 0.213320f, -0.418142f, 0.299417f, -0.663485f, -0.319335f, -0.370050f, -0.077803f, -0.506410f, -0.772995f, -0.316793f, -0.636637f, 0.636714f, 0.595716f, 0.637199f, 0.711980f, 0.219571f, 0.749364f, -0.077105f, 0.420356f, -0.819464f, -0.627091f, 0.775134f, -0.059274f, 0.409639f, -0.923943f, 0.544024f, 0.336171f, -0.167792f, -0.715897f, 0.215730f, 0.449965f, -0.612214f, 0.372749f, -0.235788f, 0.966770f, -0.589884f, 0.588515f, 0.698778f, 0.731330f, -0.143943f, 0.121193f, -0.505596f, -0.780048f, 0.473693f, -0.499768f, 0.010487f, 0.634158f, -0.485170f, -0.129998f, 0.341230f, -0.664663f, -0.524898f, -1.065772f, -0.451865f, 0.838051f, 1.098555f, 0.190838f, 0.563738f, 0.007201f, 0.526021f, -0.691075f, -0.354857f, -0.525327f, 0.883081f, 0.489064f, -0.070082f, 0.319841f, 0.788190f, 0.707395f, 0.494617f, -0.766326f, -0.544583f, 0.167561f, -0.499248f, -0.299031f, -0.485237f, 0.511397f, 0.245998f, 0.783055f, -0.521835f, -0.144931f, -0.779427f, 0.394830f, 0.285725f, 0.492885f, 0.165242f, -0.307210f, 0.385940f, 0.241459f, 0.004363f, 0.194883f, 0.303751f, 0.613895f, 0.298688f, 0.730851f, 0.149860f, 0.252656f, -0.390608f, 0.059434f, 0.468880f, 0.222227f, 0.710505f, 0.302133f, -0.698488f, 0.076175f, 0.001415f, -0.473984f, 0.016215f, -0.698055f, -0.468442f, 0.230222f, 0.608104f, 0.633276f, -0.345087f, -0.361173f, -0.329077f, 0.023985f, 0.120212f, -0.272324f, 0.055307f, -0.172352f, -0.292394f, -0.259481f, 0.465784f, 0.056520f, 0.357820f, 0.147110f, -0.096306f, 0.033204f, -0.088955f, 0.413629f, -0.282443f, -0.083194f, -0.186642f, -0.037455f, 0.136066f, -0.313346f, -0.052499f, -0.118156f, -0.156142f, -0.652994f, -0.097125f, 0.037087f, -0.230974f, -0.596920f, 0.405431f, 0.101110f, 0.187549f, 0.181734f, 0.396855f, -0.460067f, 0.312004f, -0.287548f, 0.333608f, 0.174025f, 0.580589f, 0.291432f, 0.372179f, 0.524188f, -0.184828f, -0.047641f, 0.458336f, 0.201143f, -0.318207f, 0.264260f, 0.574785f, 0.514760f, 0.183010f, -0.019340f, 0.415538f, -0.578974f, -0.049536f, -0.354910f, -0.223576f, -0.110141f, -0.342896f, 0.005166f, 0.124364f, 0.156210f, -0.305760f, -0.162377f, 0.319268f, 0.210041f, 0.493133f, 0.488338f, 0.010806f, -0.829746f, -0.390536f, 0.725540f, 0.159646f, 0.433367f, 0.272031f, -0.503410f, -0.294653f, 0.496672f, 0.822865f, 1.120807f, -0.624476f, 0.631900f, -0.320023f, -0.193779f, -0.487631f, 0.722233f, -0.421052f, 0.130018f, 0.167524f, 0.941756f, -0.022244f, -0.634878f, -0.257715f, -1.052089f, 0.536927f, 0.588827f, 0.010262f, 1.152014f, -0.644353f, 0.469512f, -0.501313f, -0.396856f, 0.017268f, -0.210297f, -0.514389f, -0.427858f, 0.695376f, -0.421812f, 0.916179f, 0.237868f, 0.874775f, -0.471495f, 0.506367f, 0.834823f, -1.019072f, -0.519956f, -0.115711f, -1.023124f, 0.742111f, -0.993672f, -0.275738f, 0.453354f, -0.613713f, 0.369353f, 0.028666f, -0.108189f, -0.788964f, -0.571556f, 0.385710f, 0.433842f, 0.449000f, 0.460518f, 0.513644f, -0.642737f, 0.280308f, 0.083122f, -0.355569f, -0.560413f, 0.073092f, -0.298205f, 0.949837f, 0.447404f, -0.611453f, -0.836532f, 0.189589f, -0.429667f, 0.833084f, 0.030329f, -0.380284f, 0.428409f, 0.292957f, -0.243453f, -0.433448f, 0.661937f, 0.633385f, 0.868793f, -0.475985f, -0.588981f, 0.174402f, 0.638851f, -0.139316f, 0.135620f, -0.178069f, -0.337311f, -0.734138f, 0.785084f, 0.024906f, -0.079401f, -0.239215f, 0.367878f, 0.673236f, 0.664276f, -0.264946f, 0.362869f, 0.640114f, -0.029656f, 0.365407f, -0.185488f, 0.187222f, -0.073099f, -0.054173f, 0.669867f, 0.467329f, 0.271473f, -0.450514f, -0.495410f, 0.116762f, 0.104097f, 0.321217f, 0.532096f, 0.628051f, 0.646815f, 0.608088f, 0.352156f, 0.081026f, -0.351942f, 0.095947f, -0.266680f, 0.582589f, -0.375573f, -0.566657f, 0.201488f, -0.153344f, -0.081355f, -0.094258f, 0.594583f, -0.585655f, -0.415572f, -0.737393f, -0.039317f, -0.457771f, 0.542663f, 0.138610f, -0.471888f, 0.395398f, 0.203819f, 0.159089f, -0.039747f, -0.630487f, -0.419894f, 0.344229f, -0.403029f, -0.249814f, 0.007095f, 0.295333f, 0.211001f, -0.265108f, -0.548588f, 0.595193f, -0.561529f, 0.262104f, 0.103294f, -0.654228f, 0.086398f, -0.140521f, 0.457653f, -0.054722f, 0.219506f, -0.451043f, -0.243210f, -0.153128f, 0.456933f, -0.529248f, -0.076713f, -0.051294f, -0.521326f, 0.055770f, 0.332669f, 0.337368f, 0.032687f, -0.028352f, -0.137921f, 0.077509f, 0.352898f, -0.099629f, -0.181007f, 0.561243f, -0.154328f, 0.157453f, -0.183095f, 0.274745f, -0.396430f, 0.215567f, -0.129779f, -0.484836f, -0.470261f, 0.322263f, 0.852248f, 0.438224f, -0.313478f, -0.932982f, -0.488796f, -0.177927f, 0.152128f, -0.460869f, 0.460672f, -0.557658f, -0.679356f, 0.456201f, 0.949760f, 0.235184f, 0.151094f, -0.710234f, -0.446105f, -0.674794f, 0.643381f, 0.700133f, 0.479868f, -0.214178f, -0.289166f, -0.584876f, -0.269017f, -0.572003f, 0.020338f, -0.737915f, -0.232992f, -0.732115f, -0.903090f, -0.052373f, 0.676281f, 0.671517f, -0.540452f, -0.658214f, 0.818028f, 0.266981f, -0.508444f, -0.188249f, 0.242099f, -0.097865f, -0.069946f, -0.118281f, -0.943777f, 0.056436f, -0.296267f, 0.453370f, 0.528160f, -0.598063f, -0.545133f, 0.402101f, 0.456022f, -0.518469f, -0.095177f, 0.708904f, -0.772206f, 0.356121f, 0.046152f, 0.711801f, 0.879520f, -0.466837f, 0.484952f, 0.362641f, 0.147083f, 0.674225f, 0.640377f, 0.336986f, 0.991882f, 0.784731f, -0.817076f, -0.402341f, 0.369566f, -0.729718f, -0.864970f, 0.784433f, 0.765022f, 0.312310f, 0.684734f, -0.691814f, -0.583339f, -0.863894f, -0.717476f, -1.109207f, 0.542114f, -0.175415f, 0.608829f, 0.495804f, 0.221929f, -0.392797f, 0.647251f, 0.064902f, 0.637616f, 0.066970f, 0.927206f, 0.466183f, -0.369862f, 0.751634f, 0.424995f, -0.720768f, 0.301321f, -0.407172f, -0.180017f, 0.186059f, -0.708634f, -0.086246f, 0.213656f, 0.177531f, 0.558489f, 0.244601f, 0.385032f, -0.373294f, -0.222402f, -0.177152f, -0.807598f, -0.754077f, -0.304519f, -0.046290f, 0.066161f, -0.083386f, 0.417225f, 0.589824f, -0.504845f, -0.158021f, 0.196898f, -0.354877f, -0.562773f, 0.416160f, 0.540093f, 0.381762f, 0.653111f, -0.009351f, -0.105912f, 0.757534f, -0.017795f, -0.398717f, 0.337235f, 0.301476f, -0.595416f, 0.091570f, -0.125003f, 0.568133f, -0.310494f, 0.185748f, -0.007323f, 0.201315f, -0.459429f, -0.049713f, -0.094819f, -0.369802f, -0.190648f, 0.572551f, -0.473961f, -0.148884f, 0.292425f, -0.377535f, -0.388675f, -0.054176f, 0.342041f, -0.310374f, 0.064532f, 0.680417f, -0.109534f, -0.237192f, -0.328626f, 0.195210f, 0.242179f, -0.362068f, -0.258630f, 0.317692f, 0.573309f, -0.270106f, -0.249261f, 0.308583f, -0.522275f, 0.594280f, 0.096175f, -0.219094f, 0.092450f, 0.773026f, 0.588914f, -0.676954f, -0.181035f, -0.229346f, -0.614840f, 0.000417f, -0.732613f, 0.050639f, -0.548694f, -0.315183f, -0.016013f, 0.056893f, -0.405036f, 0.403272f, -0.315792f, -0.472956f, -0.053858f, 0.483000f, 0.649233f, 0.233781f, -0.732899f, 0.399217f, 0.321613f, -0.651599f, -0.080547f, -0.092494f, 0.186987f, 0.023727f, 0.690369f, 0.550497f, -0.240130f, -0.419142f, 0.437553f, -0.337790f, -0.174571f, -0.529937f, -0.578890f, 0.103371f, 0.295254f, 0.827950f, 0.401751f, 0.807174f, 0.610945f, 0.769948f, -0.190757f, 0.431519f, -0.238534f, -0.612804f, -0.426382f, 0.158334f, 0.613519f, 0.078124f, -0.331002f, 0.148099f, -0.366837f, 0.319606f, 0.745953f, 0.568819f, -0.296808f, -0.348627f, 0.103247f, -0.206859f, 0.017636f, 0.289826f, 0.142926f, -0.091799f, -0.592742f, 0.212953f, -0.891312f, 0.221042f, 0.303162f, 0.383678f, -0.531255f, 0.101477f, 0.417693f, -0.068949f, 0.781521f, 0.131899f, -0.400234f, -0.356074f, 0.510254f, -0.192442f, 0.562460f, -0.695027f, 0.493862f, 0.348244f, 0.776027f, 0.651123f, -0.654543f, 0.233292f, 0.832520f, -0.052014f, -0.636779f, 0.388637f, -0.587866f, -0.032702f, 0.681292f, 0.532081f, -0.336543f, -0.090739f, -0.285935f, -0.795276f, -0.731779f, -0.579747f, -0.365862f, -0.170170f, -0.209394f, 0.285218f, 0.756094f, -0.160382f, -0.180200f, 0.760584f, 0.014618f, 0.094799f, 0.480259f, 0.387032f, 0.169603f, -0.119748f, -0.216995f, 0.289881f, -0.722546f, 0.570342f, 0.892653f, -0.491045f, -0.617379f, -0.347386f, 0.137225f, 0.301323f, 0.422194f, 0.094516f, -0.463644f, 0.287354f, 0.433522f, 0.176647f, -0.162734f, 0.178239f, 0.294803f, 0.475263f, -0.753626f, 0.653485f, 0.108940f, 0.492735f, 0.434404f, 0.909434f, 0.617972f, -0.829206f, 0.849237f, -0.782890f, -0.318835f, -0.496444f, -1.092544f, -0.347028f, -0.943456f, -0.306590f, 0.216702f, 0.419556f, 0.016973f, -0.650248f, 0.119856f, -0.067934f, 0.580733f, -0.571306f, 0.348820f, 0.135890f, 0.474524f, -0.084428f, -0.748407f, 0.620684f, 0.492847f, 0.787514f, -0.131249f, 0.167877f, -0.145769f, 0.195278f, -0.521653f, 0.079160f, 0.365391f, 0.135179f, 0.229816f, 0.243304f, 0.702921f, -0.296627f, -0.599150f, -0.072216f, -0.042209f, -0.294771f, 0.896217f, 0.759764f, 0.735260f, 0.587644f, 0.551832f, -0.920263f, 0.134399f, -0.469140f, -0.721317f, -0.390830f, 0.767808f, 0.564448f, 0.508139f, -0.537616f, -0.387665f, 0.264164f, -0.747958f, -1.066067f, -0.071342f, 0.515829f, 0.303981f, 0.508265f, 0.459165f, 0.756745f, 0.285841f, -0.153090f, 0.280133f, -0.498149f, -0.763412f, 0.521604f, -0.487688f, 0.497750f, -0.417713f, -0.609163f, -0.181988f, -0.004893f, 0.127360f, 0.357303f, -0.258781f, 0.363103f, -0.763216f, 0.264710f, -0.127340f, -0.111186f, -0.192668f, 0.320289f, 0.083062f, 0.019661f, 0.131051f, -0.257653f, 0.548147f, -0.190328f, 0.123267f, -0.264361f, 0.267591f, 0.222936f, 0.147381f, -0.013203f, 0.621618f, 0.689744f, 0.268374f, -0.056286f, 0.189428f, 0.333844f, 0.044244f, 0.540985f, 0.162029f, -0.184044f, -0.387518f, 0.126261f, -0.388956f, -0.406970f, -0.450648f, -0.449088f, 0.275058f, -0.347325f, -0.146643f, -0.360809f, 0.597696f, 0.132792f, 0.068113f, 0.326833f, 0.123123f, 0.370931f, 0.234376f, -0.615351f, -0.297177f, 0.321621f, -0.527743f, -0.050306f, 0.325434f, -0.071129f, 0.211532f, 0.094370f, -0.038095f, -0.127979f, -0.409752f, 0.505231f, -0.133959f, -0.368894f, 0.138652f, 0.006877f, 0.683650f, -0.154184f, 0.422738f, -0.265665f, -0.046867f, -0.123605f, -0.286744f, -0.309082f, 0.411697f, 0.172914f, -0.052479f, 0.149146f, 0.118789f, 0.239236f, 0.334264f, 0.146436f, 0.165965f, 0.046823f, -0.236989f, -0.382626f, -0.209835f, 0.541807f, 0.070574f, -0.009218f, -0.015972f, -0.143998f, -0.082486f, 0.267224f, 0.282000f, 0.013488f, -0.571327f, 0.500817f, 0.808279f, 0.336565f, -0.113667f, 0.762606f, -0.781762f, 0.708389f, 0.424394f, 0.027447f, -0.314897f, 0.284035f, 0.221719f, 0.435057f, 0.488581f, -0.523232f, -0.007498f, 0.097340f, -0.170994f, -0.713095f, 0.269489f, 0.051763f, 0.375869f, -0.289758f, -0.970142f, 0.770553f, 0.440611f, -0.341881f, -0.629822f, 0.610593f, -0.578710f, 0.250869f, 0.493785f, 0.556748f, -0.075173f, 0.777764f, 0.278703f, -0.800997f, -0.358606f, -0.430790f, -0.860761f, 0.450781f, -0.556525f, 0.652481f, 0.093645f, -0.275476f, -0.671623f, 0.772197f, 0.267693f, -0.395879f, 0.657171f, 0.006544f, 0.606980f, 0.533317f, -0.370934f, -0.009156f, 0.404653f, -0.564859f, -1.054920f, -0.329151f, 0.649521f, -0.196414f, -0.832816f, 0.709641f, 0.678017f, 0.083821f, -0.012933f, 0.712433f, 0.190320f, -0.660885f, 0.128152f, -0.486387f, -0.357557f, -0.602773f, -0.497892f, 0.289319f, -0.351230f, 0.604062f, -0.378774f, 0.282702f, 0.117103f, 0.351004f, 0.167439f, -0.554624f, -0.710576f, -0.293487f, -0.324743f, 0.393301f, -0.601576f, -0.185201f, -0.652162f, -0.547824f, -0.232872f, -0.516762f, 0.864541f, 0.529892f, 0.816403f, -0.542118f, -0.702042f, 0.079073f, 0.500950f, 0.250247f, -0.925537f, 0.499522f, 0.862038f, -0.135740f, 0.333519f, -0.266673f, 0.630479f, 0.261500f, 0.290848f, 0.011621f, -0.375519f, -1.022997f, -0.121347f, 0.596609f, -0.259938f, -0.492578f, -0.287566f, 0.435592f, -0.696726f, 0.986446f, 0.656164f, 0.807593f, 0.483195f, 1.270763f, 0.437478f, -0.732805f, 0.171534f, -0.617965f, 0.090088f, 0.265981f, -0.892929f, -0.568257f, -1.041184f, -0.180818f, -0.326723f, 0.691537f, 0.310991f, 0.221540f, 0.078296f, -0.501144f, 0.135614f, -0.786095f, 0.363089f, 0.037571f, 0.114575f, -0.471429f, -0.946437f, 1.120586f, -0.685630f, 0.494850f, 1.045590f, -0.199605f, 0.258791f, 0.567005f, -0.573141f, 0.034998f, 0.684606f, 0.173665f, -0.510955f, 0.373929f, 1.117697f, -0.389480f, -0.070593f, -0.061238f, 0.247425f, -0.163521f, 1.032197f, 0.976487f, -0.034189f, 0.325906f, 1.107731f, -0.446647f, 0.167309f, -0.447052f, -0.767452f, -0.389308f, 0.990986f, 0.638100f, -0.486859f, 0.268701f, -0.323387f, -0.264664f, -1.053056f, -0.876981f, -0.034173f, 0.767913f, -0.316019f, 0.208972f, 0.363622f, 0.524296f, 0.134856f, -0.142116f, 0.158087f, -0.455516f, 0.156654f, 0.649049f, 0.137500f, -0.224002f, -0.282747f, -0.213198f };
static const float MLP_layer_2_biases[26] = { 0.073285f, -0.079348f, 0.116606f, 0.071053f, 0.054706f, -0.000361f, 0.107613f, -0.021963f, -0.005690f, -0.068047f, -0.015525f, 0.067521f, 0.146976f, 0.066230f, 0.096008f, -0.018377f, 0.000519f, 0.042964f, 0.045445f, -0.060558f, 0.129843f, 0.030701f, 0.071614f, -0.110606f, 0.032657f, 0.118768f };
static const float MLP_layer_2_weights[2600] = { 0.439628f, -0.651692f, -0.562229f, 0.622355f, 0.298647f, 0.168125f, 0.234416f, 0.250459f, 0.402966f, 0.344342f, -0.264195f, 0.413788f, 0.467061f, -0.379515f, 0.341799f, -0.510355f, 0.195430f, -0.617058f, 0.114884f, -0.779686f, -0.698233f, -0.497315f, 0.496213f, -0.749853f, 0.318814f, -0.277409f, -0.371605f, 0.347112f, -0.609931f, 0.268604f, -0.835230f, -0.580152f, 0.344046f, 0.471306f, -0.265855f, 0.436671f, 0.145145f, 0.302564f, -0.538418f, -0.605525f, -0.388603f, -0.050134f, 0.607534f, 0.045624f, -0.489774f, -0.433218f, 0.159390f, 0.293024f, 0.303963f, 0.140045f, -0.540648f, 0.087437f, 0.486760f, -0.428630f, 0.395379f, 0.095334f, -0.648311f, -0.434524f, 0.279689f, -0.216123f, -0.555256f, -0.401926f, 0.232343f, 0.174874f, -0.434165f, 0.520791f, -0.634026f, 0.157651f, 0.338208f, -0.265399f, -0.739152f, 0.353927f, -0.235306f, 0.552845f, -0.124454f, 0.323045f, -0.584975f, 0.438660f, 0.217112f, -0.327684f, -0.465973f, -0.647666f, 0.224387f, 0.159592f, 0.336416f, 0.306130f, -0.409450f, 0.412439f, 0.491897f, -0.552743f, -0.694135f, -0.839048f, 0.510319f, -0.306236f, 0.414644f, 0.407823f, 0.211507f, 0.326307f, -0.695025f, -0.685032f, -0.564702f, 0.579713f, 0.454881f, 0.516037f, -0.769218f, 0.425256f, -0.783987f, -0.565998f, -0.274527f, 0.524120f, 0.411943f, 0.341132f, -0.865156f, -0.472257f, 0.358747f, -0.432420f, -0.265370f, -0.210177f, 0.412565f, 0.668243f, -0.998175f, 0.312006f, 0.270897f, -0.454578f, 0.638204f, -0.704183f, 0.349350f, 0.398904f, -0.259071f, 0.402525f, -0.572538f, 0.152240f, -0.205254f, 0.411022f, 0.666272f, 0.371802f, -0.561217f, 0.474895f, 0.481640f, 0.323084f, -0.103966f, 0.135381f, -1.152713f, -0.786218f, -0.490032f, -0.392649f, -0.591519f, 0.343112f, -0.608887f, 0.446184f, 0.435275f, 0.197334f, -0.559457f, 0.425853f, 0.571818f, -0.390689f, 0.182541f, 0.298632f, 0.229136f, -0.638167f, -0.033110f, 0.041760f, 0.351918f, -0.621870f, 0.167766f, -0.552623f, -0.408616f, 0.190802f, 0.347426f, 0.024392f, 0.006002f, 0.241590f, 0.320461f, -0.511551f, 0.196359f, 0.147402f, -0.603608f, -0.661413f, 0.397504f, 0.155578f, 0.259425f, -0.153288f, 0.243988f, -0.335867f, 0.250166f, -0.528509f, -0.043211f, -0.465574f, 0.214766f, -0.019509f, 0.169687f, -0.427471f, 0.365125f, 0.394333f, 0.268322f, 0.265599f, 0.088493f, 0.241267f, 0.120584f, -0.257370f, 0.066177f, 0.096299f, -0.310251f, -0.519005f, -0.448554f, 0.497528f, 0.335092f, -0.595881f, -0.363462f, -0.336521f, 0.330930f, 0.309099f, 0.167360f, -0.423153f, -0.514983f, -0.475029f, -0.641754f, -0.164937f, 0.456560f, 0.126602f, 0.311918f, 0.415194f, 0.315652f, -0.453175f, 0.496890f, -0.590097f, -0.157764f, 0.113717f, -0.595151f, 0.429098f, 0.402886f, -0.242315f, -0.583029f, 0.219706f, 0.137519f, -0.374299f, 0.223025f, -0.633076f, 0.210462f, -0.552243f, 0.303915f, 0.283586f, -0.483703f, -0.495297f, 0.258552f, -0.145398f, 0.405825f, 0.254526f, 0.198177f, 0.208625f, 0.131968f, -0.586035f, 0.122165f, 0.306945f, -0.642145f, -0.380011f, -0.036629f, -0.494192f, -0.241466f, 0.247142f, 0.122273f, -0.425757f, -0.234585f, -0.503415f, 0.113652f, 0.300229f, 0.263650f, 0.263815f, -0.461249f, 0.090336f, 0.051505f, -0.367119f, 0.402257f, 0.344622f, 0.313871f, -0.129192f, -0.037067f, 0.378896f, 0.251743f, 0.405364f, -0.428486f, -0.575342f, -0.241983f, -0.447021f, 0.292531f, -0.541066f, 0.709589f, -0.376263f, -0.311198f, 0.455267f, 0.505938f, -0.505763f, -0.604575f, 0.448918f, -0.691673f, 0.419992f, 0.525802f, 0.146357f, 0.166701f, -0.706216f, -0.320834f, -0.573715f, -0.516291f, -0.372838f, -0.738162f, 0.390329f, 0.192562f, -0.167575f, -0.230435f, 0.454650f, 0.370151f, -0.395864f, 0.237801f, -0.467407f, -0.708410f, 0.221969f, -0.307888f, -0.593583f, 0.272879f, 0.283633f, -0.726997f, -0.195621f, 0.346550f, 0.215047f, 0.473104f, 0.260108f, -0.986179f, 0.348586f, 0.257192f, -0.165226f, 0.320643f, 0.072966f, 0.315400f, 0.037022f, -0.036148f, -0.115584f, 0.332328f, -0.719946f, -0.290601f, 0.320828f, 0.534163f, 0.361292f, -0.109858f, 0.372869f, -0.417666f, -0.362330f, 0.587530f, -0.412322f, -0.244443f, -0.191312f, -1.018166f, -0.595991f, 0.138507f, -0.341869f, -0.565554f, 0.336349f, -0.307018f, -0.381214f, 0.287498f, 0.318489f, 0.201274f, 0.293752f, -0.709235f, 0.355914f, 0.351079f, -0.347567f, -0.649551f, -0.599667f, -0.461415f, -0.458302f, 0.228784f, 0.312123f, 0.178311f, -0.596440f, 0.076353f, 0.161498f, 0.453789f, 0.188332f, 0.335449f, 0.177634f, -0.034047f, 0.236260f, 0.263384f, -0.455356f, 0.517745f, -0.919149f, 0.351475f, -0.188580f, 0.041117f, -0.024234f, 0.248424f, -0.634622f, -0.755836f, -0.543721f, 0.074400f, 0.450581f, -0.650193f, 0.552834f, -0.080787f, -0.253884f, 0.487821f, -0.561271f, -0.146652f, -0.376556f, 0.512373f, 0.398129f, 0.545810f, -0.096431f, 0.227320f, -0.573809f, -0.769340f, -0.640053f, 0.390741f, 0.343955f, 0.083545f, 0.648505f, 0.072019f, -0.537730f, -0.461052f, 0.352681f, 0.154387f, 0.164137f, 0.091654f, 0.520788f, -0.075322f, 0.292186f, 0.417554f, 0.080893f, -1.038783f, -0.459266f, 0.084367f, -0.410887f, -0.364042f, 0.206833f, -0.667353f, -0.339661f, 0.291549f, 0.036143f, -0.460032f, 0.462013f, -0.056680f, -0.029987f, 0.041958f, -0.518528f, 0.092521f, 0.225948f, 0.438853f, -0.042277f, -0.646515f, -0.485058f, -0.517448f, -0.581085f, 0.555840f, -0.847967f, 0.292980f, 0.358008f, 0.165010f, -0.178898f, 0.563320f, 0.167854f, -0.335993f, -0.390644f, -0.362367f, 0.308528f, 0.370171f, 0.162215f, -0.677108f, 0.288354f, 0.220952f, 0.415150f, -0.594405f, 0.357290f, 0.250256f, -0.300961f, 0.526595f, 0.312038f, -0.577152f, 0.403286f, 0.050583f, -0.151832f, -0.224042f, -0.693177f, -0.753119f, -0.458428f, -0.612868f, 0.347192f, 0.769663f, -0.658997f, 0.496309f, -0.050652f, -0.010659f, -0.121038f, -0.457140f, -0.685070f, -0.534564f, 0.476238f, 0.285846f, -0.442386f, -0.802304f, -0.632991f, -0.132025f, -0.230326f, 0.025853f, -0.375547f, -0.248201f, 0.101555f, -0.393301f, 0.694727f, -0.388683f, 0.402832f, 0.632206f, -0.594148f, 0.489240f, -0.286477f, 0.478928f, 0.426443f, 0.374755f, -0.486111f, -0.550718f, 0.445267f, -0.551342f, -0.024427f, 0.393684f, 0.297996f, 0.709154f, -0.644545f, 0.604460f, -0.559342f, 0.194065f, 0.211676f, 0.041362f, 0.340358f, -0.695102f, -0.468431f, -0.691399f, -0.743067f, 0.293170f, 0.119657f, -0.563443f, 0.448826f, 0.192709f, 0.295309f, 0.003873f, 0.114177f, -0.398536f, -0.077966f, -0.789630f, 0.094497f, 0.289644f, 0.297377f, 0.398833f, -0.664628f, 0.347486f, -0.569702f, 0.564320f, 0.382395f, -0.018192f, 0.121622f, 0.083801f, 0.445954f, -0.969646f, -0.505843f, 0.507243f, -0.283036f, -0.420441f, 0.316300f, -0.150567f, 0.126695f, 0.083048f, 0.265880f, -0.675455f, 0.385307f, -0.496587f, 0.469987f, 0.443019f, -0.013016f, -0.349059f, -0.658741f, 0.112217f, -0.438346f, -0.511132f, -0.473412f, 0.278515f, 0.133324f, 0.404296f, 0.409691f, -0.924284f, 0.416384f, -0.497464f, -0.316715f, -0.625224f, 0.482842f, 0.215723f, 0.109607f, -0.338361f, 0.363704f, 0.162879f, 0.367100f, 0.517912f, -0.370573f, 0.043650f, -0.353092f, -0.806083f, -0.409733f, 0.119268f, 0.236976f, -0.461521f, -0.274019f, 0.375353f, 0.550595f, -0.896501f, 0.755030f, -0.674446f, 0.339133f, 0.239638f, -0.293112f, 0.502546f, 0.291376f, -0.148860f, -0.260585f, -0.214837f, 0.431585f, -0.608335f, 0.053218f, 0.170101f, -0.498804f, 0.311987f, -0.726818f, -0.080523f, -0.606689f, 0.376538f, -0.345330f, 0.346261f, -0.402008f, -0.338166f, 0.047054f, -0.077725f, 0.044466f, 0.151461f, 0.263469f, 0.383683f, -0.533975f, -0.173245f, 0.333479f, 0.273390f, 0.262254f, -0.785231f, 0.449564f, 0.086423f, 0.357557f, -0.735517f, 0.299658f, 0.243312f, -0.471597f, 0.169616f, -0.519025f, -0.493752f, 0.334841f, 0.142450f, 0.310518f, -0.169081f, -0.213714f, 0.441638f, -0.077123f, 0.295733f, 0.186474f, -0.489019f, 0.069656f, 0.001388f, -0.314718f, 0.312898f, 0.106426f, -0.480232f, 0.044081f, -0.647099f, 0.365608f, 0.549961f, -0.364192f, -0.335303f, 0.137059f, 0.146135f, -0.370543f, -0.407808f, 0.373777f, -0.490670f, -0.422266f, 0.528387f, -0.235861f, -0.312799f, 0.529988f, 0.533715f, 0.294607f, 0.306497f, -0.537656f, -0.018800f, -0.446007f, -0.871254f, 0.604069f, -0.027113f, 0.101465f, -0.534841f, 0.482112f, 0.417435f, -0.410544f, -0.463708f, -0.394501f, 0.251012f, 0.447906f, 0.355719f, 0.112805f, -0.015633f, 0.321890f, -0.567775f, -0.560453f, 0.239296f, -0.415438f, 0.260137f, -0.584244f, -0.303235f, 0.290555f, 0.233406f, 0.164012f, -0.675894f, -0.442645f, -0.180175f, 0.461657f, 0.182441f, -0.201800f, 0.204838f, -0.514223f, 0.099843f, 0.171124f, 0.266921f, 0.321285f, 0.605704f, -0.638356f, 0.310592f, 0.276805f, -0.524329f, 0.384258f, 0.328103f, 0.429806f, 0.205001f, -0.525319f, -0.995035f, 0.501590f, -0.465124f, 0.196595f, -0.282908f, -0.734991f, -0.270571f, 0.118723f, 0.340893f, -0.893023f, -0.659586f, 0.284669f, -0.078629f, -0.231743f, 0.752829f, -0.086656f, 0.366773f, 0.409374f, -0.672475f, 0.365196f, 0.329466f, -0.708535f, -0.421639f, -0.633383f, -0.362069f, -0.497096f, -0.344193f, 0.190479f, -0.507390f, 0.501560f, 0.425420f, 0.356722f, -0.691773f, 0.280746f, -0.322837f, 0.161477f, -0.661510f, 0.364258f, 0.382828f, -0.436997f, 0.367369f, 0.345285f, 0.368596f, 0.296735f, -0.146347f, 0.359870f, -0.462857f, -0.740660f, 0.545009f, -0.957184f, -1.102418f, -0.514445f, -0.151594f, 0.362580f, 0.518646f, 0.498031f, 0.544194f, -0.271567f, -0.520607f, 0.171050f, -0.417606f, -0.119973f, 0.194682f, -0.352697f, -0.486754f, -0.601145f, -0.640793f, -0.656100f, 0.274739f, 0.352695f, 0.470756f, 0.425038f, 0.284947f, 0.340726f, 0.301876f, 0.122356f, 0.164558f, 0.119789f, 0.194722f, -0.663940f, 0.312338f, -0.128413f, -0.862673f, 0.833681f, -0.493052f, -0.737740f, 0.360552f, 0.374411f, -0.812595f, 0.409503f, -0.584700f, 0.296787f, 0.257794f, 0.100734f, -0.443754f, 0.456827f, 0.515211f, 0.327110f, -0.429841f, -0.223398f, 0.323946f, -0.831098f, 0.275642f, -0.351071f, -0.711800f, 0.271724f, 0.107262f, -0.641862f, 0.136091f, 0.295513f, -0.046226f, -0.410892f, 0.563532f, -0.592929f, 0.063037f, 0.384645f, 0.097655f, -0.485793f, 0.023335f, 0.130536f, -0.574290f, -0.380930f, 0.110439f, 0.337693f, -0.552939f, -0.098369f, 0.126686f, 0.289551f, 0.275052f, -0.143571f, 0.332863f, -0.657926f, 0.299238f, 0.095468f, -0.516541f, 0.220784f, -0.169889f, -0.773779f, 0.270700f, -0.651508f, 0.339664f, -0.377768f, -0.213928f, -0.247897f, -0.444284f, 0.457593f, -0.033504f, 0.479661f, 0.190292f, -0.452621f, -0.245243f, -0.510998f, 0.325367f, 0.268853f, 0.383184f, 0.352387f, 0.318809f, -0.531220f, 0.325277f, -0.422583f, -0.583456f, -0.358339f, 0.236823f, -0.690859f, 0.221605f, 0.535885f, -0.603490f, -0.115505f, 0.263688f, 0.392220f, 0.912150f, -0.026608f, -0.275748f, -0.470736f, -0.264237f, -0.340507f, 0.321155f, -0.302554f, -1.032951f, -0.302102f, -0.530746f, 0.113267f, -0.390925f, 0.449514f, -0.071517f, -0.398620f, 0.301251f, 0.024311f, 0.210807f, 0.394651f, -0.546041f, 0.248510f, -0.440377f, 0.303224f, 0.209605f, -0.403458f, 0.167300f, 0.031382f, -0.541827f, -0.414964f, -0.174196f, -0.583432f, -0.231718f, -0.521685f, 0.254968f, 0.162949f, 0.383225f, 0.233679f, 0.432470f, -0.411301f, 0.451077f, 0.024783f, 0.344188f, 0.153643f, 0.283325f, -0.397122f, -0.545263f, 0.096231f, -0.339656f, 0.508100f, -0.142604f, -0.546807f, -0.852599f, -0.128879f, 0.371170f, 0.422110f, 0.100962f, -0.380070f, -0.450498f, -0.485700f, 0.440339f, 0.423272f, 0.229825f, 0.401710f, 0.412024f, -0.327358f, 0.351225f, -0.491776f, -0.341379f, 0.490242f, 0.169631f, -0.658270f, -0.351664f, -0.194848f, -0.168907f, 0.384249f, 0.267731f, -0.514839f, 0.302952f, 0.320665f, -0.352374f, -0.365562f, 0.334511f, -0.678121f, -0.482288f, -0.644350f, 0.377272f, 0.310531f, 0.354759f, 0.342062f, -0.661750f, -0.484242f, -0.345205f, -0.459843f, -0.628838f, -0.124594f, 0.198629f, 0.420343f, 0.253629f, 0.482941f, 0.484685f, -0.000913f, -0.674833f, 0.330618f, 0.377747f, 0.566806f, 0.314142f, 0.415095f, -0.806716f, 0.175386f, 0.223562f, -0.257228f, -0.341829f, -0.848689f, -0.748713f, -0.661247f, -0.975220f, 0.285727f, -0.307852f, 0.244180f, 0.477950f, -0.789191f, 0.314331f, 0.321300f, 0.218073f, -0.470684f, 0.225907f, -0.687522f, -0.210473f, -0.459561f, 0.091326f, -0.353440f, -0.136704f, -0.394787f, -0.603795f, -0.298129f, 0.200490f, -0.572131f, 0.235523f, 0.414615f, 0.364259f, 0.320891f, 0.360444f, -0.235362f, 0.362561f, -0.453430f, 0.305313f, 0.377748f, 0.327326f, -0.674365f, -0.424349f, 0.347990f, 0.409650f, -0.072947f, -0.491743f, 0.170291f, -0.093666f, 0.483515f, 0.133084f, 0.349279f, 0.025315f, 0.258611f, -0.568214f, 0.244249f, 0.449707f, -0.332641f, -0.606923f, -0.609086f, 0.272183f, 0.512254f, 0.216863f, 0.095069f, -0.211219f, -0.665655f, -0.247342f, -0.622692f, 0.247167f, -0.667997f, -0.459417f, 0.247585f, 0.298647f, 0.036837f, 0.607619f, 0.258961f, -0.344675f, -0.281508f, -0.513899f, 0.169854f, 0.362219f, 0.238408f, -0.874102f, -0.492542f, -0.637008f, -0.553188f, -0.512092f, 0.282136f, -0.617440f, 0.444902f, 0.069884f, 0.224115f, 0.082284f, 0.305917f, 0.340994f, 0.330384f, -0.529290f, 0.264039f, 0.596149f, 0.198701f, 0.708854f, 0.301807f, -0.414748f, -0.578751f, -0.474622f, 0.235400f, -0.152694f, -0.280216f, 0.046430f, -0.507064f, -0.821414f, -0.590993f, -0.457781f, 0.035142f, -0.545896f, 0.427117f, 0.302641f, 0.245364f, 0.237667f, 0.280134f, -0.682428f, 0.154175f, 0.128126f, -0.477157f, 0.173269f, -0.314475f, 0.223001f, -0.594456f, -0.603243f, -0.533548f, 0.247631f, -0.585473f, 0.485339f, -0.545369f, 0.347336f, 0.124715f, 0.348021f, 0.195056f, 0.375610f, -0.452301f, 0.152788f, 0.422886f, -0.575522f, -0.575426f, -0.299088f, 0.152587f, 0.071030f, 0.545802f, 0.482174f, -0.422197f, -0.265909f, -0.570352f, -0.411939f, -0.432873f, 0.385115f, 0.388738f, -0.476917f, 0.402645f, 0.345435f, 0.284370f, -0.328047f, -0.490590f, -0.407040f, -0.051484f, 0.069249f, 0.084567f, 0.417041f, 0.335415f, 0.267241f, -0.063398f, -0.288024f, -0.491879f, 0.585418f, -0.287124f, 0.198366f, 0.100201f, -0.704170f, 0.267552f, 0.329284f, 0.253288f, -0.491425f, 0.307469f, 0.310485f, 0.184387f, -0.585254f, -0.780769f, 0.486439f, -0.630079f, 0.300625f, -0.497559f, -0.650564f, 0.524788f, 0.397535f, -0.493603f, 0.150174f, -1.134619f, 0.341826f, 0.444816f, 0.365006f, -0.018782f, -0.597044f, 0.099455f, 0.287834f, 0.194546f, -0.337337f, 0.050358f, -0.726801f, -0.348936f, 0.551581f, -0.219866f, 0.287475f, 0.329455f, -0.930869f, 0.424097f, 0.499090f, 0.343972f, 0.392688f, -0.651425f, -0.784232f, -0.073216f, 0.210630f, 0.405676f, -0.231786f, 0.117025f, -0.209025f, 0.381722f, 0.532867f, -0.427829f, -0.376406f, -0.462682f, -0.768936f, 0.546700f, 0.228831f, 0.427132f, -0.496010f, -0.045898f, 0.141979f, 0.435697f, -0.766819f, -0.709972f, 0.557219f, 0.522168f, -0.006605f, -0.112159f, -0.504640f, -0.310637f, 0.457815f, 0.151690f, -0.387773f, -0.463787f, 0.568176f, -0.392682f, -0.047657f, -0.587943f, -0.363376f, -0.277407f, -0.526525f, -0.310190f, 0.368543f, 0.226007f, -0.466840f, -0.423529f, 0.127100f, 0.087887f, -0.775900f, -0.325382f, -0.425023f, 0.457388f, 0.258768f, 0.231197f, -0.670647f, 0.457420f, 0.446270f, 0.258613f, -0.198779f, 0.092765f, -0.505102f, -0.004338f, 0.277787f, -0.237550f, -0.562678f, -0.482776f, -0.673337f, -0.327078f, 0.312673f, 0.283773f, -0.431013f, -0.408361f, 0.284979f, 0.022266f, -0.816125f, 0.601491f, -0.048928f, 0.302385f, 0.327640f, 0.598061f, 0.516982f, 0.215628f, -0.602141f, 0.594164f, -0.368745f, -0.471223f, 0.562382f, -0.194496f, 0.461765f, 0.463534f, -0.049267f, 0.533703f, 0.158273f, 0.154809f, -0.270796f, -0.514863f, 0.359958f, 0.374222f, -0.629751f, -0.438268f, 0.280890f, -0.100172f, -0.666899f, -0.544910f, 0.552802f, -0.624365f, 0.538480f, -0.084098f, -0.517161f, -0.619329f, 0.452280f, 0.192731f, -0.254075f, -0.292950f, -0.456823f, 0.346786f, -0.412193f, -0.164262f, -0.801243f, 0.555221f, -0.596659f, 0.513947f, -0.203971f, -0.544559f, -0.218259f, -0.443295f, -1.137234f, -0.646503f, 0.771986f, 0.738611f, -0.635208f, 0.284993f, 0.380382f, -0.444860f, 0.314796f, 0.406912f, 0.397245f, -0.573344f, -0.493884f, 0.096797f, -0.111326f, 0.307229f, 0.453900f, 0.462797f, 0.529151f, 0.079632f, -0.391567f, -0.464879f, 0.424058f, 0.383486f, 0.151482f, 0.367130f, -0.734789f, -0.241453f, -0.450624f, -0.411941f, -0.115500f, 0.149920f, -0.622491f, 0.303061f, -0.754590f, -0.036254f, -0.603233f, 0.372977f, 0.554260f, 0.473680f, 0.344802f, 0.596875f, -0.040271f, -0.484144f, 0.197175f, 0.109780f, 0.239522f, 0.360739f, -0.315505f, 0.432383f, -0.309435f, -0.570783f, 0.406946f, 0.130659f, -0.338193f, 0.105050f, 0.057965f, -0.519093f, 0.457131f, -0.355561f, -0.570499f, -0.086102f, -0.362786f, -0.628778f, 0.061798f, -0.534020f, -0.582097f, 0.228412f, 0.372774f, 0.521874f, 0.176753f, 0.303510f, -0.457664f, -0.361418f, 0.280222f, -0.364484f, -0.653661f, 0.323786f, 0.222058f, 0.253472f, 0.424457f, -0.016380f, -0.703724f, -0.479883f, -0.571117f, -0.577698f, -0.239572f, 0.260831f, 0.358430f, -0.462403f, 0.307808f, 0.338427f, -0.414728f, 0.300687f, 0.433193f, 0.125070f, 0.176994f, -0.539288f, 0.006859f, 0.329975f, -0.563502f, -0.291460f, 0.335608f, -0.574477f, -0.084471f, 0.526640f, -0.695609f, 0.436937f, -0.746480f, 0.178000f, -0.393421f, 0.313061f, 0.327996f, 0.227206f, -0.412951f, 0.160286f, -0.485153f, 0.301127f, 0.015316f, 0.243459f, 0.216328f, 0.264394f, 0.124392f, 0.177560f, -0.596307f, -0.366047f, 0.287255f, -0.516009f, -0.594863f, 0.452359f, 0.142946f, 0.102828f, 0.006838f, 0.257860f, 0.076015f, -0.424409f, 0.047793f, 0.255370f, -0.336936f, -0.504076f, -0.236242f, 0.097189f, 0.178663f, -0.014818f, 0.388379f, -0.351995f, 0.326678f, -0.569864f, -0.034432f, 0.291701f, -0.612060f, -0.357966f, 0.213159f, -0.012551f, -0.621503f, 0.597490f, 0.148550f, 0.240038f, 0.276786f, 0.150316f, -0.053668f, -0.431060f, 0.142159f, 0.368490f, -0.067609f, -0.510862f, -0.392730f, -0.427443f, 0.169733f, -0.544811f, -0.623524f, 0.236162f, 0.438208f, 0.327978f, -0.482645f, 0.396449f, -0.506962f, -0.340798f, 0.495910f, 0.187549f, -0.103696f, 0.040912f, -0.741115f, -0.721716f, 0.519698f, 0.653173f, -0.121066f, 0.214178f, -0.510692f, -0.666251f, 0.296023f, 0.203883f, 0.065818f, -0.098414f, 0.281710f, -0.059128f, -0.442292f, 0.451937f, 0.678170f, 0.164064f, -0.613560f, -0.201255f, -0.151451f, -0.328633f, 0.801335f, -0.329228f, -0.542862f, -0.331060f, -0.418346f, 0.474727f, -0.440036f, -0.000368f, -0.582053f, -0.205317f, -0.245855f, -0.514599f, 0.452461f, 0.477970f, 0.278583f, -0.442170f, -0.660215f, -0.153491f, 0.219805f, -0.410588f, -0.011574f, -0.449785f, 0.246214f, 0.208556f, 0.240571f, -0.566901f, 0.208545f, 0.293120f, -0.625253f, 0.562090f, 0.262921f, 0.226354f, 0.018385f, -0.644913f, -0.028754f, -0.678151f, 0.129255f, 0.329651f, -0.484364f, -0.457073f, -0.439074f, 0.386260f, 0.153922f, -0.433533f, -0.800503f, 0.346116f, -0.664590f, 0.260047f, -0.513403f, 0.478894f, 0.466700f, 0.340475f, -0.520430f, 0.400198f, -0.000450f, 0.157164f, -0.238478f, -0.706799f, -0.622445f, -0.208513f, -0.487838f, 0.154997f, 0.681856f, -0.761635f, 0.162484f, 0.259059f, 0.347613f, -0.603522f, -0.625414f, 0.297355f, 0.093724f, -0.624777f, -0.352200f, 0.372916f, 0.201034f, -0.373560f, 0.482777f, -0.493725f, 0.133114f, -0.503313f, 0.132042f, 0.328427f, 0.068719f, -0.578709f, -0.105649f, -0.121841f, 0.133168f, 0.259735f, -0.510020f, 0.373841f, 0.258626f, 0.089781f, -0.097366f, 0.203565f, 0.534133f, -0.029797f, 0.254581f, -0.365278f, -0.353892f, -0.496876f, -0.802882f, -0.573333f, 0.242675f, 0.199179f, -0.672435f, -0.584484f, 0.159850f, 0.496287f, 0.569246f, 0.403215f, -0.379676f, 0.108616f, 0.244836f, 0.324182f, 0.275968f, 0.021571f, 0.050232f, 0.007992f, 0.333696f, -0.518102f, -0.706176f, -0.131772f, 0.311772f, 0.351600f, -0.515871f, 0.392050f, -0.668924f, -0.506444f, 0.329435f, 0.363510f, -0.117593f, 0.415025f, 0.178525f, 0.303372f, -0.373242f, -0.758996f, -0.685257f, -0.077440f, 0.567283f, 0.197224f, 0.627087f, -0.309103f, 0.121187f, -0.332195f, 0.427149f, -0.483766f, -0.567076f, -0.623017f, -0.302133f, -0.388431f, 0.533886f, -0.577253f, -0.605441f, -0.440113f, 0.491249f, -0.362711f, -0.612715f, -0.300182f, 0.273789f, 0.140966f, -0.645498f, 0.758112f, -0.153732f, 0.332291f, 0.473780f, -0.421046f, 0.508693f, 0.105498f, 0.400565f, 0.481032f, 0.224870f, -0.593261f, -0.501795f, 0.278070f, -0.099151f, -0.394091f, -0.286055f, 0.244980f, -0.531318f, -0.393788f, 0.035066f, -0.524190f, -0.113374f, -0.528637f, 0.303625f, 0.318239f, -0.445311f, 0.870287f, -0.407159f, 0.192704f, 0.344450f, 0.344287f, -0.682453f, 0.427375f, 0.289662f, -0.126664f, 0.334535f, 0.358824f, -0.395633f, -0.122730f, 0.616663f, -0.004594f, 0.421602f, 0.460064f, 0.097272f, -0.328902f, -0.658894f, -0.430144f, 0.544358f, -0.015154f, 0.281714f, 0.312853f, -0.492066f, -0.402383f, 0.255826f, -0.402082f, -0.315701f, -0.718952f, -0.775774f, 0.433558f, 0.298860f, 0.135037f, -0.631573f, 0.463768f, 0.473370f, -0.534268f, 0.334320f, -0.450755f, 0.130046f, 0.277826f, -0.184679f, -0.538799f, 0.250108f, -0.602050f, -0.426166f, -0.464891f, -0.081754f, 0.474151f, 0.570277f, 0.402525f, 0.230640f, 0.316065f, 0.290386f, -0.532224f, 0.040312f, 0.105641f, -0.860871f, 0.133435f, 0.399744f, -0.801829f, -0.452450f, 0.009373f, -0.720900f, -0.400975f, 0.450777f, 0.333953f, 0.341005f, -0.404469f, 0.501863f, -0.567334f, 0.457866f, 0.419265f, 0.270001f, 0.106041f, -0.773925f, 0.623173f, -0.726793f, -0.226427f, 0.551869f, 0.329211f, -0.647774f, 0.192386f, -0.640474f, 0.437405f, -0.539985f, 0.282236f, 0.137462f, 0.193127f, -0.721053f, 0.418379f, -0.763239f, 0.442712f, 0.043901f, 0.172487f, -0.465465f, -0.136312f, 0.216112f, 0.246538f, -0.441314f, -0.576402f, 0.331832f, -0.016417f, 0.323344f, -0.551819f, -0.582962f, 0.338314f, 0.088793f, -0.671424f, -0.653981f, -0.384849f, 0.364443f, -0.169129f, 0.062684f, 0.526888f, -0.443126f, 0.145144f, -0.179724f, 0.278878f, -0.393537f, 0.543163f, -0.410684f, -0.018661f, -0.298246f, 0.317383f, 0.299272f, -0.056967f, -0.442820f, -0.588491f, 0.591247f, -0.269845f, -0.514905f, 0.305267f, -0.441405f, -0.593652f, 0.240184f, 0.244623f, 0.125936f, 0.034708f, -0.550975f, 0.369501f, 0.241481f, -0.413849f, -0.424472f, -0.487182f, -0.310333f, -0.160382f, 0.357452f, 0.357262f, -0.702025f, 0.445168f, 0.324018f, -0.160724f, 0.439489f, 0.044869f, -0.660728f, -0.226300f, 0.079503f, 0.487494f, 0.370167f, 0.332342f, -0.443666f, -0.682239f, -0.338028f, 0.022704f, 0.168296f, -0.595518f, 0.308590f, 0.045313f, -0.215114f, -0.600059f, 0.354389f, 0.307145f, -0.497320f, 0.324956f, -0.303673f, -0.567649f, -0.399571f, -0.530281f, 0.383569f, -0.153421f, 0.401773f, -0.406147f, -0.722688f, 0.684224f, 0.327752f, -0.050814f, -0.493580f, -0.636997f, 0.408070f, 0.488467f, -0.482551f, 0.321300f, 0.139948f, 0.511592f, 0.131974f, -0.436070f, 0.122656f, 0.066094f, -0.084510f, 0.180849f, 0.237722f, 0.385392f, -0.738996f, 0.043628f, 0.169122f, 0.142905f, 0.100459f, -0.019182f, 0.059789f, -0.775527f, 0.194127f, 0.133223f, -0.674534f, 0.549929f, -0.305581f, -0.848767f, 0.220773f, -0.795620f, -0.251826f, -0.548532f, 0.378517f, 0.325956f, -0.290497f, -0.462800f, 0.364458f, -0.503574f, -0.431602f, -0.328895f, 0.250034f, -0.026689f, -0.690319f, 0.454491f, -0.211301f, 0.386676f, 0.570304f, -0.376164f, 0.264825f, -0.661952f, 0.365864f, 0.367659f, 0.302207f, -0.233389f, -0.484196f, 0.351578f, -0.337192f, -0.352571f, -0.320534f, 0.319383f, -0.412237f, -0.338526f, 0.398380f, 0.190329f, -0.483988f, -0.149772f, 0.208527f, 0.292470f, -0.724285f, -0.102932f, -0.427712f, -0.495423f, 0.492043f, 0.327013f, -0.607495f, 0.458853f, 0.309784f, 0.292015f, 0.238146f, 0.381203f, -0.411959f, 0.165387f, 0.333483f, -0.702428f, -0.538774f, 0.364467f, -0.781741f, 0.326060f, 0.120904f, 0.098385f, 0.014135f, -0.489776f, -0.342767f, 0.233777f, 0.397131f, 0.133163f, 0.390562f, 0.060622f, 0.398953f, -0.712538f, 0.142656f, -0.228657f, -0.003076f, 0.455951f, 0.408169f, -0.620289f, -0.323770f, 0.237802f, -0.449185f, 0.319759f, 0.533297f, -0.145214f, 0.144913f, 0.353511f, 0.591974f, -0.473358f, 0.391696f, 0.203370f, -0.522921f, -0.483136f, 0.074001f, -0.708019f, -0.269075f, -0.501327f, -0.641884f, 0.483184f, -0.324893f, 0.497164f, 0.312324f, -0.912266f, -0.435918f, 0.478140f, 0.487799f, -0.088328f, 0.219580f, -0.386511f, 0.277086f, -0.430093f, 0.279524f, 0.280105f, 0.007408f, -0.558395f, 0.219135f, 0.370499f, -0.496355f, -0.472905f, 0.371429f, 0.396108f, 0.093686f, -0.631541f, -0.372028f, -0.533740f, 0.219616f, 0.029269f, -0.514284f, -0.329236f, -0.316247f, 0.007084f, 0.284469f, 0.201575f, 0.404863f, -0.567588f, -0.289204f, 0.400191f, 0.547500f, 0.473696f, -0.719807f, -0.120982f, 0.250520f, -0.151615f, 0.481959f, -0.064369f, -0.200983f, -0.287002f, 0.511884f, -0.228907f, -0.501285f, 0.411526f, -0.712863f, 0.182942f, -0.597383f, -0.487798f, -0.280591f, 0.438724f, 0.311101f, 0.400410f, -0.331303f, -0.586296f, -0.120266f, 0.338876f, 0.460066f, 0.238628f, -0.240426f, -0.440075f, 0.241408f, 0.247545f, -0.309652f, -0.217916f, 0.439808f, -0.868192f, 0.378447f, -0.460552f, -0.444728f, 0.412527f, -0.667001f, -0.543643f, -0.414005f, -0.582095f, 0.167599f, 0.277351f, 0.436155f, 0.304504f, -0.356591f, 0.362825f, -0.270900f, 0.441299f, 0.151167f, 0.316077f, -0.625411f, 0.374818f, 0.324914f, 0.273824f, -0.567341f, -0.472881f, 0.335752f, -0.872539f, 0.345942f, -0.476681f, -0.597767f, 0.456512f, -0.758516f, 0.219954f, -0.596608f, -0.638755f, -0.549685f, 0.485288f, 0.463773f, 0.089065f, -0.756824f, 0.250059f, -0.857080f, 0.350914f, -0.619593f, 0.404882f, -0.188318f, 0.478549f, 0.345194f, 0.305871f, 0.151561f, 0.186358f, -0.899119f, -0.905698f, 0.265040f, 0.755690f, -0.692236f, 0.052899f, -0.273677f, -0.802494f, 0.297456f, 0.258986f, 0.187083f, 0.039386f, 0.187887f, 0.113757f, 0.299500f, -0.579198f, -0.230954f, -0.601657f, -0.463646f, 0.096314f, 0.165081f, 0.276696f, -0.514380f, -0.557575f, 0.350722f, 0.129345f, -0.198463f, 0.526817f, 0.404490f, 0.253857f, 0.070292f, 0.383022f, 0.165094f, 0.273938f, 0.218955f, 0.143803f, -0.154887f, -0.299240f, 0.249724f, -0.577813f, -0.051340f, 0.392708f, -0.129960f, -0.400588f, -0.265598f, 0.090384f, -0.358077f, -0.272025f, 0.243452f, -0.567265f, -0.415092f, -0.320968f, 0.582634f, 0.252750f, 0.327613f, 0.481330f, -0.763789f, -0.576624f, 0.259321f, -0.402459f, 0.797589f, -0.735563f, 0.395430f, 0.053922f, -0.267362f, 0.182349f, -0.536226f, 0.351129f, 0.515137f, 0.085857f, 0.670779f, 0.410337f, -0.671677f, -0.563448f, -0.154661f, 0.116050f, -0.188644f, 0.342857f, -0.229639f, -0.286875f, -0.809696f, -0.561557f, -0.359583f, -0.266673f, -0.698562f, 0.475149f, 0.189317f, 0.026951f, 0.258276f, 0.306428f, -0.672482f, 0.188361f, -0.530155f, 0.266937f, 0.437275f, 0.160714f, -0.632513f, 0.359478f, -0.236273f, 0.366775f, -0.483201f, 0.283835f, 0.233953f, 0.168138f, 0.211878f, -0.484930f, -0.647390f, 0.200732f, -0.710543f, 0.046463f, -0.464070f, -0.160960f, 0.142673f, 0.091225f, 0.241128f, 0.081572f, -0.467281f, 0.259439f, 0.378915f, -0.417284f, 0.144292f, 0.192473f, -0.398230f, -0.580043f, 0.131452f, -0.485207f, 0.244508f, -0.500183f, 0.247737f, 0.344200f, 0.108064f, 0.197969f, 0.100033f, 0.261766f, 0.415385f, -0.527118f, -0.350390f, 0.181087f, -0.657801f, -0.152444f, -0.439271f, 0.285988f, 0.109746f, 0.262559f, -0.327655f, 0.263018f, 0.526305f, 0.380466f, -0.558642f, 0.261180f, -0.533545f, -0.163432f, 0.746546f, 0.260257f, 0.138330f, 0.321349f, -0.736869f, -0.862522f, 0.277172f, 0.142963f, -0.272732f, 0.264067f, -0.429362f, -0.677200f, 0.317273f, 0.289634f, 0.298193f, -0.116020f, -0.417407f, -0.390244f, -0.412993f, 0.562887f, 0.328117f, 0.317445f, 0.437137f, -0.158526f, -0.412670f, -0.443193f, 0.492853f, 0.324736f, -0.496023f, -0.015295f, 0.421156f, 0.256555f, -0.411143f, -0.614855f, -0.448339f, -0.518311f, -0.179017f, -0.249322f, -0.319053f, -0.170987f, -0.234407f, 0.321707f, -0.546579f, 0.326526f, 0.399193f, 0.364004f, -0.494058f, 0.249418f, -0.913469f, -0.319881f, 0.220937f, 0.214819f, -0.427710f, 0.189965f, 0.088799f, 0.117985f, -0.804856f, -0.724601f, -0.633102f, 0.329562f, 0.106183f, 0.130258f, 0.314486f, 0.273494f, 0.135219f, 0.186922f, 0.213919f, 0.106102f, 0.452698f, -0.555415f, 0.226727f, -0.185226f, -0.203767f, -0.459466f, 0.182024f, -0.388489f, 0.169334f, 0.425727f, -0.071355f, -0.205079f, -0.637437f, -0.398288f, 0.377197f, 0.160530f, 0.312242f, 0.216824f, 0.259539f, -0.559133f, 0.065278f, 0.325375f, -0.334234f, -0.309059f, -0.071568f, -0.609831f, 0.263584f, -0.496274f, -0.288473f, 0.411851f, -0.504808f, -0.153931f, -0.870961f, -0.563220f, 0.351318f, 0.300819f, -0.400372f, 0.362058f, 0.197252f, 0.328721f, -0.862916f, -0.879944f, -0.417377f, 0.407760f, 0.477118f, 0.273605f, 0.686797f, -0.618426f, 0.193797f, 0.233524f, 0.296157f, -0.717747f, 0.433045f, -0.742894f, -0.365906f, 0.039426f, 0.608534f, 0.281943f, -0.818605f, -0.445665f, -0.268431f, -0.590032f, -0.207147f, -0.494305f, 0.388512f, 0.447195f, -0.522654f, -0.726343f, -0.228282f, 0.284234f, -0.320694f, 0.129763f, -0.332155f, -0.639607f, 0.336448f, 0.308580f, 0.290497f, 0.273302f, -0.356355f, 0.076841f, -0.575498f, 0.083955f, 0.201956f, -0.541509f, 0.179601f, 0.293858f, -0.386710f, -0.621242f, 0.444492f, -0.442324f, -0.676016f, -0.557836f, 0.237275f, 0.287004f, 0.297987f, 0.515814f, -0.756285f, 0.582732f, 0.295112f, -0.619066f, 0.463480f, 0.092845f, 0.084697f, -0.296873f, -0.479590f, 0.237142f, 0.510506f, -0.466040f, 0.390443f, 0.413977f, 0.168436f, -0.447032f, -0.329450f, -0.263574f, -0.239003f, -0.457393f, -0.284871f, 0.423109f, 0.166565f, 0.161793f, 0.212778f, -0.332776f, 0.313998f, -0.486991f, -0.196942f, 0.269725f, -0.597701f, 0.721541f, 0.246432f, -0.527280f, -0.433779f, -0.103406f, 0.264449f, 0.460000f, 0.362333f, -0.314001f, 0.250410f, 0.207513f, -0.282281f, -0.469938f, 0.282718f, 0.339496f, -0.592150f, 0.270213f, 0.297975f, 0.250330f, 0.014910f, -0.707459f, -0.817613f, 0.198456f, 0.317538f, 0.127868f, 0.123029f, -0.788303f, 0.213508f, -0.546946f, 0.231462f, -0.881535f, 0.174027f, -0.419066f, -0.614732f, -0.389202f, 0.237435f, -0.618492f, 0.056777f, 0.248685f, -0.238824f, 0.426629f, 0.461346f, -0.710602f, 0.215775f, 0.264961f, 0.134755f, -0.003360f, 0.229465f, 0.453824f, 0.203368f, 0.233031f, -0.570495f, -0.475953f, -0.570738f, 0.452725f, 0.265776f, -0.294700f };
static float MLP_buf1[100];
static float MLP_buf2[100];
static const EmlNetLayer MLP_layers[3] = { 
{ 50, 7, MLP_layer_0_weights, MLP_layer_0_biases, EmlNetActivationLogistic }, 
{ 100, 50, MLP_layer_1_weights, MLP_layer_1_biases, EmlNetActivationLogistic }, 
{ 26, 100, MLP_layer_2_weights, MLP_layer_2_biases, EmlNetActivationSoftmax } };
static EmlNet MLP = { 3, MLP_layers, MLP_buf1, MLP_buf2, 100 };

    int32_t
    MLP_predict(const float *features, int32_t n_features)
    {
        return eml_net_predict(&MLP, features, n_features);
    }
    

    int32_t
    MLP_regress(const float *features, int32_t n_features, float *out, int32_t out_length)
    {
        return eml_net_regress(&MLP, features, n_features, out, out_length);
    }
    

    float
    MLP_regress1(const float *features, int32_t n_features)
    {
        return eml_net_regress1(&MLP, features, n_features);
    }
    