
#include <eml_net.h>
static const float MLP_layer_0_biases[100] = { -0.307640f, -0.121951f, 0.325005f, -0.057646f, -0.031794f, 0.010212f, 0.051031f, 0.126301f, 0.017079f, 0.086444f, 0.175618f, -0.016936f, -0.176552f, -0.029501f, 0.489362f, -0.042457f, 0.117835f, 0.010899f, 0.144198f, -0.064686f, -0.077286f, 0.222188f, 0.154675f, 0.092620f, -0.036546f, 0.011567f, 0.168523f, -0.225504f, 0.141976f, 0.140067f, 0.150940f, -0.189489f, 0.286298f, -0.198129f, -0.143615f, 0.074299f, 0.289745f, -0.018013f, 0.181199f, -0.318173f, 0.270198f, 0.018577f, -0.153705f, 0.513791f, -0.224264f, 0.098531f, 0.248533f, -0.173087f, -0.379596f, 0.712790f, 0.236533f, -0.241420f, 0.014656f, 0.055608f, 0.012010f, 0.012870f, -0.337645f, 0.155026f, 0.208386f, -0.183069f, -0.457517f, 0.163841f, -0.019433f, -0.091724f, -0.100573f, -0.503679f, 0.089844f, -0.053699f, 0.109659f, 0.133984f, 0.255584f, 0.190942f, 0.280241f, -0.189109f, -0.102341f, -0.081946f, -0.155013f, -0.082368f, -0.084736f, -0.122738f, -0.165829f, 0.292662f, -0.233432f, 0.459043f, 0.135999f, -0.043328f, 0.048556f, -0.177914f, -0.293150f, 0.246811f, 0.551508f, -0.056647f, -0.247864f, 0.127990f, -0.263637f, 0.360894f, -0.161581f, -0.127400f, 0.008328f, 0.127009f };
static const float MLP_layer_0_weights[700] = { -0.083705f, 0.001049f, -0.444522f, -0.089965f, -0.049488f, -0.234112f, 0.139106f, -0.171697f, -0.154013f, -0.045793f, -0.085810f, 0.010472f, -0.180039f, 0.141338f, -0.188554f, 0.135112f, -0.090150f, -0.018254f, -0.318862f, -0.193226f, 0.127733f, 0.279860f, 0.015066f, 0.027850f, 0.161054f, 0.152804f, -0.231410f, -0.290367f, -0.339732f, 0.188175f, -0.281513f, -0.167026f, 0.250138f, -0.029237f, 0.136636f, -0.110761f, 0.077382f, 0.121134f, -0.299281f, 0.127064f, 0.196670f, 0.129759f, -0.085250f, 0.239153f, -0.289853f, -0.020193f, 0.140644f, -0.134977f, -0.095226f, -0.140213f, -0.362687f, 0.069201f, -0.217237f, -0.142842f, -0.001611f, -0.238192f, 0.039731f, -0.232187f, 0.046498f, 0.078042f, -0.214172f, -0.019868f, 0.090420f, -0.094273f, -0.278377f, 0.088166f, 0.029987f, 0.002932f, 0.138826f, 0.121155f, 0.168087f, -0.197733f, -0.463656f, 0.168855f, -0.025186f, -0.219536f, 0.249098f, -0.104772f, 0.074497f, 0.227747f, 0.152126f, 0.033856f, 0.043618f, -0.101065f, -0.082135f, 0.137804f, -0.083347f, 0.241350f, 0.043735f, 0.061316f, -0.119158f, 0.223602f, -0.011167f, 0.003258f, 0.016048f, -0.154526f, 0.212926f, -0.089125f, -0.287757f, 0.041421f, -0.105429f, -0.034991f, 0.162699f, -0.062657f, 0.280655f, 0.056215f, -0.907505f, 0.167023f, 0.071901f, 0.209289f, 0.017697f, -0.237337f, 0.220261f, 0.070803f, -0.059757f, 0.109796f, 0.111916f, 0.174334f, 0.067005f, -0.196275f, -0.071247f, -0.438484f, -0.412082f, -0.169326f, 0.231644f, -0.033685f, -0.010839f, 0.050295f, -0.116216f, -0.145592f, 0.005854f, 0.166978f, 0.048019f, -0.141079f, 0.159733f, 0.038042f, 0.185606f, -0.127116f, 0.164955f, 0.101196f, 0.021535f, -0.155067f, -0.289248f, -0.015994f, -0.167114f, -0.263473f, -0.169512f, 0.040751f, 0.013848f, -0.125351f, -0.427105f, 0.192336f, 0.070172f, -0.139156f, -0.098286f, 0.094285f, -0.166231f, 0.198993f, 0.208839f, 0.186828f, -0.141058f, -0.046137f, -0.086883f, 0.151446f, -0.184969f, -0.500396f, -0.255483f, -0.100833f, 0.066944f, 0.011036f, -0.139120f, 0.211991f, 0.234520f, -0.010950f, 0.146734f, 0.157905f, 0.145177f, -0.187828f, -0.257001f, -0.120731f, 0.084491f, -0.166347f, 0.038434f, -0.213934f, -0.526299f, 0.086463f, -0.426077f, 0.024493f, 0.040367f, 0.270849f, -0.254485f, -0.272205f, 0.295971f, 0.087409f, 0.230949f, 0.154021f, -0.184237f, -0.131965f, 0.078474f, 0.162067f, 0.163781f, -0.025750f, 0.254022f, 0.078186f, 0.008125f, -0.015020f, 0.161016f, 0.007732f, 0.212764f, 0.114949f, 0.032040f, 0.264557f, -0.183002f, -0.138105f, -2.516405f, -0.014026f, -0.202174f, 0.155808f, 0.188899f, -0.310991f, -0.103624f, -0.512937f, -1.405331f, 0.167716f, -0.142485f, 0.215787f, 0.003353f, 0.188724f, 0.213163f, 0.178473f, 0.000917f, 0.008408f, 0.163479f, -0.059443f, -0.006023f, 0.361941f, -0.240640f, 0.002236f, -0.076358f, 0.145711f, -0.105287f, 0.126544f, 0.139870f, -0.414155f, 0.153231f, 0.036545f, -0.090924f, 0.021009f, 0.223456f, 0.319315f, -0.418822f, 0.166740f, 0.050823f, 0.235328f, 0.036005f, 0.174019f, -0.031162f, 0.105723f, -0.113533f, 0.070265f, 0.113873f, 0.208025f, 0.169143f, 0.140448f, 0.118768f, 0.252744f, 0.070243f, 0.087153f, -0.104230f, -0.015932f, -0.156757f, -0.111373f, 0.082389f, 0.063145f, 0.175539f, 0.098951f, -0.223775f, -0.124850f, -0.078583f, 0.139985f, 0.240992f, 0.118827f, 0.078497f, -0.058825f, -0.351967f, 0.160591f, 0.248444f, 0.084194f, 0.007397f, 0.140383f, -0.140164f, 0.112940f, -0.068387f, -0.054946f, -0.091357f, -0.238597f, -0.128291f, -0.152347f, 0.200830f, -0.196602f, 0.116129f, 0.138506f, 0.166966f, -0.000890f, -0.136287f, -0.013787f, -0.191094f, -0.159045f, 0.053193f, -0.170491f, 0.367181f, 0.202048f, -0.152756f, -0.172305f, -0.095264f, -0.083470f, 0.101496f, -0.175498f, -0.068836f, 0.121138f, -0.083666f, 0.032122f, -0.069819f, -0.163852f, -0.070346f, -0.020907f, -0.208813f, 0.042018f, 0.066812f, -0.007085f, -0.182972f, 0.160740f, -0.134289f, -0.016430f, 0.105860f, -0.061296f, -0.117064f, 0.121528f, 0.124684f, -0.020345f, 0.149825f, 0.239074f, 0.183245f, 0.240847f, -0.175847f, 0.050785f, 0.131839f, 0.078583f, 0.142408f, -0.064559f, 0.155554f, 0.045476f, -0.106839f, -0.063262f, 0.077277f, -0.092979f, 0.085106f, 0.089732f, 0.151996f, 0.238037f, -0.102986f, -0.153559f, 0.208277f, 0.075168f, 0.200003f, 0.109932f, 0.181643f, 0.050852f, 0.029757f, -0.214584f, -0.081539f, -0.225500f, -0.104181f, 0.110917f, -0.331680f, -0.088564f, 0.106941f, 0.073367f, 0.050289f, -0.164047f, -0.057130f, -0.058018f, 0.235574f, -0.182576f, -0.177070f, -0.127029f, 0.133738f, -0.031194f, -0.226749f, -0.034070f, -0.302006f, 0.079586f, -0.115919f, -0.263812f, 0.049840f, 0.152070f, -0.107310f, 0.172234f, 0.001591f, -0.022330f, 0.205251f, 0.096451f, -0.187087f, 0.078059f, -0.258971f, 0.179999f, -0.040099f, -0.118975f, -0.184254f, -0.073133f, -0.147348f, -0.001443f, 0.133908f, 0.119286f, 0.185510f, -0.096043f, 0.203333f, -0.105755f, 0.153457f, 0.014372f, -0.199864f, -0.212632f, -0.168184f, -0.259752f, -0.082492f, -0.210767f, -0.285475f, 0.083889f, -0.017644f, 0.074603f, -0.150246f, 0.002171f, -0.015346f, -0.059030f, 0.124140f, -0.066427f, 0.180305f, -0.262448f, 0.050208f, -0.141663f, 0.023599f, -0.188707f, -0.010720f, -0.168762f, 0.222088f, 0.201271f, 0.114749f, 0.222894f, -0.177630f, -0.319301f, -0.233005f, -0.011372f, 0.216997f, 0.245805f, 0.093236f, 0.136848f, 0.161546f, -0.052450f, -0.089102f, -0.142913f, -0.183526f, 0.149420f, -0.167372f, -0.139492f, 0.118773f, -0.058996f, 0.170391f, -0.068328f, -0.005399f, -0.078404f, 0.196238f, 0.034267f, -0.053255f, 0.029176f, 0.194792f, -0.283587f, 0.064028f, 0.152790f, -0.265391f, -0.006255f, -0.080519f, 0.133630f, -0.013697f, 0.053044f, 0.045811f, 0.058577f, -0.106116f, -0.216287f, 0.040838f, -0.104689f, -0.090831f, 0.109451f, 0.083737f, -0.227451f, -0.048545f, 0.215561f, 0.190545f, 0.193166f, 0.184108f, -0.183017f, -0.180802f, -0.087268f, -0.124466f, -0.143458f, -0.049614f, -0.080782f, 0.214699f, -0.164949f, 0.093391f, -0.125580f, 0.128398f, -0.044885f, -0.184726f, -0.172394f, 0.175168f, 0.038645f, 0.014428f, -0.128318f, 0.085427f, 0.216038f, 0.126861f, 0.075578f, 0.266650f, 0.127962f, 0.057006f, -0.189554f, -0.163841f, -0.166997f, 0.007352f, -0.093653f, 0.198993f, -0.138593f, 0.203791f, 0.068814f, 0.126780f, 0.191229f, 0.149372f, 0.014926f, -0.197065f, -0.067772f, -0.049116f, 0.154519f, -0.066418f, -0.075190f, -0.149304f, -0.226217f, 0.076491f, -0.023941f, 0.241510f, -0.255285f, -0.313035f, 0.059894f, 0.104399f, -0.066051f, -0.191692f, -0.087281f, 0.053550f, 0.034235f, 0.167827f, -0.154189f, -0.240348f, 0.049248f, 0.052814f, -0.183600f, 0.021825f, 0.078672f, 0.006382f, 0.207321f, 0.041772f, -0.248069f, -0.070905f, 0.220946f, 0.234658f, 0.152658f, 0.077561f, -0.019641f, -0.151954f, -0.020451f, 0.032359f, -0.111348f, 0.206543f, -0.154121f, 0.090772f, -0.128054f, 0.153467f, 0.023653f, 0.127205f, -0.072270f, -0.165746f, 0.171465f, -0.101410f, 0.087587f, 0.092141f, -0.088732f, -0.137032f, -0.082513f, -0.113895f, -0.140149f, -0.147889f, -0.182850f, 0.103478f, 0.246293f, 0.180311f, -0.123901f, -0.091163f, 0.377204f, 0.105956f, 0.026942f, -0.148929f, 0.114365f, -0.030383f, 0.274875f, 0.200684f, 0.035083f, -0.170017f, 0.157941f, -0.224551f, -0.260963f, -0.039223f, -0.010664f, -0.148306f, 0.015834f, -0.221895f, 0.045345f, 0.155275f, -0.034220f, 0.007516f, 0.136327f, 0.109473f, 0.043693f, -0.058881f, 0.221239f, 0.102689f, 0.076600f, 0.112098f, -0.024459f, 0.099713f, -0.106239f, -0.087915f, -0.094763f, -0.141054f, -0.006209f, -0.112038f, 0.016669f, 0.076682f, -0.108953f, -0.063128f, -0.207401f, -0.059269f, -0.374289f, -0.227469f, -0.201426f, 0.170918f, -0.194159f, 0.161868f, -0.088610f, 0.144305f, -0.186120f, 0.123262f, -0.106768f, 0.066145f, 0.057290f, -0.041383f, 0.057168f, -0.074798f, -0.000457f, 0.072118f, -0.273879f, 0.143248f, -0.261305f, 0.180395f, -0.136251f, 0.191805f, 0.118478f, 0.142923f, 0.209282f, -0.073159f, -0.198407f, 0.229694f, 0.087399f, 0.199956f, -0.081862f, 0.189796f, 0.085559f, -0.124918f, 0.038835f, 0.046697f, 0.108631f, 0.005316f, 0.080822f, -0.544595f, 0.056078f, 0.319410f, -0.237754f, -0.266794f, -0.205564f, -0.078631f, 0.345087f, 0.121798f, -0.078856f };
static const float MLP_layer_1_biases[27] = { 0.275005f, 0.029453f, 0.060404f, 0.014141f, -0.020381f, -0.023619f, -0.127833f, 0.158485f, -0.160214f, 0.125044f, -0.098696f, -0.160319f, -0.134388f, 0.002018f, -0.052611f, -0.042969f, 0.110316f, 0.089043f, -0.092054f, -0.005596f, -0.097803f, 0.105065f, -0.159876f, -0.006261f, -0.116442f, 0.052398f, 0.205007f };
static const float MLP_layer_1_weights[2700] = { 0.143673f, -0.118824f, -0.009981f, 0.141006f, -0.052000f, 0.199914f, -0.117093f, 0.056853f, 0.065890f, -0.082865f, -0.243283f, 0.029856f, 0.176467f, -0.125963f, 0.143323f, -0.060354f, -0.060957f, -0.113925f, 0.104866f, 0.117177f, 0.119481f, -0.116433f, 0.014887f, -0.160618f, -0.010437f, -0.061103f, -0.016921f, -0.235055f, 0.061831f, 0.038040f, 0.015051f, 0.029635f, -0.113598f, -0.119285f, 0.026201f, 0.156823f, -0.097682f, 0.013473f, 0.014264f, -0.021252f, -0.179952f, -0.049379f, -0.055648f, 0.156729f, 0.162263f, 0.000001f, 0.080249f, -0.123552f, 0.029836f, -0.110063f, 0.131081f, 0.088378f, 0.056332f, -0.153577f, 0.026417f, 0.295824f, 0.140958f, 0.132941f, -0.562563f, -0.135618f, 0.050238f, -0.028224f, -0.126712f, 0.118851f, 0.139382f, -0.010553f, 0.002133f, 0.093747f, -0.823001f, 0.331174f, -0.281988f, -0.180409f, -0.071646f, -0.111105f, -0.009341f, -0.240315f, -0.116523f, -0.215992f, 0.041577f, 0.118483f, -0.151861f, -0.078032f, 0.133537f, -0.110722f, 0.116287f, -0.177640f, 0.057263f, -0.195540f, 0.060069f, -0.099347f, -0.089402f, -0.112722f, -0.086751f, -0.031357f, 0.082907f, -0.005813f, 0.173560f, 0.047384f, 0.202988f, -0.132805f, -0.064245f, 0.203886f, -0.291258f, 0.170686f, -0.004810f, -0.072766f, 0.211154f, -0.109853f, 0.042251f, -0.286377f, -0.218057f, -0.333658f, -0.004304f, 0.152720f, 0.239125f, -0.085315f, 0.024909f, 0.680144f, -0.011313f, -0.122470f, -0.183383f, -0.229170f, -0.191480f, -0.094733f, -0.082282f, -0.098570f, -0.005840f, -0.070268f, -0.074401f, -0.148766f, -0.481612f, -0.122762f, -0.217283f, 0.091991f, -0.011294f, 0.171610f, -0.108673f, 0.034078f, -0.011143f, 0.065630f, -0.318145f, -0.041945f, 0.012762f, 0.190007f, -0.240387f, 0.074675f, -0.004988f, -0.128582f, -0.464119f, -0.073610f, -0.078948f, 0.064784f, -0.134613f, -0.250118f, -0.105160f, -0.106189f, 0.013141f, -0.068142f, -0.101770f, 0.004303f, 0.224719f, 0.112696f, 0.123900f, 0.117414f, 0.438995f, -0.050245f, -0.119974f, -0.095210f, -0.072993f, 0.107837f, 0.088436f, -0.018109f, -0.119081f, 0.018927f, -0.218867f, -0.562618f, -0.190219f, 0.023848f, -0.058726f, 0.039866f, -0.170872f, -0.206702f, 0.120225f, -0.643721f, -0.422886f, 0.842559f, -0.022775f, -0.071244f, 0.075662f, 0.255638f, 0.239716f, -0.142629f, 0.020545f, -0.091719f, -0.474883f, 0.248395f, -0.196745f, 0.029500f, -0.010238f, 0.054119f, -0.110036f, 0.146008f, 0.040284f, 0.069025f, -0.006967f, -0.257141f, -0.287168f, -0.006356f, -0.320575f, 0.032817f, 0.042576f, -0.035881f, 0.093183f, -0.013408f, -0.142275f, -0.115548f, -0.128166f, -0.125799f, -0.163008f, 0.299143f, 0.064760f, 0.007810f, -0.032304f, 0.106661f, -0.113353f, -0.155642f, 0.194177f, -0.162695f, 0.109479f, 0.151162f, -0.234727f, -0.260151f, -0.010108f, -0.083997f, 0.035857f, -0.240114f, -0.052208f, -0.243027f, 0.091618f, -0.011234f, -0.262772f, 0.047070f, -0.217763f, 0.162985f, 0.231038f, -0.001073f, 0.216075f, -0.089581f, 0.176783f, 0.023127f, -0.089673f, 0.179180f, 0.137955f, -0.152858f, 0.088287f, 0.062871f, 0.115433f, 0.112169f, -0.082555f, 0.020828f, 0.128274f, -0.239779f, -0.092485f, 0.120771f, -0.003236f, -0.004853f, -0.139899f, -0.121843f, 0.199376f, -0.126278f, -0.184836f, -0.698509f, -0.155906f, 0.485138f, 0.304795f, -0.900531f, -0.599814f, -0.145574f, -0.014463f, 0.415700f, 0.003481f, 0.303612f, -0.108440f, -0.702094f, 0.249855f, 0.219032f, -0.381777f, -0.054315f, -0.097664f, -0.336846f, 0.022023f, 0.266623f, -0.047057f, -0.110474f, 0.032164f, -0.032306f, -0.237048f, 0.060814f, 0.189409f, -0.030979f, -0.168827f, 0.117174f, -0.212806f, -0.548689f, 0.198618f, 0.031392f, 0.196680f, 0.070858f, 0.202605f, 0.152579f, -0.168729f, -0.155491f, 0.218031f, -0.023365f, -0.114610f, 0.093317f, -0.200247f, -0.088072f, 0.098722f, -0.265183f, -0.124505f, -0.128898f, 0.205961f, 0.079855f, -0.019611f, 0.256049f, -0.030101f, -0.037372f, 0.019786f, -0.345179f, -0.043952f, 0.001483f, -0.045606f, 0.045436f, 0.032919f, -0.236234f, 0.181867f, 0.114576f, 0.017194f, 0.110852f, -0.168588f, -0.011330f, -0.048338f, 0.201385f, -0.031416f, 0.034309f, 0.063646f, 0.058168f, 0.002291f, -0.107473f, 0.040658f, 0.102177f, 0.183485f, -0.102187f, -0.211796f, -0.088968f, 0.058536f, 0.185487f, 0.044913f, 0.119828f, 0.003374f, -0.232140f, -0.275985f, -0.077708f, -0.031130f, 0.078900f, 0.053491f, 0.148855f, -0.081001f, 0.013582f, -0.055558f, -0.093816f, -0.237616f, -0.413385f, 0.153188f, 0.006633f, -0.098670f, 0.054627f, -0.096625f, -0.015123f, -0.084945f, -0.117218f, -0.264239f, -0.063142f, 0.046335f, -0.222863f, -0.044222f, -0.035833f, -0.221249f, -0.220004f, 0.106199f, 0.007762f, 0.093177f, -0.094749f, -0.040149f, 0.031716f, -0.684732f, -0.136166f, -0.139276f, 0.501242f, 0.628892f, 0.219528f, -0.062378f, -0.082106f, -0.546413f, -0.054154f, -0.081202f, 0.317230f, -0.045840f, 0.173038f, -0.039093f, -0.073329f, -0.147096f, -0.002674f, -0.094053f, 0.109820f, -0.115335f, 0.191745f, 0.332351f, -0.176802f, -0.203320f, -0.044832f, -0.023477f, 0.059237f, -0.062035f, -0.058524f, -0.151383f, 0.149391f, -0.204275f, 0.098151f, -0.093559f, 0.027835f, -0.091066f, 0.203914f, -0.182453f, -0.160090f, 0.099511f, 0.060145f, -0.049255f, -0.280151f, -0.151614f, -0.149864f, -0.143045f, 0.231534f, 0.140181f, 0.070522f, 0.064371f, 0.051084f, 0.017407f, -0.016397f, -0.072439f, 0.269143f, 0.016904f, 0.079778f, -0.096362f, 0.183713f, -0.134595f, -0.122226f, 0.085043f, -0.127128f, -0.114256f, 0.086207f, 0.170218f, -0.007652f, -0.073195f, 0.095298f, 0.035843f, -0.099497f, -0.130914f, 0.174026f, -0.081854f, 0.090280f, 0.018488f, 0.008821f, -0.015183f, -0.062627f, -0.182126f, -0.148749f, -0.127354f, -0.148682f, 0.053463f, 0.031501f, 0.043717f, -0.288050f, 0.112200f, -0.052419f, -0.168639f, -0.026461f, -0.272550f, 0.218100f, 0.100818f, 0.116906f, -0.087874f, 0.087445f, -0.003854f, 0.043057f, -0.074484f, 0.169723f, 0.154994f, -0.335333f, -0.275811f, -0.093529f, -0.019395f, 0.304148f, -0.174021f, -0.033096f, 0.224656f, -0.133584f, -0.076111f, 0.029613f, -0.045211f, -0.151256f, 0.003275f, -0.096722f, -0.092199f, 0.123703f, 0.183777f, -0.032876f, 0.074654f, -0.000153f, 0.069851f, 0.165625f, -0.016622f, -0.262925f, -0.079337f, -0.190527f, 0.155641f, -0.159007f, 0.034299f, -0.173732f, -0.000248f, -0.033307f, -0.000090f, -0.391491f, 0.122494f, 0.015723f, 0.047231f, -0.062316f, -0.028656f, 0.032953f, 0.050416f, 0.000290f, 0.087511f, -0.064073f, 0.000963f, 0.144865f, -0.053539f, 0.178377f, -0.070689f, -0.061029f, -0.299805f, 0.077111f, -0.068095f, -0.117920f, -0.135182f, -0.035889f, -0.033983f, -0.227280f, 0.030883f, 0.076189f, 0.024685f, 0.141796f, -0.209551f, -0.042373f, 0.105420f, -0.115796f, 0.008758f, 0.108637f, 0.092293f, 0.266938f, -0.654745f, -0.224986f, -0.228595f, -0.265380f, -0.236556f, 0.161708f, -0.076746f, 0.083603f, 0.019870f, -0.074545f, -0.123637f, -0.109405f, -0.134001f, -0.025900f, 0.065905f, -0.248169f, -0.056956f, -0.125308f, -0.237234f, 0.362255f, 0.181181f, -0.146966f, -0.058216f, -0.133165f, -0.178680f, 0.098630f, 0.254863f, -0.050369f, 0.093685f, 0.121264f, -0.287169f, -0.094467f, -0.054046f, -0.048183f, -0.057751f, 0.198111f, 0.044607f, 0.147618f, -0.226475f, -0.064591f, -0.087733f, -0.067152f, -0.052391f, 0.140540f, -0.169563f, -0.681014f, 0.717151f, 0.330318f, -0.193433f, -0.127954f, -0.096337f, -0.080804f, -0.222452f, -0.031903f, 0.191873f, 0.152024f, -0.048994f, -0.279906f, -0.026918f, -0.007106f, -0.079418f, 0.137369f, 0.088083f, 0.075408f, 0.151853f, -0.084896f, 0.034586f, -0.131647f, -0.150799f, 0.138769f, -0.134771f, 0.136641f, 0.107771f, 0.125070f, -0.130782f, 0.060257f, -0.175441f, -0.132569f, -0.099051f, -0.244213f, 0.031900f, -0.137950f, -0.196096f, -0.064336f, 0.142472f, 0.024409f, 0.159283f, -0.052978f, 0.106398f, -0.263508f, -0.014238f, 0.315738f, 0.174310f, -0.372206f, -0.126889f, -0.167859f, -0.197362f, -0.167820f, -0.052644f, -0.147773f, 0.018938f, 0.102658f, -0.201498f, -0.067921f, -0.008713f, -0.039558f, 0.098074f, 0.023376f, 0.122376f, -0.056995f, -0.069187f, -0.121479f, 0.163230f, 0.100468f, 0.250365f, -0.117988f, 0.113728f, 0.165030f, -0.041847f, -0.113909f, 0.122074f, -0.088424f, -0.045005f, -0.253571f, 0.184048f, -0.080714f, 0.147177f, 0.041510f, -0.039335f, 0.196377f, -0.124475f, 0.085793f, 0.145654f, -0.070631f, -0.102103f, -0.296703f, -0.038789f, 0.093267f, -0.095159f, -0.119530f, -0.149522f, -0.375222f, 0.136575f, -0.160826f, 0.111506f, -1.379404f, -0.000346f, -0.278844f, 0.036452f, 0.084650f, -0.008141f, 0.128173f, 0.113977f, -0.065920f, -0.032499f, 0.021479f, -0.171688f, -0.177561f, -0.004209f, -0.231162f, 0.115251f, -0.018332f, -0.104610f, 0.054702f, -0.156579f, -0.086893f, -0.060228f, -0.121627f, -0.130370f, 0.131657f, -0.184217f, 0.061884f, -0.268775f, -0.143625f, 0.067566f, 0.175075f, 0.191175f, -0.177662f, -0.139661f, 0.154883f, 0.077363f, 0.134894f, 0.045253f, 0.124195f, 0.193038f, -0.013336f, 0.051315f, -0.033798f, 0.042443f, 0.129941f, -0.134119f, 0.101261f, -0.000190f, 0.185541f, -0.140303f, -0.639420f, 0.023364f, -0.871283f, -0.006640f, -0.003906f, 0.154152f, -0.397568f, -0.249195f, 0.174044f, -0.167613f, -0.110116f, 0.083992f, 0.020522f, -0.206793f, -0.069975f, -0.018243f, -0.027347f, -0.134951f, -0.096049f, 0.067034f, -0.109703f, 0.147951f, 0.190850f, 0.218684f, 0.142247f, -0.049339f, 0.081740f, -0.054072f, -0.053390f, 0.069636f, 0.025910f, 0.176129f, -0.114438f, 0.176535f, 0.200863f, -0.181611f, 0.028478f, 0.075595f, 0.177119f, -0.123455f, 0.105734f, -0.049000f, 0.222772f, -0.223190f, -0.128929f, 0.236685f, -0.020893f, -0.117184f, 0.045692f, -0.152273f, -0.230352f, -0.299476f, -0.090008f, -0.048439f, -0.042480f, 0.049398f, 0.152777f, -0.307852f, 0.202109f, -0.110287f, 0.319498f, -0.106866f, 0.049651f, -0.132953f, -0.028808f, 0.013253f, -0.181651f, -0.245843f, -0.073735f, 0.004690f, -0.169607f, -0.169800f, 0.135732f, 0.020835f, 0.144456f, -0.002041f, -0.250153f, -0.116366f, 0.191834f, 0.122866f, 0.193599f, -0.019632f, 0.050509f, 0.087294f, 0.016429f, -0.175104f, 0.028731f, -0.053385f, 0.151088f, 0.232490f, -0.297618f, 0.153018f, -0.071967f, -0.018003f, -0.127898f, 0.034049f, -0.077831f, -0.060613f, 0.126127f, 0.165583f, -0.073271f, -0.072746f, 0.289021f, 0.088295f, 0.099539f, 0.019420f, 0.118962f, -0.127953f, 0.100661f, 0.134836f, 0.118006f, -0.036478f, 0.270501f, 0.085884f, -0.036227f, -0.224992f, -0.206763f, -0.076907f, -0.378192f, -0.282402f, 0.115334f, -0.230217f, -0.056955f, 0.275495f, 0.175760f, 0.009097f, 0.186865f, -0.101982f, 0.220128f, -0.092999f, 0.084890f, 0.099397f, -0.005925f, -0.020716f, 0.164858f, -0.004539f, 0.083278f, 0.008371f, 0.132759f, -0.133767f, 0.060259f, 0.010853f, -0.000188f, -0.000132f, -0.046491f, -0.001005f, -0.006017f, 0.149294f, 0.034003f, -0.133287f, 0.066904f, -0.011009f, 0.071207f, -0.028356f, -0.054094f, 0.239052f, -0.246182f, 0.155055f, 0.189066f, 0.053402f, -0.138353f, 0.036890f, -0.098987f, 0.170127f, -0.062085f, -0.108409f, 0.204846f, 0.193652f, -0.017437f, 0.142405f, -0.037666f, 0.242302f, 0.027174f, -0.042118f, -0.132486f, 0.183575f, 0.005559f, 0.110854f, 0.053589f, 0.074811f, -0.171855f, 0.048934f, 0.325198f, 0.040621f, 0.239854f, -0.084705f, -0.028978f, -0.371829f, -0.045270f, -0.084626f, 0.081381f, -0.268867f, -0.128888f, -0.411165f, -0.048909f, 0.149981f, 0.010545f, -0.213655f, -1.578545f, 0.033233f, -0.244809f, -0.223234f, -0.374514f, -0.186381f, 0.275017f, 0.113700f, -0.638033f, 0.071979f, -0.201734f, 0.210424f, 0.131392f, 0.007768f, -0.196709f, 0.038589f, 0.045919f, 0.197503f, 0.085179f, 0.035952f, 0.068825f, 0.120254f, 0.364332f, 0.032000f, 0.033241f, -0.084708f, 0.096799f, 0.169866f, 0.164683f, 0.143211f, 0.239681f, 0.212844f, -0.100554f, -0.092497f, 0.145109f, 0.057338f, -0.048920f, 0.162382f, -0.036197f, -0.038615f, 0.248986f, 0.145349f, 0.190268f, -0.242151f, -0.079948f, -0.051122f, -0.056346f, 0.047604f, 0.072504f, -0.036587f, -0.048901f, 0.003324f, -0.020126f, -0.029102f, 0.260613f, -0.089297f, 0.075145f, -0.193033f, 0.085300f, 0.127415f, -0.187686f, 0.103752f, -0.166200f, 0.033019f, 0.092718f, -0.152134f, 0.168768f, 0.002308f, -0.089951f, 0.145295f, -0.153240f, 0.026825f, -0.127184f, -0.038347f, -0.107332f, 0.041389f, -0.038582f, 0.112041f, 0.090461f, 0.146547f, 0.159157f, 0.009113f, 0.054485f, -0.023086f, 0.115041f, 0.064095f, -0.166218f, -0.025757f, 0.198223f, -0.159664f, 0.112553f, 0.141620f, 0.078242f, -0.104450f, -0.040766f, 0.170024f, -0.150152f, -0.101863f, 0.021397f, -0.070167f, 0.257976f, -0.242214f, -0.010780f, 0.118354f, -0.086415f, 0.055818f, -0.022463f, 0.067496f, -0.049542f, 0.017355f, 0.002856f, -0.076735f, -0.017844f, 0.032593f, -0.150849f, 0.161473f, 0.002040f, 0.170643f, -0.155249f, 0.031870f, 0.172117f, 0.026270f, 0.111976f, 0.006570f, 0.035163f, 0.161896f, -0.083746f, 0.171296f, 0.200795f, -0.239499f, -0.095366f, -0.137817f, 0.122154f, -0.155071f, 0.226455f, -0.012834f, 0.201881f, -0.135106f, 0.036494f, 0.154334f, 0.050443f, -0.024614f, -0.018511f, 0.058009f, -0.055064f, -0.197881f, -0.102171f, -0.229701f, -0.123015f, -0.224235f, -0.169305f, -0.093517f, -0.198911f, 0.037312f, 0.083374f, 0.015980f, 0.131462f, 0.096162f, 0.099541f, 0.168506f, -0.056503f, 0.042746f, -0.111367f, 0.083319f, -0.210205f, 0.181405f, 0.096159f, 0.112219f, 0.083445f, -0.132259f, 0.028682f, 0.281395f, -0.115442f, 0.144548f, -0.087781f, 0.103946f, -0.039123f, -0.066433f, -0.245082f, -0.067737f, -0.326596f, -0.095374f, -0.010216f, -0.097197f, 0.017757f, -0.425822f, 0.402900f, -0.120908f, 0.200005f, 0.131107f, -0.089626f, -0.050229f, -0.025036f, -0.150283f, -0.057068f, 0.147282f, -0.079411f, 0.284046f, 0.159293f, 0.064696f, 0.239683f, 0.765674f, 0.119779f, -0.246467f, 0.214976f, -0.162524f, 0.007421f, -0.082513f, -0.056679f, -0.394332f, -0.005483f, -0.368022f, -0.040627f, -0.275919f, 0.162164f, 0.116366f, 0.054051f, -0.612223f, -0.058426f, 0.276489f, 0.290479f, -0.072696f, -0.238295f, -0.091790f, -0.221148f, 0.001570f, -0.082628f, 0.124040f, -0.052122f, -0.033592f, 0.048110f, 0.033581f, 0.031930f, -0.118285f, -0.051021f, -0.243987f, -0.121882f, 0.072767f, 0.121025f, 0.001454f, -0.300504f, -0.064204f, 0.073142f, 0.117111f, -0.303540f, 0.018825f, -0.117566f, 0.092424f, -0.013678f, -0.112619f, -0.159466f, -0.124967f, -0.072009f, -0.091023f, 0.001319f, 0.137646f, -0.253828f, 0.245257f, 0.069419f, 0.106926f, 0.181092f, -0.043175f, -0.039386f, 0.114405f, -0.008675f, -0.209933f, -0.153814f, 0.001335f, 0.146210f, 0.098486f, 0.126318f, 0.013574f, -0.076378f, 0.067670f, -0.136014f, -0.240602f, 0.194452f, -0.061373f, 0.057165f, 0.079024f, -0.680976f, -0.150644f, -0.126184f, -0.119771f, -0.037970f, -0.057610f, 0.094699f, 0.125074f, -0.096178f, -0.110204f, -0.094986f, 0.073208f, -0.132816f, -0.044197f, 0.048371f, -0.016479f, -0.175219f, -0.153875f, -0.592741f, 0.202412f, -0.104715f, -0.076017f, -0.158909f, 0.100517f, -0.151131f, 0.006487f, -0.157527f, -0.032031f, -0.130474f, -0.038764f, -0.102292f, -0.137152f, 0.140095f, -0.197498f, -0.072736f, -0.086302f, -0.233289f, 0.143645f, -0.007540f, -0.154259f, 0.018333f, -0.074849f, 0.101437f, -0.075275f, 0.140326f, 0.067942f, 0.051109f, -0.019718f, -0.197075f, -0.038832f, 0.178927f, -0.174073f, -0.045970f, 0.110884f, 0.011279f, -0.034238f, -0.107163f, 0.022965f, 0.007710f, -0.015890f, 0.109541f, 0.098317f, -0.115275f, 0.224609f, 0.225729f, -0.044981f, -0.158708f, 0.342104f, -0.006955f, -0.000074f, -0.201545f, 0.138994f, -0.081859f, 0.039260f, -0.126424f, -0.128342f, 0.011311f, -0.196470f, -0.072785f, -0.008089f, 0.189738f, -0.459111f, -0.170698f, 0.337528f, 0.123022f, -0.491463f, -0.042151f, -0.047740f, 0.119028f, 0.271720f, -0.131099f, -0.002450f, 0.013789f, -0.059228f, -0.402243f, -0.307112f, -0.390266f, -0.092074f, -0.023483f, -0.494250f, -0.071453f, -0.031961f, -0.226220f, -0.560931f, -0.180738f, 0.123678f, -0.304194f, 0.192716f, -0.016088f, -0.050252f, -0.483228f, -0.042062f, -0.238946f, -0.375714f, -0.061509f, -0.115382f, -0.172794f, -0.245747f, -0.189481f, -0.111868f, -0.176172f, -0.000989f, -0.436480f, -0.175387f, -0.087901f, -0.020271f, -0.253893f, -0.003280f, -0.166706f, -0.003928f, -0.047791f, -0.037704f, -0.273544f, -0.002763f, -0.056493f, -0.130282f, 0.124235f, 0.020475f, 0.151416f, -0.052199f, 0.259665f, -0.043316f, -0.042480f, 0.157101f, 0.069761f, -0.039309f, -0.025104f, -0.078400f, -0.026284f, -0.173096f, -0.032409f, -0.075246f, 0.038875f, -0.158459f, 0.033778f, -0.055594f, -0.019962f, 0.089140f, -0.022473f, 0.081997f, -0.091829f, 0.200481f, 0.104943f, 0.105015f, -0.305570f, -0.074983f, 0.091900f, -0.106928f, 0.136898f, 0.030154f, -0.048685f, 0.113456f, 0.087229f, 0.099277f, -0.359099f, -0.287947f, 0.120817f, 0.101238f, 0.252858f, 0.050200f, -0.135116f, 0.246066f, -0.115994f, -0.229390f, -0.039133f, -0.335504f, 0.044281f, 0.102773f, 0.042077f, 0.062117f, -0.004309f, -0.114864f, -0.074485f, 0.046857f, 0.033844f, -0.169623f, -0.128009f, 0.006353f, -0.179915f, -0.118951f, -0.117228f, -0.166680f, -0.028580f, 0.101813f, 0.172074f, 0.237822f, -0.065056f, 0.134751f, -0.025722f, -0.128539f, -0.159378f, -0.022440f, -0.067848f, -0.122048f, -0.073461f, 0.178724f, 0.015148f, 0.142710f, 0.080235f, -0.065053f, 0.154187f, 0.062509f, -0.047795f, 0.030446f, 0.136899f, -0.135313f, -0.167954f, -0.120975f, 0.062444f, 0.193203f, 0.140575f, -0.144499f, 0.145600f, 0.052382f, 0.136652f, 0.180997f, 0.098536f, 0.011352f, 0.116375f, 0.123102f, 0.093982f, 0.191950f, 0.182715f, 0.222702f, -0.097925f, -0.192597f, 0.002636f, 0.014293f, 0.046415f, 0.110674f, -0.254029f, 0.209845f, -0.319737f, 0.102184f, 0.025637f, 0.033167f, -0.006687f, -0.060576f, -0.001026f, 0.205486f, -0.093625f, 0.139023f, 0.004940f, 0.140774f, 0.075411f, -0.095220f, 0.047895f, 0.034067f, 0.216845f, -0.126206f, -0.207780f, -0.176246f, -0.098125f, 0.115369f, -0.059395f, -0.009480f, 0.059078f, -0.054180f, -0.223511f, 0.105754f, -0.024651f, -0.041446f, -0.154104f, 0.035110f, -0.163003f, 0.027144f, -0.162323f, 0.229005f, 0.033558f, 0.021326f, -0.083060f, 0.051768f, 0.201285f, -0.018687f, 0.097141f, -0.054908f, 0.224733f, 0.231735f, -0.371385f, 0.332568f, -0.113952f, -0.206859f, 0.078851f, 0.020774f, -0.089692f, 0.221488f, 0.033597f, -0.408774f, 0.077770f, -0.085255f, 0.325108f, -0.104473f, -0.387934f, -0.211883f, -0.215459f, 0.170995f, -0.064371f, 0.028400f, -0.109807f, -0.327530f, -0.178581f, 0.051571f, -0.237964f, -0.132023f, -0.039764f, 0.108152f, -0.215700f, -0.233383f, -0.292838f, 0.056213f, -0.211523f, 0.056114f, -0.109440f, -0.062242f, -0.015171f, -0.214345f, -0.068279f, -0.069850f, 0.131688f, 0.020081f, -0.101651f, -0.159522f, 0.029517f, -0.102320f, 0.248893f, -0.046311f, 0.033106f, -0.026158f, -0.086452f, -0.088835f, 0.106437f, -0.171113f, 0.014264f, -0.185836f, -0.091658f, -0.176468f, 0.033244f, 0.156643f, -0.073011f, -0.126682f, 0.201360f, -0.021220f, -0.107008f, 0.196204f, 0.228893f, -0.024489f, -0.110070f, 0.042827f, 0.127319f, -0.034119f, 0.007343f, -0.182687f, -0.160939f, 0.076939f, -0.172987f, -0.076926f, 0.101926f, -0.135654f, -0.250749f, -0.136957f, -0.179874f, -0.080601f, -0.076192f, -0.233623f, 0.008204f, 0.067250f, -0.098191f, 0.085350f, 0.032498f, -0.198125f, -0.183530f, 0.040727f, 0.188101f, -0.014022f, 0.100869f, -0.091823f, 0.088187f, -0.263760f, -0.220803f, -0.075645f, 0.037564f, -0.061142f, 0.122719f, -0.089616f, -0.181105f, 0.041762f, 0.031849f, -0.057813f, 0.126011f, 0.082276f, -0.097861f, -0.103545f, -0.047936f, 0.115653f, 0.199176f, 0.237623f, -0.086938f, 0.042951f, 0.000440f, 0.024925f, -0.069281f, -0.111345f, 0.114330f, -0.130861f, 0.224795f, 0.054570f, -0.015483f, 0.056414f, 0.153122f, -0.061752f, 0.171927f, 0.084706f, -0.370458f, -0.020549f, 0.029621f, 0.013928f, -0.068745f, -0.175076f, 0.019839f, -0.161041f, 0.025750f, 0.014387f, -0.048149f, -0.075232f, -0.143856f, -0.117098f, 0.086773f, -0.020600f, -0.193343f, -0.064303f, -0.193879f, 0.085604f, -0.102150f, -0.024436f, 0.001391f, 0.023231f, -0.054531f, 0.237817f, 0.014730f, 0.099363f, -0.060148f, 0.089640f, 0.016555f, -0.136308f, -0.029814f, -0.006429f, -0.190187f, 0.002369f, -0.118402f, 0.076476f, -0.096928f, -0.129358f, 0.000140f, 0.136581f, -0.178695f, -0.135445f, -0.003000f, 0.159576f, 0.015452f, 0.108770f, -0.163726f, 0.056817f, 0.141294f, -0.116390f, -0.182805f, -0.019056f, -0.044735f, 0.011035f, -0.174835f, -0.154300f, 0.062342f, 0.131379f, 0.147008f, 0.144954f, -0.226726f, -0.188921f, -0.100596f, 0.063258f, 0.116543f, -0.344131f, 0.080182f, -0.138141f, 0.230974f, -0.098837f, -0.319895f, 0.054803f, 0.062685f, 0.120202f, -0.241395f, -0.061767f, -0.201599f, 0.029189f, -0.108752f, -0.022047f, -0.024317f, 0.145313f, 0.204793f, 0.035215f, -0.000070f, 0.069266f, -0.124247f, 0.018055f, -0.468985f, -0.089044f, -0.048300f, -0.449066f, -0.207744f, -0.431104f, 0.075032f, 0.338030f, 0.269914f, -0.130109f, -0.491400f, -0.057396f, -0.190267f, -0.218104f, -0.353760f, -0.061890f, 0.521644f, 0.061870f, -0.083694f, -0.055676f, 0.097727f, 0.120897f, -0.058805f, -0.635291f, -0.196540f, 0.085180f, -0.099283f, -0.004099f, -0.073809f, 0.145358f, -0.080402f, 0.008039f, -0.037849f, 0.013207f, -0.165342f, -0.066344f, -0.062542f, -0.032665f, -0.126253f, -0.033421f, 0.128805f, 0.244996f, -0.027969f, 0.084509f, -0.127213f, -0.212177f, -0.102553f, 0.257725f, 0.121280f, -0.178719f, -0.151045f, -0.008161f, -0.204798f, -0.066715f, 0.085068f, 0.087932f, 0.099390f, 0.120685f, 0.050917f, 0.083479f, -0.047040f, -0.295461f, 0.205585f, 0.018988f, -0.356509f, 0.137006f, -0.044923f, -0.032541f, -0.131580f, -0.163044f, -0.098969f, 0.162405f, -0.150776f, -0.093258f, -0.036069f, 0.114452f, 0.151181f, 0.221237f, -0.197265f, -0.108223f, 0.265961f, -0.118480f, -0.013707f, 0.090703f, -0.086903f, 0.073174f, -0.041088f, -0.157272f, 0.042156f, -0.076137f, 0.090404f, 0.079380f, 0.067702f, 0.091264f, -0.128308f, -0.057058f, 0.012320f, -0.093450f, 0.128598f, 0.062771f, -0.200357f, 0.199761f, -0.104192f, 0.256881f, 0.090246f, 0.041663f, -0.054527f, 0.083303f, -0.145479f, -0.207988f, -0.075399f, -0.058608f, -0.371164f, 0.019784f, 0.026127f, 0.051620f, -0.018064f, -0.100478f, 0.026463f, 0.134285f, -0.412220f, -0.243074f, 0.072982f, 0.131109f, -0.163930f, -0.042598f, -0.004030f, -0.048289f, 0.160987f, 0.051107f, 0.273390f, -0.003286f, 0.219478f, -0.014148f, 0.067589f, 0.101775f, 0.141467f, -0.067423f, 0.010826f, 0.089495f, 0.014956f, 0.206782f, 0.234208f, -0.089603f, -0.089857f, 0.140844f, 0.142552f, 0.057825f, 0.210713f, -0.071112f, -0.097932f, 0.014061f, -0.043249f, -0.025936f, -0.113997f, 0.120372f, -0.280149f, 0.178634f, -0.147766f, -0.266532f, 0.065686f, -0.058867f, -0.219568f, 0.196314f, -0.215472f, 0.301432f, -0.179519f, -0.218983f, -0.105655f, -0.087263f, 0.059570f, -0.164901f, -0.081708f, 0.113044f, -0.069213f, -0.674556f, -0.024294f, -0.180445f, 0.176626f, 0.166503f, -0.038802f, -0.207929f, 0.119625f, -0.611690f, -0.129618f, -0.113583f, 0.192965f, 0.099324f, -0.148789f, 0.195342f, -0.025414f, -0.077258f, -0.282095f, -0.983492f, 0.472076f, 0.034459f, -0.078042f, -0.216736f, -0.070164f, -0.205562f, 0.105739f, -0.022439f, -0.036859f, -0.179254f, 0.383576f, -0.091850f, -0.196033f, -0.022756f, 0.061307f, -0.189901f, -0.143480f, -0.092987f, 0.078363f, -0.056707f, -0.102971f, 0.117420f, -0.155109f, -0.028062f, 0.088434f, 0.200157f, 0.110194f, -0.103806f, -0.126820f, -0.089549f, 0.209855f, -0.120738f, 0.192249f, -0.042171f, -0.213897f, 0.130514f, 0.170685f, -0.218158f, -0.077146f, 0.187859f, -0.041440f, -0.241960f, 0.008348f, 0.129554f, -0.128217f, 0.229173f, 0.095358f, -0.129550f, -0.296721f, 0.195832f, -0.141329f, -0.061317f, 0.294693f, -0.221338f, -0.734932f, -0.012477f, -0.059285f, -0.226430f, 0.296652f, -0.067152f, 0.024984f, 0.135894f, 0.231662f, -0.065514f, -0.124460f, -0.217975f, 0.235068f, 0.106865f, -0.030848f, -0.835286f, -0.162143f, 0.003560f, -0.306587f, -0.131976f, -0.177347f, -0.246157f, -0.010080f, -0.024516f, -0.023738f, 0.132156f, -0.013608f, -0.045830f, 0.019392f, -0.000867f, -0.002187f, 0.123447f, 0.108566f, -0.205864f, 0.188680f, -0.052124f, 0.009040f, 0.103082f, 0.059168f, -0.092846f, -0.188961f, 0.075180f, -0.221134f, -0.096747f, 0.243289f, 0.212342f, -0.167176f, 0.104109f, 0.183349f, 0.229224f, -0.142900f, -0.029187f, 0.167282f, 0.097070f, 0.057616f, 0.087291f, -0.106392f, -0.166329f, 0.143037f, -0.079058f, -0.005690f, 0.066322f, 0.063534f, -0.157180f, 0.137355f, -0.050014f, 0.115963f, 0.186712f, -0.040310f, -0.092688f, -0.006121f, -0.015253f, -0.122166f, 0.042508f, 0.146990f, -0.081298f, -0.250686f, 0.090310f, -0.063064f, -0.211424f, 0.103085f, -0.153935f, 0.150844f, 0.048351f, -0.055880f, -0.094404f, -0.158092f, 0.086040f, 0.110218f, -0.164416f, -0.246235f, -0.022348f, 0.156720f, 0.113733f, -0.102436f, -0.154860f, -0.004821f, -0.152259f, -0.246779f, -0.007931f, 0.178720f, -0.062531f, -0.063026f, -0.032304f, 0.106232f, 0.071754f, -0.037391f, -0.056604f, 0.056904f, -0.000111f, -0.126178f, 0.128371f, 0.139126f, -0.166163f, -0.125180f, -0.211932f, -0.024860f, -0.005665f, -0.058061f, 0.059950f, -0.194681f, -0.214807f, 0.248722f, -0.115777f, -0.015586f, 0.280870f, 0.230158f, -0.036370f, -0.175931f, 0.051743f, -0.125411f, -0.328720f, 0.094812f, 0.091930f, -0.106112f, 0.249658f, 0.221412f, -0.029519f, -0.565487f, -0.243198f, -0.349533f, -0.144809f, 0.017696f, 0.155183f, 0.031805f, -0.196888f, -0.013706f, -0.004523f, -0.391687f, 0.065334f, -0.179345f, 0.058650f, -0.154191f, 0.183533f, 0.116348f, 0.045961f, 0.083894f, -0.039074f, 0.183205f, 0.204083f, 0.225874f, -0.039618f, -0.138700f, -0.159453f, -0.127150f, -0.003171f, -0.235181f, -0.086620f, -0.132708f, -0.176936f, -0.120032f, 0.057705f, 0.000262f, -0.071171f, 0.205718f, 0.219495f, -0.070235f, 0.179801f, -0.145305f, 0.051591f, -0.032593f, 0.207755f, 0.126117f, -0.097549f, -0.053148f, -0.105950f, -0.000605f, 0.095714f, -0.209248f, -0.053839f, 0.220479f, 0.235725f, 0.070208f, 0.077043f, -0.065132f, 0.129012f, 0.025314f, 0.057803f, -0.175422f, 0.137727f, 0.185918f, 0.044071f, 0.089167f, -0.121284f, 0.058330f, -0.190424f, 0.071544f, -0.164463f, 0.100934f, -0.020345f, -0.081052f, 0.136000f, -0.033607f, 0.148301f, -0.153420f, 0.220756f, 0.222162f, -0.103144f, 0.191871f, 0.178734f, 0.009454f, -0.019467f, -0.034358f, 0.177644f, -0.110092f, 0.215833f, -0.028209f, 0.177319f, 0.324173f, -0.384882f, 0.003210f, 0.053078f, -0.058605f, -0.238912f, -0.532014f, 0.170789f, -0.131007f, -0.036690f, 0.010994f, -0.018270f, -0.033216f, -0.637238f, 0.004322f, -0.128244f, -0.116581f, -0.086731f, -0.002851f, -0.144439f, -0.025500f, -0.141149f, 0.087865f, -0.023353f, 0.021493f, -0.124593f, 0.052487f, -0.100757f, 0.054790f, -0.504701f, -0.269764f, -0.049514f, 0.053980f, -0.188048f, 0.087760f, 0.070829f, -0.017773f, 0.026929f, -0.059181f, -0.053189f, 0.170808f, -0.049103f, 0.387307f, -0.001318f, -0.075146f, -0.010699f, -0.077280f, -0.175943f, -0.091704f, -1.220974f, -0.131631f, -0.003712f, -0.064049f, 0.021871f, -0.011725f, -0.068008f, -0.068935f, 0.174841f, 0.008879f, -0.078141f, -0.058517f, 0.195694f, -0.130440f, -0.128764f, -0.094388f, 0.103676f, 0.070361f, 0.066580f, 0.090129f, 0.024374f, -0.051483f, -0.155600f, 0.227867f, -0.059333f, 0.056003f, 0.132333f, -0.174994f, 0.234865f, 0.098247f, -0.153735f, 0.119609f, 0.185866f, -0.008306f, 0.077319f, -0.241060f, 0.286063f, -0.112293f, -0.000090f, 0.118444f, 0.214846f, -0.047917f, -0.216986f, -0.220580f, 0.098256f, -0.111500f, 0.113583f, 0.230389f, 0.170278f, -0.016945f, 0.543473f, -0.102402f, -0.215950f, -0.116900f, -0.253291f, -0.107769f, -0.939296f, 0.021920f, -0.025977f, -0.104007f, -0.178544f, 0.087613f, -0.020516f, 0.159449f, 0.092515f, -0.134158f, 0.178500f, 0.094084f, -0.054794f, -0.151554f, -0.086990f, -0.089480f, 0.104484f, 0.057122f, 0.220703f, -0.241504f, 0.018692f, -0.241071f, 0.198284f, 0.060266f, -0.031237f, 0.005348f, -0.173621f, -0.102808f, -0.104377f, -0.160476f, -0.120639f, 0.075773f, 0.019904f, -0.235549f, -0.095027f, -0.062810f, 0.056141f, 0.073359f, 0.028486f, 0.183112f, -0.172814f, -0.001027f, -0.109513f, -0.078855f, -0.169076f, -0.129448f, 0.250955f, 0.062299f, -0.230252f, 0.150184f, -0.157893f, 0.122211f, -0.024499f, 0.136605f, -0.201473f, -0.033408f, -0.114186f, -0.211735f, -0.059236f, 0.133885f, 0.127902f, 0.182269f, -0.198905f, 0.016540f, -0.119103f, 0.015789f, -0.073538f, -0.094206f, 0.198986f, -0.081065f, 0.139183f, -0.160160f, -0.258729f, -0.253804f, 0.053670f, -0.103486f, 0.066151f, -0.241486f, -0.090944f, 0.090153f, 0.084909f, 0.229313f, 0.097273f, -0.374200f, 0.054218f, -0.265726f, -0.407016f, -0.276293f, -0.067439f, -0.189835f, -0.015899f, -0.132616f, -0.125361f, -0.415953f, -0.227316f, -0.281919f, -0.119611f, 0.455767f, -0.001869f, 0.376338f, 0.134221f, -0.121533f, -0.018804f, -0.039562f, 0.001799f, 0.005411f, -0.377058f, -0.648557f, 0.006903f, -0.043325f, -0.006030f, 0.036683f, 0.027547f, 0.213130f, 0.140571f, 0.002764f, -0.086158f, -0.570215f, 0.206592f, -0.008761f, 0.126367f, 0.069149f, 0.051245f, -0.063292f, 0.003410f, -0.242904f, 0.169243f, 0.028449f, -0.154437f, 0.179620f, -0.175050f, -0.135475f, 0.033610f, 0.166170f, -0.141507f, -0.110709f, 0.132362f, 0.177847f, 0.162594f, 0.416723f, -0.076657f, -0.125046f, -0.053514f, -0.102169f, 0.446570f, 0.169303f, 0.204500f, -0.168266f, -0.017382f, -0.002697f, -0.142754f, 0.125031f, 0.036679f, -0.612801f, -0.474477f, -1.124873f, -0.122109f, 0.344271f, -0.196367f, -0.122926f, 0.148620f, 0.226729f, -0.673176f, 0.115798f, -0.180654f, 0.154597f, -0.067684f, -0.291030f, -0.132729f, -0.164420f, -0.238315f, 0.101681f, 0.003535f, 0.032832f, -0.193534f, -0.099041f, -0.230261f, -0.009597f, 0.275171f, -0.028663f, -0.209537f, -0.012364f, 0.128173f, -0.011234f, 0.050187f, 0.183597f, -0.212524f, -0.386913f, 0.086506f, -0.080440f, -0.004039f, 0.046973f, -0.173057f, -0.045740f, -0.038092f, -0.048847f, -0.079320f, 0.151553f, 0.248932f, -0.051937f, -0.213614f, 0.249170f, 0.118348f, -0.078591f, 0.115955f, 0.188937f, 0.176659f, 0.069180f, 0.101071f, 0.133763f, 0.122231f, -0.054336f, 0.029796f, -0.073976f, -0.186290f, -0.250381f, -0.216699f, 0.107800f, 0.027972f, 0.145386f, -0.151698f, -0.243663f, 0.091808f, -0.196857f, -0.056513f, -0.184237f, -0.192029f, -0.182897f, -0.121886f, -0.152282f, 0.186670f, 0.111889f, 0.113592f, 0.063126f, 0.061341f, 0.012246f, -0.166784f, -0.188688f, -0.031311f, 0.243328f, 0.168883f, -0.118331f, 0.034154f, -0.001640f, -0.194700f, -0.073678f, 0.130374f, -0.302511f, 0.172701f, 0.199233f, 0.099330f, -0.006490f, 0.035219f, 0.091800f, 0.140536f, -0.216083f, 0.084211f, -0.272884f, 0.016175f, 0.087541f, -0.019410f, -0.160670f, 0.088515f, -0.066992f, 0.251883f, 0.106410f, -0.014076f, 0.217777f, 0.124562f, 0.244090f, -0.103249f, -0.119753f, -0.084578f, -0.107569f, -0.049143f, 0.000967f, -0.034193f, 0.029142f, -0.029043f, -0.609491f, 0.004864f, -0.011263f, -0.079853f, 0.115943f, -0.027426f, -0.082216f, -0.385091f, 0.000190f, -0.078988f, 0.054107f, -0.046545f, -0.091859f, 0.124218f, 0.244475f, -0.088762f, -0.129815f, -0.175306f, 0.086499f, -0.161667f, 0.048759f, -0.145946f, 0.176176f, -0.122087f, 0.042395f, -0.245469f, -0.067042f, -0.073237f, 0.079127f, 0.080319f, 0.190185f, -0.230166f, 0.192751f, 0.077912f, -0.058206f, 0.097237f, -0.116672f, -0.152705f, 0.002838f, -0.018967f, -0.084747f, -0.013480f, -0.069854f, 0.162447f, -0.222584f, 0.141145f, 0.221622f, -0.065564f, 0.214071f, -0.102110f, 0.075450f, 0.026264f, -0.035073f, -0.186809f, 0.122807f, -0.191192f, 0.001556f, 0.065853f, 0.079525f, -0.054279f, 0.101514f, -0.033124f, 0.024569f, 0.149652f, -0.026832f, -0.082489f, -0.011035f, 0.189615f, -0.019044f, -0.086135f, -0.239003f, 0.057901f, 0.129409f, -0.119174f, -0.084696f };
static float MLP_buf1[100];
static float MLP_buf2[100];
static const EmlNetLayer MLP_layers[2] = { 
{ 100, 7, MLP_layer_0_weights, MLP_layer_0_biases, EmlNetActivationRelu }, 
{ 27, 100, MLP_layer_1_weights, MLP_layer_1_biases, EmlNetActivationSoftmax } };
static EmlNet MLP = { 2, MLP_layers, MLP_buf1, MLP_buf2, 100 };

    int32_t
    MLP_predict(const float *features, int32_t n_features)
    {
        return eml_net_predict(&MLP, features, n_features);
    }
    

    int32_t
    MLP_regress(const float *features, int32_t n_features, float *out, int32_t out_length)
    {
        return eml_net_regress(&MLP, features, n_features, out, out_length);
    }
    

    float
    MLP_regress1(const float *features, int32_t n_features)
    {
        return eml_net_regress1(&MLP, features, n_features);
    }
    