
#include <eml_net.h>
static const float MLP_layer_0_biases[100] = { -0.363829f, -0.069283f, 0.272979f, 0.154756f, -0.143721f, -0.294765f, -0.324182f, 0.706839f, 0.132544f, -0.261187f, -0.067816f, 0.268808f, -0.371396f, -0.129183f, 0.409944f, 0.049075f, -0.339568f, 0.021805f, -0.251032f, 0.060520f, -0.196634f, -0.028968f, -0.243919f, -0.646972f, -0.184304f, -0.053503f, 0.203889f, 0.106520f, -0.150440f, 0.216375f, 0.235684f, 0.148992f, -0.225220f, -0.145349f, -0.139179f, 0.021285f, 0.106602f, 0.340016f, 0.554956f, 0.112091f, 0.261360f, 0.158518f, -0.394122f, -0.196811f, 0.367856f, 0.868664f, 0.008757f, 0.052578f, 0.079215f, 0.279043f, -0.280514f, 0.214478f, -0.253666f, -0.279730f, 0.032808f, 0.141829f, -0.021190f, 0.347970f, -0.441056f, -0.000448f, -0.450783f, 0.100806f, 0.165135f, 0.407592f, 0.109212f, 0.067831f, -0.243930f, 0.213610f, -0.093173f, 0.036749f, -0.059182f, 0.236116f, 0.037643f, 0.342436f, 0.083934f, 0.419033f, 0.233545f, 0.041972f, 0.106327f, -0.033152f, -0.106838f, -0.545249f, 0.150945f, -0.278664f, 0.246442f, 0.396579f, -0.004763f, 0.001699f, -0.023543f, -0.123834f, -0.075083f, -0.400006f, 0.056448f, 0.175101f, 0.164870f, -0.124200f, -0.110189f, -0.138932f, 0.128734f, -0.280720f };
static const float MLP_layer_0_weights[700] = { -0.014978f, 0.104309f, -0.077885f, -0.127934f, 0.132263f, 0.195972f, 0.302496f, -0.497808f, 0.084154f, 0.133560f, 0.030588f, -0.222072f, 0.091374f, 0.183281f, 0.068563f, -0.061862f, 0.182408f, -0.180045f, 0.077561f, 0.239131f, -0.129628f, -0.308648f, 0.156446f, 0.188203f, 0.190997f, 0.161892f, -0.099690f, 0.156461f, 0.085065f, -0.069306f, -0.255433f, 0.221086f, -0.202072f, 0.209765f, 0.105685f, 0.264790f, 0.112762f, -0.093991f, 0.054875f, -0.185782f, -0.166059f, -0.246404f, 0.245906f, 0.252520f, -0.226684f, -0.162778f, -0.134587f, -0.121904f, -0.433434f, 0.223123f, 0.188716f, 0.169508f, 0.153072f, -0.153661f, -0.101338f, 0.168454f, 0.053096f, 0.140679f, -0.256536f, 0.025142f, 0.231518f, -0.263168f, 0.054502f, 0.081972f, 0.139380f, 0.026092f, 0.200215f, -0.231610f, 0.090950f, 0.049106f, 0.179194f, -0.092824f, -0.131314f, -0.218521f, 0.242427f, -0.110226f, -0.012585f, 0.183573f, -0.156514f, 0.116070f, -0.136648f, -0.008924f, -0.074051f, -0.054850f, -0.036756f, -0.039732f, -0.072594f, 0.154050f, -0.143570f, 0.158550f, 0.001523f, -0.162559f, 0.164846f, -0.044988f, -0.192354f, -0.092964f, -0.146131f, 0.067722f, 0.134163f, -0.037359f, 0.178308f, 0.062681f, 0.203039f, 0.187442f, 0.216967f, 0.126933f, -0.152276f, 0.188999f, 0.199514f, 0.084599f, 0.221147f, 0.174007f, -0.108281f, 0.164325f, -0.529849f, 0.127042f, 0.228052f, 0.168056f, -0.340824f, -0.095747f, 0.162496f, 0.108144f, 0.184816f, 0.178853f, 0.376805f, -0.184979f, -0.018907f, 0.047372f, 0.063271f, 0.099862f, -0.347187f, 0.300300f, 0.013005f, -0.068049f, -0.605466f, -0.135686f, -0.107553f, 0.288176f, -1.069165f, 0.149682f, 0.067770f, -0.415405f, -0.129334f, -0.082688f, -0.034718f, 0.197740f, 0.155285f, -0.125711f, -0.107989f, -0.207660f, 0.123661f, 0.021019f, -0.152549f, -0.184857f, 0.001060f, 0.180090f, 0.288733f, 0.083374f, 0.174147f, 0.045846f, 0.199414f, 0.000584f, -0.194577f, 0.138920f, 0.114556f, -0.091681f, 0.184539f, -0.364230f, -0.015880f, -0.070881f, -0.033767f, 0.116152f, -0.131207f, 0.198047f, 0.094581f, 0.267078f, -0.154985f, -0.254420f, -0.020746f, 0.112797f, 0.190170f, -0.182466f, 0.292957f, 0.262132f, 0.076299f, -0.255410f, -0.090180f, 0.083996f, 0.063840f, -0.142684f, 0.205230f, -0.255388f, 0.228461f, 0.153683f, 0.146897f, -0.005063f, 0.203662f, 0.049268f, -0.000302f, 0.122549f, 0.192860f, 0.172526f, 0.109907f, -0.132461f, 0.184787f, -0.037244f, -0.237243f, 0.127852f, 0.157285f, -0.098151f, 0.076009f, -0.222244f, -0.217384f, -0.098429f, 0.001279f, 0.076951f, -0.232879f, -0.164314f, 0.237667f, -0.095619f, -0.199041f, 0.123181f, -0.075163f, -0.360986f, -0.187663f, -0.077299f, -0.047444f, 0.095396f, -0.187997f, 0.146137f, 0.051538f, -0.138915f, -0.061963f, 0.164835f, -0.352940f, 0.092858f, -0.048765f, -0.163997f, -0.277343f, 0.111613f, -0.043577f, -0.306058f, -0.362473f, 0.006326f, 0.200607f, -0.273738f, 0.188276f, 0.118736f, 0.106897f, -0.018062f, 0.208225f, -0.141869f, 0.115028f, -0.104329f, -0.136193f, -0.075174f, 0.122020f, 0.018436f, -0.106843f, 0.234615f, 0.097219f, -0.011410f, 0.146283f, -0.211593f, 0.101079f, 0.011006f, -0.077634f, -0.081416f, 0.309115f, 0.109377f, -0.103309f, -0.139819f, 0.112727f, -0.039092f, 0.102407f, 0.240568f, -0.270606f, -0.079169f, -0.156725f, 0.066796f, 0.176196f, 0.204804f, -0.154509f, 0.199540f, 0.243870f, 0.221748f, 0.051188f, 0.083263f, -0.085972f, 0.246057f, 0.078605f, 0.008260f, -0.033759f, -0.023272f, -0.083034f, 0.104297f, -0.167704f, -0.106055f, -0.133319f, -0.186517f, -0.069496f, 0.019986f, -0.186457f, 0.277469f, 0.090782f, -0.146002f, -0.071328f, 0.137461f, -0.040807f, -0.011850f, -0.274542f, -0.001339f, 0.098703f, -0.120327f, -0.213948f, 0.009980f, -0.110144f, -0.178623f, -0.012622f, -0.129254f, -0.171948f, -0.167024f, 0.048813f, -0.636611f, -0.155670f, -0.017049f, 0.054812f, -0.000803f, -0.160503f, -0.056829f, 0.119115f, -0.252943f, -0.106285f, -0.155909f, -0.015259f, 0.079922f, 0.179770f, 0.109772f, -0.123340f, 0.025108f, -0.237801f, 0.203560f, -0.161658f, 0.017048f, -0.136217f, 0.158092f, -0.149232f, 0.037237f, 0.032001f, -0.081621f, -0.131420f, 0.064979f, 0.214453f, -0.176994f, 0.135695f, -0.147732f, -0.146618f, 0.137778f, -0.031291f, 0.075084f, -0.270192f, 0.131176f, -0.048624f, -0.226236f, 0.060140f, 0.063898f, -0.211272f, -0.188548f, -0.022943f, 0.121322f, 0.155837f, 0.115005f, 0.075172f, -0.091833f, -0.142735f, -0.234033f, 0.029050f, -0.024055f, 0.240499f, 0.185641f, 0.036016f, 0.080770f, 0.176917f, -0.122398f, 0.050262f, 0.028542f, -0.000555f, 0.242702f, 0.070620f, 0.002551f, 0.189613f, 0.155365f, -0.126174f, 0.189591f, -0.278496f, 0.096112f, 0.092245f, -0.166062f, 0.214497f, 0.020125f, 0.046169f, 0.019127f, -0.135375f, 0.221139f, -0.310104f, -0.010061f, -0.143730f, 0.018171f, 0.121115f, -0.102735f, 0.134502f, 0.207643f, -0.093132f, -0.113484f, 0.167735f, -0.231024f, 0.089429f, 0.070301f, 0.022050f, 0.247358f, 0.003131f, 0.157048f, 0.043200f, 0.249258f, 0.177283f, 0.026911f, -0.133352f, -0.034662f, 0.152457f, -0.317118f, 0.099573f, 0.120475f, 0.229799f, 0.051757f, -0.081317f, -0.060383f, 0.089969f, 0.038632f, -0.021000f, 0.129898f, 0.051961f, 0.071160f, -0.001240f, -0.215450f, -0.114694f, -0.026557f, 0.252741f, 0.194088f, 0.066150f, 0.156631f, 0.203717f, -0.011064f, -0.205740f, 0.292098f, 0.246907f, 0.010120f, -0.208032f, 0.025127f, 0.159540f, -0.274346f, 0.172008f, 0.156223f, 0.012480f, -0.066823f, 0.123700f, -0.580853f, 0.186054f, 0.052871f, -0.122409f, -0.102020f, 0.088323f, 0.005601f, 0.168057f, 0.194405f, -0.050038f, 0.226524f, 0.194179f, -0.005153f, 0.175145f, -0.178819f, -0.103974f, -0.099359f, -0.121703f, 0.003008f, 0.196401f, 0.128240f, 0.013298f, -0.092774f, 0.065767f, -0.280530f, -0.042140f, 0.163065f, -0.274377f, -0.048255f, -0.178077f, 0.161220f, -0.047633f, 0.147641f, -0.179174f, 0.047435f, 0.015258f, 0.142434f, -0.145869f, 0.153116f, 0.137244f, -0.131757f, 0.229045f, 0.083602f, 0.197340f, -0.275410f, -0.053248f, 0.094382f, 0.092875f, -0.234454f, -0.151228f, -0.194763f, 0.017536f, -0.136615f, 0.085740f, 0.082818f, -0.129753f, -0.001490f, 0.153665f, -0.105245f, 0.035778f, -0.150920f, -0.008714f, -0.162897f, 0.118593f, -0.206895f, 0.033383f, -0.178160f, 0.087642f, -0.095684f, 0.240512f, 0.161322f, -0.099734f, 0.035418f, 0.254698f, -0.159830f, 0.248670f, -0.052148f, 0.062960f, -0.134197f, -0.103177f, -0.000141f, -0.032142f, -0.131043f, -0.175593f, 0.150307f, 0.122140f, -0.104932f, -0.087265f, -0.250929f, 0.117110f, -0.094801f, 0.115460f, -0.104790f, -0.106831f, 0.114101f, -0.018125f, -0.127554f, 0.206721f, -0.199410f, -0.116205f, -0.154187f, 0.157878f, 0.156424f, 0.179725f, -0.154720f, 0.148660f, -0.070948f, 0.094203f, 0.246083f, 0.183591f, 0.156859f, 0.100780f, -0.136482f, -0.098063f, 0.196189f, -0.009042f, 0.152109f, 0.218212f, 0.079659f, -0.143186f, 0.034113f, -0.100947f, 0.023304f, -0.177355f, 0.048901f, -0.024257f, 0.031217f, 0.083767f, -0.215023f, -0.183414f, -0.076738f, -0.163776f, -0.191910f, -0.208130f, -0.158153f, 0.005131f, 0.318585f, -0.312483f, -0.024607f, 0.016495f, -0.153718f, 0.296325f, -0.357404f, 0.006930f, 0.046023f, 0.059944f, 0.193646f, 0.196415f, -0.121170f, 0.068790f, 0.159095f, -0.076994f, 0.313302f, 0.091781f, 0.003667f, 0.036186f, -0.107582f, 0.038776f, 0.164804f, -0.004309f, -0.223793f, -0.181020f, -0.206207f, -0.228126f, -0.374470f, 0.034957f, -0.111967f, 0.179092f, 0.089202f, -0.288973f, -0.307863f, -0.023525f, 0.211088f, -0.201007f, -0.111561f, 0.157525f, 0.065633f, 0.053886f, 0.022047f, 0.061337f, 0.368921f, 0.089186f, 0.114417f, -0.130149f, -0.263012f, 0.000126f, -0.072209f, 0.042839f, -0.045921f, 0.107543f, -0.182298f, 0.176495f, 0.061184f, 0.141243f, -0.093449f, -0.062378f, 0.073287f, 0.120883f, -0.004562f, 0.047971f, -0.197520f, -0.012958f, 0.187948f, 0.239939f, -0.112320f, -0.031804f, 0.020324f, 0.110399f, 0.006372f, 0.139273f, 0.181543f, -0.179083f, -0.037947f, 0.097080f, -0.019955f, -0.166163f, 0.221026f, 0.171980f, -0.050529f, -0.050510f, -0.024016f, 0.270769f, 0.112002f, 0.311817f, -0.144600f, -0.084402f, -0.078030f, 0.050381f, -0.124665f, -0.103873f, -0.006310f, 0.116341f, 0.084812f, 0.063166f, 0.286657f };
static const float MLP_layer_1_biases[27] = { 0.354366f, -0.164787f, -0.124004f, -0.089517f, -0.147952f, 0.006532f, -0.136663f, -0.139972f, 0.144937f, 0.021794f, 0.088873f, -0.000798f, -0.277277f, 0.095172f, 0.181681f, 0.163264f, -0.076082f, 0.023416f, 0.241643f, -0.347328f, 0.517068f, -0.237866f, -0.209081f, -0.209016f, -0.200906f, -0.132480f, -0.094648f };
static const float MLP_layer_1_weights[2700] = { -0.139325f, -0.127565f, -0.050627f, 0.042641f, 0.255896f, -0.157109f, -0.020141f, -0.063808f, -0.001177f, 0.135158f, 0.034220f, -0.192008f, 0.147719f, -0.057117f, 0.087147f, -0.109617f, 0.082497f, 0.094865f, 0.080571f, 0.227335f, 0.028318f, -0.249096f, -0.191170f, 0.162158f, 0.066452f, 0.146855f, 0.231638f, -0.149774f, -0.161329f, 0.010015f, 0.111854f, -0.055987f, 0.211829f, 0.090533f, 0.228313f, 0.082236f, -0.166913f, -0.169200f, -0.041762f, 0.075519f, -0.046766f, -0.159268f, -0.149688f, -0.035054f, -0.034479f, -0.178912f, 0.042907f, 0.208513f, 0.137006f, -0.247012f, 0.061918f, -0.001380f, 0.125206f, -0.008703f, 0.015515f, 0.072577f, -0.201213f, 0.035809f, 0.003964f, -0.147742f, 0.173329f, -0.238693f, -0.242428f, -0.081292f, -0.020312f, -0.019392f, -0.136218f, 0.271368f, -0.127712f, 0.174165f, -0.025107f, -0.107141f, -0.125159f, -0.103082f, -0.352122f, 0.057345f, 0.027337f, -0.045090f, -0.948970f, 0.022915f, -0.055243f, -0.136873f, -0.112959f, 0.016336f, 0.249999f, 0.096052f, -0.078227f, -0.044871f, -0.026887f, 0.198756f, 0.080689f, 0.102002f, 0.237962f, 0.064754f, -0.122397f, 0.278660f, 0.130711f, -0.106225f, 0.227508f, 0.152621f, -0.171049f, -0.097980f, -0.192016f, -0.119094f, -0.129461f, 0.052218f, 0.021271f, -0.010113f, -0.103212f, -0.292000f, -0.136042f, 0.123954f, 0.052669f, -0.096481f, 0.021543f, 0.080902f, 0.035148f, 0.150668f, 0.195669f, -0.180286f, -0.238609f, -0.183689f, -0.019928f, 0.321468f, -0.215571f, -0.007866f, -0.012186f, -0.403502f, -0.207690f, 0.202446f, -0.213037f, -0.114779f, 0.164477f, 0.178333f, -0.208504f, 0.026038f, -0.152021f, 0.078313f, 0.175970f, -0.409934f, 0.219314f, -0.047803f, -0.000412f, -0.236287f, -0.141779f, -0.145544f, 0.166014f, -0.175639f, 0.050243f, 0.087711f, -0.101551f, -0.441429f, 0.096954f, -0.134310f, -0.010835f, 0.046338f, 0.138196f, -0.300005f, -0.210367f, -0.311075f, 0.140031f, 0.179158f, -0.009479f, -0.168150f, 0.270182f, -0.039897f, -0.155847f, -0.064349f, -0.020286f, 0.051611f, -0.040734f, 0.123418f, 0.125536f, -0.654203f, 0.031802f, -0.000026f, -0.116962f, -0.001116f, -0.130398f, 0.124152f, -0.084963f, 0.000269f, -0.234151f, 0.221043f, 0.241934f, -0.123808f, 0.135117f, -0.260435f, -0.405404f, 0.164966f, 0.422913f, -0.145301f, 0.242755f, -0.268433f, -0.518029f, -0.410778f, -0.265887f, -0.058897f, -0.292643f, -0.247972f, -0.163733f, 0.202534f, -0.382201f, 0.171646f, -0.315849f, -0.323607f, 0.050462f, -0.366508f, -1.035272f, 0.391705f, -0.162140f, -0.047328f, -0.108851f, 0.128827f, 0.181035f, -0.202453f, 0.121938f, 0.144419f, -0.019402f, 0.123794f, -0.000736f, 0.194195f, -0.047154f, 0.035994f, 0.031109f, -0.139687f, 0.098488f, -0.064197f, 0.220502f, 0.118211f, 0.034586f, 0.052990f, -0.113081f, 0.014909f, 0.048783f, 0.067869f, 0.194874f, 0.047688f, 0.008440f, 0.169943f, 0.175442f, -0.049852f, -0.016926f, -0.068213f, 0.186462f, 0.024052f, -0.173104f, -0.194919f, 0.176942f, 0.203260f, 0.044617f, -0.084713f, -0.132698f, -0.386951f, -0.020223f, -0.083948f, -0.134588f, 0.238357f, 0.000778f, -0.115158f, 0.239186f, 0.055951f, -0.044426f, -0.080300f, -0.212778f, -0.049168f, -0.147667f, -0.257138f, -0.119886f, 0.011992f, 0.011512f, -0.156928f, -0.189474f, -0.080830f, 0.065682f, 0.018113f, 0.033551f, -0.036132f, -0.026416f, -0.027490f, -0.080931f, 0.173321f, 0.143195f, 0.175778f, 0.145150f, -0.034667f, -0.193755f, -0.074749f, -0.027696f, -0.037084f, -0.093663f, -0.037067f, -0.166834f, 0.155486f, -0.092853f, -0.082400f, -0.073122f, -0.149820f, -0.129096f, -0.064982f, -0.095889f, 0.019435f, -0.003659f, -0.025720f, -0.007216f, 0.073880f, -0.062332f, -0.251095f, 0.136902f, -0.144040f, -0.009420f, -0.185448f, 0.136619f, -0.187599f, 0.092214f, 0.164791f, -0.000474f, -0.220919f, -0.106279f, 0.023407f, 0.007867f, 0.007786f, -0.113689f, -0.583589f, -0.013878f, -0.049063f, 0.130582f, -0.173265f, -0.218031f, -0.041759f, -0.005113f, 0.119104f, 0.102477f, 0.152763f, 0.211500f, -0.254749f, -0.110272f, -0.000035f, 0.111644f, 0.140045f, -0.179829f, 0.032002f, -0.092582f, -0.000046f, -0.236373f, 0.236925f, -0.051891f, 0.016505f, -0.170268f, 0.180663f, -0.533226f, -0.082228f, -0.136007f, -0.047760f, -0.003726f, -0.017102f, -0.228370f, 0.055917f, -0.103816f, -0.087895f, 0.066588f, -0.035843f, -0.268649f, 0.086939f, -0.016048f, -0.103000f, 0.261559f, -0.398870f, 0.085961f, -0.051510f, 0.119956f, -0.184131f, -0.132106f, -0.081598f, 0.043381f, -0.318208f, -0.039313f, -0.241319f, 0.128959f, -0.313079f, -0.134610f, -0.091430f, -0.206783f, -0.079601f, -0.430998f, -0.149458f, -0.199006f, -0.264701f, -0.037803f, 0.051655f, -0.070756f, 0.329188f, -0.611765f, -0.510068f, 0.385374f, -0.259061f, -0.091766f, -0.730928f, 0.504191f, -0.043261f, 0.070308f, -0.130661f, 0.115506f, 0.044365f, -0.342350f, -0.056053f, -0.069472f, -0.023993f, 0.150375f, 0.097178f, -0.133942f, -0.013235f, -0.036698f, -0.165720f, -0.118783f, 0.080996f, 0.143141f, -0.138893f, 0.059715f, -0.151580f, 0.197526f, 0.123803f, 0.175711f, -0.067766f, -0.107314f, -0.238865f, 0.008815f, -0.001863f, -0.171698f, -0.454628f, 0.071657f, -0.123633f, -0.084883f, 0.100207f, 0.224788f, -0.117592f, -0.040573f, -0.028962f, -0.041881f, -0.009080f, -0.188040f, -0.063105f, -0.119951f, -0.227165f, 0.067963f, 0.258963f, 0.283091f, -1.121441f, 0.168755f, -0.203106f, -0.151884f, 0.051439f, 0.116932f, -0.067903f, 0.261207f, 0.014811f, 0.167336f, -0.178124f, -0.027588f, -0.235951f, 0.260522f, -0.026981f, 0.134133f, 0.083281f, -0.223134f, -0.080015f, -0.209667f, -0.123694f, 0.038622f, -0.234148f, 0.069333f, -0.082688f, 0.201901f, 0.008860f, 0.044037f, -0.399045f, 0.114367f, -1.372029f, -0.246041f, 0.426793f, -0.058987f, 0.076661f, -0.165438f, -0.129212f, -0.087305f, 0.124133f, -0.068261f, -0.043749f, 0.157842f, -0.591180f, 0.218676f, -0.763911f, 0.033061f, 0.157904f, 0.129355f, 0.050276f, 0.167062f, -0.093656f, 0.155408f, -0.363794f, -0.258809f, -0.030431f, 0.164103f, -0.260324f, -0.206017f, -0.233365f, -0.069701f, -0.123816f, 0.006300f, 0.032892f, -0.182779f, 0.002859f, 0.194452f, 0.215182f, 0.055834f, 0.041477f, -0.648452f, -0.101945f, 0.316145f, -0.156629f, -0.514078f, 0.135597f, -0.230111f, -0.325646f, 0.114237f, 0.099267f, -0.029766f, -0.145183f, -0.707630f, -0.314988f, 0.319963f, 0.066052f, -1.167111f, 0.104786f, 0.206452f, 0.148393f, -0.146288f, 0.082818f, -0.134478f, 0.104941f, -0.135797f, -0.132392f, -0.050140f, 0.048178f, -0.027987f, -0.111704f, -0.019593f, -0.103336f, -0.137006f, -1.091349f, -0.009224f, 0.132886f, -0.028259f, -0.394887f, -0.163161f, -0.152033f, -0.087309f, 0.372007f, 0.019198f, -0.121819f, 0.134393f, -0.084555f, 0.002599f, -0.228249f, -0.000001f, -0.247232f, -0.274531f, 0.177172f, 0.151362f, -0.204230f, 0.096579f, 0.009473f, -0.000922f, -0.069479f, 0.015096f, 0.023501f, -0.073028f, 0.039898f, -0.076905f, 0.139662f, -0.174315f, -0.018059f, 0.005913f, 0.016569f, 0.039388f, 0.073073f, 0.045368f, 0.293668f, -0.033855f, -0.002506f, -0.117081f, -0.301646f, -0.126045f, -0.164606f, 0.106174f, -0.146628f, -0.122112f, -0.001949f, -0.020322f, -0.058706f, 0.181733f, -0.051128f, -0.012029f, -0.247893f, -0.168036f, 0.061139f, -0.239291f, 0.118830f, 0.050478f, -0.220683f, 0.119405f, -0.104116f, -0.043961f, 0.056600f, 0.047388f, 0.134397f, 0.031950f, -0.129317f, 0.125648f, 0.181502f, -0.001023f, -0.481086f, -0.309670f, 0.112030f, -0.383841f, 0.099362f, -0.123524f, 0.344011f, -0.359164f, -0.370769f, -0.332559f, -0.028679f, -0.313739f, -0.040822f, -0.506367f, 0.006478f, -0.545591f, -0.030111f, 0.482041f, -0.019956f, -0.204333f, 0.340365f, -0.099594f, -1.037417f, 0.622232f, 0.000484f, -0.460260f, -0.001760f, 0.131501f, 0.033183f, -0.110893f, -0.051781f, -0.171740f, 0.085903f, 0.036080f, 0.004916f, 0.055852f, -0.337503f, 0.145436f, -0.038999f, -0.035579f, 0.290688f, 0.008495f, -0.070752f, -0.049439f, -0.527068f, -0.018211f, 0.067877f, -0.190920f, 0.228168f, -0.010006f, 0.023404f, 0.186194f, -0.283798f, -0.210349f, 0.107806f, -0.171009f, 0.175403f, 0.072709f, -0.227453f, -0.046524f, -0.071446f, -0.126399f, -0.079886f, 0.026905f, 0.161421f, 0.075189f, 0.019135f, 0.076650f, -0.124185f, -0.142212f, 0.079463f, 0.102814f, -0.064495f, 0.137190f, 0.142665f, -0.128394f, 0.170421f, 0.144579f, 0.141917f, 0.148457f, -0.157471f, 0.088819f, -0.013496f, 0.010142f, 0.190253f, -0.001263f, -0.214595f, -0.069607f, -0.005444f, -0.006605f, -0.122389f, -0.187806f, -0.143420f, 0.183066f, 0.184080f, -0.081247f, 0.029578f, 0.176761f, -0.196906f, -0.140861f, -0.051159f, 0.103603f, -0.001037f, 0.003596f, 0.063965f, 0.062166f, 0.049838f, 0.135371f, 0.159829f, -0.100942f, 0.130699f, -0.012208f, -0.007561f, 0.204152f, -0.202600f, -0.069758f, 0.071534f, -0.076843f, -0.180852f, 0.059236f, -0.255796f, 0.103976f, 0.207918f, -0.128735f, -0.042579f, 0.052784f, 0.134828f, 0.042957f, -0.212818f, -0.241692f, -0.475522f, 0.054121f, 0.150178f, -0.039582f, 0.198109f, 0.169270f, 0.048997f, 0.067905f, -0.034351f, -0.165590f, 0.032538f, 0.117843f, -0.051968f, 0.156591f, 0.000023f, 0.100678f, 0.086268f, 0.050715f, 0.005171f, -0.125481f, 0.030695f, 0.146985f, -0.412867f, -0.035377f, 0.136725f, -0.190783f, 0.053862f, 0.257174f, 0.245849f, 0.183627f, -0.050396f, -0.113245f, 0.109123f, -0.062559f, -0.082269f, -0.277605f, -0.010124f, -0.142141f, 0.144662f, -0.095214f, -0.226287f, 0.151254f, -0.040999f, -0.098992f, -0.184746f, 0.036687f, -0.380387f, 0.012581f, 0.251699f, -0.217315f, -0.254592f, -0.143185f, -0.885784f, -0.075790f, 0.013448f, -0.269111f, -1.087640f, 0.228739f, -0.002952f, -0.636043f, -0.438938f, -0.147525f, -0.226817f, -0.200489f, -0.001326f, -0.048264f, 0.277885f, -0.032448f, -0.216612f, -0.144391f, 0.150319f, 0.245730f, -0.142982f, -0.065898f, -0.054166f, 0.234574f, -0.096438f, 0.078986f, -0.098844f, 0.058242f, -0.256536f, -0.270265f, 0.028446f, -0.291257f, -0.404303f, -0.102504f, 0.067137f, 0.208267f, 0.007231f, 0.071011f, 0.115292f, -0.125242f, 0.039057f, -0.060683f, -0.066309f, -0.125392f, -0.238751f, -0.094743f, 0.112356f, 0.184703f, 0.198439f, 0.122791f, -0.273432f, -0.129973f, -0.159240f, 0.008636f, -0.111231f, 0.087442f, -0.493244f, 0.094485f, -0.140763f, -0.038728f, 0.013093f, -0.009873f, -0.260285f, -0.129622f, -0.215844f, -0.040560f, -0.000256f, 0.046069f, 0.279920f, 0.159762f, -0.024029f, -0.157419f, 0.299256f, 0.082290f, -0.030934f, -0.003799f, -0.038800f, -0.172829f, 0.216376f, 0.046874f, -0.000013f, -0.336558f, -0.423362f, 0.059034f, -0.001571f, 0.103945f, 0.122175f, -0.040805f, 0.007357f, -0.086496f, -0.015732f, -0.181938f, -0.080825f, 0.154078f, 0.141822f, -0.165502f, 0.098001f, 0.226884f, -0.163325f, 0.191458f, -0.047997f, -0.018901f, -0.179333f, -0.072319f, 0.158117f, -0.139589f, 0.025945f, -0.085870f, -0.108638f, -0.206079f, -0.666228f, -0.200168f, 0.142305f, -0.082535f, 0.198465f, 0.089808f, -0.148216f, 0.196243f, -0.151593f, 0.104191f, -0.067613f, -0.023212f, -0.112861f, 0.033468f, 0.030723f, -0.166637f, -0.451070f, 0.027049f, -0.214750f, -0.062359f, 0.003377f, 0.019860f, -0.320791f, -0.191184f, -0.140374f, -0.143264f, -0.033460f, 0.360191f, 0.183782f, -0.143028f, 0.109623f, -0.037320f, -0.189116f, -0.052685f, 0.043893f, 0.330452f, -0.072828f, 0.025727f, 0.088708f, 0.066962f, -0.035837f, -0.014101f, 0.198547f, 0.203622f, -0.073071f, -0.028884f, -0.118584f, -0.456837f, -0.033090f, 0.033554f, -0.163789f, -0.244785f, -0.240944f, -0.149948f, 0.115454f, 0.121064f, -0.160344f, -0.259596f, 0.211525f, 0.075298f, 0.063266f, -0.060508f, -0.068355f, 0.135280f, 0.072547f, -0.171809f, -0.082523f, -0.066309f, -0.146019f, 0.040777f, 0.028050f, -0.086751f, -0.166319f, -0.117320f, 0.032405f, 0.124778f, 0.024413f, 0.105882f, 0.125129f, 0.050325f, 0.090305f, -0.068439f, -0.099663f, 0.183086f, -0.209858f, -0.113438f, 0.022939f, 0.210441f, -0.052250f, -0.281687f, -0.228309f, -0.349220f, 0.020748f, 0.072645f, 0.080214f, -0.005302f, 0.183809f, -0.174635f, -0.140485f, 0.082147f, 0.175553f, -0.165984f, -0.076961f, -0.122290f, 0.148092f, -0.119158f, 0.173823f, 0.100400f, 0.076513f, -0.022657f, 0.044715f, 0.096673f, 0.090648f, -0.151938f, 0.157998f, 0.165145f, 0.053606f, -0.155211f, 0.040199f, -0.110675f, -0.085789f, -0.128671f, -0.033904f, -0.166129f, -0.276387f, -0.208081f, -0.103616f, -0.337623f, -0.002175f, -0.013616f, -0.592587f, 0.019460f, 0.086144f, 0.512663f, -0.372629f, 0.435871f, 0.153286f, -0.102319f, 0.104815f, -0.179836f, -0.095446f, 0.061585f, -0.058638f, -0.164572f, -0.220649f, 0.028165f, 0.163502f, -0.126114f, -0.121113f, -0.174132f, -0.018413f, 0.117002f, 0.068040f, -0.074151f, -0.020386f, -0.046397f, 0.143487f, -0.161358f, -0.073643f, 0.056810f, 0.009097f, 0.113832f, -0.123308f, 0.118191f, 0.025137f, -0.119997f, 0.084491f, -0.005643f, -0.010471f, -0.060579f, -0.003274f, -0.044083f, -0.000665f, -0.101398f, -0.055960f, -0.051359f, -0.115776f, 0.134166f, -0.260031f, 0.103946f, -0.000017f, -0.080872f, -0.077327f, -0.147084f, 0.159555f, -0.189817f, -0.000000f, 0.246807f, 0.009267f, -0.546312f, 0.055757f, 0.011330f, -0.059324f, -0.040378f, 0.406772f, -0.045590f, -0.158212f, -0.196794f, 0.101354f, -0.365720f, -0.282199f, 0.019597f, 0.086939f, -0.095561f, -0.045121f, -0.177066f, -0.093336f, -0.409109f, -0.228217f, 0.060459f, 0.357574f, -0.632366f, -0.048017f, -0.003475f, 0.155783f, 0.187357f, -0.099999f, -0.132977f, 0.138209f, 0.036059f, 0.102076f, -0.152182f, -0.019268f, -0.039565f, -0.123220f, 0.003521f, -0.079108f, -0.104202f, -0.075997f, -0.110769f, -0.163545f, -0.012429f, -0.145462f, 0.155619f, -0.045321f, -0.098208f, -0.080171f, -0.128425f, -0.522929f, -0.676569f, 0.037677f, 0.154608f, 0.057738f, 0.465444f, -0.010938f, 0.160207f, 0.033534f, -0.048256f, -0.130322f, 0.059259f, 0.185877f, 0.102875f, -0.583774f, 0.030993f, -0.058541f, -0.778879f, -0.381912f, 0.114243f, -0.049836f, 0.142690f, -0.202711f, -0.091903f, -0.062673f, -0.052342f, -0.055016f, 0.004554f, -0.237622f, 0.095101f, 0.394633f, 0.160209f, -0.182054f, 0.144829f, -0.264614f, -0.151314f, 0.062565f, 0.091314f, 0.287351f, -0.037390f, -0.085763f, 0.151475f, -0.378907f, -0.331622f, -0.136393f, -0.025834f, -0.347766f, 0.185673f, -0.146414f, -0.129912f, -0.240053f, -0.624044f, -0.159042f, 0.156147f, -0.162765f, -0.079140f, -0.195988f, 0.162175f, 0.002843f, -0.000031f, 0.020662f, -0.053504f, 0.062921f, -0.076477f, 0.738935f, 0.332712f, -0.278780f, -0.193075f, -0.183928f, -0.015944f, -0.324038f, 0.213395f, 0.605398f, -0.225211f, 0.059662f, -0.584526f, -0.781030f, -0.498039f, -0.033272f, 0.077947f, 0.013634f, 0.032333f, 0.732858f, -1.253383f, -0.053457f, -0.851580f, -0.260194f, -0.587915f, -0.402916f, 0.254666f, -0.472620f, -0.270155f, -0.161373f, -0.230218f, 0.017925f, 0.144742f, -0.124423f, 0.177113f, 0.094595f, -0.133558f, -0.225454f, 0.149808f, 0.140940f, -0.043913f, 0.073764f, 0.042684f, 0.139484f, 0.065153f, 0.077239f, -0.384096f, 0.303671f, -0.080698f, 0.039616f, -0.046688f, 0.159326f, -0.111186f, 0.119563f, -0.124762f, 0.143888f, 0.014722f, 0.029710f, 0.067143f, -0.076102f, 0.017805f, -0.200947f, 0.208520f, -0.117037f, -0.081432f, 0.168636f, 0.163967f, -0.006707f, 0.036587f, -0.099210f, -0.120610f, 0.200609f, 0.103231f, -0.052366f, -0.115908f, 0.229788f, -0.127613f, 0.013322f, 0.043299f, 0.069665f, -0.029924f, -0.065047f, 0.144290f, 0.173105f, -0.147039f, -0.230946f, -0.106972f, -0.458286f, 0.002634f, 0.180316f, 0.145456f, 0.180890f, -0.152624f, 0.134196f, -0.006947f, -0.125178f, 0.051957f, -0.210002f, -0.127214f, 0.163884f, -0.112300f, -0.204205f, -0.014626f, -0.255330f, -0.014769f, 0.123608f, -1.272478f, 0.090216f, -0.071377f, 0.142607f, 0.115262f, -0.096251f, -0.585236f, 0.193845f, 0.242564f, 0.033982f, -0.260011f, -0.157713f, -0.174032f, -0.333029f, 0.145499f, -0.124530f, -0.402933f, 0.100955f, -0.011420f, -0.147376f, -0.263537f, 0.141350f, -0.191922f, 0.022617f, -0.133945f, 0.037487f, 0.211991f, 0.086142f, -0.159029f, 0.731292f, -0.129248f, -0.110405f, -0.141222f, -0.114511f, 0.223278f, 0.110627f, 0.079664f, 0.078048f, -0.150281f, -0.105480f, -0.152185f, 0.058072f, 0.015264f, 0.035074f, -0.036572f, -0.196289f, -0.058494f, 0.031869f, -0.083689f, -0.173567f, -0.130645f, 0.022078f, -0.228321f, -0.067562f, 0.086837f, -0.069625f, -0.050752f, 0.030992f, -0.068866f, 0.134337f, 0.038095f, -0.132620f, 0.145603f, 0.151810f, 0.008879f, -0.193519f, -0.026524f, -0.011976f, -0.119771f, 0.019874f, 0.010225f, 0.019073f, -0.099138f, 0.061062f, -0.104887f, 0.165525f, 0.153449f, 0.084929f, 0.053077f, 0.067100f, 0.089642f, -0.109460f, 0.109064f, 0.157413f, 0.131668f, 0.094277f, 0.120724f, -0.051394f, 0.095536f, -0.050723f, -0.081100f, 0.075285f, 0.095757f, 0.042175f, 0.174437f, -0.010194f, -0.130964f, -0.138355f, 0.053803f, 0.099054f, -0.076696f, -0.032808f, 0.097810f, 0.030185f, -0.174237f, 0.160810f, -0.151047f, 0.025987f, -0.019605f, 0.014165f, 0.235649f, -0.042033f, 0.029021f, -0.242466f, 0.119170f, -0.022114f, 0.266250f, -0.238728f, -0.392141f, -0.159757f, 0.072005f, -0.096966f, -0.189472f, 0.110506f, 0.127474f, -0.110317f, -0.300550f, 0.070665f, -0.012332f, -0.023405f, 0.274366f, -0.424533f, -0.012203f, 0.060571f, -0.085792f, -0.154652f, -0.070348f, -0.167959f, -0.003487f, -0.005627f, -0.229108f, -0.269788f, 0.170731f, -0.150595f, -0.203126f, -0.079943f, -0.096416f, 0.104195f, -0.030144f, 0.249991f, -0.125283f, -0.038560f, 0.258705f, 0.056176f, 0.132137f, 0.046027f, 0.200253f, -0.184783f, -0.180026f, 0.200838f, 0.049313f, -0.003334f, -0.131447f, 0.118287f, 0.191866f, -0.108404f, -0.002562f, 0.013018f, -0.069086f, -0.135889f, 0.121863f, 0.155155f, -0.153173f, -0.079349f, 0.100611f, -0.030153f, 0.100639f, -0.019313f, 0.260214f, -0.118467f, -0.019154f, -0.813260f, -0.255299f, 0.016179f, -0.144355f, -0.760298f, 0.070905f, -0.262888f, -0.028944f, -0.164356f, -0.224269f, -0.061941f, -0.110892f, 0.098910f, -0.121782f, -0.137198f, -0.147853f, -0.194207f, 0.218726f, 0.031711f, -0.109325f, -0.204198f, 0.048588f, -0.138107f, 0.062963f, -0.273745f, 0.015700f, -0.161339f, 0.035758f, 0.161760f, -0.130160f, 0.120520f, -0.121230f, -0.256667f, 0.038551f, -0.149328f, 0.102920f, 0.125085f, -0.000055f, 0.033245f, 0.020908f, 0.168899f, 0.145759f, -0.028823f, 0.083657f, 0.116893f, -0.166823f, 0.001359f, 0.054852f, -0.197579f, -0.010650f, 0.140011f, 0.009968f, 0.183112f, 0.063279f, 0.151261f, -0.119437f, 0.129478f, 0.004218f, -0.087613f, -0.080948f, -0.048462f, 0.140961f, -0.011097f, -0.092713f, -0.159453f, -0.006987f, -0.118090f, 0.104895f, -0.019767f, -0.105214f, -0.190878f, -0.172167f, 0.083904f, -0.096872f, 0.026408f, -0.066146f, 0.084572f, -0.160382f, -0.099863f, 0.010203f, -0.210319f, -0.174141f, 0.204808f, 0.047599f, 0.041295f, 0.260629f, -0.243252f, -0.180354f, 0.005103f, -0.033733f, -0.097785f, 0.031256f, -0.169856f, -0.221984f, 0.249208f, 0.184333f, 0.080300f, -0.048825f, 0.006745f, 0.055905f, 0.139195f, 0.082444f, 0.226429f, -0.091657f, 0.109337f, -0.152371f, 0.135762f, -0.887899f, -0.151009f, -0.115126f, 0.387194f, -0.204106f, -0.037797f, -0.092629f, -0.250593f, -0.011433f, -0.010538f, 0.196303f, -0.347692f, 0.100187f, 0.064602f, -0.070621f, -0.174692f, 0.015503f, 0.071735f, -0.081908f, 0.027289f, -0.204299f, 0.178644f, 0.103804f, -0.137393f, -0.081045f, 0.057825f, -0.073093f, -0.118128f, -0.071293f, -0.014416f, -0.210862f, -0.005011f, 0.083052f, 0.203126f, 0.009932f, -0.150229f, -0.108450f, 0.025355f, -0.105036f, -0.012729f, 0.070303f, 0.007337f, 0.158128f, -0.033165f, -0.140617f, 0.152672f, 0.058147f, -0.048046f, -0.155568f, 0.040261f, -0.159863f, 0.093630f, 0.139801f, 0.075003f, -0.014375f, -0.049650f, 0.218634f, -0.264582f, -0.071409f, -0.055512f, 0.058399f, 0.023687f, 0.162964f, 0.141578f, -0.136054f, 0.148137f, -0.009439f, -0.053500f, 0.180948f, -0.412612f, 0.165522f, -0.103389f, -0.164446f, -0.199399f, -0.049799f, -0.035780f, 0.076534f, -0.107210f, 0.275819f, -0.001797f, -0.130080f, -0.117812f, -0.059069f, 0.188404f, 0.054819f, -0.000055f, -0.233659f, -0.066764f, -0.047601f, -0.092092f, -0.188561f, -0.204752f, -0.288917f, 0.292731f, -0.066759f, -0.081637f, -0.282907f, -0.085005f, -0.033862f, 0.152662f, -0.261723f, -0.095182f, -0.145912f, -0.019513f, 0.098830f, -0.071052f, 0.277479f, 0.042235f, -0.111243f, -0.267394f, 0.035358f, -0.125273f, -0.124306f, 0.063282f, -0.043080f, -0.000836f, -0.203938f, -0.000001f, -0.128007f, -0.265302f, -0.201540f, 0.101249f, 0.090791f, 0.086016f, 0.057576f, 0.104966f, 0.048218f, 0.011976f, -0.104341f, 0.167596f, -0.042555f, -0.145882f, 0.013930f, -0.010153f, -0.034586f, 0.076783f, 0.036438f, -0.063444f, -0.005128f, 0.246202f, 0.100819f, -0.214372f, 0.077410f, -0.061987f, 0.186756f, 0.066911f, -0.017595f, 0.059194f, -0.338807f, -0.254816f, 0.018345f, -0.004440f, -0.185052f, 0.048236f, 0.000640f, -0.069394f, 0.216075f, -0.015460f, -0.169908f, -0.080467f, -0.448882f, 0.043673f, -0.535613f, -0.093743f, -0.114902f, -0.053379f, 0.076984f, -0.229336f, 0.074608f, -0.004999f, -0.241650f, -0.000000f, -0.128194f, -0.164617f, -0.167535f, 0.120603f, -0.021494f, -0.063852f, 0.087395f, -0.200283f, -0.095613f, 0.022841f, -0.052072f, 0.068454f, -0.147869f, 0.075192f, -0.070041f, -0.012406f, 0.121446f, -0.034791f, 0.135958f, 0.200870f, -0.136098f, -0.235096f, 0.074535f, 0.173161f, -0.086895f, 0.241881f, 0.076917f, -0.207318f, 0.082795f, -0.005283f, -0.054067f, -0.214262f, -0.052529f, -0.060918f, -0.000014f, -0.021106f, -0.212977f, -0.374903f, -0.030808f, -0.220115f, -0.220628f, -0.297015f, -0.000025f, -0.002516f, -0.003590f, -0.058501f, -0.186878f, -0.035335f, -0.000000f, 0.680870f, 0.041202f, -0.162236f, 0.019912f, 0.106787f, -0.001746f, -0.001197f, -0.071867f, -0.257712f, -0.143250f, 0.157383f, 0.139029f, 0.134066f, -0.020237f, 0.132623f, 0.035350f, -0.179438f, 0.055187f, 0.065901f, 0.070030f, -0.755350f, 0.078648f, -0.023345f, 0.139427f, 0.201564f, -0.190727f, -0.140684f, -0.049520f, -0.118420f, -0.266967f, 0.116763f, -0.174830f, -0.141013f, 0.082651f, 0.014504f, -0.193596f, -0.022453f, -0.013812f, 0.244986f, 0.086259f, -0.221320f, -0.110224f, -0.118623f, -0.001498f, -0.195479f, -0.073738f, -0.061280f, -0.011180f, -0.052561f, 0.244294f, -0.008836f, 0.240588f, -0.273111f, -0.016888f, 0.151872f, 0.120858f, -0.055219f, 0.081415f, -0.086485f, 0.020591f, 0.082968f, 0.072732f, -0.260693f, 0.084383f, 0.029572f, -0.065395f, 0.040109f, -0.206434f, -0.107335f, 0.193439f, 0.138498f, -0.121502f, -0.098115f, 0.172591f, 0.130378f, 0.115144f, -0.267660f, -0.004167f, -0.193764f, -0.051517f, 0.022632f, 0.071527f, 0.045369f, 0.219487f, -0.122811f, -0.082787f, 0.009187f, 0.062674f, 0.194165f, 0.105778f, -0.041025f, -0.162863f, -0.078795f, 0.042997f, 0.013218f, -0.097112f, -0.043020f, 0.077861f, 0.030477f, 0.070087f, 0.143005f, 0.189688f, 0.219994f, 0.211690f, 0.076517f, -0.049121f, -0.208208f, -0.116519f, -0.017793f, 0.006735f, 0.054584f, 0.111634f, 0.061715f, 0.019663f, -0.231002f, -0.205178f, -0.061008f, -0.166729f, -0.184615f, 0.117975f, -0.059437f, 0.184911f, 0.008893f, -0.089133f, -0.047798f, 0.165914f, -0.008960f, -0.030330f, -0.115331f, 0.166307f, -0.038851f, 0.092648f, 0.018372f, -0.163378f, -0.310576f, 0.223575f, -0.176949f, 0.139287f, 0.036332f, -0.179424f, -0.166147f, 0.064470f, -0.008660f, -0.154409f, -0.038486f, -0.030334f, 0.008323f, -0.004529f, -0.027809f, -0.256190f, 0.014782f, 0.139411f, -0.191693f, 0.134785f, 0.204693f, -0.045426f, -0.175102f, -0.021641f, 0.168440f, 0.042158f, 0.236069f, -0.000027f, -0.116615f, 0.112991f, -0.130184f, 0.007224f, 0.050883f, -0.131462f, -0.340957f, -0.321330f, -0.176724f, 0.208058f, -0.235220f, 0.093793f, 0.083203f, -0.158311f, -0.267298f, -0.306382f, -0.124882f, 0.107435f, -0.364716f, 0.069197f, -0.187922f, -0.215027f, -0.128581f, -0.113123f, 0.082147f, -0.074656f, -0.109738f, 0.227938f, 0.069965f, 0.045285f, 0.103995f, -0.117758f, -0.257909f, -0.718314f, -0.040360f, -0.050502f, -0.123340f, -0.571415f, -0.077079f, 0.109700f, -0.049330f, 0.102322f, 0.041458f, 0.112692f, -0.007988f, 0.172355f, -0.079279f, 0.806307f, -0.041496f, -0.191487f, -0.259954f, 0.047258f, 0.086581f, -0.300151f, 0.108291f, -0.082243f, -0.666406f, -0.067238f, 0.146013f, -0.264782f, -0.126018f, 0.459702f, 0.110528f, 0.101431f, -0.010922f, -0.307503f, -0.086194f, -0.129319f, 0.092698f, -0.030557f, -0.028602f, 0.078136f, 0.078072f, -0.004921f, -0.052385f, -0.202869f, -0.061231f, 0.070194f, 0.072197f, 0.248119f, -0.001472f, 0.065510f, 0.018337f, 0.226160f, 0.105714f, -0.116319f, -0.113772f, -0.595863f, 0.262889f, 0.114480f, -0.151848f, 0.044228f, -0.191495f, 0.219779f, 0.103977f, -0.102959f, 0.004185f, -0.167399f, -0.223426f, 0.148264f, 0.045406f, -0.059814f, 0.048435f, -0.138352f, 0.092190f, -0.113173f, 0.401399f, 0.030201f, 0.088770f, -0.048822f, -0.077527f, 0.110557f, -0.174278f, 0.064796f, 0.041297f, -0.240991f, -0.140794f, -0.224534f, 0.018742f, 0.148026f, -0.152992f, -0.152405f, 0.135155f, -0.091333f, 0.016942f, 0.074278f, -0.090046f, 0.035524f, -0.077587f, 0.224113f, -0.034401f, 0.197597f, -0.118508f, 0.308470f, 0.161509f, 0.089639f, -0.118539f, 0.090600f, -0.054564f, 0.094238f, 0.034835f, 0.000794f, -0.191104f, 0.016907f, -0.012124f, 0.146101f, -0.102554f, -0.208147f, -0.147924f, -0.043356f, -0.149888f, 0.185823f, -0.141709f, 0.095445f, -0.171692f, -0.131161f, 0.209362f, -0.251701f, 0.181788f, -0.000302f, 0.205396f, -0.012693f, 0.130941f, 0.119841f, 0.106967f, 0.082968f, -0.067047f, 0.074994f, -0.143657f, 0.257334f, 0.180078f, -0.177149f, 0.000969f, 0.203140f, -0.217201f, 0.118397f, -0.160123f, -0.305385f, -0.003983f, 0.147110f, -0.042045f, 0.199217f, -0.109349f, 0.238981f, 0.010919f, -0.324323f, -0.117666f, -0.041252f, 0.188813f, -0.119373f, 0.047273f, -0.001152f, 0.014073f, 0.295680f, 0.062793f, -0.213461f, -0.072926f, -0.204359f, 0.153110f, -0.406118f, 0.043300f, -0.651453f, 0.118402f, 0.117366f, -0.166617f, -0.077907f, 0.003076f, 0.026037f, 0.268546f, -0.166854f, -0.319489f, 0.087391f, -0.018615f, 0.117780f, -0.152240f, -0.018955f, 0.160514f, 0.170613f, -0.114770f, -0.254462f, 0.009250f, 0.157064f, 0.258544f, -0.009756f, 0.162262f, -0.052581f, -0.046833f, 0.112773f, -0.026913f, -0.105917f, -0.130622f, 0.060097f, 0.144885f, 0.116964f, 0.086950f, -0.381999f, -0.001177f, -0.043512f, -0.035385f, -0.256106f, 0.117670f, 0.176240f, -0.000385f, 0.176159f, 0.133892f, -0.123261f, 0.013427f, 0.000712f, 0.046040f, -0.426007f, -0.178076f, 0.019059f, 0.022034f, 0.104007f, 0.229033f, -0.142724f, -0.160206f, -0.173971f, 0.135236f, 0.018221f, 0.214867f, -0.152357f, 0.051755f, -0.001616f, 0.030790f, -0.160531f, -0.064426f, -0.310580f, -0.206287f, 0.094232f, 0.154139f, -0.013648f, -0.028839f, 0.207977f, -0.024945f, 0.214849f, -0.008822f, 0.026633f, 0.181942f, 0.073298f, 0.014518f, -0.161739f, -0.149961f, 0.053927f, 0.182415f, 0.134743f, -0.047675f, 0.071820f, -0.149202f, 0.015830f, 0.196008f, -0.161214f, -0.028412f, 0.049511f, -0.131489f, 0.106788f, 0.070131f, 0.055248f, -0.128453f, -0.708886f, -0.159266f, -0.100923f, 0.067529f, 0.109107f, 0.091830f, -0.055927f, 0.185732f, -0.081205f, 0.042972f, 0.116704f, -0.001480f, 0.132258f, 0.114790f, -0.244114f, 0.065217f, -0.085443f, -0.001725f, -0.030988f, -0.134633f, 0.014652f, 0.148410f, 0.151549f, 0.165258f, 0.092371f, 0.159097f, -0.124727f, 0.089352f, -0.191364f, -0.122063f, -0.053471f, 0.141775f, -0.182532f, -0.004247f, 0.170366f, -0.009087f, -0.201093f, -0.071946f, -0.181558f, -0.101633f, 0.135981f, 0.079968f, -0.197063f, 0.177289f, -0.179192f, 0.048063f, -0.141508f, -0.120703f, -0.011486f, -0.114549f, -0.082593f, -0.050850f, 0.176195f, -0.073805f, -0.069372f, 0.046802f, -0.240275f, 0.008889f, 0.097557f, -0.129052f, 0.175996f, -0.130341f, 0.159680f, -0.126904f, -0.050376f, -0.048301f, 0.013116f, -0.052397f, 0.178159f, 0.153150f, 0.183604f, -0.076746f, -0.207209f, -0.077253f, -0.000680f, -0.174162f, 0.171679f, 0.057095f, 0.003290f, 0.128213f, -0.040813f, 0.069069f, -0.047213f, -0.176460f, -0.168518f, 0.017978f, -0.086579f, 0.045663f, -0.204147f, 0.035842f, 0.101417f, -0.133618f, 0.095283f, 0.005013f, 0.196423f, -0.186903f, 0.092423f, 0.019505f, -0.061403f, -0.077156f, 0.043829f, -0.193592f, 0.166436f, 0.121648f, -0.269673f, 0.041790f, 0.013007f, 0.182949f, -0.175344f, 0.090270f, -0.070780f, 0.199993f, -0.042240f, 0.095982f, 0.041116f, 0.194819f, 0.135843f, 0.257618f, -0.150023f, -0.072624f, -0.072657f, -0.198642f, 0.136096f, -0.097725f, 0.040725f, -0.226071f, 0.000621f, -0.018853f, -0.295775f, -0.049906f, 0.058374f, 0.140795f, -0.170456f, 0.054236f, 0.098001f, -0.378070f, -0.052990f, -0.052410f, 0.082571f, -0.061858f, 0.055361f, -0.033215f, -0.061365f, -0.006084f, -0.006625f, 0.063714f, 0.049362f, -0.120982f, -0.022675f, 0.023455f, -0.042783f, 0.183406f, -0.048294f, -0.090303f, 0.020970f, 0.191998f, 0.019722f, -0.031236f, 0.164648f, 0.133673f, -0.109522f, 0.118546f, -0.315386f, 0.103552f, 0.214861f, 0.129764f, 0.088418f, -0.008154f, -0.114674f, 0.019816f, -0.204519f, -0.005632f, -0.307489f, -0.129225f, -0.119661f, 0.099129f, 0.073432f, 0.043808f, 0.228228f, -0.013614f, 0.011786f, -0.109934f, 0.122391f, 0.104134f, 0.015341f, -0.078465f, -0.000130f, -0.107693f, 0.132611f, -0.076895f, 0.151179f, 0.140067f, 0.173982f, 0.075591f, -0.634265f, -0.028441f, 0.087241f, -0.176954f, -0.144989f, -0.231542f, -0.046466f, -0.191772f, -0.037223f, -0.114974f, 0.115752f, 0.046517f, -0.066193f, -0.592448f, -0.112791f, -0.055770f, 0.103586f, -0.221629f, 0.067689f, 0.128002f, -0.213912f, -0.205360f, 0.026776f, -0.108983f, 0.159227f, 0.020267f, -0.000000f, 0.099654f, -0.111391f, 0.110622f, 0.023850f, -0.191983f, -0.074126f, -0.014279f, 0.050603f, 0.232998f, 0.189791f, -0.155099f, 0.142363f, -0.140622f, -0.047351f, -0.023921f, 0.203576f, -0.188034f, 0.244529f, -0.047603f, -0.122760f, 0.057376f, 0.121431f, -0.100067f, 0.172056f, 0.159371f, -0.013434f, -0.157715f, 0.293182f, -0.155833f, -0.101185f, -0.165820f, -0.058941f, 0.119167f, 0.036886f, -0.005405f, 0.039662f, -0.050603f, -0.012873f, 0.062205f, -0.009813f, -0.253515f, -0.225651f, 0.072615f, -0.163422f, 0.039363f, -0.131207f, 0.101932f, -0.033319f, 0.078300f, 0.003003f, -0.176058f, -0.000000f, -0.134862f, 0.016135f, -0.112797f, 0.102309f, -0.183382f, 0.146875f, -0.095408f, -0.087676f, -0.038373f, 0.049355f, 0.203040f, -0.090849f, -0.024719f, -0.178575f, 0.187681f, -0.029062f, -0.124490f, 0.207854f, -0.187066f, -0.027130f, -0.064868f, -0.150898f, -0.106078f, -0.059369f, -0.125446f, -0.145890f, 0.163497f, 0.123371f, -0.107519f, 0.159488f, 0.058958f, 0.105176f, -0.026248f, 0.018879f, 0.052121f, -0.008913f, 0.113154f, 0.096705f, 0.249651f, 0.033626f, 0.140585f, 0.030499f, 0.023655f, 0.034196f, 0.123797f, -0.177333f, -0.134116f, 0.021032f, -0.002824f, 0.002445f, 0.142520f, -0.235573f, 0.078048f, -0.174068f, 0.118412f, -0.176926f, -0.068286f, 0.124228f, -0.203848f, -0.270751f, 0.014728f, 0.195357f, 0.063316f, -0.177162f, 0.018982f, 0.147712f, -0.139996f, 0.027605f, -0.246519f, 0.046455f, -0.075612f, -0.100645f, 0.155891f, 0.311244f, -0.113942f, -0.080377f, -0.093686f, -0.167661f, 0.110445f, -0.128040f, -0.225204f, 0.045688f, 0.150211f, 0.220951f, -0.132616f, -0.100642f, 0.106065f, -0.150150f, -0.087021f, -0.140540f, -0.173407f, 0.130982f, 0.284067f, 0.159427f, -0.167318f, -0.022655f, -0.157306f, 0.202334f, 0.190696f, 0.245865f, 0.003017f, 0.280646f, -0.054437f, -0.100391f, 0.075347f, -0.354603f, -0.128457f, -0.068153f, 0.114667f, -0.182944f, -0.129984f, 0.028931f, -0.236864f, 0.103496f, -0.027827f, 0.015053f, 0.084277f, 0.089841f, -0.055373f, 0.078123f, -0.097473f, 0.118583f, 0.093295f, -0.147959f, -0.055933f, 0.161306f, -0.083352f, -0.065815f, -0.042984f, 0.118586f, -0.132541f, 0.160702f, 0.115471f, -0.043818f, -0.218487f, -0.065978f, -0.057105f };
static float MLP_buf1[100];
static float MLP_buf2[100];
static const EmlNetLayer MLP_layers[2] = { 
{ 100, 7, MLP_layer_0_weights, MLP_layer_0_biases, EmlNetActivationRelu }, 
{ 27, 100, MLP_layer_1_weights, MLP_layer_1_biases, EmlNetActivationSoftmax } };
static EmlNet MLP = { 2, MLP_layers, MLP_buf1, MLP_buf2, 100 };

    int32_t
    MLP_predict(const float *features, int32_t n_features)
    {
        return eml_net_predict(&MLP, features, n_features);
    }
    

    int32_t
    MLP_regress(const float *features, int32_t n_features, float *out, int32_t out_length)
    {
        return eml_net_regress(&MLP, features, n_features, out, out_length);
    }
    

    float
    MLP_regress1(const float *features, int32_t n_features)
    {
        return eml_net_regress1(&MLP, features, n_features);
    }
    