
#include <eml_net.h>
static const float MLP_layer_0_biases[100] = { 0.090819f, 0.032929f, -0.245473f, -0.037954f, 0.154923f, -0.243577f, -0.285419f, 0.431982f, -0.064205f, 0.159140f, 0.172278f, 0.248057f, -0.102628f, 0.039397f, 0.019716f, -0.016587f, -0.217905f, -0.140389f, 0.225362f, 0.082822f, 0.128677f, -0.160945f, -0.092185f, 0.102009f, -0.079149f, -0.010268f, -0.044442f, 0.193591f, -0.037315f, -0.060570f, -0.043715f, 0.174370f, -0.339812f, 0.073016f, -0.055492f, -0.023913f, 0.177200f, -0.105519f, 0.213901f, -0.350926f, -0.075678f, 0.113873f, -0.362499f, 0.065810f, -0.017833f, -0.071715f, 0.035263f, 0.266569f, 0.024674f, 0.104922f, 0.194301f, -0.058932f, 0.166919f, 0.039629f, 0.253411f, -0.056244f, -0.325494f, 0.160183f, -0.300009f, 0.076795f, 0.270386f, -0.128449f, 0.243957f, 0.098718f, 0.075275f, 0.090356f, -0.138106f, 0.135498f, -0.160239f, -0.050331f, 0.189531f, -0.034972f, -0.035331f, -0.082614f, 0.052106f, -0.039947f, -0.205991f, 0.149063f, 0.256675f, 0.059691f, 0.140163f, -0.258303f, -0.240407f, -0.156749f, 0.125267f, 0.219559f, 0.099981f, -0.096835f, 0.148701f, 0.159518f, 0.149642f, 0.341998f, 0.060242f, 0.011236f, 0.353445f, -0.061449f, -0.306023f, 0.080410f, 0.168721f, 0.206236f };
static const float MLP_layer_0_weights[700] = { -0.011432f, 0.339069f, -0.050305f, 0.019089f, 0.169256f, -0.202541f, -0.158072f, -0.217634f, 0.144222f, -0.102180f, -0.201544f, -0.175299f, 0.066668f, -0.073671f, 0.278524f, -0.087323f, -0.195716f, -0.033456f, -0.212453f, -0.166774f, -0.050989f, 0.197406f, 0.114492f, -0.076050f, -0.005857f, 0.042370f, -0.006568f, -0.004326f, 0.004182f, -0.092092f, -0.080339f, 0.160240f, -0.252117f, -0.024765f, -0.125147f, -0.226533f, 0.177438f, -0.135608f, -0.571985f, 0.148193f, 0.155230f, -0.020823f, -0.138806f, -0.074218f, 0.174894f, 0.054592f, 0.078697f, 0.026397f, -0.122062f, 0.155867f, -0.032712f, -0.641679f, -0.132799f, -0.222583f, -0.240222f, 0.195472f, 0.065164f, -0.247890f, 0.145664f, -0.158665f, 0.150317f, 0.152346f, 0.156560f, 0.114208f, 0.087352f, -0.077839f, -0.251028f, -0.359935f, -0.041519f, 0.128310f, -0.029943f, 0.012069f, -0.167263f, 0.087261f, -0.007785f, 0.190220f, -0.206308f, -0.065452f, -0.019590f, -0.362037f, -0.251309f, -0.057117f, -0.168098f, -0.280304f, -0.211297f, 0.174109f, 0.140433f, 0.040232f, 0.038095f, 0.144128f, 0.064953f, 0.069132f, -0.249370f, 0.036348f, -0.191317f, -0.337478f, 0.219924f, 0.047393f, 0.015961f, 0.006293f, 0.209199f, -0.119140f, -0.144697f, -0.107298f, -0.046924f, -0.080916f, -0.114119f, -0.036039f, -1.194063f, -0.026064f, 0.156606f, 0.208442f, 0.230546f, -0.290282f, 0.233155f, 0.243864f, -0.094143f, -0.181545f, 0.236307f, -0.216498f, 0.159678f, 0.005114f, -0.085722f, 0.187924f, 0.079068f, -0.064937f, 0.163841f, -0.218603f, 0.098920f, -0.185429f, -0.144549f, -0.227420f, 0.043162f, 0.028021f, -0.058517f, -0.111402f, 0.102042f, 0.192362f, -0.100830f, 0.107816f, 0.263428f, -0.141453f, -0.236511f, 0.151807f, -0.198168f, 0.215916f, -0.068545f, -0.207155f, 0.181143f, -0.110890f, 0.174074f, 0.083800f, -0.061802f, -0.011532f, -0.044833f, -0.057342f, -0.139271f, -0.211045f, 0.077701f, -0.030673f, -0.309427f, -0.081525f, -0.233717f, 0.137959f, 0.207854f, -0.156639f, 0.000577f, 0.025869f, 0.198680f, 0.196019f, -0.130878f, 0.230054f, -0.178418f, 0.023725f, 0.105820f, -0.133075f, 0.033080f, 0.002684f, -0.144348f, -0.148834f, 0.168885f, 0.137835f, -0.064008f, -0.170853f, -0.165557f, -0.038644f, 0.193499f, -0.173212f, 0.278171f, -0.195457f, 0.147606f, -0.121446f, 0.137788f, 0.144933f, -0.199073f, -0.014535f, 0.118534f, 0.083172f, -0.205406f, 0.170993f, 0.140288f, -0.051581f, 0.154775f, 0.160919f, 0.180528f, -0.197009f, -0.158164f, -0.127184f, -0.817048f, -1.683175f, 0.259442f, -0.154707f, 0.100665f, 0.218915f, -0.212228f, 0.070572f, 0.170141f, 0.170330f, 0.147436f, -0.020944f, -0.152037f, -0.031224f, 0.158750f, -0.160285f, 0.109600f, 0.168632f, -0.031538f, 0.110783f, 0.012652f, 0.269417f, -0.134376f, -0.014051f, -0.109039f, 0.069252f, -0.489845f, 0.182443f, 0.174095f, -0.016152f, 0.003622f, 0.191469f, 0.176627f, -0.019551f, 0.234493f, 0.149666f, -0.102955f, 0.163278f, -0.276406f, 0.295391f, -0.062811f, -0.096738f, -1.154613f, 0.279288f, -0.725623f, 0.044858f, -0.108809f, -0.039458f, -0.000068f, 0.073024f, -0.169731f, -0.040590f, -0.076375f, -0.087160f, -0.285858f, -0.049098f, 0.067271f, -0.084756f, 0.172134f, 0.078567f, -0.198946f, -0.177339f, -0.211916f, -0.186130f, 0.153258f, -0.154065f, 0.160027f, -0.092779f, 0.112080f, -0.027178f, -0.170548f, 0.052245f, -0.097684f, 0.193411f, 0.139343f, 0.296387f, -0.167498f, 0.111914f, -0.056654f, -0.022987f, 0.155313f, 0.264903f, 0.053569f, -0.285533f, -0.185378f, 0.201346f, -0.067515f, -0.080704f, 0.091094f, -0.091515f, -0.184306f, 0.065466f, 0.039509f, -0.276848f, -0.104898f, 0.163383f, 0.041983f, -0.092028f, 0.044634f, 0.168343f, 0.135853f, -0.022279f, -0.152139f, 0.176399f, -0.175244f, -0.156874f, -0.068726f, -0.053120f, 0.064516f, 0.111126f, 0.192616f, -0.133353f, 0.024639f, -0.235815f, 0.216159f, -0.110436f, 0.011976f, -0.114755f, 0.204265f, -0.112919f, 0.113269f, 0.103464f, -0.119332f, -0.166322f, -0.118665f, -0.101411f, 0.206007f, 0.142301f, -0.158880f, -0.055915f, -0.186962f, -0.088385f, -0.027320f, 0.295025f, -0.020812f, -0.088276f, -0.216509f, -0.176813f, -0.195366f, 0.184712f, 0.107551f, 0.081611f, 0.014610f, -0.139890f, 0.052185f, -0.176084f, -0.173887f, -0.199566f, 0.197563f, -0.148593f, -0.253450f, -0.087070f, 0.186513f, -0.149692f, -0.141754f, 0.155129f, -0.178474f, -0.082358f, -0.054099f, -0.130268f, 0.172387f, -0.121119f, -0.201002f, 0.016840f, 0.178933f, -0.082663f, -0.164301f, 0.154287f, 0.156691f, 0.046477f, 0.303520f, 0.010890f, 0.028741f, -0.184855f, -0.104812f, 0.044301f, -0.210400f, -0.173852f, 0.032407f, -0.212242f, -0.036442f, -0.147294f, -0.054992f, -0.177036f, 0.137821f, 0.214186f, 0.131086f, 0.190699f, -0.090187f, 0.112482f, 0.186293f, 0.025987f, 0.108765f, 0.079833f, 0.221955f, -0.029819f, -0.046011f, 0.056201f, 0.190014f, 0.069638f, -0.231145f, 0.099626f, 0.114359f, -0.061998f, -0.248403f, 0.217110f, 0.017731f, 0.046349f, 0.122613f, -0.231795f, -0.152727f, -0.224284f, -0.228035f, 0.018220f, 0.028389f, -0.093795f, 0.139547f, -0.084387f, -0.152556f, -0.159750f, -0.139057f, 0.055674f, -0.224548f, -0.149374f, 0.097240f, 0.025297f, -0.116186f, -0.234361f, -0.063615f, -0.000633f, -0.247472f, 0.009952f, 0.077070f, -0.041720f, 0.205992f, 0.076488f, 0.163619f, -0.206022f, -0.070367f, -0.304478f, 0.114801f, 0.101340f, -0.060147f, -0.039012f, -0.057431f, -0.171281f, 0.146976f, 0.095700f, 0.023072f, 0.065200f, 0.145176f, 0.018806f, -0.073632f, -0.073469f, 0.105698f, 0.069296f, 0.017363f, 0.032178f, 0.158105f, 0.155773f, -0.173427f, 0.018801f, 0.135771f, 0.163048f, 0.184614f, -0.258343f, -0.148302f, 0.129966f, -0.173055f, 0.195054f, -0.038879f, -0.200255f, -0.248304f, -0.038613f, -0.159743f, -0.133969f, 0.093571f, -0.114530f, -0.232081f, 0.220765f, -0.192395f, -0.166842f, -0.006134f, 0.196320f, 0.187699f, -0.116119f, 0.187749f, -0.172022f, 0.268857f, -0.102431f, -0.056064f, -0.055717f, -0.253292f, 0.012202f, -0.037466f, 0.061108f, 0.176421f, -0.017993f, 0.179422f, -0.004763f, 0.059429f, 0.060548f, 0.186773f, -0.103137f, 0.038208f, 0.175713f, 0.042762f, 0.167048f, -0.131749f, 0.183262f, 0.103549f, -0.227751f, 0.073090f, -0.160360f, 0.016153f, -0.102330f, 0.057665f, -0.179146f, 0.110422f, -0.052726f, 0.092196f, 0.015015f, -0.210173f, -0.319478f, -0.172499f, -0.013433f, -0.028128f, -0.183150f, 0.272630f, -0.121035f, -0.187336f, 0.029733f, 0.011168f, -0.056410f, 0.076862f, -0.030151f, -0.206006f, -0.146177f, 0.110736f, -0.015881f, 0.240040f, 0.074792f, 0.228465f, 0.110400f, 0.101467f, -0.163090f, -0.241689f, 0.031503f, -0.220524f, -0.204520f, -0.264753f, 0.161470f, 0.034050f, -0.155302f, 0.096695f, 0.105628f, 0.177766f, 0.018538f, -0.000650f, -0.085728f, -0.273736f, 0.087255f, 0.159566f, 0.119407f, 0.005606f, -0.182509f, -0.199446f, 0.111528f, -0.274148f, 0.003647f, -0.205607f, 0.176632f, 0.219249f, -0.110586f, -0.178812f, 0.174292f, -0.123457f, 0.104045f, -0.002074f, -0.136495f, 0.139150f, -0.216488f, 0.130835f, -0.137912f, -0.080401f, 0.064984f, -0.094831f, -0.167410f, 0.113509f, -0.016720f, 0.169669f, 0.130463f, 0.236080f, -0.166901f, 0.086967f, -0.029138f, -0.084443f, 0.070733f, 0.086828f, -0.152269f, -0.040011f, -0.122576f, 0.120700f, 0.018886f, 0.032934f, 0.221047f, -0.182715f, 0.066850f, 0.170975f, -0.222989f, -0.205129f, -0.029824f, -0.023808f, -0.194429f, 0.122006f, -0.091586f, -0.263291f, 0.061049f, 0.060996f, -0.265861f, 0.246420f, -0.148411f, 0.046973f, 0.139041f, 0.137772f, -0.120550f, 0.344401f, -0.126680f, -0.037090f, -0.169854f, -0.267600f, 0.078700f, -0.047679f, -0.021628f, -0.192180f, 0.024694f, -0.069370f, 0.225295f, -0.158263f, -0.267265f, 0.118787f, 0.219209f, 0.104625f, 0.307117f, -0.052087f, -0.121907f, -0.015834f, -0.203870f, 0.236128f, -0.021885f, 0.250890f, 0.167083f, -0.167660f, 0.068566f, -0.269484f, -0.046327f, 0.147693f, -0.201800f, 0.070638f, 0.141620f, -0.164883f, 0.143257f, 0.009562f, 0.187237f, -0.106796f, -0.044361f, -0.012888f, 0.010937f, -0.053561f, -0.188601f, 0.111951f, -0.190347f, -0.163135f, -0.228507f, 0.208715f, 0.005797f, 0.112243f, 0.181125f, -0.115057f, -0.033143f, 0.316954f, -0.241089f, -0.174867f, -0.165021f, -0.073330f, -0.099667f, 0.135353f, 0.052069f, -0.091136f, -0.076809f, -0.165849f, -0.161793f };
static const float MLP_layer_1_biases[27] = { 0.188828f, 0.140351f, -0.140233f, 0.030722f, 0.114397f, -0.187178f, 0.024487f, -0.213394f, 0.093412f, 0.140302f, -0.173074f, 0.201146f, -0.080962f, -0.011441f, -0.132774f, -0.073223f, 0.240548f, 0.141641f, -0.193851f, -0.114973f, -0.213085f, 0.093595f, -0.084606f, 0.226001f, 0.321092f, 0.171172f, 0.038088f };
static const float MLP_layer_1_weights[2700] = { 0.111028f, 0.082650f, -0.150333f, 0.110543f, -0.261684f, 0.059054f, 0.076288f, 0.075280f, 0.055858f, 0.078455f, -0.147487f, -0.128031f, -0.206226f, 0.133302f, -0.013462f, 0.093643f, 0.031209f, 0.179077f, 0.170699f, 0.233194f, 0.015853f, -0.071968f, -0.296406f, 0.053313f, -0.017800f, -0.029126f, 0.076963f, 0.114722f, -0.045761f, 0.083343f, 0.535515f, -0.148644f, 0.102040f, -0.139178f, -0.127209f, -0.232525f, 0.026548f, 0.159080f, -0.325904f, -0.125649f, 0.199311f, -0.894351f, 0.207907f, 0.085655f, 0.049250f, 0.071314f, -0.251986f, 0.114562f, 0.025091f, -0.016585f, 0.136177f, -0.128877f, -0.122737f, -0.163884f, -0.021972f, 0.018665f, -0.156677f, -0.075808f, 0.129602f, -0.104415f, -0.265864f, -0.052484f, 0.173391f, -0.289234f, -0.027529f, -0.180375f, 0.208870f, 0.114299f, -0.050021f, -0.186855f, -0.002901f, -0.032774f, 0.132946f, 0.116772f, 0.031661f, -0.012103f, -0.259319f, 0.204530f, 0.167736f, -0.158858f, 0.129168f, 0.082723f, -0.033377f, -0.047532f, -0.097504f, 0.177115f, -0.072621f, 0.060244f, 0.026872f, -0.154482f, 0.173069f, 0.019747f, -0.091625f, 0.177332f, -0.117645f, 0.076958f, 0.197712f, -0.065401f, 0.265533f, 0.205316f, 0.036210f, 0.056730f, 0.098214f, 0.103438f, 0.105455f, 0.228679f, -0.221853f, 0.194416f, -0.098117f, -0.004290f, -0.130848f, -0.021908f, 0.149982f, -0.041018f, 0.176780f, -0.048997f, 0.112459f, -0.124890f, 0.176519f, 0.045448f, -0.101048f, -0.102421f, -0.013881f, 0.220447f, -0.153300f, -0.173589f, 0.057909f, -0.136315f, -0.065453f, 0.129140f, 0.175413f, 0.193156f, -0.003414f, 0.066118f, 0.190941f, -0.152157f, -0.147032f, 0.075124f, -0.339606f, -0.004262f, -0.106312f, -0.140074f, -0.018956f, -0.089365f, 0.045183f, -0.010250f, -0.367170f, 0.048333f, -0.149727f, -0.011564f, 0.049267f, -0.149322f, -0.213055f, -0.105489f, -0.009496f, -0.166775f, -0.188158f, -0.150434f, -0.114687f, -0.000094f, -0.011112f, 0.165838f, -0.084691f, 0.052340f, -0.136899f, 0.288569f, -0.101807f, 0.135838f, -0.000324f, 0.041649f, 0.195870f, -0.027724f, -0.128183f, 0.205157f, -0.054137f, -0.086248f, -0.126693f, -0.177988f, 0.163610f, -0.167143f, -0.002164f, 0.081964f, 0.009231f, -0.093575f, -0.114990f, -0.027859f, 0.131026f, -0.006362f, -0.152596f, -0.021174f, -0.045786f, -0.295539f, 0.281927f, -0.232391f, 0.152717f, -0.279487f, -0.089794f, 0.104605f, -0.207630f, -0.068448f, -0.026425f, -0.049492f, -0.085004f, 0.032883f, -0.261459f, 0.135481f, 0.013272f, 0.116183f, 0.041516f, -0.074401f, 0.202863f, 0.099522f, 0.064380f, -0.152213f, 0.177323f, -0.209383f, 0.147381f, -0.221897f, -0.031126f, -0.303069f, -0.123219f, -0.200131f, -0.392700f, -0.020367f, -0.140339f, 0.079433f, -0.243146f, -0.295169f, -0.250968f, 0.214379f, -0.114768f, 0.270766f, -0.056360f, -0.152644f, 0.243259f, -0.146253f, 0.114529f, -0.642324f, 0.382997f, -0.026412f, -0.007634f, 0.022670f, 0.063369f, -0.184136f, -0.145508f, -0.343890f, -0.645366f, -0.180393f, 0.160845f, 0.055230f, -0.059812f, 0.054944f, -0.250576f, 0.028482f, -0.078946f, -0.002603f, 0.187398f, -0.183733f, -0.068309f, -0.118131f, 0.155664f, -1.195557f, 0.010065f, -0.172585f, 0.314309f, 0.746848f, 0.160919f, -0.015545f, -0.038442f, -0.012889f, 0.062023f, 0.137674f, 0.030535f, 0.004800f, 0.055785f, -0.046606f, -0.191050f, -0.038615f, -0.106077f, -0.262182f, 0.077856f, 0.263969f, 0.180061f, -0.282428f, -0.249657f, 0.172996f, 0.118958f, -0.044874f, -0.622163f, 0.144640f, -0.060836f, -0.243278f, -0.019664f, 0.153791f, 0.317465f, -0.097467f, -0.169048f, -0.007382f, -0.120037f, 0.054035f, 0.201240f, -0.128136f, -0.325863f, 0.087745f, -0.128013f, -0.054113f, 0.069092f, 0.278985f, -0.149680f, -0.213073f, 0.079668f, 0.102419f, -0.104955f, -0.008875f, 0.113395f, -0.031084f, 0.128708f, 0.075294f, -0.176755f, -0.126172f, -0.081937f, -0.396356f, -0.140672f, -0.274023f, 0.074223f, -0.224637f, 0.052057f, -0.593377f, 0.093395f, -0.074290f, 0.214842f, -0.133474f, 0.082955f, 0.343475f, -0.016255f, -0.057791f, -0.015995f, -0.195668f, 0.077232f, -0.236392f, -0.171893f, -0.156700f, -0.081327f, 0.101740f, 0.146003f, -0.185302f, -0.300218f, -0.148460f, 0.032652f, 0.286579f, 0.171493f, -0.043612f, -0.076684f, -0.061503f, 0.208364f, 0.200298f, -0.067746f, -0.164483f, 0.181264f, 0.181853f, 0.073549f, -0.257638f, 0.074470f, 0.095710f, 0.007794f, -0.401867f, -0.015466f, -0.105835f, -0.302479f, 0.253791f, -0.135956f, -0.271535f, 0.101963f, 0.054506f, 0.146533f, -0.247305f, -0.018838f, 0.116478f, -0.193668f, -0.397272f, 0.279776f, -0.155967f, -0.077121f, 0.145051f, 0.067385f, -0.008352f, -0.119649f, -0.107341f, -0.092406f, -0.236833f, -0.020296f, 0.035719f, 0.117494f, -0.128696f, -0.260245f, 0.036060f, -0.062207f, 0.067943f, -0.254528f, -0.165662f, 0.069439f, -0.128535f, -0.220869f, -0.277928f, -0.146170f, -0.175580f, 0.180063f, -0.101071f, -0.004504f, -0.117832f, -0.020566f, 0.117456f, 0.206212f, 0.019874f, -0.180809f, -0.000326f, 0.115057f, 0.199976f, 0.234775f, 0.119640f, -0.018213f, 0.037919f, -0.195786f, 0.085210f, 0.011759f, 0.129114f, 0.162391f, -0.116913f, 0.146799f, -0.118904f, -0.006413f, -0.245773f, 0.154981f, 0.178008f, -0.250654f, -0.161333f, 0.013770f, -0.080876f, -0.201166f, 0.235242f, 0.120997f, 0.154212f, -0.207652f, 0.189346f, 0.106895f, -0.244900f, -0.047761f, -0.002928f, 0.165620f, -0.035989f, -0.151105f, 0.130183f, 0.231107f, 0.065871f, -0.084708f, -0.163288f, 0.039241f, 0.159154f, 0.227980f, -0.005791f, -0.198609f, 0.042233f, 0.031126f, 0.173654f, -0.080932f, -0.272840f, 0.019986f, 0.139101f, 0.113037f, -0.059524f, -0.026003f, -0.043221f, 0.183715f, -0.062997f, -0.160750f, 0.097934f, -0.000791f, 0.153733f, -0.209733f, -0.057557f, 0.147806f, -0.154945f, -0.086343f, -0.117039f, -0.282077f, 0.094267f, -0.172355f, 0.246447f, -0.290525f, 0.208649f, -0.092877f, -0.290771f, 0.127770f, -0.045368f, 0.022595f, 0.275752f, -0.163981f, -0.104318f, 0.111765f, -0.131294f, -0.007805f, 0.081001f, -0.231518f, -0.394190f, -0.779975f, 0.058678f, 0.004580f, 0.014471f, 0.031763f, 0.116921f, -0.161965f, 0.175590f, 0.032941f, 0.196839f, 0.035229f, -0.043203f, -0.769589f, -0.015702f, -0.373220f, -0.304962f, -0.155361f, 0.041581f, -0.243667f, -0.087449f, -0.087187f, -0.099678f, -0.191307f, -0.044460f, -0.206536f, -0.321947f, -0.094080f, 0.107091f, -0.124617f, 0.041161f, -0.105336f, -0.000077f, -0.128629f, -0.000414f, -0.012416f, 0.138315f, -0.000977f, 0.090465f, -0.166096f, 0.185080f, -0.204818f, 0.151675f, 0.032641f, -0.070795f, -0.116366f, -0.165598f, 0.041159f, -0.028225f, 0.043693f, 0.012225f, -0.205131f, -0.051709f, -0.051607f, -0.183263f, -0.007961f, 0.088344f, -0.145794f, 0.076233f, -0.012933f, 0.066676f, -0.013752f, -0.311112f, 0.130989f, 0.141623f, 0.021272f, -0.074373f, -0.169193f, -0.041397f, 0.140884f, 0.251263f, -0.130345f, 0.072334f, 0.125154f, -0.239311f, 0.126917f, -0.000093f, 0.149153f, -0.062355f, -0.263684f, 0.140087f, 0.071259f, 0.074130f, -0.149694f, -0.012477f, 0.132324f, -0.942264f, -0.008618f, -0.253558f, 0.051013f, 0.107076f, 0.117897f, -0.177839f, 0.027216f, 0.125122f, 0.108960f, 0.174927f, -0.104144f, 0.214204f, -0.022237f, 0.157507f, 0.162412f, -0.062646f, 0.090387f, 0.003415f, 0.014217f, 0.200013f, 0.121542f, 0.120498f, -0.013964f, -0.034606f, 0.141860f, 0.056034f, 0.107853f, 0.152774f, 0.037954f, 0.180274f, -0.173335f, 0.118593f, -0.016553f, -0.198133f, -0.169081f, -0.015336f, 0.072683f, 0.249754f, -0.215644f, -0.074616f, -0.057947f, -0.151686f, -0.222712f, -0.179919f, -0.359711f, -0.174669f, -0.184608f, -0.106774f, -0.029227f, -0.049088f, 0.094030f, -0.093718f, -0.331780f, -0.040585f, -0.086966f, -0.000212f, -0.066454f, -0.237506f, 0.172938f, -0.146262f, 0.237595f, -0.019684f, -0.009977f, 0.170357f, -0.206145f, -0.031487f, 0.084436f, -0.187730f, -0.036833f, 0.213227f, -0.074165f, -0.016577f, 0.192303f, 0.044402f, -0.100247f, 0.138277f, -0.186987f, -0.082800f, 0.142849f, -0.115219f, 0.070117f, 0.009466f, 0.081904f, 0.126505f, 0.173247f, -0.063193f, 0.155083f, 0.115464f, -0.106232f, -0.009434f, -0.007909f, 0.167831f, -0.138609f, 0.077529f, -0.060047f, 0.021798f, -0.020920f, -0.021579f, 0.153867f, -0.005843f, 0.091471f, 0.127018f, 0.163318f, -0.021306f, 0.173871f, -0.322308f, 0.133458f, -0.000032f, -0.056252f, 0.042286f, 0.202052f, -0.131720f, 0.041708f, -0.186114f, 0.091839f, 0.212288f, 0.016137f, -0.278486f, -0.027256f, 0.196660f, -0.111856f, 0.016987f, 0.168655f, 0.297111f, -0.077354f, -0.037267f, 0.272736f, 0.168633f, -0.056779f, 0.069872f, 0.082255f, -0.082991f, -0.256774f, -0.003436f, 0.083197f, -0.219960f, -0.073529f, -0.137612f, -0.036147f, 0.041228f, 0.015174f, -0.312993f, -0.430788f, -0.003766f, 0.008960f, 0.005121f, -0.186065f, -0.179588f, -0.278186f, -0.462922f, -0.213529f, -0.156193f, 0.048552f, -0.046951f, -0.155770f, 0.000677f, 0.033155f, -0.134440f, -0.054114f, -0.112391f, -0.438641f, -0.367502f, -0.533719f, -0.000792f, -0.223981f, -0.257367f, -0.012165f, -0.027023f, 0.080692f, -0.173365f, 0.237215f, 0.059301f, 0.217705f, 0.031009f, 0.068417f, -0.044498f, -0.166697f, -0.170820f, 0.055772f, -0.036708f, 0.067339f, 0.162669f, -0.132790f, 0.064323f, -0.129842f, -0.194216f, 0.071815f, -0.021413f, -0.146770f, -0.184506f, 0.164873f, -0.076216f, 0.141543f, 0.078107f, -0.143672f, 0.065086f, 0.134716f, 0.029419f, 0.076381f, -0.273562f, 0.037943f, -0.066968f, -0.275531f, 0.085973f, -0.158616f, 0.249367f, -0.304844f, 0.005563f, 0.183598f, -0.151348f, 0.157338f, 0.042355f, -0.044942f, 0.183430f, -0.211845f, -0.227195f, -0.386921f, -0.039815f, -0.248337f, -0.023689f, 0.242162f, 0.071556f, 0.128690f, -0.039998f, -0.012251f, -0.048991f, -0.166752f, 0.175925f, -0.062225f, -0.000792f, -0.155640f, -0.165348f, -0.000010f, -0.185932f, 0.158534f, 0.142974f, -0.115011f, 0.100974f, 0.140444f, 0.056169f, -0.012093f, 0.029799f, -0.000073f, -0.053690f, -0.000376f, 0.006771f, 0.117695f, -0.090483f, -0.127167f, -0.117716f, 0.094913f, -0.007014f, -0.262642f, -0.098612f, 0.074811f, 0.084205f, 0.067167f, 0.033350f, 0.023190f, -0.160449f, 0.111926f, -0.156899f, 0.220533f, 0.168454f, -0.409991f, -0.093211f, -0.551485f, -0.010754f, 0.001039f, -0.000986f, 0.147023f, -0.001333f, -0.238247f, 0.121872f, -0.131121f, 0.361614f, 0.045334f, -0.291437f, -0.004877f, -0.269628f, -0.128207f, 0.044906f, -0.034009f, -0.163849f, -0.060113f, 0.119701f, -0.127092f, 0.185621f, 0.095554f, 0.046940f, 0.111945f, 0.267023f, 0.087250f, -0.118450f, 0.093128f, -0.050904f, -0.000001f, -0.158607f, -0.002629f, -0.067992f, 0.133997f, -0.111608f, -0.165442f, 0.107049f, 0.134150f, 0.180956f, -0.067694f, 0.148142f, -0.118190f, 0.006308f, -0.158065f, -0.023309f, 0.170723f, 0.042260f, 0.047850f, -0.060025f, 0.073794f, -0.010925f, -0.120491f, 0.038372f, 0.164439f, 0.024185f, 0.191729f, -0.463066f, 0.105110f, 0.062224f, -0.197895f, -0.024007f, 0.117615f, -0.022119f, -0.072945f, -0.064982f, -0.000676f, -0.029624f, -0.003641f, -0.286874f, 0.566219f, -0.083176f, -0.004478f, -0.133986f, -0.000008f, 0.006719f, -0.089117f, -0.226258f, -0.251774f, 0.081683f, -0.090272f, -0.006395f, 0.005640f, -0.216781f, 0.033480f, -0.087539f, -0.000060f, 0.110628f, 0.102513f, -0.117326f, -0.043265f, 0.157337f, -0.089470f, -0.247370f, 0.031334f, -0.136636f, -0.065883f, 0.133695f, -0.044767f, -0.027992f, -0.154825f, -0.148135f, 0.136059f, 0.049342f, -0.075654f, -0.154924f, 0.088843f, 0.165675f, -0.186791f, -0.222818f, 0.083660f, -0.000094f, -0.158625f, -0.063748f, 0.176813f, 0.153010f, 0.102431f, -0.008254f, 0.024579f, 0.367257f, -0.031714f, -0.413770f, 0.121533f, 0.203791f, -0.054105f, -0.162994f, 0.059456f, 0.145866f, -0.040187f, 0.196071f, -0.173194f, -0.184540f, -0.037859f, 0.040419f, -0.009028f, -0.014488f, -0.364312f, -0.200208f, -0.059957f, 0.197091f, 0.016611f, 0.144214f, -0.054163f, 0.065305f, 0.245899f, 0.011036f, 0.128571f, -0.304821f, -0.210250f, 0.013199f, -0.050798f, -0.128641f, 0.000867f, -0.326362f, -0.230188f, 0.134520f, 0.086688f, 0.110688f, -0.128682f, -0.071739f, -0.045422f, 0.032722f, 0.179840f, 0.125301f, -0.159410f, -0.001246f, -0.030721f, -0.395309f, 0.001143f, 0.050657f, 0.123145f, 0.078386f, 0.108221f, -0.432356f, -0.003125f, -0.000790f, -0.138645f, -0.263796f, -0.241357f, -0.167423f, -0.123826f, -0.343320f, -0.073025f, -0.135684f, -0.029876f, -0.015689f, -0.095007f, -0.074330f, -0.164565f, -0.046667f, 0.037164f, -0.080923f, -0.226250f, -0.271680f, -0.001173f, -0.008644f, 0.053428f, 0.057696f, 0.221163f, 0.079494f, -0.000676f, -0.010283f, 0.214661f, 0.183794f, 0.118803f, -0.176860f, -0.071997f, -0.092866f, 0.151648f, 0.029382f, 0.191147f, 0.228106f, 0.156864f, -0.184606f, 0.174612f, 0.239579f, -0.109486f, 0.184764f, 0.085548f, 0.107886f, -0.165639f, 0.247422f, 0.082216f, -0.046236f, -0.206617f, 0.200016f, 0.213041f, 0.163822f, -0.168899f, -0.068292f, 0.196289f, 0.114506f, -0.143622f, 0.199158f, 0.028102f, 0.112754f, 0.130896f, -0.036140f, -0.066691f, -0.087923f, 0.067523f, -0.065729f, 0.045127f, 0.037693f, -0.035282f, -0.207279f, -0.141253f, 0.030692f, 0.183223f, -0.082046f, -0.189738f, 0.194506f, 0.018317f, -0.052845f, -0.112964f, 0.206695f, -0.096058f, -0.047106f, -0.036449f, -0.057084f, 0.237854f, -0.164650f, 0.179026f, -0.212779f, -0.291899f, 0.181107f, 0.363731f, 0.089955f, -0.161677f, 0.155132f, -0.056137f, -0.003446f, -0.086100f, 0.155778f, -0.254527f, -0.078244f, -0.063533f, 0.160806f, -0.090627f, 0.085357f, -0.146011f, -0.121987f, -0.190694f, 0.150225f, 0.076841f, 0.041629f, -0.180321f, 0.004042f, -0.173387f, 0.154298f, 0.075828f, -0.062111f, -0.179770f, -0.194462f, 0.164432f, 0.196130f, -0.100520f, 0.111418f, -0.087280f, -0.220840f, -0.255717f, -0.136650f, -0.101553f, -0.156859f, 0.118635f, 0.106895f, 0.043089f, -0.139251f, 0.020482f, 0.049472f, 0.099992f, 0.081242f, -0.097682f, -0.033992f, -0.152682f, 0.214747f, 0.139421f, -0.095573f, 0.129307f, -0.012344f, -0.015957f, 0.056867f, -0.111431f, -0.356110f, -0.126368f, 0.274032f, 0.057176f, -0.188371f, -0.076674f, 0.074128f, 0.018468f, 0.142546f, 0.003746f, -0.416388f, -0.076397f, 0.453052f, -0.021072f, 0.132537f, -0.051129f, -0.017249f, -0.008667f, -0.396376f, 0.075798f, 0.182357f, -0.066105f, -0.259512f, -0.267324f, -0.047583f, 0.230430f, 0.043148f, 0.075317f, 0.032991f, -0.139785f, -0.067744f, -0.384005f, 0.013220f, -0.646264f, -0.066236f, -0.085372f, -0.133776f, -0.139626f, -0.015012f, -0.080170f, -0.007315f, 0.023858f, -0.118430f, -0.021661f, 0.124127f, -0.042322f, 0.262559f, 0.028634f, -0.132471f, -0.036959f, 0.037703f, -0.090031f, -0.000529f, -0.148100f, -0.044726f, 0.012243f, -0.296649f, -0.209556f, -0.000001f, 0.132905f, -0.097086f, 0.228524f, 0.027786f, -0.124769f, -0.223908f, -0.018256f, -0.430778f, -0.341614f, -0.038355f, -0.091178f, -0.053169f, -0.314331f, -0.189438f, -0.013649f, 0.191449f, 0.118317f, -0.028454f, -0.133717f, 0.022479f, -0.328049f, -0.146345f, -0.112564f, -0.090298f, -0.123840f, 0.161938f, -0.732257f, 0.027754f, -0.038835f, -0.298603f, -0.077603f, 0.105399f, -0.391201f, -0.102805f, 0.458068f, 0.179465f, -0.739917f, -0.289234f, -0.004124f, 0.061940f, 0.035349f, 0.170559f, -0.309314f, 0.024426f, -0.041185f, -0.296964f, 0.042869f, -0.165545f, 0.130339f, -0.366577f, -0.290015f, -0.097594f, -0.146978f, -0.093137f, -0.157858f, -0.090819f, -0.118784f, -0.068026f, 0.114849f, -0.130147f, 0.108369f, -0.181242f, 0.167055f, -0.320934f, -0.177112f, 0.092782f, -0.121632f, -0.002342f, 0.099239f, -0.022083f, -0.071357f, -0.191714f, -0.101729f, 0.216064f, 0.120363f, -0.053327f, 0.223055f, 0.210442f, 0.162644f, 0.110721f, 0.057896f, -0.121252f, -0.168720f, -0.089634f, -0.035461f, -0.054925f, -0.293103f, -0.084363f, -0.051786f, -0.152314f, -0.014038f, -0.006012f, 0.070812f, 0.146953f, 0.053225f, -0.076419f, 0.173461f, 0.050754f, -0.165261f, 0.057602f, -0.155700f, 0.181463f, -0.038564f, 0.070667f, -0.213939f, 0.081767f, -0.045079f, -0.100335f, 0.001295f, 0.204119f, -0.162177f, 0.106120f, 0.012089f, -0.059304f, 0.219006f, 0.065364f, -0.080555f, -0.391396f, -0.236766f, -0.050978f, 0.082706f, -0.156812f, 0.134535f, -0.283733f, -0.199280f, -0.286843f, -0.085999f, 0.046377f, -0.568194f, -0.018070f, -0.402554f, -0.084508f, 0.077963f, 0.114213f, 0.481030f, -0.038980f, -0.003956f, -0.016222f, -0.057557f, 0.206850f, 0.091129f, -0.230781f, -0.434735f, -0.466685f, 0.097844f, -0.450825f, 0.062443f, -0.083226f, -0.030867f, -0.101023f, -0.650486f, 0.000231f, -0.464081f, -0.017825f, 0.023072f, -0.027857f, -0.018459f, 0.010973f, -0.132397f, -0.119764f, 0.123652f, -0.287404f, -0.281650f, -0.121420f, 0.375510f, -0.232305f, -0.190485f, 0.126707f, -0.448541f, -0.503161f, -0.151289f, -0.187916f, -0.101829f, -0.213972f, -0.033641f, -0.053546f, -0.269979f, -0.016847f, -0.015715f, 0.087510f, 0.033727f, 0.050778f, -0.008287f, -0.011923f, -0.192779f, -0.024820f, -0.061510f, -0.521571f, 0.099930f, -0.210192f, -0.000912f, -0.021312f, 0.003476f, 0.280654f, -0.231598f, -0.148510f, -0.452420f, -0.013783f, -0.193840f, 0.034083f, -0.268604f, -0.290466f, -0.295048f, -0.163093f, -0.210720f, 0.080912f, 0.082443f, -0.160536f, 0.146529f, -0.050674f, -0.294050f, -0.178318f, -0.029403f, 0.151843f, -0.116224f, -0.002252f, -0.260862f, -0.000362f, -0.215937f, -0.105630f, 0.021748f, 0.155904f, -0.134084f, -0.090122f, -0.019943f, 0.018686f, 0.004361f, -0.212476f, -0.113740f, -0.089620f, -0.029879f, 0.198176f, -0.158134f, 0.005814f, 0.176843f, -0.019385f, 0.147388f, -0.016573f, -0.159259f, -0.303065f, -0.294694f, -0.133627f, -0.000089f, -0.084875f, -0.001932f, -0.117367f, -0.136846f, -0.078554f, -0.291063f, -0.009745f, 0.124936f, 0.234547f, 0.288149f, 0.171692f, 0.033869f, -0.161200f, 0.015847f, 0.098602f, -0.154926f, -0.099577f, 0.257093f, -0.222804f, 0.067592f, 0.190888f, -0.227295f, -0.043947f, -0.100260f, 0.112980f, 0.009649f, 0.121866f, -0.143810f, -0.020106f, -0.069310f, -0.167325f, 0.132112f, 0.181214f, 0.089125f, -0.074227f, -0.437011f, 0.053807f, -0.149486f, 0.088131f, 0.103205f, 0.037364f, -0.155140f, -0.176387f, 0.084335f, 0.089311f, -0.105267f, 0.218671f, 0.054074f, 0.020435f, 0.119539f, 0.001791f, 0.131209f, -0.184131f, -0.192835f, 0.119046f, 0.278232f, 0.064664f, 0.192237f, 0.043622f, 0.049929f, -0.023213f, -0.198418f, -0.012694f, 0.152190f, 0.082965f, -0.035426f, -0.159328f, -0.023512f, 0.000051f, 0.012240f, -0.070275f, 0.157517f, 0.069590f, -0.006676f, -0.075977f, -0.013491f, 0.183779f, -0.010978f, -0.178572f, -0.035942f, -0.000065f, -0.139790f, -0.133435f, -0.170592f, -0.092755f, 0.107584f, 0.159275f, 0.123957f, -0.341793f, -0.014169f, 0.095866f, -0.147999f, 0.233690f, 0.160092f, -0.023931f, 0.150118f, 0.195250f, -0.195478f, 0.081900f, 0.134378f, 0.064950f, -0.050635f, -0.007573f, -0.170463f, 0.231840f, 0.062882f, 0.103817f, -0.218272f, -0.007506f, -0.078446f, -0.196262f, 0.110569f, -0.029514f, 0.047826f, 0.035643f, 0.146142f, -0.201975f, -0.197270f, -0.225981f, 0.234085f, 0.088037f, -0.022992f, 0.175782f, 0.164294f, -0.226898f, -0.097796f, -0.001023f, 0.293234f, -0.082701f, -0.000761f, -0.149456f, 0.032913f, -0.090036f, 0.101164f, -0.128398f, -0.029494f, -0.023555f, -0.020260f, -0.205205f, 0.044632f, -0.224727f, 0.195143f, -0.267988f, 0.162180f, -0.121159f, -0.154104f, -0.184662f, 0.131410f, 0.102595f, 0.005767f, -0.283333f, 0.045323f, -0.193373f, -0.098377f, -0.445392f, -0.155830f, -0.184639f, -0.029384f, -0.109877f, -0.451753f, 0.165588f, 0.046804f, -0.008475f, -0.326153f, -0.160864f, 0.069451f, -0.143254f, 0.122105f, 0.097982f, 0.657222f, -0.010409f, -0.236530f, 0.197023f, 0.178440f, -0.000223f, 0.061140f, -0.156494f, -0.135653f, -0.106515f, 0.128683f, -0.216125f, -0.121677f, 0.025606f, 0.079818f, 0.012982f, 0.117457f, 0.120129f, -0.031734f, -0.005361f, 0.006016f, -0.147715f, -0.042948f, -0.134920f, 0.049784f, -0.074318f, 0.201798f, -0.388475f, -0.192417f, -0.182782f, -0.313855f, 0.142069f, -0.106899f, -0.056545f, -0.089383f, -0.140857f, 0.159339f, -0.091171f, 0.161028f, -0.011010f, 0.094277f, -0.096319f, 0.064768f, -0.164403f, -0.105036f, 0.127540f, 0.158141f, 0.095264f, -0.175067f, -0.029392f, 0.067543f, -0.145069f, -0.019685f, 0.088804f, -0.173630f, 0.108099f, -0.077071f, -0.055824f, -0.213087f, 0.135554f, 0.221745f, -0.183790f, 0.125890f, -0.013684f, 0.120494f, -0.024166f, 0.016308f, 0.109103f, -0.166202f, 0.024920f, -0.046054f, -0.155927f, 0.183252f, 0.167439f, -0.113325f, -0.176572f, -0.041614f, 0.180323f, 0.186576f, 0.036529f, -0.011109f, 0.057067f, 0.148218f, -0.172084f, -0.007243f, -0.011843f, 0.189259f, 0.106164f, 0.148649f, -0.012592f, 0.138620f, 0.216686f, 0.090833f, -0.353317f, -0.006891f, -0.144562f, -0.032348f, -0.125429f, -0.369698f, -0.035636f, -0.087661f, 0.253653f, -0.165550f, -0.061584f, -0.055619f, -0.057111f, -0.277293f, 0.085726f, -0.402665f, -0.254249f, 0.153285f, -0.201534f, -0.019559f, -0.120926f, -0.017384f, 0.126170f, 0.196222f, 0.041165f, 0.500218f, -0.063300f, -0.142111f, -0.106179f, 0.051165f, 0.093157f, -0.178691f, 0.104329f, -0.009629f, 0.190196f, -0.145798f, -0.020910f, -0.045087f, 0.001792f, -0.070844f, 0.213619f, -0.185945f, 0.093213f, -0.027166f, -0.186199f, 0.036645f, -0.169649f, 0.172999f, -0.094419f, -0.084845f, 0.037811f, -0.002014f, -0.052366f, -0.158493f, -0.074730f, -0.155639f, 0.010329f, -0.339990f, 0.227974f, 0.062331f, -0.016011f, -0.071758f, -0.263776f, -0.019329f, -0.062532f, 0.118743f, -0.010968f, 0.350779f, -0.144541f, 0.208978f, 0.110719f, -0.026126f, -0.243747f, 0.130994f, -0.007111f, 0.056577f, -0.190803f, -0.161505f, 0.098062f, -0.013695f, -0.070906f, -0.405943f, -0.173555f, 0.136466f, 0.133049f, -0.290593f, 0.136546f, -0.164771f, 0.035133f, -0.153741f, -0.480451f, 0.268400f, -0.194081f, -0.000874f, -0.127200f, 0.139707f, -0.033554f, -0.014756f, 0.101890f, -0.035105f, -0.143418f, -0.048235f, 0.097979f, -0.050191f, 0.061961f, -0.109550f, -0.199800f, -0.042933f, 0.167550f, 0.035339f, -0.175788f, -0.108091f, 0.267823f, -0.265131f, -0.006792f, -0.000219f, 0.147158f, -0.534258f, -0.002775f, -0.166459f, -0.075040f, -0.113888f, 0.004614f, -0.665530f, -0.327624f, -0.360216f, 0.198966f, -0.099738f, 0.254301f, 0.021255f, 0.149141f, -0.007818f, -0.036665f, 0.288709f, -0.353447f, -0.055617f, -0.070592f, -0.033817f, -0.137620f, -0.181142f, -0.118117f, -0.001668f, -0.024615f, 0.066227f, -0.532220f, -0.028489f, 0.110124f, -0.047410f, -0.088764f, -0.117044f, 0.061101f, 0.011848f, 0.124179f, -0.331821f, 0.110328f, -0.052423f, -0.024068f, 0.139857f, -0.071026f, -0.199971f, -0.031104f, -0.148151f, -0.161389f, -0.040844f, -0.157202f, -0.158935f, -0.181203f, 0.095323f, -0.127822f, 0.199374f, 0.085118f, 0.076759f, -0.034932f, 0.098122f, -0.210806f, 0.154702f, 0.042447f, -0.365552f, 0.106036f, -0.176791f, -0.071077f, 0.063902f, -0.072557f, -0.227904f, -0.064452f, 0.020464f, -0.068736f, 0.005515f, 0.216730f, -0.344571f, -0.087146f, -0.220840f, 0.105520f, 0.258791f, -0.068316f, 0.051272f, -0.104104f, -0.022933f, -0.021399f, 0.320957f, -0.260183f, -0.026511f, -0.154408f, -0.322380f, 0.045308f, 0.001797f, 0.002242f, -0.212742f, 0.164657f, -0.018303f, -0.203899f, -0.091369f, 0.134040f, 0.012416f, -0.068113f, 0.025383f, 0.256332f, -0.172074f, -0.036879f, 0.203632f, 0.056447f, 0.232463f, 0.133491f, -0.158084f, -0.023688f, 0.105840f, -0.142795f, -0.009686f, 0.131403f, 0.046176f, -0.204482f, 0.291877f, -0.017010f, 0.093489f, 0.272166f, -0.255741f, 0.031916f, -0.062537f, -0.146613f, -0.169964f, -0.069187f, 0.094031f, 0.113818f, -0.192284f, -0.466118f, -0.014857f, -0.068696f, -0.083869f, -0.206023f, -0.149903f, -0.010045f, 0.150328f, -0.000423f, -0.172664f, 0.113508f, 0.160985f, -0.172407f, -0.129747f, -0.031633f, -0.016908f, 0.023165f, 0.244985f, 0.058863f, 0.088018f, -0.065608f, -0.106838f, 0.146054f, 0.023198f, -0.135361f, -0.110676f, 0.050630f, 0.052809f, 0.087971f, -0.206849f, -0.049749f, 0.025400f, -0.174160f, -0.000722f, 0.020468f, -0.147549f, 0.227016f, 0.136847f, -0.182083f, -0.459496f, -0.105977f, -0.145409f, -0.036982f, 0.049841f, -0.197819f, -0.186649f, 0.113557f, -0.162523f, -0.052645f, 0.148929f, 0.090756f, 0.082292f, -0.011615f, -0.080639f, -0.132395f, 0.096713f, -0.055246f, -0.004180f, -0.195010f, 0.057121f, -0.034730f, -0.079837f, 0.101728f, -0.005962f, 0.125357f, -0.137805f, 0.019211f, 0.011670f, 0.191404f, -0.097384f, -0.041070f, -0.092712f, -0.195062f, -0.165538f, -0.053604f, -0.106965f, 0.076459f, -0.224470f, -0.090579f, -0.026136f, -0.113936f, 0.170040f, 0.130588f, -0.173341f, 0.066564f, -0.078731f, -0.085363f, -0.000132f, 0.103570f, 0.247064f, 0.220489f, -0.181593f, -0.137172f, -0.072152f, -0.290780f, 0.177761f, 0.141110f, -0.167057f, -0.104425f, 0.164854f, -0.107516f, -0.010771f, -0.227737f, 0.146132f, -0.146211f, 0.054880f, 0.151944f, -0.153794f, 0.217732f, 0.019844f, -0.028299f, -0.187190f, 0.043591f, 0.204798f, -0.101573f, 0.062206f, 0.035308f, 0.068260f, -0.161846f, 0.028635f, -0.029303f, -0.137446f, 0.222191f, -0.471239f, 0.166152f, 0.053206f, 0.098022f, 0.217999f, 0.134779f, -0.097336f, 0.068970f, -0.138201f, -0.385341f, 0.259110f, 0.259211f, 0.051772f, 0.089034f, 0.123605f, -0.054576f, 0.155199f, 0.305471f, -0.252183f, -0.178993f, -0.090892f, -0.077321f, -0.053862f, -0.174347f, -0.117551f, -0.181797f, 0.194861f, -0.101355f, 0.050528f, -0.232461f, -0.157773f, 0.068525f, -0.215460f, -0.319703f, 0.284466f, -0.076739f, -0.036100f, 0.156807f, 0.277457f, 0.113256f, -0.134515f, 0.155327f, -0.174912f, -0.050242f, -0.046151f, -0.268189f, -0.321755f, -0.070253f, 0.111384f, 0.111984f, -0.020297f, -0.270022f, -0.302534f, 0.071439f, -0.303487f, 0.129583f, -0.050433f, -0.159785f, -0.267052f, 0.027400f, 0.072565f, 0.348263f, -0.224186f, 0.110040f, -0.231096f, 0.236890f, -0.096021f, -0.124350f, -0.101294f, -0.195312f, 0.005936f, -0.055539f, -0.422784f, -0.153760f, -0.058254f, -0.098163f, 0.019486f, -0.191607f, 0.125862f, -0.223277f, 0.036537f, -0.173988f, 0.037326f, -0.039067f, 0.106309f, 0.063109f, -0.154358f, -0.097253f, -0.407422f, -0.115003f, -0.116770f, -0.041773f, -0.064920f, -0.241791f, 0.142134f, 0.033537f, -0.051366f, 0.107722f, -0.213697f, -0.056051f, -0.161670f, -0.263123f, -0.110176f, 0.134392f, -0.158021f, -0.130261f, 0.090261f, -0.015718f, -0.008354f, -0.001134f, 0.040691f, 0.187518f, -0.043695f, -0.044843f, -0.144097f, -0.000650f, -0.009092f, 0.166918f, 0.165649f, 0.176827f, 0.026034f, -0.059469f, 0.137773f, 0.092424f, 0.129677f, 0.018116f, -0.000002f, 0.108784f, -0.000307f, 0.049920f, -0.241337f, 0.208007f, 0.048842f, -0.138461f, 0.016301f, 0.057989f, -0.020928f, -0.011065f, -0.208636f, -0.063892f, -0.108803f, 0.166867f, -0.325402f, 0.126022f, 0.128198f, 0.029459f, 0.111354f, -0.087107f, -0.002166f, -0.122927f, -0.235753f, -0.203306f, -0.262297f, -0.327090f, -0.254900f, 0.101295f, 0.035774f, 0.090523f, 0.296656f, -0.004888f, -0.189523f, -0.345354f, -0.005173f, -0.150522f, -0.290183f, 0.164362f, 0.012654f, -0.156574f, -0.106202f, -0.199772f, -0.091926f, 0.029500f, -0.146838f, 0.162344f, -0.151447f, -0.116978f, 0.032321f, -0.018093f, -0.136590f, -0.013012f, -0.000000f, -0.226773f, -0.000067f, -0.048668f, -0.203956f, 0.141548f, -0.202057f, 0.223736f, -0.565257f, 0.009652f, -0.151694f, 0.019624f, -0.147536f, -0.068600f, -0.104216f, 0.015238f, -0.276529f, -0.179990f, -0.263050f, 0.056151f, 0.081568f, -0.033666f, -0.075446f, -0.205176f, 0.119290f, -0.040951f, -0.222833f, -1.117789f, 0.029608f, -0.350328f, -0.085285f, -0.042259f, 0.229162f, 0.080460f, 0.268810f, 0.067487f, -0.313662f, -0.208594f, -0.106279f, -0.133216f, -0.082437f, 0.177198f, -0.106075f, -0.189430f, -0.000381f, 0.274354f, 0.018598f, -0.157112f, -0.325010f, -0.163024f, -0.128805f, -0.255054f, 0.106107f, 0.124989f, -0.381034f, 0.110974f, -0.244089f, 0.006950f, -0.161593f, 0.106263f, -0.016916f, -0.107187f, 0.016091f, 0.088373f, 0.072766f, 0.147117f, 0.110051f, 0.042401f, -0.195925f, -0.066935f, 0.118465f, 0.174330f, -0.117951f, -0.064407f, -0.242550f, -0.147063f, 0.147127f, 0.119370f, 0.194363f, -0.146116f, -0.003998f, 0.092558f, 0.079754f, -0.232443f, 0.103033f, 0.160342f, 0.126447f, 0.176887f, -0.016709f, 0.132322f, -0.017169f, -0.197441f, -0.137631f, 0.009410f, 0.138032f, 0.223401f, 0.249284f, -0.278508f, -0.231923f, 0.145867f, -0.079194f, -0.240174f, 0.156292f, 0.024783f, -0.089948f, 0.138026f, -0.162776f, 0.051165f, -0.189787f, 0.133982f, 0.003462f, -0.021901f, -0.054349f, 0.246246f, 0.074413f, 0.039542f, 0.200650f, -0.030319f, 0.205201f, 0.157216f, 0.061477f, -0.195323f, 0.131439f, -0.168129f, 0.094891f, 0.140783f, 0.019508f, -0.243458f, 0.253210f, -0.140516f, 0.001026f, -0.124375f, -0.134949f, 0.066609f, 0.120449f, -0.183918f, -0.138816f, -0.002892f, -0.236211f, -0.004672f, -0.030030f, -0.085747f, -0.031671f, -0.055244f, 0.220031f, 0.031768f, 0.142147f, -0.176140f, -0.024209f, -0.011939f, -0.045449f, 0.057613f, -0.037486f, -0.059165f, 0.175409f, 0.158171f, -0.043755f, -0.142667f, 0.062262f, -0.102344f, -0.126645f, 0.148262f, 0.228064f, 0.159719f, -0.034535f, -0.198283f, -0.247815f, 0.019695f, -0.311275f, -0.333048f, 0.258594f, -0.277617f, -0.034027f, 0.045561f, -0.080519f, 0.065138f, 0.114726f, -0.002874f, -0.265631f, 0.157295f, -0.044674f, 0.015754f, -0.064019f, 0.298088f, -0.109319f, -0.394844f, -0.178085f, -0.215419f, -0.066086f, -0.194858f, 0.010675f, -0.177461f, -0.085853f, -0.211117f, -0.046677f, 0.209191f, 0.119424f, 0.060179f, 0.020001f, 0.069953f, -0.079506f, -0.144156f, 0.205504f, 0.057642f, -0.144530f, -0.038759f, 0.202296f, -0.252197f, -0.014505f, 0.073671f, -0.001507f, -0.042063f, -0.123620f, -0.105564f, -0.094652f, 0.000185f, -0.044744f, 0.166011f, 0.022088f, -0.009693f, 0.025777f, 0.075579f, -0.034800f, 0.098748f, -0.114978f, 0.128174f, -0.151252f, 0.049498f, -0.186394f, 0.071820f, -0.125711f, 0.154188f, -0.043410f, -0.147210f, 0.178995f, 0.082189f, 0.140334f, -0.113652f, -0.051079f, -0.083260f, -0.184036f, -0.132405f, 0.049188f, -0.095648f, -0.140823f, 0.233118f, 0.181369f, -0.055446f, 0.032218f, -0.271130f, -0.069811f, -0.033371f, 0.064618f, -0.160483f, -0.109299f, 0.033709f, -0.133042f, -0.084324f, -0.122966f, -0.161509f, -0.009703f, 0.021572f, -0.333843f, -0.140652f, 0.135686f, 0.088640f, -0.106281f, -0.129372f, 0.088735f, -0.031751f, -0.049139f, -0.126390f, -0.209332f, -0.775982f, 0.055078f, 0.167242f, -0.158791f, 0.140547f, 0.197219f, -0.002082f, -0.210862f, -0.223505f, 0.145221f, -0.043564f, -0.034173f, -0.000149f, 0.009176f, -0.016942f, 0.004984f, 0.085971f, -0.386444f, -0.227001f, 0.125779f, 0.128028f, -0.041014f, -0.152300f, 0.057580f, -0.000040f, 0.049554f, -0.000224f, 0.235274f, 0.022725f, -0.120344f, -0.077750f, -0.089316f, -0.227445f, -0.057413f, 0.196829f, 0.089433f, -0.051050f, -0.204150f, -0.024564f, 0.172754f, -0.123560f, 0.082485f, 0.018377f, 0.153942f, -0.213154f, 0.071983f, -0.001822f, 0.114064f, 0.045041f, 0.049941f, -0.016968f, -0.033903f, 0.167590f, 0.070375f, -0.220754f, 0.165256f, 0.166666f, -0.003871f, -0.084598f, -0.124020f, -0.044582f, 0.162886f, 0.038743f, -0.012190f, -0.108058f, 0.120735f, -0.110521f, 0.049049f, -0.165092f, 0.056227f, 0.228608f, 0.189527f, -0.050232f, -0.063330f, -0.114936f, 0.068314f, 0.052133f, -0.073547f, -0.019536f, -0.245701f, -0.079558f, 0.109273f, 0.075648f, -0.290075f, 0.044288f, 0.159570f, 0.258030f, -0.114562f, -0.020699f, -0.038392f, -0.114360f, 0.036546f, -0.114118f, -0.189738f, -0.027172f, -0.222322f, -0.266677f, -0.044070f, 0.065805f, 0.037165f, -0.259461f, 0.062778f, -0.075681f, -0.136384f, 0.049523f, -0.018244f, -0.074291f, -0.127102f, -0.014567f, 0.005145f, 0.126860f, -0.140066f, 0.216934f, 0.314239f, 0.186063f, 0.033106f, 0.159233f, -0.126391f, 0.073676f, 0.196990f, 0.174608f, -0.148560f, -0.142521f, -0.136224f, -0.101255f, -0.133710f, 0.011026f, 0.068655f, 0.023691f, 0.128790f, 0.145143f, 0.110179f, 0.057608f, 0.003677f, -0.088929f, 0.093614f, -0.023292f };
static float MLP_buf1[100];
static float MLP_buf2[100];
static const EmlNetLayer MLP_layers[2] = { 
{ 100, 7, MLP_layer_0_weights, MLP_layer_0_biases, EmlNetActivationRelu }, 
{ 27, 100, MLP_layer_1_weights, MLP_layer_1_biases, EmlNetActivationSoftmax } };
static EmlNet MLP = { 2, MLP_layers, MLP_buf1, MLP_buf2, 100 };

    int32_t
    MLP_predict(const float *features, int32_t n_features)
    {
        return eml_net_predict(&MLP, features, n_features);
    }
    

    int32_t
    MLP_regress(const float *features, int32_t n_features, float *out, int32_t out_length)
    {
        return eml_net_regress(&MLP, features, n_features, out, out_length);
    }
    

    float
    MLP_regress1(const float *features, int32_t n_features)
    {
        return eml_net_regress1(&MLP, features, n_features);
    }
    