
#include <eml_net.h>
static const float MLP_layer_0_biases[100] = { 0.092139f, 0.488127f, -0.068344f, -0.298767f, -0.371996f, -0.031529f, 0.203240f, 0.475502f, 0.072023f, 0.386162f, -0.020906f, 0.041328f, 0.136638f, 0.124043f, 0.262067f, -0.217039f, 0.038804f, -0.113242f, -0.066956f, -0.082314f, -0.174226f, 0.002492f, 0.121760f, 0.214644f, 0.344231f, 0.184850f, -0.125417f, -0.174066f, -0.321986f, -0.050226f, 0.246544f, 0.056581f, 0.116313f, 0.179814f, -0.116786f, 0.114250f, 0.172284f, -0.034165f, 0.425406f, -0.004393f, 0.137796f, -0.033242f, 0.152388f, -0.080623f, 0.276260f, 0.017219f, 0.073539f, 0.117313f, 0.291496f, 0.268017f, -0.067550f, 0.257615f, -0.252527f, -0.244848f, 0.134759f, 0.242315f, 0.192005f, 0.421412f, -0.091828f, -0.217750f, 0.211448f, 0.182656f, 0.132313f, 0.213303f, 0.047240f, -0.083244f, 0.091280f, -0.321819f, 0.030333f, 0.055671f, -0.246953f, -0.011325f, -0.113636f, -0.004154f, 0.313851f, -0.035326f, 0.356932f, 0.024481f, 0.300278f, 0.209135f, -0.345877f, -0.124822f, 0.128237f, -0.077859f, -0.006041f, 0.327560f, 0.185287f, -0.079866f, -0.147255f, -0.022224f, 0.290128f, 0.109375f, -0.082060f, 0.193755f, 0.263390f, -0.197143f, 0.076469f, -0.092794f, -0.140850f, -0.043396f };
static const float MLP_layer_0_weights[700] = { -0.130268f, 0.426045f, -0.090637f, -0.017535f, 0.223312f, -0.247962f, 0.043853f, 0.046008f, -0.122300f, 0.086856f, -0.042386f, -0.079853f, -0.225402f, -0.417942f, 0.104446f, 0.096791f, -0.121595f, -0.036057f, 0.098463f, -0.221899f, 0.075222f, -0.106390f, 0.252893f, 0.102447f, -0.067352f, -0.113981f, 0.056573f, 0.172971f, -0.142041f, 0.155753f, 0.161340f, -0.024201f, 0.064626f, -0.104954f, -0.231199f, -0.238278f, -0.191669f, 0.074958f, -0.202891f, -0.215394f, -0.016865f, -0.141360f, 0.113217f, 0.124351f, -0.038895f, 0.130181f, -0.045282f, -0.038946f, -0.024160f, 0.054406f, -0.002163f, -0.053975f, -0.050286f, 0.056364f, -0.163350f, 0.034372f, 0.101661f, 0.060551f, 0.237601f, 0.174965f, 0.145963f, -0.017596f, 0.214894f, 0.093634f, 0.027461f, 0.215916f, 0.152012f, 0.007640f, -0.156653f, -0.086781f, 0.152024f, -0.244061f, 0.169163f, 0.116111f, 0.093265f, -0.136436f, -0.057654f, 0.237644f, -0.087454f, -0.038712f, 0.270829f, 0.089053f, -0.033344f, 0.008961f, -0.014279f, 0.136849f, -0.126935f, -0.134076f, -0.114132f, 0.069031f, -0.230679f, 0.125220f, 0.138634f, 0.135423f, -0.039480f, -0.343882f, 0.169627f, 0.192991f, 0.081323f, 0.226396f, 0.102550f, 0.081826f, -1.326525f, 0.029379f, 0.009076f, 0.077543f, 0.108179f, -0.469786f, 0.150895f, -0.120755f, -0.010948f, -0.365352f, 0.072612f, 0.007756f, 0.027584f, -0.258372f, -0.023947f, 0.018643f, 0.159515f, -0.263223f, 0.025970f, 0.100691f, -0.177643f, 0.013536f, -0.158156f, -0.101286f, -0.182139f, 0.211214f, 0.257434f, -0.180325f, -0.136768f, 0.297172f, -0.308080f, 0.198397f, 0.094963f, -0.084698f, 0.190930f, 0.001467f, 0.330772f, -0.048894f, -0.091362f, 0.072579f, -0.232235f, 0.058071f, -0.059640f, -0.542491f, 0.364397f, 0.064557f, -0.373227f, 0.218968f, -0.010083f, -0.329333f, 0.205344f, -0.100049f, 0.045352f, -0.286937f, 0.256578f, 0.041894f, -0.040765f, -0.096617f, -0.048519f, -0.084673f, 0.015507f, 0.039107f, 0.206555f, -0.216575f, 0.205044f, 0.034012f, -0.022022f, -0.209188f, -0.025395f, 0.025174f, 0.019759f, -0.002733f, -0.215012f, -0.139912f, -0.135767f, -0.264595f, 0.260856f, -0.115197f, 0.123179f, -0.207559f, 0.214101f, -0.163498f, 0.210070f, -0.212322f, -0.055320f, 0.233202f, -0.220020f, -0.018483f, -0.058555f, 0.142220f, 0.143334f, 0.074204f, 0.002797f, -0.072477f, -0.247041f, 0.179870f, -0.202694f, -0.198959f, 0.124921f, -0.239837f, 0.011923f, -0.110736f, 0.121505f, 0.026772f, 0.092217f, -0.342046f, 0.157170f, -0.022064f, 0.124608f, 0.285541f, -0.157532f, -0.214242f, -0.066273f, -0.326454f, -0.299667f, 0.121911f, -0.013355f, -0.081194f, -0.261330f, 0.194892f, -0.099967f, 0.047653f, -0.077168f, 0.109489f, 0.265170f, -0.013135f, 0.005987f, 0.051763f, 0.020015f, 0.110596f, 0.059688f, -0.178341f, 0.264720f, 0.202136f, -0.182205f, -0.171280f, -0.284710f, -0.026277f, 0.172450f, 0.062006f, 0.376687f, -0.009513f, 0.049419f, -1.283351f, 0.005168f, 0.228512f, -0.687435f, -0.073981f, 0.203657f, -0.329539f, -0.025629f, 0.053052f, 0.207436f, 0.020545f, 0.190083f, 0.106750f, 0.051131f, -0.052577f, -0.279451f, 0.101567f, 0.353136f, 0.099919f, 0.200337f, 0.123478f, -0.218782f, 0.189766f, -0.421723f, 0.027230f, 0.025924f, -0.039758f, -0.122158f, 0.058846f, -0.310385f, -0.155771f, -0.533635f, -0.109687f, 0.066243f, -0.101457f, 0.046886f, 0.253927f, 0.208370f, -0.615878f, 0.277532f, 0.004639f, 0.220418f, 0.226521f, 0.175723f, -0.014468f, 0.176277f, -0.042443f, -0.145128f, -0.234498f, 0.011380f, 0.140494f, -0.230174f, -0.018390f, 0.089023f, 0.046233f, 0.134547f, -0.248381f, 0.005332f, 0.157709f, -0.209951f, 0.205823f, -0.187036f, -0.550930f, -0.123694f, -0.294472f, -0.265172f, 0.200452f, -0.139260f, -0.244871f, -0.040660f, -0.057127f, 0.070931f, 0.214275f, 0.252934f, -0.190385f, -0.157742f, -0.232438f, -0.109774f, -0.155861f, 0.188962f, 0.003204f, 0.066719f, -0.009324f, 0.109217f, -0.060993f, 0.153176f, -0.201089f, 0.038892f, -0.048463f, 0.161243f, 0.012267f, 0.003936f, 0.092581f, 0.074376f, -0.009731f, 0.010814f, 0.224887f, -0.057649f, 0.214331f, 0.150731f, -0.236190f, -0.119842f, 0.085784f, 0.109407f, -0.276031f, 0.036020f, 0.073369f, 0.166602f, 0.161728f, 0.000046f, 0.211494f, -0.144083f, 0.312693f, 0.134121f, -0.014350f, 0.098257f, 0.172992f, -0.241746f, 0.193785f, 0.048848f, -0.001348f, 0.142871f, -0.036320f, 0.119922f, 0.047199f, 0.001081f, 0.112382f, -0.142317f, 0.186231f, -0.298393f, 0.061964f, 0.107297f, -0.148109f, -0.165793f, -0.083088f, -0.167537f, -0.016611f, -0.105865f, -0.109446f, -0.016028f, 0.216058f, 0.198806f, 0.166229f, -0.047148f, -0.179739f, 0.028479f, -0.114343f, 0.060647f, 0.106116f, 0.086901f, 0.225595f, -0.139567f, 0.198813f, -0.156150f, 0.212402f, 0.047741f, -0.088118f, -0.028391f, 0.115515f, 0.110862f, 0.076206f, 0.068453f, -0.194469f, -0.135610f, -0.153685f, 0.214319f, -0.050317f, 0.141955f, -0.080939f, -0.065586f, -0.147012f, -0.049295f, -0.229929f, 0.146605f, 0.009058f, 0.136177f, 0.136847f, 0.165593f, 0.236746f, 0.021598f, 0.006917f, -0.174205f, 0.080150f, 0.165165f, 0.100488f, 0.025618f, 0.164792f, 0.084274f, -0.237789f, -0.174802f, 0.231328f, -0.301741f, -0.176201f, 0.151564f, -0.005731f, -0.034378f, 0.104886f, -0.044299f, -0.003835f, 0.167253f, 0.184597f, -0.362224f, 0.008194f, -0.098076f, -0.167745f, 0.114708f, -0.070159f, -0.152360f, -0.053219f, 0.184676f, -0.046553f, 0.184005f, -0.189644f, 0.191030f, -0.075353f, -0.004562f, -0.160730f, -0.023010f, -0.211430f, -0.149149f, 0.045229f, 0.014149f, 0.220742f, 0.041407f, 0.187829f, 0.137130f, 0.256710f, 0.125875f, 0.124077f, -0.042788f, 0.106549f, 0.074325f, 0.113983f, -0.109960f, -0.058495f, 0.012036f, -0.021555f, -0.004090f, 0.007473f, 0.121285f, -0.215886f, -0.027606f, -0.087856f, 0.055968f, 0.031709f, 0.156370f, 0.014108f, 0.070500f, -0.016028f, 0.044074f, 0.000500f, -0.047321f, -0.024257f, 0.229669f, -0.042972f, 0.024652f, -0.051036f, 0.215771f, 0.093628f, -0.069382f, 0.051015f, -0.082540f, -0.104177f, -0.092308f, -0.241630f, -0.098929f, -0.065878f, -0.157271f, -0.326007f, 0.145004f, 0.146747f, 0.202392f, -0.096137f, 0.095116f, -0.176406f, -0.171960f, -0.183192f, -0.065198f, 0.020043f, -0.141914f, -0.249911f, 0.146079f, -0.104765f, 0.194200f, 0.157957f, -0.146203f, 0.125602f, -0.183036f, -0.082298f, -0.073941f, 0.181085f, 0.150299f, -0.150586f, 0.141786f, -0.106619f, 0.259197f, 0.106665f, 0.175464f, -0.123230f, 0.158315f, 0.040946f, -0.251954f, 0.106716f, 0.158509f, 0.288123f, -0.173649f, 0.182333f, -0.094726f, 0.227780f, 0.018300f, -0.113476f, -0.117192f, 0.241816f, 0.134656f, -0.144907f, -0.163829f, 0.153147f, -0.011214f, 0.084080f, 0.209967f, -0.221494f, 0.037982f, -0.134371f, 0.128238f, -0.149829f, -0.089064f, -0.000090f, 0.135429f, -0.121859f, 0.132150f, 0.125787f, 0.173629f, -0.135618f, -0.160457f, 0.134460f, -0.048109f, 0.082920f, 0.081515f, -0.008528f, -0.014204f, -0.253025f, 0.079213f, 0.008280f, 0.187648f, -0.228644f, -0.063463f, 0.206182f, 0.078254f, -0.130460f, 0.116030f, -0.138987f, -0.310840f, 0.034999f, -0.158215f, 0.122711f, 0.018782f, -0.027335f, -0.096736f, -0.168443f, 0.113090f, 0.101661f, 0.128369f, -0.251806f, 0.189837f, -0.304249f, -0.059130f, 0.032366f, 0.082595f, -0.222589f, 0.231891f, -0.171514f, -0.257819f, -0.032628f, -0.106945f, -0.127454f, -0.022456f, -0.176708f, 0.230422f, 0.151665f, -0.054540f, 0.020567f, -0.260374f, 0.147456f, -0.093083f, 0.185391f, -0.169225f, -0.089054f, -0.092996f, -0.170165f, 0.047258f, 0.094780f, -0.165633f, 0.136553f, -0.086632f, 0.118262f, 0.199922f, -0.044376f, -0.051586f, -0.105944f, 0.089720f, -0.147965f, 0.029747f, -0.126483f, -0.084068f, -0.216486f, -0.117345f, -0.237220f, 0.146747f, 0.034374f, 0.140106f, -0.244890f, -0.032456f, 0.186160f, 0.106465f, 0.161796f, -0.027965f, 0.125525f, 0.327414f, -0.310063f, -0.181386f, -0.056069f, -0.104559f, -0.115268f, 0.225793f, -0.018496f, -0.067386f, 0.238137f, -0.361093f, 0.050427f, 0.144073f, -0.228626f, -0.086409f, 0.271859f, -0.242624f, -0.164975f, 0.112406f, -0.264364f, -0.269791f, -0.126007f, -0.003065f, -0.152127f, 0.103213f, 0.028813f, 0.069060f, 0.139591f, -0.231944f, -0.243129f, -0.026378f, -0.068443f, 0.009546f, 0.214713f, 0.124593f, 0.143879f, -0.056742f, -0.047990f };
static const float MLP_layer_1_biases[27] = { 0.251449f, 0.154900f, -0.122197f, 0.427930f, -0.172303f, -0.108068f, -0.088341f, 0.127207f, 0.204231f, 0.105409f, -0.268606f, -0.172879f, 0.187465f, -0.005887f, -0.046912f, 0.083383f, 0.112494f, 0.180351f, -0.201778f, 0.024472f, 0.188591f, -0.074893f, -0.010282f, -0.172786f, -0.176480f, 0.010435f, 0.229456f };
static const float MLP_layer_1_weights[2700] = { -0.219259f, -0.164179f, -0.315261f, -0.012747f, 0.054612f, 0.055954f, 0.032765f, 0.009709f, 0.149725f, -0.190026f, -0.034059f, -0.097873f, 0.181304f, -0.031706f, -0.147943f, -0.003119f, -0.110885f, 0.059629f, -0.084224f, -0.139303f, 0.225150f, -0.183137f, -0.157748f, -0.072892f, -0.082758f, 0.087001f, -0.118248f, 0.039948f, 0.086145f, 0.212615f, 0.415996f, -0.122276f, -0.062555f, 0.062723f, -0.119215f, -0.213837f, -0.004536f, 0.174737f, -0.223059f, 0.084013f, 0.420619f, -1.078554f, -0.096781f, -0.142634f, -0.048735f, -0.810997f, -0.150354f, 0.054521f, -0.070900f, 0.944342f, 0.247162f, -0.466433f, 0.062965f, 0.072715f, -0.062525f, -0.129566f, -0.443238f, -0.110911f, 0.141004f, -0.032548f, -0.020690f, -0.029725f, 0.100275f, -0.089980f, -0.029938f, -0.064750f, 0.116791f, -0.021269f, -0.152648f, -0.016149f, -0.181058f, -0.004449f, 0.500769f, -0.113540f, 0.026534f, -0.814054f, -0.183871f, -0.087878f, -0.009104f, 0.103614f, -0.173469f, 0.142118f, 0.100069f, 0.004953f, 0.090350f, 0.062254f, 0.002465f, 0.051199f, -0.268163f, 0.010783f, 0.005611f, 0.184253f, -0.129673f, 0.159355f, -0.028693f, 0.024570f, 0.014339f, -0.014085f, 0.167960f, 0.146815f, 0.041746f, 0.309695f, -0.033486f, 0.059787f, -0.030724f, 0.104463f, 0.030596f, 0.021154f, -0.078908f, 0.017193f, -0.010421f, -0.164869f, 0.051467f, 0.097725f, -0.029663f, -0.151309f, 0.069586f, 0.110281f, -0.106590f, -0.135800f, -0.001901f, -0.087690f, 0.103169f, -0.141246f, 0.175614f, -0.139126f, 0.343989f, -0.063786f, -0.039991f, -0.048619f, 0.075220f, 0.254304f, 0.187803f, 0.135774f, 0.146373f, 0.066927f, 0.255049f, -0.358482f, 0.090401f, -0.037806f, -0.053164f, -0.160229f, 0.031228f, -0.036092f, 0.065540f, -0.184807f, -0.050963f, 0.038572f, -0.195158f, 0.068865f, -0.186443f, 0.080028f, 0.001255f, 0.037633f, -0.028512f, -0.144022f, -0.093574f, -0.239922f, -0.022874f, -0.088839f, 0.110068f, 0.097298f, -0.066459f, 0.039996f, 0.008465f, 0.091351f, -0.190531f, -0.121576f, 0.045083f, 0.169359f, 0.135568f, 0.021445f, 0.112911f, -0.196887f, -0.468033f, 0.257655f, 0.075557f, 0.093575f, 0.206060f, 0.193631f, -0.034514f, 0.050407f, 0.142191f, -0.218733f, 0.115465f, -0.129317f, 0.148788f, 0.018708f, -0.087232f, 0.170383f, -0.385181f, -0.428222f, -0.510212f, -0.232728f, -0.082700f, -0.452790f, -0.232663f, 0.047745f, -0.167211f, -0.366317f, -0.616387f, -0.012360f, 0.239777f, -0.098009f, -0.130129f, -0.194999f, -0.059138f, -0.005001f, -0.133024f, 0.066527f, -0.105612f, -0.410433f, -0.843440f, -0.001151f, -0.564596f, -0.330436f, -0.108506f, 0.187472f, -0.181281f, 0.203262f, -0.145577f, -0.033942f, 0.071216f, 0.116477f, -0.139443f, -0.110202f, 0.223216f, 0.019442f, 0.019042f, -0.223403f, -0.244977f, -0.140134f, -0.482098f, -0.508185f, 0.049606f, -0.202767f, -0.137463f, 0.174056f, -0.169904f, 0.167560f, -0.199219f, 0.110800f, 0.069649f, 0.138974f, 0.051984f, 0.016273f, 0.271744f, 0.045974f, -0.565686f, 0.015503f, -0.210141f, 0.026317f, -0.076233f, 0.006194f, 0.056686f, -0.105816f, 0.157712f, -0.193513f, -0.490057f, -0.277389f, -0.113416f, -0.168104f, -0.037165f, -0.078646f, -0.054806f, -0.021727f, -0.105637f, -0.008811f, -0.149011f, -0.235023f, 0.248566f, 0.180236f, -0.142157f, -0.188231f, 0.129305f, 0.153698f, 0.133072f, 0.051388f, -0.190285f, -0.196364f, 0.017986f, -0.005593f, -0.005052f, 0.031216f, -0.245849f, -0.231129f, 0.242879f, 0.120931f, -1.071148f, 0.165091f, -0.072927f, -0.070528f, 0.175280f, 0.179884f, -0.065323f, -0.181779f, -0.026680f, 0.192435f, -0.102846f, -0.247840f, 0.025535f, 0.038690f, -0.635490f, -0.234022f, 0.192015f, -0.036822f, -0.123833f, 0.151089f, 0.164900f, 0.297184f, -0.006021f, -0.595151f, 0.232149f, -0.020399f, 0.338517f, 0.341498f, -0.486951f, 0.149542f, -0.093924f, 0.000581f, -0.011031f, 0.278707f, -0.210168f, 0.279199f, -0.050595f, 0.024397f, 0.132132f, 0.009728f, 0.145516f, -0.377001f, -0.173691f, 0.087477f, 0.075356f, 0.070275f, -0.014142f, -0.143034f, 0.102596f, 0.116961f, 0.096916f, -0.100220f, 0.204443f, 0.071454f, 0.000474f, -0.203916f, 0.161616f, 0.083922f, -0.175173f, -0.210502f, 0.087031f, 0.087262f, -0.014072f, 0.201673f, 0.024502f, -0.216949f, -0.445953f, -0.129345f, -0.004720f, -0.153126f, -0.026345f, -0.196622f, -0.145191f, -0.223179f, 0.001238f, -0.022075f, -1.168864f, -0.000529f, -0.232553f, -0.145855f, -0.080333f, 0.006350f, 0.072622f, -0.140052f, -0.499689f, -0.100476f, -0.111909f, -0.001114f, -0.123929f, -0.000754f, 0.254776f, -0.114201f, 0.168408f, 0.067704f, 0.064049f, -0.195347f, -0.146455f, 0.121467f, 0.031018f, 0.188305f, 0.264765f, -0.168574f, 0.010624f, 0.103721f, -0.077761f, -0.200480f, 0.184424f, 0.112923f, -0.130938f, 0.114584f, -0.202248f, -0.150274f, 0.129263f, -0.126787f, -0.315288f, 0.049008f, -0.050864f, -0.160046f, -0.231681f, 0.054424f, -0.703976f, 0.040058f, -0.102485f, -0.080730f, -0.195739f, 0.133840f, 0.073721f, -0.277313f, 0.265946f, -0.020667f, -0.022284f, -0.028084f, -0.052738f, -0.035460f, -0.007484f, 0.061097f, -0.022289f, -0.241757f, -0.019972f, 0.047366f, 0.092806f, -0.004824f, 0.138169f, -0.086477f, -0.070146f, -0.109125f, -0.057616f, 0.272193f, -0.071503f, -0.128996f, -0.096799f, -0.196657f, -0.068789f, -0.149864f, 0.162432f, -0.135377f, -0.109913f, -0.071579f, -0.064326f, 0.170158f, 0.044855f, -0.102722f, -0.268802f, -0.065161f, -0.029257f, 0.119704f, 0.244752f, -0.277954f, -0.036485f, -0.120940f, -0.026053f, -0.025756f, -0.077553f, -0.036420f, 0.003847f, 0.125630f, -0.198080f, -0.174334f, -0.106198f, 0.140111f, 0.090907f, 0.141254f, 0.042805f, -0.098083f, -0.238778f, -0.152868f, -0.029401f, 0.059075f, 0.227554f, 0.066047f, -0.065678f, -0.075656f, 0.144474f, 0.107822f, 0.054473f, 0.097536f, 0.172563f, -0.138624f, 0.072882f, 0.073258f, -0.156394f, 0.197627f, -0.017683f, -0.016804f, 0.023715f, 0.165380f, 0.106882f, -0.204718f, 0.042216f, -0.036018f, 0.191286f, -0.175458f, 0.215616f, 0.187142f, -0.031598f, 0.136116f, 0.091702f, 0.124212f, -0.114075f, -0.082547f, -0.017013f, -0.124108f, -0.028914f, -0.176775f, -0.188409f, 0.049331f, -0.289230f, 0.063021f, -0.304454f, -0.245265f, 0.043008f, -0.068097f, 0.145334f, 0.030685f, 0.118894f, -0.120216f, -0.066036f, -0.000570f, -0.262486f, -0.052473f, 0.105385f, -0.181362f, -0.185068f, -0.008130f, -0.102019f, 0.008757f, 0.169276f, -0.012615f, 0.130956f, -0.000923f, -0.218318f, -0.046948f, -0.044841f, 0.053678f, 0.015582f, 0.142034f, 0.125026f, 0.193657f, 0.166244f, -0.139735f, 0.219291f, -0.085091f, -0.185049f, -0.082609f, -0.056051f, 0.119969f, 0.170418f, -0.092410f, -0.007939f, -0.046802f, 0.132450f, 0.105486f, 0.096611f, -0.217195f, -0.212799f, 0.161498f, -0.004483f, -0.090637f, -0.012796f, 0.033729f, -0.142008f, 0.041522f, 0.151203f, -0.017760f, 0.051165f, -0.150937f, 0.153637f, -0.205129f, 0.095648f, 0.089061f, -0.102401f, -0.118267f, -0.166926f, -0.200046f, 0.069006f, -0.141453f, -0.081807f, -0.115574f, 0.069743f, -0.042479f, 0.157479f, -0.014472f, -0.118050f, -0.072942f, -0.119805f, 0.057843f, -0.006349f, -0.330739f, -0.028508f, 0.252375f, -0.553928f, -0.057325f, -0.033019f, 0.158167f, 0.222781f, -0.011476f, -0.172905f, -0.188485f, -0.004889f, 0.017357f, -0.110701f, -0.337736f, -0.026359f, -0.022593f, -0.017273f, -0.217365f, -0.148503f, -0.071020f, -0.011866f, 0.039941f, 0.101424f, -0.134994f, 0.188092f, -0.119778f, 0.079136f, 0.098908f, -0.318328f, 0.210546f, -0.180209f, -0.031084f, 0.149199f, 0.047504f, -0.290406f, -0.110184f, 0.053285f, 0.125959f, 0.223108f, 0.002320f, -0.026478f, 0.012223f, 0.147748f, -0.064069f, -0.122036f, 0.064857f, 0.075655f, -0.137013f, -0.029185f, -0.000996f, -0.143981f, 0.072907f, -0.123463f, 0.131495f, -0.053768f, 0.082056f, -0.257980f, -0.079975f, -0.173806f, -0.031768f, 0.115027f, -0.078724f, -0.103498f, 0.147430f, 0.007497f, -0.095407f, -0.162453f, 0.094643f, -0.106108f, -0.110660f, -0.221501f, -0.102371f, 0.071245f, -0.122394f, -0.042462f, -0.055617f, -0.214613f, 0.126952f, 0.104441f, 0.108756f, 0.254667f, -0.222571f, 0.054504f, -0.022775f, 0.062586f, 0.099877f, 0.148814f, -0.049098f, 0.130143f, -0.188658f, -0.066272f, -0.147368f, -0.149583f, 0.045946f, 0.093940f, 0.019302f, -0.067754f, -0.113097f, 0.059480f, -0.083718f, -0.181336f, 0.133303f, 0.120286f, 0.044764f, 0.056932f, 0.165557f, 0.030750f, -0.027197f, 0.098763f, 0.152057f, -0.063546f, -0.099580f, -0.097704f, -0.036961f, -0.208867f, -0.114887f, 0.005830f, -0.182133f, 0.100776f, 0.157986f, 0.077845f, -0.090320f, -0.225355f, -0.221583f, 0.165172f, -0.045510f, -0.210742f, -0.287570f, -0.263203f, 0.150838f, -0.126042f, -0.261410f, -0.088378f, -0.015238f, 0.084015f, 0.141264f, -0.007907f, -0.164633f, -0.012904f, -0.056887f, 0.048907f, -0.183055f, 0.119839f, -0.068054f, 0.228724f, -0.096712f, 0.051521f, 0.049939f, 0.209464f, -0.039969f, -0.166043f, 0.108937f, 0.144886f, 0.082990f, 0.180433f, -0.022829f, 0.157502f, 0.140977f, -0.122872f, -0.168655f, -0.142026f, -0.171435f, -0.224976f, -0.126398f, 0.080494f, -0.054278f, -0.131952f, -0.184161f, -0.048663f, 0.125563f, -0.114823f, -0.132219f, -0.115101f, 0.145666f, 0.153269f, -0.111710f, -0.112235f, -0.147701f, 0.160458f, 0.247423f, 0.121161f, 0.030767f, 0.063963f, -0.120262f, 0.025465f, -0.186978f, 0.090924f, -0.180967f, -0.089780f, 0.152729f, 0.060392f, 0.197020f, -0.075329f, -0.150381f, 0.234479f, 0.031300f, -0.185566f, 0.092733f, 0.127863f, -0.147902f, 0.101805f, 0.096037f, -0.640423f, -0.003223f, 0.131588f, 0.035476f, 0.081629f, -0.168704f, 0.109438f, -0.020063f, -0.102018f, -0.236824f, -0.023224f, 0.007333f, -0.143987f, -0.069318f, -0.092672f, 0.009030f, 0.070486f, 0.100892f, -0.081027f, 0.183787f, -0.133034f, 0.090669f, -0.262032f, -0.038030f, -0.227440f, 0.077907f, 0.115715f, 0.202250f, 0.171813f, -0.100903f, -0.129836f, 0.066633f, -0.085409f, 0.171675f, -0.057917f, -0.174445f, 0.000818f, 0.172200f, 0.198311f, 0.051447f, 0.024237f, -0.017099f, -0.207399f, -0.177954f, 0.101686f, 0.187354f, 0.202192f, -0.087456f, 0.004532f, 0.090468f, 0.229056f, -0.196921f, 0.236333f, -0.130120f, -0.158829f, -0.102942f, -0.200741f, -0.166094f, 0.027112f, 0.006286f, -0.178478f, -0.134199f, 0.021819f, -0.075724f, 0.140743f, -0.208208f, 0.257753f, 0.068429f, -0.114127f, -0.148118f, 0.148615f, 0.249322f, -0.410079f, 0.008584f, -0.109798f, 0.036148f, -0.029661f, -0.113069f, -0.106647f, -0.399537f, -0.212908f, 0.025206f, 0.104044f, 0.091383f, 0.207395f, -0.284433f, 0.162862f, 0.130246f, -0.085491f, -0.245643f, 0.040067f, -0.279871f, 0.035857f, 0.044680f, -0.226062f, -0.187143f, -0.856315f, -0.249572f, -0.137052f, 0.176170f, -0.110680f, -0.101365f, -0.338744f, -0.291829f, -0.045684f, -0.033606f, -0.074180f, -0.120168f, -0.055123f, -0.129179f, -0.050288f, 0.087375f, 0.138093f, 0.105079f, -0.110994f, -0.095277f, 0.044509f, -0.007077f, -0.093922f, -0.201080f, -0.060414f, 0.218737f, -0.154662f, 0.148215f, -0.218057f, -0.211918f, 0.069174f, -0.097686f, -0.257377f, 0.033947f, -0.000178f, -0.433027f, -0.031370f, -0.138631f, -0.216751f, 0.049991f, -0.198371f, 0.134162f, -0.053383f, 0.025257f, -0.039984f, 0.015340f, 0.162015f, -0.070675f, -0.022823f, 0.163999f, 0.062195f, -0.036487f, 0.038612f, -0.118214f, -0.267729f, -0.053367f, -0.107314f, -0.064091f, -0.004669f, 0.004783f, 0.181671f, -0.151170f, -0.113788f, 0.104037f, -0.253717f, -0.319957f, 0.061805f, 0.033914f, 0.096395f, -0.019572f, -0.224582f, 0.344359f, 0.122676f, -0.049300f, 0.044829f, 0.165362f, -0.595649f, 0.062017f, 0.237555f, 0.028813f, -0.089606f, -0.281153f, -0.123057f, -0.143376f, -0.061108f, 0.007142f, -0.142565f, -0.355261f, -0.194510f, 0.074778f, 0.019274f, 0.060039f, -0.148597f, 0.261734f, 0.033183f, -0.006035f, -0.192881f, -0.051264f, -0.011541f, 0.050238f, 0.126481f, 0.121204f, 0.026733f, -0.057221f, -0.211750f, 0.192490f, -0.163226f, -0.118439f, -0.134837f, 0.145719f, 0.092952f, -0.040182f, 0.053061f, -0.043235f, -0.096204f, 0.037097f, -0.014218f, -0.068888f, 0.086122f, -0.068191f, 0.306099f, -0.165249f, 0.173362f, -0.005457f, 0.059031f, -0.184610f, 0.137969f, 0.013443f, 0.028706f, 0.157632f, -0.057651f, -0.155615f, -0.144591f, 0.108284f, -0.453974f, -0.199033f, -0.334961f, 0.064761f, 1.037507f, 0.100526f, 0.016692f, -0.067110f, 0.005596f, 0.073214f, 0.002480f, -0.295288f, -0.125407f, 0.462850f, -0.144922f, -0.307619f, -0.269542f, 0.430059f, 0.141550f, 0.216862f, 0.162851f, -0.059052f, -0.256965f, 1.167166f, 0.034151f, 0.002866f, -0.162135f, -0.091915f, -0.095610f, -0.229418f, 0.097623f, -0.127823f, -0.084909f, 0.128458f, -0.160329f, -0.054034f, 0.106695f, -0.095003f, 0.175452f, -0.013429f, -0.132753f, -0.159096f, -0.074195f, -0.001694f, -0.100288f, -0.217002f, 0.038652f, -0.190354f, -0.027602f, -0.057695f, 0.229528f, -0.193894f, 0.103721f, -0.101700f, 0.211463f, 0.177642f, 0.267177f, -0.176129f, -0.212840f, 0.114639f, 0.050366f, -0.187566f, 0.147755f, 0.087593f, -0.171202f, -0.016779f, -0.071423f, 0.145277f, -0.207238f, -0.198554f, 0.230908f, -0.014532f, -0.035041f, 0.233856f, -0.231360f, 0.082723f, -0.306211f, -0.128871f, 0.041641f, 0.130206f, -0.063900f, -0.152325f, 0.094689f, 0.008989f, -0.110966f, -0.110033f, 0.110255f, -0.053965f, -0.129684f, 0.195597f, -0.103844f, -0.191749f, -0.059231f, 0.126910f, -0.131283f, 0.144729f, 0.140661f, -0.059472f, -0.054787f, 0.073594f, -0.107624f, -0.073806f, -0.101918f, 0.046212f, 0.095064f, 0.097131f, -0.067212f, -0.063100f, 0.074342f, 0.281933f, -0.082339f, -0.515014f, -0.267044f, 0.130665f, -0.232806f, -0.076651f, 0.126583f, 0.035462f, -0.017779f, -0.071575f, -0.359870f, -0.090080f, -0.178532f, -0.245893f, 0.072517f, 0.009528f, -0.492863f, -0.034751f, -0.285196f, 0.076046f, 0.256552f, -0.176582f, 0.026477f, -0.132817f, -0.201547f, 0.208050f, -0.122387f, -0.005977f, -0.175225f, 0.171051f, -0.081824f, -0.111005f, 0.223924f, 0.110115f, 0.092541f, 0.180277f, 0.087827f, 0.000061f, 0.028266f, -0.101748f, 0.158951f, 0.158460f, 0.144283f, 0.172976f, 0.145860f, 0.075330f, -0.252874f, -0.188514f, 0.127499f, -0.070272f, -0.073268f, -0.053187f, 0.138873f, -0.200808f, 0.058480f, -0.097908f, -0.188763f, 0.002022f, 0.081068f, 0.096504f, -0.116051f, 0.239238f, 0.118942f, -0.100314f, -0.027081f, -0.034075f, 0.163831f, -0.029841f, -0.187593f, -0.140591f, 0.165785f, -0.157047f, 0.099172f, 0.157571f, 0.066198f, 0.141859f, -0.056200f, -0.010914f, 0.074099f, -0.188761f, -0.456091f, -0.729498f, -0.024972f, -0.051236f, -0.193032f, -0.041345f, -0.216049f, 0.111194f, -0.352051f, -0.033053f, -0.220460f, 0.063345f, 0.079140f, -0.060713f, -0.013250f, -0.422286f, 0.014423f, -0.156344f, 0.123304f, 0.346005f, 0.209611f, -0.147550f, 0.099237f, -0.038666f, 0.125627f, 0.186419f, 0.107924f, -0.083028f, -0.178251f, -0.783647f, 0.192334f, -0.272126f, -0.121929f, 0.466033f, -0.021531f, -0.128519f, -0.056835f, -0.234415f, 0.119905f, -0.272437f, -0.507214f, -0.757355f, -0.081573f, 0.090293f, -0.100472f, 0.039915f, -0.231788f, -0.117763f, -0.330789f, 0.270287f, 0.039469f, -0.013586f, 0.114453f, -0.109820f, 0.026742f, -0.095459f, -0.071023f, -0.123081f, -0.126269f, 0.006197f, 0.242412f, 0.008293f, -0.058798f, -0.059274f, 0.035427f, 0.041405f, -0.003599f, 0.151071f, -0.166351f, 0.091322f, -0.115355f, 0.142994f, 0.022287f, -0.248308f, -0.138109f, 0.087363f, 0.038379f, 0.071940f, 0.010378f, -0.183300f, -0.093650f, -0.018457f, 0.049239f, -0.132072f, -0.083423f, -0.023200f, -0.088820f, -0.133187f, -0.043259f, -0.139616f, 0.159692f, -0.051097f, 0.107925f, 0.230629f, 0.131401f, -0.174007f, -0.311144f, -0.125120f, 0.040089f, -0.039285f, 0.267419f, 0.044968f, 0.034502f, -0.105252f, -0.005698f, 0.192412f, -0.206713f, 0.407858f, 0.166589f, -0.797920f, 0.049453f, 0.163084f, -0.153647f, -0.001170f, -0.142974f, 0.023126f, 0.313453f, -0.575381f, -0.146954f, -0.218410f, -0.137440f, -0.097046f, -0.008528f, -0.294547f, -0.012194f, -0.112292f, 0.051136f, -0.554411f, -0.027929f, -0.584887f, 0.066836f, -0.158407f, 0.031274f, -0.006291f, -0.260443f, -0.121088f, -0.101558f, -0.039804f, 0.207328f, -0.145347f, 0.057611f, -0.122701f, -0.187010f, 0.074275f, 0.174343f, -0.024403f, -0.029201f, -0.050513f, 0.067128f, 0.238819f, 0.261666f, 0.092313f, -0.111980f, -0.045681f, 0.026438f, -0.043005f, 0.111122f, 0.152223f, 0.098070f, -0.118321f, -0.064441f, 0.066369f, 0.080120f, 0.025380f, 0.033279f, -0.001968f, -0.216765f, 0.105983f, 0.011905f, -0.089220f, -0.084234f, -0.119688f, -0.139909f, -0.164254f, -0.086087f, -0.186971f, -0.021095f, -0.215560f, -0.179250f, -0.138080f, 0.065756f, 0.255865f, 0.137629f, -0.075009f, -0.138703f, 0.142487f, 0.026028f, 0.053228f, -0.228721f, -0.079151f, -0.107498f, -0.100544f, 0.047913f, 0.011251f, 0.189231f, -0.086426f, 0.008483f, -0.080394f, -0.350828f, -0.129382f, 0.082470f, -0.146768f, -0.190439f, -0.080750f, -0.081785f, -0.048841f, 0.077304f, -0.080286f, 0.060991f, 0.075878f, -0.057446f, 0.096614f, -0.214537f, -0.080108f, -0.010365f, -0.111809f, -0.188721f, -0.143167f, 0.033646f, -0.259100f, -0.073381f, -0.162568f, -0.178902f, -0.124523f, -0.003930f, 0.058891f, -0.187672f, 0.184906f, -0.142494f, -0.217358f, -0.087876f, 0.159284f, 0.103393f, -0.397644f, 0.214807f, -0.166226f, 0.097687f, -0.085421f, -0.175816f, -0.242653f, -0.024746f, 0.176258f, 0.044645f, -0.229085f, -0.034249f, -0.142686f, -0.001873f, 0.116659f, 0.191931f, 0.003455f, 0.009485f, 0.193119f, 0.173706f, -0.213962f, -0.201175f, -0.135968f, -0.037664f, -0.108687f, 0.019443f, -0.069643f, 0.062539f, 0.105874f, -0.193147f, 0.146373f, -0.024004f, -0.165973f, 0.236873f, 0.145411f, -0.215743f, -0.027355f, 0.107111f, 0.021024f, 0.080121f, 0.010358f, -0.214640f, 0.083669f, -0.080655f, -0.075912f, -0.132014f, 0.037713f, -0.135885f, -0.252945f, 0.193918f, 0.146610f, -0.040626f, -0.151112f, -0.064475f, -0.018519f, 0.049483f, 0.125472f, -0.107750f, -0.080417f, -0.161909f, 0.202381f, -0.159038f, 0.035924f, -0.058903f, 0.172561f, -0.067351f, 0.215604f, 0.163802f, -0.165235f, -0.060677f, -0.035255f, -0.016334f, 0.151345f, -0.076822f, 0.241745f, 0.127747f, -0.100917f, -0.149844f, 0.162902f, 0.069931f, -0.067624f, 0.094894f, 0.095282f, -0.386812f, 0.121903f, 0.041432f, 0.046598f, 0.011769f, -0.042844f, -0.341447f, -0.132645f, -0.042268f, 0.136730f, -0.457056f, -0.220035f, -0.089630f, 0.086755f, 0.130255f, 0.216691f, -0.009467f, -0.032489f, -0.170288f, 0.064719f, 0.040426f, -0.220664f, -0.186772f, -0.188920f, -0.362960f, -0.316260f, 0.078262f, 0.089565f, -0.241131f, 0.022955f, 0.068893f, -0.057363f, -0.277295f, -0.235852f, 0.064241f, -0.267117f, -0.035714f, 0.130572f, 0.185427f, 0.121656f, 0.022571f, 0.063808f, -0.194992f, 0.195859f, 0.009424f, 0.138105f, 0.213896f, -0.172911f, 0.119247f, -0.078955f, 0.073783f, 0.171466f, -0.160402f, -0.184134f, -0.028886f, 0.194354f, 0.017109f, -0.211050f, 0.120606f, -0.008934f, -0.160668f, 0.082597f, -0.271303f, 0.010434f, -0.027613f, 0.179506f, -0.075213f, -0.147058f, 0.121853f, 0.015456f, -0.214076f, 0.120033f, -0.024404f, 0.022555f, 0.174329f, 0.159445f, -0.138815f, 0.174648f, 0.089519f, -0.021155f, 0.187340f, -0.015116f, -0.177814f, 0.153992f, -0.100461f, 0.007678f, -0.090710f, -0.119962f, 0.107493f, -0.096420f, -0.234959f, 0.068842f, -0.104797f, -0.153328f, 0.048133f, -0.145643f, -0.040118f, -0.972376f, 0.024297f, -0.133619f, 0.195656f, 0.279890f, -0.056302f, 0.139847f, -0.140499f, 0.137478f, -0.056565f, 0.162469f, 0.206241f, -0.114394f, -0.142642f, 0.065426f, -0.163102f, 0.170001f, 0.044068f, -0.023217f, -0.043787f, -0.063391f, -0.029275f, -0.081592f, 0.167114f, -0.047400f, -0.157925f, -0.041641f, 0.077864f, -0.093353f, 0.065309f, -0.245055f, 0.174742f, 0.115139f, -0.250973f, 0.092684f, 0.033927f, 0.006801f, 0.042490f, 0.126027f, -0.205182f, -0.142031f, -0.062302f, -0.180494f, 0.200553f, 0.044048f, 0.025945f, -0.357171f, 0.187302f, 0.062120f, 0.066461f, 0.078221f, -0.010992f, 0.003106f, 0.121171f, -0.438044f, 0.121175f, 0.336858f, -0.209383f, -0.052211f, -0.386437f, -0.235483f, -1.123431f, 0.154800f, 0.019953f, -0.151749f, -0.009624f, 0.118114f, -0.019825f, -0.015767f, 0.110878f, -0.068178f, -0.217916f, 0.099931f, 0.038080f, 0.260302f, 0.140186f, 0.078787f, -0.043061f, -0.048380f, 0.036650f, 0.120094f, -0.113558f, -0.129075f, -0.020156f, 0.102383f, 0.080334f, -0.181355f, -0.253213f, -0.130621f, -0.266817f, 0.007517f, -0.095256f, -0.001312f, 0.055877f, 0.011772f, -0.034175f, 0.129515f, -0.050514f, 0.043645f, 0.247717f, 0.031546f, 0.170640f, 0.005548f, -0.102102f, 0.085188f, 0.159374f, 0.245711f, 0.078194f, -0.047660f, 0.093987f, 0.066152f, 0.177053f, 0.082219f, -0.148875f, 0.080241f, -0.096919f, -0.349144f, -0.357567f, -0.258427f, 0.085663f, -0.240794f, 0.146397f, 0.096018f, 0.046856f, 0.029771f, -0.210234f, 0.054872f, 0.014480f, -0.144070f, 0.181907f, 0.066520f, 0.176211f, 0.166658f, -0.075474f, -0.193576f, 0.011447f, -0.130507f, 0.106826f, -0.096068f, -0.023472f, 0.192065f, 0.093082f, 0.008703f, -0.011623f, -0.140578f, 0.053661f, -0.259311f, -0.100767f, -0.107054f, 0.060528f, -0.095190f, 0.033483f, -0.171157f, -0.179148f, -0.065363f, -0.051938f, 0.094692f, 0.263687f, 0.006904f, 0.186565f, 0.199409f, -0.069414f, -0.002190f, -0.253397f, 0.157953f, -0.059867f, -0.167967f, 0.194310f, -0.158307f, -0.048260f, 0.174524f, -0.145691f, 0.161149f, -0.101663f, -0.113418f, 0.173330f, 0.056866f, -0.011862f, 0.042618f, -0.049419f, 0.121024f, -0.117869f, 0.169763f, 0.186747f, -0.159527f, -0.033615f, -0.005499f, -0.107137f, -0.205461f, -0.071248f, 0.121532f, -0.062008f, 0.189446f, -0.021696f, 0.164641f, 0.045705f, 0.063210f, -0.053549f, 0.204765f, 0.092621f, -0.160092f, -0.192348f, -0.138826f, 0.046299f, 0.072181f, 0.067285f, -0.014557f, -0.265526f, -0.050391f, -0.178591f, -0.155743f, -0.002920f, 0.058600f, 0.144742f, -0.164923f, -0.046317f, 0.082777f, -0.149083f, 0.190309f, -0.204589f, 0.045395f, -0.257467f, 0.060872f, -0.239726f, -0.058865f, 0.036304f, 0.065601f, 0.239526f, -0.005899f, -0.246253f, -0.003062f, -0.007638f, -0.069543f, 0.004280f, 0.061610f, 0.040116f, -0.080799f, -0.024722f, -0.191889f, -0.105914f, 0.015489f, -0.026272f, -0.343482f, 0.069538f, 0.238253f, -0.136208f, 0.022591f, 0.019239f, -0.137392f, -0.039486f, -0.000517f, 0.180499f, 0.061946f, 0.022815f, -0.066597f, -0.111906f, 0.002070f, -0.184865f, 0.178206f, -0.238596f, -0.023890f, 0.044309f, 0.032394f, 0.152832f, 0.023886f, -0.146573f, 0.092732f, -0.110326f, -0.137189f, 0.196116f, -0.090426f, 0.136905f, -0.170511f, -0.128448f, 0.044853f, 0.158258f, 0.177648f, 0.085108f, 0.159251f, 0.042670f, -0.005257f, 0.103115f, 0.122824f, -0.062468f, -0.111524f, 0.155712f, 0.036602f, 0.245833f, -0.183687f, 0.097217f, -0.246600f, -0.055203f, -0.232102f, 0.017754f, 0.135108f, -0.226358f, 0.098802f, 0.190499f, 0.062946f, -0.167512f, 0.035749f, -0.187620f, -0.015620f, -0.042520f, -0.099949f, 0.138367f, 0.222453f, 0.088511f, -0.024441f, -0.159364f, 0.096637f, -0.007033f, -0.033841f, -0.121151f, -0.159148f, 0.234316f, -0.025873f, 0.146897f, 0.034548f, 0.001174f, -0.050771f, -0.302461f, -0.147300f, 0.027194f, 0.176531f, -0.129452f, 0.004127f, -0.317080f, -0.112606f, 0.008311f, 0.047408f, -0.039726f, 0.011209f, 0.047040f, -0.002466f, 0.188972f, 0.078625f, -0.053744f, -0.083530f, -0.030442f, -0.134473f, -0.004107f, 0.026084f, 0.194040f, 0.069683f, 0.170186f, -0.076394f, 0.162543f, -0.149696f, -0.161731f, 0.162296f, 0.042574f, -0.010933f, 0.057344f, 0.083824f, 0.224807f, -0.004749f, -0.009920f, 0.153785f, 0.150401f, 0.135711f, 0.192170f, -0.028011f, -0.186350f, 0.103596f, -0.085537f, -0.069894f, 0.010547f, 0.057649f, -0.144063f, -0.461909f, 0.041031f, 0.074202f, -0.126430f, 0.003894f, -0.122760f, -0.044288f, -0.029599f, -0.161184f, -0.136165f, -0.253072f, 0.053694f, 0.361412f, -0.026762f, -0.004692f, -0.092541f, -0.122895f, -0.073574f, -0.147621f, -0.629966f, -0.051343f, -0.000156f, 0.061037f, 0.023142f, -0.119358f, 0.041585f, 0.007163f, -0.023099f, 0.032196f, -0.076859f, -0.192010f, 0.056104f, -0.005081f, -0.015011f, -0.145763f, 0.146774f, -0.034529f, 0.191517f, -0.069085f, 0.072499f, 0.165123f, -0.214400f, 0.041138f, -0.036346f, -0.238709f, 0.121361f, 0.132516f, 0.184839f, -0.121022f, -0.020639f, 0.088315f, 0.036386f, -0.141491f, -0.025016f, 0.096508f, 0.001634f, -0.087835f, -0.019158f, -0.312795f, 0.174722f, 0.018597f, -0.205744f, 0.072120f, -0.264731f, -0.043922f, -0.182562f, -0.119500f, -0.206431f, -0.039924f, -0.024621f, -0.293074f, -0.079501f, 0.250412f, 0.224045f, -0.131644f, 0.047448f, -0.023442f, -0.182029f, 0.037205f, 0.047017f, -0.021774f, 0.755109f, -0.242165f, 0.196821f, -0.122231f, 0.004377f, 0.335496f, -0.045910f, -0.140546f, -0.320220f, 0.009298f, 0.086695f, -0.493172f, -0.631821f, 0.325639f, -0.284955f, -0.140445f, -0.438493f, -0.115513f, -0.048421f, 0.365747f, 0.013121f, -0.619201f, -0.144597f, -0.144688f, 0.051318f, 0.151961f, -0.183639f, 0.307116f, 0.108583f, -0.149325f, 0.025996f, -0.150269f, -0.105919f, -0.038508f, -0.105690f, -0.165244f, -0.014392f, -0.005629f, -0.169482f, -0.131107f, -0.196820f, -0.136183f, 0.053633f, 0.078891f, -0.046590f, -0.171117f, -0.160396f, 0.158282f, -0.295127f, 0.159117f, -0.130161f, -0.143368f, -0.208869f, -0.083086f, -0.121989f, -0.462531f, -0.088697f, 0.062530f, 0.116777f, -0.113447f, -0.028985f, -0.086999f, 0.129912f, -0.142969f, 0.246814f, -0.147457f, -0.041144f, 0.112841f, -0.005387f, -0.032942f, 0.142794f, 0.064828f, -0.064839f, -0.431384f, 0.079999f, -0.073024f, 0.021284f, -0.071252f, -0.051926f, 0.092597f, -0.075329f, -0.393583f, -0.186656f, 0.071336f, 0.152620f, 0.005717f, 0.086860f, 0.127836f, 0.051605f, -0.037992f, -0.072531f, 0.042510f, 0.099588f, -0.163722f, -0.156615f, -0.227384f, 0.148672f, -0.167216f, -0.275238f, -0.207990f, 0.134209f, 0.040163f, -0.049580f, 0.146309f, -0.182040f, -0.213982f, 0.041859f, -0.013200f, 0.315200f, 0.063786f, -0.044214f, -0.293668f, 0.049479f, -0.189700f, -0.052606f, 0.033779f, 0.144141f, 0.212432f, 0.040248f, -0.508774f, 0.192308f, -0.135266f, 0.096017f, 0.101718f, -0.269560f, 0.062787f, -0.121800f, -0.072329f, -0.118103f, -0.008055f, -0.196557f, 0.109192f, 0.001616f, -0.021906f, 0.218643f, 0.243176f, -0.130372f, -0.146581f, 0.122287f, 0.115910f, -0.094181f, -0.116937f, 0.210425f, 0.030893f, -0.064282f, 0.024867f, 0.078352f, 0.007160f, -0.101377f, -0.211697f, -0.230773f, -0.154767f, -0.184938f, -0.062635f, -0.008673f, -0.262494f, -0.035921f, -0.219215f, 0.029298f, -0.140206f, 0.010445f, -0.625395f, -0.396534f, -0.127983f, 0.028362f, -0.186196f, -0.003406f, -0.226500f, -0.056511f, -0.086178f, -0.370408f, -0.036876f, 0.440589f, 0.047645f, 0.001989f, -0.177114f, -0.022461f, -0.027052f, -0.149223f, -0.144383f, -0.107218f, -0.475341f, 0.125246f, -0.000141f, -0.033529f, -0.074728f, -0.237965f, 0.168696f, -0.150916f, 0.214808f, 0.136196f, -0.137884f, 0.030683f, -0.144085f, 0.013644f, -0.145066f, -0.011008f, 0.100854f, 0.039601f, 0.071467f, -0.110045f, 0.199746f, 0.053178f, -0.125378f, 0.278827f, 0.174758f, 0.022490f, -0.179649f, -0.248099f, 0.187842f, 0.126741f, -0.083967f, -0.080275f, 0.158907f, -0.388472f, -0.163602f, 0.383831f, 0.168300f, 0.012614f, -0.021316f, -0.033699f, 0.049058f, -0.036350f, -0.087092f, 0.045660f, -0.353337f, -0.512877f, 0.001907f, 0.179810f, -0.051804f, 0.111717f, 0.090108f, -0.222729f, -0.147433f, 0.147144f, -0.255611f, -0.189794f, -0.089176f, -0.221938f, 0.129620f, -0.198001f, -0.106779f, -0.231965f, 0.236655f, 0.108134f, -0.165294f, -0.007397f, -0.122973f, 0.207406f, 0.045873f, 0.043207f, -0.115379f, -0.180973f, -0.022469f, -0.098041f, 0.101554f, 0.087204f, 0.028887f, 0.072745f, -0.140019f, 0.239340f, -0.168696f, -0.281559f, 0.065998f, 0.124985f, 0.202454f, 0.038322f, -0.143667f, 0.093569f, -0.091992f, 0.022289f, 0.191146f, -0.153989f, -0.096809f, 0.039067f, -0.223687f, 0.097505f, 0.098240f, 0.258523f, -0.080013f, 0.072098f, 0.185553f, 0.123736f, 0.000636f, 0.058276f, -0.624452f, -0.021368f, -0.213916f, -0.108674f, 0.165706f, -0.111899f, -0.023988f, 0.077370f, -0.190889f, -0.233329f, -0.053557f, 0.000638f, -0.140638f, 0.079476f, -0.141913f, -0.130163f, -0.053185f, -0.124781f, -0.214753f, -0.232299f, -0.173924f, 0.068364f, -0.031196f, -0.115870f, 0.042964f, -0.027045f, 0.128956f, 0.126902f, 0.157731f, -0.157766f, -0.035592f, 0.037616f, -0.058003f, -0.241446f, 0.016785f, -0.107112f, 0.258592f, 0.232683f, -0.197665f, -0.240811f, 0.053786f, 0.146150f, 0.140135f, 0.062619f, 0.126570f, 0.023161f, -0.229486f, -0.122139f, -0.179152f, 0.054842f, 0.047795f, 0.020273f, 0.198085f, 0.022575f, -0.015047f, 0.016326f, -0.000263f, -0.170100f, -0.089348f, -0.168628f, -0.184965f, -0.148771f, -0.119389f, 0.322476f, 0.157613f, -0.021063f, 0.230432f, 0.116705f, -0.124485f, -0.310936f, -0.044743f, -0.190078f, 0.120148f, -0.248368f, 0.032701f, 0.120576f, -0.362642f, 0.030380f, 0.129195f, -0.103080f, 0.228822f, -0.613234f, -0.083729f, 0.065571f, -0.054838f, -0.057747f, -0.170186f, -0.024644f, -0.004867f, -0.054662f, -0.074745f, -0.227329f, -0.037034f, 0.429185f, -0.004323f, -0.117460f, 0.274671f, 0.084020f, 0.076593f, -0.401131f, -0.086839f, -0.149598f, 0.102622f, 0.195173f, -0.239830f, -0.249545f, 0.152872f, 0.098389f, -0.041370f, -0.255187f, 0.079811f, 0.210308f, 0.099880f, 0.244307f, -0.237304f, -0.203191f, -0.272453f, -0.309903f, -0.092607f, 0.131044f, -0.188729f, 0.071362f, 0.030696f, -0.137810f, -0.162073f, -0.123470f, 0.100766f, 0.154445f, -0.115743f, -0.029922f, 0.059077f, 0.116184f, -0.144458f, -0.149086f, -0.219156f, 0.190124f, -0.098854f, -0.109859f, -0.004745f, 0.149069f, 0.083332f, -0.173476f, -0.135960f, -0.005277f, 0.259010f, 0.038826f, 0.194173f, -0.095168f, 0.098880f, -0.101052f, -0.065564f, -0.253536f, 0.071117f, 0.194400f, -0.058499f, -0.537720f, -0.066081f, -0.101154f, -0.029580f, -0.000595f, 0.212614f, -0.178173f, 0.060148f, -0.116329f, 0.088413f, 0.119051f, 0.041080f, 0.128829f, 0.061619f, -0.181893f, -0.182475f, -0.282138f, -0.113785f, 0.221847f, -0.020183f, -0.137221f, -0.007113f, 0.142123f, -0.143603f, 0.024045f, -0.181758f, -0.189520f, 0.149921f, 0.171619f, -0.195057f, 0.081477f, 0.208172f, -0.229858f, -0.100511f, -0.033686f, 0.046315f, -0.047068f, 0.013040f, -0.053711f, 0.195868f, 0.102390f, -0.136172f, 0.008173f, -0.096062f, -0.016112f, -0.149106f, -0.027955f, 0.097338f, -0.566311f, -0.099498f, 0.245447f, 0.033578f, 0.124637f, -0.236566f, -0.005421f, 0.098570f, -0.000713f, -0.293736f, 0.094330f, 0.038684f, -0.005036f, -0.158116f, 0.149059f, -0.101338f, -0.209313f, 0.044670f, -0.050800f, 0.076706f, 0.201333f, 0.034260f, 0.096126f, -0.198630f, 0.047910f, 0.321919f, 0.035707f, -0.303007f, 0.122318f, 0.156441f, 0.215236f, -0.337567f, -0.028875f, -0.061393f, 0.008444f, -0.159546f, 0.106326f, 0.186422f, 0.214878f, -0.038692f, -0.045088f, -0.349006f, -0.182558f, -0.174084f, -0.128216f, -0.088555f, -0.318624f, 0.099837f, -0.382656f, -0.112861f, -0.073158f, 0.008679f, -0.014110f, -0.106212f, 0.050468f, -0.082072f, -0.130217f, 0.001734f, 0.222586f, -0.139873f, -0.152148f, -0.224599f, -0.138513f, 0.054444f, 0.068149f, -0.118039f, -0.074093f, -0.068053f, -0.120807f, -0.121769f, -0.133792f, 0.080568f, 0.200866f, -0.047019f, -0.065359f, -0.102959f, 0.108916f, 0.188305f, 0.074392f, -0.171748f, -0.240607f, 0.278347f, -0.151742f, 0.000812f, 0.061688f, 0.040613f, -0.032314f, -0.120485f, -0.143633f, -0.167598f, -0.132060f, 0.112906f, 0.111725f, 0.268489f, 0.061955f, -0.176509f, -0.142982f, -0.154733f, -0.302872f, 0.164056f, 0.160967f, -0.194245f, 0.048784f, 0.109627f, 0.131556f, 0.177066f, -0.195504f, 0.045521f, -0.029899f, 0.055532f, -0.199124f, -0.227638f, -0.023370f, 0.088667f, 0.158774f, -0.040528f, 0.071896f, -0.072444f, 0.065146f, 0.062885f, -0.199964f, 0.155372f, -0.146161f, -0.048935f, -0.059423f, -0.145659f, 0.005454f, 0.228035f, -0.217412f, 0.160835f };
static float MLP_buf1[100];
static float MLP_buf2[100];
static const EmlNetLayer MLP_layers[2] = { 
{ 100, 7, MLP_layer_0_weights, MLP_layer_0_biases, EmlNetActivationRelu }, 
{ 27, 100, MLP_layer_1_weights, MLP_layer_1_biases, EmlNetActivationSoftmax } };
static EmlNet MLP = { 2, MLP_layers, MLP_buf1, MLP_buf2, 100 };

    int32_t
    MLP_predict(const float *features, int32_t n_features)
    {
        return eml_net_predict(&MLP, features, n_features);
    }
    

    int32_t
    MLP_regress(const float *features, int32_t n_features, float *out, int32_t out_length)
    {
        return eml_net_regress(&MLP, features, n_features, out, out_length);
    }
    

    float
    MLP_regress1(const float *features, int32_t n_features)
    {
        return eml_net_regress1(&MLP, features, n_features);
    }
    