
#include <eml_net.h>
<<<<<<< HEAD
static const float MLP_layer_0_biases[100] = { 0.092139f, 0.488127f, -0.068344f, -0.298767f, -0.371996f, -0.031529f, 0.203240f, 0.475502f, 0.072023f, 0.386162f, -0.020906f, 0.041328f, 0.136638f, 0.124043f, 0.262067f, -0.217039f, 0.038804f, -0.113242f, -0.066956f, -0.082314f, -0.174226f, 0.002492f, 0.121760f, 0.214644f, 0.344231f, 0.184850f, -0.125417f, -0.174066f, -0.321986f, -0.050226f, 0.246544f, 0.056581f, 0.116313f, 0.179814f, -0.116786f, 0.114250f, 0.172284f, -0.034165f, 0.425406f, -0.004393f, 0.137796f, -0.033242f, 0.152388f, -0.080623f, 0.276260f, 0.017219f, 0.073539f, 0.117313f, 0.291496f, 0.268017f, -0.067550f, 0.257615f, -0.252527f, -0.244848f, 0.134759f, 0.242315f, 0.192005f, 0.421412f, -0.091828f, -0.217750f, 0.211448f, 0.182656f, 0.132313f, 0.213303f, 0.047240f, -0.083244f, 0.091280f, -0.321819f, 0.030333f, 0.055671f, -0.246953f, -0.011325f, -0.113636f, -0.004154f, 0.313851f, -0.035326f, 0.356932f, 0.024481f, 0.300278f, 0.209135f, -0.345877f, -0.124822f, 0.128237f, -0.077859f, -0.006041f, 0.327560f, 0.185287f, -0.079866f, -0.147255f, -0.022224f, 0.290128f, 0.109375f, -0.082060f, 0.193755f, 0.263390f, -0.197143f, 0.076469f, -0.092794f, -0.140850f, -0.043396f };
static const float MLP_layer_0_weights[700] = { -0.130268f, 0.426045f, -0.090637f, -0.017535f, 0.223312f, -0.247962f, 0.043853f, 0.046008f, -0.122300f, 0.086856f, -0.042386f, -0.079853f, -0.225402f, -0.417942f, 0.104446f, 0.096791f, -0.121595f, -0.036057f, 0.098463f, -0.221899f, 0.075222f, -0.106390f, 0.252893f, 0.102447f, -0.067352f, -0.113981f, 0.056573f, 0.172971f, -0.142041f, 0.155753f, 0.161340f, -0.024201f, 0.064626f, -0.104954f, -0.231199f, -0.238278f, -0.191669f, 0.074958f, -0.202891f, -0.215394f, -0.016865f, -0.141360f, 0.113217f, 0.124351f, -0.038895f, 0.130181f, -0.045282f, -0.038946f, -0.024160f, 0.054406f, -0.002163f, -0.053975f, -0.050286f, 0.056364f, -0.163350f, 0.034372f, 0.101661f, 0.060551f, 0.237601f, 0.174965f, 0.145963f, -0.017596f, 0.214894f, 0.093634f, 0.027461f, 0.215916f, 0.152012f, 0.007640f, -0.156653f, -0.086781f, 0.152024f, -0.244061f, 0.169163f, 0.116111f, 0.093265f, -0.136436f, -0.057654f, 0.237644f, -0.087454f, -0.038712f, 0.270829f, 0.089053f, -0.033344f, 0.008961f, -0.014279f, 0.136849f, -0.126935f, -0.134076f, -0.114132f, 0.069031f, -0.230679f, 0.125220f, 0.138634f, 0.135423f, -0.039480f, -0.343882f, 0.169627f, 0.192991f, 0.081323f, 0.226396f, 0.102550f, 0.081826f, -1.326525f, 0.029379f, 0.009076f, 0.077543f, 0.108179f, -0.469786f, 0.150895f, -0.120755f, -0.010948f, -0.365352f, 0.072612f, 0.007756f, 0.027584f, -0.258372f, -0.023947f, 0.018643f, 0.159515f, -0.263223f, 0.025970f, 0.100691f, -0.177643f, 0.013536f, -0.158156f, -0.101286f, -0.182139f, 0.211214f, 0.257434f, -0.180325f, -0.136768f, 0.297172f, -0.308080f, 0.198397f, 0.094963f, -0.084698f, 0.190930f, 0.001467f, 0.330772f, -0.048894f, -0.091362f, 0.072579f, -0.232235f, 0.058071f, -0.059640f, -0.542491f, 0.364397f, 0.064557f, -0.373227f, 0.218968f, -0.010083f, -0.329333f, 0.205344f, -0.100049f, 0.045352f, -0.286937f, 0.256578f, 0.041894f, -0.040765f, -0.096617f, -0.048519f, -0.084673f, 0.015507f, 0.039107f, 0.206555f, -0.216575f, 0.205044f, 0.034012f, -0.022022f, -0.209188f, -0.025395f, 0.025174f, 0.019759f, -0.002733f, -0.215012f, -0.139912f, -0.135767f, -0.264595f, 0.260856f, -0.115197f, 0.123179f, -0.207559f, 0.214101f, -0.163498f, 0.210070f, -0.212322f, -0.055320f, 0.233202f, -0.220020f, -0.018483f, -0.058555f, 0.142220f, 0.143334f, 0.074204f, 0.002797f, -0.072477f, -0.247041f, 0.179870f, -0.202694f, -0.198959f, 0.124921f, -0.239837f, 0.011923f, -0.110736f, 0.121505f, 0.026772f, 0.092217f, -0.342046f, 0.157170f, -0.022064f, 0.124608f, 0.285541f, -0.157532f, -0.214242f, -0.066273f, -0.326454f, -0.299667f, 0.121911f, -0.013355f, -0.081194f, -0.261330f, 0.194892f, -0.099967f, 0.047653f, -0.077168f, 0.109489f, 0.265170f, -0.013135f, 0.005987f, 0.051763f, 0.020015f, 0.110596f, 0.059688f, -0.178341f, 0.264720f, 0.202136f, -0.182205f, -0.171280f, -0.284710f, -0.026277f, 0.172450f, 0.062006f, 0.376687f, -0.009513f, 0.049419f, -1.283351f, 0.005168f, 0.228512f, -0.687435f, -0.073981f, 0.203657f, -0.329539f, -0.025629f, 0.053052f, 0.207436f, 0.020545f, 0.190083f, 0.106750f, 0.051131f, -0.052577f, -0.279451f, 0.101567f, 0.353136f, 0.099919f, 0.200337f, 0.123478f, -0.218782f, 0.189766f, -0.421723f, 0.027230f, 0.025924f, -0.039758f, -0.122158f, 0.058846f, -0.310385f, -0.155771f, -0.533635f, -0.109687f, 0.066243f, -0.101457f, 0.046886f, 0.253927f, 0.208370f, -0.615878f, 0.277532f, 0.004639f, 0.220418f, 0.226521f, 0.175723f, -0.014468f, 0.176277f, -0.042443f, -0.145128f, -0.234498f, 0.011380f, 0.140494f, -0.230174f, -0.018390f, 0.089023f, 0.046233f, 0.134547f, -0.248381f, 0.005332f, 0.157709f, -0.209951f, 0.205823f, -0.187036f, -0.550930f, -0.123694f, -0.294472f, -0.265172f, 0.200452f, -0.139260f, -0.244871f, -0.040660f, -0.057127f, 0.070931f, 0.214275f, 0.252934f, -0.190385f, -0.157742f, -0.232438f, -0.109774f, -0.155861f, 0.188962f, 0.003204f, 0.066719f, -0.009324f, 0.109217f, -0.060993f, 0.153176f, -0.201089f, 0.038892f, -0.048463f, 0.161243f, 0.012267f, 0.003936f, 0.092581f, 0.074376f, -0.009731f, 0.010814f, 0.224887f, -0.057649f, 0.214331f, 0.150731f, -0.236190f, -0.119842f, 0.085784f, 0.109407f, -0.276031f, 0.036020f, 0.073369f, 0.166602f, 0.161728f, 0.000046f, 0.211494f, -0.144083f, 0.312693f, 0.134121f, -0.014350f, 0.098257f, 0.172992f, -0.241746f, 0.193785f, 0.048848f, -0.001348f, 0.142871f, -0.036320f, 0.119922f, 0.047199f, 0.001081f, 0.112382f, -0.142317f, 0.186231f, -0.298393f, 0.061964f, 0.107297f, -0.148109f, -0.165793f, -0.083088f, -0.167537f, -0.016611f, -0.105865f, -0.109446f, -0.016028f, 0.216058f, 0.198806f, 0.166229f, -0.047148f, -0.179739f, 0.028479f, -0.114343f, 0.060647f, 0.106116f, 0.086901f, 0.225595f, -0.139567f, 0.198813f, -0.156150f, 0.212402f, 0.047741f, -0.088118f, -0.028391f, 0.115515f, 0.110862f, 0.076206f, 0.068453f, -0.194469f, -0.135610f, -0.153685f, 0.214319f, -0.050317f, 0.141955f, -0.080939f, -0.065586f, -0.147012f, -0.049295f, -0.229929f, 0.146605f, 0.009058f, 0.136177f, 0.136847f, 0.165593f, 0.236746f, 0.021598f, 0.006917f, -0.174205f, 0.080150f, 0.165165f, 0.100488f, 0.025618f, 0.164792f, 0.084274f, -0.237789f, -0.174802f, 0.231328f, -0.301741f, -0.176201f, 0.151564f, -0.005731f, -0.034378f, 0.104886f, -0.044299f, -0.003835f, 0.167253f, 0.184597f, -0.362224f, 0.008194f, -0.098076f, -0.167745f, 0.114708f, -0.070159f, -0.152360f, -0.053219f, 0.184676f, -0.046553f, 0.184005f, -0.189644f, 0.191030f, -0.075353f, -0.004562f, -0.160730f, -0.023010f, -0.211430f, -0.149149f, 0.045229f, 0.014149f, 0.220742f, 0.041407f, 0.187829f, 0.137130f, 0.256710f, 0.125875f, 0.124077f, -0.042788f, 0.106549f, 0.074325f, 0.113983f, -0.109960f, -0.058495f, 0.012036f, -0.021555f, -0.004090f, 0.007473f, 0.121285f, -0.215886f, -0.027606f, -0.087856f, 0.055968f, 0.031709f, 0.156370f, 0.014108f, 0.070500f, -0.016028f, 0.044074f, 0.000500f, -0.047321f, -0.024257f, 0.229669f, -0.042972f, 0.024652f, -0.051036f, 0.215771f, 0.093628f, -0.069382f, 0.051015f, -0.082540f, -0.104177f, -0.092308f, -0.241630f, -0.098929f, -0.065878f, -0.157271f, -0.326007f, 0.145004f, 0.146747f, 0.202392f, -0.096137f, 0.095116f, -0.176406f, -0.171960f, -0.183192f, -0.065198f, 0.020043f, -0.141914f, -0.249911f, 0.146079f, -0.104765f, 0.194200f, 0.157957f, -0.146203f, 0.125602f, -0.183036f, -0.082298f, -0.073941f, 0.181085f, 0.150299f, -0.150586f, 0.141786f, -0.106619f, 0.259197f, 0.106665f, 0.175464f, -0.123230f, 0.158315f, 0.040946f, -0.251954f, 0.106716f, 0.158509f, 0.288123f, -0.173649f, 0.182333f, -0.094726f, 0.227780f, 0.018300f, -0.113476f, -0.117192f, 0.241816f, 0.134656f, -0.144907f, -0.163829f, 0.153147f, -0.011214f, 0.084080f, 0.209967f, -0.221494f, 0.037982f, -0.134371f, 0.128238f, -0.149829f, -0.089064f, -0.000090f, 0.135429f, -0.121859f, 0.132150f, 0.125787f, 0.173629f, -0.135618f, -0.160457f, 0.134460f, -0.048109f, 0.082920f, 0.081515f, -0.008528f, -0.014204f, -0.253025f, 0.079213f, 0.008280f, 0.187648f, -0.228644f, -0.063463f, 0.206182f, 0.078254f, -0.130460f, 0.116030f, -0.138987f, -0.310840f, 0.034999f, -0.158215f, 0.122711f, 0.018782f, -0.027335f, -0.096736f, -0.168443f, 0.113090f, 0.101661f, 0.128369f, -0.251806f, 0.189837f, -0.304249f, -0.059130f, 0.032366f, 0.082595f, -0.222589f, 0.231891f, -0.171514f, -0.257819f, -0.032628f, -0.106945f, -0.127454f, -0.022456f, -0.176708f, 0.230422f, 0.151665f, -0.054540f, 0.020567f, -0.260374f, 0.147456f, -0.093083f, 0.185391f, -0.169225f, -0.089054f, -0.092996f, -0.170165f, 0.047258f, 0.094780f, -0.165633f, 0.136553f, -0.086632f, 0.118262f, 0.199922f, -0.044376f, -0.051586f, -0.105944f, 0.089720f, -0.147965f, 0.029747f, -0.126483f, -0.084068f, -0.216486f, -0.117345f, -0.237220f, 0.146747f, 0.034374f, 0.140106f, -0.244890f, -0.032456f, 0.186160f, 0.106465f, 0.161796f, -0.027965f, 0.125525f, 0.327414f, -0.310063f, -0.181386f, -0.056069f, -0.104559f, -0.115268f, 0.225793f, -0.018496f, -0.067386f, 0.238137f, -0.361093f, 0.050427f, 0.144073f, -0.228626f, -0.086409f, 0.271859f, -0.242624f, -0.164975f, 0.112406f, -0.264364f, -0.269791f, -0.126007f, -0.003065f, -0.152127f, 0.103213f, 0.028813f, 0.069060f, 0.139591f, -0.231944f, -0.243129f, -0.026378f, -0.068443f, 0.009546f, 0.214713f, 0.124593f, 0.143879f, -0.056742f, -0.047990f };
static const float MLP_layer_1_biases[27] = { 0.251449f, 0.154900f, -0.122197f, 0.427930f, -0.172303f, -0.108068f, -0.088341f, 0.127207f, 0.204231f, 0.105409f, -0.268606f, -0.172879f, 0.187465f, -0.005887f, -0.046912f, 0.083383f, 0.112494f, 0.180351f, -0.201778f, 0.024472f, 0.188591f, -0.074893f, -0.010282f, -0.172786f, -0.176480f, 0.010435f, 0.229456f };
static const float MLP_layer_1_weights[2700] = { -0.219259f, -0.164179f, -0.315261f, -0.012747f, 0.054612f, 0.055954f, 0.032765f, 0.009709f, 0.149725f, -0.190026f, -0.034059f, -0.097873f, 0.181304f, -0.031706f, -0.147943f, -0.003119f, -0.110885f, 0.059629f, -0.084224f, -0.139303f, 0.225150f, -0.183137f, -0.157748f, -0.072892f, -0.082758f, 0.087001f, -0.118248f, 0.039948f, 0.086145f, 0.212615f, 0.415996f, -0.122276f, -0.062555f, 0.062723f, -0.119215f, -0.213837f, -0.004536f, 0.174737f, -0.223059f, 0.084013f, 0.420619f, -1.078554f, -0.096781f, -0.142634f, -0.048735f, -0.810997f, -0.150354f, 0.054521f, -0.070900f, 0.944342f, 0.247162f, -0.466433f, 0.062965f, 0.072715f, -0.062525f, -0.129566f, -0.443238f, -0.110911f, 0.141004f, -0.032548f, -0.020690f, -0.029725f, 0.100275f, -0.089980f, -0.029938f, -0.064750f, 0.116791f, -0.021269f, -0.152648f, -0.016149f, -0.181058f, -0.004449f, 0.500769f, -0.113540f, 0.026534f, -0.814054f, -0.183871f, -0.087878f, -0.009104f, 0.103614f, -0.173469f, 0.142118f, 0.100069f, 0.004953f, 0.090350f, 0.062254f, 0.002465f, 0.051199f, -0.268163f, 0.010783f, 0.005611f, 0.184253f, -0.129673f, 0.159355f, -0.028693f, 0.024570f, 0.014339f, -0.014085f, 0.167960f, 0.146815f, 0.041746f, 0.309695f, -0.033486f, 0.059787f, -0.030724f, 0.104463f, 0.030596f, 0.021154f, -0.078908f, 0.017193f, -0.010421f, -0.164869f, 0.051467f, 0.097725f, -0.029663f, -0.151309f, 0.069586f, 0.110281f, -0.106590f, -0.135800f, -0.001901f, -0.087690f, 0.103169f, -0.141246f, 0.175614f, -0.139126f, 0.343989f, -0.063786f, -0.039991f, -0.048619f, 0.075220f, 0.254304f, 0.187803f, 0.135774f, 0.146373f, 0.066927f, 0.255049f, -0.358482f, 0.090401f, -0.037806f, -0.053164f, -0.160229f, 0.031228f, -0.036092f, 0.065540f, -0.184807f, -0.050963f, 0.038572f, -0.195158f, 0.068865f, -0.186443f, 0.080028f, 0.001255f, 0.037633f, -0.028512f, -0.144022f, -0.093574f, -0.239922f, -0.022874f, -0.088839f, 0.110068f, 0.097298f, -0.066459f, 0.039996f, 0.008465f, 0.091351f, -0.190531f, -0.121576f, 0.045083f, 0.169359f, 0.135568f, 0.021445f, 0.112911f, -0.196887f, -0.468033f, 0.257655f, 0.075557f, 0.093575f, 0.206060f, 0.193631f, -0.034514f, 0.050407f, 0.142191f, -0.218733f, 0.115465f, -0.129317f, 0.148788f, 0.018708f, -0.087232f, 0.170383f, -0.385181f, -0.428222f, -0.510212f, -0.232728f, -0.082700f, -0.452790f, -0.232663f, 0.047745f, -0.167211f, -0.366317f, -0.616387f, -0.012360f, 0.239777f, -0.098009f, -0.130129f, -0.194999f, -0.059138f, -0.005001f, -0.133024f, 0.066527f, -0.105612f, -0.410433f, -0.843440f, -0.001151f, -0.564596f, -0.330436f, -0.108506f, 0.187472f, -0.181281f, 0.203262f, -0.145577f, -0.033942f, 0.071216f, 0.116477f, -0.139443f, -0.110202f, 0.223216f, 0.019442f, 0.019042f, -0.223403f, -0.244977f, -0.140134f, -0.482098f, -0.508185f, 0.049606f, -0.202767f, -0.137463f, 0.174056f, -0.169904f, 0.167560f, -0.199219f, 0.110800f, 0.069649f, 0.138974f, 0.051984f, 0.016273f, 0.271744f, 0.045974f, -0.565686f, 0.015503f, -0.210141f, 0.026317f, -0.076233f, 0.006194f, 0.056686f, -0.105816f, 0.157712f, -0.193513f, -0.490057f, -0.277389f, -0.113416f, -0.168104f, -0.037165f, -0.078646f, -0.054806f, -0.021727f, -0.105637f, -0.008811f, -0.149011f, -0.235023f, 0.248566f, 0.180236f, -0.142157f, -0.188231f, 0.129305f, 0.153698f, 0.133072f, 0.051388f, -0.190285f, -0.196364f, 0.017986f, -0.005593f, -0.005052f, 0.031216f, -0.245849f, -0.231129f, 0.242879f, 0.120931f, -1.071148f, 0.165091f, -0.072927f, -0.070528f, 0.175280f, 0.179884f, -0.065323f, -0.181779f, -0.026680f, 0.192435f, -0.102846f, -0.247840f, 0.025535f, 0.038690f, -0.635490f, -0.234022f, 0.192015f, -0.036822f, -0.123833f, 0.151089f, 0.164900f, 0.297184f, -0.006021f, -0.595151f, 0.232149f, -0.020399f, 0.338517f, 0.341498f, -0.486951f, 0.149542f, -0.093924f, 0.000581f, -0.011031f, 0.278707f, -0.210168f, 0.279199f, -0.050595f, 0.024397f, 0.132132f, 0.009728f, 0.145516f, -0.377001f, -0.173691f, 0.087477f, 0.075356f, 0.070275f, -0.014142f, -0.143034f, 0.102596f, 0.116961f, 0.096916f, -0.100220f, 0.204443f, 0.071454f, 0.000474f, -0.203916f, 0.161616f, 0.083922f, -0.175173f, -0.210502f, 0.087031f, 0.087262f, -0.014072f, 0.201673f, 0.024502f, -0.216949f, -0.445953f, -0.129345f, -0.004720f, -0.153126f, -0.026345f, -0.196622f, -0.145191f, -0.223179f, 0.001238f, -0.022075f, -1.168864f, -0.000529f, -0.232553f, -0.145855f, -0.080333f, 0.006350f, 0.072622f, -0.140052f, -0.499689f, -0.100476f, -0.111909f, -0.001114f, -0.123929f, -0.000754f, 0.254776f, -0.114201f, 0.168408f, 0.067704f, 0.064049f, -0.195347f, -0.146455f, 0.121467f, 0.031018f, 0.188305f, 0.264765f, -0.168574f, 0.010624f, 0.103721f, -0.077761f, -0.200480f, 0.184424f, 0.112923f, -0.130938f, 0.114584f, -0.202248f, -0.150274f, 0.129263f, -0.126787f, -0.315288f, 0.049008f, -0.050864f, -0.160046f, -0.231681f, 0.054424f, -0.703976f, 0.040058f, -0.102485f, -0.080730f, -0.195739f, 0.133840f, 0.073721f, -0.277313f, 0.265946f, -0.020667f, -0.022284f, -0.028084f, -0.052738f, -0.035460f, -0.007484f, 0.061097f, -0.022289f, -0.241757f, -0.019972f, 0.047366f, 0.092806f, -0.004824f, 0.138169f, -0.086477f, -0.070146f, -0.109125f, -0.057616f, 0.272193f, -0.071503f, -0.128996f, -0.096799f, -0.196657f, -0.068789f, -0.149864f, 0.162432f, -0.135377f, -0.109913f, -0.071579f, -0.064326f, 0.170158f, 0.044855f, -0.102722f, -0.268802f, -0.065161f, -0.029257f, 0.119704f, 0.244752f, -0.277954f, -0.036485f, -0.120940f, -0.026053f, -0.025756f, -0.077553f, -0.036420f, 0.003847f, 0.125630f, -0.198080f, -0.174334f, -0.106198f, 0.140111f, 0.090907f, 0.141254f, 0.042805f, -0.098083f, -0.238778f, -0.152868f, -0.029401f, 0.059075f, 0.227554f, 0.066047f, -0.065678f, -0.075656f, 0.144474f, 0.107822f, 0.054473f, 0.097536f, 0.172563f, -0.138624f, 0.072882f, 0.073258f, -0.156394f, 0.197627f, -0.017683f, -0.016804f, 0.023715f, 0.165380f, 0.106882f, -0.204718f, 0.042216f, -0.036018f, 0.191286f, -0.175458f, 0.215616f, 0.187142f, -0.031598f, 0.136116f, 0.091702f, 0.124212f, -0.114075f, -0.082547f, -0.017013f, -0.124108f, -0.028914f, -0.176775f, -0.188409f, 0.049331f, -0.289230f, 0.063021f, -0.304454f, -0.245265f, 0.043008f, -0.068097f, 0.145334f, 0.030685f, 0.118894f, -0.120216f, -0.066036f, -0.000570f, -0.262486f, -0.052473f, 0.105385f, -0.181362f, -0.185068f, -0.008130f, -0.102019f, 0.008757f, 0.169276f, -0.012615f, 0.130956f, -0.000923f, -0.218318f, -0.046948f, -0.044841f, 0.053678f, 0.015582f, 0.142034f, 0.125026f, 0.193657f, 0.166244f, -0.139735f, 0.219291f, -0.085091f, -0.185049f, -0.082609f, -0.056051f, 0.119969f, 0.170418f, -0.092410f, -0.007939f, -0.046802f, 0.132450f, 0.105486f, 0.096611f, -0.217195f, -0.212799f, 0.161498f, -0.004483f, -0.090637f, -0.012796f, 0.033729f, -0.142008f, 0.041522f, 0.151203f, -0.017760f, 0.051165f, -0.150937f, 0.153637f, -0.205129f, 0.095648f, 0.089061f, -0.102401f, -0.118267f, -0.166926f, -0.200046f, 0.069006f, -0.141453f, -0.081807f, -0.115574f, 0.069743f, -0.042479f, 0.157479f, -0.014472f, -0.118050f, -0.072942f, -0.119805f, 0.057843f, -0.006349f, -0.330739f, -0.028508f, 0.252375f, -0.553928f, -0.057325f, -0.033019f, 0.158167f, 0.222781f, -0.011476f, -0.172905f, -0.188485f, -0.004889f, 0.017357f, -0.110701f, -0.337736f, -0.026359f, -0.022593f, -0.017273f, -0.217365f, -0.148503f, -0.071020f, -0.011866f, 0.039941f, 0.101424f, -0.134994f, 0.188092f, -0.119778f, 0.079136f, 0.098908f, -0.318328f, 0.210546f, -0.180209f, -0.031084f, 0.149199f, 0.047504f, -0.290406f, -0.110184f, 0.053285f, 0.125959f, 0.223108f, 0.002320f, -0.026478f, 0.012223f, 0.147748f, -0.064069f, -0.122036f, 0.064857f, 0.075655f, -0.137013f, -0.029185f, -0.000996f, -0.143981f, 0.072907f, -0.123463f, 0.131495f, -0.053768f, 0.082056f, -0.257980f, -0.079975f, -0.173806f, -0.031768f, 0.115027f, -0.078724f, -0.103498f, 0.147430f, 0.007497f, -0.095407f, -0.162453f, 0.094643f, -0.106108f, -0.110660f, -0.221501f, -0.102371f, 0.071245f, -0.122394f, -0.042462f, -0.055617f, -0.214613f, 0.126952f, 0.104441f, 0.108756f, 0.254667f, -0.222571f, 0.054504f, -0.022775f, 0.062586f, 0.099877f, 0.148814f, -0.049098f, 0.130143f, -0.188658f, -0.066272f, -0.147368f, -0.149583f, 0.045946f, 0.093940f, 0.019302f, -0.067754f, -0.113097f, 0.059480f, -0.083718f, -0.181336f, 0.133303f, 0.120286f, 0.044764f, 0.056932f, 0.165557f, 0.030750f, -0.027197f, 0.098763f, 0.152057f, -0.063546f, -0.099580f, -0.097704f, -0.036961f, -0.208867f, -0.114887f, 0.005830f, -0.182133f, 0.100776f, 0.157986f, 0.077845f, -0.090320f, -0.225355f, -0.221583f, 0.165172f, -0.045510f, -0.210742f, -0.287570f, -0.263203f, 0.150838f, -0.126042f, -0.261410f, -0.088378f, -0.015238f, 0.084015f, 0.141264f, -0.007907f, -0.164633f, -0.012904f, -0.056887f, 0.048907f, -0.183055f, 0.119839f, -0.068054f, 0.228724f, -0.096712f, 0.051521f, 0.049939f, 0.209464f, -0.039969f, -0.166043f, 0.108937f, 0.144886f, 0.082990f, 0.180433f, -0.022829f, 0.157502f, 0.140977f, -0.122872f, -0.168655f, -0.142026f, -0.171435f, -0.224976f, -0.126398f, 0.080494f, -0.054278f, -0.131952f, -0.184161f, -0.048663f, 0.125563f, -0.114823f, -0.132219f, -0.115101f, 0.145666f, 0.153269f, -0.111710f, -0.112235f, -0.147701f, 0.160458f, 0.247423f, 0.121161f, 0.030767f, 0.063963f, -0.120262f, 0.025465f, -0.186978f, 0.090924f, -0.180967f, -0.089780f, 0.152729f, 0.060392f, 0.197020f, -0.075329f, -0.150381f, 0.234479f, 0.031300f, -0.185566f, 0.092733f, 0.127863f, -0.147902f, 0.101805f, 0.096037f, -0.640423f, -0.003223f, 0.131588f, 0.035476f, 0.081629f, -0.168704f, 0.109438f, -0.020063f, -0.102018f, -0.236824f, -0.023224f, 0.007333f, -0.143987f, -0.069318f, -0.092672f, 0.009030f, 0.070486f, 0.100892f, -0.081027f, 0.183787f, -0.133034f, 0.090669f, -0.262032f, -0.038030f, -0.227440f, 0.077907f, 0.115715f, 0.202250f, 0.171813f, -0.100903f, -0.129836f, 0.066633f, -0.085409f, 0.171675f, -0.057917f, -0.174445f, 0.000818f, 0.172200f, 0.198311f, 0.051447f, 0.024237f, -0.017099f, -0.207399f, -0.177954f, 0.101686f, 0.187354f, 0.202192f, -0.087456f, 0.004532f, 0.090468f, 0.229056f, -0.196921f, 0.236333f, -0.130120f, -0.158829f, -0.102942f, -0.200741f, -0.166094f, 0.027112f, 0.006286f, -0.178478f, -0.134199f, 0.021819f, -0.075724f, 0.140743f, -0.208208f, 0.257753f, 0.068429f, -0.114127f, -0.148118f, 0.148615f, 0.249322f, -0.410079f, 0.008584f, -0.109798f, 0.036148f, -0.029661f, -0.113069f, -0.106647f, -0.399537f, -0.212908f, 0.025206f, 0.104044f, 0.091383f, 0.207395f, -0.284433f, 0.162862f, 0.130246f, -0.085491f, -0.245643f, 0.040067f, -0.279871f, 0.035857f, 0.044680f, -0.226062f, -0.187143f, -0.856315f, -0.249572f, -0.137052f, 0.176170f, -0.110680f, -0.101365f, -0.338744f, -0.291829f, -0.045684f, -0.033606f, -0.074180f, -0.120168f, -0.055123f, -0.129179f, -0.050288f, 0.087375f, 0.138093f, 0.105079f, -0.110994f, -0.095277f, 0.044509f, -0.007077f, -0.093922f, -0.201080f, -0.060414f, 0.218737f, -0.154662f, 0.148215f, -0.218057f, -0.211918f, 0.069174f, -0.097686f, -0.257377f, 0.033947f, -0.000178f, -0.433027f, -0.031370f, -0.138631f, -0.216751f, 0.049991f, -0.198371f, 0.134162f, -0.053383f, 0.025257f, -0.039984f, 0.015340f, 0.162015f, -0.070675f, -0.022823f, 0.163999f, 0.062195f, -0.036487f, 0.038612f, -0.118214f, -0.267729f, -0.053367f, -0.107314f, -0.064091f, -0.004669f, 0.004783f, 0.181671f, -0.151170f, -0.113788f, 0.104037f, -0.253717f, -0.319957f, 0.061805f, 0.033914f, 0.096395f, -0.019572f, -0.224582f, 0.344359f, 0.122676f, -0.049300f, 0.044829f, 0.165362f, -0.595649f, 0.062017f, 0.237555f, 0.028813f, -0.089606f, -0.281153f, -0.123057f, -0.143376f, -0.061108f, 0.007142f, -0.142565f, -0.355261f, -0.194510f, 0.074778f, 0.019274f, 0.060039f, -0.148597f, 0.261734f, 0.033183f, -0.006035f, -0.192881f, -0.051264f, -0.011541f, 0.050238f, 0.126481f, 0.121204f, 0.026733f, -0.057221f, -0.211750f, 0.192490f, -0.163226f, -0.118439f, -0.134837f, 0.145719f, 0.092952f, -0.040182f, 0.053061f, -0.043235f, -0.096204f, 0.037097f, -0.014218f, -0.068888f, 0.086122f, -0.068191f, 0.306099f, -0.165249f, 0.173362f, -0.005457f, 0.059031f, -0.184610f, 0.137969f, 0.013443f, 0.028706f, 0.157632f, -0.057651f, -0.155615f, -0.144591f, 0.108284f, -0.453974f, -0.199033f, -0.334961f, 0.064761f, 1.037507f, 0.100526f, 0.016692f, -0.067110f, 0.005596f, 0.073214f, 0.002480f, -0.295288f, -0.125407f, 0.462850f, -0.144922f, -0.307619f, -0.269542f, 0.430059f, 0.141550f, 0.216862f, 0.162851f, -0.059052f, -0.256965f, 1.167166f, 0.034151f, 0.002866f, -0.162135f, -0.091915f, -0.095610f, -0.229418f, 0.097623f, -0.127823f, -0.084909f, 0.128458f, -0.160329f, -0.054034f, 0.106695f, -0.095003f, 0.175452f, -0.013429f, -0.132753f, -0.159096f, -0.074195f, -0.001694f, -0.100288f, -0.217002f, 0.038652f, -0.190354f, -0.027602f, -0.057695f, 0.229528f, -0.193894f, 0.103721f, -0.101700f, 0.211463f, 0.177642f, 0.267177f, -0.176129f, -0.212840f, 0.114639f, 0.050366f, -0.187566f, 0.147755f, 0.087593f, -0.171202f, -0.016779f, -0.071423f, 0.145277f, -0.207238f, -0.198554f, 0.230908f, -0.014532f, -0.035041f, 0.233856f, -0.231360f, 0.082723f, -0.306211f, -0.128871f, 0.041641f, 0.130206f, -0.063900f, -0.152325f, 0.094689f, 0.008989f, -0.110966f, -0.110033f, 0.110255f, -0.053965f, -0.129684f, 0.195597f, -0.103844f, -0.191749f, -0.059231f, 0.126910f, -0.131283f, 0.144729f, 0.140661f, -0.059472f, -0.054787f, 0.073594f, -0.107624f, -0.073806f, -0.101918f, 0.046212f, 0.095064f, 0.097131f, -0.067212f, -0.063100f, 0.074342f, 0.281933f, -0.082339f, -0.515014f, -0.267044f, 0.130665f, -0.232806f, -0.076651f, 0.126583f, 0.035462f, -0.017779f, -0.071575f, -0.359870f, -0.090080f, -0.178532f, -0.245893f, 0.072517f, 0.009528f, -0.492863f, -0.034751f, -0.285196f, 0.076046f, 0.256552f, -0.176582f, 0.026477f, -0.132817f, -0.201547f, 0.208050f, -0.122387f, -0.005977f, -0.175225f, 0.171051f, -0.081824f, -0.111005f, 0.223924f, 0.110115f, 0.092541f, 0.180277f, 0.087827f, 0.000061f, 0.028266f, -0.101748f, 0.158951f, 0.158460f, 0.144283f, 0.172976f, 0.145860f, 0.075330f, -0.252874f, -0.188514f, 0.127499f, -0.070272f, -0.073268f, -0.053187f, 0.138873f, -0.200808f, 0.058480f, -0.097908f, -0.188763f, 0.002022f, 0.081068f, 0.096504f, -0.116051f, 0.239238f, 0.118942f, -0.100314f, -0.027081f, -0.034075f, 0.163831f, -0.029841f, -0.187593f, -0.140591f, 0.165785f, -0.157047f, 0.099172f, 0.157571f, 0.066198f, 0.141859f, -0.056200f, -0.010914f, 0.074099f, -0.188761f, -0.456091f, -0.729498f, -0.024972f, -0.051236f, -0.193032f, -0.041345f, -0.216049f, 0.111194f, -0.352051f, -0.033053f, -0.220460f, 0.063345f, 0.079140f, -0.060713f, -0.013250f, -0.422286f, 0.014423f, -0.156344f, 0.123304f, 0.346005f, 0.209611f, -0.147550f, 0.099237f, -0.038666f, 0.125627f, 0.186419f, 0.107924f, -0.083028f, -0.178251f, -0.783647f, 0.192334f, -0.272126f, -0.121929f, 0.466033f, -0.021531f, -0.128519f, -0.056835f, -0.234415f, 0.119905f, -0.272437f, -0.507214f, -0.757355f, -0.081573f, 0.090293f, -0.100472f, 0.039915f, -0.231788f, -0.117763f, -0.330789f, 0.270287f, 0.039469f, -0.013586f, 0.114453f, -0.109820f, 0.026742f, -0.095459f, -0.071023f, -0.123081f, -0.126269f, 0.006197f, 0.242412f, 0.008293f, -0.058798f, -0.059274f, 0.035427f, 0.041405f, -0.003599f, 0.151071f, -0.166351f, 0.091322f, -0.115355f, 0.142994f, 0.022287f, -0.248308f, -0.138109f, 0.087363f, 0.038379f, 0.071940f, 0.010378f, -0.183300f, -0.093650f, -0.018457f, 0.049239f, -0.132072f, -0.083423f, -0.023200f, -0.088820f, -0.133187f, -0.043259f, -0.139616f, 0.159692f, -0.051097f, 0.107925f, 0.230629f, 0.131401f, -0.174007f, -0.311144f, -0.125120f, 0.040089f, -0.039285f, 0.267419f, 0.044968f, 0.034502f, -0.105252f, -0.005698f, 0.192412f, -0.206713f, 0.407858f, 0.166589f, -0.797920f, 0.049453f, 0.163084f, -0.153647f, -0.001170f, -0.142974f, 0.023126f, 0.313453f, -0.575381f, -0.146954f, -0.218410f, -0.137440f, -0.097046f, -0.008528f, -0.294547f, -0.012194f, -0.112292f, 0.051136f, -0.554411f, -0.027929f, -0.584887f, 0.066836f, -0.158407f, 0.031274f, -0.006291f, -0.260443f, -0.121088f, -0.101558f, -0.039804f, 0.207328f, -0.145347f, 0.057611f, -0.122701f, -0.187010f, 0.074275f, 0.174343f, -0.024403f, -0.029201f, -0.050513f, 0.067128f, 0.238819f, 0.261666f, 0.092313f, -0.111980f, -0.045681f, 0.026438f, -0.043005f, 0.111122f, 0.152223f, 0.098070f, -0.118321f, -0.064441f, 0.066369f, 0.080120f, 0.025380f, 0.033279f, -0.001968f, -0.216765f, 0.105983f, 0.011905f, -0.089220f, -0.084234f, -0.119688f, -0.139909f, -0.164254f, -0.086087f, -0.186971f, -0.021095f, -0.215560f, -0.179250f, -0.138080f, 0.065756f, 0.255865f, 0.137629f, -0.075009f, -0.138703f, 0.142487f, 0.026028f, 0.053228f, -0.228721f, -0.079151f, -0.107498f, -0.100544f, 0.047913f, 0.011251f, 0.189231f, -0.086426f, 0.008483f, -0.080394f, -0.350828f, -0.129382f, 0.082470f, -0.146768f, -0.190439f, -0.080750f, -0.081785f, -0.048841f, 0.077304f, -0.080286f, 0.060991f, 0.075878f, -0.057446f, 0.096614f, -0.214537f, -0.080108f, -0.010365f, -0.111809f, -0.188721f, -0.143167f, 0.033646f, -0.259100f, -0.073381f, -0.162568f, -0.178902f, -0.124523f, -0.003930f, 0.058891f, -0.187672f, 0.184906f, -0.142494f, -0.217358f, -0.087876f, 0.159284f, 0.103393f, -0.397644f, 0.214807f, -0.166226f, 0.097687f, -0.085421f, -0.175816f, -0.242653f, -0.024746f, 0.176258f, 0.044645f, -0.229085f, -0.034249f, -0.142686f, -0.001873f, 0.116659f, 0.191931f, 0.003455f, 0.009485f, 0.193119f, 0.173706f, -0.213962f, -0.201175f, -0.135968f, -0.037664f, -0.108687f, 0.019443f, -0.069643f, 0.062539f, 0.105874f, -0.193147f, 0.146373f, -0.024004f, -0.165973f, 0.236873f, 0.145411f, -0.215743f, -0.027355f, 0.107111f, 0.021024f, 0.080121f, 0.010358f, -0.214640f, 0.083669f, -0.080655f, -0.075912f, -0.132014f, 0.037713f, -0.135885f, -0.252945f, 0.193918f, 0.146610f, -0.040626f, -0.151112f, -0.064475f, -0.018519f, 0.049483f, 0.125472f, -0.107750f, -0.080417f, -0.161909f, 0.202381f, -0.159038f, 0.035924f, -0.058903f, 0.172561f, -0.067351f, 0.215604f, 0.163802f, -0.165235f, -0.060677f, -0.035255f, -0.016334f, 0.151345f, -0.076822f, 0.241745f, 0.127747f, -0.100917f, -0.149844f, 0.162902f, 0.069931f, -0.067624f, 0.094894f, 0.095282f, -0.386812f, 0.121903f, 0.041432f, 0.046598f, 0.011769f, -0.042844f, -0.341447f, -0.132645f, -0.042268f, 0.136730f, -0.457056f, -0.220035f, -0.089630f, 0.086755f, 0.130255f, 0.216691f, -0.009467f, -0.032489f, -0.170288f, 0.064719f, 0.040426f, -0.220664f, -0.186772f, -0.188920f, -0.362960f, -0.316260f, 0.078262f, 0.089565f, -0.241131f, 0.022955f, 0.068893f, -0.057363f, -0.277295f, -0.235852f, 0.064241f, -0.267117f, -0.035714f, 0.130572f, 0.185427f, 0.121656f, 0.022571f, 0.063808f, -0.194992f, 0.195859f, 0.009424f, 0.138105f, 0.213896f, -0.172911f, 0.119247f, -0.078955f, 0.073783f, 0.171466f, -0.160402f, -0.184134f, -0.028886f, 0.194354f, 0.017109f, -0.211050f, 0.120606f, -0.008934f, -0.160668f, 0.082597f, -0.271303f, 0.010434f, -0.027613f, 0.179506f, -0.075213f, -0.147058f, 0.121853f, 0.015456f, -0.214076f, 0.120033f, -0.024404f, 0.022555f, 0.174329f, 0.159445f, -0.138815f, 0.174648f, 0.089519f, -0.021155f, 0.187340f, -0.015116f, -0.177814f, 0.153992f, -0.100461f, 0.007678f, -0.090710f, -0.119962f, 0.107493f, -0.096420f, -0.234959f, 0.068842f, -0.104797f, -0.153328f, 0.048133f, -0.145643f, -0.040118f, -0.972376f, 0.024297f, -0.133619f, 0.195656f, 0.279890f, -0.056302f, 0.139847f, -0.140499f, 0.137478f, -0.056565f, 0.162469f, 0.206241f, -0.114394f, -0.142642f, 0.065426f, -0.163102f, 0.170001f, 0.044068f, -0.023217f, -0.043787f, -0.063391f, -0.029275f, -0.081592f, 0.167114f, -0.047400f, -0.157925f, -0.041641f, 0.077864f, -0.093353f, 0.065309f, -0.245055f, 0.174742f, 0.115139f, -0.250973f, 0.092684f, 0.033927f, 0.006801f, 0.042490f, 0.126027f, -0.205182f, -0.142031f, -0.062302f, -0.180494f, 0.200553f, 0.044048f, 0.025945f, -0.357171f, 0.187302f, 0.062120f, 0.066461f, 0.078221f, -0.010992f, 0.003106f, 0.121171f, -0.438044f, 0.121175f, 0.336858f, -0.209383f, -0.052211f, -0.386437f, -0.235483f, -1.123431f, 0.154800f, 0.019953f, -0.151749f, -0.009624f, 0.118114f, -0.019825f, -0.015767f, 0.110878f, -0.068178f, -0.217916f, 0.099931f, 0.038080f, 0.260302f, 0.140186f, 0.078787f, -0.043061f, -0.048380f, 0.036650f, 0.120094f, -0.113558f, -0.129075f, -0.020156f, 0.102383f, 0.080334f, -0.181355f, -0.253213f, -0.130621f, -0.266817f, 0.007517f, -0.095256f, -0.001312f, 0.055877f, 0.011772f, -0.034175f, 0.129515f, -0.050514f, 0.043645f, 0.247717f, 0.031546f, 0.170640f, 0.005548f, -0.102102f, 0.085188f, 0.159374f, 0.245711f, 0.078194f, -0.047660f, 0.093987f, 0.066152f, 0.177053f, 0.082219f, -0.148875f, 0.080241f, -0.096919f, -0.349144f, -0.357567f, -0.258427f, 0.085663f, -0.240794f, 0.146397f, 0.096018f, 0.046856f, 0.029771f, -0.210234f, 0.054872f, 0.014480f, -0.144070f, 0.181907f, 0.066520f, 0.176211f, 0.166658f, -0.075474f, -0.193576f, 0.011447f, -0.130507f, 0.106826f, -0.096068f, -0.023472f, 0.192065f, 0.093082f, 0.008703f, -0.011623f, -0.140578f, 0.053661f, -0.259311f, -0.100767f, -0.107054f, 0.060528f, -0.095190f, 0.033483f, -0.171157f, -0.179148f, -0.065363f, -0.051938f, 0.094692f, 0.263687f, 0.006904f, 0.186565f, 0.199409f, -0.069414f, -0.002190f, -0.253397f, 0.157953f, -0.059867f, -0.167967f, 0.194310f, -0.158307f, -0.048260f, 0.174524f, -0.145691f, 0.161149f, -0.101663f, -0.113418f, 0.173330f, 0.056866f, -0.011862f, 0.042618f, -0.049419f, 0.121024f, -0.117869f, 0.169763f, 0.186747f, -0.159527f, -0.033615f, -0.005499f, -0.107137f, -0.205461f, -0.071248f, 0.121532f, -0.062008f, 0.189446f, -0.021696f, 0.164641f, 0.045705f, 0.063210f, -0.053549f, 0.204765f, 0.092621f, -0.160092f, -0.192348f, -0.138826f, 0.046299f, 0.072181f, 0.067285f, -0.014557f, -0.265526f, -0.050391f, -0.178591f, -0.155743f, -0.002920f, 0.058600f, 0.144742f, -0.164923f, -0.046317f, 0.082777f, -0.149083f, 0.190309f, -0.204589f, 0.045395f, -0.257467f, 0.060872f, -0.239726f, -0.058865f, 0.036304f, 0.065601f, 0.239526f, -0.005899f, -0.246253f, -0.003062f, -0.007638f, -0.069543f, 0.004280f, 0.061610f, 0.040116f, -0.080799f, -0.024722f, -0.191889f, -0.105914f, 0.015489f, -0.026272f, -0.343482f, 0.069538f, 0.238253f, -0.136208f, 0.022591f, 0.019239f, -0.137392f, -0.039486f, -0.000517f, 0.180499f, 0.061946f, 0.022815f, -0.066597f, -0.111906f, 0.002070f, -0.184865f, 0.178206f, -0.238596f, -0.023890f, 0.044309f, 0.032394f, 0.152832f, 0.023886f, -0.146573f, 0.092732f, -0.110326f, -0.137189f, 0.196116f, -0.090426f, 0.136905f, -0.170511f, -0.128448f, 0.044853f, 0.158258f, 0.177648f, 0.085108f, 0.159251f, 0.042670f, -0.005257f, 0.103115f, 0.122824f, -0.062468f, -0.111524f, 0.155712f, 0.036602f, 0.245833f, -0.183687f, 0.097217f, -0.246600f, -0.055203f, -0.232102f, 0.017754f, 0.135108f, -0.226358f, 0.098802f, 0.190499f, 0.062946f, -0.167512f, 0.035749f, -0.187620f, -0.015620f, -0.042520f, -0.099949f, 0.138367f, 0.222453f, 0.088511f, -0.024441f, -0.159364f, 0.096637f, -0.007033f, -0.033841f, -0.121151f, -0.159148f, 0.234316f, -0.025873f, 0.146897f, 0.034548f, 0.001174f, -0.050771f, -0.302461f, -0.147300f, 0.027194f, 0.176531f, -0.129452f, 0.004127f, -0.317080f, -0.112606f, 0.008311f, 0.047408f, -0.039726f, 0.011209f, 0.047040f, -0.002466f, 0.188972f, 0.078625f, -0.053744f, -0.083530f, -0.030442f, -0.134473f, -0.004107f, 0.026084f, 0.194040f, 0.069683f, 0.170186f, -0.076394f, 0.162543f, -0.149696f, -0.161731f, 0.162296f, 0.042574f, -0.010933f, 0.057344f, 0.083824f, 0.224807f, -0.004749f, -0.009920f, 0.153785f, 0.150401f, 0.135711f, 0.192170f, -0.028011f, -0.186350f, 0.103596f, -0.085537f, -0.069894f, 0.010547f, 0.057649f, -0.144063f, -0.461909f, 0.041031f, 0.074202f, -0.126430f, 0.003894f, -0.122760f, -0.044288f, -0.029599f, -0.161184f, -0.136165f, -0.253072f, 0.053694f, 0.361412f, -0.026762f, -0.004692f, -0.092541f, -0.122895f, -0.073574f, -0.147621f, -0.629966f, -0.051343f, -0.000156f, 0.061037f, 0.023142f, -0.119358f, 0.041585f, 0.007163f, -0.023099f, 0.032196f, -0.076859f, -0.192010f, 0.056104f, -0.005081f, -0.015011f, -0.145763f, 0.146774f, -0.034529f, 0.191517f, -0.069085f, 0.072499f, 0.165123f, -0.214400f, 0.041138f, -0.036346f, -0.238709f, 0.121361f, 0.132516f, 0.184839f, -0.121022f, -0.020639f, 0.088315f, 0.036386f, -0.141491f, -0.025016f, 0.096508f, 0.001634f, -0.087835f, -0.019158f, -0.312795f, 0.174722f, 0.018597f, -0.205744f, 0.072120f, -0.264731f, -0.043922f, -0.182562f, -0.119500f, -0.206431f, -0.039924f, -0.024621f, -0.293074f, -0.079501f, 0.250412f, 0.224045f, -0.131644f, 0.047448f, -0.023442f, -0.182029f, 0.037205f, 0.047017f, -0.021774f, 0.755109f, -0.242165f, 0.196821f, -0.122231f, 0.004377f, 0.335496f, -0.045910f, -0.140546f, -0.320220f, 0.009298f, 0.086695f, -0.493172f, -0.631821f, 0.325639f, -0.284955f, -0.140445f, -0.438493f, -0.115513f, -0.048421f, 0.365747f, 0.013121f, -0.619201f, -0.144597f, -0.144688f, 0.051318f, 0.151961f, -0.183639f, 0.307116f, 0.108583f, -0.149325f, 0.025996f, -0.150269f, -0.105919f, -0.038508f, -0.105690f, -0.165244f, -0.014392f, -0.005629f, -0.169482f, -0.131107f, -0.196820f, -0.136183f, 0.053633f, 0.078891f, -0.046590f, -0.171117f, -0.160396f, 0.158282f, -0.295127f, 0.159117f, -0.130161f, -0.143368f, -0.208869f, -0.083086f, -0.121989f, -0.462531f, -0.088697f, 0.062530f, 0.116777f, -0.113447f, -0.028985f, -0.086999f, 0.129912f, -0.142969f, 0.246814f, -0.147457f, -0.041144f, 0.112841f, -0.005387f, -0.032942f, 0.142794f, 0.064828f, -0.064839f, -0.431384f, 0.079999f, -0.073024f, 0.021284f, -0.071252f, -0.051926f, 0.092597f, -0.075329f, -0.393583f, -0.186656f, 0.071336f, 0.152620f, 0.005717f, 0.086860f, 0.127836f, 0.051605f, -0.037992f, -0.072531f, 0.042510f, 0.099588f, -0.163722f, -0.156615f, -0.227384f, 0.148672f, -0.167216f, -0.275238f, -0.207990f, 0.134209f, 0.040163f, -0.049580f, 0.146309f, -0.182040f, -0.213982f, 0.041859f, -0.013200f, 0.315200f, 0.063786f, -0.044214f, -0.293668f, 0.049479f, -0.189700f, -0.052606f, 0.033779f, 0.144141f, 0.212432f, 0.040248f, -0.508774f, 0.192308f, -0.135266f, 0.096017f, 0.101718f, -0.269560f, 0.062787f, -0.121800f, -0.072329f, -0.118103f, -0.008055f, -0.196557f, 0.109192f, 0.001616f, -0.021906f, 0.218643f, 0.243176f, -0.130372f, -0.146581f, 0.122287f, 0.115910f, -0.094181f, -0.116937f, 0.210425f, 0.030893f, -0.064282f, 0.024867f, 0.078352f, 0.007160f, -0.101377f, -0.211697f, -0.230773f, -0.154767f, -0.184938f, -0.062635f, -0.008673f, -0.262494f, -0.035921f, -0.219215f, 0.029298f, -0.140206f, 0.010445f, -0.625395f, -0.396534f, -0.127983f, 0.028362f, -0.186196f, -0.003406f, -0.226500f, -0.056511f, -0.086178f, -0.370408f, -0.036876f, 0.440589f, 0.047645f, 0.001989f, -0.177114f, -0.022461f, -0.027052f, -0.149223f, -0.144383f, -0.107218f, -0.475341f, 0.125246f, -0.000141f, -0.033529f, -0.074728f, -0.237965f, 0.168696f, -0.150916f, 0.214808f, 0.136196f, -0.137884f, 0.030683f, -0.144085f, 0.013644f, -0.145066f, -0.011008f, 0.100854f, 0.039601f, 0.071467f, -0.110045f, 0.199746f, 0.053178f, -0.125378f, 0.278827f, 0.174758f, 0.022490f, -0.179649f, -0.248099f, 0.187842f, 0.126741f, -0.083967f, -0.080275f, 0.158907f, -0.388472f, -0.163602f, 0.383831f, 0.168300f, 0.012614f, -0.021316f, -0.033699f, 0.049058f, -0.036350f, -0.087092f, 0.045660f, -0.353337f, -0.512877f, 0.001907f, 0.179810f, -0.051804f, 0.111717f, 0.090108f, -0.222729f, -0.147433f, 0.147144f, -0.255611f, -0.189794f, -0.089176f, -0.221938f, 0.129620f, -0.198001f, -0.106779f, -0.231965f, 0.236655f, 0.108134f, -0.165294f, -0.007397f, -0.122973f, 0.207406f, 0.045873f, 0.043207f, -0.115379f, -0.180973f, -0.022469f, -0.098041f, 0.101554f, 0.087204f, 0.028887f, 0.072745f, -0.140019f, 0.239340f, -0.168696f, -0.281559f, 0.065998f, 0.124985f, 0.202454f, 0.038322f, -0.143667f, 0.093569f, -0.091992f, 0.022289f, 0.191146f, -0.153989f, -0.096809f, 0.039067f, -0.223687f, 0.097505f, 0.098240f, 0.258523f, -0.080013f, 0.072098f, 0.185553f, 0.123736f, 0.000636f, 0.058276f, -0.624452f, -0.021368f, -0.213916f, -0.108674f, 0.165706f, -0.111899f, -0.023988f, 0.077370f, -0.190889f, -0.233329f, -0.053557f, 0.000638f, -0.140638f, 0.079476f, -0.141913f, -0.130163f, -0.053185f, -0.124781f, -0.214753f, -0.232299f, -0.173924f, 0.068364f, -0.031196f, -0.115870f, 0.042964f, -0.027045f, 0.128956f, 0.126902f, 0.157731f, -0.157766f, -0.035592f, 0.037616f, -0.058003f, -0.241446f, 0.016785f, -0.107112f, 0.258592f, 0.232683f, -0.197665f, -0.240811f, 0.053786f, 0.146150f, 0.140135f, 0.062619f, 0.126570f, 0.023161f, -0.229486f, -0.122139f, -0.179152f, 0.054842f, 0.047795f, 0.020273f, 0.198085f, 0.022575f, -0.015047f, 0.016326f, -0.000263f, -0.170100f, -0.089348f, -0.168628f, -0.184965f, -0.148771f, -0.119389f, 0.322476f, 0.157613f, -0.021063f, 0.230432f, 0.116705f, -0.124485f, -0.310936f, -0.044743f, -0.190078f, 0.120148f, -0.248368f, 0.032701f, 0.120576f, -0.362642f, 0.030380f, 0.129195f, -0.103080f, 0.228822f, -0.613234f, -0.083729f, 0.065571f, -0.054838f, -0.057747f, -0.170186f, -0.024644f, -0.004867f, -0.054662f, -0.074745f, -0.227329f, -0.037034f, 0.429185f, -0.004323f, -0.117460f, 0.274671f, 0.084020f, 0.076593f, -0.401131f, -0.086839f, -0.149598f, 0.102622f, 0.195173f, -0.239830f, -0.249545f, 0.152872f, 0.098389f, -0.041370f, -0.255187f, 0.079811f, 0.210308f, 0.099880f, 0.244307f, -0.237304f, -0.203191f, -0.272453f, -0.309903f, -0.092607f, 0.131044f, -0.188729f, 0.071362f, 0.030696f, -0.137810f, -0.162073f, -0.123470f, 0.100766f, 0.154445f, -0.115743f, -0.029922f, 0.059077f, 0.116184f, -0.144458f, -0.149086f, -0.219156f, 0.190124f, -0.098854f, -0.109859f, -0.004745f, 0.149069f, 0.083332f, -0.173476f, -0.135960f, -0.005277f, 0.259010f, 0.038826f, 0.194173f, -0.095168f, 0.098880f, -0.101052f, -0.065564f, -0.253536f, 0.071117f, 0.194400f, -0.058499f, -0.537720f, -0.066081f, -0.101154f, -0.029580f, -0.000595f, 0.212614f, -0.178173f, 0.060148f, -0.116329f, 0.088413f, 0.119051f, 0.041080f, 0.128829f, 0.061619f, -0.181893f, -0.182475f, -0.282138f, -0.113785f, 0.221847f, -0.020183f, -0.137221f, -0.007113f, 0.142123f, -0.143603f, 0.024045f, -0.181758f, -0.189520f, 0.149921f, 0.171619f, -0.195057f, 0.081477f, 0.208172f, -0.229858f, -0.100511f, -0.033686f, 0.046315f, -0.047068f, 0.013040f, -0.053711f, 0.195868f, 0.102390f, -0.136172f, 0.008173f, -0.096062f, -0.016112f, -0.149106f, -0.027955f, 0.097338f, -0.566311f, -0.099498f, 0.245447f, 0.033578f, 0.124637f, -0.236566f, -0.005421f, 0.098570f, -0.000713f, -0.293736f, 0.094330f, 0.038684f, -0.005036f, -0.158116f, 0.149059f, -0.101338f, -0.209313f, 0.044670f, -0.050800f, 0.076706f, 0.201333f, 0.034260f, 0.096126f, -0.198630f, 0.047910f, 0.321919f, 0.035707f, -0.303007f, 0.122318f, 0.156441f, 0.215236f, -0.337567f, -0.028875f, -0.061393f, 0.008444f, -0.159546f, 0.106326f, 0.186422f, 0.214878f, -0.038692f, -0.045088f, -0.349006f, -0.182558f, -0.174084f, -0.128216f, -0.088555f, -0.318624f, 0.099837f, -0.382656f, -0.112861f, -0.073158f, 0.008679f, -0.014110f, -0.106212f, 0.050468f, -0.082072f, -0.130217f, 0.001734f, 0.222586f, -0.139873f, -0.152148f, -0.224599f, -0.138513f, 0.054444f, 0.068149f, -0.118039f, -0.074093f, -0.068053f, -0.120807f, -0.121769f, -0.133792f, 0.080568f, 0.200866f, -0.047019f, -0.065359f, -0.102959f, 0.108916f, 0.188305f, 0.074392f, -0.171748f, -0.240607f, 0.278347f, -0.151742f, 0.000812f, 0.061688f, 0.040613f, -0.032314f, -0.120485f, -0.143633f, -0.167598f, -0.132060f, 0.112906f, 0.111725f, 0.268489f, 0.061955f, -0.176509f, -0.142982f, -0.154733f, -0.302872f, 0.164056f, 0.160967f, -0.194245f, 0.048784f, 0.109627f, 0.131556f, 0.177066f, -0.195504f, 0.045521f, -0.029899f, 0.055532f, -0.199124f, -0.227638f, -0.023370f, 0.088667f, 0.158774f, -0.040528f, 0.071896f, -0.072444f, 0.065146f, 0.062885f, -0.199964f, 0.155372f, -0.146161f, -0.048935f, -0.059423f, -0.145659f, 0.005454f, 0.228035f, -0.217412f, 0.160835f };
=======
static const float MLP_layer_0_biases[100] = { -0.307640f, -0.121951f, 0.325005f, -0.057646f, -0.031794f, 0.010212f, 0.051031f, 0.126301f, 0.017079f, 0.086444f, 0.175618f, -0.016936f, -0.176552f, -0.029501f, 0.489362f, -0.042457f, 0.117835f, 0.010899f, 0.144198f, -0.064686f, -0.077286f, 0.222188f, 0.154675f, 0.092620f, -0.036546f, 0.011567f, 0.168523f, -0.225504f, 0.141976f, 0.140067f, 0.150940f, -0.189489f, 0.286298f, -0.198129f, -0.143615f, 0.074299f, 0.289745f, -0.018013f, 0.181199f, -0.318173f, 0.270198f, 0.018577f, -0.153705f, 0.513791f, -0.224264f, 0.098531f, 0.248533f, -0.173087f, -0.379596f, 0.712790f, 0.236533f, -0.241420f, 0.014656f, 0.055608f, 0.012010f, 0.012870f, -0.337645f, 0.155026f, 0.208386f, -0.183069f, -0.457517f, 0.163841f, -0.019433f, -0.091724f, -0.100573f, -0.503679f, 0.089844f, -0.053699f, 0.109659f, 0.133984f, 0.255584f, 0.190942f, 0.280241f, -0.189109f, -0.102341f, -0.081946f, -0.155013f, -0.082368f, -0.084736f, -0.122738f, -0.165829f, 0.292662f, -0.233432f, 0.459043f, 0.135999f, -0.043328f, 0.048556f, -0.177914f, -0.293150f, 0.246811f, 0.551508f, -0.056647f, -0.247864f, 0.127990f, -0.263637f, 0.360894f, -0.161581f, -0.127400f, 0.008328f, 0.127009f };
static const float MLP_layer_0_weights[700] = { -0.083705f, 0.001049f, -0.444522f, -0.089965f, -0.049488f, -0.234112f, 0.139106f, -0.171697f, -0.154013f, -0.045793f, -0.085810f, 0.010472f, -0.180039f, 0.141338f, -0.188554f, 0.135112f, -0.090150f, -0.018254f, -0.318862f, -0.193226f, 0.127733f, 0.279860f, 0.015066f, 0.027850f, 0.161054f, 0.152804f, -0.231410f, -0.290367f, -0.339732f, 0.188175f, -0.281513f, -0.167026f, 0.250138f, -0.029237f, 0.136636f, -0.110761f, 0.077382f, 0.121134f, -0.299281f, 0.127064f, 0.196670f, 0.129759f, -0.085250f, 0.239153f, -0.289853f, -0.020193f, 0.140644f, -0.134977f, -0.095226f, -0.140213f, -0.362687f, 0.069201f, -0.217237f, -0.142842f, -0.001611f, -0.238192f, 0.039731f, -0.232187f, 0.046498f, 0.078042f, -0.214172f, -0.019868f, 0.090420f, -0.094273f, -0.278377f, 0.088166f, 0.029987f, 0.002932f, 0.138826f, 0.121155f, 0.168087f, -0.197733f, -0.463656f, 0.168855f, -0.025186f, -0.219536f, 0.249098f, -0.104772f, 0.074497f, 0.227747f, 0.152126f, 0.033856f, 0.043618f, -0.101065f, -0.082135f, 0.137804f, -0.083347f, 0.241350f, 0.043735f, 0.061316f, -0.119158f, 0.223602f, -0.011167f, 0.003258f, 0.016048f, -0.154526f, 0.212926f, -0.089125f, -0.287757f, 0.041421f, -0.105429f, -0.034991f, 0.162699f, -0.062657f, 0.280655f, 0.056215f, -0.907505f, 0.167023f, 0.071901f, 0.209289f, 0.017697f, -0.237337f, 0.220261f, 0.070803f, -0.059757f, 0.109796f, 0.111916f, 0.174334f, 0.067005f, -0.196275f, -0.071247f, -0.438484f, -0.412082f, -0.169326f, 0.231644f, -0.033685f, -0.010839f, 0.050295f, -0.116216f, -0.145592f, 0.005854f, 0.166978f, 0.048019f, -0.141079f, 0.159733f, 0.038042f, 0.185606f, -0.127116f, 0.164955f, 0.101196f, 0.021535f, -0.155067f, -0.289248f, -0.015994f, -0.167114f, -0.263473f, -0.169512f, 0.040751f, 0.013848f, -0.125351f, -0.427105f, 0.192336f, 0.070172f, -0.139156f, -0.098286f, 0.094285f, -0.166231f, 0.198993f, 0.208839f, 0.186828f, -0.141058f, -0.046137f, -0.086883f, 0.151446f, -0.184969f, -0.500396f, -0.255483f, -0.100833f, 0.066944f, 0.011036f, -0.139120f, 0.211991f, 0.234520f, -0.010950f, 0.146734f, 0.157905f, 0.145177f, -0.187828f, -0.257001f, -0.120731f, 0.084491f, -0.166347f, 0.038434f, -0.213934f, -0.526299f, 0.086463f, -0.426077f, 0.024493f, 0.040367f, 0.270849f, -0.254485f, -0.272205f, 0.295971f, 0.087409f, 0.230949f, 0.154021f, -0.184237f, -0.131965f, 0.078474f, 0.162067f, 0.163781f, -0.025750f, 0.254022f, 0.078186f, 0.008125f, -0.015020f, 0.161016f, 0.007732f, 0.212764f, 0.114949f, 0.032040f, 0.264557f, -0.183002f, -0.138105f, -2.516405f, -0.014026f, -0.202174f, 0.155808f, 0.188899f, -0.310991f, -0.103624f, -0.512937f, -1.405331f, 0.167716f, -0.142485f, 0.215787f, 0.003353f, 0.188724f, 0.213163f, 0.178473f, 0.000917f, 0.008408f, 0.163479f, -0.059443f, -0.006023f, 0.361941f, -0.240640f, 0.002236f, -0.076358f, 0.145711f, -0.105287f, 0.126544f, 0.139870f, -0.414155f, 0.153231f, 0.036545f, -0.090924f, 0.021009f, 0.223456f, 0.319315f, -0.418822f, 0.166740f, 0.050823f, 0.235328f, 0.036005f, 0.174019f, -0.031162f, 0.105723f, -0.113533f, 0.070265f, 0.113873f, 0.208025f, 0.169143f, 0.140448f, 0.118768f, 0.252744f, 0.070243f, 0.087153f, -0.104230f, -0.015932f, -0.156757f, -0.111373f, 0.082389f, 0.063145f, 0.175539f, 0.098951f, -0.223775f, -0.124850f, -0.078583f, 0.139985f, 0.240992f, 0.118827f, 0.078497f, -0.058825f, -0.351967f, 0.160591f, 0.248444f, 0.084194f, 0.007397f, 0.140383f, -0.140164f, 0.112940f, -0.068387f, -0.054946f, -0.091357f, -0.238597f, -0.128291f, -0.152347f, 0.200830f, -0.196602f, 0.116129f, 0.138506f, 0.166966f, -0.000890f, -0.136287f, -0.013787f, -0.191094f, -0.159045f, 0.053193f, -0.170491f, 0.367181f, 0.202048f, -0.152756f, -0.172305f, -0.095264f, -0.083470f, 0.101496f, -0.175498f, -0.068836f, 0.121138f, -0.083666f, 0.032122f, -0.069819f, -0.163852f, -0.070346f, -0.020907f, -0.208813f, 0.042018f, 0.066812f, -0.007085f, -0.182972f, 0.160740f, -0.134289f, -0.016430f, 0.105860f, -0.061296f, -0.117064f, 0.121528f, 0.124684f, -0.020345f, 0.149825f, 0.239074f, 0.183245f, 0.240847f, -0.175847f, 0.050785f, 0.131839f, 0.078583f, 0.142408f, -0.064559f, 0.155554f, 0.045476f, -0.106839f, -0.063262f, 0.077277f, -0.092979f, 0.085106f, 0.089732f, 0.151996f, 0.238037f, -0.102986f, -0.153559f, 0.208277f, 0.075168f, 0.200003f, 0.109932f, 0.181643f, 0.050852f, 0.029757f, -0.214584f, -0.081539f, -0.225500f, -0.104181f, 0.110917f, -0.331680f, -0.088564f, 0.106941f, 0.073367f, 0.050289f, -0.164047f, -0.057130f, -0.058018f, 0.235574f, -0.182576f, -0.177070f, -0.127029f, 0.133738f, -0.031194f, -0.226749f, -0.034070f, -0.302006f, 0.079586f, -0.115919f, -0.263812f, 0.049840f, 0.152070f, -0.107310f, 0.172234f, 0.001591f, -0.022330f, 0.205251f, 0.096451f, -0.187087f, 0.078059f, -0.258971f, 0.179999f, -0.040099f, -0.118975f, -0.184254f, -0.073133f, -0.147348f, -0.001443f, 0.133908f, 0.119286f, 0.185510f, -0.096043f, 0.203333f, -0.105755f, 0.153457f, 0.014372f, -0.199864f, -0.212632f, -0.168184f, -0.259752f, -0.082492f, -0.210767f, -0.285475f, 0.083889f, -0.017644f, 0.074603f, -0.150246f, 0.002171f, -0.015346f, -0.059030f, 0.124140f, -0.066427f, 0.180305f, -0.262448f, 0.050208f, -0.141663f, 0.023599f, -0.188707f, -0.010720f, -0.168762f, 0.222088f, 0.201271f, 0.114749f, 0.222894f, -0.177630f, -0.319301f, -0.233005f, -0.011372f, 0.216997f, 0.245805f, 0.093236f, 0.136848f, 0.161546f, -0.052450f, -0.089102f, -0.142913f, -0.183526f, 0.149420f, -0.167372f, -0.139492f, 0.118773f, -0.058996f, 0.170391f, -0.068328f, -0.005399f, -0.078404f, 0.196238f, 0.034267f, -0.053255f, 0.029176f, 0.194792f, -0.283587f, 0.064028f, 0.152790f, -0.265391f, -0.006255f, -0.080519f, 0.133630f, -0.013697f, 0.053044f, 0.045811f, 0.058577f, -0.106116f, -0.216287f, 0.040838f, -0.104689f, -0.090831f, 0.109451f, 0.083737f, -0.227451f, -0.048545f, 0.215561f, 0.190545f, 0.193166f, 0.184108f, -0.183017f, -0.180802f, -0.087268f, -0.124466f, -0.143458f, -0.049614f, -0.080782f, 0.214699f, -0.164949f, 0.093391f, -0.125580f, 0.128398f, -0.044885f, -0.184726f, -0.172394f, 0.175168f, 0.038645f, 0.014428f, -0.128318f, 0.085427f, 0.216038f, 0.126861f, 0.075578f, 0.266650f, 0.127962f, 0.057006f, -0.189554f, -0.163841f, -0.166997f, 0.007352f, -0.093653f, 0.198993f, -0.138593f, 0.203791f, 0.068814f, 0.126780f, 0.191229f, 0.149372f, 0.014926f, -0.197065f, -0.067772f, -0.049116f, 0.154519f, -0.066418f, -0.075190f, -0.149304f, -0.226217f, 0.076491f, -0.023941f, 0.241510f, -0.255285f, -0.313035f, 0.059894f, 0.104399f, -0.066051f, -0.191692f, -0.087281f, 0.053550f, 0.034235f, 0.167827f, -0.154189f, -0.240348f, 0.049248f, 0.052814f, -0.183600f, 0.021825f, 0.078672f, 0.006382f, 0.207321f, 0.041772f, -0.248069f, -0.070905f, 0.220946f, 0.234658f, 0.152658f, 0.077561f, -0.019641f, -0.151954f, -0.020451f, 0.032359f, -0.111348f, 0.206543f, -0.154121f, 0.090772f, -0.128054f, 0.153467f, 0.023653f, 0.127205f, -0.072270f, -0.165746f, 0.171465f, -0.101410f, 0.087587f, 0.092141f, -0.088732f, -0.137032f, -0.082513f, -0.113895f, -0.140149f, -0.147889f, -0.182850f, 0.103478f, 0.246293f, 0.180311f, -0.123901f, -0.091163f, 0.377204f, 0.105956f, 0.026942f, -0.148929f, 0.114365f, -0.030383f, 0.274875f, 0.200684f, 0.035083f, -0.170017f, 0.157941f, -0.224551f, -0.260963f, -0.039223f, -0.010664f, -0.148306f, 0.015834f, -0.221895f, 0.045345f, 0.155275f, -0.034220f, 0.007516f, 0.136327f, 0.109473f, 0.043693f, -0.058881f, 0.221239f, 0.102689f, 0.076600f, 0.112098f, -0.024459f, 0.099713f, -0.106239f, -0.087915f, -0.094763f, -0.141054f, -0.006209f, -0.112038f, 0.016669f, 0.076682f, -0.108953f, -0.063128f, -0.207401f, -0.059269f, -0.374289f, -0.227469f, -0.201426f, 0.170918f, -0.194159f, 0.161868f, -0.088610f, 0.144305f, -0.186120f, 0.123262f, -0.106768f, 0.066145f, 0.057290f, -0.041383f, 0.057168f, -0.074798f, -0.000457f, 0.072118f, -0.273879f, 0.143248f, -0.261305f, 0.180395f, -0.136251f, 0.191805f, 0.118478f, 0.142923f, 0.209282f, -0.073159f, -0.198407f, 0.229694f, 0.087399f, 0.199956f, -0.081862f, 0.189796f, 0.085559f, -0.124918f, 0.038835f, 0.046697f, 0.108631f, 0.005316f, 0.080822f, -0.544595f, 0.056078f, 0.319410f, -0.237754f, -0.266794f, -0.205564f, -0.078631f, 0.345087f, 0.121798f, -0.078856f };
static const float MLP_layer_1_biases[27] = { 0.275005f, 0.029453f, 0.060404f, 0.014141f, -0.020381f, -0.023619f, -0.127833f, 0.158485f, -0.160214f, 0.125044f, -0.098696f, -0.160319f, -0.134388f, 0.002018f, -0.052611f, -0.042969f, 0.110316f, 0.089043f, -0.092054f, -0.005596f, -0.097803f, 0.105065f, -0.159876f, -0.006261f, -0.116442f, 0.052398f, 0.205007f };
static const float MLP_layer_1_weights[2700] = { 0.143673f, -0.118824f, -0.009981f, 0.141006f, -0.052000f, 0.199914f, -0.117093f, 0.056853f, 0.065890f, -0.082865f, -0.243283f, 0.029856f, 0.176467f, -0.125963f, 0.143323f, -0.060354f, -0.060957f, -0.113925f, 0.104866f, 0.117177f, 0.119481f, -0.116433f, 0.014887f, -0.160618f, -0.010437f, -0.061103f, -0.016921f, -0.235055f, 0.061831f, 0.038040f, 0.015051f, 0.029635f, -0.113598f, -0.119285f, 0.026201f, 0.156823f, -0.097682f, 0.013473f, 0.014264f, -0.021252f, -0.179952f, -0.049379f, -0.055648f, 0.156729f, 0.162263f, 0.000001f, 0.080249f, -0.123552f, 0.029836f, -0.110063f, 0.131081f, 0.088378f, 0.056332f, -0.153577f, 0.026417f, 0.295824f, 0.140958f, 0.132941f, -0.562563f, -0.135618f, 0.050238f, -0.028224f, -0.126712f, 0.118851f, 0.139382f, -0.010553f, 0.002133f, 0.093747f, -0.823001f, 0.331174f, -0.281988f, -0.180409f, -0.071646f, -0.111105f, -0.009341f, -0.240315f, -0.116523f, -0.215992f, 0.041577f, 0.118483f, -0.151861f, -0.078032f, 0.133537f, -0.110722f, 0.116287f, -0.177640f, 0.057263f, -0.195540f, 0.060069f, -0.099347f, -0.089402f, -0.112722f, -0.086751f, -0.031357f, 0.082907f, -0.005813f, 0.173560f, 0.047384f, 0.202988f, -0.132805f, -0.064245f, 0.203886f, -0.291258f, 0.170686f, -0.004810f, -0.072766f, 0.211154f, -0.109853f, 0.042251f, -0.286377f, -0.218057f, -0.333658f, -0.004304f, 0.152720f, 0.239125f, -0.085315f, 0.024909f, 0.680144f, -0.011313f, -0.122470f, -0.183383f, -0.229170f, -0.191480f, -0.094733f, -0.082282f, -0.098570f, -0.005840f, -0.070268f, -0.074401f, -0.148766f, -0.481612f, -0.122762f, -0.217283f, 0.091991f, -0.011294f, 0.171610f, -0.108673f, 0.034078f, -0.011143f, 0.065630f, -0.318145f, -0.041945f, 0.012762f, 0.190007f, -0.240387f, 0.074675f, -0.004988f, -0.128582f, -0.464119f, -0.073610f, -0.078948f, 0.064784f, -0.134613f, -0.250118f, -0.105160f, -0.106189f, 0.013141f, -0.068142f, -0.101770f, 0.004303f, 0.224719f, 0.112696f, 0.123900f, 0.117414f, 0.438995f, -0.050245f, -0.119974f, -0.095210f, -0.072993f, 0.107837f, 0.088436f, -0.018109f, -0.119081f, 0.018927f, -0.218867f, -0.562618f, -0.190219f, 0.023848f, -0.058726f, 0.039866f, -0.170872f, -0.206702f, 0.120225f, -0.643721f, -0.422886f, 0.842559f, -0.022775f, -0.071244f, 0.075662f, 0.255638f, 0.239716f, -0.142629f, 0.020545f, -0.091719f, -0.474883f, 0.248395f, -0.196745f, 0.029500f, -0.010238f, 0.054119f, -0.110036f, 0.146008f, 0.040284f, 0.069025f, -0.006967f, -0.257141f, -0.287168f, -0.006356f, -0.320575f, 0.032817f, 0.042576f, -0.035881f, 0.093183f, -0.013408f, -0.142275f, -0.115548f, -0.128166f, -0.125799f, -0.163008f, 0.299143f, 0.064760f, 0.007810f, -0.032304f, 0.106661f, -0.113353f, -0.155642f, 0.194177f, -0.162695f, 0.109479f, 0.151162f, -0.234727f, -0.260151f, -0.010108f, -0.083997f, 0.035857f, -0.240114f, -0.052208f, -0.243027f, 0.091618f, -0.011234f, -0.262772f, 0.047070f, -0.217763f, 0.162985f, 0.231038f, -0.001073f, 0.216075f, -0.089581f, 0.176783f, 0.023127f, -0.089673f, 0.179180f, 0.137955f, -0.152858f, 0.088287f, 0.062871f, 0.115433f, 0.112169f, -0.082555f, 0.020828f, 0.128274f, -0.239779f, -0.092485f, 0.120771f, -0.003236f, -0.004853f, -0.139899f, -0.121843f, 0.199376f, -0.126278f, -0.184836f, -0.698509f, -0.155906f, 0.485138f, 0.304795f, -0.900531f, -0.599814f, -0.145574f, -0.014463f, 0.415700f, 0.003481f, 0.303612f, -0.108440f, -0.702094f, 0.249855f, 0.219032f, -0.381777f, -0.054315f, -0.097664f, -0.336846f, 0.022023f, 0.266623f, -0.047057f, -0.110474f, 0.032164f, -0.032306f, -0.237048f, 0.060814f, 0.189409f, -0.030979f, -0.168827f, 0.117174f, -0.212806f, -0.548689f, 0.198618f, 0.031392f, 0.196680f, 0.070858f, 0.202605f, 0.152579f, -0.168729f, -0.155491f, 0.218031f, -0.023365f, -0.114610f, 0.093317f, -0.200247f, -0.088072f, 0.098722f, -0.265183f, -0.124505f, -0.128898f, 0.205961f, 0.079855f, -0.019611f, 0.256049f, -0.030101f, -0.037372f, 0.019786f, -0.345179f, -0.043952f, 0.001483f, -0.045606f, 0.045436f, 0.032919f, -0.236234f, 0.181867f, 0.114576f, 0.017194f, 0.110852f, -0.168588f, -0.011330f, -0.048338f, 0.201385f, -0.031416f, 0.034309f, 0.063646f, 0.058168f, 0.002291f, -0.107473f, 0.040658f, 0.102177f, 0.183485f, -0.102187f, -0.211796f, -0.088968f, 0.058536f, 0.185487f, 0.044913f, 0.119828f, 0.003374f, -0.232140f, -0.275985f, -0.077708f, -0.031130f, 0.078900f, 0.053491f, 0.148855f, -0.081001f, 0.013582f, -0.055558f, -0.093816f, -0.237616f, -0.413385f, 0.153188f, 0.006633f, -0.098670f, 0.054627f, -0.096625f, -0.015123f, -0.084945f, -0.117218f, -0.264239f, -0.063142f, 0.046335f, -0.222863f, -0.044222f, -0.035833f, -0.221249f, -0.220004f, 0.106199f, 0.007762f, 0.093177f, -0.094749f, -0.040149f, 0.031716f, -0.684732f, -0.136166f, -0.139276f, 0.501242f, 0.628892f, 0.219528f, -0.062378f, -0.082106f, -0.546413f, -0.054154f, -0.081202f, 0.317230f, -0.045840f, 0.173038f, -0.039093f, -0.073329f, -0.147096f, -0.002674f, -0.094053f, 0.109820f, -0.115335f, 0.191745f, 0.332351f, -0.176802f, -0.203320f, -0.044832f, -0.023477f, 0.059237f, -0.062035f, -0.058524f, -0.151383f, 0.149391f, -0.204275f, 0.098151f, -0.093559f, 0.027835f, -0.091066f, 0.203914f, -0.182453f, -0.160090f, 0.099511f, 0.060145f, -0.049255f, -0.280151f, -0.151614f, -0.149864f, -0.143045f, 0.231534f, 0.140181f, 0.070522f, 0.064371f, 0.051084f, 0.017407f, -0.016397f, -0.072439f, 0.269143f, 0.016904f, 0.079778f, -0.096362f, 0.183713f, -0.134595f, -0.122226f, 0.085043f, -0.127128f, -0.114256f, 0.086207f, 0.170218f, -0.007652f, -0.073195f, 0.095298f, 0.035843f, -0.099497f, -0.130914f, 0.174026f, -0.081854f, 0.090280f, 0.018488f, 0.008821f, -0.015183f, -0.062627f, -0.182126f, -0.148749f, -0.127354f, -0.148682f, 0.053463f, 0.031501f, 0.043717f, -0.288050f, 0.112200f, -0.052419f, -0.168639f, -0.026461f, -0.272550f, 0.218100f, 0.100818f, 0.116906f, -0.087874f, 0.087445f, -0.003854f, 0.043057f, -0.074484f, 0.169723f, 0.154994f, -0.335333f, -0.275811f, -0.093529f, -0.019395f, 0.304148f, -0.174021f, -0.033096f, 0.224656f, -0.133584f, -0.076111f, 0.029613f, -0.045211f, -0.151256f, 0.003275f, -0.096722f, -0.092199f, 0.123703f, 0.183777f, -0.032876f, 0.074654f, -0.000153f, 0.069851f, 0.165625f, -0.016622f, -0.262925f, -0.079337f, -0.190527f, 0.155641f, -0.159007f, 0.034299f, -0.173732f, -0.000248f, -0.033307f, -0.000090f, -0.391491f, 0.122494f, 0.015723f, 0.047231f, -0.062316f, -0.028656f, 0.032953f, 0.050416f, 0.000290f, 0.087511f, -0.064073f, 0.000963f, 0.144865f, -0.053539f, 0.178377f, -0.070689f, -0.061029f, -0.299805f, 0.077111f, -0.068095f, -0.117920f, -0.135182f, -0.035889f, -0.033983f, -0.227280f, 0.030883f, 0.076189f, 0.024685f, 0.141796f, -0.209551f, -0.042373f, 0.105420f, -0.115796f, 0.008758f, 0.108637f, 0.092293f, 0.266938f, -0.654745f, -0.224986f, -0.228595f, -0.265380f, -0.236556f, 0.161708f, -0.076746f, 0.083603f, 0.019870f, -0.074545f, -0.123637f, -0.109405f, -0.134001f, -0.025900f, 0.065905f, -0.248169f, -0.056956f, -0.125308f, -0.237234f, 0.362255f, 0.181181f, -0.146966f, -0.058216f, -0.133165f, -0.178680f, 0.098630f, 0.254863f, -0.050369f, 0.093685f, 0.121264f, -0.287169f, -0.094467f, -0.054046f, -0.048183f, -0.057751f, 0.198111f, 0.044607f, 0.147618f, -0.226475f, -0.064591f, -0.087733f, -0.067152f, -0.052391f, 0.140540f, -0.169563f, -0.681014f, 0.717151f, 0.330318f, -0.193433f, -0.127954f, -0.096337f, -0.080804f, -0.222452f, -0.031903f, 0.191873f, 0.152024f, -0.048994f, -0.279906f, -0.026918f, -0.007106f, -0.079418f, 0.137369f, 0.088083f, 0.075408f, 0.151853f, -0.084896f, 0.034586f, -0.131647f, -0.150799f, 0.138769f, -0.134771f, 0.136641f, 0.107771f, 0.125070f, -0.130782f, 0.060257f, -0.175441f, -0.132569f, -0.099051f, -0.244213f, 0.031900f, -0.137950f, -0.196096f, -0.064336f, 0.142472f, 0.024409f, 0.159283f, -0.052978f, 0.106398f, -0.263508f, -0.014238f, 0.315738f, 0.174310f, -0.372206f, -0.126889f, -0.167859f, -0.197362f, -0.167820f, -0.052644f, -0.147773f, 0.018938f, 0.102658f, -0.201498f, -0.067921f, -0.008713f, -0.039558f, 0.098074f, 0.023376f, 0.122376f, -0.056995f, -0.069187f, -0.121479f, 0.163230f, 0.100468f, 0.250365f, -0.117988f, 0.113728f, 0.165030f, -0.041847f, -0.113909f, 0.122074f, -0.088424f, -0.045005f, -0.253571f, 0.184048f, -0.080714f, 0.147177f, 0.041510f, -0.039335f, 0.196377f, -0.124475f, 0.085793f, 0.145654f, -0.070631f, -0.102103f, -0.296703f, -0.038789f, 0.093267f, -0.095159f, -0.119530f, -0.149522f, -0.375222f, 0.136575f, -0.160826f, 0.111506f, -1.379404f, -0.000346f, -0.278844f, 0.036452f, 0.084650f, -0.008141f, 0.128173f, 0.113977f, -0.065920f, -0.032499f, 0.021479f, -0.171688f, -0.177561f, -0.004209f, -0.231162f, 0.115251f, -0.018332f, -0.104610f, 0.054702f, -0.156579f, -0.086893f, -0.060228f, -0.121627f, -0.130370f, 0.131657f, -0.184217f, 0.061884f, -0.268775f, -0.143625f, 0.067566f, 0.175075f, 0.191175f, -0.177662f, -0.139661f, 0.154883f, 0.077363f, 0.134894f, 0.045253f, 0.124195f, 0.193038f, -0.013336f, 0.051315f, -0.033798f, 0.042443f, 0.129941f, -0.134119f, 0.101261f, -0.000190f, 0.185541f, -0.140303f, -0.639420f, 0.023364f, -0.871283f, -0.006640f, -0.003906f, 0.154152f, -0.397568f, -0.249195f, 0.174044f, -0.167613f, -0.110116f, 0.083992f, 0.020522f, -0.206793f, -0.069975f, -0.018243f, -0.027347f, -0.134951f, -0.096049f, 0.067034f, -0.109703f, 0.147951f, 0.190850f, 0.218684f, 0.142247f, -0.049339f, 0.081740f, -0.054072f, -0.053390f, 0.069636f, 0.025910f, 0.176129f, -0.114438f, 0.176535f, 0.200863f, -0.181611f, 0.028478f, 0.075595f, 0.177119f, -0.123455f, 0.105734f, -0.049000f, 0.222772f, -0.223190f, -0.128929f, 0.236685f, -0.020893f, -0.117184f, 0.045692f, -0.152273f, -0.230352f, -0.299476f, -0.090008f, -0.048439f, -0.042480f, 0.049398f, 0.152777f, -0.307852f, 0.202109f, -0.110287f, 0.319498f, -0.106866f, 0.049651f, -0.132953f, -0.028808f, 0.013253f, -0.181651f, -0.245843f, -0.073735f, 0.004690f, -0.169607f, -0.169800f, 0.135732f, 0.020835f, 0.144456f, -0.002041f, -0.250153f, -0.116366f, 0.191834f, 0.122866f, 0.193599f, -0.019632f, 0.050509f, 0.087294f, 0.016429f, -0.175104f, 0.028731f, -0.053385f, 0.151088f, 0.232490f, -0.297618f, 0.153018f, -0.071967f, -0.018003f, -0.127898f, 0.034049f, -0.077831f, -0.060613f, 0.126127f, 0.165583f, -0.073271f, -0.072746f, 0.289021f, 0.088295f, 0.099539f, 0.019420f, 0.118962f, -0.127953f, 0.100661f, 0.134836f, 0.118006f, -0.036478f, 0.270501f, 0.085884f, -0.036227f, -0.224992f, -0.206763f, -0.076907f, -0.378192f, -0.282402f, 0.115334f, -0.230217f, -0.056955f, 0.275495f, 0.175760f, 0.009097f, 0.186865f, -0.101982f, 0.220128f, -0.092999f, 0.084890f, 0.099397f, -0.005925f, -0.020716f, 0.164858f, -0.004539f, 0.083278f, 0.008371f, 0.132759f, -0.133767f, 0.060259f, 0.010853f, -0.000188f, -0.000132f, -0.046491f, -0.001005f, -0.006017f, 0.149294f, 0.034003f, -0.133287f, 0.066904f, -0.011009f, 0.071207f, -0.028356f, -0.054094f, 0.239052f, -0.246182f, 0.155055f, 0.189066f, 0.053402f, -0.138353f, 0.036890f, -0.098987f, 0.170127f, -0.062085f, -0.108409f, 0.204846f, 0.193652f, -0.017437f, 0.142405f, -0.037666f, 0.242302f, 0.027174f, -0.042118f, -0.132486f, 0.183575f, 0.005559f, 0.110854f, 0.053589f, 0.074811f, -0.171855f, 0.048934f, 0.325198f, 0.040621f, 0.239854f, -0.084705f, -0.028978f, -0.371829f, -0.045270f, -0.084626f, 0.081381f, -0.268867f, -0.128888f, -0.411165f, -0.048909f, 0.149981f, 0.010545f, -0.213655f, -1.578545f, 0.033233f, -0.244809f, -0.223234f, -0.374514f, -0.186381f, 0.275017f, 0.113700f, -0.638033f, 0.071979f, -0.201734f, 0.210424f, 0.131392f, 0.007768f, -0.196709f, 0.038589f, 0.045919f, 0.197503f, 0.085179f, 0.035952f, 0.068825f, 0.120254f, 0.364332f, 0.032000f, 0.033241f, -0.084708f, 0.096799f, 0.169866f, 0.164683f, 0.143211f, 0.239681f, 0.212844f, -0.100554f, -0.092497f, 0.145109f, 0.057338f, -0.048920f, 0.162382f, -0.036197f, -0.038615f, 0.248986f, 0.145349f, 0.190268f, -0.242151f, -0.079948f, -0.051122f, -0.056346f, 0.047604f, 0.072504f, -0.036587f, -0.048901f, 0.003324f, -0.020126f, -0.029102f, 0.260613f, -0.089297f, 0.075145f, -0.193033f, 0.085300f, 0.127415f, -0.187686f, 0.103752f, -0.166200f, 0.033019f, 0.092718f, -0.152134f, 0.168768f, 0.002308f, -0.089951f, 0.145295f, -0.153240f, 0.026825f, -0.127184f, -0.038347f, -0.107332f, 0.041389f, -0.038582f, 0.112041f, 0.090461f, 0.146547f, 0.159157f, 0.009113f, 0.054485f, -0.023086f, 0.115041f, 0.064095f, -0.166218f, -0.025757f, 0.198223f, -0.159664f, 0.112553f, 0.141620f, 0.078242f, -0.104450f, -0.040766f, 0.170024f, -0.150152f, -0.101863f, 0.021397f, -0.070167f, 0.257976f, -0.242214f, -0.010780f, 0.118354f, -0.086415f, 0.055818f, -0.022463f, 0.067496f, -0.049542f, 0.017355f, 0.002856f, -0.076735f, -0.017844f, 0.032593f, -0.150849f, 0.161473f, 0.002040f, 0.170643f, -0.155249f, 0.031870f, 0.172117f, 0.026270f, 0.111976f, 0.006570f, 0.035163f, 0.161896f, -0.083746f, 0.171296f, 0.200795f, -0.239499f, -0.095366f, -0.137817f, 0.122154f, -0.155071f, 0.226455f, -0.012834f, 0.201881f, -0.135106f, 0.036494f, 0.154334f, 0.050443f, -0.024614f, -0.018511f, 0.058009f, -0.055064f, -0.197881f, -0.102171f, -0.229701f, -0.123015f, -0.224235f, -0.169305f, -0.093517f, -0.198911f, 0.037312f, 0.083374f, 0.015980f, 0.131462f, 0.096162f, 0.099541f, 0.168506f, -0.056503f, 0.042746f, -0.111367f, 0.083319f, -0.210205f, 0.181405f, 0.096159f, 0.112219f, 0.083445f, -0.132259f, 0.028682f, 0.281395f, -0.115442f, 0.144548f, -0.087781f, 0.103946f, -0.039123f, -0.066433f, -0.245082f, -0.067737f, -0.326596f, -0.095374f, -0.010216f, -0.097197f, 0.017757f, -0.425822f, 0.402900f, -0.120908f, 0.200005f, 0.131107f, -0.089626f, -0.050229f, -0.025036f, -0.150283f, -0.057068f, 0.147282f, -0.079411f, 0.284046f, 0.159293f, 0.064696f, 0.239683f, 0.765674f, 0.119779f, -0.246467f, 0.214976f, -0.162524f, 0.007421f, -0.082513f, -0.056679f, -0.394332f, -0.005483f, -0.368022f, -0.040627f, -0.275919f, 0.162164f, 0.116366f, 0.054051f, -0.612223f, -0.058426f, 0.276489f, 0.290479f, -0.072696f, -0.238295f, -0.091790f, -0.221148f, 0.001570f, -0.082628f, 0.124040f, -0.052122f, -0.033592f, 0.048110f, 0.033581f, 0.031930f, -0.118285f, -0.051021f, -0.243987f, -0.121882f, 0.072767f, 0.121025f, 0.001454f, -0.300504f, -0.064204f, 0.073142f, 0.117111f, -0.303540f, 0.018825f, -0.117566f, 0.092424f, -0.013678f, -0.112619f, -0.159466f, -0.124967f, -0.072009f, -0.091023f, 0.001319f, 0.137646f, -0.253828f, 0.245257f, 0.069419f, 0.106926f, 0.181092f, -0.043175f, -0.039386f, 0.114405f, -0.008675f, -0.209933f, -0.153814f, 0.001335f, 0.146210f, 0.098486f, 0.126318f, 0.013574f, -0.076378f, 0.067670f, -0.136014f, -0.240602f, 0.194452f, -0.061373f, 0.057165f, 0.079024f, -0.680976f, -0.150644f, -0.126184f, -0.119771f, -0.037970f, -0.057610f, 0.094699f, 0.125074f, -0.096178f, -0.110204f, -0.094986f, 0.073208f, -0.132816f, -0.044197f, 0.048371f, -0.016479f, -0.175219f, -0.153875f, -0.592741f, 0.202412f, -0.104715f, -0.076017f, -0.158909f, 0.100517f, -0.151131f, 0.006487f, -0.157527f, -0.032031f, -0.130474f, -0.038764f, -0.102292f, -0.137152f, 0.140095f, -0.197498f, -0.072736f, -0.086302f, -0.233289f, 0.143645f, -0.007540f, -0.154259f, 0.018333f, -0.074849f, 0.101437f, -0.075275f, 0.140326f, 0.067942f, 0.051109f, -0.019718f, -0.197075f, -0.038832f, 0.178927f, -0.174073f, -0.045970f, 0.110884f, 0.011279f, -0.034238f, -0.107163f, 0.022965f, 0.007710f, -0.015890f, 0.109541f, 0.098317f, -0.115275f, 0.224609f, 0.225729f, -0.044981f, -0.158708f, 0.342104f, -0.006955f, -0.000074f, -0.201545f, 0.138994f, -0.081859f, 0.039260f, -0.126424f, -0.128342f, 0.011311f, -0.196470f, -0.072785f, -0.008089f, 0.189738f, -0.459111f, -0.170698f, 0.337528f, 0.123022f, -0.491463f, -0.042151f, -0.047740f, 0.119028f, 0.271720f, -0.131099f, -0.002450f, 0.013789f, -0.059228f, -0.402243f, -0.307112f, -0.390266f, -0.092074f, -0.023483f, -0.494250f, -0.071453f, -0.031961f, -0.226220f, -0.560931f, -0.180738f, 0.123678f, -0.304194f, 0.192716f, -0.016088f, -0.050252f, -0.483228f, -0.042062f, -0.238946f, -0.375714f, -0.061509f, -0.115382f, -0.172794f, -0.245747f, -0.189481f, -0.111868f, -0.176172f, -0.000989f, -0.436480f, -0.175387f, -0.087901f, -0.020271f, -0.253893f, -0.003280f, -0.166706f, -0.003928f, -0.047791f, -0.037704f, -0.273544f, -0.002763f, -0.056493f, -0.130282f, 0.124235f, 0.020475f, 0.151416f, -0.052199f, 0.259665f, -0.043316f, -0.042480f, 0.157101f, 0.069761f, -0.039309f, -0.025104f, -0.078400f, -0.026284f, -0.173096f, -0.032409f, -0.075246f, 0.038875f, -0.158459f, 0.033778f, -0.055594f, -0.019962f, 0.089140f, -0.022473f, 0.081997f, -0.091829f, 0.200481f, 0.104943f, 0.105015f, -0.305570f, -0.074983f, 0.091900f, -0.106928f, 0.136898f, 0.030154f, -0.048685f, 0.113456f, 0.087229f, 0.099277f, -0.359099f, -0.287947f, 0.120817f, 0.101238f, 0.252858f, 0.050200f, -0.135116f, 0.246066f, -0.115994f, -0.229390f, -0.039133f, -0.335504f, 0.044281f, 0.102773f, 0.042077f, 0.062117f, -0.004309f, -0.114864f, -0.074485f, 0.046857f, 0.033844f, -0.169623f, -0.128009f, 0.006353f, -0.179915f, -0.118951f, -0.117228f, -0.166680f, -0.028580f, 0.101813f, 0.172074f, 0.237822f, -0.065056f, 0.134751f, -0.025722f, -0.128539f, -0.159378f, -0.022440f, -0.067848f, -0.122048f, -0.073461f, 0.178724f, 0.015148f, 0.142710f, 0.080235f, -0.065053f, 0.154187f, 0.062509f, -0.047795f, 0.030446f, 0.136899f, -0.135313f, -0.167954f, -0.120975f, 0.062444f, 0.193203f, 0.140575f, -0.144499f, 0.145600f, 0.052382f, 0.136652f, 0.180997f, 0.098536f, 0.011352f, 0.116375f, 0.123102f, 0.093982f, 0.191950f, 0.182715f, 0.222702f, -0.097925f, -0.192597f, 0.002636f, 0.014293f, 0.046415f, 0.110674f, -0.254029f, 0.209845f, -0.319737f, 0.102184f, 0.025637f, 0.033167f, -0.006687f, -0.060576f, -0.001026f, 0.205486f, -0.093625f, 0.139023f, 0.004940f, 0.140774f, 0.075411f, -0.095220f, 0.047895f, 0.034067f, 0.216845f, -0.126206f, -0.207780f, -0.176246f, -0.098125f, 0.115369f, -0.059395f, -0.009480f, 0.059078f, -0.054180f, -0.223511f, 0.105754f, -0.024651f, -0.041446f, -0.154104f, 0.035110f, -0.163003f, 0.027144f, -0.162323f, 0.229005f, 0.033558f, 0.021326f, -0.083060f, 0.051768f, 0.201285f, -0.018687f, 0.097141f, -0.054908f, 0.224733f, 0.231735f, -0.371385f, 0.332568f, -0.113952f, -0.206859f, 0.078851f, 0.020774f, -0.089692f, 0.221488f, 0.033597f, -0.408774f, 0.077770f, -0.085255f, 0.325108f, -0.104473f, -0.387934f, -0.211883f, -0.215459f, 0.170995f, -0.064371f, 0.028400f, -0.109807f, -0.327530f, -0.178581f, 0.051571f, -0.237964f, -0.132023f, -0.039764f, 0.108152f, -0.215700f, -0.233383f, -0.292838f, 0.056213f, -0.211523f, 0.056114f, -0.109440f, -0.062242f, -0.015171f, -0.214345f, -0.068279f, -0.069850f, 0.131688f, 0.020081f, -0.101651f, -0.159522f, 0.029517f, -0.102320f, 0.248893f, -0.046311f, 0.033106f, -0.026158f, -0.086452f, -0.088835f, 0.106437f, -0.171113f, 0.014264f, -0.185836f, -0.091658f, -0.176468f, 0.033244f, 0.156643f, -0.073011f, -0.126682f, 0.201360f, -0.021220f, -0.107008f, 0.196204f, 0.228893f, -0.024489f, -0.110070f, 0.042827f, 0.127319f, -0.034119f, 0.007343f, -0.182687f, -0.160939f, 0.076939f, -0.172987f, -0.076926f, 0.101926f, -0.135654f, -0.250749f, -0.136957f, -0.179874f, -0.080601f, -0.076192f, -0.233623f, 0.008204f, 0.067250f, -0.098191f, 0.085350f, 0.032498f, -0.198125f, -0.183530f, 0.040727f, 0.188101f, -0.014022f, 0.100869f, -0.091823f, 0.088187f, -0.263760f, -0.220803f, -0.075645f, 0.037564f, -0.061142f, 0.122719f, -0.089616f, -0.181105f, 0.041762f, 0.031849f, -0.057813f, 0.126011f, 0.082276f, -0.097861f, -0.103545f, -0.047936f, 0.115653f, 0.199176f, 0.237623f, -0.086938f, 0.042951f, 0.000440f, 0.024925f, -0.069281f, -0.111345f, 0.114330f, -0.130861f, 0.224795f, 0.054570f, -0.015483f, 0.056414f, 0.153122f, -0.061752f, 0.171927f, 0.084706f, -0.370458f, -0.020549f, 0.029621f, 0.013928f, -0.068745f, -0.175076f, 0.019839f, -0.161041f, 0.025750f, 0.014387f, -0.048149f, -0.075232f, -0.143856f, -0.117098f, 0.086773f, -0.020600f, -0.193343f, -0.064303f, -0.193879f, 0.085604f, -0.102150f, -0.024436f, 0.001391f, 0.023231f, -0.054531f, 0.237817f, 0.014730f, 0.099363f, -0.060148f, 0.089640f, 0.016555f, -0.136308f, -0.029814f, -0.006429f, -0.190187f, 0.002369f, -0.118402f, 0.076476f, -0.096928f, -0.129358f, 0.000140f, 0.136581f, -0.178695f, -0.135445f, -0.003000f, 0.159576f, 0.015452f, 0.108770f, -0.163726f, 0.056817f, 0.141294f, -0.116390f, -0.182805f, -0.019056f, -0.044735f, 0.011035f, -0.174835f, -0.154300f, 0.062342f, 0.131379f, 0.147008f, 0.144954f, -0.226726f, -0.188921f, -0.100596f, 0.063258f, 0.116543f, -0.344131f, 0.080182f, -0.138141f, 0.230974f, -0.098837f, -0.319895f, 0.054803f, 0.062685f, 0.120202f, -0.241395f, -0.061767f, -0.201599f, 0.029189f, -0.108752f, -0.022047f, -0.024317f, 0.145313f, 0.204793f, 0.035215f, -0.000070f, 0.069266f, -0.124247f, 0.018055f, -0.468985f, -0.089044f, -0.048300f, -0.449066f, -0.207744f, -0.431104f, 0.075032f, 0.338030f, 0.269914f, -0.130109f, -0.491400f, -0.057396f, -0.190267f, -0.218104f, -0.353760f, -0.061890f, 0.521644f, 0.061870f, -0.083694f, -0.055676f, 0.097727f, 0.120897f, -0.058805f, -0.635291f, -0.196540f, 0.085180f, -0.099283f, -0.004099f, -0.073809f, 0.145358f, -0.080402f, 0.008039f, -0.037849f, 0.013207f, -0.165342f, -0.066344f, -0.062542f, -0.032665f, -0.126253f, -0.033421f, 0.128805f, 0.244996f, -0.027969f, 0.084509f, -0.127213f, -0.212177f, -0.102553f, 0.257725f, 0.121280f, -0.178719f, -0.151045f, -0.008161f, -0.204798f, -0.066715f, 0.085068f, 0.087932f, 0.099390f, 0.120685f, 0.050917f, 0.083479f, -0.047040f, -0.295461f, 0.205585f, 0.018988f, -0.356509f, 0.137006f, -0.044923f, -0.032541f, -0.131580f, -0.163044f, -0.098969f, 0.162405f, -0.150776f, -0.093258f, -0.036069f, 0.114452f, 0.151181f, 0.221237f, -0.197265f, -0.108223f, 0.265961f, -0.118480f, -0.013707f, 0.090703f, -0.086903f, 0.073174f, -0.041088f, -0.157272f, 0.042156f, -0.076137f, 0.090404f, 0.079380f, 0.067702f, 0.091264f, -0.128308f, -0.057058f, 0.012320f, -0.093450f, 0.128598f, 0.062771f, -0.200357f, 0.199761f, -0.104192f, 0.256881f, 0.090246f, 0.041663f, -0.054527f, 0.083303f, -0.145479f, -0.207988f, -0.075399f, -0.058608f, -0.371164f, 0.019784f, 0.026127f, 0.051620f, -0.018064f, -0.100478f, 0.026463f, 0.134285f, -0.412220f, -0.243074f, 0.072982f, 0.131109f, -0.163930f, -0.042598f, -0.004030f, -0.048289f, 0.160987f, 0.051107f, 0.273390f, -0.003286f, 0.219478f, -0.014148f, 0.067589f, 0.101775f, 0.141467f, -0.067423f, 0.010826f, 0.089495f, 0.014956f, 0.206782f, 0.234208f, -0.089603f, -0.089857f, 0.140844f, 0.142552f, 0.057825f, 0.210713f, -0.071112f, -0.097932f, 0.014061f, -0.043249f, -0.025936f, -0.113997f, 0.120372f, -0.280149f, 0.178634f, -0.147766f, -0.266532f, 0.065686f, -0.058867f, -0.219568f, 0.196314f, -0.215472f, 0.301432f, -0.179519f, -0.218983f, -0.105655f, -0.087263f, 0.059570f, -0.164901f, -0.081708f, 0.113044f, -0.069213f, -0.674556f, -0.024294f, -0.180445f, 0.176626f, 0.166503f, -0.038802f, -0.207929f, 0.119625f, -0.611690f, -0.129618f, -0.113583f, 0.192965f, 0.099324f, -0.148789f, 0.195342f, -0.025414f, -0.077258f, -0.282095f, -0.983492f, 0.472076f, 0.034459f, -0.078042f, -0.216736f, -0.070164f, -0.205562f, 0.105739f, -0.022439f, -0.036859f, -0.179254f, 0.383576f, -0.091850f, -0.196033f, -0.022756f, 0.061307f, -0.189901f, -0.143480f, -0.092987f, 0.078363f, -0.056707f, -0.102971f, 0.117420f, -0.155109f, -0.028062f, 0.088434f, 0.200157f, 0.110194f, -0.103806f, -0.126820f, -0.089549f, 0.209855f, -0.120738f, 0.192249f, -0.042171f, -0.213897f, 0.130514f, 0.170685f, -0.218158f, -0.077146f, 0.187859f, -0.041440f, -0.241960f, 0.008348f, 0.129554f, -0.128217f, 0.229173f, 0.095358f, -0.129550f, -0.296721f, 0.195832f, -0.141329f, -0.061317f, 0.294693f, -0.221338f, -0.734932f, -0.012477f, -0.059285f, -0.226430f, 0.296652f, -0.067152f, 0.024984f, 0.135894f, 0.231662f, -0.065514f, -0.124460f, -0.217975f, 0.235068f, 0.106865f, -0.030848f, -0.835286f, -0.162143f, 0.003560f, -0.306587f, -0.131976f, -0.177347f, -0.246157f, -0.010080f, -0.024516f, -0.023738f, 0.132156f, -0.013608f, -0.045830f, 0.019392f, -0.000867f, -0.002187f, 0.123447f, 0.108566f, -0.205864f, 0.188680f, -0.052124f, 0.009040f, 0.103082f, 0.059168f, -0.092846f, -0.188961f, 0.075180f, -0.221134f, -0.096747f, 0.243289f, 0.212342f, -0.167176f, 0.104109f, 0.183349f, 0.229224f, -0.142900f, -0.029187f, 0.167282f, 0.097070f, 0.057616f, 0.087291f, -0.106392f, -0.166329f, 0.143037f, -0.079058f, -0.005690f, 0.066322f, 0.063534f, -0.157180f, 0.137355f, -0.050014f, 0.115963f, 0.186712f, -0.040310f, -0.092688f, -0.006121f, -0.015253f, -0.122166f, 0.042508f, 0.146990f, -0.081298f, -0.250686f, 0.090310f, -0.063064f, -0.211424f, 0.103085f, -0.153935f, 0.150844f, 0.048351f, -0.055880f, -0.094404f, -0.158092f, 0.086040f, 0.110218f, -0.164416f, -0.246235f, -0.022348f, 0.156720f, 0.113733f, -0.102436f, -0.154860f, -0.004821f, -0.152259f, -0.246779f, -0.007931f, 0.178720f, -0.062531f, -0.063026f, -0.032304f, 0.106232f, 0.071754f, -0.037391f, -0.056604f, 0.056904f, -0.000111f, -0.126178f, 0.128371f, 0.139126f, -0.166163f, -0.125180f, -0.211932f, -0.024860f, -0.005665f, -0.058061f, 0.059950f, -0.194681f, -0.214807f, 0.248722f, -0.115777f, -0.015586f, 0.280870f, 0.230158f, -0.036370f, -0.175931f, 0.051743f, -0.125411f, -0.328720f, 0.094812f, 0.091930f, -0.106112f, 0.249658f, 0.221412f, -0.029519f, -0.565487f, -0.243198f, -0.349533f, -0.144809f, 0.017696f, 0.155183f, 0.031805f, -0.196888f, -0.013706f, -0.004523f, -0.391687f, 0.065334f, -0.179345f, 0.058650f, -0.154191f, 0.183533f, 0.116348f, 0.045961f, 0.083894f, -0.039074f, 0.183205f, 0.204083f, 0.225874f, -0.039618f, -0.138700f, -0.159453f, -0.127150f, -0.003171f, -0.235181f, -0.086620f, -0.132708f, -0.176936f, -0.120032f, 0.057705f, 0.000262f, -0.071171f, 0.205718f, 0.219495f, -0.070235f, 0.179801f, -0.145305f, 0.051591f, -0.032593f, 0.207755f, 0.126117f, -0.097549f, -0.053148f, -0.105950f, -0.000605f, 0.095714f, -0.209248f, -0.053839f, 0.220479f, 0.235725f, 0.070208f, 0.077043f, -0.065132f, 0.129012f, 0.025314f, 0.057803f, -0.175422f, 0.137727f, 0.185918f, 0.044071f, 0.089167f, -0.121284f, 0.058330f, -0.190424f, 0.071544f, -0.164463f, 0.100934f, -0.020345f, -0.081052f, 0.136000f, -0.033607f, 0.148301f, -0.153420f, 0.220756f, 0.222162f, -0.103144f, 0.191871f, 0.178734f, 0.009454f, -0.019467f, -0.034358f, 0.177644f, -0.110092f, 0.215833f, -0.028209f, 0.177319f, 0.324173f, -0.384882f, 0.003210f, 0.053078f, -0.058605f, -0.238912f, -0.532014f, 0.170789f, -0.131007f, -0.036690f, 0.010994f, -0.018270f, -0.033216f, -0.637238f, 0.004322f, -0.128244f, -0.116581f, -0.086731f, -0.002851f, -0.144439f, -0.025500f, -0.141149f, 0.087865f, -0.023353f, 0.021493f, -0.124593f, 0.052487f, -0.100757f, 0.054790f, -0.504701f, -0.269764f, -0.049514f, 0.053980f, -0.188048f, 0.087760f, 0.070829f, -0.017773f, 0.026929f, -0.059181f, -0.053189f, 0.170808f, -0.049103f, 0.387307f, -0.001318f, -0.075146f, -0.010699f, -0.077280f, -0.175943f, -0.091704f, -1.220974f, -0.131631f, -0.003712f, -0.064049f, 0.021871f, -0.011725f, -0.068008f, -0.068935f, 0.174841f, 0.008879f, -0.078141f, -0.058517f, 0.195694f, -0.130440f, -0.128764f, -0.094388f, 0.103676f, 0.070361f, 0.066580f, 0.090129f, 0.024374f, -0.051483f, -0.155600f, 0.227867f, -0.059333f, 0.056003f, 0.132333f, -0.174994f, 0.234865f, 0.098247f, -0.153735f, 0.119609f, 0.185866f, -0.008306f, 0.077319f, -0.241060f, 0.286063f, -0.112293f, -0.000090f, 0.118444f, 0.214846f, -0.047917f, -0.216986f, -0.220580f, 0.098256f, -0.111500f, 0.113583f, 0.230389f, 0.170278f, -0.016945f, 0.543473f, -0.102402f, -0.215950f, -0.116900f, -0.253291f, -0.107769f, -0.939296f, 0.021920f, -0.025977f, -0.104007f, -0.178544f, 0.087613f, -0.020516f, 0.159449f, 0.092515f, -0.134158f, 0.178500f, 0.094084f, -0.054794f, -0.151554f, -0.086990f, -0.089480f, 0.104484f, 0.057122f, 0.220703f, -0.241504f, 0.018692f, -0.241071f, 0.198284f, 0.060266f, -0.031237f, 0.005348f, -0.173621f, -0.102808f, -0.104377f, -0.160476f, -0.120639f, 0.075773f, 0.019904f, -0.235549f, -0.095027f, -0.062810f, 0.056141f, 0.073359f, 0.028486f, 0.183112f, -0.172814f, -0.001027f, -0.109513f, -0.078855f, -0.169076f, -0.129448f, 0.250955f, 0.062299f, -0.230252f, 0.150184f, -0.157893f, 0.122211f, -0.024499f, 0.136605f, -0.201473f, -0.033408f, -0.114186f, -0.211735f, -0.059236f, 0.133885f, 0.127902f, 0.182269f, -0.198905f, 0.016540f, -0.119103f, 0.015789f, -0.073538f, -0.094206f, 0.198986f, -0.081065f, 0.139183f, -0.160160f, -0.258729f, -0.253804f, 0.053670f, -0.103486f, 0.066151f, -0.241486f, -0.090944f, 0.090153f, 0.084909f, 0.229313f, 0.097273f, -0.374200f, 0.054218f, -0.265726f, -0.407016f, -0.276293f, -0.067439f, -0.189835f, -0.015899f, -0.132616f, -0.125361f, -0.415953f, -0.227316f, -0.281919f, -0.119611f, 0.455767f, -0.001869f, 0.376338f, 0.134221f, -0.121533f, -0.018804f, -0.039562f, 0.001799f, 0.005411f, -0.377058f, -0.648557f, 0.006903f, -0.043325f, -0.006030f, 0.036683f, 0.027547f, 0.213130f, 0.140571f, 0.002764f, -0.086158f, -0.570215f, 0.206592f, -0.008761f, 0.126367f, 0.069149f, 0.051245f, -0.063292f, 0.003410f, -0.242904f, 0.169243f, 0.028449f, -0.154437f, 0.179620f, -0.175050f, -0.135475f, 0.033610f, 0.166170f, -0.141507f, -0.110709f, 0.132362f, 0.177847f, 0.162594f, 0.416723f, -0.076657f, -0.125046f, -0.053514f, -0.102169f, 0.446570f, 0.169303f, 0.204500f, -0.168266f, -0.017382f, -0.002697f, -0.142754f, 0.125031f, 0.036679f, -0.612801f, -0.474477f, -1.124873f, -0.122109f, 0.344271f, -0.196367f, -0.122926f, 0.148620f, 0.226729f, -0.673176f, 0.115798f, -0.180654f, 0.154597f, -0.067684f, -0.291030f, -0.132729f, -0.164420f, -0.238315f, 0.101681f, 0.003535f, 0.032832f, -0.193534f, -0.099041f, -0.230261f, -0.009597f, 0.275171f, -0.028663f, -0.209537f, -0.012364f, 0.128173f, -0.011234f, 0.050187f, 0.183597f, -0.212524f, -0.386913f, 0.086506f, -0.080440f, -0.004039f, 0.046973f, -0.173057f, -0.045740f, -0.038092f, -0.048847f, -0.079320f, 0.151553f, 0.248932f, -0.051937f, -0.213614f, 0.249170f, 0.118348f, -0.078591f, 0.115955f, 0.188937f, 0.176659f, 0.069180f, 0.101071f, 0.133763f, 0.122231f, -0.054336f, 0.029796f, -0.073976f, -0.186290f, -0.250381f, -0.216699f, 0.107800f, 0.027972f, 0.145386f, -0.151698f, -0.243663f, 0.091808f, -0.196857f, -0.056513f, -0.184237f, -0.192029f, -0.182897f, -0.121886f, -0.152282f, 0.186670f, 0.111889f, 0.113592f, 0.063126f, 0.061341f, 0.012246f, -0.166784f, -0.188688f, -0.031311f, 0.243328f, 0.168883f, -0.118331f, 0.034154f, -0.001640f, -0.194700f, -0.073678f, 0.130374f, -0.302511f, 0.172701f, 0.199233f, 0.099330f, -0.006490f, 0.035219f, 0.091800f, 0.140536f, -0.216083f, 0.084211f, -0.272884f, 0.016175f, 0.087541f, -0.019410f, -0.160670f, 0.088515f, -0.066992f, 0.251883f, 0.106410f, -0.014076f, 0.217777f, 0.124562f, 0.244090f, -0.103249f, -0.119753f, -0.084578f, -0.107569f, -0.049143f, 0.000967f, -0.034193f, 0.029142f, -0.029043f, -0.609491f, 0.004864f, -0.011263f, -0.079853f, 0.115943f, -0.027426f, -0.082216f, -0.385091f, 0.000190f, -0.078988f, 0.054107f, -0.046545f, -0.091859f, 0.124218f, 0.244475f, -0.088762f, -0.129815f, -0.175306f, 0.086499f, -0.161667f, 0.048759f, -0.145946f, 0.176176f, -0.122087f, 0.042395f, -0.245469f, -0.067042f, -0.073237f, 0.079127f, 0.080319f, 0.190185f, -0.230166f, 0.192751f, 0.077912f, -0.058206f, 0.097237f, -0.116672f, -0.152705f, 0.002838f, -0.018967f, -0.084747f, -0.013480f, -0.069854f, 0.162447f, -0.222584f, 0.141145f, 0.221622f, -0.065564f, 0.214071f, -0.102110f, 0.075450f, 0.026264f, -0.035073f, -0.186809f, 0.122807f, -0.191192f, 0.001556f, 0.065853f, 0.079525f, -0.054279f, 0.101514f, -0.033124f, 0.024569f, 0.149652f, -0.026832f, -0.082489f, -0.011035f, 0.189615f, -0.019044f, -0.086135f, -0.239003f, 0.057901f, 0.129409f, -0.119174f, -0.084696f };
>>>>>>> 90eeaf00f336e1922a3c99028ff32e647b17f5e4
static float MLP_buf1[100];
static float MLP_buf2[100];
static const EmlNetLayer MLP_layers[2] = { 
{ 100, 7, MLP_layer_0_weights, MLP_layer_0_biases, EmlNetActivationRelu }, 
{ 27, 100, MLP_layer_1_weights, MLP_layer_1_biases, EmlNetActivationSoftmax } };
static EmlNet MLP = { 2, MLP_layers, MLP_buf1, MLP_buf2, 100 };

    int32_t
    MLP_predict(const float *features, int32_t n_features)
    {
        return eml_net_predict(&MLP, features, n_features);
    }
    

    int32_t
    MLP_regress(const float *features, int32_t n_features, float *out, int32_t out_length)
    {
        return eml_net_regress(&MLP, features, n_features, out, out_length);
    }
    

    float
    MLP_regress1(const float *features, int32_t n_features)
    {
        return eml_net_regress1(&MLP, features, n_features);
    }
    