
#include <eml_net.h>
static const float MLP_layer_0_biases[50] = { -0.826008f, 1.312668f, -0.214236f, 0.336776f, 0.853785f, -0.269240f, 0.391812f, -0.119220f, -0.241919f, -0.267347f, 0.525640f, 1.025838f, 0.648472f, -0.455829f, -0.767638f, 0.081276f, -0.592456f, 0.920173f, -1.052758f, -0.579965f, -0.359444f, 0.194969f, 0.110616f, 0.586510f, -0.853445f, 0.224074f, 0.574987f, 0.948853f, -0.398682f, 1.049143f, 0.107783f, 0.214994f, -0.903998f, -0.620809f, 0.802750f, -0.669080f, 1.110802f, -0.256790f, -0.699088f, 0.023305f, 0.658786f, -0.420749f, 0.069862f, 0.701019f, 0.846764f, -0.206655f, -0.020588f, -0.123965f, -0.379569f, 1.110794f };
static const float MLP_layer_0_weights[350] = { 0.220278f, 0.194084f, -0.053191f, 0.247771f, 0.308035f, -0.050557f, -0.362569f, 0.312519f, -0.373479f, -0.316313f, 0.110742f, 0.034397f, 0.059371f, 0.250595f, 0.112960f, 0.261828f, -0.041971f, -0.284692f, -0.094988f, -0.026659f, -0.176280f, 0.257022f, 0.229207f, 0.200535f, -0.124861f, -0.205840f, 0.102488f, -0.062800f, -0.119523f, -0.313120f, 0.123622f, -0.232918f, -0.043131f, 0.959513f, -0.953105f, -0.203709f, -0.078574f, 0.396093f, 0.016634f, 0.402427f, -0.664430f, 0.071168f, -0.373523f, 0.313585f, -0.380343f, -0.238818f, 0.177775f, 0.551651f, -0.164765f, -0.180927f, 0.099585f, -0.036357f, 0.126414f, -0.080771f, -0.267496f, 0.302339f, 0.061188f, 0.000557f, 0.173980f, -0.192649f, -0.378767f, -0.089858f, 0.328248f, 0.210210f, 0.176957f, -0.540535f, -0.003257f, 0.352300f, 0.453866f, -0.271488f, -0.205961f, -0.201086f, 0.059131f, -0.064735f, 0.365205f, -0.239107f, -0.652783f, 0.220719f, 0.670029f, 0.408738f, 0.053572f, -0.059429f, 0.388409f, 0.271738f, -0.185848f, 0.280187f, 0.311367f, 0.146047f, -0.163528f, -0.661401f, -0.337628f, -0.108954f, -0.042502f, -0.215224f, -0.059769f, -0.097867f, 0.013627f, 0.168149f, -0.318578f, 0.338462f, -0.077433f, -0.007939f, -0.421462f, 0.170737f, 0.258171f, -0.042802f, -0.024540f, 0.270718f, 0.245334f, -0.023155f, 0.081656f, 0.284190f, 0.467906f, -0.359385f, -0.454523f, -0.298294f, 1.557871f, 0.135815f, -0.059408f, 0.081555f, 0.441427f, 0.133750f, 0.346263f, -0.076596f, -0.363157f, -0.367479f, -0.370321f, -1.969056f, 0.183853f, 0.023252f, -0.222596f, 0.145779f, -0.227106f, -0.396399f, 0.324657f, 0.167411f, -0.088908f, 0.004479f, -0.086322f, -0.525284f, 0.220373f, -0.156509f, 0.335668f, -0.042870f, 0.051397f, 0.008672f, -0.218822f, -0.033149f, -0.014774f, -0.163199f, 0.120770f, -0.239504f, 0.008165f, -0.385092f, -0.075670f, -0.008485f, -0.111294f, -0.154450f, 0.348619f, 0.169813f, 0.035759f, 0.275258f, -0.260549f, -0.023891f, 0.155706f, 0.373681f, 0.083960f, -0.088753f, 0.227871f, -0.009024f, 0.053790f, -0.168084f, 0.014785f, 0.282275f, 0.076301f, 0.107541f, 0.004317f, -0.088351f, -0.050848f, -0.008925f, -0.427109f, 0.319318f, -0.329806f, 0.036853f, -0.021658f, 0.089912f, 0.156067f, -0.198735f, 0.047287f, -0.184422f, -0.195519f, 0.410232f, 0.010318f, -0.248555f, 0.200426f, 0.399483f, -0.140164f, 0.159557f, 0.055641f, -0.129203f, -0.069178f, -0.148674f, 0.230050f, 0.026818f, -0.158056f, 0.131808f, -0.103857f, -0.081899f, 0.175165f, 0.224247f, -0.123895f, -0.468684f, -0.238310f, 0.021882f, -0.059521f, -0.072717f, 0.245344f, -0.291950f, 0.126901f, 0.217279f, -0.061689f, 0.039983f, -0.353487f, -0.159664f, 0.070221f, 0.360482f, -0.329227f, 0.046136f, -0.096925f, -0.296608f, -0.212245f, -0.158398f, 0.221734f, 0.056472f, -0.048140f, -0.014902f, -0.145787f, -0.070827f, -0.009241f, -0.238991f, -0.113335f, -0.301124f, 0.063317f, 0.131270f, 0.056804f, 0.034352f, 0.643982f, 0.236962f, 0.406450f, 0.148032f, -0.154734f, -0.002129f, 0.003148f, -0.143064f, -0.127471f, 0.353121f, -0.298105f, 0.262262f, 0.150272f, -0.286541f, -0.199850f, 0.004740f, 0.084015f, 0.119500f, -0.125236f, 0.064942f, -0.220520f, 0.095835f, -0.031356f, 0.109115f, 0.047105f, 0.102320f, -0.024864f, 0.102081f, 0.061041f, -0.034865f, 0.288409f, 0.112980f, 0.096707f, 0.107621f, -0.285627f, -0.151694f, 0.008366f, 0.088477f, -0.075531f, 0.228885f, 0.184462f, 0.014104f, 0.335951f, -0.171257f, -0.296172f, 0.058330f, 0.138870f, -0.000664f, -0.109008f, 0.088889f, -0.047318f, 0.315843f, 0.016801f, -0.134300f, 0.534892f, -0.258102f, -0.093742f, 0.052858f, -0.253691f, 0.010949f, -0.080353f, -0.133140f, 0.024787f, -0.040736f, -0.224590f, 0.041180f, -0.075434f, -0.124098f, -0.008184f, 0.235435f, 0.113953f, -0.152927f, 0.354848f, 0.582503f, -0.032171f, 0.425395f, -0.032832f, -0.330195f, 0.076058f, -0.063133f, -0.187401f, -0.021237f, -0.282815f, -0.135427f, -0.213882f, -0.294120f, 0.017017f, 0.393920f, -0.306150f, 0.409723f, -0.435754f, 0.387554f, -0.352123f, 0.006930f, 0.155377f, 0.347669f, 0.144937f, -0.076294f, 0.148986f, -0.061316f, -0.439893f, -0.112599f, 0.143632f, -0.336762f };
static const float MLP_layer_1_biases[100] = { 0.065635f, -0.220973f, 0.170223f, -0.059444f, 0.158178f, 0.179364f, 0.354255f, 0.249567f, -0.189264f, 0.297650f, -0.314388f, 0.319529f, -0.124991f, -0.328946f, -0.237890f, -0.071368f, 0.088658f, -0.078891f, -0.154846f, 0.083835f, -0.050990f, 0.170510f, -0.175570f, 0.064483f, 0.368841f, 0.075259f, -0.054229f, 0.120691f, -0.136085f, -0.036132f, -0.049095f, 0.105024f, 0.133040f, -0.109315f, -0.054646f, 0.208267f, 0.027120f, 0.094232f, 0.095230f, 0.228327f, 0.054546f, -0.003548f, 0.062254f, 0.093511f, -0.222369f, 0.407952f, -0.004122f, 0.070104f, -0.031973f, -0.216724f, 0.067919f, 0.188360f, 0.176420f, 0.365057f, 0.042739f, 0.000567f, -0.071289f, -0.023264f, 0.178828f, 0.114527f, 0.269384f, -0.202844f, -0.152683f, 0.023174f, -0.115233f, -0.229423f, 0.243984f, -0.160384f, -0.004424f, 0.307747f, -0.034870f, 0.010855f, 0.105782f, 0.087963f, -0.097877f, 0.155995f, -0.159939f, -0.181148f, -0.165661f, 0.100996f, -0.109358f, -0.246239f, 0.310262f, -0.059305f, 0.114246f, -0.145172f, 0.095523f, -0.034908f, 0.150825f, 0.142465f, -0.019339f, -0.313824f, 0.195325f, -0.195713f, 0.103072f, 0.325740f, -0.090491f, 0.000102f, -0.014135f, 0.222539f };
static const float MLP_layer_1_weights[5000] = { -0.759145f, 0.062244f, 0.242747f, 0.280396f, 0.093087f, -0.528554f, 0.199421f, -0.280095f, 0.616428f, 0.212846f, -0.630388f, -0.220220f, -0.165566f, -0.459979f, -0.196091f, -0.462901f, 0.157960f, 0.434822f, 0.200344f, -0.977813f, -0.245251f, -0.155360f, -0.829185f, -0.280014f, 0.415328f, 0.719398f, 0.233436f, -0.042777f, 0.716312f, -0.462860f, 0.120039f, 0.427290f, -0.093856f, 0.810579f, 0.341964f, 0.498800f, 0.137246f, 0.846246f, -0.004401f, 0.598979f, -0.188646f, 0.229871f, -0.302371f, -0.511418f, -0.475556f, 0.043283f, 0.506353f, -0.650959f, 0.640194f, -0.196886f, 0.136089f, 0.304448f, -0.202425f, 0.336366f, -0.528990f, 0.285599f, 0.640545f, 0.392814f, 0.124838f, 0.216752f, -0.488735f, 0.853281f, -0.271336f, 0.103190f, -0.050352f, 0.098086f, -0.345437f, 0.056521f, 0.190532f, 0.637696f, 0.302904f, -0.371014f, 0.033820f, -0.497154f, -0.053367f, 0.070689f, 0.576851f, 0.060982f, 0.218659f, -0.173106f, -0.205801f, 0.277932f, -0.706609f, -0.065762f, 0.354492f, 0.321135f, -0.168820f, -0.409572f, -0.013497f, -0.494455f, 0.148635f, -0.097548f, -0.316872f, -0.130356f, 0.792997f, 0.118471f, -0.211887f, -0.590857f, 0.175389f, -0.463351f, 0.714055f, 0.425592f, 0.633656f, -0.970731f, 0.059239f, -0.711190f, -0.315880f, 0.237660f, -0.242508f, 0.168665f, -0.533817f, 0.760272f, -0.892023f, -0.503393f, -0.462819f, -0.629272f, 0.476000f, -0.820794f, -0.356889f, 0.668235f, -0.041013f, -0.181694f, 0.000074f, 0.404296f, 0.190933f, -0.054520f, 0.737341f, -0.665988f, -1.214413f, 1.129689f, 0.084492f, -1.104969f, -0.206334f, -0.132075f, 0.892407f, -0.322684f, 0.182917f, 0.693099f, 0.368060f, -0.177547f, 1.013261f, -0.262653f, 0.167689f, -0.629287f, 0.350429f, 0.828417f, -0.279888f, 0.207456f, 0.977208f, -1.102769f, -0.858408f, 0.144824f, 0.187443f, -0.371294f, -0.846995f, -0.289741f, -0.420913f, -0.095471f, 0.407931f, 0.393983f, 0.234726f, -0.228188f, 0.710072f, 0.907906f, -0.572093f, -1.404318f, 0.477752f, -0.359693f, 0.790128f, 0.176990f, 0.102873f, -0.977045f, -0.361236f, 0.780514f, -0.675030f, -1.196076f, -0.197061f, -0.435962f, -0.284028f, 1.004817f, -0.480641f, -0.888249f, 0.427911f, 0.525549f, -0.658629f, -0.348672f, 0.670976f, 0.029475f, 0.829980f, 0.941421f, 0.496784f, -0.712366f, -0.673095f, -0.415193f, -0.468059f, 0.648300f, 0.287453f, -0.418222f, 0.591255f, 0.572392f, 0.411409f, 0.687137f, -0.241194f, -0.992746f, -0.128840f, -0.779927f, -1.282440f, 0.637570f, -0.040144f, -0.189132f, -0.641550f, 0.779594f, -0.089882f, -0.377958f, 0.616172f, 0.448069f, -0.903885f, 0.367163f, -0.545233f, -0.713510f, 0.981610f, 0.088440f, -0.340868f, -0.845774f, 0.609350f, -0.240062f, -0.578346f, 0.567106f, 0.271913f, 0.325081f, 0.447667f, 0.323176f, 0.891063f, 0.245490f, -0.827930f, 1.139675f, 0.536097f, 0.407965f, 0.904984f, -0.131279f, 0.636594f, 0.586926f, 0.728176f, -0.741534f, -0.410692f, 0.805745f, 0.668716f, -0.536199f, 0.700683f, 1.167516f, -0.870271f, -0.681225f, -0.006425f, 0.557212f, -0.053561f, 0.087776f, -0.486072f, 0.635201f, 0.775647f, -1.586327f, -0.162043f, -0.093476f, 0.858767f, -0.829888f, -1.097223f, -0.451057f, -0.420382f, -0.431826f, 1.367616f, 1.036496f, -0.659951f, -0.169745f, -0.044061f, -0.906502f, -0.821391f, 0.521333f, 0.497874f, -1.043686f, -0.277726f, 0.080421f, 1.366364f, 0.011885f, -0.085612f, -0.035477f, 0.704297f, -0.251635f, -0.904605f, -0.561781f, -0.091828f, 0.345646f, 0.771389f, -0.950810f, -0.101700f, -1.019591f, -0.277980f, 0.677984f, 0.288771f, -0.507897f, 0.267778f, -0.614186f, -0.538251f, -0.525211f, 1.001635f, 0.121392f, -0.325915f, 0.522716f, 0.153549f, 0.398978f, -0.195611f, 0.508337f, -0.278276f, -0.763092f, -1.061919f, -0.136103f, -0.238042f, -1.140242f, -0.072629f, -0.143783f, 0.584248f, 0.324833f, -0.912731f, 0.093349f, -0.622598f, -0.152989f, 0.100517f, 0.179706f, 0.435198f, -0.579918f, 0.241400f, -0.367699f, 0.722186f, -0.266988f, 0.055022f, 0.480601f, 0.306260f, -0.144651f, 0.128446f, -0.047755f, -0.903055f, -0.236101f, -0.191946f, -0.272002f, 0.088915f, -0.091475f, 0.236434f, -0.468640f, 0.347356f, -0.109347f, 0.337522f, -0.239421f, 0.602942f, 0.603570f, 0.415012f, 0.756104f, -0.300877f, -0.638322f, 0.233594f, -0.794135f, 0.062547f, 0.781844f, -0.121586f, -0.245397f, -0.331306f, 0.376498f, -0.187772f, 0.044968f, -0.111727f, 0.288514f, 0.188074f, -0.143180f, 0.550548f, -0.762908f, -0.220853f, 0.105440f, 0.848299f, -0.312943f, 0.493102f, 0.213262f, -0.727896f, 0.242615f, -0.550269f, -0.616981f, 0.675811f, -0.161561f, -0.198548f, 0.078269f, 0.537911f, -0.425696f, 0.232594f, 0.300244f, -0.021022f, 0.005501f, -0.619314f, -0.246136f, 0.328399f, 0.171117f, 0.415424f, 0.304628f, 0.545010f, -0.111263f, 0.322354f, -0.826786f, 0.979785f, 0.336363f, -0.634025f, 0.104637f, 0.175586f, 0.193006f, -0.637216f, -0.088088f, -0.144103f, 0.859220f, 0.007984f, -0.385691f, 0.135432f, 0.216508f, 0.235678f, -0.980938f, -0.366635f, 0.208616f, -0.663420f, 0.399586f, -0.440955f, -0.292409f, -0.055996f, 0.231785f, 0.565154f, 0.040469f, -0.636533f, -0.346442f, -0.440001f, 0.338132f, 0.078255f, 0.535908f, -0.345686f, -0.067166f, -0.036972f, -0.475283f, -0.195451f, 0.247303f, 0.657529f, -0.800137f, -0.164722f, 0.691730f, 0.329539f, 0.086015f, 0.974473f, 1.112487f, 0.473318f, -0.671897f, -1.097651f, 0.811811f, 0.801085f, -0.535868f, -0.634561f, 0.569729f, -0.446182f, -0.984923f, -0.137729f, 0.165589f, 0.539192f, -0.869811f, -0.025322f, -0.439723f, 0.475288f, 0.233208f, 0.900578f, 0.334156f, -0.075155f, 0.190135f, 0.563756f, 0.509702f, 0.078745f, 0.257493f, -0.775079f, 0.673751f, 0.786329f, 0.387749f, 0.099499f, 0.577710f, -0.443234f, 0.591968f, 0.085296f, 0.739251f, -0.373039f, 0.027147f, 0.283654f, -0.159871f, 0.560958f, -0.754505f, 0.450847f, -0.739609f, -0.582097f, -0.054081f, -0.006136f, 0.741874f, -0.667793f, 0.127390f, -0.045439f, 0.598600f, -0.537282f, -0.122070f, -0.294530f, -0.397438f, 0.408884f, 0.792237f, 0.462699f, -0.435151f, 0.434818f, -0.712318f, 0.813226f, -0.407048f, 0.277210f, 0.620488f, 0.201750f, -0.845606f, 0.226583f, -0.286448f, 0.749612f, 0.064144f, 0.859910f, -0.130638f, -0.072186f, -0.168069f, -0.371114f, -0.180577f, 0.230419f, -0.315891f, 0.100764f, 1.043403f, 0.509522f, -1.197525f, 0.361251f, -0.340800f, 0.342570f, 0.738010f, 0.618460f, -0.349067f, 0.007501f, -0.428568f, -0.439183f, -0.427168f, -0.412105f, -0.405588f, 0.665910f, -0.813965f, -0.035649f, 0.399323f, 0.346978f, 0.480370f, 0.446243f, 0.600160f, -0.515454f, -0.281188f, 0.316018f, 0.297866f, 0.120852f, -0.222321f, 0.949432f, 0.134261f, -0.445444f, 0.744774f, -0.423107f, 0.726445f, 0.721564f, 0.538778f, -0.618497f, -0.443342f, -0.610751f, -0.799140f, -0.421151f, -0.275325f, 0.366065f, -0.327824f, 0.101710f, -0.452134f, -0.151339f, 0.642195f, 0.172120f, 0.391331f, 0.573370f, -0.351625f, -0.226070f, 0.187049f, -0.178928f, 0.186544f, 0.116672f, 0.161029f, -0.546085f, 0.507098f, 0.353927f, 0.197773f, 0.029893f, 0.105568f, 0.316060f, -0.297512f, 0.009171f, 0.324139f, -0.279895f, -0.877512f, 0.324350f, 0.231640f, 0.651792f, -0.917040f, -0.327074f, -1.271532f, -0.113797f, 0.439432f, -0.656982f, 0.236320f, -0.327083f, 0.947468f, -1.258047f, -1.084037f, -0.563041f, -1.243385f, 0.293800f, -0.981438f, 0.694315f, 0.293475f, 0.629777f, -0.761003f, 0.640276f, 0.696653f, -0.358733f, -0.379307f, 0.279736f, -0.454588f, -0.909645f, 1.019405f, -0.401016f, 0.874661f, -1.547844f, 0.385543f, 0.575537f, -1.452487f, -0.456677f, 0.932355f, 0.296992f, 0.869087f, -0.328826f, 0.816034f, 0.101257f, -1.175708f, 0.637990f, -0.761755f, -1.265626f, -0.218969f, -1.110432f, -0.699195f, -1.088417f, 0.068217f, 0.479158f, 0.860778f, -0.426491f, -1.827620f, -0.111768f, 0.280073f, 0.396614f, 1.756834f, 0.107437f, -0.299743f, 0.714309f, 1.832893f, -0.513200f, -0.932678f, 0.656795f, 0.559094f, 0.309398f, -0.049128f, 0.270182f, -1.799437f, -0.928728f, 1.117379f, -0.639069f, -0.126430f, -0.734489f, -0.569316f, 0.323797f, 0.515352f, -1.127297f, 0.143001f, 0.118014f, -0.715363f, -1.708568f, -0.579245f, 1.370332f, 0.614009f, 0.975457f, -0.561593f, 0.690130f, -0.025720f, 1.298734f, 0.378697f, -0.372161f, 0.126256f, -1.483396f, 0.807247f, 0.114782f, -0.348015f, 0.119840f, -0.300143f, 0.487414f, 0.743525f, 0.024467f, 0.722399f, 0.157883f, -0.660042f, 0.070534f, 0.425851f, 0.508689f, 0.248286f, 0.462590f, 0.484767f, 0.768763f, -0.439813f, -0.460348f, -0.299092f, -0.159071f, 0.151175f, 0.189808f, 0.362349f, 0.742464f, -0.219076f, -0.529527f, 0.378862f, 0.819080f, -0.106852f, 0.306040f, 0.031570f, 0.391606f, -0.087449f, 0.662311f, -0.423531f, -0.462822f, -0.874343f, 0.673071f, -0.639519f, 0.227457f, 0.654173f, -0.599519f, -0.587592f, 0.299287f, 0.330883f, 0.656068f, -0.660454f, 0.441241f, 0.845065f, 0.536426f, -0.320671f, -0.177113f, 0.404117f, 0.437492f, -0.543154f, -0.800886f, 0.690737f, -0.455353f, -0.662099f, 0.203001f, 0.537186f, -0.316585f, -0.169127f, -0.713781f, 0.328111f, 0.583895f, 0.101653f, 0.606020f, -0.305717f, -0.521956f, -0.718355f, 0.141710f, 0.736893f, -0.202385f, -0.143091f, 0.412202f, -0.151559f, 0.461753f, -0.193942f, 0.422988f, -0.602988f, -0.339327f, 0.568286f, -0.234496f, 0.500604f, -0.604522f, 0.066735f, 0.062493f, 0.711538f, 0.246945f, -0.499710f, 0.777851f, 0.857971f, -0.757752f, 0.301897f, -0.251893f, -0.403169f, -0.201903f, -0.204584f, 0.546873f, 0.374430f, -0.524373f, -0.087437f, -0.277492f, 0.481895f, 0.019040f, 0.494594f, 0.438349f, -0.153261f, 0.093416f, -0.304830f, 0.135115f, -0.496473f, 0.292867f, 0.579087f, -0.106163f, 0.539851f, 0.027555f, 0.362486f, -0.128783f, -0.535011f, 0.087787f, 0.110621f, -0.135346f, 0.134807f, -0.159844f, 0.260076f, -0.409561f, 0.531070f, 0.542145f, -0.526155f, -0.051587f, 0.497710f, 0.329201f, 0.147804f, -0.476677f, 0.284026f, -0.236705f, 0.164972f, -0.235896f, 0.047818f, -0.200528f, 0.191798f, -0.228440f, 0.312014f, -0.402199f, -0.350248f, -0.023178f, -0.350117f, -0.272229f, 0.325264f, 0.575550f, 0.061741f, -0.139835f, 0.106482f, 0.349039f, 0.111828f, 0.197326f, 0.313806f, -0.320578f, -0.416676f, -0.016392f, 0.147538f, -0.304015f, -0.316249f, 0.261812f, 0.496208f, -0.426169f, 0.052864f, -0.333137f, -0.136819f, -0.040362f, 0.375944f, 0.469402f, -0.441563f, 0.172617f, 0.443937f, -0.165050f, 0.448620f, 0.114030f, -0.374875f, 0.139307f, 0.166535f, 0.115355f, -0.094785f, 0.722811f, 0.324386f, -0.546462f, -0.017456f, -0.478248f, -0.107788f, -0.440317f, 0.389445f, 0.269245f, 0.090686f, 0.350540f, -0.405832f, 0.141196f, 0.028750f, -0.231605f, -0.137769f, 0.546835f, 0.643699f, 0.256415f, -0.035965f, -0.080401f, -0.416575f, -1.727449f, 0.036016f, 1.096950f, -0.362433f, 0.404800f, -0.388852f, 0.251801f, 0.281911f, -0.591384f, 0.526573f, 0.278862f, 1.306871f, -0.526342f, 0.710659f, -0.919213f, 0.382864f, 1.117588f, 0.745851f, 0.102251f, -0.834936f, -0.506947f, -0.795282f, 0.159443f, -0.356217f, 1.022833f, -0.014835f, 0.723464f, 0.039051f, 0.764899f, -1.063973f, 0.164685f, 0.125952f, -0.000941f, 0.011349f, 0.314306f, -0.538210f, -0.771316f, 0.403289f, -0.309970f, 0.617106f, -0.248616f, 0.301730f, -0.340781f, -0.320836f, 0.491595f, -0.760989f, -0.950218f, -0.967405f, 0.128168f, -0.844547f, -0.001707f, 0.589004f, -1.356852f, -0.418482f, -0.853074f, 0.385603f, 0.526461f, -0.995849f, -0.871410f, -0.182962f, -0.861761f, 0.837978f, 1.265441f, 0.234513f, -0.091680f, 0.820028f, 0.342218f, 0.503382f, 0.631128f, -0.183469f, -0.471689f, -0.374885f, -0.642227f, 0.456630f, -0.765320f, -0.388108f, 0.440331f, -0.419931f, -0.646025f, -0.193538f, 0.304525f, 0.893011f, 0.460512f, -0.979790f, -0.448133f, 0.577404f, 0.057122f, 0.686706f, -0.106689f, 0.443215f, 1.275666f, 0.574338f, -0.064117f, 0.214239f, 0.762694f, -0.453716f, 0.846545f, 0.530541f, -0.687806f, -0.666863f, 0.343053f, 0.135383f, -0.265128f, 0.428603f, -0.797761f, 0.578161f, -0.342671f, -0.536316f, -0.649183f, 0.701212f, -0.011469f, -0.162428f, -0.877060f, 0.144232f, -0.858121f, 0.282571f, -0.257583f, 0.652755f, -0.317618f, 0.374591f, 0.936119f, 0.061661f, -0.531143f, -0.932944f, -0.586407f, 0.625149f, -0.190258f, 0.046018f, -0.543099f, -0.772830f, -0.732476f, 0.585603f, -0.638957f, 0.670431f, 0.542018f, -0.252917f, 0.158143f, 0.706555f, -1.014820f, 0.784612f, -0.156900f, 0.481749f, 0.436647f, -0.804188f, -0.527891f, -0.025964f, 0.576489f, -0.289506f, -0.584732f, -0.790734f, 0.202049f, -0.539474f, -1.066778f, -0.143469f, 0.520788f, -0.666726f, 0.369729f, -0.753961f, -0.077458f, -0.519784f, 0.593458f, 0.212415f, 0.219943f, 0.697238f, 0.641351f, 0.793647f, 0.049250f, 0.607044f, 0.367421f, 0.653218f, 0.424571f, -0.374398f, -0.080984f, 0.162144f, -1.141105f, 0.499201f, 0.385260f, 0.168919f, 0.679254f, -0.184624f, 0.292203f, -0.514922f, 0.685503f, -0.790770f, -0.294006f, -0.145997f, -0.597068f, 0.371470f, 0.512484f, 0.524529f, -0.281487f, -0.502509f, 0.438638f, 0.841757f, 0.271285f, -0.397425f, -0.371516f, -0.041661f, 0.154587f, 0.374590f, 0.541455f, -0.072897f, 0.446323f, -1.284244f, 0.928130f, -0.181521f, 0.453546f, -0.425274f, -0.689612f, 0.448654f, 1.279383f, -0.149841f, -0.368837f, 0.322256f, 0.484245f, -0.938436f, 0.462879f, 1.213712f, -1.299219f, -0.793859f, 0.040657f, -0.756447f, -0.356804f, 0.670591f, -0.695567f, 0.394772f, -0.862224f, -0.462701f, 0.210198f, 0.791007f, -0.820625f, 1.372423f, 0.516989f, 0.385641f, 1.143763f, -0.436106f, -1.136743f, 0.879046f, 0.371190f, 0.241226f, -0.385079f, 0.397738f, -0.075945f, -1.049544f, -0.502560f, 0.242810f, -1.289694f, -0.942876f, 0.583345f, 0.402418f, 0.406922f, -0.346055f, 0.726353f, -1.262631f, 1.049006f, -0.958653f, -0.238612f, 0.396464f, 1.070673f, 0.403765f, -0.038555f, 0.419298f, -0.933722f, 0.370112f, 0.559752f, 0.971817f, -0.354163f, 0.666543f, 0.489372f, 0.710946f, -0.315743f, 0.955388f, 1.022312f, 0.678185f, 0.468197f, -0.120663f, 0.439420f, -0.480360f, 0.475457f, -0.459295f, 1.116342f, 1.330895f, 0.822990f, -1.195432f, -1.252346f, -0.717249f, 0.217120f, 1.341241f, 0.413528f, -1.059279f, -0.391532f, 0.726566f, 0.046570f, 0.213875f, 0.204273f, 0.047039f, 0.505325f, -0.352310f, -0.436804f, 0.742625f, -0.763068f, -0.436011f, -0.350984f, -0.556722f, 0.449379f, -0.175117f, -0.205147f, 0.344618f, -0.263699f, -0.108472f, 0.563508f, -0.444520f, -0.062154f, 0.562269f, 0.562937f, -0.405047f, 0.664379f, 0.436992f, -0.708539f, -0.392409f, -0.369775f, -0.632264f, 0.486709f, 0.844351f, -0.625033f, -0.748404f, -0.417343f, -0.745072f, 0.566078f, -0.573827f, -0.414603f, -0.697726f, -0.160447f, -0.367673f, -0.343847f, 0.093796f, -0.279053f, 0.887209f, 0.505982f, -0.601914f, 0.281014f, 0.572117f, 0.469841f, 0.356575f, 0.239324f, -0.214471f, -0.521112f, -0.419235f, 0.500864f, 0.771649f, -0.614654f, 0.233787f, -0.565418f, 0.267520f, 0.635896f, -0.134394f, 0.571617f, -0.001496f, 0.018212f, 0.602475f, 0.447803f, 0.609162f, -0.194274f, -0.524206f, 0.840591f, 0.190601f, 0.436414f, 0.328709f, -0.194717f, 0.207080f, 0.547583f, 0.591773f, 0.405378f, -0.245306f, -0.199095f, 0.000766f, -0.273277f, 0.402996f, -0.658365f, 0.500086f, 0.473434f, 0.222501f, -0.196656f, 0.385596f, -0.633639f, 0.384911f, -0.206230f, -0.037775f, 0.221202f, 0.051998f, -0.239837f, -0.120914f, -0.294966f, 0.303488f, 0.432847f, 0.208999f, 0.289147f, 0.625786f, -0.300162f, -0.216540f, 0.589955f, -0.166700f, -0.174145f, 0.375283f, -0.128921f, 0.539140f, -0.740913f, -0.240889f, 0.972660f, -0.369658f, -0.857431f, -0.048610f, 0.069363f, -0.563635f, 0.802724f, -0.284961f, 0.705775f, -0.765516f, -0.825679f, 0.325556f, 0.807070f, 0.408538f, 0.128971f, 0.391706f, -0.041784f, 0.090000f, 0.437712f, -0.166225f, -0.495903f, -0.145240f, 0.810955f, -0.174804f, 0.616174f, 0.773401f, -0.468912f, 0.193273f, 0.582440f, -0.512912f, 0.493032f, -0.351157f, 0.357834f, 0.518764f, 0.094244f, 0.210401f, -0.857483f, -0.162250f, 0.201653f, -0.276077f, -0.427013f, 0.436104f, -0.433185f, -0.607214f, 0.424389f, -0.094496f, 0.103213f, -0.061336f, -0.245140f, 0.446914f, 0.232952f, 0.233591f, 0.581356f, -0.533133f, 0.134458f, -0.636480f, -0.256890f, 0.407987f, -0.315558f, -0.879329f, 0.111466f, 0.603718f, 0.273019f, -0.803686f, 0.629795f, -0.816911f, 0.573975f, 0.940089f, -0.760904f, 0.274356f, -0.853029f, -0.445895f, -0.510496f, 0.025069f, 1.019650f, -0.315398f, 0.197709f, 0.483563f, -0.507698f, -0.014866f, -0.122419f, -0.659884f, -0.189765f, -0.593806f, 0.608337f, -0.152513f, 0.051500f, 0.412347f, 0.283258f, -0.358280f, -0.782234f, 0.625153f, -0.351087f, 0.616544f, -0.312592f, -0.225805f, -0.767923f, 0.190882f, -1.024538f, -0.020457f, 0.326186f, 0.153503f, -0.661370f, 0.573185f, -0.107170f, -0.503118f, 0.474962f, -0.562546f, -0.423954f, -0.774177f, 0.815713f, -0.394447f, -0.052777f, 0.004364f, 0.593778f, -0.734213f, -0.333794f, 0.470233f, 0.050967f, 0.193175f, -0.601163f, 1.019124f, -0.315988f, 0.182187f, -0.033792f, 0.774563f, 0.872531f, 0.406854f, 0.683328f, 0.663087f, -0.611024f, 0.714420f, 0.961109f, -0.571770f, 0.562332f, 0.407751f, -0.000396f, -0.533420f, 0.165143f, 0.506798f, -0.135644f, 0.516175f, 0.466005f, 0.293034f, 0.800031f, -0.996624f, 0.619495f, -0.354259f, 0.251371f, -0.665052f, -0.965882f, 0.608768f, -0.346212f, 0.133590f, 0.741817f, 0.739367f, 0.436503f, -0.292721f, -0.004482f, -0.557807f, -0.405198f, 0.811833f, 0.840545f, -0.569777f, 0.963695f, -0.868923f, 0.983670f, 0.145459f, 0.227036f, 0.409641f, 0.881041f, 0.185283f, -0.475514f, -0.657129f, 0.415522f, 0.117507f, -0.275602f, -0.707225f, -0.737901f, -0.954825f, 0.388553f, 0.156716f, -0.184897f, -0.776077f, 0.881880f, -0.674130f, 0.487103f, -0.526636f, -0.621725f, 0.634942f, 0.808416f, -0.632868f, 1.372748f, 0.379576f, -0.120322f, 0.820218f, -0.333394f, 0.550766f, 0.074244f, 0.461136f, 0.703368f, 0.792235f, -0.809774f, 0.077188f, 0.423552f, -0.381416f, -0.926022f, 0.653110f, -0.499812f, -0.219663f, 0.202883f, 0.094692f, 0.910834f, 0.702287f, -0.748835f, -0.963918f, -0.026748f, 0.831431f, -0.296779f, 0.337980f, -0.957880f, 1.061267f, 0.708629f, 0.533634f, -0.409442f, -0.897169f, 0.734828f, -0.426432f, 0.848822f, 0.367821f, -0.527984f, 0.633589f, -0.377599f, -0.493074f, 0.121852f, -0.729862f, -1.014551f, 0.432478f, 0.385598f, -0.329501f, -0.327834f, -0.440166f, 0.311704f, -0.825496f, 0.645525f, -0.208476f, 0.148945f, -0.468799f, -0.738296f, 0.214018f, 0.650507f, -0.084962f, -0.367773f, -0.925100f, -0.344292f, 0.415059f, 0.304176f, -0.701399f, -0.363222f, 0.774960f, 0.913815f, -0.543975f, 0.037618f, -0.635102f, -0.365415f, 0.351539f, 0.661432f, 0.338012f, 0.670570f, 0.321670f, 0.439932f, -0.328368f, -0.535717f, -0.401282f, 0.124816f, -0.382631f, 0.747549f, -0.081269f, -0.279900f, -0.614777f, -0.228366f, -0.333381f, -0.020830f, 0.309539f, 0.296173f, 0.040802f, -0.247602f, 1.010467f, 0.245957f, 0.229116f, -0.390203f, -0.104095f, -0.248980f, -0.429344f, 0.977240f, 0.217358f, -0.334878f, -0.170870f, 0.076767f, 0.743875f, -0.074779f, 0.075382f, -0.150760f, 1.309875f, -0.553592f, -0.569693f, 0.570972f, 0.283081f, -0.182386f, 0.369421f, 0.624749f, -0.033419f, 0.828820f, 0.162317f, 0.754907f, -0.295048f, 0.873729f, -0.061777f, 0.182140f, 0.280022f, 0.153559f, -0.057154f, 0.032009f, 0.282802f, 0.338657f, -0.232447f, 0.566948f, 0.916994f, 0.261110f, 0.629439f, -1.180239f, -0.023950f, 1.129884f, -1.192633f, 0.131672f, 0.637949f, 0.265180f, -1.137724f, -0.738819f, -0.950362f, -0.595795f, -0.669017f, 0.586636f, 0.917829f, -0.056983f, 0.154058f, -1.458534f, 0.398323f, -0.018908f, -0.382954f, 0.264337f, -0.844474f, -0.986772f, -0.147780f, -0.134345f, 0.765503f, 0.160385f, -0.071426f, -1.026155f, -0.056048f, 0.162204f, -1.637243f, 0.883971f, 0.140048f, 0.426255f, 0.441450f, -0.238870f, 0.493092f, -0.301687f, -0.573935f, 0.120636f, 0.241800f, -0.272927f, 0.976594f, -0.316022f, 0.979674f, 0.041831f, 0.202743f, -1.003228f, -0.008728f, 0.290125f, 0.898297f, 1.100200f, -1.716277f, 1.577471f, -0.671047f, 0.317863f, 0.454602f, -0.023318f, -0.001201f, -0.513929f, -0.335789f, -0.284373f, -0.586310f, -0.830900f, 0.825994f, -0.285828f, 0.352711f, 0.332015f, -0.842399f, 0.000461f, -0.554627f, 0.610257f, -0.444590f, -0.394502f, -0.277633f, 1.136010f, -0.659679f, 0.288736f, -0.189251f, 0.551003f, 0.050259f, -0.219279f, -0.622956f, -0.313565f, 0.233052f, -0.672795f, 0.352276f, -0.392877f, 0.387015f, 0.387182f, 1.028590f, -0.641562f, 1.118509f, 0.745745f, 0.531986f, 0.905171f, 0.849390f, 0.253339f, -0.495511f, 0.839273f, 0.746786f, -0.007750f, -0.716385f, 0.056360f, -0.921757f, -0.559461f, -0.513184f, -0.613966f, 1.094175f, 0.760846f, 0.060755f, 0.076991f, 0.051586f, 0.659557f, 0.150248f, 0.344433f, -0.173671f, 0.542835f, 0.997408f, 0.471884f, -0.623741f, 0.471184f, 0.397964f, 0.381224f, 0.679808f, 0.324867f, -0.950703f, -0.629845f, 0.618389f, -0.637799f, 1.046007f, -0.718385f, -0.834249f, 0.364674f, -1.023321f, 0.291812f, 0.438561f, -0.919055f, -0.674539f, 0.592904f, 0.221898f, 0.378821f, 0.074182f, 0.720216f, -0.038055f, -0.794901f, -0.722847f, 0.694103f, 0.234650f, 0.627389f, 0.468980f, -0.925711f, -0.516571f, 0.372928f, 0.284822f, -0.220520f, 0.349140f, -0.442766f, 0.356987f, 0.142528f, -0.090341f, -0.277690f, -0.417141f, -0.026426f, -0.116567f, 0.117576f, -0.254023f, 0.257560f, 0.219886f, -0.002569f, 0.531664f, 0.245522f, 0.031246f, 0.040460f, -0.678040f, 0.300838f, -0.084740f, -0.043628f, -0.340111f, 0.338484f, 0.111896f, -0.345433f, 0.654108f, 0.151188f, -0.248687f, -0.094500f, 0.179744f, 0.144622f, 0.319596f, -0.072408f, 0.422360f, 0.100715f, -0.116359f, 0.251403f, 0.051562f, -0.146699f, 0.451838f, -0.320668f, 0.271749f, 0.231030f, -0.402761f, 0.090318f, -0.102338f, -0.346825f, 0.301064f, 0.189790f, -0.309117f, -0.101589f, 0.252914f, 0.017782f, 0.222800f, 0.187086f, 0.007626f, -0.134947f, -0.103949f, -0.002207f, 0.057530f, 0.026075f, -0.106346f, 0.063128f, -0.042116f, -0.215239f, -0.323011f, -0.244061f, 0.163877f, -0.008122f, 0.112934f, 0.390577f, -0.318435f, -0.385323f, 0.465351f, 0.239884f, 0.352774f, 0.205210f, -0.086031f, 0.245376f, 0.592488f, -0.335179f, 0.082592f, 0.487064f, 0.481611f, -0.346454f, -0.240964f, -0.472720f, -0.437120f, 0.024234f, 0.232943f, 0.136919f, 0.183133f, 0.043873f, -0.075602f, -0.151191f, 0.077269f, -0.357034f, 0.142866f, -0.580670f, -0.437484f, -0.539266f, 0.155150f, 0.471679f, 0.221481f, -0.624169f, 0.562959f, 0.471848f, 0.334603f, 0.256679f, 0.406265f, 0.567726f, -0.200185f, -0.493996f, -0.334726f, 0.113588f, -0.338488f, 0.109178f, -0.376152f, -0.159974f, 0.822300f, -0.430899f, 0.630061f, 0.578070f, 0.522047f, -0.439992f, 0.499066f, -0.517314f, 0.451129f, 0.620113f, 0.822578f, 0.172100f, 0.024682f, -0.391081f, -0.121188f, 1.036245f, 0.001931f, 0.691613f, -0.132667f, -0.815218f, 0.053140f, -0.192707f, -0.506423f, -0.331526f, -0.219935f, -0.630391f, -0.310220f, -0.346777f, 0.260805f, -0.103881f, 0.458220f, 0.448845f, 0.562925f, 0.156870f, -0.484729f, -0.248186f, 0.198339f, -0.242723f, 0.820287f, -0.523815f, -0.024225f, -0.508013f, 0.587444f, -0.062971f, -0.535255f, 0.000199f, -0.450968f, -0.038620f, 0.045329f, -0.805830f, 0.100316f, 0.710631f, -0.049268f, -0.827572f, -0.877246f, -0.220045f, -0.197358f, -0.700519f, 0.688626f, -0.693885f, -0.539895f, 0.303839f, -0.338056f, -0.218350f, -0.157731f, -0.531513f, 0.465291f, -0.625540f, -0.244192f, 1.363096f, -0.403845f, 0.783719f, -0.130461f, -0.306149f, 0.376916f, 0.423939f, 0.737001f, -0.662931f, 0.202482f, -0.552888f, -0.521667f, -0.397035f, 0.263314f, 0.532765f, -0.722420f, 0.259027f, -0.723406f, 0.489332f, -0.366000f, 0.856142f, -0.286034f, 0.819153f, 0.027284f, -0.816436f, 0.231804f, 1.035939f, -0.376708f, 0.005938f, 0.316667f, -0.567449f, 0.364395f, 0.311229f, 1.194907f, -0.602989f, 0.998712f, -0.739332f, -0.205594f, -0.660968f, 0.077866f, -0.383848f, -0.423117f, -0.424119f, 0.202075f, 1.054328f, -0.696015f, -0.785200f, 0.818851f, 0.021068f, -0.310453f, -0.604968f, 0.018227f, -0.878199f, -0.862660f, 0.689080f, -0.186616f, -1.023062f, 0.484083f, -0.679895f, -0.998748f, 0.362058f, 0.212202f, -0.542109f, -0.245716f, 0.565417f, -0.557527f, -0.270530f, 0.510192f, -0.778401f, 0.871432f, -0.208096f, 0.391784f, 0.162959f, 0.454166f, 0.993559f, -0.447671f, 0.015732f, 0.307906f, -1.351172f, -0.084227f, -0.060509f, 0.561520f, 0.067355f, 1.100787f, 0.427614f, -0.565761f, -1.126194f, 0.749593f, -0.977849f, 0.997367f, -0.798581f, -0.488261f, -0.109801f, -0.447873f, -0.842104f, -0.235408f, 0.803791f, 1.029366f, -0.091362f, -0.211091f, -0.748529f, 0.608385f, 0.842832f, 1.256103f, -0.127447f, -0.744205f, 0.526417f, 0.774182f, -0.929281f, 0.877821f, 0.142821f, -0.619574f, -0.393977f, 0.904789f, 0.740590f, 0.726203f, 0.601295f, 0.243887f, -0.208448f, 1.052759f, -0.281298f, 0.525274f, 0.815071f, -0.423733f, 0.153451f, 0.096496f, -1.013490f, -0.814446f, 0.568499f, -0.240137f, -0.323529f, 1.028790f, -0.227014f, 0.483561f, 0.560346f, -0.379290f, -0.133081f, 0.350127f, -0.298973f, -0.220710f, -0.132241f, 0.652068f, 0.561398f, -0.323708f, -0.534958f, 0.222534f, 1.037006f, -0.516557f, 0.061046f, 0.159619f, -0.579308f, -0.502592f, 0.642958f, -0.300948f, 0.140044f, -0.074289f, -0.166137f, 0.415939f, -0.210731f, -0.029681f, -0.524443f, 0.880782f, 0.618970f, -0.065306f, 0.127631f, -0.386506f, -0.447651f, -0.425503f, 0.403459f, 1.142775f, -0.317852f, 0.212511f, -0.897540f, 0.439915f, 0.570851f, -0.011503f, 0.808941f, -0.593104f, -0.581779f, -0.334282f, -0.560030f, -0.459169f, -0.184864f, 0.420071f, 0.311525f, -0.822131f, -0.176951f, -0.373356f, -0.383668f, 0.400577f, -0.231311f, 0.038683f, 0.488539f, -0.150266f, -0.720381f, -0.437092f, -0.718510f, -0.195023f, -0.877327f, 0.135594f, 1.367356f, 0.664175f, 0.421127f, -0.617547f, -0.064375f, 0.221778f, -0.563011f, 0.653263f, -0.474042f, 0.703927f, -0.332523f, -0.905547f, 0.832248f, 0.084381f, -0.384614f, 0.398317f, 0.091682f, -0.313886f, -0.073342f, -0.424379f, 0.450205f, -0.100815f, -0.557540f, -0.276237f, 0.113176f, -0.362722f, 0.420133f, -0.357298f, 0.257975f, 0.511004f, -0.315852f, -0.232463f, 0.227453f, 0.396400f, -0.564211f, 0.049916f, -0.067874f, -0.585105f, -0.133498f, 0.090761f, -0.497460f, -0.000238f, -0.714609f, 0.016238f, 0.317888f, -0.504417f, -0.442864f, -0.332120f, -0.880011f, 0.376032f, 0.473599f, -0.691890f, -0.342603f, 0.352352f, 0.190046f, -0.538241f, 0.180100f, 0.464154f, 0.324615f, -0.602425f, -0.052664f, 0.775290f, 0.380179f, -0.236525f, -0.107386f, 0.551079f, -0.251038f, -0.570680f, -0.133915f, 0.609151f, 0.504995f, -0.518472f, 0.200495f, 0.096875f, 0.214404f, 0.726084f, 0.381218f, 0.727602f, -0.074989f, -0.167287f, 0.904082f, 0.046046f, 0.190357f, 0.142172f, 0.702683f, 0.383539f, 0.653872f, 0.459307f, 0.659582f, 0.234276f, 0.084038f, -0.030858f, -0.432299f, -0.060701f, -0.067179f, 0.466630f, 0.704781f, 0.137460f, 0.117515f, -0.455011f, -0.090938f, 0.130698f, -0.412905f, 0.260302f, 0.385836f, -0.501900f, -0.470258f, 0.798675f, -0.464529f, 0.385643f, 0.496138f, -0.163938f, 0.655909f, 0.696756f, -0.278847f, -0.286638f, 0.453406f, -0.828697f, -0.270061f, 0.442347f, 0.322699f, 0.474601f, 0.517421f, 0.165851f, 0.896285f, -0.052917f, -0.526434f, -0.528029f, -0.453698f, -0.180409f, 0.178826f, -0.129016f, 0.563709f, -0.025255f, -0.844913f, 0.062445f, 0.875747f, -0.150275f, 0.532620f, 0.617493f, -0.510583f, -0.057711f, 0.312655f, -0.179936f, -0.483822f, -0.566461f, 0.418741f, -0.329059f, 0.385049f, 0.864787f, -0.247706f, -0.631770f, 0.412053f, -0.250954f, 0.502446f, -0.165858f, 0.437956f, 0.890708f, 0.413922f, -0.260724f, -0.881343f, 0.123514f, -0.070504f, -0.806833f, -0.698952f, 0.619012f, -0.614158f, -0.635345f, 0.182106f, -0.083541f, 0.164276f, -0.292071f, -0.573290f, 0.076460f, 0.810992f, 0.411053f, 0.576387f, -0.236912f, -0.761702f, -0.549387f, 0.127165f, 0.984587f, -0.388034f, 0.199642f, 0.209590f, 0.478860f, 0.188579f, -0.381890f, 0.529513f, -0.302461f, 0.234401f, 0.746144f, -0.674371f, 0.809455f, -0.881481f, -0.545127f, -0.282718f, 0.526103f, 0.872020f, -0.817688f, 0.655057f, 0.667601f, -0.676903f, 0.425508f, -0.194834f, -0.663096f, -0.342309f, -0.461724f, 0.624540f, 0.705956f, -0.826418f, 0.636748f, -0.590821f, -0.819277f, 0.549507f, -0.639534f, -0.072526f, -0.187985f, 0.739809f, -0.228616f, 0.442512f, -1.044838f, -0.404135f, -0.423567f, 0.285661f, -0.828397f, 0.334697f, 0.643223f, 0.787627f, -0.773477f, 0.802933f, -1.218883f, 0.093168f, -0.208151f, 0.644135f, -0.276867f, -0.698115f, -0.458712f, 0.433426f, 0.672986f, 0.232625f, -0.706095f, -0.348940f, 0.158994f, 0.751229f, 0.822955f, 0.168929f, 0.672016f, 0.387651f, -0.206921f, -0.113712f, 0.818965f, -0.268413f, -0.763347f, 0.270695f, 0.311318f, -0.482974f, -0.814665f, -0.489032f, 0.598383f, 0.265088f, -0.574655f, -0.664888f, 0.813506f, 0.541789f, -0.397325f, 0.720797f, 0.816048f, 0.990352f, -0.784211f, -0.330833f, 0.804547f, -0.017928f, 0.673980f, -0.634311f, -0.257864f, -0.923300f, -0.493061f, 0.720038f, 0.192786f, -0.519472f, -0.734621f, -0.631237f, -0.370740f, 0.154779f, -0.093968f, -0.350323f, -0.366044f, 0.378065f, -0.995247f, 1.262934f, -0.299333f, -0.804261f, -0.599560f, 0.628773f, -0.145322f, -0.341861f, 0.010304f, -0.531313f, 0.793778f, -0.654676f, -0.294512f, 0.529460f, 0.114483f, 0.285477f, -0.590846f, 0.407747f, 0.226402f, -0.336599f, -0.975974f, 0.264867f, 0.052321f, -1.053255f, -0.359299f, 0.725981f, -0.242057f, 1.321607f, 0.558038f, 0.127034f, 0.379175f, -0.688442f, 0.639097f, 0.671958f, -0.040267f, -0.611969f, 0.836860f, -0.688843f, 0.467673f, -1.012617f, -0.774111f, 0.302184f, 0.666699f, -0.432654f, -0.097388f, 0.861640f, 0.113065f, 0.171463f, 0.884057f, -0.798154f, 0.025682f, 0.722771f, 0.535209f, 0.876116f, -0.042378f, -0.306316f, 1.296197f, 0.844092f, 0.580250f, 1.088219f, -0.191540f, 0.341575f, 0.149927f, 0.340660f, -0.523075f, -0.687734f, 0.889200f, -0.565437f, -0.228876f, -0.084765f, 0.435844f, -0.082867f, 0.142712f, 0.475360f, 0.423596f, 0.345167f, -0.526201f, 0.202653f, -0.176068f, 0.478504f, -1.042692f, -0.462975f, -0.045316f, -0.145351f, -0.502078f, -0.480926f, -0.607590f, -0.293978f, -1.303567f, 0.237187f, 0.868054f, -1.099916f, 0.781113f, -0.141823f, -0.684282f, -1.089991f, 0.134056f, -0.889323f, -0.539428f, -0.567115f, 0.278763f, -0.484660f, -0.913570f, 0.604326f, -0.585750f, 0.823502f, -0.538962f, -0.926708f, 0.002020f, 0.077009f, 0.577053f, -0.271876f, -0.640726f, 0.425466f, -0.251280f, -0.377056f, 0.797690f, 0.501339f, 0.024425f, 0.389165f, -0.247760f, 0.487463f, -0.545566f, 0.414022f, -0.363950f, 0.288361f, 0.652152f, 0.488961f, 0.423485f, -0.650415f, -0.532882f, 0.046341f, 0.293766f, -0.508513f, -0.600270f, -0.289896f, 0.318384f, 0.283207f, -0.953504f, 0.717346f, 1.032583f, -0.898971f, 0.208023f, 0.174452f, -0.626964f, -0.314584f, 0.155744f, -0.764051f, -0.118727f, -0.529670f, 0.353246f, -0.821894f, 0.166685f, -0.282693f, -0.350164f, -0.548197f, -0.066931f, -0.615833f, 0.105296f, -0.277003f, 0.246872f, -0.589189f, -0.936750f, 0.033932f, -0.540279f, 0.869407f, 0.989454f, -1.172138f, 0.746266f, 0.225053f, -0.736000f, -0.136164f, 1.244518f, 0.821183f, 1.092385f, 0.548609f, 0.880742f, -0.215976f, -0.819935f, 0.088270f, -0.219362f, 0.898563f, -0.571989f, 0.157539f, 0.779910f, -0.630866f, 0.772058f, 0.755340f, 0.173652f, 0.563727f, -0.772423f, 0.182786f, -0.030803f, 1.100460f, 0.448702f, -0.298627f, 1.072861f, -0.842486f, -0.509665f, -0.593682f, -0.562962f, 0.163307f, -0.753573f, 0.908115f, 0.629044f, 0.575614f, -0.306529f, 0.492134f, -1.316276f, 0.587207f, -1.263772f, -0.339155f, -0.652780f, 0.954929f, -0.214009f, -0.203059f, -0.893732f, -0.741897f, 1.265651f, -1.217365f, 0.505507f, 1.143839f, 0.225417f, -0.289477f, -0.235052f, 0.159789f, 0.981998f, -0.052780f, 0.948519f, -1.133582f, -0.188548f, 1.766357f, 0.337812f, 0.456248f, -0.444543f, 0.070306f, 0.390241f, -0.077421f, -0.666851f, -0.960637f, 0.532125f, 0.426668f, -0.104439f, 1.739712f, 0.950944f, -0.106663f, -1.671531f, -1.259904f, 0.136977f, -1.541380f, 1.369930f, -0.552067f, -0.775776f, 0.657913f, -1.588855f, -0.053572f, -0.157519f, 0.010854f, -1.993579f, 0.001352f, -0.060244f, 1.173992f, 1.089010f, 0.235536f, 1.450554f, 0.797319f, 0.419527f, -0.204914f, 1.190702f, -2.029427f, -0.133812f, -0.222839f, -1.555995f, 0.199595f, -0.672835f, 1.605228f, -1.003485f, -1.197693f, 0.849433f, 0.245054f, -0.589752f, 0.758917f, -1.656631f, 0.155139f, -0.928970f, -0.886432f, -1.313474f, 1.233622f, -0.380569f, 0.188605f, -1.069898f, -0.209626f, 1.489733f, -0.593989f, 1.591309f, -1.361741f, 0.174004f, -0.297915f, -0.506523f, 0.262595f, 0.909879f, 0.259134f, -0.424376f, 1.156922f, -0.393045f, -0.086449f, -0.764716f, 0.505813f, 1.018851f, -0.011949f, 1.228355f, -0.146553f, -0.897898f, 0.817488f, 0.031950f, -1.657351f, 1.136522f, 0.171350f, 0.413096f, 0.000558f, 1.373676f, 0.565809f, 0.197924f, -0.103420f, -0.287146f, -0.370199f, -0.511412f, -0.596490f, -0.653837f, 0.051997f, -0.374556f, 0.607675f, -0.433692f, 0.288960f, 0.580769f, 0.365052f, -0.157919f, 0.478544f, -0.555212f, 0.232578f, 0.272320f, 0.475034f, -0.406173f, 0.939470f, 0.655613f, -0.660858f, -0.416685f, -0.378334f, -0.535663f, 0.479109f, 1.119915f, -0.704171f, -0.742920f, -0.479713f, -0.444754f, 0.427098f, -0.220567f, -0.301757f, -0.183383f, 0.229297f, -0.555190f, -0.543140f, 0.268545f, -0.170963f, -0.337298f, 0.772872f, -0.406675f, -0.529579f, 0.958924f, 0.213103f, 0.732512f, 0.179006f, -0.858823f, -0.697410f, -0.707454f, 0.715489f, 0.733650f, -0.893807f, 0.607104f, -0.342778f, -0.084955f, 0.432182f, 0.358726f, 0.657362f, 0.406752f, 0.030224f, 0.398885f, 0.471641f, 0.391939f, -0.317066f, -0.595126f, 0.538643f, 0.408126f, -0.122583f, 0.515414f, 0.523647f, -0.077570f, -0.708486f, 0.527701f, -0.057275f, -0.085294f, 0.458870f, 0.572762f, -0.473745f, 0.079002f, -0.947983f, 0.299522f, 0.324615f, 0.514142f, -0.251527f, 0.396624f, -0.444494f, 0.320574f, -0.153034f, 0.172572f, -0.422102f, -0.806562f, 0.243227f, 0.064408f, -0.524292f, 0.726789f, 0.073913f, 0.258178f, -0.183983f, 0.053054f, -0.568476f, -0.165419f, -0.169166f, -0.607187f, -1.019001f, 1.009534f, -0.187746f, 0.274908f, 0.474864f, -0.870683f, 0.189285f, -0.683446f, 0.735832f, -0.512142f, -0.263955f, -0.676775f, 0.990265f, -0.678754f, 0.286923f, -0.034414f, 0.605753f, 0.226573f, -0.306830f, -0.750244f, -0.226423f, 0.331178f, -0.502071f, 0.350123f, -0.412603f, 0.453510f, 0.752280f, 1.006199f, -0.657189f, 1.162788f, 0.602717f, 0.523451f, 0.929405f, 0.866663f, 0.161754f, -0.683349f, 0.714636f, 0.554550f, -0.142201f, -0.894865f, -0.213886f, -0.903902f, -0.688663f, -0.717699f, -0.616980f, 1.040005f, 0.717810f, 0.356194f, -0.073571f, 0.566199f, 0.772734f, 0.283121f, 0.608660f, 0.334320f, 0.564449f, 0.865712f, 0.668706f, -0.743796f, 0.481208f, 0.513378f, 0.496092f, 0.699787f, 0.578801f, -0.456780f, -0.680941f, 0.588675f, -0.815302f, 0.866274f, -0.654620f, -0.962056f, 0.508168f, -1.010355f, 0.552154f, 0.241987f, -0.730826f, -0.678895f, 0.377914f, 0.160811f, 0.447145f, 0.154767f, 0.626338f, -0.063319f, -0.815146f, -0.968162f, 0.714731f, 0.513864f, 1.035024f, 0.272024f, -0.869157f, -0.384470f, 0.300394f, 0.413353f, 0.916417f, 0.270014f, 0.102345f, -0.888561f, -0.745602f, -0.862619f, -0.716309f, -0.010544f, -0.171374f, 0.412733f, -0.953903f, 0.917662f, -0.220218f, -0.540816f, -0.427470f, -0.692001f, 0.717078f, -1.047382f, -0.445612f, -0.285379f, 1.485579f, -0.415924f, 0.388049f, -0.769704f, 0.979397f, -0.084128f, 0.689487f, 0.100254f, -1.611756f, 1.124185f, -0.488551f, 0.031863f, -0.725405f, -0.325723f, 0.775494f, 1.027838f, 0.390229f, 0.284217f, 0.619874f, 0.159307f, 0.561289f, 0.249933f, 0.245800f, -0.977338f, 0.325166f, 0.695608f, -0.475144f, 0.292154f, 0.436156f, -0.584004f, -1.044524f, 0.434257f, 0.035629f, 0.644064f, -0.625024f, -0.853310f, -0.322265f, -0.521785f, 0.330847f, 0.944717f, 0.121138f, -0.335682f, 0.744436f, 1.303302f, -0.617011f, -1.266847f, 0.608506f, 0.015769f, 0.369742f, 0.339261f, -0.356758f, -0.851528f, -0.249225f, 0.702260f, -1.049576f, 0.211565f, -0.495425f, -0.250263f, 0.421927f, -0.363767f, -0.261288f, 0.121475f, -0.447696f, -0.335443f, -0.679688f, 0.098763f, 0.445853f, 0.100395f, 0.205005f, 0.628055f, 1.285787f, -0.645727f, -0.623835f, -0.980717f, -0.141256f, 0.897498f, -0.896068f, -0.685501f, 0.286934f, 0.658622f, 0.322011f, 0.128406f, 0.705007f, -0.405884f, -0.585074f, 0.461287f, -0.776518f, -0.475385f, 0.193877f, -0.678204f, 0.360615f, 0.268497f, -0.318995f, 0.247454f, -0.358253f, 0.411741f, 0.501234f, 0.600797f, -0.687164f, 0.606062f, 0.064873f, -0.030739f, 0.837343f, -0.198901f, 0.061393f, 0.412879f, 0.374365f, -0.161652f, -0.199511f, -0.134839f, 0.459115f, 0.331334f, 0.072250f, 0.175479f, 0.266164f, -0.711915f, -0.158435f, -0.022272f, 0.125801f, 0.130374f, 0.154950f, -0.356714f, -0.502681f, 1.027118f, -0.484194f, -0.079801f, -0.328016f, 0.143100f, 0.485448f, -0.235150f, 0.110286f, -0.394376f, 0.247999f, -0.271431f, -0.276646f, 0.255034f, 0.090341f, -0.693370f, -1.113314f, -0.343222f, 0.259913f, -0.745549f, 0.500107f, -0.746891f, -0.641299f, -0.139097f, -0.126974f, 0.696364f, 0.867671f, 0.419867f, 0.645716f, 1.001923f, 0.521001f, -0.213756f, -0.736411f, 0.592352f, 0.340439f, 0.095286f, -0.209034f, -0.048869f, -0.361097f, -0.319893f, -0.219906f, 0.416100f, 0.459215f, 0.436103f, 0.238379f, 0.514142f, 0.492376f, -0.952599f, -0.413965f, -0.396428f, -0.572444f, 0.125878f, -0.108692f, 0.489047f, 0.607357f, -0.417878f, 0.035092f, 0.249914f, -0.066419f, 0.467616f, -0.107072f, -0.524457f, 0.104711f, 0.015619f, -0.146603f, 0.337997f, -0.441631f, 0.510566f, -0.852007f, -0.164255f, -0.925043f, -0.066870f, 0.428532f, -0.817159f, -0.636725f, 0.445291f, 0.690392f, -0.128254f, -0.009094f, 0.279841f, -0.645053f, -1.628304f, 0.680840f, 0.807719f, 0.294045f, 0.710396f, 0.115000f, -0.177635f, 0.720659f, -0.067635f, 0.386941f, 0.976611f, 0.078206f, 0.637454f, 0.491828f, 0.140162f, 0.143067f, -0.582602f, -1.108024f, 0.110971f, 0.814999f, -1.262241f, -0.167206f, 0.401114f, 0.485799f, -0.714820f, 0.755706f, 0.316936f, 0.753892f, 0.521298f, 0.779510f, 0.947045f, -0.111167f, 0.364602f, 0.220463f, -0.683810f, 0.375679f, 0.494463f, 0.187045f, 0.456087f, 0.402026f, 0.153139f, -0.860727f, 0.135970f, -0.153435f, -0.427163f, 1.128646f, -0.024273f, -0.531561f, -0.874336f, 0.719698f, -1.315143f, -0.580219f, 0.029723f, 0.428220f, -0.173914f, -0.610330f, -0.778758f, 0.351445f, -0.739996f, -0.498411f, 0.308937f, -0.031973f, 0.916921f, -1.193669f, -1.209927f, 0.315171f, 1.085658f, 0.683508f, -0.472530f, 0.406897f, -0.948528f, 0.900218f, 0.523848f, 0.182660f, -0.447606f, 0.341482f, -1.020347f, -0.215386f, -0.120842f, -0.164156f, 0.441540f, 0.655545f, -0.155576f, 0.218222f, -0.459644f, 0.136197f, 0.411886f, 0.092397f, -0.669217f, -0.522792f, 0.377124f, 0.466174f, 0.000341f, -0.266838f, 0.016410f, 0.478027f, -0.624794f, -0.537830f, 0.081802f, -0.171793f, -0.103822f, -0.259278f, 0.387447f, -0.035200f, 0.138909f, 0.028728f, -0.248528f, -0.162467f, -0.196292f, -0.101425f, 0.289415f, -0.500782f, 0.759953f, 0.485766f, -0.131594f, -0.550598f, -0.307705f, -0.284753f, 0.255582f, -0.047485f, 0.010523f, 0.131123f, 0.206723f, 0.409261f, -0.299749f, 0.002648f, 0.101392f, 0.335371f, -0.129904f, -0.091513f, 0.366397f, -0.132794f, 0.264904f, 0.341991f, -0.219896f, 0.161913f, -0.272524f, 0.229711f, 0.052293f, -0.546066f, 0.184919f, -0.059064f, 0.206019f, -0.315021f, -0.659368f, -0.243223f, 0.087416f, 0.331999f, -0.310468f, -0.161742f, 0.024374f, 0.306340f, -0.179924f, 0.604529f, 0.038699f, -0.316219f, 0.154942f, 0.563417f, 0.244308f, -0.481276f, 0.286916f, 0.011363f, 0.292193f, -0.429572f, -0.486909f, -0.262141f, -0.057778f, 0.493320f, 0.148516f, -0.254169f, -0.107406f, 0.190881f, -0.296917f, 0.194100f, 0.018023f, 0.018722f, -0.052551f, 0.151660f, 0.306419f, -0.129038f, -1.075880f, -1.206495f, 0.707996f, -0.707617f, 0.770944f, -0.872617f, -0.914356f, -0.467629f, 0.814377f, 0.057814f, -0.872802f, -0.997455f, 0.033355f, 1.008862f, -0.583172f, -0.582253f, 0.945660f, 0.959666f, -0.142772f, -0.063271f, 0.875496f, 0.738636f, -1.147295f, -0.842326f, -0.404626f, -0.887804f, 0.301824f, -0.174176f, 0.263631f, 0.288654f, -0.793183f, 1.039910f, -1.350435f, -1.116119f, 0.420841f, 0.933992f, 1.132978f, 0.955575f, -0.138797f, -0.115015f, 0.262744f, 0.434904f, 0.431399f, -0.827519f, 0.238039f, -0.411447f, -0.588660f, -0.078360f, 0.106473f, 1.303071f, -0.222561f, 0.974893f, -0.335180f, -0.626428f, 0.700374f, 0.146167f, 0.804095f, 0.269193f, -0.574504f, 1.005090f, -0.454992f, -0.191193f, -0.797008f, 0.680991f, 0.727874f, 0.565214f, 0.364684f, -0.139453f, 0.107013f, -0.031497f, 0.152266f, -1.069767f, 1.061191f, -0.826794f, -0.701470f, 0.736342f, -0.233896f, -0.737024f, -0.965813f, 1.088154f, -0.522027f, 0.631251f, -0.510357f, 1.400083f, 0.477769f, 0.880188f, 1.001308f, -1.775453f, -0.768598f, 1.262100f, 0.718687f, -0.131791f, 1.078090f, -0.224142f, 0.785132f, -0.085683f, -0.829388f, -0.583443f, 0.043189f, -0.276395f, 0.088167f, 0.316343f, 0.288153f, 0.514082f, -0.672289f, 0.607890f, -0.368816f, 0.543768f, -0.577185f, 0.493683f, 0.466271f, 0.577571f, -0.990958f, 0.404330f, -0.054752f, 0.816100f, -0.231113f, 0.755842f, -0.415074f, -0.215643f, -0.419864f, -0.192288f, -0.196595f, -0.096912f, -0.590557f, 0.586848f, 0.487540f, 0.605886f, -0.279246f, -0.008084f, 0.629955f, 0.238007f, 0.906761f, 0.628242f, 0.272276f, -0.040267f, -0.852899f, -0.237497f, 0.025434f, -0.421554f, -0.385821f, 0.756590f, -0.663926f, -0.028297f, -0.294471f, 0.261910f, 0.744626f, -0.501143f, 0.319491f, -0.914569f, 0.108498f, 0.530820f, 0.358494f, 0.507557f, -0.006482f, 0.871680f, -0.193313f, -0.532689f, 0.950032f, -0.847669f, 0.960486f, 0.808499f, 0.474361f, -0.488988f, -0.184084f, -0.535191f, -0.550779f, -0.282479f, -0.525609f, -0.451017f, -0.725206f, 0.377599f, -0.579113f, -0.453106f, 0.566507f, -0.089078f, -0.185398f, 0.712212f, 0.073213f, -0.506630f, -0.661727f, -0.064869f, 0.485713f, -0.013472f, 0.244720f, -0.719627f, 0.455465f, 0.003235f, 0.153640f, 0.115556f, 0.264180f, 0.599910f, -0.397764f, -0.123272f, 0.150824f, -0.321208f, -1.043303f, 0.671173f, -0.099085f, -0.618115f, 0.080215f, 0.212733f, 0.464002f, 0.502404f, 0.027555f, -0.509562f, 0.205312f, 0.738668f, 0.583088f, 0.346562f, -0.622581f, 0.740785f, 0.286345f, 0.005041f, -0.504621f, -0.309051f, -0.196033f, 0.720507f, -0.190944f, 0.744309f, 0.541206f, 0.314986f, -0.714770f, -0.170480f, 0.225834f, -0.594409f, 0.582838f, -0.689887f, -0.021450f, -0.762260f, -0.814600f, -0.608443f, 0.518850f, 0.097755f, -0.557912f, 0.465814f, 0.207741f, 0.539664f, 0.359226f, 0.310840f, 0.805183f, 0.193557f, 0.435929f, -0.453473f, 0.375757f, -0.929928f, -0.054205f, -0.870048f, -0.742191f, -0.073300f, -0.252872f, 0.767565f, -0.278342f, -0.419295f, 0.251001f, 0.838599f, -0.394944f, 0.563667f, -0.693076f, -0.217071f, -0.087172f, 0.473533f, -0.475500f, 0.529152f, -0.676867f, -0.917968f, -0.247092f, 0.029892f, 0.357148f, -0.471371f, 0.732377f, -0.376990f, 0.303294f, -0.469747f, -0.418903f, 0.919367f, 0.042909f, 1.108894f, 0.561112f, 0.392488f, -0.260030f, 0.034243f, -0.561594f, 0.771888f, 0.617968f, -0.083928f, 0.380583f, -0.201494f, -0.431476f, 0.287008f, 0.185600f, -0.651238f, -0.051363f, -0.520240f, 0.114742f, -0.051853f, 0.596485f, -0.907773f, -0.574356f, 0.334261f, 0.108240f, -0.179268f, 0.985294f, -0.250295f, -0.056931f, -0.086483f, 0.468283f, -0.304080f, -1.182355f, -0.766976f, -0.608260f, -0.072098f, -0.818607f, 0.157562f, -0.054833f, 0.830072f, 0.420172f, -0.711557f, -0.510406f, 0.023782f, -0.232802f, -0.063445f, 0.322736f, -0.207358f, -0.652947f, 0.662279f, -0.614300f, -0.061885f, -0.442071f, -0.321849f, 0.400770f, 0.748386f, -0.418552f, -0.228715f, -0.298348f, -0.849669f, 0.658479f, -0.634367f, -0.393969f, 0.149510f, -0.412729f, 0.235175f, -0.519949f, 0.597158f, -0.259765f, 0.265177f, -0.601172f, 0.696967f, 0.556305f, -0.563952f, 0.827696f, -0.272670f, 0.515606f, 0.120197f, 0.196705f, 0.297772f, 0.741596f, 0.085935f, 0.467685f, -0.508192f, 0.619993f, -0.395136f, 0.525197f, 0.006891f, 0.402998f, 0.338653f, -0.521036f, 0.181756f, -0.986125f, -0.180675f, 0.484841f, 0.661762f, -0.083443f, 0.894206f, 0.348924f, 0.213649f, -0.648685f, -0.334439f, -0.942735f, -0.255839f, 0.171578f, -0.212655f, 0.560001f, 0.630358f, -0.597451f, -0.093977f, 0.060565f, 0.097015f, 0.166172f, -0.239360f, -0.211610f, 0.769417f, -0.492984f, -0.069857f, -0.033349f, 0.255753f, -0.014425f, 0.391636f, 0.162553f, -0.566447f, -0.044513f, 0.525686f, 0.614238f, 0.354647f, -0.071820f, 0.255373f, -0.410372f, 0.215914f, 0.568777f, -0.112524f, -0.182423f, 0.561032f, 0.822384f, -0.289745f, -0.006149f, -0.137432f, 0.502912f, 0.333550f, 0.053120f, 0.307363f, 0.494358f, -0.606973f, -0.009060f, 0.120356f, 0.554579f, -0.358909f, 0.124986f, -0.103777f, -0.384742f, -0.552894f, -0.513369f, -0.689589f, -0.496215f, 0.222338f, -0.070140f, 0.228565f, 0.050105f, -0.153757f, -0.005706f, 0.141810f, 0.506778f, -0.186409f, 0.196154f, -0.480323f, 0.246633f, -0.417176f, -0.025773f, -0.466741f, -0.550341f, -0.299488f, -0.257604f, 0.099498f, 0.352318f, -0.287833f, 0.571589f, -0.075193f, -0.169591f, 0.187492f, -0.232305f, -0.179225f, -0.124083f, 0.339832f, -0.117016f, 0.432035f, -0.624012f, -0.227271f, -0.372111f, -0.575762f, 0.034339f, -0.206815f, 0.784508f, -0.044925f, -0.154923f, -0.031391f, -0.656810f, 0.219684f, -0.117487f, 0.366935f, -0.031230f, 0.466438f, 0.342602f, -0.332283f, -0.482834f, 0.503373f, 0.023034f, -0.093994f, 0.243806f, -0.156045f, 0.014733f, 0.284057f, 0.205738f, -0.364970f, -0.199553f, -0.018935f, -0.200956f, 0.028242f, 0.479826f, 0.285593f, -1.017261f, 0.476228f, -0.517370f, 0.557282f, 1.292722f, 1.726828f, 0.460330f, -0.250204f, 0.391143f, -0.495005f, 0.372774f, -0.664900f, -0.770264f, -0.495080f, -1.049293f, -0.737584f, -0.280223f, 0.015180f, 0.657404f, -0.727324f, 0.926459f, -0.320716f, 0.532961f, 0.373952f, -0.014872f, 0.748549f, -0.541072f, -0.688492f, 0.369408f, 1.045818f, -0.027480f, -0.468560f, -0.753509f, -0.275190f, -0.063341f, -0.142572f, -0.225450f, -0.408053f, -0.011243f, 0.970453f, -1.028895f, 0.525952f, -0.703501f, -0.878369f, 0.605542f, -0.180181f, 0.334827f, 0.639549f, -0.730172f, -0.155093f, 1.315083f, 0.518217f, 0.481821f, 0.075410f, -0.570565f, -0.342897f, -0.420677f, 0.526719f, 0.794931f, 0.235009f, -0.151161f, -0.232026f, 0.337791f, -0.035139f, 0.253685f, 0.303631f, -0.049907f, 0.470603f, -0.382879f, 0.133001f, -0.843527f, -0.581791f, 0.478839f, 0.486590f, -1.509166f, -0.397447f, -0.747210f, -0.581574f, 0.531568f, -0.600229f, -0.979206f, 0.557834f, -0.648436f, -0.690992f, -0.632603f, 0.578000f, -0.321933f, 0.665199f, 1.086956f, -0.134185f, -0.597880f, -0.401394f, -1.112303f, 0.061269f, 0.366106f, 0.083694f, 0.004255f, 0.550558f, -0.102386f, -0.615351f, -0.910462f, -0.387303f, -0.326666f, -0.657963f, 1.859906f, 1.495964f, 1.029251f, -0.068499f, 0.344021f, -0.562464f, 0.169510f, -0.376388f, -0.578454f, -0.573330f, -1.015656f, 0.558121f, -0.121695f, 0.334167f, -0.116672f, 0.332326f, 1.999312f, -0.098791f, 0.572523f, 1.133797f, -0.436444f, 0.062194f, 0.160960f, -0.908633f, 0.097319f, 0.341667f, 0.965137f, 0.035112f, -0.638426f, 0.745740f, 1.400575f, -0.701753f, 0.558567f, 0.513500f, 0.683583f, -0.069767f, -0.873808f, 0.377860f, -1.691376f, -0.288809f, 0.585275f, -0.616638f, -0.317109f, -0.163172f, -0.282153f, -0.248244f, 1.080236f, 0.946763f, 1.693628f, 1.154652f, -1.005242f, -0.521778f, -0.637091f, 0.714474f, 0.824099f, -0.018305f, 0.170861f, -0.385002f, 1.114460f, -0.288061f, -0.475525f, -0.002341f, 0.387173f, -0.114401f, 0.349845f, -1.112488f, -0.445804f, -0.603464f, -0.147677f, -0.512115f, 0.597840f, -0.912606f, -0.497256f, 0.352076f, -0.579996f, -0.203009f, -0.853276f, 0.893427f, -0.974760f, 0.462118f, -0.739088f, 0.542507f, 0.475934f, 0.258454f, 1.458452f, -1.297997f, -0.181892f, 0.717276f, -0.475616f, -0.388437f, 0.186228f, -0.197511f, 0.961882f, 0.007165f, -0.541412f, -0.024188f, -0.691474f, -1.414783f, 0.965101f, 0.639935f, 0.698666f, 1.142639f, 0.849940f, -0.081285f, 1.077405f, -0.069776f, -0.472871f, -0.192778f, -0.697631f, 0.637898f, -0.068803f, -0.179209f, 0.360540f, 0.556067f, -0.800286f, -0.418727f, 0.335268f, 0.228712f, 0.587331f, 0.011746f, -0.445142f, -0.303061f, -0.048074f, -0.213087f, -0.345371f, -0.805387f, 1.452641f, -1.171134f, -0.237487f, -0.697921f, 1.183388f, 0.108679f, 0.214356f, 0.327046f, 0.634934f, 0.621581f, 0.110344f, 0.614902f, -0.507420f, 0.335289f, 0.331471f, -0.002295f, -0.862783f, -0.816138f, -0.929772f, -0.215738f, 0.385632f, -0.652039f, 0.615643f, 0.994512f, -0.463184f, -0.054762f, -0.153340f, 0.880306f, -0.760696f, 0.377972f, -0.368311f, -0.863963f, 0.666939f, 0.237411f, 0.572232f, -0.235278f, -0.566314f, -0.758473f, 0.404427f, -0.683330f, -0.132346f, -0.415548f, 0.377644f, 0.810856f, 0.297572f, -0.506441f, -0.081167f, 0.975990f, -0.375928f, 0.923251f, -0.009975f, 1.041059f, -1.126152f, 0.974095f, -0.230188f, 0.058415f, -0.171683f, -0.294841f, 0.085970f, 0.157404f, -0.190312f, 0.592270f, 0.080694f, -0.124117f, -0.615776f, -0.174581f, 0.443989f, 0.145739f, 0.059033f, 0.179207f, 0.068849f, -0.640629f, -0.344532f, 0.720457f, -0.928970f, 0.333060f, -0.419575f, 0.040968f, -0.632116f, 0.794303f, 0.059252f, 0.626229f, -0.439987f, -0.720904f, 0.312703f, 0.658666f, -0.747355f, 0.180501f, 0.444262f, 0.473545f, -0.122065f, 0.699148f, 0.926328f, -0.981715f, 0.278601f, -0.785325f, 0.510094f, -0.949715f, 0.957377f, -0.284531f, -0.211911f, -0.553029f, -0.138032f, 0.577825f, -1.295616f, -0.569423f, 0.599802f, 0.356148f, -0.749394f, -0.847075f, 0.692476f, -0.672270f, -0.985691f, 1.040044f, -0.481235f, -1.091953f, 0.722299f, -1.045806f, -0.827207f, 0.172235f, -0.126996f, -0.170389f, -0.333165f, 0.763233f, -0.968870f, -0.840214f, 0.468262f, -0.845613f, 1.318292f, -0.136769f, 0.360446f, 0.541839f, 1.013078f, 0.498968f, -0.932575f, 0.575138f, -0.237506f, -0.221473f, -0.583402f, -0.385741f, 0.176038f, -0.068538f, 0.794673f, 0.272769f, -0.791170f, -0.863833f, 0.402704f, -1.293528f, 1.088216f, -0.782774f, -0.311493f, -0.192350f, -0.818188f, -1.106126f, -0.406620f, 0.509058f, 0.806883f, 0.029922f, 0.388534f, -0.585395f, 0.643422f, 1.092311f, 1.274211f, -0.348585f, -0.593469f, 0.230038f, 1.465503f, -0.928741f, 0.723494f, 0.457505f, -0.769229f, 0.467665f, 0.582717f, 0.124757f, -0.779724f, 1.158667f, -0.066951f, -1.103720f, 1.002156f, -0.553815f, 0.874039f, -0.157983f, 0.325906f, 0.256960f, 0.897895f, -0.906001f, -0.956723f, -0.026267f, 0.310647f, -0.388455f, 0.959026f, 0.075995f, 0.001052f, -0.034406f, 0.057661f, 0.948490f, 0.662096f, -0.565134f, 0.344018f, -0.885345f, 0.645943f, 0.035702f, -0.227977f, -1.033219f, -0.015694f, -0.091219f, -0.304594f, -0.213132f, -0.029216f, -0.079383f, -0.646810f, 0.907245f, -0.093421f, -0.613013f, 0.925811f, -0.162325f, 0.409225f, 0.892912f, 0.299362f, -0.133013f, 0.456251f, 1.121138f, -0.719778f, -0.494112f, -0.109686f, -0.524488f, -0.602015f, 0.218170f, 0.357568f, 0.597793f, -0.692525f, 0.266144f, 0.063549f, 0.385558f, -0.527550f, 1.024291f, -0.524607f, -0.893453f, 0.560765f, 0.539944f, -0.545390f, -0.370561f, 0.704031f, -0.150704f, -0.604265f, 0.031348f, -0.604257f, 0.331479f, 0.274635f, -0.078665f, 0.814019f, -0.174231f, 0.996698f, -0.082848f, -0.473622f, -0.973859f, -0.355825f, -0.380992f, 0.243443f, 0.827793f, 0.361231f, -1.075353f, -0.960397f, -0.215144f, -0.177560f, -0.642696f, -0.596016f, 0.499256f, 0.717303f, -0.042783f, -0.512274f, 0.178568f, -0.579946f, 0.295748f, -0.350163f, 0.116304f, 0.930708f, 0.012666f, 0.270141f, -0.282743f, -0.500520f, 0.424590f, -0.038246f, -1.083685f, 0.737599f, 0.426254f, -0.032756f, 0.211915f, 0.567079f, -1.113048f, 0.459604f, -0.924230f, 0.870808f, 0.597339f, -1.003881f, -1.147393f, -0.337411f, -0.034019f, -0.763368f, -0.499628f, -0.633129f, -0.091900f, 0.343669f, 0.206194f, 0.263037f, -0.896727f, 0.757825f, -0.777764f, -0.753409f, 1.177367f, 0.390844f, -0.278354f, 0.181130f, -0.541679f, 1.010757f, -0.416422f, -0.255394f, -0.446222f, 0.131574f, 0.965893f, -0.477713f, -0.563146f, 0.645881f, 0.886760f, -0.756269f, 0.265851f, 0.861088f, -0.266577f, -0.320024f, 0.244603f, 0.148596f, 0.398844f, -0.330849f, -0.638616f, -0.129518f, -0.505918f, 0.074227f, 0.410212f, 0.988359f, 0.435046f, -0.922654f, 0.198582f, 1.235237f, 0.576728f, -0.324517f, -0.599143f, 0.140527f, -0.777660f, 0.944576f, -0.427075f, -0.983118f, 1.028673f, -0.705317f, 0.091702f, -0.026747f, 0.454031f, -0.471850f, -0.625453f, 0.886458f, -0.371353f, -0.831470f, 0.468109f, -0.258160f, -0.207093f, 0.711230f, 0.348262f, 0.987965f, -0.858183f, 0.431566f, -0.283945f, 0.584385f, -0.522907f, -0.356496f, 0.167112f, 0.001927f, -1.440505f, -0.184799f, 1.192757f, -1.241849f, 0.840932f, -0.555409f, 0.461986f, 0.629163f, -0.853056f, 0.226666f, 1.208716f, 0.896211f, 0.211757f, -0.172834f, 0.406891f, -0.633962f, 0.367672f, 0.062407f, 0.152204f, -0.379830f, -0.417131f, -0.233422f, -0.052152f, 0.107170f, 0.834307f, -0.259206f, 0.165552f, 0.047310f, 1.094532f, 0.174441f, 0.395180f, 0.648743f, 0.540772f, -0.224144f, 0.606293f, -0.155539f, -1.085914f, 0.227605f, 0.183245f, -0.212180f, -0.321966f, -0.392935f, -0.224136f, 0.099573f, -0.112360f, -0.438350f, -1.155252f, -0.120583f, 0.169800f, -0.070230f, 0.468256f, 0.668463f, -0.515496f, -0.981871f, -0.635145f, 0.713007f, 0.350127f, -0.341330f, -0.017088f, -0.125951f, -0.943745f, 0.538164f, 0.397134f, -0.382351f, 0.002716f, 0.586197f, 0.632382f, -0.084175f, -0.092706f, 0.204198f, -0.347828f, 0.419638f, 0.049005f, -0.009158f, 0.099830f, -0.076051f, 0.144739f, 0.176778f, 0.522465f, -0.007097f, 0.765523f, 0.940310f, -0.290631f, -0.762762f, -1.020933f, 0.148306f, 0.358827f, 1.122812f, 0.094212f, -0.233363f, 1.028507f, 0.308699f, -0.594825f, -0.487023f, 0.680937f, 0.566734f, 0.713163f, -0.210345f, -0.326483f, -0.359855f, -0.358216f, 0.055044f, -0.354809f, -0.105385f, -0.256666f, 0.875769f, 0.314781f, 0.465661f, -0.575693f, 0.740174f, -0.402461f, -0.002362f, -0.437014f, 0.719468f, -0.427476f, 0.563042f, -0.369976f, -0.108202f, -0.122810f, -0.024862f, 0.124470f, 0.341033f, -0.251533f, 0.165684f, 0.129762f, -0.896588f, 0.398154f, 0.039434f, -0.122131f, -0.519554f, 0.274772f, -0.317555f, -0.427756f, -0.451751f, -0.028078f, -0.385633f, 0.246943f, 0.471878f, -0.334496f, 0.491135f, 0.171967f, 0.541619f, -0.010381f, 0.254823f, -0.120987f, 0.157210f, 0.554409f, -0.592904f, -0.405149f, -0.060182f, -0.084618f, -0.105848f, -0.608282f, 0.217716f, -0.082160f, -0.264608f, 0.496398f, -0.504185f, -0.280493f, -0.031610f, 0.180479f, -0.198860f, 0.006678f, -0.295709f, -0.046943f, -0.102843f, 0.680412f, 0.020117f, -0.095962f, -0.376118f, 0.350282f, -0.340164f, -0.379586f, 0.712213f, -0.688983f, 0.281304f, 0.170173f, 0.813806f, -0.394371f, 0.366026f, -0.229589f, -0.396608f, -0.363752f, -0.081276f, 0.486430f, 0.115017f, -0.352650f, -0.252742f, -0.067977f, 0.801774f, -0.019610f, -0.048050f, -0.306188f, 0.165017f, -0.153428f, 0.399339f, 0.200044f, 0.072332f, 0.006931f, 0.050597f, -0.203143f, -0.193068f, -0.119330f, -0.008161f, 0.151984f, 0.222272f, -0.053870f, -0.132229f, 0.161928f, 0.180371f, -0.042293f, -0.036639f, 0.079737f, -0.001438f, -0.247046f, 0.061645f, -0.125429f, 0.027457f, -0.238102f, 0.132204f, -0.345591f, 0.225766f, -0.103107f, -0.122730f, 0.053019f, -0.554796f, 0.191800f, 0.270396f, -0.142403f, -0.016054f, 0.029489f, -0.139737f, -0.392833f, 0.185535f, 0.094294f, 0.461715f, -0.296860f, 0.292914f, 0.102593f, 0.057784f, 0.151824f, 0.032485f, -0.082614f, -0.123653f, 0.175496f, -0.104666f, -0.019207f, 0.151027f, -0.245153f, 0.334561f, 0.290921f, 0.115277f, -0.151130f, 0.121541f, 0.206657f, -0.127745f, -0.087847f, -0.017490f, 0.062207f, 0.059339f, -0.027495f, -0.332704f, -0.185706f, -0.025634f, 0.257516f, -0.283849f, 0.110379f, 0.093664f, -0.252132f, 0.139931f, 0.406146f, -0.100254f, -0.276092f, 0.174106f, 0.039514f, 0.295630f, -0.214637f, 0.307395f, 0.158089f, 0.244419f, 0.097603f, -0.320843f, 0.234101f, -0.260306f, 0.141902f, -0.313239f, 0.075073f, 0.099638f, 0.214041f, 0.060504f, -0.147627f, 0.008514f, -0.176998f, 0.056604f, 0.510529f, 0.303520f, 0.103200f, -0.243301f, 0.220144f, 0.431192f, -0.598358f, 0.435122f, 0.085072f, -0.241384f, -0.522423f, 0.031541f, 0.084928f, 0.776517f, -0.584542f, 1.191945f, -0.340090f, 0.677701f, -0.671743f, 0.911974f, -0.629053f, 0.500174f, -0.285808f, -0.105328f, 0.222827f, 0.337467f, -0.123538f, 0.459499f, 0.462968f, -0.541844f, 0.451775f, 0.538657f, 0.518333f, -0.102444f, -0.335895f, -0.409070f, -0.365962f, -0.368193f, -0.444268f, -0.397479f, -0.269652f, -0.708586f, 0.145712f, 0.211232f, -0.630230f, 0.344262f, 0.397489f, 0.232535f, 0.071500f, -0.111323f, 0.836461f, 0.289997f, 0.266493f, -0.352453f, -0.295867f, 0.183656f, -0.272412f, -0.041777f, -1.134018f, -0.401070f, -0.302387f, -0.219565f, 0.433915f, -1.018049f, -0.847540f, 0.558647f, -0.372825f, 0.710130f, 0.883957f, -0.070643f, -0.555669f, 0.417885f, 0.804526f, -0.098135f, 0.157293f, -0.261082f, 0.312439f, 0.016540f, -0.556098f, 0.298906f, -0.583608f, -0.543838f, 0.450260f, 0.814933f, 0.399815f, 0.157810f, -0.535941f, -0.192092f, -0.214138f, -0.060217f, 0.287159f, 0.448826f, -0.137813f, -0.135301f, -0.279010f, 0.481017f, 0.681419f, -0.286972f, -0.366780f, 0.236405f, -0.103162f, 0.474517f, 0.376393f, -0.747844f, -0.861715f, -0.306917f, -0.075308f, -0.114576f, -0.298991f, -0.564948f, -0.479604f, 0.021778f, -0.774564f, -0.060328f, 0.023750f, 0.028521f, 0.277153f, 0.484485f, -0.666897f, -0.002202f, 0.974684f, -0.563230f, 0.202696f, -0.664847f, -0.301690f, 0.862469f, 0.416373f, 0.399446f, -0.094067f, 0.447007f, -0.420855f, 0.132153f, -0.192993f, 0.668889f, 0.426889f, 0.286577f, -0.593619f, 0.545180f, -0.028253f, 0.062129f, 0.265270f, 0.451045f, 0.201330f, -0.406381f, -0.500625f, 0.600226f, -0.083539f, -0.328711f, 0.661430f, 0.118992f, 0.291477f, -0.719420f, 0.420126f, 0.631070f, 0.138718f, 0.350522f, 0.428129f, 0.070253f, -0.126165f, -0.675031f, 0.469191f, -0.608064f, 0.746797f, -0.244800f, -0.572166f, -0.243941f, -0.193367f, 0.529183f, 0.661370f, 0.393477f, 0.433166f, 0.235165f, 0.322578f, -0.778872f, -0.894691f, 1.075861f, 0.050439f, 0.068491f, 0.476035f, -0.550669f, 0.418308f, -0.078520f, -0.835972f, 0.128702f, 0.719801f, 0.565603f, -0.258819f, -0.530909f, 0.702064f, 0.841085f, -0.749447f, -0.554948f, -0.414403f, -0.319439f, 0.773483f, -0.033776f, 0.011129f, -1.033633f, 0.739004f, -0.760921f };
static const float MLP_layer_2_biases[27] = { -0.013291f, 0.045742f, 0.009066f, 0.063366f, -0.120644f, 0.081912f, -0.130989f, 0.079837f, 0.011881f, -0.186571f, 0.062119f, -0.053028f, 0.024054f, -0.069907f, -0.086432f, 0.181737f, 0.082457f, 0.034650f, -0.101122f, -0.088740f, 0.062380f, -0.098208f, 0.086881f, -0.061684f, -0.031859f, 0.019861f, 0.044933f };
static const float MLP_layer_2_weights[2700] = { 0.281003f, -0.680831f, 0.272538f, 0.502865f, 0.246418f, 0.269633f, 0.254008f, -0.752684f, -0.361447f, -0.428592f, -0.608954f, 0.448196f, 0.228451f, -0.502115f, -0.261644f, 0.101298f, 0.325137f, -0.340960f, -0.084383f, -0.700074f, -0.515426f, 0.407583f, 0.363536f, 0.301867f, -1.041769f, -0.670688f, 0.026008f, -0.622794f, 0.261815f, -0.652329f, 0.320475f, -0.931478f, 0.157505f, 0.714943f, -0.246988f, 0.450983f, -0.458145f, -0.574678f, 0.210905f, 0.242237f, -0.362734f, 0.487805f, 0.167774f, 0.246690f, 0.198987f, 0.099583f, 0.281252f, 0.233092f, 0.345345f, -0.503955f, -0.448220f, -0.400139f, 0.075475f, -0.436989f, 0.362693f, 0.509282f, 0.440178f, 0.502247f, -0.754720f, 0.299534f, 0.042262f, -0.708344f, -0.398778f, 0.343872f, -0.582884f, -0.344350f, -0.472703f, 0.398373f, 0.134343f, -0.098124f, 0.449128f, 0.104640f, -0.522647f, 0.240690f, -0.768780f, -0.486087f, -0.739262f, 0.481570f, 0.531468f, -0.714578f, 0.337051f, -0.456787f, -0.863999f, 0.495990f, -0.327182f, 0.160054f, 0.341065f, -0.333998f, 0.516841f, -0.192739f, 0.589388f, 0.422093f, 0.293239f, -0.383629f, 0.010256f, -0.138871f, -0.303695f, -0.311402f, -0.578853f, 0.260324f, -1.086969f, -0.878837f, 0.197969f, 0.312716f, -0.155725f, 0.417157f, -0.754904f, 0.487452f, -0.444865f, 0.020095f, 0.111479f, -0.770278f, 0.426890f, -0.663375f, -0.452227f, 0.301670f, 0.341854f, -0.841529f, 0.463367f, 0.306140f, 0.355306f, -1.187879f, -0.712806f, -0.074959f, -0.399721f, -0.595002f, 0.171229f, -0.557532f, 0.701702f, 0.097233f, 0.297543f, 0.455725f, -0.283312f, -0.658478f, 0.388641f, 0.042811f, -0.638276f, 0.341397f, -1.049914f, 0.319462f, 0.166859f, -0.781423f, 0.151214f, -0.168857f, 0.393963f, 0.403845f, -1.372738f, 0.665183f, 0.441728f, 0.355782f, -0.072288f, -0.616668f, -0.394379f, -0.015883f, 0.394054f, -0.946490f, 0.291987f, 0.294621f, 0.259831f, 0.505365f, -0.120935f, -0.740683f, 0.205457f, -0.583511f, 0.318109f, -0.800902f, 0.443739f, -0.479635f, -0.933500f, 0.804738f, -0.200400f, 0.478731f, 0.374963f, 0.362105f, -0.840087f, 1.313944f, -1.035714f, -0.125475f, -0.704560f, -0.567058f, 0.266496f, -0.620093f, -0.794437f, 0.134730f, 0.171297f, 0.197556f, -1.068506f, -0.591859f, 0.429407f, 0.780905f, -0.362955f, 0.284876f, -0.764005f, -0.425203f, -0.166520f, -0.295998f, 0.094235f, 0.785250f, -0.603767f, -0.312679f, -0.542716f, -0.336710f, -0.677137f, -0.748257f, -0.332903f, 0.694655f, 0.669303f, -0.175128f, -0.248943f, -0.440748f, 0.272659f, 0.506725f, 0.554046f, -0.479083f, -0.382475f, -0.591713f, -0.393880f, 0.394329f, -0.449644f, -0.286757f, 0.149043f, -0.713543f, -0.490972f, 0.209732f, 0.081204f, -0.552084f, 0.505059f, 0.407090f, 0.254160f, -1.105631f, 0.672767f, -0.005067f, -0.087782f, 0.269120f, 0.462097f, 0.257781f, 0.246671f, 0.098477f, -0.819052f, -0.505374f, 0.331786f, 0.232225f, 0.227144f, 0.348474f, -0.527800f, 0.330024f, -0.295766f, -0.549596f, 0.634076f, 0.341419f, 0.488605f, 0.162584f, 0.300858f, 0.259102f, 0.360736f, -0.745485f, 0.330822f, -1.160888f, -0.696733f, 0.178739f, -0.899491f, 0.095076f, -0.761091f, -0.929798f, 0.223585f, 0.134243f, 0.294628f, -0.259511f, -0.534945f, 0.362737f, -0.625302f, 0.416988f, 0.484651f, 0.273847f, 0.334142f, -0.855542f, -0.360167f, -0.104490f, -0.842259f, 0.258585f, 0.204292f, 0.333506f, 0.285525f, -0.191284f, 0.618024f, -0.060070f, -0.585126f, -0.774689f, -0.836577f, -0.203490f, 0.257831f, 0.262022f, 0.304989f, -0.631902f, 0.442649f, 0.247474f, 0.068281f, 0.318028f, -0.691743f, 0.283111f, 0.891713f, 0.202096f, 0.087417f, 0.145363f, -1.021962f, -0.815822f, -0.659969f, -0.718441f, 0.120586f, 0.279995f, -0.281735f, -0.809135f, -0.581672f, 0.416002f, 0.554819f, 0.305383f, -0.697689f, -0.598753f, 0.372094f, 0.305265f, 0.298615f, -1.128695f, -0.760870f, 0.504149f, -0.538065f, -0.943857f, -0.661781f, 0.382487f, 0.277190f, -0.512543f, -0.306577f, 0.243785f, 0.119659f, -0.682636f, 0.205478f, 0.381292f, 0.324711f, -0.642189f, -0.864610f, -0.230254f, -0.460125f, -0.048069f, 0.104287f, -0.658898f, 0.780040f, 0.265050f, 0.196405f, -0.475728f, 0.677943f, -0.647928f, 0.528989f, -0.409437f, 0.100756f, -0.644064f, -0.596765f, 0.658338f, 0.145458f, -0.461067f, 0.019775f, 0.017742f, -0.738072f, -0.683448f, 0.366643f, 0.284500f, 0.267993f, 0.391805f, 0.276401f, 0.216802f, -0.390762f, 0.271707f, 0.298949f, 0.377600f, 0.246555f, -0.123245f, -0.380582f, 0.156959f, -0.617061f, 0.299658f, -0.684082f, -0.372279f, 0.308510f, -0.718740f, 0.216064f, 0.359488f, 0.609209f, -0.684072f, -0.458945f, 0.383640f, 0.437474f, 0.420656f, -0.669886f, 0.558679f, 0.494870f, -0.369627f, -0.539510f, -0.346941f, 0.338495f, -0.518341f, -0.405991f, 0.256616f, 0.254093f, 0.265960f, -0.748222f, -0.516593f, -0.380710f, -0.415852f, -0.724793f, -0.510832f, 0.506285f, 0.614106f, 0.287043f, -0.841124f, 0.113956f, 0.081868f, -0.668247f, -0.887748f, 0.280566f, 0.299889f, -1.283386f, -0.930827f, 0.937196f, 0.373164f, 0.330798f, 0.119369f, 0.068094f, 0.549132f, 0.248087f, 0.288497f, -0.540902f, -0.383765f, -0.769952f, 0.352560f, 0.362905f, 0.319285f, -0.937282f, 0.302767f, 0.523492f, -0.921787f, 0.107378f, 0.245165f, -1.007098f, 0.296232f, 0.293132f, -0.685197f, 0.481483f, -0.475157f, 0.277740f, 0.459480f, -0.363149f, 0.362848f, -0.526484f, 0.366680f, 0.479111f, -0.607386f, -0.621573f, -0.547613f, 0.263734f, 0.129507f, -0.144060f, -0.418659f, 0.383288f, -0.470158f, -1.190870f, -0.707748f, 0.362099f, -0.594360f, 0.304909f, 0.240295f, -0.415570f, -0.418971f, -0.188891f, -0.204365f, -0.762326f, 0.713621f, 0.340898f, 0.430647f, 0.250605f, 0.332156f, 0.413248f, 0.407582f, 0.286394f, -0.920798f, -0.551816f, -0.494416f, 0.193714f, -0.213833f, -0.304953f, 0.706815f, 0.765061f, -0.788375f, 0.231344f, -0.693515f, 0.025428f, 0.491747f, 0.467297f, -0.501551f, 0.501471f, 0.291820f, -0.430916f, 0.370899f, 0.123009f, -1.039206f, -0.717186f, -0.611801f, 0.274376f, 0.397873f, -0.577706f, -0.323812f, 0.319775f, 0.216024f, 0.370679f, 0.494570f, -0.532175f, 0.332210f, 0.625896f, 0.490240f, 0.329225f, 0.080717f, 0.258753f, -0.392385f, -0.432082f, -0.670867f, -0.397697f, -1.068898f, -0.738287f, 0.570821f, -0.111931f, 0.009803f, 0.613125f, -0.397713f, 0.185978f, -0.683871f, 0.222846f, -0.426099f, -0.661655f, -0.978454f, 0.485127f, 0.343388f, -0.050365f, -0.014968f, 0.127733f, -0.002720f, -1.105671f, 0.252675f, 0.037941f, -0.628706f, 0.426867f, -1.079167f, -0.380585f, 0.277355f, 0.327696f, 0.192025f, 0.511926f, 0.683482f, 0.622419f, -0.559398f, -0.696628f, -0.191743f, 0.270777f, -0.039443f, 0.371970f, 0.457495f, 0.124181f, -0.878108f, -0.993667f, 0.377276f, -0.671082f, 0.031110f, -0.621503f, 0.268757f, -0.924563f, 0.500768f, 0.389150f, -1.045889f, 0.337908f, 0.204267f, -0.714928f, -0.820882f, 0.155199f, 0.438410f, -0.305693f, -0.868326f, -0.478563f, 0.398190f, 0.502765f, 0.070394f, -0.632377f, 0.348267f, 0.101962f, 0.117974f, 0.389493f, 0.543413f, -0.651518f, 0.212949f, 0.201483f, 0.247831f, 0.265866f, 0.219839f, 0.271781f, 0.271391f, 0.099386f, -0.826633f, -0.762170f, 0.018957f, 0.232446f, 0.536376f, 0.441932f, -0.284606f, 0.547525f, 0.131015f, -0.557909f, -0.485854f, -1.023492f, -0.698678f, -0.204806f, 0.275928f, 0.241235f, -0.639021f, 0.087698f, 0.240803f, -0.551099f, 0.421196f, 0.505413f, 0.548674f, 0.320253f, 0.314822f, -0.981617f, -1.193229f, 0.633585f, -0.565401f, 0.130520f, 0.288887f, 0.672555f, 0.355790f, -0.561432f, -1.081627f, 0.799464f, -0.662087f, 0.394073f, -1.026440f, -0.682524f, 0.173869f, 0.054039f, -0.793775f, -0.679737f, 0.495335f, 0.380395f, 0.254713f, 0.583570f, -0.587547f, -0.898079f, -0.786703f, -0.836863f, -0.370497f, 0.733394f, 0.351261f, 0.315047f, -0.457430f, -0.437187f, -0.104091f, 0.291042f, -0.720411f, -0.501147f, -1.058211f, 0.477548f, 0.271013f, 0.295534f, 0.670378f, 0.274409f, 0.303000f, 0.359691f, 0.505305f, -0.552835f, 0.235096f, 0.064159f, -0.550908f, 0.433548f, -0.892390f, -0.286455f, 0.276874f, 0.387170f, 0.148926f, 0.299054f, -0.512755f, 0.196756f, 0.093242f, -0.306311f, -0.784302f, 0.229017f, 0.009863f, 0.096398f, 0.373387f, 0.232787f, 0.645086f, -0.033218f, 0.399351f, -1.022756f, -0.748795f, 0.539097f, 0.134539f, -0.372390f, 0.241920f, 0.366391f, -0.340076f, 0.343546f, -0.361735f, 0.193295f, 0.445256f, 0.049818f, -0.343570f, -1.091171f, -0.029870f, -0.487687f, -0.191506f, -0.452065f, 0.480334f, 0.599855f, -0.225009f, 0.459294f, -0.685589f, 0.548117f, -0.944308f, -0.328208f, 0.103808f, -0.587382f, 0.389346f, -0.415837f, -0.559971f, 0.544027f, -0.527799f, -0.327968f, -0.757126f, -0.766146f, 0.538046f, 0.172744f, -0.462768f, 0.189942f, 0.195289f, -0.669377f, -0.354969f, 0.279623f, 0.270046f, 0.092844f, -0.468570f, -0.329396f, 0.499606f, 0.560834f, 0.301831f, -0.257746f, 0.488128f, 0.207874f, 0.293193f, 0.540618f, -0.952295f, -0.606888f, 0.263440f, -0.375713f, 0.273173f, -0.576927f, -0.769260f, -0.652530f, 0.399312f, 0.002362f, -0.562803f, 0.541657f, 0.311835f, 0.435696f, -0.170313f, -0.390034f, 0.316743f, 0.168042f, 0.433519f, -0.418355f, -0.703068f, 0.784691f, 0.519676f, -0.054354f, -0.038314f, -0.727645f, -0.404363f, 0.591580f, -0.417127f, -0.587299f, 0.263997f, 0.298573f, 0.130498f, 0.333890f, 0.220551f, -1.080588f, 0.191094f, -0.870706f, -0.724788f, -0.507929f, 0.209296f, 0.342603f, 0.187813f, 0.233504f, 0.120036f, -0.587395f, -0.643641f, -0.607861f, -0.266403f, -0.739270f, 0.577156f, 0.274755f, 0.315715f, 0.078533f, -0.013741f, 0.011924f, -0.821585f, -0.343021f, 0.489296f, -0.722689f, -0.886962f, -0.914930f, 0.031257f, -0.529359f, 0.292328f, 0.133948f, -0.529707f, -0.428683f, 0.011075f, 0.516352f, -0.574734f, 0.735337f, -0.873063f, 0.360624f, 0.166189f, 0.325555f, 0.376922f, 0.212716f, 0.311155f, -0.456302f, 0.617864f, 0.366816f, -0.491778f, 0.219809f, 0.623877f, -0.693697f, -0.573700f, -0.158455f, 0.298812f, 0.158215f, -0.823172f, -0.021043f, 0.176896f, 0.820964f, 0.013806f, -0.164306f, -0.668960f, -0.879702f, -0.640970f, -0.576683f, 0.542502f, 0.423383f, 0.361607f, -0.836401f, -0.432734f, 0.312372f, 0.411320f, -0.131671f, -0.885672f, 0.267519f, 0.437169f, -0.454636f, -0.501384f, -0.765116f, -0.805282f, -0.820891f, 0.396672f, -0.405995f, -0.027258f, 0.280829f, -0.919146f, -0.645416f, 0.242498f, 0.478494f, 0.081814f, 0.298493f, -0.117096f, 0.227731f, 0.402250f, 0.050676f, 0.186496f, 0.288939f, 0.264844f, 0.234482f, 0.517894f, 0.544143f, -0.635623f, 0.333372f, -0.597827f, 0.264273f, -0.860206f, 0.318524f, -0.678152f, 0.077342f, 0.402365f, 0.360649f, 0.323684f, 0.340402f, -0.350407f, -0.178153f, -0.973055f, -0.048300f, 0.194412f, -0.238941f, 0.242033f, 0.133519f, 0.616050f, 0.222183f, 0.236901f, -0.814199f, -0.895353f, -0.074811f, 0.218328f, 0.370040f, 0.267292f, 0.351222f, 0.262578f, -0.707588f, 0.284272f, -1.031674f, -0.572509f, 0.390361f, 0.634210f, -0.684369f, -0.212962f, 0.305638f, -0.707764f, 0.356093f, -0.616910f, 0.445962f, 0.118594f, -0.491998f, 0.342323f, -0.738275f, 0.438226f, 0.389724f, -0.565388f, -0.660298f, -0.445740f, 0.444833f, 0.195523f, -0.516781f, -0.238817f, -1.385906f, -0.223510f, -1.314591f, 0.048700f, -1.320947f, 0.454038f, 0.567336f, 0.360068f, 0.785563f, 0.408133f, 0.284901f, -1.185008f, 0.460029f, -0.086922f, -0.544637f, 0.581115f, -1.244972f, 0.171177f, 0.963104f, 0.657488f, 0.269647f, 0.400692f, 0.239912f, -1.219652f, 0.683893f, -0.824557f, -0.636133f, -0.467865f, 0.374087f, -0.693918f, 0.079617f, 0.025038f, 0.301123f, 0.145560f, 0.234289f, -1.000392f, 0.261669f, 0.245508f, 0.259461f, 0.100641f, 0.607569f, -0.716171f, 0.319516f, -0.882819f, 0.120612f, -0.320382f, 0.408601f, 0.032335f, 0.112044f, 0.236657f, 0.258569f, -0.714747f, 0.254755f, 0.389702f, 0.370226f, -0.823953f, 0.237800f, -0.548983f, -0.944823f, 0.031674f, 0.243765f, 0.300361f, 0.396974f, -0.049678f, 0.453139f, -0.384023f, -0.670202f, -0.139227f, 0.398398f, 0.418079f, 0.202501f, 0.708837f, 0.285843f, 0.227013f, -1.006712f, -1.113632f, -0.591587f, -0.475664f, 0.176395f, 0.223988f, 0.418086f, -0.951837f, -0.730941f, -0.078063f, 0.144911f, -0.647094f, 0.602580f, -0.359430f, 0.072042f, -0.333553f, 0.269646f, 0.386861f, 0.438581f, -0.418593f, 0.001846f, -0.374994f, -0.271820f, 0.318205f, 0.321870f, -0.754927f, 0.543822f, 0.217511f, 0.117584f, 0.067316f, -0.651059f, 0.401329f, -0.364073f, 0.259487f, -0.586803f, 0.357163f, 0.416492f, -0.653810f, 0.371453f, 0.136496f, -0.295684f, -0.907172f, 0.323812f, 0.533685f, -0.952185f, -0.602831f, 0.057001f, 0.038605f, 0.116491f, -0.452412f, 0.357818f, 0.125125f, -0.992557f, -0.561179f, 0.045126f, 0.315971f, -0.167999f, -0.230966f, 0.390644f, -0.314562f, 0.236910f, -1.001036f, 0.235503f, 0.369691f, -0.513356f, -0.626012f, 0.263147f, -0.500097f, 0.521609f, 0.535712f, -0.706965f, -0.493195f, -0.591813f, -0.678812f, -0.254175f, 0.597207f, 0.518872f, 0.413387f, -0.212128f, 0.485164f, -0.619430f, 0.759463f, -0.159649f, -0.717383f, -0.925760f, 0.315263f, 0.406437f, -0.630981f, 0.542951f, -0.577992f, 0.332245f, -1.047555f, -0.318927f, 0.944789f, -0.052556f, 0.471887f, 0.502558f, 0.483212f, 0.323984f, -0.082887f, -0.185470f, -0.308610f, -0.039133f, 0.222518f, 0.232851f, -0.212689f, 0.379565f, 0.418490f, 0.565172f, -0.396310f, -0.649714f, -0.637713f, 0.213037f, -0.635352f, 0.409441f, -0.238413f, 0.327083f, -0.493644f, -0.565616f, 0.745539f, 0.470006f, -0.741050f, 0.217766f, -0.146413f, -0.531305f, -0.112438f, -0.582762f, 0.688059f, -0.418386f, -0.227018f, 0.046939f, -0.833182f, 0.291246f, -0.372194f, -0.586319f, 0.324617f, 0.144542f, 0.303164f, -0.677352f, -0.502937f, -0.599553f, -0.521800f, -0.538494f, 0.569714f, 0.826437f, 0.552303f, 0.384353f, -0.631305f, -0.675546f, -0.704460f, 0.476733f, -0.931491f, -1.212786f, 0.816006f, -0.197865f, 0.134988f, 0.333129f, 0.546868f, -0.285848f, -0.725393f, 0.600925f, -0.686388f, 0.876921f, -0.080828f, -0.903757f, 0.005383f, -0.603801f, 0.543474f, -0.294334f, -0.009490f, 0.085821f, -0.017154f, 0.195534f, -0.493645f, 0.594816f, -0.057222f, -0.343211f, 0.377094f, 0.278808f, 0.245779f, 0.014933f, 0.420929f, 0.504692f, -0.246291f, -0.556342f, -0.554935f, -0.525781f, -0.470564f, -0.644798f, -0.332163f, 0.557593f, 0.041474f, 0.447120f, 0.349312f, -0.573391f, 0.226014f, -0.694665f, 0.090555f, 0.150510f, -0.921917f, -0.065185f, 0.056014f, 0.074530f, 0.357101f, -0.390901f, -0.850855f, 0.328996f, -0.645425f, -0.735802f, -0.950044f, 0.065308f, 0.330607f, 0.327829f, 0.182120f, 0.415154f, 0.415011f, 0.161223f, 0.134599f, 0.367742f, -0.897138f, 0.274512f, 0.165374f, -0.606710f, -0.594453f, 0.188117f, -0.344244f, -0.337799f, 0.374611f, 0.537282f, -0.658055f, 0.512440f, 0.437570f, -0.194358f, -1.038424f, -0.619947f, 0.179763f, 0.279989f, 0.234827f, 0.175060f, -0.461615f, 0.313953f, 0.643399f, -0.666524f, 0.457589f, -0.273120f, 0.346203f, 0.545741f, -0.490115f, -0.362133f, 0.197154f, -0.446460f, 0.186389f, 0.585799f, 0.264256f, 0.111634f, -0.028848f, -0.848457f, -0.573692f, -0.248536f, -0.064278f, 0.342030f, 0.531369f, 0.387174f, 0.245777f, 0.335013f, -0.805908f, -0.081749f, -0.991346f, -0.880627f, -0.460808f, -0.394344f, 0.607990f, 0.324162f, 0.352847f, -0.856306f, 0.416894f, 0.418153f, -0.175190f, 0.252826f, -0.262938f, -0.342084f, 0.083278f, 0.094702f, -0.931494f, -0.252575f, 0.237733f, -0.536919f, -0.559629f, -0.626375f, 0.341304f, 0.248218f, 0.201848f, 0.413736f, -0.393973f, 0.881907f, 0.500552f, 0.027941f, -0.657067f, -0.651918f, 0.413629f, 0.432375f, -0.247981f, 0.185782f, -0.353521f, 0.068350f, -0.456263f, -0.461666f, -0.623259f, -0.088473f, -0.093641f, -0.722247f, 0.483786f, -0.572826f, -0.338396f, 0.560578f, 0.313657f, 0.494522f, 0.167488f, -0.827121f, 0.004282f, -0.628236f, 0.280300f, 0.745026f, 0.729937f, 0.408879f, 0.211131f, -0.374843f, -0.070502f, -0.440085f, -0.568673f, -0.441253f, 0.261028f, -0.405958f, -0.832190f, -0.772868f, 0.363656f, -0.539266f, 0.457520f, 0.469110f, -0.663486f, -0.283512f, -0.473825f, 0.478109f, 0.103093f, -0.073861f, 0.581269f, 0.315742f, 0.173493f, -0.768632f, 0.284427f, 0.376059f, -0.664381f, -0.424016f, -0.186822f, 0.371254f, 0.411225f, -0.041918f, 0.435627f, -0.303260f, 0.284117f, -0.349423f, 0.615444f, 0.129617f, -0.945332f, 0.970443f, 0.139922f, -0.452457f, -0.199414f, -0.937174f, -0.687066f, 0.797390f, -0.091584f, -0.710063f, -0.706492f, -0.123123f, 0.567648f, -0.572114f, -0.566514f, -1.116093f, 0.549757f, 0.480724f, 0.720697f, -0.445907f, 0.470807f, 0.339234f, -0.253178f, 0.251584f, -0.428934f, -0.404989f, 0.780626f, 0.053268f, -0.308807f, -0.411354f, -0.843781f, -0.606728f, -0.941788f, -0.356066f, 0.650233f, -0.913526f, -0.226292f, 0.599300f, 0.556920f, -0.030904f, -0.555175f, -0.316020f, -0.047410f, 0.689540f, 0.364343f, -0.555660f, -0.488122f, 0.522289f, 0.364362f, 0.668279f, -0.941457f, -0.717554f, -0.968022f, -0.539867f, 0.575590f, 0.513637f, 0.687083f, 0.561865f, 0.556496f, -0.860259f, -0.626050f, 0.052353f, -0.515779f, -0.538581f, 0.275804f, 0.262572f, 0.141725f, 0.682990f, 0.173634f, -0.640922f, 0.595746f, 0.542861f, -0.560723f, 0.660737f, -0.900155f, 0.300492f, 0.279709f, -0.142092f, 0.201346f, 0.388499f, -0.628293f, -0.663460f, 0.292583f, 0.307919f, 0.514716f, 0.268493f, 0.328813f, 0.374564f, -0.149555f, -0.726367f, -0.229540f, -0.644091f, -0.049759f, -0.808518f, 0.240583f, 0.404756f, 0.135782f, 0.528940f, -0.496951f, -0.460100f, 0.294904f, -0.753674f, -0.753832f, -0.515871f, 0.138894f, -0.155717f, 0.330114f, 0.312342f, 0.367197f, -0.709622f, -0.729021f, 0.253614f, 0.358910f, -0.758785f, -0.605059f, 0.232617f, 0.297701f, 0.453675f, -0.567112f, -0.625776f, 0.531578f, 0.696492f, -0.202772f, -0.402838f, 0.216487f, 0.088576f, 0.434726f, -0.493855f, -0.737959f, -0.425693f, 0.385150f, -0.456339f, 0.039430f, -0.629005f, -0.349455f, -0.167478f, 0.442531f, 0.441376f, 0.381602f, -0.233849f, -0.702470f, -0.390481f, -0.080630f, 0.276256f, 0.270861f, 0.229463f, -0.044054f, 0.356665f, 0.262934f, 0.248058f, -0.501320f, -0.926595f, -0.484948f, -0.329538f, 0.427622f, 0.133440f, -0.518542f, 0.473275f, -0.447539f, 0.299309f, -0.807290f, -0.695747f, -0.249633f, -0.034541f, 0.397399f, -0.434080f, 0.581044f, 0.389906f, 0.386616f, -0.753020f, -0.503266f, 0.516085f, -0.044572f, 0.443308f, -0.032028f, 0.578146f, 0.161690f, 0.541261f, -0.556308f, -0.620398f, 0.091388f, 0.321982f, -0.708479f, 0.401081f, -0.811699f, 0.153991f, -1.057558f, -0.211530f, -1.313147f, 0.506077f, -0.310324f, 0.920059f, 0.262477f, 0.377310f, 0.125676f, -0.786596f, 0.980262f, -0.093783f, -0.698220f, -0.475759f, -0.531733f, 0.329530f, -0.431188f, -0.939867f, 0.167604f, 0.236634f, 0.276098f, -0.781850f, 0.409919f, -0.516386f, 0.188991f, 1.043824f, 0.165282f, 0.514151f, 0.208412f, 0.428844f, 0.289031f, 1.000557f, -0.952656f, -0.558597f, 0.387433f, -0.618736f, 0.477588f, 0.655018f, -0.336694f, -0.680955f, -0.705616f, 0.112580f, -0.683252f, -0.888508f, -0.730589f, -0.737905f, -0.896933f, 0.545971f, 0.650933f, -0.140195f, 0.297706f, 0.313171f, -0.427584f, 0.294638f, 0.501844f, 0.269281f, 0.335316f, 0.102597f, -0.336333f, -0.558169f, 0.300709f, -0.044049f, -0.593499f, -0.852979f, 0.484831f, -0.179754f, 0.407539f, -0.027374f, -0.682811f, -0.849483f, 0.103647f, -0.457822f, -0.701289f, 0.721514f, 0.292442f, -0.828843f, 0.366463f, -0.651332f, -0.323444f, 0.390139f, -0.458752f, -0.310419f, -0.715760f, -0.713611f, -0.298126f, 0.331839f, 0.493729f, -0.802541f, 0.837440f, 0.653999f, 0.267055f, -0.164089f, 0.421241f, -0.284852f, -0.630218f, -0.379941f, 0.739369f, 0.357544f, 0.296304f, -0.633672f, -0.935719f, -0.451124f, 0.516715f, 0.360424f, -0.114050f, 0.194512f, 0.576099f, -1.074482f, 0.417802f, -0.673019f, 0.170355f, 0.349313f, -0.810072f, -0.625752f, -0.212376f, -0.959909f, -0.455945f, 0.045902f, -0.161930f, -0.078755f, 0.471785f, 0.448575f, 0.382987f, -0.442926f, 0.341371f, 0.453572f, -0.504904f, -0.610854f, -0.528677f, -0.320118f, 0.415557f, -0.464079f, -0.028955f, 0.733287f, 0.249158f, -0.152793f, 0.072288f, -0.945394f, 0.254000f, 0.582274f, -0.001354f, 0.519157f, 0.162183f, 0.431939f, -0.427331f, 0.719370f, -0.014010f, -0.615621f, -0.549621f, -0.729693f, 0.262861f, -0.682624f, -0.259235f, -0.226117f, 0.122881f, 0.159710f, 0.332667f, 0.385178f, -0.479862f, -0.485843f, -0.647439f, 0.460565f, 0.289870f, 0.317420f, -0.666633f, -0.588261f, 0.498476f, -0.762325f, 0.630655f, 0.190097f, 0.416818f, 0.175029f, 0.694985f, 0.017281f, -0.235836f, -0.705289f, -0.734865f, 0.399551f, -0.856960f, -0.724863f, 0.159652f, -0.121879f, -0.362206f, 0.591669f, -0.150552f, 0.517766f, -0.401866f, -0.125344f, 0.837867f, -0.829691f, 0.611907f, 0.368130f, -0.481769f, -0.312140f, 0.179060f, 0.356243f, 0.270186f, -0.495980f, -0.620021f, 0.054119f, 0.413180f, 0.337633f, -0.790945f, -0.681535f, 0.481765f, 0.586254f, -0.639488f, -0.423278f, 0.418434f, 0.165840f, 0.473294f, -0.563245f, -0.759357f, 0.232615f, -0.429671f, 0.120471f, 0.912454f, 0.378303f, 0.431695f, 0.300454f, -0.601509f, -0.523936f, 0.201095f, 0.293368f, -0.309318f, -0.069772f, 0.475738f, -0.721496f, -0.233343f, -0.748756f, -0.557784f, -0.944205f, -0.878043f, -0.544606f, -0.390943f, 0.539856f, 0.399686f, -0.117642f, -0.679853f, -0.076411f, 0.654612f, 0.660104f, -0.703470f, 0.429058f, -0.562793f, 0.189406f, -0.244742f, -0.348698f, -0.404103f, 0.344170f, -0.750763f, -0.386870f, -0.289779f, -0.559946f, 0.161180f, 0.349434f, -0.060927f, 0.422548f, -0.481573f, 0.370804f, -0.245662f, -0.194300f, -0.189596f, -0.451892f, 0.478938f, 0.282950f, -0.310505f, 0.414793f, 0.456014f, -1.186426f, 0.142023f, -0.479623f, 0.600324f, 0.360864f, -0.882676f, 0.963556f, -0.277823f, -0.466922f, -0.515339f, -0.602432f, -0.810375f, 0.324918f, 0.143415f, 0.415143f, 0.369711f, -0.532851f, 0.432271f, 0.315218f, -0.560655f, -0.333302f, 0.747490f, -0.755166f, 0.317482f, -0.469040f, 0.433882f, -0.375147f, -0.802626f, 0.496419f, -0.722576f, -0.089143f, 0.429895f, -0.083609f, 0.343570f, 0.690960f, -0.775700f, -0.242717f, -0.660134f, -0.861940f, -1.104735f, 0.014238f, 0.302183f, 0.408742f, 0.213920f, 0.322064f, 0.501669f, -0.117625f, -0.803787f, -0.443760f, -0.812971f, 0.504201f, 0.530791f, 0.110376f, 0.407503f, 0.572045f, 0.389141f, 0.065722f, 0.153214f, -0.013781f, -0.730284f, -0.703552f, 0.013066f, -0.049279f, -0.454156f, -0.753282f, 0.162600f, 0.072884f, 0.020113f, 0.535323f, -0.264626f, -0.875587f, 0.392639f, -0.580283f, -0.429542f, -0.774287f, -0.702984f, 0.166681f, 0.258392f, 0.333377f, -0.068706f, -1.135318f, -0.442387f, 0.143023f, 0.435901f, 0.523007f, -0.500309f, -1.016501f, -1.091358f, 0.370774f, 0.094012f, 0.138509f, 0.259439f, -0.458024f, 0.526937f, 0.542656f, -0.249954f, 0.524391f, -0.501589f, -1.008769f, 0.549087f, 0.447812f, 0.305064f, -0.740428f, 0.096012f, -0.608173f, 0.461822f, -0.464007f, 0.300537f, -0.646817f, 0.020608f, 0.343008f, 0.390692f, -0.734098f, -0.002470f, 0.293345f, -0.844083f, -0.644380f, -0.695745f, 0.213498f, -0.097078f, 0.301944f, 0.428337f, 0.319494f, 0.272891f, -0.239251f, 0.195400f, 0.409786f, -1.002598f, 0.299618f, -0.203817f, 0.346222f, -0.538013f, 0.022880f, 0.248708f, 0.368710f, 0.421543f, 0.478357f, 0.230637f, -0.606415f, -0.049605f, 0.568947f, -0.878300f, -0.013143f, 0.140553f, 0.564582f, 0.417680f, -0.599193f, -1.274466f, 1.012389f, -0.210818f, -0.181226f, -1.289267f, -0.747368f, -1.201857f, -0.136751f, -0.163050f, 0.233884f, 0.441945f, 0.338197f, 0.195449f, -0.350671f, 0.385871f, 1.213472f, -0.512399f, 0.397102f, 0.169688f, -0.854276f, 0.682298f, 0.304346f, 0.001643f, 0.239867f, 0.662564f, -0.392393f, -0.135905f, 0.215957f, 0.535651f, -0.736968f, -0.705953f, 0.122990f, 0.066233f, -0.714602f, -0.600661f, -0.690977f, -0.606670f, 0.141554f, -0.086763f, 0.356716f, 0.204399f, -0.677936f, -0.271787f, 0.242015f, -0.718685f, 0.286872f, 0.071419f, -0.517637f, -0.552707f, 0.155125f, 0.287100f, -0.622346f, -0.669566f, 0.325613f, 0.442885f, 0.523946f, 0.275687f, 0.435674f, -0.337346f, 0.235748f, -0.443995f, -0.634477f, 1.073543f, -0.876655f, -0.892805f, 0.275410f, -0.638313f, -0.823955f, -0.039709f, 0.295040f, -0.453579f, 0.019365f, 0.203136f, 0.472462f, -0.778096f, 0.287544f, 0.383719f, -0.278490f, -1.107049f, -0.490640f, 0.164349f, 0.124426f, 0.237890f, 0.457961f, -0.257913f, 0.343762f, 0.445050f, -0.665587f, 0.322559f, -0.111685f, 0.391569f, 0.306078f, -0.663800f, 0.091360f, -0.365189f, 0.252859f, -0.701364f, 0.152615f, 0.819065f, -0.190472f, -0.623685f, 0.283254f, -0.691101f, 0.267745f, 0.139861f, -0.694817f, 0.285230f, 0.244730f, 0.202959f, 0.342777f, -0.505771f, -0.162210f, -0.701827f, 0.263116f, 0.329154f, -0.585808f, -0.522400f, -0.374136f, 0.320473f, 0.097499f, 0.059593f, 0.333945f, -0.781673f, 0.270112f, 0.313450f, -0.001444f, 0.081371f, 0.264580f, -0.441855f, -1.098529f, 0.233294f, 0.365226f, -0.819187f, -0.794469f, 0.512682f, 0.497560f, 0.100656f, -0.746725f, -0.752320f, 0.245767f, -0.213001f, -0.487679f, 0.438175f, 0.264795f, -0.946947f, -0.913536f, 0.466899f, -0.595048f, -0.174209f, 0.309751f, 0.382682f, 0.272313f, 0.602471f, -0.711107f, -1.115973f, 0.280708f, 0.226649f, -0.828082f, -0.707443f, 0.346344f, 0.179549f, -0.420842f, -1.069248f, 0.052196f, 0.352567f, 0.460790f, -0.561119f, -0.446162f, 0.467553f, 0.223462f, -0.373147f, 0.557797f, 0.585556f, -0.804745f, 0.291517f, -0.743335f, -0.823374f, 0.363879f, -0.795434f, 0.295123f, -0.134883f, 0.567224f, -1.066549f, 0.521787f, 0.427236f, 0.359863f, 0.433066f, -1.034147f, 0.433952f, 0.416288f, -0.149334f, -0.403953f, -0.350535f, 0.323839f, 0.585761f, -0.293964f, 0.277488f, 0.278842f, -0.013999f, -1.182014f, 0.489160f, -0.637432f, -0.708958f, -0.613673f, 0.059387f, 0.493062f, 0.218639f, 0.348308f, 0.480198f, -0.518613f, -0.620816f, 0.211582f, 0.073219f, 0.508603f, -0.658736f, 0.321797f, 0.399174f, -0.110330f, -0.153216f, -0.684718f, 0.354915f, -0.467917f, -0.506701f, 0.274580f, 0.210193f, -0.639393f, -0.146059f, -0.598793f, -0.158772f, 0.654342f, -0.579020f, 0.704151f, -0.904703f, 0.073775f, -0.491565f, -0.986377f, 0.478543f, 0.493972f, -0.546241f, -0.646390f, -0.134558f, 0.729001f, -0.872148f, -0.383774f, 0.353812f, 0.537692f, 0.603263f, -0.200833f, -0.436478f, -0.819993f, 0.385592f, 0.433665f, 0.351052f, -0.853804f, -0.367772f, 0.322441f, -0.631028f, -0.415688f, 0.173407f, -0.187627f, 0.363320f, 0.411606f, 0.362665f, -0.602943f, -0.919840f, -0.533354f, -0.688145f, -0.474997f, -0.289422f, 0.369874f, 0.453638f, 0.484602f, 0.525094f, -0.500493f, 0.388625f, 0.288203f, -0.383049f, -0.011257f, 0.247693f, 0.313561f, 0.412835f, -0.396721f, 0.201057f, -0.117034f, -0.521719f, -0.406436f, -0.462329f, -0.578585f, -0.206843f, -0.240185f, 0.047257f, 0.389093f, 0.748716f, -0.537050f, -1.143354f, -0.742860f, -0.281289f, -0.072903f, 0.059323f, 0.431898f, 0.267963f, 0.454227f, 0.856375f, 0.294438f, 0.353428f, 0.478419f, -0.766106f, -0.742686f, 0.472238f, -0.100395f, -0.614016f, 0.365952f, -0.598592f, 0.219735f, 0.143828f, 0.289772f, 0.341215f, 0.037423f, 0.250025f, 0.221255f, -0.077126f, -0.762732f, -0.134117f, 0.197467f, 0.215681f, 0.106634f, 0.073978f, -0.274455f, -0.323390f, 0.302607f, 0.402223f, -0.773894f, -0.640034f, -0.470275f, 0.417658f, 0.182400f, -0.020890f, 0.210958f, 0.737593f, 0.543635f, 0.371235f, 0.200219f, -0.639823f, 0.000004f, -0.111670f, -0.670403f, 0.187250f, 0.273036f, -0.674840f, 0.536050f, -0.126501f, 0.156780f, 0.649847f, -0.579527f, 0.535918f, -0.480101f, 0.087635f, -0.729572f, -0.415307f, -0.785935f, -0.651355f, 0.364277f, 0.268599f, -0.171430f, 0.404927f, 0.262045f, -0.541503f, 0.051395f, 0.356954f, -0.630492f, -0.246321f, -0.157785f, -1.104493f, 0.082675f, 0.020964f, 0.627479f, 0.261362f, -0.729350f, 0.535803f, 0.377036f, -0.728430f, 0.253027f, -0.709852f, -0.787954f, 0.367435f, 0.545354f, -1.118221f, -0.696897f, 0.443992f, 0.263012f, 0.349884f, 0.253918f, -0.303193f, 0.470930f, 0.446984f, -0.901980f, 0.444953f, 0.184670f, -0.313658f, -0.470642f, 0.392777f, -0.271086f, -0.368469f, -0.659345f, 0.024046f, 0.358462f, 0.452513f, 0.445991f, 0.401643f, -0.502568f, -0.759956f, -0.577403f, -0.645530f, -0.683881f, 0.480856f, -0.833926f, 0.432180f, -0.272966f, 0.209714f, 0.487053f, -0.314030f, -1.170277f, -0.697686f, -0.793044f, 0.234921f, 0.212518f, 0.538594f, -0.689422f, -0.456898f, 0.327660f, 0.507691f, 0.909129f, -0.514116f, -0.106400f, -0.447774f, -0.046631f, -0.290935f, 0.670380f, 0.369728f, 0.638482f, -0.604673f, 0.486778f, -0.780130f, 0.541089f, -0.746477f, -0.605573f, -0.655669f, 0.389517f, 0.244165f, 0.280927f, 0.689843f, 0.440144f, -0.151273f, 0.436560f, -1.013430f, -0.364896f, 0.467831f, -0.908280f, 0.418821f, -0.374634f, -1.269328f, 0.363534f, -0.984534f, 0.245400f, -1.154851f, -0.711259f, 0.165188f, 0.236206f, 0.237687f, 0.461006f, -0.425256f, 0.411128f, -0.344219f, 0.325147f, 0.031656f, -0.437643f, 0.438781f, 0.423612f, -0.540989f, 0.495905f, -0.407802f, -0.880515f, 0.390619f, 0.405246f, 0.286653f, 0.216819f, 0.377883f, 0.131952f, -0.768597f, -0.657916f, 0.281561f, -0.422899f, -0.182632f, 0.113833f, -0.000802f, -0.408465f, 0.295851f, -0.570125f, 0.308476f, -0.095122f, 0.491447f, -0.612592f, 0.356571f, -0.106946f, -0.280378f, -0.632812f, 0.546147f, 0.667000f, -1.030408f, 0.447498f, 0.249212f, 0.461542f, -0.619712f, -0.737464f, -0.485373f, -0.721414f, 0.652411f, -0.476414f, -0.933366f, 0.372796f, -0.184954f, 0.536322f, -0.167475f, -0.591376f, 0.528861f, -0.524985f, -0.309458f, 0.319028f, -0.724257f, 0.258669f, 0.416990f, -0.684319f, -0.470805f, 0.543491f, -0.782948f, 0.353396f, 0.393190f, 0.463374f, 0.265312f, -0.886620f, 0.424559f, 0.686027f, -0.698254f, 0.565749f, -0.555004f, -0.423363f, 0.057002f, -0.546409f, -0.790716f, -0.359455f, 0.074699f, 0.314339f, 0.275507f, -0.047692f, 0.334723f, -0.250188f, 0.473365f, -0.439031f, 0.212654f, -0.016218f, 0.271697f, 0.253835f, 0.075594f, 0.496972f, -0.828792f, -0.664659f, 0.253768f, 0.147148f, 0.004703f, 0.019855f, -0.063768f, 0.450288f, 0.094193f, 0.228697f, -1.048988f, -1.060570f, -0.717485f, 0.265978f, 0.065064f, -0.028955f, 0.308319f, -0.045828f, -1.103261f, 0.676084f, -0.856267f, 0.286098f, 0.307205f, -0.027091f, 0.560928f, -0.720213f, -0.516314f, -1.028658f, 0.747066f, -0.277052f, -0.464461f, -0.220162f, 0.320809f, 0.331610f, -0.741336f, 0.522006f, 0.436508f, 0.344205f, -0.889219f, 0.786635f, -0.086552f, -0.442354f, 0.336843f, -0.358574f, 0.325514f, -0.561048f, -0.520453f, -0.216839f, -0.096910f, -0.492586f, 0.274738f, 0.202933f, -0.777502f, -0.547274f, 0.550613f, 0.408470f, -1.245735f, 0.521891f, 0.381471f, 0.327225f, 0.394617f, -0.166145f, 0.298301f, 0.303807f, 0.207363f, -0.968859f, -0.323098f, 0.307698f, 0.347714f, 0.181145f, 0.108865f, 0.567096f, 0.654292f, 0.255190f, 0.340116f, -0.646210f, -0.777454f, 0.492272f, 0.491366f, -0.799828f, 0.212841f, 0.465640f, 0.172947f, -1.048787f, -0.879515f, -0.171780f, -0.579861f, 0.620013f, -1.027573f, -0.637042f, -0.004198f, -1.010273f, 0.884320f, -0.207813f, 0.331705f, 0.401004f, 0.445839f, 0.467292f, -0.664489f, 0.100371f, -0.205061f, -0.847046f, 0.334698f, 0.269463f, -0.476301f, -0.307758f, 0.552780f, -0.413083f, -0.587768f, -0.286415f, 0.368073f, 0.423911f, 0.112976f, 0.571379f, -0.270265f, 0.385000f, -0.291501f, -0.433776f, 0.721850f, -0.652831f, 0.241129f, -0.820478f, 0.028454f, -0.284820f, 0.175189f, -0.686356f, 0.080365f, 0.384391f, 0.313768f, 0.400372f, 0.040653f, -0.224457f, -1.070603f, 0.226030f, 0.261950f, 0.471732f, 0.263930f, -0.372766f, -1.021648f, 0.627881f, -0.455460f, -0.041108f, -0.799101f, -1.084205f, -0.838112f, 0.025272f, 0.541137f, 0.026580f, 0.577485f, -0.701430f, 0.423674f };
static float MLP_buf1[100];
static float MLP_buf2[100];
static const EmlNetLayer MLP_layers[3] = { 
{ 50, 7, MLP_layer_0_weights, MLP_layer_0_biases, EmlNetActivationLogistic }, 
{ 100, 50, MLP_layer_1_weights, MLP_layer_1_biases, EmlNetActivationLogistic }, 
{ 27, 100, MLP_layer_2_weights, MLP_layer_2_biases, EmlNetActivationSoftmax } };
static EmlNet MLP = { 3, MLP_layers, MLP_buf1, MLP_buf2, 100 };

    int32_t
    MLP_predict(const float *features, int32_t n_features)
    {
        return eml_net_predict(&MLP, features, n_features);
    }
    

    int32_t
    MLP_regress(const float *features, int32_t n_features, float *out, int32_t out_length)
    {
        return eml_net_regress(&MLP, features, n_features, out, out_length);
    }
    

    float
    MLP_regress1(const float *features, int32_t n_features)
    {
        return eml_net_regress1(&MLP, features, n_features);
    }
    