#include <eml_net.h>
static const float MLP_layer_0_biases[100] = { -0.198426f, -0.126250f, 0.014741f, -0.077126f, -0.071632f, -0.039644f, 0.170532f, -0.028051f, -0.112668f, 0.052083f, -0.091797f, -0.061949f, -0.076593f, 0.122177f, 0.303590f, -0.060762f, 0.166969f, -0.002850f, 0.085193f, -0.189034f, 0.008443f, 0.227450f, 0.035322f, 0.106678f, -0.029950f, -0.025167f, 0.177017f, -0.230162f, 0.053307f, 0.174280f, 0.021648f, -0.173671f, 0.144734f, -0.092247f, 0.055144f, 0.078025f, 0.193797f, 0.085952f, 0.155393f, -0.263636f, 0.227842f, -0.152407f, -0.060749f, 0.251235f, -0.272152f, 0.178996f, 0.189098f, -0.038510f, -0.024622f, 0.200546f, -0.010485f, -0.196658f, 0.243993f, 0.160446f, -0.000010f, 0.174225f, -0.032391f, 0.082068f, -0.008865f, -0.005936f, -0.187862f, 0.223108f, -0.125026f, -0.205459f, -0.203184f, -0.266084f, 0.037567f, 0.071802f, 0.134627f, -0.006298f, 0.175546f, 0.223953f, 0.169706f, -0.011546f, 0.075853f, -0.119175f, -0.091238f, -0.136262f, -0.032922f, -0.118941f, -0.068846f, 0.219049f, -0.104761f, 0.334247f, 0.084122f, -0.096604f, 0.131607f, 0.070272f, -0.098201f, 0.146626f, -0.017552f, -0.095785f, -0.039387f, 0.105628f, -0.073028f, 0.136636f, -0.037885f, 0.021688f, -0.004651f, 0.175713f };
static const float MLP_layer_0_weights[700] = { -0.069091f, 0.112412f, -0.256797f, -0.103654f, -0.117163f, -0.185176f, -0.154506f, -0.074456f, -0.056252f, 0.073186f, -0.086002f, 0.089421f, -0.194337f, 0.226991f, -0.160671f, 0.085315f, -0.070568f, 0.005833f, -0.124749f, -0.179101f, 0.191890f, 0.239851f, -0.108414f, 0.085031f, 0.141761f, 0.216814f, -0.203896f, -0.207576f, -0.284592f, 0.171912f, -0.241180f, 0.015462f, 0.163568f, 0.050976f, 0.065448f, -0.162380f, 0.087013f, 0.167821f, -0.187969f, 0.065586f, 0.192222f, 0.136187f, -0.107199f, 0.169445f, -0.198253f, 0.048208f, 0.243582f, -0.035895f, -0.074398f, -0.078576f, -0.000000f, 0.060206f, -0.173339f, -0.141369f, -0.027209f, -0.285875f, 0.036238f, -0.216812f, 0.079633f, 0.083739f, -0.207548f, -0.006132f, 0.051620f, -0.084992f, -0.212923f, -0.017681f, 0.117764f, 0.092425f, 0.190284f, 0.039123f, 0.187714f, -0.100000f, -0.218053f, 0.161770f, -0.030949f, -0.076544f, 0.175188f, -0.042341f, 0.063885f, 0.156413f, 0.157989f, 0.021766f, 0.071913f, -0.027134f, -0.083119f, 0.139305f, -0.013228f, 0.180823f, 0.071043f, 0.113148f, -0.236209f, 0.159763f, 0.046420f, 0.106199f, -0.056985f, -0.160194f, 0.174155f, 0.089240f, -0.240646f, 0.103951f, -0.094107f, 0.031053f, 0.135749f, -0.070588f, 0.152017f, 0.028878f, -0.167621f, 0.200713f, 0.040780f, 0.217487f, -0.082607f, -0.205335f, 0.208640f, 0.166069f, -0.057085f, 0.092921f, 0.089497f, 0.207959f, 0.108004f, -0.250199f, -0.317530f, -0.336891f, -0.153444f, -0.193999f, 0.169688f, 0.025740f, 0.083508f, 0.144972f, -0.153548f, -0.143907f, 0.113904f, 0.190824f, 0.008016f, -0.194726f, 0.119939f, -0.075290f, 0.162085f, -0.032219f, 0.158411f, 0.086048f, 0.016268f, -0.098940f, -0.248922f, -0.130397f, -0.248591f, -0.176935f, -0.173184f, 0.097257f, 0.110890f, -0.186752f, -0.000000f, 0.215356f, 0.103196f, -0.165499f, -0.141654f, 0.116606f, -0.159644f, 0.084218f, 0.245836f, 0.150332f, -0.168130f, 0.004315f, 0.057801f, 0.143018f, -0.206966f, -0.237370f, -0.170949f, 0.000849f, 0.070192f, 0.042160f, -0.102256f, 0.395285f, 0.199241f, -0.037594f, 0.024356f, 0.134842f, 0.077014f, -0.061784f, -0.330527f, -0.049956f, 0.019758f, -0.138336f, 0.119195f, -0.200639f, -0.546994f, 0.145126f, -0.268232f, 0.046089f, 0.028302f, 0.204614f, -0.072469f, -0.206978f, 0.162998f, 0.163218f, 0.180569f, 0.190305f, -0.219477f, -0.135947f, 0.019300f, 0.226896f, 0.181625f, 0.012584f, 0.148811f, 0.094157f, -0.019279f, -0.041276f, 0.067031f, 0.044738f, 0.162322f, 0.163990f, -0.060866f, 0.183330f, -0.133391f, -0.150162f, -0.259625f, -0.029822f, -0.232814f, 0.210259f, 0.153482f, -0.288283f, -0.137885f, -0.009393f, -0.141405f, 0.107349f, -0.124366f, 0.203191f, 0.116477f, 0.153418f, 0.191126f, 0.145233f, 0.029696f, 0.015102f, 0.097010f, -0.023165f, -0.052302f, 0.066531f, -0.196660f, 0.076248f, -0.040124f, 0.107411f, -0.077637f, 0.190161f, 0.037886f, -0.085924f, 0.100825f, 0.081991f, -0.187183f, -0.053563f, 0.194414f, 0.269226f, -0.000000f, 0.191375f, 0.015800f, 0.199340f, 0.047026f, 0.165866f, 0.030233f, 0.016189f, -0.045331f, 0.021338f, 0.076917f, 0.162193f, 0.119031f, 0.072110f, 0.136777f, -0.113698f, 0.071063f, -0.054201f, -0.082910f, -0.023408f, -0.027900f, 0.019647f, 0.118324f, -0.010636f, 0.267591f, 0.056497f, -0.129316f, 0.010444f, -0.283178f, 0.165063f, 0.147790f, 0.212502f, 0.066544f, -0.053459f, 0.094001f, 0.140656f, -0.034914f, 0.123411f, 0.027690f, 0.104763f, 0.015688f, 0.093154f, 0.003593f, 0.035593f, -0.059023f, -0.227244f, -0.024748f, -0.206021f, 0.199143f, -0.134527f, 0.106871f, 0.151460f, 0.041015f, 0.063403f, -0.161247f, -0.024554f, -0.052560f, -0.094634f, 0.004112f, -0.137346f, 0.230861f, 0.159340f, -0.073485f, -0.200811f, -0.122861f, -0.036099f, 0.163439f, -0.131734f, -0.135732f, 0.142903f, 0.023450f, 0.104935f, -0.069567f, -0.231413f, -0.037115f, -0.048736f, -0.110178f, 0.037223f, 0.095055f, 0.034834f, -0.114613f, 0.130715f, -0.175218f, 0.064805f, 0.100138f, -0.174852f, -0.036186f, 0.208161f, 0.134221f, -0.016730f, 0.201344f, 0.213885f, 0.173125f, 0.240622f, -0.204974f, 0.110217f, 0.083975f, 0.044908f, 0.196930f, -0.176214f, 0.000000f, 0.074217f, -0.086744f, -0.144312f, 0.047386f, -0.045058f, 0.133043f, -0.047617f, 0.157167f, 0.206173f, -0.135323f, -0.150640f, 0.213635f, 0.018217f, 0.192605f, 0.017556f, 0.193981f, -0.004957f, -0.015122f, -0.160884f, -0.026090f, -0.210532f, -0.119184f, 0.132703f, -0.194227f, -0.095852f, 0.190169f, 0.118464f, 0.114814f, -0.129446f, -0.039308f, 0.058875f, 0.251103f, -0.037858f, -0.085040f, -0.158875f, 0.083226f, -0.032628f, -0.236095f, -0.023543f, -0.120063f, 0.091365f, -0.118409f, -0.206733f, 0.062300f, 0.124665f, -0.022007f, 0.102243f, -0.024100f, 0.006611f, 0.185051f, 0.102244f, -0.270179f, 0.128080f, -0.043669f, 0.196864f, -0.121719f, -0.076117f, -0.222375f, -0.058807f, -0.199706f, 0.031429f, 0.167148f, 0.087421f, 0.220277f, -0.103789f, 0.198905f, -0.065623f, 0.156566f, 0.018611f, -0.115471f, -0.168493f, -0.233326f, -0.230707f, -0.064709f, -0.183084f, -0.174695f, 0.111431f, -0.026927f, 0.080127f, 0.041886f, -0.021783f, -0.049634f, 0.030305f, 0.115262f, 0.010310f, 0.237246f, -0.177752f, 0.115294f, -0.207530f, 0.043708f, -0.202328f, 0.036624f, -0.223586f, 0.189909f, 0.222896f, 0.138572f, 0.192875f, -0.181234f, -0.125078f, -0.000000f, 0.017508f, 0.231061f, 0.199607f, 0.117622f, 0.133186f, 0.191320f, -0.083046f, -0.079101f, -0.174693f, -0.212230f, 0.121513f, -0.141728f, -0.120451f, 0.120558f, -0.115536f, 0.168431f, -0.095395f, 0.004067f, -0.047894f, 0.212156f, 0.013573f, 0.009291f, -0.042858f, 0.231739f, -0.236836f, 0.102879f, 0.210749f, -0.210411f, 0.022768f, -0.125107f, 0.202607f, 0.011259f, 0.137606f, -0.001804f, 0.017013f, -0.130801f, -0.223861f, 0.011073f, -0.091425f, 0.016909f, 0.159534f, -0.039564f, -0.115993f, -0.083328f, 0.171818f, 0.250222f, 0.173558f, 0.178580f, -0.084020f, -0.161527f, -0.145661f, -0.024810f, -0.154704f, 0.140129f, -0.019070f, 0.158809f, -0.149586f, 0.148097f, -0.109539f, 0.097033f, -0.042417f, -0.225352f, -0.152644f, 0.120680f, 0.024385f, 0.021350f, -0.151179f, 0.025993f, 0.231593f, 0.191416f, 0.086380f, 0.223959f, 0.163153f, 0.039666f, -0.187597f, -0.221380f, -0.168871f, -0.055516f, -0.047817f, 0.214421f, -0.156456f, 0.210620f, 0.179155f, 0.164709f, 0.061178f, 0.045931f, -0.028748f, -0.219089f, -0.049386f, -0.015196f, 0.052528f, 0.021783f, 0.009391f, -0.172277f, -0.234596f, 0.137355f, -0.049034f, 0.151010f, -0.173667f, 0.000000f, -0.011062f, 0.100132f, 0.004821f, -0.135312f, -0.095906f, 0.011619f, 0.032370f, 0.123440f, -0.149445f, -0.185552f, -0.017387f, 0.105591f, -0.208953f, 0.126745f, 0.051295f, -0.016462f, 0.221160f, 0.018595f, -0.232039f, -0.031141f, 0.168781f, 0.165951f, 0.042980f, 0.086794f, 0.031868f, -0.134999f, -0.006778f, 0.075514f, -0.061731f, 0.149538f, -0.154129f, 0.087590f, -0.183679f, 0.181720f, -0.064899f, 0.136675f, -0.060190f, -0.122781f, 0.153500f, -0.049605f, 0.153628f, 0.119865f, -0.178211f, -0.157790f, -0.134441f, -0.200746f, -0.050092f, -0.180100f, -0.180868f, 0.104957f, 0.172176f, -0.175543f, -0.132738f, -0.151356f, 0.179027f, 0.106379f, 0.052207f, -0.053758f, 0.105839f, 0.063206f, 0.191606f, 0.181712f, -0.016603f, -0.212425f, 0.194374f, -0.193638f, -0.165714f, 0.007507f, 0.037732f, -0.133098f, 0.163357f, -0.217019f, 0.074776f, 0.123398f, -0.182380f, 0.159316f, 0.055864f, 0.172843f, -0.015128f, -0.164325f, 0.124247f, 0.248762f, -0.074304f, 0.105374f, -0.273052f, 0.103293f, -0.088940f, -0.073914f, -0.024662f, -0.115189f, 0.211161f, -0.031070f, 0.100202f, -0.039643f, -0.145121f, -0.058441f, -0.182492f, 0.072518f, -0.180202f, -0.000000f, -0.166820f, 0.212737f, -0.242233f, 0.194323f, -0.180437f, 0.011538f, -0.188660f, 0.168857f, -0.142468f, 0.055858f, 0.136425f, -0.143184f, 0.037310f, -0.190938f, 0.105338f, 0.058278f, -0.176354f, 0.159681f, -0.214851f, 0.220553f, 0.100828f, 0.003957f, 0.145144f, 0.080610f, 0.286065f, -0.091984f, -0.224362f, 0.341942f, 0.206006f, 0.107075f, -0.034190f, 0.060079f, 0.135491f, 0.019271f, 0.113706f, -0.003046f, 0.134147f, 0.002329f, 0.066318f, -0.261719f, 0.161084f, 0.221828f, -0.193833f, -0.198001f, -0.073031f, -0.114005f, 0.185963f, -0.019624f, -0.048619f };
static const float MLP_layer_1_biases[26] = { 0.162876f, -0.155982f, 0.209638f, -0.113712f, 0.005862f, 0.082998f, 0.131796f, -0.106882f, 0.069929f, -0.081948f, 0.284346f, 0.161848f, -0.049905f, 0.173293f, 0.143026f, 0.190500f, -0.124138f, -0.050546f, -0.221889f, -0.086473f, -0.024237f, 0.079088f, -0.006611f, 0.133431f, -0.052527f, -0.113041f };
static const float MLP_layer_1_weights[2600] = { 0.171373f, -0.198713f, 0.079461f, 0.138429f, -0.043026f, 0.160529f, -0.071198f, 0.036424f, 0.090571f, -0.103738f, -0.117695f, 0.013135f, 0.183087f, -0.037408f, 0.148319f, -0.111906f, -0.040164f, -0.158752f, 0.112726f, 0.091493f, 0.070642f, -0.105497f, 0.037878f, -0.089741f, 0.014062f, -0.013524f, -0.062073f, -0.203296f, 0.082539f, 0.056011f, 0.049975f, 0.045700f, -0.141889f, -0.201539f, 0.017879f, 0.180988f, -0.063360f, 0.014091f, -0.036713f, 0.025635f, -0.122555f, -0.037161f, -0.078946f, 0.184120f, 0.135527f, -0.035409f, 0.063843f, -0.118352f, 0.001733f, -0.048471f, 0.202321f, 0.116344f, 0.067722f, -0.232110f, 0.037666f, 0.187622f, 0.160086f, 0.043246f, -0.094173f, 0.076763f, 0.061714f, 0.046691f, -0.135207f, 0.068619f, 0.119380f, 0.080207f, 0.033532f, 0.158987f, -0.165501f, 0.144119f, -0.179120f, -0.102718f, -0.073641f, -0.197954f, -0.020533f, -0.204042f, -0.044748f, -0.234130f, 0.093934f, 0.049137f, -0.032105f, -0.173843f, 0.073933f, -0.095505f, 0.165379f, 0.024574f, 0.009896f, -0.169694f, 0.169580f, 0.022599f, -0.133600f, -0.002906f, -0.035076f, 0.010040f, 0.240671f, -0.096122f, 0.143083f, 0.033830f, 0.083319f, -0.115435f, -0.188361f, 0.200767f, -0.149168f, 0.247292f, -0.003830f, -0.130833f, 0.185755f, -0.227272f, -0.027527f, -0.146660f, 0.050649f, -0.076498f, 0.024619f, 0.236799f, 0.073938f, -0.303457f, 0.065244f, 0.086581f, -0.054888f, -0.022523f, -0.173194f, -0.121851f, -0.147337f, 0.072518f, -0.036517f, -0.040613f, 0.096766f, -0.018564f, -0.002802f, -0.000557f, -0.173247f, -0.268387f, -0.129981f, -0.153842f, -0.043356f, 0.180513f, -0.206494f, 0.033434f, -0.017869f, 0.033590f, -0.059150f, -0.119084f, -0.056995f, 0.187773f, -0.177621f, 0.121999f, -0.063629f, -0.118133f, -0.148488f, -0.020773f, -0.165221f, 0.159104f, -0.153064f, -0.193335f, -0.169487f, -0.134244f, -0.000000f, -0.019982f, -0.331064f, 0.084546f, 0.191569f, 0.134710f, -0.590949f, 0.153967f, -0.000019f, 0.251172f, -1.322444f, -0.066826f, -0.000000f, -0.000002f, -0.000000f, -0.002816f, -0.000000f, 0.098517f, -0.139407f, -0.199447f, -0.243300f, -0.044187f, -0.217532f, -0.000000f, -0.012941f, -0.208380f, 0.167802f, -0.163078f, 0.002021f, 0.017842f, -0.005511f, -0.185131f, 0.119621f, 0.158420f, 0.171193f, -0.038367f, -0.057686f, -0.191061f, -0.007941f, 0.184582f, -0.060463f, 0.056886f, -0.056636f, 0.064590f, -0.037190f, 0.143219f, 0.060302f, 0.028529f, -0.082297f, -0.173552f, -0.149405f, -0.187060f, -0.218518f, 0.057725f, 0.079822f, -0.014934f, 0.083022f, -0.003524f, -0.156923f, -0.220750f, -0.086898f, 0.002494f, -0.279481f, 0.084429f, -0.024161f, 0.017798f, -0.048954f, 0.117526f, -0.052640f, -0.262968f, 0.135427f, 0.061481f, 0.092985f, 0.141963f, -0.260968f, -0.089047f, -0.146917f, -0.075211f, 0.160288f, 0.153399f, 0.037613f, -0.178347f, 0.117628f, 0.134747f, -0.209537f, -0.050272f, -0.078830f, 0.242306f, 0.095955f, 0.050097f, 0.202142f, -0.081187f, 0.203365f, -0.031771f, -0.099023f, 0.137199f, 0.094657f, -0.182773f, 0.107617f, 0.043326f, -0.021399f, 0.135747f, -0.061207f, 0.071848f, 0.100039f, -0.266692f, -0.214903f, 0.208282f, 0.025904f, -0.016794f, -0.164041f, -0.140733f, 0.166827f, 0.051761f, -0.176382f, 0.215460f, -0.140284f, 0.108952f, 0.115603f, -0.042573f, 0.013136f, -0.113577f, 0.017547f, 0.072897f, -0.012321f, 0.285522f, -0.035248f, -0.136254f, -0.085414f, -0.009452f, -0.118842f, -0.124042f, -0.111016f, 0.120464f, 0.030726f, 0.178129f, -0.058580f, -0.015084f, 0.070641f, 0.042943f, -0.104480f, 0.148507f, 0.183670f, 0.052754f, -0.097757f, 0.156295f, -0.185569f, -0.080911f, 0.184641f, 0.035777f, 0.194395f, 0.064645f, 0.127790f, 0.205685f, -0.034195f, -0.125208f, 0.106968f, -0.103832f, -0.106279f, 0.017501f, -0.229929f, -0.137478f, 0.093336f, -0.216740f, -0.106286f, -0.185586f, 0.132189f, -0.072503f, -0.100562f, 0.213510f, 0.013667f, -0.002483f, 0.062555f, -0.159734f, -0.031348f, -0.052831f, -0.159481f, -0.000396f, 0.014080f, -0.224655f, 0.261327f, 0.051456f, 0.109701f, 0.146655f, -0.320884f, -0.011200f, 0.036080f, 0.112241f, -0.173688f, 0.056344f, 0.003107f, 0.139990f, -0.010394f, -0.206303f, 0.202505f, 0.061188f, 0.194867f, -0.075897f, -0.408363f, -0.085321f, -0.145380f, 0.042137f, -0.022390f, 0.050201f, 0.016074f, -0.213648f, -0.218384f, -0.189115f, -0.009010f, 0.108794f, -0.013292f, 0.056927f, -0.063990f, -0.096482f, -0.512525f, 0.114425f, -0.000000f, -0.325973f, -0.069348f, 0.124578f, -0.000000f, -0.689866f, -0.000000f, 0.058259f, -0.041035f, 0.156038f, -0.000000f, -0.128872f, -0.347008f, 0.326276f, 0.488924f, -0.007382f, -0.000011f, -0.182768f, 0.167093f, -0.145561f, 0.181588f, -0.108908f, 0.184495f, 0.072907f, -0.094521f, -0.177791f, 0.097135f, -0.060497f, 0.084669f, -0.023642f, 0.181247f, 0.022663f, -0.106549f, -0.074996f, -0.106979f, 0.181456f, -0.069451f, 0.206117f, -0.062340f, -0.151321f, -0.174865f, -0.037797f, -0.143567f, 0.065517f, 0.003405f, 0.143112f, 0.159922f, -0.189809f, -0.080727f, -0.036418f, 0.044450f, 0.199646f, -0.038343f, -0.044214f, -0.063601f, 0.216211f, -0.226177f, 0.217405f, -0.216409f, 0.068095f, -0.037670f, 0.274439f, -0.267121f, -0.119769f, 0.211061f, 0.095056f, -0.104472f, -0.172929f, -0.105990f, -0.150896f, -0.125172f, 0.102955f, 0.193285f, 0.062934f, -0.017166f, 0.127748f, 0.052760f, -0.070531f, -0.070467f, 0.242893f, -0.183265f, -0.111099f, -0.113934f, 0.139808f, -0.024619f, -0.091925f, 0.114944f, -0.207047f, -0.161493f, 0.163805f, 0.057392f, 0.000424f, -0.195231f, 0.081651f, 0.106573f, -0.062346f, -0.173627f, 0.098736f, 0.059279f, 0.083638f, -0.174636f, 0.012512f, 0.020972f, -0.058057f, -0.165474f, -0.147588f, -0.077477f, -0.031917f, 0.167896f, 0.024462f, 0.101512f, -0.233970f, 0.095507f, -0.008262f, -0.073966f, -0.099511f, -0.241988f, 0.081663f, 0.255389f, 0.200913f, -0.012390f, 0.149478f, 0.000007f, 0.142101f, -0.053035f, 0.008023f, 0.101451f, -0.189775f, -0.025554f, -0.078633f, 0.008083f, 0.192876f, -0.030209f, -0.008397f, -0.000000f, 0.029178f, -0.000000f, 0.049111f, -0.000000f, -0.148313f, -0.052451f, -0.118399f, -0.076776f, 0.259420f, 0.074930f, -0.003752f, -0.003915f, -0.038994f, -0.000000f, 0.215191f, 0.108839f, -0.198550f, -0.126544f, -0.198661f, 0.154725f, -0.135608f, 0.011368f, -0.100225f, -0.246740f, -0.049329f, -0.000000f, -0.083517f, -0.000000f, -0.113002f, -0.000000f, 0.030926f, -0.076019f, 0.061885f, 0.193156f, 0.095001f, 0.019673f, -0.000000f, -0.057817f, 0.139299f, -0.000000f, 0.247147f, -0.072235f, 0.098246f, -0.224631f, 0.104040f, -0.041337f, -0.237683f, -0.032689f, -0.018329f, -0.014733f, -0.265744f, -0.023733f, 0.096663f, -0.039621f, 0.146688f, -0.000000f, -0.135986f, 0.142741f, 0.088468f, 0.139831f, 0.185688f, 0.163466f, -0.410091f, 0.156550f, -0.199786f, -0.000000f, -0.178665f, -0.144244f, 0.045636f, -0.000124f, -0.000037f, 0.037661f, -0.013835f, -0.002480f, 0.024391f, -0.125252f, -0.010046f, -0.000000f, -0.215621f, -0.000000f, -0.000442f, -0.000000f, -0.031375f, 0.055966f, -0.000000f, 0.032500f, -0.197017f, -0.121851f, 0.000000f, -0.062566f, -0.000000f, -0.000000f, 0.197831f, -0.096740f, -0.014926f, 0.067199f, -0.031046f, 0.012077f, 0.190071f, -0.000414f, -0.004245f, -0.004885f, -0.174910f, -0.000000f, -0.059705f, 0.000000f, 0.158810f, -0.000000f, 0.114720f, 0.163374f, 0.162080f, -0.236362f, -0.237332f, -0.213461f, -0.000020f, -0.023068f, -0.126011f, -0.073606f, 0.225731f, -0.056749f, -0.116787f, 0.042223f, 0.068011f, -0.212478f, 0.087785f, 0.169355f, 0.165746f, 0.092511f, -0.112408f, -0.024349f, -0.194969f, -0.108053f, 0.168560f, -0.118850f, 0.232318f, 0.149506f, 0.175173f, -0.134640f, 0.199045f, 0.067074f, -0.097817f, -0.087480f, -0.159417f, -0.028453f, -0.192931f, -0.189518f, -0.156343f, 0.117526f, 0.016272f, 0.209732f, -0.138599f, 0.088258f, -0.140432f, -0.135778f, 0.072843f, 0.195558f, -0.234305f, -0.076127f, -0.094937f, -0.173049f, -0.288525f, -0.022115f, -0.211403f, -0.137525f, -0.070639f, -0.261088f, -0.056739f, 0.080368f, -0.026051f, 0.086209f, -0.088638f, 0.105491f, -0.050323f, -0.191370f, -0.116612f, 0.088301f, 0.092101f, 0.225983f, -0.072661f, 0.116141f, -0.099608f, -0.193415f, -0.168862f, 0.043975f, -0.205264f, 0.015870f, -0.190974f, 0.310950f, -0.243063f, 0.159074f, 0.002833f, -0.084946f, 0.137175f, -0.099674f, -0.166282f, 0.076485f, -0.076784f, -0.139682f, -0.040795f, -0.043144f, 0.113354f, -0.069864f, -0.050880f, -0.097363f, 0.107957f, 0.223457f, -0.069565f, 0.123061f, -0.092231f, -0.173315f, -0.147704f, 0.215816f, 0.097763f, -0.056516f, 0.213740f, 0.087051f, -0.081939f, -0.095281f, 0.072294f, -0.099685f, -0.167700f, -0.118365f, -0.167074f, 0.196738f, -0.016650f, -0.139122f, 0.066559f, -0.126234f, -0.223047f, -0.056296f, -0.207448f, -0.058880f, 0.236361f, -0.527366f, 0.257836f, -0.183383f, -0.177192f, 0.092518f, 0.108736f, 0.304754f, 0.054787f, -0.332803f, 0.075541f, 0.056378f, -0.023216f, 0.142559f, 0.175444f, 0.168494f, 0.008815f, 0.036691f, -0.026420f, 0.080619f, 0.057686f, 0.034249f, 0.095741f, 0.020164f, 0.173191f, -0.022619f, -0.107908f, 0.214131f, 0.114005f, -0.069817f, 0.073903f, 0.225935f, -0.154102f, -0.194641f, 0.044587f, -0.066806f, 0.092477f, 0.036750f, 0.118392f, -0.138059f, -0.140918f, -0.117378f, -0.104655f, -0.257237f, -0.050014f, 0.048329f, -0.165421f, 0.156033f, 0.222156f, 0.016561f, 0.154956f, -0.095725f, 0.182581f, -0.000000f, -0.098523f, 0.000000f, -0.015944f, 0.010388f, -0.116869f, 0.077954f, 0.095497f, -0.304559f, -0.054627f, 0.078610f, 0.098302f, -0.180023f, 0.102074f, -0.055124f, 0.051636f, -0.172388f, -0.206420f, 0.212515f, 0.032302f, -0.016725f, -0.155657f, 0.086349f, -0.159434f, -0.193120f, -0.080428f, 0.026636f, 0.085431f, 0.170513f, 0.193914f, 0.092333f, -0.024626f, -0.027078f, 0.210333f, -0.199942f, 0.071315f, -0.150850f, 0.054944f, 0.127921f, -0.071042f, -0.181457f, 0.027667f, 0.145133f, 0.106440f, -0.176475f, 0.158530f, -0.064728f, 0.165542f, 0.048753f, -0.103009f, -0.078033f, 0.174828f, 0.073882f, 0.132937f, -0.074587f, -0.023323f, 0.009304f, 0.054126f, -0.146093f, -0.063711f, -0.049606f, 0.146362f, 0.227152f, -0.145226f, 0.024782f, -0.086647f, -0.000398f, -0.089144f, 0.008142f, -0.087621f, -0.113625f, 0.162120f, 0.113056f, 0.027232f, -0.102559f, 0.254099f, 0.178201f, 0.130812f, -0.000076f, 0.108723f, -0.000000f, 0.014378f, -0.000777f, 0.129251f, -0.079860f, -0.003564f, 0.247373f, 0.062697f, -0.180731f, -0.972955f, -0.107643f, -0.212233f, -0.159764f, 0.131817f, -0.165524f, -0.138545f, 0.149433f, 0.186613f, 0.035561f, 0.176485f, -0.188318f, 0.209010f, -0.022352f, 0.162356f, 0.173405f, 0.163617f, -0.021323f, 0.161293f, -0.120746f, 0.225026f, 0.035292f, 0.211152f, -0.158878f, 0.124785f, 0.031882f, 0.053488f, -0.085104f, -0.062042f, -0.041734f, -0.201338f, 0.089031f, -0.047609f, -0.000918f, 0.001034f, 0.075073f, 0.188503f, -0.002616f, -0.044487f, 0.104243f, -0.096395f, -0.000000f, 0.117230f, -0.000000f, -0.179174f, -0.110428f, -0.309840f, 0.041944f, -0.230175f, -0.109396f, 0.093738f, 0.096054f, -0.019715f, -0.045159f, -0.076839f, 0.196576f, 0.002650f, -0.089729f, -0.235672f, 0.217618f, 0.021585f, 0.037216f, 0.037113f, -0.004146f, -0.326584f, 0.192555f, 0.076852f, 0.155222f, 0.178286f, -0.175312f, -0.010283f, -0.198969f, 0.128084f, -0.125225f, 0.051691f, -0.159039f, -0.167659f, -0.165946f, 0.145168f, -0.139495f, 0.155100f, -0.194411f, 0.073205f, -0.094372f, -0.075752f, -0.082280f, -0.141279f, -0.146936f, 0.051105f, 0.106526f, 0.046633f, 0.117569f, -0.221454f, 0.143750f, 0.153141f, 0.094718f, -0.053663f, -0.010478f, 0.020465f, 0.146395f, 0.140683f, 0.097449f, -0.017328f, 0.113187f, 0.264557f, 0.106917f, 0.150336f, -0.055415f, 0.132480f, 0.179510f, -0.002215f, 0.134936f, 0.133932f, 0.163374f, -0.122354f, 0.014284f, 0.207396f, 0.004169f, 0.008871f, 0.182539f, -0.071414f, -0.063716f, 0.205800f, 0.161746f, 0.098953f, -0.176275f, -0.032601f, -0.161985f, -0.091899f, 0.030860f, 0.107822f, 0.032864f, -0.015941f, 0.032977f, 0.013347f, 0.002736f, 0.026052f, -0.015448f, 0.106085f, -0.068894f, 0.027538f, 0.246874f, -0.151574f, 0.039974f, -0.235567f, -0.006551f, 0.026655f, -0.081358f, 0.162254f, 0.063719f, -0.162945f, 0.102465f, -0.179368f, -0.019618f, -0.278025f, 0.003161f, -0.067594f, 0.108489f, 0.105862f, 0.011346f, 0.078987f, 0.100596f, 0.105813f, 0.071726f, -0.039614f, -0.016897f, 0.162372f, 0.091216f, -0.090029f, 0.072278f, 0.182718f, -0.151090f, 0.159541f, 0.155774f, 0.003212f, -0.180135f, -0.101353f, 0.150971f, -0.210307f, 0.001667f, 0.069291f, -0.146720f, 0.268177f, -0.108686f, 0.049436f, -0.042842f, -0.094288f, -0.025484f, 0.006300f, 0.108423f, 0.032556f, -0.084542f, 0.036346f, 0.039299f, 0.076368f, 0.148733f, -0.106647f, 0.038548f, 0.076991f, 0.291443f, -0.169766f, -0.035337f, 0.140733f, 0.017145f, 0.085932f, 0.028449f, 0.106241f, 0.164186f, -0.057658f, 0.180528f, 0.233720f, -0.231072f, -0.164912f, -0.260649f, 0.079849f, -0.215659f, 0.197394f, -0.022123f, 0.218324f, -0.159304f, -0.078059f, 0.245996f, 0.093229f, -0.040087f, -0.097124f, -0.000008f, 0.001849f, -0.082066f, -0.209181f, -0.214547f, -0.204295f, 0.078291f, 0.209987f, -0.128346f, -0.245222f, -0.025152f, 0.074270f, -0.000005f, 0.178096f, 0.142702f, 0.088722f, 0.226378f, -0.024549f, 0.029190f, -0.231267f, 0.267376f, -0.161062f, 0.035082f, 0.079556f, -0.027628f, -0.150923f, -0.748522f, -0.094610f, -0.000000f, -0.069817f, 0.118714f, -0.084352f, 0.146375f, 0.315627f, 0.002350f, -0.165015f, -0.073381f, -0.112383f, 0.015956f, -0.000023f, -0.104767f, 0.049656f, 0.045970f, 0.137741f, -0.149729f, 0.149903f, 0.111168f, 0.046566f, -0.232277f, -0.089844f, -0.050656f, -0.033972f, 0.004208f, 0.053544f, 0.194134f, 0.104564f, 0.174471f, 0.134153f, 0.000401f, -0.000000f, -0.000000f, -0.005466f, -0.088129f, 0.110908f, -0.193073f, -0.212032f, -0.157729f, 0.031394f, -0.157345f, -0.093873f, -0.171871f, -0.091471f, 0.197129f, 0.039504f, -0.056516f, 0.067167f, 0.186729f, 0.186792f, -0.027302f, -0.058385f, 0.145755f, -0.037542f, -0.096584f, -0.183164f, 0.134787f, -0.244984f, -0.105829f, 0.133845f, 0.176226f, 0.028283f, -0.104350f, 0.168478f, -0.247507f, 0.165763f, 0.010282f, 0.150294f, 0.002207f, -0.119057f, -0.255984f, 0.025165f, 0.233013f, -0.168492f, -0.497375f, -0.102993f, -0.040838f, 0.095746f, -0.003213f, -0.082107f, -0.218325f, -0.213633f, -0.038822f, 0.066441f, 0.170159f, -0.080816f, -0.068583f, 0.066841f, 0.117429f, 0.141892f, -0.032274f, -0.018676f, 0.056461f, -0.015445f, -0.056389f, -0.122600f, -0.118300f, 0.134481f, 0.115155f, 0.175844f, 0.016344f, -0.096483f, 0.054496f, -0.082324f, -0.178089f, 0.276765f, -0.022545f, -0.020231f, 0.106269f, 0.165075f, -0.241036f, -0.112184f, -0.036149f, -0.077428f, -0.035279f, 0.125714f, 0.231933f, 0.040829f, -0.152319f, -0.189014f, 0.167881f, -0.173923f, 0.168354f, 0.171610f, -0.033572f, -0.099427f, -0.493592f, -0.201345f, 0.130545f, -0.220511f, -0.180917f, -0.217629f, 0.034857f, -0.046833f, 0.019831f, -0.125966f, -0.095726f, 0.048453f, 0.056965f, -0.096810f, -0.201331f, -0.000000f, -0.219413f, -0.053936f, -0.151653f, -0.111362f, 0.154297f, -0.092807f, -0.163282f, 0.064578f, -0.157612f, 0.037127f, -0.163351f, 0.088268f, -0.013418f, 0.068852f, -0.042814f, -0.225321f, -0.359290f, 0.127298f, -0.180781f, -0.000000f, -0.000000f, 0.030066f, -0.048897f, -0.181166f, -0.000000f, 0.000000f, 0.000000f, 0.000000f, 0.000000f, 0.000000f, 0.000000f, 0.000000f, -0.000000f, -0.000000f, 0.000000f, -0.000000f, 0.000000f, -0.000000f, 0.000000f, -0.000000f, 0.000000f, -0.000000f, -0.000000f, 0.000000f, -0.000000f, -0.000000f, -0.000000f, -0.000000f, -0.000000f, 0.000000f, 0.178596f, 0.136754f, 0.116508f, 0.013787f, 0.128366f, 0.157613f, -0.171174f, -0.053756f, 0.051742f, 0.149007f, -0.118842f, -0.004587f, -0.098608f, -0.039774f, 0.022934f, 0.059267f, 0.018012f, 0.099111f, 0.025158f, -0.019367f, -0.168310f, -0.178717f, -0.107913f, -0.111175f, 0.088984f, 0.078899f, 0.052870f, -0.128994f, 0.185405f, -0.180725f, -0.270568f, 0.045991f, -0.100210f, 0.053834f, -0.568526f, -0.272740f, 0.051084f, 0.134397f, -0.092468f, -0.257311f, -0.305103f, -0.010897f, -0.012252f, -0.147737f, 0.075391f, -0.018999f, 0.090591f, -0.096278f, 0.049862f, -0.206098f, -0.434170f, -0.043343f, -0.134833f, -0.004719f, 0.056130f, 0.086611f, -0.089156f, 0.189995f, 0.051860f, 0.021213f, 0.076865f, 0.024735f, 0.031513f, 0.050614f, -0.110151f, -0.111728f, -0.201775f, 0.002322f, -0.058827f, 0.012193f, -0.236404f, 0.045923f, -0.111612f, -0.046347f, 0.127712f, -0.014930f, 0.073460f, -0.076096f, 0.216832f, -0.091284f, 0.236271f, -0.200245f, -0.011026f, 0.118139f, 0.062239f, 0.046988f, -0.018390f, 0.107190f, 0.305492f, 0.034974f, -0.000121f, -0.136877f, -0.017765f, 0.041248f, 0.204924f, -0.289595f, 0.134708f, 0.014100f, -0.025977f, -0.024867f, -0.131431f, -0.082219f, -0.173245f, 0.127024f, 0.171186f, -0.033291f, 0.078475f, 0.015370f, -0.134236f, -0.083223f, 0.081593f, 0.166548f, -0.127995f, -0.046071f, 0.106850f, 0.013198f, -0.212669f, -0.144674f, -0.118870f, -0.006455f, 0.086833f, 0.086579f, 0.218640f, -0.047535f, 0.043210f, -0.148488f, -0.141423f, -0.082577f, 0.014704f, -0.082544f, -0.080575f, -0.149655f, 0.205016f, -0.033026f, 0.155864f, 0.083753f, -0.007176f, 0.086548f, 0.040886f, -0.134195f, 0.086157f, 0.131281f, -0.058956f, -0.157637f, -0.115798f, 0.159379f, 0.220431f, 0.083463f, -0.169458f, 0.108793f, 0.056266f, 0.132331f, 0.160373f, 0.237678f, 0.053183f, 0.188330f, 0.072095f, 0.037882f, 0.119037f, 0.159542f, 0.145450f, -0.062196f, -0.134904f, 0.195092f, -0.045230f, 0.034691f, 0.068706f, -0.176337f, 0.128577f, -0.252563f, 0.038108f, 0.001158f, 0.024242f, -0.130301f, -0.158528f, -0.029679f, 0.125866f, -0.003802f, 0.010085f, -0.054320f, 0.263871f, 0.066415f, -0.064466f, 0.074724f, 0.054970f, 0.192097f, -0.090909f, -0.161185f, -0.199843f, -0.087433f, 0.189659f, -0.073399f, 0.100037f, 0.067197f, -0.083228f, -0.192044f, 0.111613f, -0.149226f, -0.089562f, -0.016604f, 0.052378f, -0.174156f, 0.066998f, -0.157135f, 0.188123f, 0.127965f, 0.005502f, -0.211524f, 0.089383f, 0.107280f, -0.104726f, 0.091819f, -0.069350f, 0.183867f, 0.129009f, 0.068973f, 0.213292f, -0.044134f, 0.061735f, -0.017292f, 0.090521f, 0.041241f, 0.164155f, 0.086799f, -0.130272f, -0.004039f, -0.102608f, 0.187660f, -0.175180f, -0.019652f, -0.278973f, 0.016768f, 0.070417f, 0.062888f, 0.165282f, -0.000000f, -0.087233f, 0.128069f, 0.001668f, 0.047357f, -0.119402f, -0.037881f, 0.035001f, -0.110619f, -0.227649f, -0.088007f, -0.038605f, -0.239311f, 0.040338f, -0.166582f, -0.075718f, -0.005932f, -0.161052f, -0.128632f, -0.232611f, 0.000000f, 0.000000f, -0.071708f, -0.167786f, -0.004201f, -0.021934f, 0.225022f, -0.025881f, 0.018099f, 0.037458f, -0.162522f, 0.018970f, 0.070872f, -0.160768f, -0.037993f, -0.099608f, -0.166865f, -0.145217f, -0.015135f, 0.231410f, -0.006298f, -0.164245f, 0.132894f, 0.029068f, -0.075689f, 0.174532f, 0.140762f, -0.057928f, -0.095529f, 0.095055f, 0.192469f, -0.084802f, 0.031134f, -0.174796f, -0.153946f, 0.098392f, -0.176168f, -0.045517f, 0.051115f, -0.160454f, -0.136398f, -0.038287f, -0.035631f, -0.106793f, 0.121989f, -0.189529f, -0.109687f, 0.049427f, -0.129042f, 0.117424f, 0.092251f, -0.099257f, -0.121064f, 0.070595f, 0.015152f, 0.042189f, 0.181896f, -0.153468f, 0.062004f, -0.168955f, -0.198728f, -0.123401f, 0.119725f, -0.003187f, 0.044926f, -0.113687f, -0.090716f, -0.078476f, -0.002985f, -0.046275f, 0.167175f, 0.091144f, -0.101439f, -0.090546f, -0.110560f, 0.140250f, 0.203301f, 0.111600f, -0.040633f, -0.109372f, 0.041067f, 0.068257f, -0.109491f, -0.172474f, 0.022985f, -0.164394f, 0.128042f, 0.119627f, 0.067001f, 0.034169f, 0.111517f, -0.065269f, 0.111015f, 0.204481f, -0.102508f, -0.093893f, -0.076243f, -0.072943f, 0.027790f, -0.156955f, 0.078282f, -0.161604f, -0.007329f, 0.024620f, -0.041161f, -0.096026f, -0.117456f, -0.145932f, 0.046516f, -0.000000f, -0.125708f, -0.155652f, -0.109068f, 0.124186f, -0.161939f, -0.014685f, 0.010101f, -0.021870f, -0.081567f, 0.123427f, 0.002291f, -0.000000f, -0.034563f, -0.000000f, 0.012866f, -0.000000f, -0.088605f, -0.040369f, -0.179197f, -0.057246f, -0.074504f, 0.141426f, -0.000000f, -0.000000f, -0.070166f, 0.076673f, -0.159521f, -0.127937f, 0.052040f, 0.091165f, 0.027765f, 0.175266f, -0.181754f, 0.092229f, 0.151807f, -0.078882f, -0.076096f, 0.029304f, -0.026794f, 0.107790f, -0.158187f, -0.116340f, 0.121643f, 0.197308f, 0.181710f, 0.219437f, -0.141097f, -0.154952f, -0.141984f, 0.046179f, 0.202276f, -0.000064f, 0.125557f, -0.184659f, 0.173770f, -0.160408f, -0.207822f, -0.073187f, 0.004549f, 0.075136f, -0.102917f, -0.148224f, -0.180663f, -0.000000f, -0.126382f, -0.000000f, -0.102565f, -0.000045f, 0.171760f, 0.124543f, -0.217630f, 0.122475f, -0.117830f, 0.143149f, -0.199614f, -0.170669f, -0.104839f, -0.090676f, -0.064466f, -0.206249f, -0.183828f, -0.045744f, 0.195748f, -0.173029f, 0.083360f, -0.097649f, -0.262802f, -0.245238f, -0.171748f, 0.032007f, 0.081854f, 0.121773f, -0.106491f, -0.043956f, 0.179102f, 0.113899f, -0.113368f, -0.167046f, -0.174472f, 0.116952f, -0.040998f, -0.101394f, -0.131733f, 0.155724f, -0.042594f, -0.087488f, -0.117057f, 0.005975f, -0.212956f, -0.101387f, -0.042200f, -0.100497f, -0.115718f, -0.066392f, 0.062256f, 0.171424f, -0.045830f, 0.061310f, -0.054682f, -0.123480f, -0.252962f, 0.025542f, 0.047914f, -0.174552f, -0.000902f, -0.040802f, -0.186246f, 0.165174f, -0.044703f, 0.035867f, 0.122004f, 0.223565f, -0.014788f, 0.168881f, -0.054369f, -0.000546f, 0.154299f, 0.048788f, -0.171138f, 0.126739f, -0.060247f, -0.019106f, 0.058618f, -0.117081f, 0.059426f, 0.208131f, -0.008893f, -0.154524f, -0.042304f, 0.191880f, 0.158883f, 0.171418f, -0.147025f, -0.173706f, 0.262146f, -0.182851f, -0.072271f, 0.113296f, 0.079101f, -0.018926f, 0.120198f, -0.202463f, 0.119851f, 0.176124f, 0.131424f, -0.002559f, -0.356210f, -0.039775f, -0.257869f, -0.183665f, -0.014731f, -0.825759f, 0.052585f, -1.127925f, -0.687840f, -0.457855f, -0.143003f, 0.260349f, -0.660437f, 0.042319f, -0.033510f, -0.585473f, -0.142837f, 0.120104f, -0.017640f, -0.153878f, -0.284041f, -0.048316f, -0.194566f, -1.172931f, -0.103510f, -0.094586f, 0.154254f, -0.372763f, -0.367183f, -1.422671f, 0.159076f, -0.217766f, -0.126757f, -0.061801f, -0.051361f, -0.156532f, 0.110589f, 0.124025f, -0.557214f, 0.314152f, 0.136463f, -0.050905f, 0.091204f, 0.101715f, 0.118748f, -0.037490f, -0.041649f, 0.078041f, 0.062316f, 0.225501f, 0.201061f, -0.081631f, -0.101914f, 0.089179f, 0.130205f, 0.083723f, 0.139434f, -0.118363f, -0.045918f, -0.029069f, -0.107270f, 0.072807f, 0.109958f, -0.126579f, 0.066561f, 0.171075f, -0.046467f, -0.203000f, 0.136537f, 0.075412f, -0.225982f, 0.123712f, -0.074172f, 0.238711f, -0.097927f, -0.177353f, -0.138228f, 0.033860f, 0.155563f, -0.036533f, -0.071314f, 0.211226f, 0.006847f, -0.157897f, -0.185466f, 0.099678f, 0.220069f, 0.160300f, 0.064999f, 0.114407f, 0.169837f, -0.143961f, -0.069547f, 0.045802f, 0.264151f, 0.091085f, -0.112618f, 0.122388f, 0.220291f, -0.031829f, -0.167484f, 0.003373f, -0.137546f, 0.095862f, -0.072290f, -0.160541f, -0.083924f, -0.241542f, 0.139596f, 0.067992f, -0.042305f, -0.312258f, -0.290268f, -0.149333f, -0.195464f, 0.051486f, -0.020839f, -0.077970f, -0.098097f, -0.101306f, -0.060968f, -0.069861f, -0.117483f, 0.100268f, -0.218509f, -0.060904f, 0.119903f, 0.192388f, 0.172446f, -0.085705f, -0.167321f, -0.136622f, 0.181782f, -0.098329f, 0.127242f, -0.080591f, -0.138362f, 0.084378f, 0.089356f, -0.135018f, -0.049023f, 0.180325f, -0.096610f, -0.136455f, 0.081516f, 0.199540f, -0.227827f, -0.022760f, 0.045590f, -0.189388f, -0.240231f, 0.201203f, -0.156757f, -0.138886f, 0.064380f, -0.023334f, -0.168558f, 0.043555f, -0.048158f, -0.257389f, 0.212202f, -0.106729f, 0.146208f, 0.117085f, 0.166864f, -0.091223f, -0.104902f, -0.230603f, 0.225120f, 0.178579f, 0.073305f, -0.000000f, -0.108124f, -0.011261f, -0.123490f, -0.107759f, -0.154386f, -0.165513f, -0.035497f, 0.022618f, -0.017713f, 0.122824f, -0.171795f, 0.097380f, 0.095774f, -0.000000f, -0.050321f, -0.000000f, 0.062995f, -0.220922f, 0.178689f, -0.394511f, 0.175824f, 0.012061f, -0.000000f, -0.000000f, -0.184417f, 0.023420f, -0.164141f, -0.001424f, 0.301702f, 0.175175f, -0.169215f, 0.065531f, 0.097203f, 0.220184f, -0.120621f, 0.073417f, 0.032894f, 0.096137f, 0.026691f, 0.117644f, -0.057693f, -0.187788f, 0.008160f, -0.073962f, -0.073775f, -0.024249f, -0.006262f, -0.083789f, 0.193297f, -0.010632f, 0.118519f, 0.175860f, 0.046486f, -0.033788f, 0.073287f, 0.002460f, -0.038727f, 0.058686f, 0.153229f, 0.041704f, -0.097339f, 0.081945f, -0.088660f, -0.231315f, 0.107762f, -0.054758f, 0.084785f, -0.052369f, -0.068119f, -0.111502f, -0.237964f, 0.084509f, 0.126548f, -0.179389f, -0.099402f, -0.009175f, 0.064564f, 0.085042f, -0.147839f, -0.169448f, -0.074108f, -0.134367f, -0.242831f, 0.110327f, 0.182586f, -0.038260f, -0.060839f, 0.116812f, 0.201388f, 0.129948f, 0.098370f, -0.000027f, 0.116795f, -0.094798f, -0.070240f, 0.124256f, 0.188120f, -0.114341f, -0.152208f, -0.207840f, 0.005487f, -0.079233f, 0.106417f, 0.092698f, -0.163089f, -0.155632f, 0.151720f, -0.060331f, -0.006819f, 0.231707f, 0.072727f, -0.044460f, -0.160803f, 0.081743f, -0.037348f, -0.215663f, 0.137156f, -0.028070f, 0.010725f, 0.128583f, 0.222185f, 0.035009f, -0.074249f, -0.123860f, -0.161606f, -0.092520f, 0.120691f, 0.134814f, -0.103031f, -0.230449f, -0.000270f, -0.058817f, 0.022758f, -0.301999f, -0.120348f, -0.009950f, -0.124013f, 0.033848f, 0.070927f, -0.322482f, -0.042703f, -0.079985f, 0.253874f, 0.050202f, 0.234436f, 0.087679f, -0.091112f, -0.027473f, -0.251151f, -0.121028f, -0.076769f, 0.100636f, -0.201901f, -0.157568f, -0.135769f, -0.000000f, 0.037591f, -0.190736f, 0.207548f, -0.088377f, -0.296150f, 0.083232f, -0.129923f, -0.000232f, 0.040403f, 0.120709f, 0.199314f, -0.000000f, -0.187168f, -0.000000f, -0.123751f, -0.000000f, -0.619172f, -0.151651f, -0.129028f, 0.317866f, 0.006746f, 0.115380f, -0.000004f, -0.017667f, -0.577416f, 0.070212f, -0.183042f, 0.197685f, 0.118451f, 0.089885f, 0.090613f, -0.175216f, 0.061169f, -0.145225f, 0.124436f, -0.211494f, 0.143505f, 0.016064f, -0.148218f, 0.136526f, -0.069873f, 0.178376f, -0.117039f, 0.186822f, 0.199508f, -0.076541f, 0.133232f, 0.180477f, 0.014509f, -0.018380f, -0.051400f, -0.000000f, -0.080264f, 0.144092f, -0.020912f, 0.166107f, 0.133024f, -0.201512f, 0.005230f, 0.020068f, 0.019230f, -0.209548f, -0.044127f, -0.000000f, -0.223897f, -0.000009f, 0.053927f, -0.000000f, -0.057260f, -0.089305f, -0.003994f, 0.220298f, -0.036380f, 0.123898f, -0.030969f, -0.018529f, 0.048152f, -0.127951f, 0.218032f, 0.047675f, 0.074939f, -0.054196f, 0.079607f, -0.134708f, 0.104356f, -0.165916f, -0.086324f, -0.034331f, 0.007690f, -0.024393f, 0.133354f, 0.249008f, -0.050449f, 0.103990f, -0.046173f, 0.049869f, -0.160186f, -0.226038f, 0.068661f, 0.098088f, -0.035285f, 0.077913f, -0.128094f, -0.155903f, -0.066251f, -0.213087f, -0.221362f, -0.062434f, 0.185516f, 0.112041f, 0.004599f, -0.095931f, -0.058518f, 0.142346f, -0.029480f, -0.092003f, -0.219244f, 0.244006f, -0.066881f, -0.177439f, -0.169354f, 0.049837f, 0.057819f, -0.061858f, 0.000484f, -0.093986f, -0.083921f, -0.185077f, 0.051845f, -0.111944f, 0.057443f, 0.266829f, -0.096422f, 0.200890f, 0.056104f, -0.190019f, 0.079787f, 0.244792f, 0.088379f, 0.122945f, -0.183244f, 0.223370f, -0.151943f, -0.175009f, 0.080499f, 0.154122f, 0.135793f, -0.241239f, -0.171191f, 0.097879f, -0.087360f, 0.157452f, 0.236216f, 0.260437f, 0.048075f, 0.146238f, -0.103032f, -0.198293f, 0.136547f, -0.062842f, -0.046283f, 0.104223f, 0.123128f, -0.066396f, -0.026627f, -0.237012f, -0.094194f, -0.145359f, 0.070507f, 0.026616f, -0.215765f, 0.175527f, -0.015594f, -0.172814f, -0.218746f, -0.028518f, -0.000084f, -0.000521f, 0.029801f, 0.079171f, -0.216432f, 0.076726f, -0.065403f, 0.213805f, 0.122502f, 0.006977f, 0.020768f, -0.139462f, -0.156285f, -0.145598f, -0.061938f, -0.096071f, 0.038093f, 0.103982f, -0.151597f, -0.068218f, -0.169274f, 0.029749f, 0.089697f, 0.023511f, 0.123672f, -0.063990f, 0.065837f, -0.079815f, -0.122950f, -0.135920f, -0.157419f, 0.147587f, 0.133070f, -0.123733f, 0.200689f, -0.128022f, 0.242789f, -0.077934f, 0.137258f, -0.005404f, -0.066163f, -0.121374f, -0.212984f, -0.271484f, 0.018056f, -0.089172f, 0.115516f, -0.197928f, 0.078629f, -0.195437f, -0.105157f, -0.492025f, -0.165320f, 0.223597f, -0.147900f, -0.109412f, -0.227233f, -0.151520f, -0.179540f, 0.025001f, -0.180934f, 0.019395f, -0.080589f, -0.113698f, 0.135767f, 0.072339f, 0.274972f, -0.017151f, -0.267211f, -0.046702f, -0.302166f, -0.055515f, -0.041827f, 0.007919f, -0.152806f, -0.054126f, -0.217580f, -0.041249f, -0.024559f, -0.216439f, 0.063183f, -0.026974f, -0.044287f, 0.041308f, 0.145455f, 0.138635f, -0.049133f, -0.113624f, 0.051520f, 0.095811f, 0.131092f, 0.181462f, 0.180176f, -0.048059f, -0.040249f, -0.164223f, 0.066194f, 0.145694f, 0.173041f, 0.205246f, -0.059903f, -0.091811f, -0.064800f, 0.174146f, -0.003096f, 0.065966f, 0.050216f, 0.052562f, -0.157499f, 0.031097f, -0.235219f, 0.176014f, 0.002721f, -0.223823f, 0.123600f, -0.142497f, -0.143597f, -0.039996f, 0.215556f, -0.218666f, -0.208768f, 0.146290f, 0.187874f, 0.130954f, -0.014391f, -0.005398f, 0.041486f, 0.070956f, 0.114249f, 0.081580f, 0.108965f, -0.006228f, -0.028475f, -0.029673f, -0.068952f, -0.093214f, 0.093017f, 0.056306f, 0.011013f, -0.094969f, -0.153801f, 0.122720f, 0.211078f, -0.233815f, -0.068294f, 0.194460f, 0.000523f, -0.078034f, 0.035217f, 0.056255f, 0.156770f, 0.018880f, 0.039758f, -0.112246f, -0.140929f, -0.129474f, -0.010211f, 0.125718f, 0.126001f, -0.234089f, 0.027882f, -0.185553f, -0.006995f, 0.186897f, -0.038375f, -0.056620f, 0.119324f, 0.140645f, -0.121956f, 0.083846f, 0.139985f, -0.119071f, -0.037395f, 0.127814f, 0.082084f, -0.270581f, 0.171651f, -0.150695f, -0.024607f, -0.019345f, -0.169990f, 0.177703f, 0.185556f, 0.223090f, 0.011726f, -0.067412f, 0.228268f, 0.151260f, -0.013665f, 0.200058f, 0.129219f, 0.086294f, 0.008089f, 0.087228f, 0.158255f, 0.061532f, -0.102945f, 0.151453f, 0.084239f, -0.114972f, -0.193595f, -0.094381f, 0.093321f, 0.193324f, 0.066014f, -0.134162f, -0.170487f, 0.039980f, -0.146797f, -0.181888f, -0.204127f, -0.126333f, -0.113180f, -0.139639f, -0.101110f, 0.080480f, 0.113806f, 0.226100f, -0.019586f, 0.063656f, 0.002657f, -0.186982f, -0.122991f, -0.174144f, 0.134491f, 0.054036f, -0.106406f, 0.103338f, 0.070664f, -0.183240f, -0.105093f, 0.113180f, -0.223891f, 0.122379f, 0.049159f, 0.080935f, -0.165283f, 0.074716f, -0.014996f };
static float MLP_buf1[100];
static float MLP_buf2[100];
static const EmlNetLayer MLP_layers[2] = { 
{ 100, 7, MLP_layer_0_weights, MLP_layer_0_biases, EmlNetActivationRelu }, 
{ 26, 100, MLP_layer_1_weights, MLP_layer_1_biases, EmlNetActivationSoftmax } };
static EmlNet MLP = { 2, MLP_layers, MLP_buf1, MLP_buf2, 100 };

    int32_t
    MLP_predict(const float *features, int32_t n_features)
    {
        return eml_net_predict(&MLP, features, n_features);
    }
    

    int32_t
    MLP_regress(const float *features, int32_t n_features, float *out, int32_t out_length)
    {
        return eml_net_regress(&MLP, features, n_features, out, out_length);
    }
    

    float
    MLP_regress1(const float *features, int32_t n_features)
    {
        return eml_net_regress1(&MLP, features, n_features);
    }
    