
#include <eml_net.h>
static const float MLP_layer_0_biases[100] = { -0.197664f, -0.339731f, 0.025524f, -0.178492f, -0.007564f, 0.027723f, 0.359418f, 0.060889f, -0.028773f, 0.122782f, 0.002016f, 0.298607f, -0.173135f, -0.092593f, 0.239623f, -0.008333f, 0.370994f, -0.063028f, 0.079645f, 0.078022f, 0.032157f, 0.446335f, 0.117820f, 0.122096f, -0.348652f, -0.062176f, 0.224709f, -0.236212f, -0.055106f, 0.210881f, 0.064691f, -0.240928f, -0.111806f, -0.496492f, 0.175435f, 0.389333f, 0.151237f, 0.152038f, 0.136572f, -0.250457f, 0.141702f, -0.462578f, -0.178760f, -0.063850f, -0.167678f, 0.273623f, 0.318148f, -0.037116f, 0.120422f, 0.021217f, 0.704120f, -0.278383f, 0.183677f, 0.510725f, 0.005220f, 0.172550f, -0.210329f, 0.331731f, 0.093372f, 0.176527f, -0.085449f, 0.442583f, -0.126363f, -0.174658f, 0.100448f, -0.109805f, -0.036754f, 0.157153f, 0.070676f, 0.039803f, 0.207044f, 0.160976f, 0.198050f, 0.012169f, -0.028031f, -0.044824f, 0.261565f, -0.164012f, -0.084031f, -0.150507f, -0.034266f, 0.262304f, 0.067976f, 0.137183f, 0.110564f, 0.156924f, 0.093576f, 0.013224f, -0.119152f, -0.025368f, 0.276563f, -0.317846f, 0.031356f, 0.123778f, -0.141857f, 0.346941f, 0.041591f, 0.083595f, -0.075236f, 0.061706f };
static const float MLP_layer_0_weights[700] = { 0.031013f, 0.178613f, -0.281043f, -0.120630f, -0.191254f, -0.216221f, -0.380753f, 0.019084f, -0.009672f, 0.032195f, 0.016941f, 0.029391f, -0.216557f, 0.268232f, -0.110900f, 0.147364f, -0.076120f, -0.051209f, -0.194477f, -0.182553f, 0.160714f, 0.198950f, -0.048268f, 0.062754f, 0.231038f, 0.192731f, -0.237156f, -0.187507f, -0.209163f, 0.136071f, -0.124358f, -0.043278f, 0.270089f, 0.084033f, 0.143157f, -0.108284f, 0.057429f, 0.156696f, -0.190469f, 0.108493f, 0.199881f, 0.167308f, -0.164639f, 0.201033f, -0.107001f, -0.004280f, 0.151940f, -0.119582f, -0.149570f, -0.400897f, -0.165165f, 0.042743f, -0.178538f, -0.106829f, -0.095865f, -0.159497f, 0.023711f, -0.384080f, 0.000714f, 0.083312f, -0.188025f, -0.064986f, 0.107339f, -0.053865f, -0.290604f, 0.067668f, 0.072649f, -0.003768f, 0.266419f, 0.045973f, 0.211821f, -0.121343f, -0.090139f, 0.106921f, 0.019041f, -0.178902f, 0.108523f, -0.059967f, 0.093168f, 0.159118f, 0.241551f, -0.000802f, 0.070400f, -0.074341f, -0.073728f, 0.176361f, -0.029060f, 0.196158f, 0.090826f, 0.113529f, -0.184427f, 0.264834f, -0.034154f, 0.073451f, -0.020659f, -0.120947f, 0.252007f, -0.025290f, -0.296892f, 0.023867f, -0.118833f, -0.029928f, 0.140328f, -0.051598f, 0.170335f, -0.043256f, -0.246133f, 0.254922f, 0.094950f, 0.277050f, -0.199227f, -0.198548f, 0.218357f, 0.156037f, -0.075479f, 0.095812f, 0.112492f, 0.206700f, 0.123117f, -0.041564f, -1.077159f, -0.238672f, -0.273738f, -0.156430f, 0.176721f, -0.016683f, -0.015314f, 0.225449f, -0.376601f, -0.079353f, 0.060988f, 0.286936f, -0.087398f, -0.402144f, 0.221752f, -0.336628f, 0.153398f, -0.040322f, 0.178391f, 0.099986f, -0.003170f, -0.229289f, -0.140642f, -0.178851f, -0.245938f, -0.203563f, -0.066421f, 0.086168f, 0.078694f, -0.121039f, -0.949142f, 0.182878f, -0.012435f, -0.138132f, -0.146064f, 0.108692f, -0.134420f, -0.023185f, 0.216468f, 0.150832f, -0.121963f, -0.026054f, 0.098708f, 0.191803f, -0.078006f, -0.243322f, -0.192856f, -0.026649f, 0.066936f, 0.066470f, -0.030704f, 0.512772f, 0.006862f, -0.103298f, -0.023679f, 0.106877f, 0.059406f, -0.170518f, -0.222414f, -0.047954f, 0.131023f, -0.144676f, 0.081626f, -0.223372f, -0.174358f, 0.168487f, -0.063333f, 0.012442f, 0.060848f, 0.257008f, -0.131870f, -0.220161f, 0.098323f, 0.170825f, 0.216333f, 0.260850f, -0.226364f, -0.172251f, 0.017635f, 0.253202f, 0.230684f, -0.034931f, 0.177409f, 0.075579f, -0.044302f, -0.037948f, 0.179321f, 0.065039f, 0.209247f, 0.217048f, 0.036508f, 0.236075f, -0.125736f, -0.145414f, -0.344817f, -0.029781f, -0.209821f, 0.239860f, 0.180638f, -0.263863f, -1.063968f, -0.010854f, -0.172356f, 0.137847f, -0.113551f, 0.168452f, 0.010058f, 0.185900f, 0.178113f, 0.229352f, -0.095013f, 0.013706f, 0.102444f, -0.168333f, 0.044609f, 0.077856f, -0.194213f, 0.022614f, -0.056318f, 0.094959f, -0.072634f, 0.163137f, 0.037336f, -0.105265f, 0.199066f, 0.026564f, -0.220635f, -0.087712f, 0.081314f, 0.269134f, -0.101703f, 0.238695f, -0.107856f, 0.179112f, 0.029332f, 0.122871f, -0.001496f, 0.121829f, -0.077299f, 0.030212f, 0.121296f, 0.151573f, 0.157575f, 0.132023f, 0.190129f, -0.249942f, 0.071198f, -0.077506f, -0.034506f, -0.012541f, -0.051979f, 0.049095f, -0.006918f, -0.021090f, 0.230208f, 0.076643f, -0.091999f, -0.059623f, -0.081296f, 0.147626f, 0.213057f, 0.169641f, 0.082928f, -0.132906f, -0.102368f, 0.218166f, 0.033444f, 0.095506f, 0.039216f, 0.130683f, -0.009193f, 0.105244f, 0.073574f, 0.005875f, -0.069706f, -0.181885f, -0.023328f, -0.209748f, 0.225067f, -0.121936f, 0.122118f, 0.140942f, 0.071745f, 0.036820f, -0.083483f, -0.034374f, -0.030324f, -0.113179f, 0.045142f, -0.069684f, 0.276224f, 0.230288f, -0.106445f, -0.140088f, -0.330291f, -0.014917f, 0.106922f, -0.106112f, -0.088288f, 0.183971f, -0.028854f, 0.056812f, -0.213245f, -0.198131f, 0.016102f, -0.027600f, -0.189659f, 0.086835f, 0.038398f, 0.053035f, -0.277060f, 0.105179f, -0.159956f, -0.043825f, 0.132846f, -0.024839f, -0.077095f, 0.162718f, 0.150434f, -0.018227f, 0.145264f, 0.169576f, 0.109789f, 0.144787f, -0.126432f, 0.065678f, 0.144647f, 0.045209f, 0.182698f, -0.290216f, 0.302594f, 0.094490f, -0.145609f, -0.061401f, 0.024282f, -0.098759f, 0.112007f, 0.034672f, 0.179023f, 0.243567f, -0.096011f, -0.117834f, 0.199124f, 0.030073f, 0.251722f, 0.054527f, 0.207703f, 0.052548f, 0.056240f, -0.139065f, -0.055962f, -0.197024f, -0.240146f, 0.116432f, -0.236411f, -0.066413f, 0.204654f, 0.071831f, 0.063890f, -0.145991f, -0.022707f, 0.030009f, 0.239828f, -0.172742f, -0.157975f, -0.082275f, 0.118531f, -0.068187f, -0.199499f, 0.008782f, -0.130741f, 0.103848f, -0.091578f, -0.212014f, 0.048021f, 0.150889f, -0.027726f, 0.128659f, -0.020178f, 0.020265f, 0.218945f, 0.180148f, -0.219020f, 0.108282f, -0.005668f, 0.193697f, -0.101019f, -0.142363f, -0.261680f, 0.005765f, -0.156184f, 0.093224f, 0.196006f, 0.156194f, 0.222802f, -0.064490f, 0.141799f, -0.011358f, 0.207347f, 0.054947f, -0.115888f, -0.222281f, -0.147453f, -0.212505f, 0.006356f, -0.161286f, -0.189794f, 0.137284f, -0.010471f, 0.086159f, 0.044000f, -0.032949f, -0.001152f, -0.052637f, 0.145089f, -0.123582f, 0.236318f, -0.225179f, 0.111714f, -0.170015f, 0.002241f, -0.268216f, -0.006462f, -0.264436f, 0.289527f, 0.176464f, 0.132430f, 0.204285f, -0.126219f, -0.033043f, -0.098066f, 0.054310f, 0.159044f, 0.309052f, 0.078761f, 0.068642f, 0.190472f, 0.075076f, -0.086127f, -0.174879f, -0.208999f, 0.214335f, -0.205738f, -0.124431f, 0.151275f, -0.034212f, 0.183560f, -0.092835f, 0.086185f, -0.036488f, 0.146976f, -0.009036f, 0.034268f, 0.039818f, 0.217492f, -0.216475f, 0.125784f, 0.204453f, -0.259263f, -0.027369f, -0.109163f, 0.151754f, 0.023790f, 0.077823f, 0.027918f, 0.090150f, -0.123165f, -0.237119f, 0.066105f, -0.094664f, -0.079255f, 0.160016f, -0.013963f, -0.202251f, -0.035259f, 0.154762f, 0.188137f, 0.189394f, 0.190510f, -0.154622f, -0.162247f, -0.088104f, -0.116174f, -0.115724f, 0.076923f, -0.096635f, 0.297813f, -0.179020f, 0.086227f, -0.065806f, 0.005541f, -0.091183f, -0.194926f, -0.158038f, 0.145522f, 0.003001f, -0.024139f, -0.203373f, 0.020447f, 0.189850f, 0.149286f, -0.055664f, 0.280213f, 0.171873f, 0.073663f, -0.250925f, -0.184536f, -0.192146f, -0.028632f, -0.092337f, 0.275943f, -0.159940f, 0.240625f, 0.157161f, 0.141314f, -0.055047f, 0.043394f, -0.070229f, -0.192911f, -0.025626f, -0.053708f, 0.091938f, 0.003171f, -0.029113f, -0.151193f, -0.199619f, 0.071297f, -0.054137f, 0.259545f, -0.078648f, -0.037475f, -0.001297f, 0.083745f, -0.058677f, -0.146411f, -0.082650f, -0.009451f, 0.142926f, 0.190587f, -0.214042f, -0.220746f, -0.032295f, 0.102311f, -0.185751f, 0.051752f, 0.115970f, -0.056723f, 0.176551f, 0.112529f, -0.279093f, -0.016423f, 0.223210f, 0.210750f, 0.096896f, 0.105914f, -0.046421f, -0.136207f, 0.002789f, 0.056069f, -0.131661f, 0.128929f, -0.145009f, 0.103702f, -0.065986f, 0.159971f, 0.002695f, 0.143016f, -0.013199f, -0.158150f, 0.102272f, -0.088164f, 0.160550f, 0.105210f, -0.158640f, -0.093947f, -0.173265f, -0.178674f, -0.062667f, -0.239068f, -0.209258f, 0.010436f, 0.049561f, -0.142203f, -0.136399f, -0.123644f, 0.286018f, 0.144436f, -0.067909f, -0.125138f, 0.121072f, -0.110090f, 0.265839f, 0.094455f, -0.004499f, -0.282399f, 0.166250f, -0.103174f, -0.051814f, -0.048213f, -0.004480f, -0.315809f, 0.261300f, -0.245936f, 0.061930f, 0.146648f, -0.125551f, 0.113495f, 0.148832f, 0.079484f, 0.042941f, -0.188226f, 0.084373f, 0.181937f, -0.045909f, 0.074649f, -0.344766f, 0.091148f, -0.145294f, -0.117318f, -0.064596f, -0.240452f, 0.132061f, -0.120862f, 0.008634f, 0.013304f, -0.170080f, -0.058693f, -0.222663f, 0.074881f, -0.027669f, 0.147707f, -0.113325f, 0.172427f, -0.095768f, 0.263569f, -0.141590f, 0.102838f, -0.128176f, 0.169146f, -0.113580f, -0.079378f, 0.238942f, -0.180533f, 0.001356f, -0.090392f, 0.139269f, 0.081101f, -0.105221f, 0.109196f, -0.236652f, 0.101056f, 0.016395f, -0.134767f, 0.138579f, 0.091985f, 0.225012f, -0.018271f, -0.308430f, 0.186960f, 0.115783f, 0.062690f, 0.063920f, 0.153639f, 0.162873f, -0.124195f, 0.042317f, 0.159343f, 0.098880f, -0.121423f, 0.017250f, -0.367794f, 0.075201f, 0.201242f, -0.183291f, -0.304895f, -0.179821f, -0.134446f, 0.278208f, 0.024202f, -0.062157f };
static const float MLP_layer_1_biases[24] = { 0.046316f, -0.075877f, -0.050112f, -0.161755f, -0.053891f, 0.061321f, -0.039689f, 0.121139f, -0.092778f, -0.081612f, -0.098553f, 0.008206f, -0.132325f, -0.143249f, 0.228537f, -0.038066f, -0.056224f, 0.177288f, -0.000063f, -0.470388f, 0.092433f, -0.160425f, -0.009006f, -0.151676f };
static const float MLP_layer_1_weights[2400] = { 0.170372f, -0.109452f, -0.188691f, 0.158744f, -0.022852f, 0.184433f, -0.127720f, 0.041543f, 0.094690f, -0.075425f, -0.236009f, -0.048657f, 0.218300f, -0.031336f, 0.130364f, -0.120186f, -0.055026f, -0.095185f, 0.124054f, 0.019153f, 0.000858f, -0.156668f, 0.066870f, -0.116722f, -0.072566f, -0.041891f, -0.047941f, -0.215919f, 0.053396f, 0.095352f, 0.045494f, 0.052206f, -0.108966f, -0.114151f, -0.011090f, 0.161420f, -0.125076f, 0.029314f, -0.020885f, 0.016171f, -0.146934f, -0.022500f, -0.085363f, 0.124992f, 0.150379f, -0.060083f, 0.033844f, -0.165468f, 0.051006f, -0.017614f, 0.125769f, 0.150182f, 0.019900f, -0.212000f, -0.023540f, 0.184322f, 0.163163f, 0.110229f, -0.167644f, 0.020558f, 0.026800f, -0.042908f, -0.010850f, -0.125801f, 0.179706f, 0.077546f, 0.055948f, 0.170759f, -0.000127f, 0.190618f, -0.251895f, -0.076784f, 0.015960f, -0.126758f, 0.023359f, -0.223276f, -0.143459f, -0.192811f, 0.053808f, 0.056163f, -0.081011f, -0.096186f, 0.090520f, -0.108221f, 0.158667f, 0.023652f, 0.018325f, -0.170090f, 0.089861f, -0.127877f, -0.091256f, -0.047190f, -0.001474f, -0.090894f, 0.182037f, -0.042288f, 0.107646f, -0.024054f, 0.098921f, -0.001524f, -0.012561f, 0.042409f, -0.159696f, 0.182649f, -0.003604f, -0.152314f, 0.008902f, -0.214651f, -0.101001f, -0.265699f, -0.006626f, -0.113521f, 0.022341f, 0.156806f, 0.329845f, -0.035815f, 0.026487f, -0.022193f, -0.000024f, -0.062843f, -0.288738f, 0.026949f, -0.098429f, 0.073580f, -0.051235f, -0.055220f, 0.128200f, 0.048191f, 0.011074f, -0.203731f, -0.215579f, -0.073258f, -0.186914f, -0.035035f, -0.026010f, 0.292170f, -0.112097f, -0.093020f, 0.053800f, 0.090948f, -0.181347f, -0.222890f, -0.153784f, 0.112675f, -0.042084f, -0.054468f, -0.316568f, -0.441632f, -0.224070f, -0.245137f, -0.258344f, -0.016279f, -0.616629f, -0.292363f, -0.287044f, -0.919809f, 0.382476f, -0.135282f, -0.091801f, -0.551982f, 0.370336f, -0.031910f, 0.166335f, 0.070455f, -0.221726f, -0.388775f, -0.344260f, -0.130860f, 0.188821f, 0.051768f, -0.020796f, 0.276150f, -0.087311f, 0.137190f, -0.057257f, -0.136333f, -0.109920f, 0.073012f, -0.155673f, 0.027720f, -0.204015f, -0.199358f, 0.214606f, -0.438676f, -0.040043f, -0.003124f, -0.083644f, -0.202420f, -0.000182f, 0.119239f, -0.194217f, -0.043786f, -0.053042f, -0.136803f, 0.075810f, 0.322924f, 0.020168f, 0.039491f, -0.126064f, 0.085654f, -0.111451f, 0.217102f, 0.146867f, -0.017369f, 0.045154f, -0.173383f, -0.425395f, -0.126619f, -0.235003f, 0.037698f, -0.068744f, -0.071620f, -0.030716f, -0.016794f, -0.163296f, -0.097131f, -0.179935f, -0.031042f, -0.272513f, 0.100968f, -0.002230f, 0.044435f, 0.007158f, 0.130269f, -0.017645f, -0.165227f, 0.155146f, 0.011770f, 0.134615f, 0.220977f, -0.180237f, -0.190417f, -0.181926f, -0.085048f, 0.178019f, -0.214928f, -0.055113f, -0.192804f, 0.154048f, 0.182185f, 0.205354f, -1.028238f, -0.188021f, 0.300900f, 0.333069f, -0.477145f, -0.324129f, -0.121207f, -0.123030f, -0.051404f, -0.053742f, 0.154641f, 0.160181f, -0.760080f, -0.223958f, 0.044729f, -0.008528f, 0.133296f, -0.336670f, 0.035933f, 0.206088f, -0.308895f, -0.057313f, 0.154056f, -0.018826f, 0.027004f, -0.138385f, -0.103450f, 0.183873f, -0.047525f, -0.237821f, 0.178486f, -0.107812f, 0.183864f, 0.150656f, -0.017291f, 0.072132f, 0.041897f, 0.063705f, 0.181780f, -0.076432f, 0.233927f, 0.064849f, -0.208933f, -0.142330f, 0.001104f, -0.135148f, -0.165755f, -0.156603f, 0.233801f, 0.008447f, 0.074610f, -0.097562f, -0.001461f, 0.069591f, 0.011700f, -0.126490f, 0.080912f, 0.180221f, -0.032041f, -0.194777f, 0.171653f, -0.217258f, -0.016386f, 0.231113f, -0.106959f, 0.131159f, 0.028124f, 0.014612f, 0.097625f, -0.147786f, -0.151664f, 0.075236f, -0.029380f, -0.134437f, -0.053424f, -0.342330f, -0.056466f, 0.187923f, -0.286019f, 0.278676f, -0.170800f, 0.197271f, -0.031162f, -0.169266f, 0.226279f, 0.066348f, 0.004055f, 0.008093f, -0.267120f, -0.182459f, 0.040578f, -0.036698f, 0.128521f, 0.052033f, -0.283463f, 0.252706f, 0.028489f, 0.087522f, 0.098321f, -0.261413f, -0.091267f, -0.067193f, 0.059930f, -0.077967f, 0.070778f, -0.029831f, 0.042995f, -0.110423f, -0.193478f, -0.000561f, 0.101939f, -0.008910f, -0.209314f, -0.103081f, -0.095086f, -0.212832f, 0.231923f, -0.002268f, 0.038819f, -0.061082f, -0.248857f, -0.123047f, -0.035873f, -0.116299f, 0.113894f, 0.109662f, 0.023663f, 0.048579f, -0.116526f, -0.089291f, -0.102334f, -0.321106f, -0.098279f, 0.130408f, -0.097355f, 0.015519f, 0.137501f, -0.075915f, 0.198697f, -0.047659f, -0.012890f, -0.373762f, 0.008251f, 0.176456f, -0.026088f, 0.128301f, 0.135472f, -0.163332f, 0.091219f, 0.211655f, -0.214226f, 0.226600f, -0.204626f, 0.139359f, 0.131895f, -0.076798f, -0.073269f, 0.042860f, 0.117742f, 0.121180f, 0.153448f, 0.209498f, -0.028179f, -0.075288f, -0.022121f, -0.081887f, 0.188053f, -0.064305f, 0.253214f, -0.027089f, -0.093128f, -0.223388f, -0.044363f, -0.132697f, 0.030773f, -0.092470f, 0.262880f, 0.169864f, -0.213988f, -0.057423f, -0.007943f, 0.052938f, 0.062202f, 0.000927f, -0.072056f, -0.097863f, 0.165595f, -0.000204f, 0.103106f, -0.108820f, 0.121219f, -0.238960f, 0.295680f, -0.201425f, -0.171387f, 0.165015f, 0.022513f, -0.119374f, -0.165895f, -0.149754f, -0.249135f, -0.160704f, 0.174106f, 0.211224f, 0.156436f, -0.040006f, 0.050611f, 0.025120f, -0.620171f, -0.044543f, 0.122786f, -0.129486f, 0.024446f, -0.097086f, 0.170756f, -0.027237f, -0.154634f, 0.074604f, -0.165672f, -0.251886f, 0.090869f, 0.080523f, -0.098875f, -0.067168f, 0.024449f, -0.039184f, -0.036320f, -0.175242f, 0.002800f, -0.038849f, 0.090103f, -0.129598f, 0.098025f, -0.001662f, -0.079994f, -0.086157f, -0.113852f, -0.319367f, -0.117405f, 0.211310f, -0.003434f, 0.099700f, -0.233064f, -0.065986f, -0.100201f, -0.189581f, -0.119853f, -0.291067f, 0.131573f, 0.136793f, -0.036456f, -0.127721f, 0.070656f, -0.007079f, 0.118742f, -0.030817f, -0.055855f, 0.108773f, -0.794258f, 0.458439f, 0.000696f, -0.027056f, 0.175698f, 0.449766f, -0.545486f, 0.162397f, 0.043756f, -0.125760f, 0.033667f, -0.835896f, -0.403278f, -0.265003f, -0.096830f, -0.094857f, 0.040559f, -0.341836f, -0.255140f, -0.320981f, -0.010299f, 0.057246f, 0.230034f, 0.224391f, -0.135627f, -0.100110f, -0.194255f, 0.135467f, -0.146197f, 0.033392f, -0.148152f, -0.113805f, -0.049118f, -0.278293f, -0.119287f, -0.090101f, -0.088138f, -0.038685f, -0.001864f, -0.235779f, 0.015991f, -0.110091f, 0.030172f, -0.002249f, -0.089220f, -0.051728f, 0.147688f, 0.064387f, -0.016793f, -0.144856f, 0.167546f, -0.246571f, 0.096197f, -0.007963f, -0.124047f, -0.070935f, 0.003255f, 0.121858f, -0.218811f, -0.062990f, 0.090096f, -0.005615f, 0.172278f, -0.153772f, -0.150678f, -0.030305f, 0.061998f, -0.000794f, 0.123550f, 0.158675f, 0.164514f, 0.208229f, -0.186032f, -0.267979f, -0.157562f, -0.246483f, 0.178839f, -0.209649f, 0.091548f, 0.106935f, -0.026908f, -0.040470f, -0.038658f, -0.043823f, 0.110125f, 0.158172f, -0.228957f, 0.013426f, -0.063656f, -0.294025f, 0.261278f, 0.119954f, -0.120992f, 0.112182f, -0.066074f, -0.203462f, 0.218228f, 0.230945f, 0.017412f, 0.310727f, 0.130019f, 0.010748f, -0.050463f, 0.111639f, 0.054581f, 0.027326f, 0.237840f, 0.146860f, -0.106670f, -0.221887f, -0.090563f, -0.004788f, -0.073677f, 0.086246f, 0.179538f, -0.098654f, 0.174639f, 0.203028f, 0.166966f, -0.224417f, -0.211857f, -0.420868f, -0.110938f, -0.180439f, -0.052614f, 0.035836f, 0.148835f, -0.042261f, -0.173723f, -0.027341f, -0.168618f, -0.275841f, 0.083682f, 0.105773f, 0.083227f, 0.107060f, -0.104442f, -0.075175f, -0.220469f, -0.289399f, -0.263766f, 0.028187f, 0.124007f, 0.300781f, 0.131171f, -0.021086f, 0.104263f, -0.042940f, -0.095176f, -0.098212f, -0.098314f, -0.098175f, -0.189909f, -0.172818f, -0.151227f, 0.066005f, 0.021348f, 0.187436f, -0.064895f, 0.034482f, -0.237157f, 0.025025f, 0.201700f, 0.218071f, -0.213152f, -0.084230f, -0.208352f, -0.172778f, -0.250935f, -0.069208f, -0.242186f, -0.107940f, 0.087214f, -0.100918f, -0.297370f, -0.139996f, -0.065609f, 0.021965f, -0.026473f, -0.005201f, 0.015485f, -0.146558f, -0.239891f, 0.167099f, 0.072597f, 0.266118f, -0.271176f, 0.110258f, 0.420332f, -0.067570f, -0.408123f, -0.542944f, -0.179860f, -0.028054f, -0.318175f, 0.174465f, 0.001950f, 0.182271f, 0.071039f, 0.006503f, 0.196516f, -0.129503f, 0.067917f, 0.055328f, -0.039682f, -0.195288f, 0.040983f, -0.031760f, 0.122776f, -0.083196f, -0.019779f, -0.097469f, 0.073016f, 0.216861f, -0.125197f, 0.167902f, -0.132120f, -0.205331f, -0.166370f, 0.187851f, 0.161789f, -0.016028f, 0.092609f, 0.128542f, -0.040010f, -0.134734f, -0.011926f, -0.205553f, -0.224165f, -0.151661f, -0.231317f, -0.088514f, -0.048690f, -0.249564f, 0.070660f, -0.026999f, -0.136134f, -0.282020f, -0.192068f, -0.125863f, 0.048047f, -0.285856f, 0.143340f, -0.211303f, -0.243206f, -0.004470f, 0.219356f, 0.077653f, -0.051187f, -0.235415f, 0.117056f, 0.155793f, 0.138483f, 0.114500f, 0.183056f, 0.160568f, -0.061110f, 0.014219f, 0.038335f, 0.100405f, 0.072191f, 0.019958f, 0.103184f, 0.008366f, 0.109330f, -0.163018f, -0.169622f, 0.217941f, 0.140455f, -0.017309f, -0.012233f, 0.218103f, -0.222396f, -0.123747f, 0.026020f, -0.148693f, 0.078389f, -0.006664f, 0.031733f, -0.141474f, -0.156122f, 0.102141f, -0.176197f, -0.205493f, -0.083733f, 0.101067f, -0.177815f, 0.180075f, 0.250039f, 0.217416f, 0.123737f, -0.183822f, 0.076794f, -0.009267f, -0.073114f, 0.058195f, 0.019710f, 0.118360f, -0.395844f, -0.000977f, -0.038614f, -0.588371f, -0.031883f, -0.009467f, -0.133766f, -0.327947f, 0.096670f, -0.003430f, 0.152444f, -0.238846f, -0.404312f, 0.211072f, 0.147030f, 0.109088f, -0.102717f, -0.024391f, -0.231896f, -0.160673f, -0.068769f, 0.053677f, 0.044406f, 0.171204f, 0.189216f, 0.048163f, 0.061650f, -0.012430f, 0.161488f, -0.146878f, 0.203410f, -0.054335f, 0.095458f, 0.068984f, -0.187891f, -0.163321f, 0.045689f, 0.156171f, 0.077478f, -0.155776f, 0.175290f, 0.039140f, 0.175990f, 0.279074f, -0.787483f, -0.159597f, 0.132658f, -0.005941f, -0.247926f, -0.234771f, -0.058533f, -0.202916f, 0.013157f, -0.404230f, -0.101498f, -0.195220f, -0.116724f, -0.702051f, -0.229963f, -0.333435f, -0.135131f, 0.022265f, -0.147159f, 0.019426f, -0.024555f, -0.120854f, -0.324633f, 0.108137f, 0.002017f, -0.119724f, 0.140411f, -0.071384f, 0.148604f, -0.044671f, 0.115251f, -0.053437f, 0.025513f, 0.113344f, 0.174189f, -0.211976f, 0.279946f, 0.039453f, 0.028918f, -0.244949f, -0.127951f, -0.204018f, -0.118634f, -0.135141f, 0.156609f, -0.346894f, -0.146416f, 0.200468f, 0.156799f, 0.081990f, 0.292499f, -0.121446f, 0.227612f, -0.047871f, 0.102897f, 0.099793f, 0.206891f, 0.003574f, 0.053328f, -0.125812f, 0.160380f, 0.146734f, 0.174828f, -0.235719f, 0.069026f, -0.141465f, 0.018191f, -0.054300f, -0.099733f, 0.039751f, -0.072736f, 0.151164f, 0.053864f, -0.213976f, 0.101759f, -0.025653f, 0.089208f, -0.001028f, -0.065034f, 0.245184f, -0.166094f, 0.171318f, 0.153573f, -0.041577f, -0.082146f, 0.058723f, -0.122256f, 0.152581f, -0.162860f, -0.075112f, 0.163442f, -0.000523f, -0.038965f, 0.143782f, -0.035312f, 0.199729f, -0.032647f, -0.046274f, -0.110916f, 0.234882f, 0.007102f, 0.150249f, 0.037533f, 0.067581f, -0.152087f, 0.198753f, 0.164114f, -0.004991f, 0.184787f, -0.041171f, 0.019160f, -0.082668f, 0.021914f, -0.123771f, 0.115734f, -0.579657f, -0.236105f, -0.208822f, -0.107616f, -0.048556f, 0.189001f, -0.156730f, 0.052281f, 0.032220f, -0.027487f, -0.094202f, -0.151546f, -0.223496f, 0.126723f, 0.060997f, -0.005507f, 0.106716f, -0.137658f, 0.222115f, 0.107007f, 0.047031f, -0.045752f, -0.045290f, 0.001131f, 0.233241f, 0.170021f, 0.032303f, 0.013405f, 0.133055f, 0.157198f, 0.098978f, 0.102236f, 0.004377f, 0.152922f, 0.112156f, 0.029260f, 0.124759f, 0.156752f, 0.160714f, -0.216252f, 0.059191f, 0.128492f, 0.030129f, -0.068054f, 0.225535f, -0.113059f, 0.010107f, 0.213125f, 0.148024f, 0.150422f, -0.304057f, -0.059029f, -0.002543f, -0.126256f, 0.020516f, 0.073510f, -0.011457f, -0.091059f, -0.006306f, 0.041302f, -0.003885f, -0.003046f, -0.064130f, 0.118488f, -0.051862f, 0.028984f, 0.184540f, -0.144167f, 0.132368f, -0.154887f, 0.087900f, 0.007015f, -0.073163f, 0.146120f, -0.018653f, -0.106395f, 0.344735f, -0.244823f, 0.065412f, -0.199636f, -0.218370f, -0.233929f, -0.044467f, 0.056161f, -0.263124f, 0.166777f, 0.234608f, -0.162558f, -0.026835f, -0.076477f, -0.390227f, 0.144942f, 0.028102f, -0.244828f, 0.025686f, 0.217572f, -0.016100f, 0.103465f, -0.243536f, -0.038905f, -0.139976f, -0.083795f, 0.148781f, -0.335267f, -0.105552f, 0.043173f, -0.222404f, 0.250202f, -0.168889f, -0.351578f, 0.027897f, -0.196442f, 0.050061f, -0.048468f, 0.105831f, 0.147347f, 0.034016f, -0.840228f, 0.070892f, -0.012317f, -0.144160f, -0.191772f, 0.048529f, -0.003017f, 0.263626f, -0.099988f, -0.050191f, 0.149149f, 0.014544f, 0.112011f, -0.067441f, 0.061071f, 0.193919f, -0.089185f, 0.116943f, 0.190456f, -0.195740f, -0.098808f, -0.154938f, 0.175213f, -0.163368f, 0.231362f, -0.030695f, 0.101339f, -0.289505f, -0.021963f, 0.118799f, 0.037295f, -0.017997f, -0.038562f, 0.041137f, -0.068614f, -0.131334f, -0.078125f, -0.178895f, -0.341672f, 0.091031f, 0.113709f, -0.095419f, -0.128686f, -0.005946f, 0.082963f, -0.190755f, 0.131915f, 0.129907f, 0.185525f, 0.035290f, 0.005827f, 0.133292f, -0.194246f, 0.192138f, -0.176757f, 0.187763f, 0.183959f, 0.087097f, -0.136824f, -0.162855f, -0.020079f, 0.163225f, -0.043918f, 0.195202f, -0.042390f, 0.036132f, 0.225535f, 0.087618f, -0.144995f, -0.017769f, -0.090712f, 0.016909f, 0.024777f, -0.138595f, -0.067783f, 0.085886f, 0.183213f, -0.170148f, 0.133343f, -0.037465f, 0.010940f, -0.125543f, -0.143857f, 0.016956f, -0.013122f, -0.060802f, -0.011800f, 0.099989f, 0.114314f, 0.172784f, 0.212199f, 0.093410f, -0.030725f, -0.007543f, 0.007899f, -0.050465f, 0.119775f, -0.247430f, -0.181715f, -0.155656f, 0.046167f, -0.239263f, -0.100398f, -0.131353f, -0.523933f, 0.174263f, -0.068961f, -0.003641f, -0.173845f, 0.106168f, 0.096251f, -0.130134f, -0.355359f, 0.084837f, -0.150415f, -0.124562f, -0.280921f, -0.350698f, 0.075675f, 0.199166f, 0.063856f, -0.018815f, -0.053434f, -0.000024f, 0.102658f, -0.108012f, -0.028653f, 0.126469f, -0.101717f, -0.020535f, -0.752223f, -0.757771f, -0.226850f, 0.129627f, -0.077707f, 0.073665f, -0.345055f, -0.156884f, -0.083372f, -0.723964f, -0.331903f, -0.627025f, 0.042718f, -0.552055f, 0.003100f, 0.662934f, -0.425566f, -0.813338f, -0.285185f, 0.082663f, -0.289441f, -0.076498f, 0.037655f, 0.072813f, 0.002094f, -0.060489f, -0.162853f, -0.071243f, 0.101908f, 0.030659f, 0.170596f, 0.000155f, -0.119443f, 0.082856f, -0.050109f, -0.195299f, 0.090826f, -0.043713f, -0.015803f, 0.124746f, 0.168851f, -0.210965f, -0.147886f, -0.031908f, -0.094362f, -0.007959f, 0.038410f, 0.125788f, 0.023573f, -0.162710f, -0.161355f, 0.084131f, -0.108178f, 0.077760f, 0.092188f, -0.151902f, -0.144953f, -0.180478f, -0.351506f, 0.133250f, -0.213750f, -0.018634f, -0.195393f, 0.009524f, -0.150996f, -0.059818f, -0.131481f, -0.095325f, -0.063879f, 0.048879f, 0.014552f, -0.211172f, 0.084974f, -0.161301f, -0.010942f, -0.155800f, -0.036893f, 0.040555f, -0.055875f, -0.160236f, -0.004889f, -0.026735f, 0.133994f, -0.131895f, 0.153839f, 0.031269f, 0.025620f, -0.056133f, -0.232304f, -0.149924f, 0.267515f, -0.193782f, -0.131356f, 0.144648f, 0.112713f, -0.137404f, -0.108420f, -0.062099f, 0.025750f, 0.050510f, 0.156208f, 0.123898f, -0.072140f, 0.163510f, 0.086580f, -0.081174f, -0.064483f, 0.175337f, -0.078834f, 0.098095f, -0.130389f, 0.183516f, -0.090570f, 0.050158f, -0.173001f, -0.066897f, 0.134547f, -0.015806f, -0.080458f, 0.034392f, 0.087742f, -0.135466f, -0.030883f, 0.173462f, 0.136821f, 0.057117f, 0.074423f, 0.123771f, 0.128054f, -0.188971f, -0.015406f, 0.026461f, 0.047175f, -0.155157f, -0.079345f, -0.050694f, -0.048344f, -0.000087f, 0.022388f, -0.020719f, 0.086846f, -0.093694f, -0.016088f, -0.241241f, -0.162228f, -0.080067f, -0.158724f, 0.010858f, 0.082711f, 0.032090f, -0.125789f, 0.045569f, -0.121895f, -0.185004f, 0.157921f, -0.029323f, 0.091480f, -0.128722f, -0.130415f, -0.017255f, 0.055351f, -0.147846f, -0.144952f, -0.050296f, 0.026348f, 0.153501f, -0.013406f, 0.010531f, -0.107918f, 0.133150f, -0.384829f, -0.039427f, -0.124104f, -0.263601f, -0.071183f, -0.299163f, 0.032389f, 0.113293f, 0.028094f, -0.142821f, 0.035086f, 0.083424f, -0.727077f, 0.429462f, -0.200365f, -0.087410f, -0.057610f, -0.560586f, 0.009109f, -0.221770f, -0.071708f, -0.073320f, -0.017614f, -0.173437f, -0.014747f, -0.100899f, 0.014105f, 0.157070f, -0.078754f, 0.104886f, -0.060444f, 0.223657f, -0.049660f, 0.134235f, -0.160054f, 0.012953f, 0.194407f, -0.047255f, 0.086856f, -0.013918f, 0.089317f, 0.356668f, -0.032731f, 0.012884f, -0.174679f, -0.104524f, 0.030231f, 0.184544f, -0.168131f, 0.123523f, -0.008812f, 0.023406f, -0.160460f, -0.167258f, -0.133627f, -0.226008f, 0.090781f, 0.192093f, 0.015806f, 0.017499f, 0.110639f, -0.095805f, -0.221581f, -0.117920f, 0.106790f, -0.100795f, -0.037626f, 0.220987f, -0.021433f, -0.229213f, -1.143491f, -0.155894f, -0.039449f, -0.065032f, 0.132873f, 0.136059f, -0.044566f, 0.095374f, -0.127231f, -0.104855f, -0.143298f, -0.138930f, 0.098511f, -0.057585f, -0.195039f, 0.109224f, -0.047505f, 0.002075f, 0.047320f, -0.034787f, 0.174226f, -0.373127f, -0.007970f, -0.022478f, 0.052907f, -0.091600f, -0.231694f, -0.138346f, 0.179171f, 0.211189f, -0.004593f, -0.194460f, 0.097221f, 0.055678f, 0.167404f, 0.131166f, 0.206831f, 0.127313f, 0.543477f, 0.189913f, -0.191218f, 0.003247f, 0.205549f, 0.114682f, -0.089791f, -0.254657f, 0.108352f, 0.036687f, 0.033971f, 0.201216f, -0.192004f, 0.180993f, -0.244679f, 0.039572f, 0.070382f, 0.094558f, -0.039745f, -0.059622f, 0.012404f, 0.223174f, -0.037559f, 0.024859f, -0.032121f, 0.198636f, 0.106543f, -0.046337f, 0.061069f, 0.138068f, 0.199734f, -0.101784f, -0.131522f, -0.166936f, 0.018676f, 0.118657f, -0.116786f, 0.076743f, 0.025575f, -0.075206f, -0.149263f, 0.088701f, -0.126639f, -0.111246f, -0.052483f, 0.099576f, -0.181905f, 0.040316f, -0.248429f, 0.197380f, 0.028555f, -0.002510f, -0.196353f, 0.074145f, 0.222897f, -0.206398f, 0.185312f, -0.142041f, 0.178205f, 0.100949f, 0.024019f, 0.155772f, -0.034290f, 0.170146f, 0.014761f, 0.095072f, 0.051596f, 0.191925f, 0.137752f, -0.176439f, 0.002825f, -0.072462f, 0.290954f, -0.087469f, -0.183575f, -0.205004f, -0.051461f, 0.016345f, 0.034580f, -0.008432f, -0.095141f, 0.011592f, 0.107549f, -0.166466f, -0.371201f, -0.171265f, -0.162157f, 0.173257f, -0.195233f, -0.276184f, -0.805635f, -0.287261f, -0.256817f, -0.011358f, -0.198308f, -0.095124f, -0.084974f, -0.163223f, -0.053178f, -0.055399f, 0.189470f, -0.108501f, -0.083363f, -0.244070f, -0.037184f, -0.043027f, 0.167124f, -0.090341f, 0.047787f, 0.031004f, -0.122270f, 0.028808f, 0.133487f, -0.197466f, 0.051347f, -0.178674f, -0.171177f, -0.189984f, -0.000804f, 0.194473f, 0.017644f, -0.154922f, 0.127681f, 0.030026f, -0.094922f, 0.181226f, 0.174180f, -0.084172f, -0.165157f, 0.050585f, 0.106538f, -0.008400f, 0.000520f, -0.230544f, -0.189815f, -0.056561f, -0.193229f, -0.072597f, 0.001621f, -0.214974f, -0.272046f, -0.020341f, -0.094700f, -0.092772f, 0.076934f, -0.199251f, -0.012823f, 0.128552f, -0.122618f, 0.028371f, 0.033737f, -0.194829f, -0.233361f, 0.129690f, -0.070364f, 0.029155f, 0.206022f, -0.118287f, 0.197537f, -0.150696f, -0.222250f, -0.096682f, 0.180074f, -0.035431f, 0.166949f, -0.190493f, -0.198555f, -0.027527f, 0.122198f, -0.050433f, 0.187748f, 0.095119f, -0.100538f, -0.049009f, -0.100893f, 0.132643f, 0.212931f, 0.125247f, -0.175108f, -0.075877f, 0.089967f, 0.060182f, -0.080416f, -0.221482f, 0.139879f, -0.199834f, 0.133756f, 0.112453f, 0.053602f, 0.068057f, 0.105951f, -0.061384f, 0.098825f, 0.048470f, -0.169071f, -0.000416f, -0.116672f, -0.289245f, 0.071496f, -0.351084f, 0.031302f, -0.115647f, -0.072769f, -0.018943f, -0.030637f, -0.047152f, -0.126917f, -0.144861f, -0.023231f, 0.025439f, -0.138050f, -0.115288f, -0.033308f, 0.144180f, -0.125966f, 0.002725f, 0.034598f, -0.038111f, -0.026739f, 0.230366f, 0.047403f, 0.024306f, -0.044464f, -0.347469f, 0.157485f, -0.186737f, -0.467546f, -0.059271f, -0.218681f, 0.573343f, -0.258471f, 0.042763f, -0.090020f, 0.621042f, -0.385796f, -0.152427f, -0.465110f, -0.324222f, 0.051915f, 0.382111f, -0.052341f, 0.074053f, -0.311614f, -0.004705f, 0.242708f, -0.202164f, -0.167385f, -0.013091f, -0.076083f, 0.047095f, -0.170089f, -0.252428f, 0.015437f, 0.066076f, 0.156385f, 0.101614f, -0.182450f, -0.305711f, -0.225419f, -0.158468f, 0.112363f, -0.002575f, 0.093288f, -0.290744f, 0.044538f, -0.042642f, -0.283780f, -0.151947f, 0.094843f, 0.151165f, -0.206175f, -0.107015f, -0.212978f, -0.028923f, -0.123792f, 0.035108f, -0.078705f, 0.164924f, 0.155873f, 0.204557f, -0.210430f, 0.047430f, -0.087651f, 0.198029f, -0.244945f, -0.194974f, -0.073868f, -0.076548f, -0.069158f, -0.131154f, -0.155634f, -0.048856f, 0.191635f, -0.136425f, 0.075387f, -0.063584f, -0.172312f, -0.239924f, -0.183844f, 0.025357f, 0.115761f, 0.078831f, -0.009590f, -0.035652f, 0.100364f, 0.132310f, -0.068310f, -0.160546f, -0.238521f, 0.026011f, -0.144674f, -0.043538f, -0.267912f, 0.252435f, -0.018580f, -0.102634f, -0.042424f, -0.025231f, -0.252486f, -0.011958f, 0.054346f, -0.105739f, -0.226406f, -0.153984f, 0.104728f, 0.036921f, -0.098843f, -0.033320f, -1.111875f, -0.128940f, -0.204633f, 0.031431f, 0.069577f, -0.312184f, -0.620961f, 0.142845f, -0.454138f, 0.271304f, 0.034983f, 0.005973f, 0.064487f, -0.010095f, 0.089177f, 0.148801f, -0.027065f, 0.081032f, 0.167411f, 0.058138f, -0.070566f, 0.073922f, -0.088264f, -0.033854f, 0.089531f, -0.167580f, 0.000225f, 0.196528f, -0.008633f, -0.118087f, -0.022776f, 0.139347f, 0.190047f, 0.149171f, -0.229101f, -0.069910f, 0.208744f, -0.167341f, -0.009961f, 0.224151f, -0.142884f, 0.030409f, -0.044790f, -0.148344f, 0.207027f, -0.178656f, 0.049756f, 0.077907f, -0.030733f, 0.037547f, -0.118985f, -0.039216f, 0.091414f, -0.069222f, 0.044971f, 0.155028f, -0.096144f, 0.221875f, -0.093790f, 0.256367f, 0.078765f, 0.102724f, -0.038722f, -0.001561f, -0.095203f, -0.125779f, -0.064411f, -0.186011f, -0.227724f, -0.084907f, -0.203676f, -0.011475f, -0.209850f, -0.107103f, -0.053695f, -0.012444f, -0.130064f, -0.300439f, 0.182304f, 0.041032f, -0.082083f, 0.001263f, 0.111561f, -0.110659f, 0.134732f, -0.002695f, 0.170465f, -0.152676f, 0.177980f, 0.032743f, 0.202479f, 0.047816f, 0.160978f, -0.002980f, -0.070311f, 0.084154f, 0.170579f, 0.175025f, 0.176412f, -0.200567f, -0.188988f, 0.169219f, 0.212217f, 0.078586f, 0.116808f, -0.101116f, -0.105220f, -0.241123f, -0.120947f, -0.074059f, 0.030022f, -0.196563f, -0.121988f, 0.239122f, -0.059873f, -0.137058f, 0.149481f, 0.010610f, -0.204737f, 0.116802f, -0.060002f, 0.219338f, -0.038957f, -0.148856f, -0.119280f, -0.029181f, 0.065551f, -0.203200f, -0.066998f, 0.123495f, 0.052542f, -0.184624f, -0.200781f, 0.216120f, 0.178102f, 0.146181f, 0.139593f, 0.013775f, 0.114460f, -0.196895f, -0.100332f, 0.049612f, 0.155000f, 0.084284f, -0.098236f, 0.169718f, 0.161978f, -0.156192f, -0.106205f, -0.088073f, 0.144810f, 0.173217f, 0.077644f, -0.099100f, -0.108244f, -0.254787f, 0.153252f, 0.090035f, -0.000200f, -0.063864f, -0.169480f, -0.067192f, -0.182116f, 0.148979f, 0.010069f, -0.146130f, -0.122229f, -0.084104f, -0.078263f, -0.046576f, -0.074241f, 0.108690f, -0.149383f, -0.074612f, 0.046620f, 0.187447f, 0.174943f, -0.087229f, -0.129590f, -0.126603f, 0.154460f, -0.077610f, 0.109568f, -0.114198f, -0.582427f, 0.045731f, 0.086414f, -0.000947f, -0.284162f, 0.025333f, -0.240850f, -0.190728f, -0.416041f, 0.114358f, -0.217181f, -0.021179f, -0.161650f, -0.442172f, -0.229084f, 0.279053f, -0.423677f, 0.172242f, 0.011204f, -0.035921f, -0.088487f, 0.018172f, -0.431340f, -0.010755f, 0.065130f, -0.173776f, 0.083652f, 0.038522f, 0.072353f, -0.167192f, -0.063152f, -0.236235f, 0.172579f, -0.018597f, -0.020068f, -0.335854f, -0.172761f, -0.000647f, -0.131673f, -0.355719f, -0.209341f, -0.064174f, -0.131246f, -0.112586f, 0.070943f, 0.159220f, -0.188663f, 0.064576f, 0.138580f, 0.059977f, -0.011671f, 0.218058f, 0.166839f, -0.151528f, 0.183882f, -0.208782f, 0.073387f, 0.029560f, 0.131631f, -0.037494f, -0.143347f, 0.054256f, -0.290302f, -0.072280f, 0.161711f, 0.183438f, -0.116615f, 0.060102f, 0.159747f, 0.230570f, -0.135897f, -0.020578f, 0.076546f, 0.104363f, 0.011489f, 0.122798f, -0.150239f, -0.235613f, 0.108170f, -0.065763f, -0.101074f, 0.080629f, 0.054819f, -0.089629f, -0.033338f, -0.073366f, 0.028308f, 0.236883f, 0.074164f, -0.024523f, 0.046540f, 0.022108f, -0.050107f, -0.069587f, 0.155372f, -0.034519f, -0.196138f, 0.072335f, -0.049349f, -0.210021f, 0.127751f, -0.050988f, 0.093199f, -0.035063f, -0.031934f, -0.053506f, -0.218014f, -0.031388f, 0.111961f, -0.143937f, -0.197100f, -0.015876f, 0.036428f, 0.100835f, -0.107794f, -0.565637f, -0.079651f, -0.167986f, -0.175891f, 0.078282f, 0.217917f, -0.071491f, -0.138505f, -0.014284f, 0.210996f, 0.178067f, 0.039208f, -0.078902f, 0.130493f, -0.144867f, -0.123979f, 0.072484f, 0.179504f, -0.089049f, -0.059668f, -0.208715f, -0.064176f, -0.188967f, 0.046768f, -0.158110f, 0.039618f, -0.297520f, 0.170173f, -0.161173f, 0.018345f, 0.227969f, 0.149490f, -0.010407f, -0.191198f, 0.093428f, -0.114051f, -0.261244f, 0.138219f, -0.019392f, 0.034416f, 0.136234f, 0.231579f, 0.067668f, -0.144897f, -0.295693f, -0.203058f, -0.103738f, 0.078100f, 0.035558f, -0.129768f, -0.039973f, -0.067142f, 0.123957f, -0.050751f, -0.016792f, -0.172809f, -0.008246f, -0.356270f, -0.024699f, 0.117206f, -0.067396f, -0.320879f, -0.133609f, 0.118652f, 0.116281f, 0.076517f, -0.149451f, -0.231376f, -0.072329f, -0.104267f, -0.276762f, -0.062859f, -0.000133f, -0.164506f, -0.097659f, -0.495167f, -0.103482f, -0.046647f, 0.005267f, 0.194650f, 0.240826f, -0.013802f, 0.181748f, -0.089046f, 0.035239f, -0.071610f, 0.197484f, 0.168989f, -0.086664f, 0.020247f, -0.163392f, -0.016812f, 0.115910f, -0.183016f, -0.092313f, 0.216787f, 0.229792f, 0.028676f, 0.059218f, -0.140440f, -0.008204f, -0.030617f, 0.089054f, -0.235002f, 0.190021f, 0.093610f, 0.055650f, 0.090792f, -0.108550f, 0.072941f, -0.144107f, 0.037474f, -0.354593f, -0.009339f, -0.023966f, -0.323753f, 0.253270f, -0.020311f, 0.128631f, -0.186142f, 0.093843f, 0.218560f, -0.141331f, 0.130149f, 0.160668f, -0.045968f, -0.091964f, -0.714283f, 0.171432f, -0.101823f, 0.243897f, -0.059283f, 0.149179f, 0.194839f, -0.209707f, -0.021463f, 0.028922f, -0.111392f, -0.122162f, -0.128532f, 0.097633f, -0.222318f, -0.223032f, 0.038773f, -0.009107f, -0.051418f, -0.265884f, 0.117685f, 0.159212f, -0.056335f, 0.118545f, -0.001194f, -0.045320f, 0.118542f, -0.059143f, 0.160895f, 0.051222f, 0.092306f, -0.113524f, 0.047518f, -0.177299f, 0.156684f, -0.181637f, -0.291868f, 0.013860f, 0.057631f, -0.071685f, 0.151975f, -0.475071f, 0.106307f, 0.168206f, 0.040479f, 0.077629f, -0.076437f, -0.212564f, 0.180949f, 0.078239f, -0.094108f, 0.055925f, -0.079637f, -0.099580f, 0.003297f, -0.107661f, -0.214371f, -0.048778f, 0.238756f, 0.150957f, 0.034125f, -0.073382f, 0.053717f, 0.209629f, -0.187208f, -0.194777f, -0.148700f, 0.196999f, -0.098757f, -0.148495f, -0.153198f, 0.126262f, 0.051073f, -0.064512f, 0.173920f, 0.015544f, -0.077892f, -0.136677f, 0.212824f, -0.118005f, 0.039868f, 0.209303f, -0.109068f, 0.231720f, 0.147251f, -0.155323f, 0.073955f, 0.199663f, 0.049577f, 0.170304f, -0.148933f, 0.175148f, -0.154452f, -0.322330f, 0.121631f, 0.135528f, 0.065506f, -0.338719f, -0.225125f, -0.004691f, -0.037665f, 0.223788f, 0.125118f, 0.185148f, 0.110603f, 0.128748f, 0.001394f, -0.195779f, 0.288766f, -0.048224f, 0.059439f, 0.105995f, -0.003887f, 0.017549f, -0.081517f, -0.261851f, -0.022796f, -0.096751f, 0.164529f, 0.040089f, -0.206265f, 0.192918f, 0.109508f, -0.152494f, -0.214268f, -0.007584f, -0.019682f, -0.002705f, 0.023797f, 0.156999f, -0.178074f, 0.098141f, -0.070028f, 0.239237f, 0.098686f, 0.058527f, 0.020421f, -0.087295f, -0.153469f, -0.176867f, -0.030914f, -0.168817f, 0.033242f, 0.027394f, -0.116702f, -0.111631f, -0.191355f, 0.056386f, 0.036123f, 0.010035f, 0.184811f, -0.131476f, 0.030016f, -0.134559f, -0.183779f, -0.023457f, -0.295677f, 0.192443f, 0.066160f, -0.253486f, 0.112092f, -0.000251f, 0.123199f, -0.151625f, 0.214007f };
static float MLP_buf1[100];
static float MLP_buf2[100];
static const EmlNetLayer MLP_layers[2] = { 
{ 100, 7, MLP_layer_0_weights, MLP_layer_0_biases, EmlNetActivationRelu }, 
{ 24, 100, MLP_layer_1_weights, MLP_layer_1_biases, EmlNetActivationSoftmax } };
static EmlNet MLP = { 2, MLP_layers, MLP_buf1, MLP_buf2, 100 };

    int32_t
    MLP_predict(const float *features, int32_t n_features)
    {
        return eml_net_predict(&MLP, features, n_features);
    }
    

    int32_t
    MLP_regress(const float *features, int32_t n_features, float *out, int32_t out_length)
    {
        return eml_net_regress(&MLP, features, n_features, out, out_length);
    }
    

    float
    MLP_regress1(const float *features, int32_t n_features)
    {
        return eml_net_regress1(&MLP, features, n_features);
    }
    