
#include <eml_net.h>
static const float MLP_layer_0_biases[50] = { 0.094645f, 0.593961f, -0.056609f, 0.390356f, 0.537675f, -0.062477f, -0.423117f, -0.343673f, -0.214983f, -0.294756f, -0.419279f, 0.201220f, -0.289247f, -0.471175f, -0.150791f, 0.145197f, 0.190551f, 0.117089f, 0.005016f, -0.218237f, -0.039483f, 0.416713f, -0.303560f, -0.109974f, 0.059173f, -0.231625f, 0.295266f, 0.747934f, 0.052919f, -0.520010f, -0.074625f, 0.437197f, 0.747326f, 0.179339f, 0.187147f, 0.408794f, 0.570869f, 0.502303f, -0.417133f, -0.214060f, 0.545588f, -0.018879f, 0.055946f, 0.707484f, -0.306566f, 0.176420f, -0.691071f, -0.607223f, -0.463500f, -0.268621f };
static const float MLP_layer_0_weights[350] = { 0.078403f, 0.350323f, 0.334562f, -0.074201f, -0.122226f, -0.066042f, -0.014456f, 0.234403f, -0.133571f, 0.366807f, 0.311981f, -0.066698f, -0.359146f, -0.020708f, 0.239666f, 0.388570f, -0.165208f, 0.082222f, -0.259550f, -0.118087f, 0.211022f, -0.111789f, -0.019949f, -0.062510f, 0.087199f, -0.025893f, -0.123982f, 0.140023f, 0.084135f, -0.051533f, -0.092193f, -0.077987f, -0.018118f, -0.010726f, 0.187729f, 0.043230f, -0.321401f, -0.022706f, -0.205516f, 0.165733f, -0.074724f, 0.404352f, 0.002000f, 0.308425f, -0.036210f, -0.149001f, -0.250291f, 0.032318f, -0.195421f, -0.161044f, 0.098718f, -0.107049f, -0.158695f, -0.159980f, -0.534764f, -0.128324f, -0.580657f, 0.344154f, -0.157826f, -0.097838f, -0.245974f, 0.011589f, -0.206279f, 0.276162f, 0.314516f, -0.103514f, 0.175357f, 0.012352f, -0.328547f, -0.048270f, 0.063472f, -0.167163f, -0.287390f, 0.168377f, -0.423166f, 0.295065f, -0.096790f, 0.035573f, 0.376819f, -0.139354f, -0.089687f, 0.029597f, -0.268930f, -0.208658f, 0.062216f, 0.013860f, 0.292562f, -0.329284f, -0.310192f, -0.243513f, 0.130647f, 0.238780f, 0.112051f, -0.249517f, -0.237622f, -0.034879f, 0.020772f, -0.123694f, 0.028530f, -0.132894f, 0.129986f, -0.035139f, -0.038802f, 0.174824f, -0.049771f, -0.101130f, -0.172847f, -0.327925f, -0.117314f, 0.261000f, 0.239741f, -0.318571f, -0.087773f, -0.413722f, -0.039372f, -0.138448f, -0.282119f, 0.116579f, 0.121361f, 0.161428f, 0.354172f, -0.298190f, 0.225314f, 0.059425f, 0.228639f, 0.085521f, -0.294678f, -0.503635f, -0.223935f, 0.444098f, 0.177694f, 0.135956f, 0.004859f, -0.030255f, -0.021603f, -0.440116f, -0.443394f, 0.441402f, 0.266439f, 0.240063f, -0.367749f, -0.328023f, -0.435760f, -0.153785f, 0.381273f, -0.012550f, 0.287840f, -0.142096f, 0.063835f, -0.109211f, -0.130600f, -0.015434f, -0.327983f, -0.236073f, -0.034385f, -0.153141f, 0.201652f, 0.102076f, 0.153575f, -0.235950f, -0.201534f, 0.195607f, 0.199498f, -0.018819f, -0.171270f, -0.207940f, 0.055671f, 0.007568f, 0.262115f, 0.197476f, 0.033059f, 0.060562f, 0.210968f, -0.376126f, 0.042420f, 0.102804f, -0.031409f, 0.046885f, 0.120623f, -0.221936f, 0.285530f, -0.368899f, 0.297722f, -0.163884f, -0.042209f, 0.341898f, 0.131835f, 0.079166f, 0.275320f, 0.229205f, -0.058547f, 0.126341f, -0.130954f, -0.021612f, 0.052490f, 0.241301f, 0.198444f, -0.129949f, 0.248193f, 0.146577f, -0.358813f, -0.140269f, 0.023012f, 0.277113f, 0.273448f, -0.239874f, 0.008122f, -0.068747f, 0.308260f, -0.102013f, -0.165140f, 0.033948f, 0.136602f, 0.255990f, -0.274708f, 0.029249f, 0.170949f, -0.126935f, 0.221121f, 0.134390f, -0.249930f, 0.193688f, 0.328433f, 0.184544f, -0.205453f, -0.192960f, 0.269179f, -0.013181f, -0.282139f, -0.217083f, 0.016997f, -0.070579f, 0.153403f, -0.232817f, 0.087155f, -0.097417f, -0.005502f, -0.304146f, -0.047238f, -0.344765f, -0.007034f, 0.033965f, -0.008401f, -0.042498f, -0.101271f, -0.204605f, -0.246161f, 0.403265f, -0.057572f, 0.392312f, 0.027994f, 0.121792f, -0.234470f, 0.034217f, -0.025305f, 0.209218f, -0.128251f, 0.302479f, -0.010571f, -0.013342f, 0.075489f, 0.265620f, -0.195879f, 0.041994f, 0.002214f, -0.220278f, -0.063572f, -0.222855f, 0.067955f, 0.041718f, -0.083935f, 0.209104f, 0.196964f, -0.014949f, -0.000516f, -0.165878f, 0.226851f, -0.134908f, 0.045959f, -0.225817f, -0.049870f, -0.245741f, 0.286867f, 0.148485f, 0.210528f, -0.097926f, -0.116150f, -0.084264f, 0.167999f, 0.137211f, -0.255156f, 0.128466f, 0.279895f, -0.108953f, -0.127366f, 0.251773f, -0.046271f, -0.104903f, 0.210013f, 0.039959f, 0.049272f, -0.187789f, -0.227920f, -0.247038f, -0.136475f, -0.026413f, -0.344541f, 0.182211f, -0.178249f, 0.311192f, 0.121181f, 0.061260f, 0.053389f, 0.072470f, 0.078662f, 0.238161f, 0.585461f, -0.357856f, -0.087539f, -0.065133f, 0.430146f, 0.062293f, 0.168243f, 0.277793f, 0.549613f, 0.096708f, 0.058931f, -0.145919f, -0.325795f, -0.146004f, 0.008751f, -0.078643f, -0.084098f, 0.038672f, -0.509988f, -0.103164f, -0.093189f, -0.056270f, 0.161511f, -0.200974f, 0.048484f, -0.068057f, -0.563257f, 0.112069f, -0.139636f, -0.312473f, 0.138281f, 0.307745f, 0.304567f, -0.206825f };
static const float MLP_layer_1_biases[100] = { -0.118706f, 0.189736f, -0.052307f, 0.003854f, -0.074745f, 0.063853f, 0.284840f, 0.002640f, 0.143924f, -0.079565f, 0.057060f, -0.058906f, 0.078405f, 0.102094f, 0.008341f, 0.047632f, 0.034538f, 0.355300f, 0.015487f, -0.341975f, -0.015350f, 0.201100f, 0.061147f, 0.011390f, -0.042116f, -0.041061f, 0.203896f, -0.002888f, -0.212763f, -0.078354f, 0.290645f, -0.107029f, -0.088531f, 0.156083f, -0.240493f, 0.212908f, -0.028505f, 0.003008f, 0.114790f, -0.048396f, 0.102751f, 0.167048f, 0.053526f, -0.066772f, 0.180833f, 0.064152f, -0.049301f, -0.156857f, 0.208344f, 0.227376f, 0.276850f, -0.054845f, -0.044508f, 0.092416f, -0.157175f, 0.192127f, 0.363371f, -0.070955f, -0.082691f, -0.023534f, -0.027586f, 0.252303f, -0.048390f, 0.138472f, -0.021114f, 0.108317f, -0.263517f, -0.247695f, 0.015720f, -0.093042f, 0.026436f, 0.107576f, -0.029527f, 0.016947f, 0.072519f, 0.345692f, -0.046743f, 0.071780f, 0.084410f, 0.029645f, 0.105522f, -0.035685f, -0.148327f, -0.021792f, -0.097897f, -0.116815f, 0.140401f, 0.257064f, 0.089431f, 0.069012f, -0.080832f, -0.047598f, -0.276383f, -0.101224f, -0.046525f, -0.057321f, -0.080862f, 0.008601f, 0.052269f, 0.285903f };
static const float MLP_layer_1_weights[5000] = { -0.457493f, -0.453260f, -0.555125f, -0.770689f, -0.722718f, 0.520336f, 0.746996f, -0.738161f, 0.947182f, -0.361065f, -0.098658f, 0.007838f, -0.807635f, -0.098004f, 0.453105f, -0.667541f, -0.462992f, 0.901714f, 0.566025f, -0.596114f, 0.255273f, 0.853323f, -0.525739f, -0.291672f, 0.316418f, -1.017204f, -0.478314f, -0.547532f, -0.207354f, -0.304905f, 0.967007f, 0.500650f, 0.382615f, 0.356448f, -0.380751f, 0.452266f, 0.390890f, 0.017353f, 0.308521f, -0.474229f, -0.707324f, -0.403707f, 0.505389f, -0.480112f, 0.657741f, 0.543793f, -0.196338f, -0.614666f, 0.252223f, 0.243421f, 0.189055f, -0.619137f, -0.869498f, 0.501350f, -0.304869f, 0.838212f, 0.726747f, -0.720080f, -0.244077f, -1.120291f, -0.374040f, 0.659343f, -0.480853f, 0.176855f, 0.202010f, 0.377266f, 0.027325f, -0.432259f, 0.277917f, -0.736231f, 0.384995f, -0.182008f, -0.119833f, -0.517097f, 0.790905f, 0.400222f, 0.473838f, -0.083126f, 0.716485f, -0.580994f, -0.161721f, 0.618017f, -0.479181f, -0.328588f, -0.316452f, -0.185055f, -0.703982f, 1.026044f, -0.512216f, 0.847817f, 0.036755f, -0.631301f, 0.288328f, -0.590224f, 0.077355f, -0.803561f, -0.145970f, -0.315865f, -0.245429f, 0.920537f, 0.011415f, 0.203199f, -0.066915f, 0.193799f, 0.356269f, 0.359992f, 0.549723f, -0.919378f, -0.084037f, -0.187075f, 0.930201f, 0.232112f, 0.055097f, -0.871194f, 0.500242f, -0.104838f, 0.237540f, -0.164626f, 0.538115f, -0.586647f, 0.493882f, 0.240440f, 0.126530f, -0.099068f, 0.681735f, 0.265171f, -0.637826f, -0.700720f, -0.254590f, 0.228341f, -0.342372f, 0.340065f, 0.701491f, 0.518541f, 0.809401f, 0.398052f, 0.432865f, 0.524864f, 0.630338f, -0.235732f, -0.712429f, -0.383970f, -0.190792f, -0.731256f, -0.679398f, 0.295349f, 0.498719f, -0.480026f, 0.784552f, -0.068373f, 0.296965f, 0.398447f, 0.760474f, 0.274042f, 0.661269f, -0.575254f, 0.653308f, -0.727117f, -0.024632f, 0.366756f, 0.090965f, -0.005025f, -0.577271f, -0.244437f, -0.177533f, -0.558614f, 0.664636f, -0.666716f, 0.271762f, 0.040397f, -0.281169f, 0.031007f, -0.520472f, -0.371031f, 0.131484f, -0.600459f, 0.514915f, 0.036296f, 0.678829f, 0.194857f, -0.752313f, -0.122175f, -0.651337f, 0.481514f, 0.639807f, -0.432429f, -0.509552f, 0.331491f, -0.499838f, -0.015362f, 0.853844f, -0.488258f, 0.756195f, 0.583064f, -0.319745f, 0.547380f, -0.307206f, -0.327307f, 0.536025f, -0.194459f, 0.007543f, -0.085186f, 0.475661f, -0.458692f, -0.515257f, 0.683344f, 0.377549f, 0.622353f, -0.339842f, 0.596430f, -0.158054f, -0.626016f, -0.574822f, -0.559200f, -0.191459f, -0.138662f, 0.583809f, -0.089316f, -0.359948f, 0.013849f, 0.467312f, -0.726602f, 0.403961f, -0.433723f, 0.417614f, 0.569710f, -0.301129f, 0.152307f, 0.442930f, -0.466214f, -0.374845f, -0.692929f, 0.308259f, 0.862895f, -0.506601f, -0.328285f, 0.686025f, 0.750375f, 0.538923f, -0.644089f, -0.486413f, -0.744982f, 0.488740f, -0.325222f, 0.258005f, 0.074384f, -0.689343f, 0.564616f, -0.641140f, -0.280889f, 0.739665f, 0.661701f, -0.202726f, 0.465001f, -0.416115f, -0.446409f, -0.741252f, -0.655110f, 0.539803f, 0.095069f, 0.165595f, 0.643782f, 0.564184f, 0.514001f, 0.452366f, 0.315186f, -0.054739f, 0.424856f, 0.116817f, 0.552833f, 0.317887f, -0.369150f, 0.040601f, 0.255993f, -0.007921f, 0.464542f, -0.668576f, -0.555214f, -0.747547f, -0.211621f, -0.062233f, -0.168949f, -0.202015f, -0.712505f, 0.262489f, -0.275568f, -0.527835f, -0.184654f, 0.926884f, -0.079394f, 0.482067f, 0.198357f, 0.002573f, -0.564218f, 0.669969f, -0.055236f, 0.208326f, -0.003137f, 0.328483f, -0.305993f, 0.016923f, 0.380049f, 0.707361f, 0.922029f, -0.785455f, -0.051033f, -1.017399f, 0.385181f, -0.362915f, 0.370695f, 0.614035f, -0.702133f, 0.335760f, 0.893757f, -0.781809f, -0.548626f, 0.149798f, -0.226622f, -0.582023f, -0.155431f, -0.112990f, -0.484284f, -0.517148f, -0.619338f, -0.350350f, 0.586182f, 0.633295f, 0.070462f, 0.632008f, 0.445505f, -0.533022f, -0.747142f, 0.511762f, -0.762390f, -0.263337f, -0.419016f, -1.037778f, 0.582533f, 0.262721f, -0.570494f, -0.641779f, 0.853029f, -0.060353f, 0.130678f, -0.322297f, 0.531526f, 0.202789f, 0.021490f, 0.292272f, 0.603599f, -0.597826f, 0.595347f, 0.161510f, 0.327896f, -0.382651f, -0.758927f, -0.634288f, -0.484661f, 0.740720f, -0.337003f, -0.530591f, -0.770921f, -0.398165f, 0.700910f, 0.688194f, -0.129749f, -0.688662f, 0.333740f, -0.677016f, 0.497936f, 0.593693f, 0.547030f, 0.569107f, 0.986032f, -0.378422f, 0.111739f, 0.643616f, 0.130641f, 0.514294f, -1.013856f, -0.044032f, 0.222701f, 0.163693f, -0.680109f, -0.659548f, 0.705769f, 0.429221f, -0.119837f, 0.615554f, -0.544871f, -0.114523f, 0.039361f, -1.069589f, 0.502942f, -0.401336f, 0.730374f, 0.342979f, 0.668509f, -0.064811f, -0.611807f, 0.322247f, 0.229120f, -0.169233f, -0.578321f, -0.279273f, 0.597243f, -0.887200f, -0.055822f, -0.496745f, -0.124610f, -0.033160f, 0.521756f, 0.297278f, 0.423863f, -0.205884f, -0.433011f, 0.087179f, -0.523461f, -0.109192f, 0.247087f, 0.368826f, 0.199547f, -0.208616f, -0.470227f, 0.058528f, 0.018690f, -0.353688f, 0.381290f, -0.271967f, 0.220101f, -0.379957f, 0.723630f, 0.031780f, 0.448104f, -0.256897f, -0.017073f, 0.914324f, -0.044189f, 0.085096f, -0.370370f, -0.441403f, -0.141142f, 0.585210f, -0.099444f, 0.059117f, 0.400013f, 0.476540f, -0.187996f, -0.688530f, -0.207548f, -0.457187f, 0.603216f, 0.508322f, 0.378678f, 0.622403f, -0.056274f, -0.623809f, -0.643504f, -0.032743f, 0.251642f, 0.268983f, 0.715021f, -0.333129f, 0.611460f, 0.020573f, -0.324667f, -0.460726f, 0.650159f, 0.142237f, -0.496168f, -0.102922f, -0.094238f, -0.406145f, -0.313652f, 0.098657f, -0.152562f, -0.356226f, 0.599233f, 0.434926f, 0.532324f, 0.117481f, 0.179938f, 0.422072f, -0.697953f, 0.774825f, 0.344915f, -0.393041f, -0.446205f, 0.889816f, 0.135947f, 0.257008f, 0.521043f, -0.855250f, 0.385074f, 0.300579f, 0.091469f, -0.448210f, -0.018707f, 0.593916f, -0.138490f, 0.406286f, 0.745712f, 0.229450f, 0.519723f, -0.920431f, 0.276133f, 0.562362f, 0.461385f, -0.545622f, -0.816233f, -1.080168f, 0.956557f, 0.185559f, -0.327973f, 0.234595f, 0.198607f, -0.710652f, 0.734282f, -0.364452f, -0.404589f, 0.325328f, 0.203753f, -0.426034f, -0.266335f, 0.271549f, -0.321601f, -0.066759f, -0.222273f, -0.801882f, -0.394995f, 0.756450f, 1.121619f, 0.255351f, 0.238103f, -0.604940f, 0.036266f, -0.269036f, 0.431244f, 0.335901f, -0.582346f, -0.711445f, -0.437848f, 0.238846f, 0.931814f, 0.670502f, 0.054966f, 0.496952f, -0.181615f, -0.255902f, -0.294106f, 0.419324f, 0.145852f, 0.944539f, 0.559609f, 0.116703f, -0.877244f, -0.794865f, -0.282093f, -0.647267f, 0.188835f, 0.372223f, -0.118947f, -0.852745f, 0.570293f, -0.687601f, -0.058162f, 0.239606f, 0.107501f, 0.213257f, -0.267286f, -0.434629f, -0.474328f, 0.894922f, -0.581384f, -0.138322f, -0.721971f, -0.841355f, 0.852759f, 0.675114f, -0.164731f, -0.282773f, 1.020107f, -0.241120f, -0.681125f, 0.391142f, -0.671542f, -0.239323f, -0.356588f, -0.235996f, -0.767708f, 0.200856f, -0.403447f, -0.392531f, -0.587271f, 0.584591f, -0.636474f, 0.565288f, -0.327574f, 0.224874f, 0.966463f, -0.598741f, 0.386281f, -0.795779f, -1.194399f, -0.199706f, 0.763704f, -0.672737f, -0.684762f, -0.485584f, -0.728924f, 0.501715f, 1.174000f, 0.390770f, 0.794477f, -0.791368f, -0.408469f, -0.677428f, -0.922954f, -0.282606f, 0.162443f, 0.227783f, -0.249024f, -0.794280f, -0.820825f, 0.019557f, -0.442734f, -0.476541f, 0.884022f, 0.757806f, 0.301339f, -0.446067f, 0.783734f, 0.714768f, -0.809337f, 0.487438f, -0.718143f, 0.647634f, 0.724165f, 0.614191f, -0.763455f, -0.717704f, 0.989128f, -0.719629f, -0.727745f, 0.733294f, -0.450578f, -0.078001f, -0.689239f, -0.370963f, 0.628095f, -0.822826f, 0.191100f, 0.500470f, 0.858224f, 1.080054f, 0.248613f, -0.503391f, -0.836621f, 0.765330f, 0.289644f, 0.490564f, 0.453024f, -0.776274f, -0.242373f, 0.555520f, -0.556505f, -0.467094f, -0.044355f, -0.800121f, 0.647434f, -0.600399f, 0.114358f, -0.963992f, 0.342255f, -0.571425f, -0.689071f, 1.013464f, 0.874540f, 0.332107f, 0.169500f, -0.894629f, 0.681958f, 0.856441f, -0.517210f, 0.342399f, 0.431783f, -0.674482f, 0.814734f, -0.089751f, 0.817032f, 0.688151f, -0.777908f, -0.690308f, 0.481025f, 0.517013f, 0.707283f, -1.088219f, -0.658369f, 1.025682f, 0.357020f, 0.092896f, 0.352194f, -0.415722f, 0.303864f, 0.055323f, -0.489553f, 0.035570f, 0.481057f, 0.020054f, -0.426018f, 0.203323f, -0.149809f, 0.548998f, -0.245420f, 0.679187f, -0.594603f, -0.094037f, 0.757736f, 0.594535f, -0.006054f, -0.096717f, 0.450879f, -0.216271f, 0.314141f, 0.140729f, -0.259872f, -0.816936f, -0.782752f, -0.022342f, -0.877901f, 0.037740f, 0.181885f, -0.002993f, -0.029572f, 0.468918f, 0.537147f, -0.462752f, -0.336174f, -0.055509f, 0.423766f, -0.035005f, 0.357367f, 0.428883f, 0.156722f, -0.383207f, 0.881100f, 0.099611f, -0.770198f, 1.016067f, -0.356053f, 0.295202f, 0.149057f, -0.367253f, -0.333149f, -0.562431f, 0.141539f, 0.288086f, 0.338298f, -0.414044f, 0.711340f, 0.472079f, 0.254859f, 0.537964f, -0.178133f, 0.493499f, -0.575284f, 0.592982f, -0.465451f, 0.481761f, -0.657529f, 0.057762f, -0.396602f, -0.670829f, 0.418866f, 0.680403f, -0.243499f, -0.234904f, 0.302942f, 0.135935f, -0.712368f, 0.428411f, -0.333217f, -0.974544f, 0.591329f, 0.735229f, 0.094557f, 0.421214f, -0.131276f, -0.423760f, -0.324101f, 0.160405f, -0.079431f, 0.695766f, 0.450947f, 0.148243f, -0.604771f, -0.234241f, -0.385716f, 0.476897f, -0.008725f, 0.043431f, 0.196912f, 0.514716f, 0.121427f, 0.094244f, -0.305088f, -0.351531f, 0.366349f, -0.515221f, 0.114927f, -0.008630f, -0.121725f, 0.316575f, 0.103858f, -0.310624f, 0.180917f, 0.208351f, -0.278239f, -0.443767f, 0.428395f, -0.055886f, -0.347442f, 0.450267f, 0.322787f, -0.412902f, 0.550506f, 0.343736f, 0.337461f, -0.269410f, 0.193317f, -0.199963f, -0.330599f, -0.402886f, -0.184167f, 0.056845f, 0.247469f, -0.147977f, -0.031503f, -0.170637f, 0.440072f, 0.289590f, 0.147375f, -0.076843f, 0.292748f, -0.165041f, -0.234317f, -0.113488f, 0.313328f, -0.208029f, 0.066618f, -0.168398f, 0.012346f, 0.476901f, -0.430088f, -0.041442f, -0.195728f, -0.394239f, 0.311686f, 0.202120f, 0.060492f, 0.152101f, -0.489629f, 0.234728f, 0.172508f, -0.036247f, -0.011969f, -0.085365f, 0.281827f, -0.086423f, 0.306359f, -0.061433f, 0.221232f, 0.099496f, 0.333544f, -0.238966f, 0.000011f, -0.242175f, 0.092344f, -0.350058f, 0.429018f, 0.273538f, -0.344504f, 0.279887f, 0.382768f, 0.007801f, 0.053850f, 0.405142f, -0.386205f, 0.472906f, -0.604026f, -0.169915f, 0.484347f, -0.304222f, 0.398119f, -0.168662f, 0.372898f, 0.142924f, 0.384205f, 0.040418f, -0.268340f, 0.468150f, -0.620280f, -0.019231f, -0.501896f, 0.935690f, -0.580398f, -0.564921f, -0.626163f, -0.464135f, 1.102446f, -0.835973f, 0.801968f, -0.090355f, -0.824330f, 0.903238f, 0.022784f, 0.840728f, -1.015161f, 0.424711f, 1.043476f, 1.016108f, -0.060482f, -1.007612f, -0.153914f, 0.865535f, -0.490112f, -0.540109f, -0.041652f, 1.291496f, -0.633187f, -0.133886f, 0.981627f, 1.243188f, 0.789899f, 0.335313f, 0.204212f, 0.827158f, 0.156083f, -0.909193f, 1.002021f, 0.553690f, -0.612205f, 0.195120f, 0.303646f, -0.410559f, 1.027436f, 0.335330f, -0.298104f, 0.536220f, -1.053587f, 0.764394f, 0.475593f, 0.206639f, -1.251473f, 0.507627f, -0.812764f, -1.085099f, 0.244904f, -0.322646f, 0.983275f, -0.038276f, 0.848713f, 0.149042f, -0.145224f, -0.963208f, -0.416753f, 0.504089f, -0.345445f, -0.182734f, 0.435688f, -0.732741f, -0.450271f, -0.414178f, -0.881000f, 1.303084f, 0.080707f, -0.491019f, 0.022984f, 0.069054f, 0.181897f, -0.094547f, -0.740095f, -0.425102f, 0.443399f, 0.489420f, 0.164957f, 0.284291f, -0.174619f, -1.058523f, -0.147179f, 0.469793f, 0.600937f, 0.843388f, 0.043234f, -0.410640f, -0.265995f, -0.992884f, -0.989827f, -0.562191f, -1.261705f, 0.412382f, 0.147101f, -0.049001f, 0.077555f, 0.192781f, 0.078170f, -0.666478f, -0.348952f, -0.071816f, 0.875315f, -0.373416f, 0.353716f, 0.506355f, -0.709682f, 0.282202f, -0.229520f, 0.573411f, -1.124203f, 0.265292f, 0.935892f, 0.963722f, 0.466774f, -0.905900f, -0.045230f, 0.971167f, -0.209743f, -0.516988f, -0.466788f, 1.009442f, -0.432734f, -0.274561f, 0.012240f, 0.904915f, 0.752427f, 0.227852f, 0.061788f, 0.586927f, -0.204580f, -1.184702f, 0.826244f, 0.023000f, -0.413274f, 0.536655f, 0.646917f, -0.388313f, 0.653515f, -0.308193f, -0.252502f, 0.217035f, -1.005911f, 0.543444f, 0.379325f, -0.115584f, -1.156945f, 0.355175f, -0.715657f, -1.263835f, -0.248476f, -0.315718f, 0.146613f, 0.186649f, 0.939288f, 0.099333f, -0.074588f, -0.615820f, -0.344184f, 0.195087f, 0.293480f, 0.179508f, -0.171203f, -0.397944f, -0.832798f, 0.112225f, -0.047402f, 0.939248f, 0.240094f, 0.199120f, 0.305028f, 0.238952f, -0.145758f, 0.254511f, -0.201811f, -0.281200f, 0.243501f, 0.558388f, -0.057241f, -0.427645f, -0.389428f, -0.830563f, 0.214588f, 0.344786f, 0.245154f, 0.944643f, 0.141252f, -0.067756f, 0.192394f, -0.660280f, -0.714666f, 0.259533f, -1.162942f, 0.177496f, 0.256841f, -0.466521f, -0.115952f, -0.577858f, -0.176607f, -0.268599f, 0.625496f, -0.529243f, -0.410803f, -0.211433f, -0.000277f, 0.661622f, -0.005735f, 0.308011f, -0.547125f, -0.090562f, 0.234534f, 0.051708f, -0.200586f, -0.452369f, 0.466703f, 0.164611f, -0.103110f, -0.442728f, -0.348179f, -0.415266f, -0.415344f, -0.240371f, -0.618286f, -0.054380f, 0.060507f, -0.421836f, 0.180628f, -0.218303f, 0.290106f, -0.352518f, -0.472381f, -0.216550f, 0.276513f, 0.305806f, 0.082846f, 0.624500f, 0.281637f, 0.490955f, 0.264124f, 0.280948f, -0.254007f, 0.033751f, -0.391156f, 0.284803f, 0.272793f, -0.245372f, -0.251248f, -0.190824f, 0.461911f, -0.179450f, 0.101397f, -0.493148f, 0.285482f, 0.546562f, 0.379010f, 0.244264f, -0.031054f, 0.599103f, -0.459562f, 0.390187f, 0.488741f, 0.647704f, -0.611082f, -0.120849f, -0.279902f, 0.101199f, 0.195631f, 0.248740f, -0.234190f, -0.218984f, 0.250638f, 0.203111f, -0.771284f, 0.495190f, -0.292229f, -0.273313f, 0.135121f, 0.536169f, 0.139563f, -0.218272f, -0.626121f, 0.222893f, -0.263311f, 0.051995f, 0.507849f, 0.297101f, 0.093600f, 0.132837f, -0.353917f, 0.534523f, 0.209652f, 0.520817f, -0.030899f, -0.574411f, 0.892609f, 0.396466f, -0.052779f, -0.938442f, 1.015630f, -0.465788f, 0.586332f, 1.102005f, -0.056591f, -1.057300f, -0.380787f, -0.943023f, 1.001569f, -0.477313f, 0.068293f, -0.947595f, 0.793273f, -0.898273f, -0.108841f, -0.780265f, 0.303330f, 0.282441f, 0.303971f, -0.891579f, -0.618969f, 0.583690f, 0.880802f, -0.209381f, 0.987240f, 0.627820f, -0.082136f, -0.694122f, -0.523526f, -0.991546f, -0.230515f, -0.416888f, -0.598673f, -0.935114f, 0.020816f, -0.352725f, -0.332997f, -0.054982f, 0.755070f, 0.390406f, -0.588765f, -0.882142f, 0.578253f, -0.983083f, 0.330056f, -0.058884f, -0.872010f, -1.168945f, 0.513216f, -1.001155f, 0.728018f, -0.551079f, 1.033357f, -0.307626f, -0.176921f, -0.532599f, 0.726538f, 0.817052f, -0.056248f, 1.144724f, 0.460920f, -0.901449f, 1.011274f, -0.662238f, -0.280309f, 0.719041f, -0.236033f, 0.353557f, 0.884109f, 0.166274f, 0.979044f, -0.486279f, 0.258972f, 0.136271f, -0.509499f, 0.936326f, 0.850073f, 0.998771f, -0.878028f, -0.263004f, -1.293932f, 0.239281f, 0.582216f, 0.188003f, 0.726647f, -1.038117f, -0.399961f, -0.528101f, -0.532923f, 0.902465f, -0.995416f, -0.317028f, 0.169342f, -0.294292f, 0.488673f, 0.203464f, -0.050285f, 0.306181f, -0.146761f, 0.228811f, 0.447717f, 0.438755f, 0.411539f, 0.208749f, 0.428670f, -0.452654f, -0.384024f, -0.254327f, 0.252095f, 0.720795f, -0.135449f, -0.661586f, -0.013197f, 0.788294f, 0.398164f, 0.057136f, -0.288103f, 0.562512f, 0.721346f, -0.341104f, -0.345588f, -0.327062f, 0.523683f, -0.384073f, 0.453096f, 0.247768f, -0.375540f, -0.838840f, -0.392026f, 0.219308f, 0.107614f, 0.766684f, 0.103206f, -0.582584f, 0.781932f, 0.258764f, -0.614951f, -0.865030f, 0.267105f, -0.159183f, -1.031293f, -0.721671f, -0.200972f, -0.311138f, -0.450563f, 0.039496f, -0.645734f, 0.276859f, -0.654242f, -0.340883f, 0.766872f, 0.352073f, 0.500583f, 0.441857f, 0.093847f, 0.840729f, -0.776705f, 0.374595f, -0.898333f, 0.433786f, 0.741029f, -0.169714f, 0.497039f, -0.278902f, 0.237315f, -0.440601f, -0.459306f, -0.476309f, 0.176075f, -0.687564f, 0.455326f, -0.227404f, 0.367591f, -0.463991f, 0.365808f, 0.153019f, -0.700270f, -0.170997f, 0.932937f, 0.818854f, -0.474594f, 0.729051f, -0.456700f, -0.286717f, 0.414071f, -0.228273f, 0.333247f, 0.786900f, 0.398349f, 0.611816f, -0.483659f, 0.160219f, -0.091738f, 0.115895f, 0.704218f, 0.549362f, -0.923099f, -0.254971f, -0.735677f, 0.829871f, -1.019760f, 0.254870f, 0.167026f, -0.753505f, -0.077434f, 0.209682f, -0.028486f, 0.762950f, -0.259829f, 0.577387f, -0.708410f, 0.017816f, -1.067450f, 0.562685f, -0.202392f, 0.929301f, 0.188512f, -0.672730f, -0.816988f, 0.022147f, -0.563181f, -0.323956f, -0.010362f, 0.499955f, -1.067486f, 0.250118f, -0.266273f, 0.398551f, 0.564594f, -0.140041f, -0.274947f, 0.571855f, 0.439398f, 0.547713f, 0.357008f, 1.035569f, 0.763422f, 0.504604f, -0.232365f, 0.678184f, 0.660348f, 0.931312f, -0.453244f, 0.758511f, -0.553590f, 0.245030f, -0.071551f, -0.238322f, 0.013883f, 0.884552f, -0.308556f, -0.059543f, -0.743223f, -0.310181f, 0.228606f, 0.426000f, 0.491727f, -0.797647f, 0.140988f, -0.602318f, 0.206224f, 0.355592f, -0.534457f, 0.877837f, -0.534734f, -0.156016f, 0.506110f, 0.579949f, -0.437667f, 0.716925f, 0.246495f, 0.500958f, -0.469151f, -0.674257f, -0.455105f, -0.660329f, -0.891365f, -0.402193f, 0.428178f, -0.369732f, 0.821096f, 0.826710f, -0.619605f, -0.230649f, 0.004992f, 0.670216f, 1.032976f, 0.356423f, -0.492299f, -0.416009f, -0.572480f, -0.492620f, 0.552200f, -0.609074f, 0.216263f, 0.469926f, -0.504412f, -0.553899f, -0.489457f, 0.571745f, 0.563734f, -0.004852f, 0.721073f, -0.038715f, 0.920137f, -1.163464f, -0.249371f, 0.101065f, -0.169397f, 0.490086f, -0.133903f, -0.126088f, -0.823261f, -0.193323f, 0.725198f, 0.741673f, -0.539719f, -0.615440f, 0.481597f, 0.742798f, -0.497433f, -0.525302f, 1.010274f, 0.972283f, -0.438813f, 0.001526f, -0.179322f, 0.669832f, 0.719385f, -0.403237f, -0.318957f, 0.650807f, 0.690996f, -0.185162f, -0.286491f, 0.301698f, -0.641195f, 0.449039f, -0.081606f, 0.388222f, 0.551937f, -0.652379f, 0.269780f, -0.769084f, -0.840631f, 0.600689f, 0.657371f, -0.649390f, -0.266661f, -0.244166f, -0.006562f, -0.995182f, 0.073146f, 0.475520f, 0.202898f, 0.567742f, 0.938539f, 0.757298f, 0.487351f, 0.148386f, 0.424794f, 0.470840f, 0.638251f, 0.419271f, 0.621117f, 0.236418f, -0.916971f, -0.626993f, -0.113282f, 0.697307f, 0.393293f, -0.605121f, -0.477902f, -0.666105f, -0.134344f, -0.213154f, -0.242226f, 0.800052f, -0.634072f, 0.521866f, -0.230561f, -0.079925f, -0.318784f, -0.388564f, 0.331229f, 0.037599f, -0.007796f, 0.544169f, -0.673700f, 0.859732f, -0.285840f, 0.075828f, -0.905419f, 0.088757f, -0.904468f, -0.273198f, 0.238205f, 0.236610f, -0.185221f, 0.299394f, -0.080889f, -0.150968f, -0.194149f, 0.538132f, 0.378308f, -0.412215f, -0.223663f, -0.436858f, 0.385650f, 0.688831f, -0.444757f, -0.348259f, -0.010979f, 0.244402f, 0.176641f, 0.042034f, 0.387572f, -0.351957f, 0.540116f, -0.296414f, -0.756629f, -0.261747f, 0.389174f, -0.010687f, 0.130299f, -0.058125f, -0.109498f, -0.191974f, -0.479318f, 0.384986f, 0.275368f, 0.485004f, -0.589334f, -0.474205f, 0.573174f, 0.664025f, -0.003068f, -0.103813f, 0.718514f, 0.182432f, -0.531240f, -0.382569f, -0.319781f, -0.359438f, -0.331035f, 0.059076f, -0.525327f, -0.285172f, -0.643541f, -0.577730f, 0.363860f, 0.055348f, 0.403794f, 0.113865f, 0.332834f, 0.423761f, 0.293427f, 0.527478f, -0.776713f, 0.135796f, 0.357754f, -0.471643f, 0.174937f, -0.280993f, 0.131637f, 0.059030f, -0.219481f, -0.312439f, 0.373786f, 0.091370f, 0.648301f, 0.533164f, 0.619361f, -0.344659f, -0.274547f, 0.414982f, -0.462192f, 0.353709f, 0.895484f, 0.061431f, -0.111955f, 0.528170f, 0.253161f, -0.448746f, 0.668457f, -0.364802f, 0.305219f, 0.352140f, 0.334228f, 0.303608f, -0.749515f, -0.537565f, -0.325549f, -0.263924f, 0.174848f, 0.091256f, -0.252176f, -0.070346f, 0.417233f, 0.417759f, 0.348608f, -0.035362f, -0.596063f, 0.333179f, 0.383312f, 0.467264f, -0.491233f, -0.205079f, 0.452801f, -0.559361f, 0.177256f, -0.457152f, -0.207096f, -0.220462f, -0.242634f, 0.423148f, -0.250269f, -0.350685f, 0.497451f, 0.445810f, 0.544523f, 0.306746f, 0.080863f, 0.481111f, 0.118553f, 0.334657f, -0.298356f, 0.369755f, 0.100612f, 0.342070f, -0.412207f, -0.035717f, 0.422281f, 0.238214f, -0.263329f, -0.198825f, -0.104620f, -0.286679f, -0.407282f, -0.307510f, 0.218930f, -0.352636f, -0.238528f, 0.290079f, 0.234939f, -0.686488f, -0.412835f, 0.208387f, 0.351791f, 0.039629f, -0.005040f, 0.348134f, -0.108540f, 0.491200f, -0.476048f, -0.083570f, -0.385657f, -0.550165f, 0.056740f, 0.069232f, 0.181134f, -0.431113f, 0.258540f, -0.629854f, 0.473944f, 0.130057f, 0.256289f, 0.179121f, 0.056563f, -0.368010f, 0.033087f, 0.191087f, -0.266132f, 0.093073f, 0.231858f, -0.189128f, 0.275377f, -0.119470f, -0.185601f, -0.217065f, 0.214220f, 0.460146f, 0.679629f, 0.339716f, 0.310445f, -0.089693f, -0.777195f, -0.001466f, -0.113820f, 0.222518f, 0.653619f, -0.073769f, -0.560117f, -0.142059f, 0.074041f, -0.669781f, 0.850233f, 0.253983f, 0.509515f, -0.909706f, 0.834026f, 0.028476f, -0.252265f, 0.917319f, 0.093170f, 0.261121f, -0.050471f, -0.635081f, 0.050706f, -0.589162f, 0.528688f, 0.298413f, 0.838452f, -0.482734f, 0.037122f, -0.709338f, -0.042034f, 0.532299f, 0.700236f, 0.334306f, 0.414207f, 0.216972f, -0.116420f, -0.242364f, 1.067530f, 0.285731f, 0.154764f, -0.374725f, -0.609153f, 0.017070f, 0.306036f, -0.752572f, -0.307192f, -0.405613f, -0.450157f, -0.637856f, -0.387884f, -0.478951f, 0.090040f, -0.554917f, -0.432108f, -0.815712f, 0.109902f, -0.652267f, 0.617185f, 0.097643f, 0.110023f, 0.097920f, 0.184485f, -0.798960f, 0.338262f, 0.565866f, 0.642221f, -0.001842f, -0.146056f, -0.502278f, -0.555496f, 0.546751f, -0.110704f, 0.275676f, -0.178689f, -0.452396f, 0.397401f, -0.815540f, 0.208106f, 0.132968f, -0.224400f, -0.534987f, 0.455640f, -0.676807f, -0.041822f, -0.417077f, 0.400162f, 0.666105f, 0.316065f, 0.730494f, 0.718437f, 0.199572f, -0.538313f, -0.116541f, -0.666171f, -0.555608f, 0.681080f, 0.152328f, 0.236056f, -0.692109f, -0.783890f, -0.567501f, 0.461720f, 0.483214f, 0.180324f, 0.206377f, -0.194291f, 0.389421f, 0.206385f, -0.191569f, 0.118747f, -0.012019f, -0.068429f, 0.003196f, -0.185405f, -0.129903f, -0.125094f, 0.093329f, 0.291581f, 0.238521f, -0.164159f, -0.156460f, -0.156116f, -0.023758f, 0.033145f, 0.145912f, -0.171752f, -0.085681f, -0.017415f, 0.102188f, -0.102080f, 0.103017f, -0.105262f, -0.015400f, 0.203753f, 0.217083f, 0.205927f, 0.298373f, 0.070165f, -0.051651f, 0.077440f, -0.209218f, 0.206565f, -0.040049f, -0.301424f, -0.116833f, -0.101270f, -0.072458f, 0.211814f, 0.260193f, 0.271472f, -0.000662f, -0.139657f, -0.030964f, -0.194323f, 0.278797f, 0.152180f, 0.167467f, 0.261862f, 0.210718f, 0.281551f, 0.042684f, -0.051718f, 0.083143f, 0.102757f, 0.265132f, -0.108490f, 0.036279f, -0.060525f, -0.263802f, -0.006592f, -0.229254f, -0.126632f, 0.008626f, 0.121895f, -0.075449f, 0.043017f, 0.045614f, 0.106950f, -0.072234f, 0.397186f, 0.067899f, -0.054367f, -0.134171f, -0.009406f, 0.059724f, 0.075114f, 0.174629f, 0.017334f, 0.348165f, -0.153624f, 0.017394f, 0.152551f, -0.145583f, 0.193733f, 0.108578f, 0.017261f, 0.126852f, 0.055786f, -0.151392f, 0.176816f, -0.331707f, 0.041880f, -0.350168f, 0.158209f, -0.075791f, 0.249498f, -0.333960f, -0.008694f, 0.107910f, -0.242696f, -0.626731f, -0.141899f, 0.701061f, -0.171805f, 0.436511f, -0.416298f, 0.155750f, -0.593262f, 0.118831f, 0.529866f, 0.290052f, -0.495190f, -0.064068f, 0.611674f, 0.010876f, 0.584306f, -0.232056f, -0.228003f, -0.402411f, 0.477222f, 0.058137f, 0.216935f, 0.108346f, 0.197296f, 0.215145f, -0.206887f, -0.888402f, 0.070157f, 0.583822f, 0.012054f, -0.334855f, 0.723736f, -0.205290f, 0.391356f, -0.497116f, -0.582693f, -0.015017f, -0.015561f, 0.549048f, 0.002815f, 0.519869f, -0.319671f, 0.273253f, 0.138856f, 0.322756f, -0.004484f, 0.164760f, -0.156483f, 0.624627f, -0.617096f, -0.253011f, 0.019631f, 0.358139f, 0.465925f, 0.636932f, 0.507039f, -0.569672f, -0.351463f, -0.485775f, 0.183703f, -0.056649f, 0.175349f, -0.610947f, -0.065306f, 0.448148f, -0.483778f, 0.379398f, -0.265951f, -0.320716f, 0.398292f, 0.420198f, -0.758939f, 0.227107f, -0.407357f, -0.488800f, -0.313926f, 0.153099f, 0.702005f, 0.338578f, 0.034938f, 0.422464f, -0.069944f, -0.185318f, -0.258098f, -0.299000f, 0.405891f, -0.286208f, 0.045174f, 0.012795f, -0.141897f, 0.065713f, -0.428461f, -0.252481f, -0.210443f, 0.120882f, 0.006880f, -0.216433f, 0.564321f, 0.261074f, 0.405281f, 0.119773f, 0.196178f, -0.491736f, 0.096963f, -0.325150f, 0.761795f, -0.454589f, -0.188844f, -0.419166f, -0.149924f, 0.772100f, 0.411944f, 0.300354f, -0.525971f, 0.086806f, -0.114069f, 0.210254f, -0.188227f, 0.237111f, 0.616801f, 0.440047f, -0.342135f, -0.510434f, -0.196132f, -0.126678f, -0.439840f, -0.446328f, -0.291546f, -0.366832f, -0.310005f, -0.620513f, 0.293749f, -0.663893f, 0.338265f, -0.004542f, -0.104734f, -0.260167f, 0.254729f, -0.194432f, -0.182375f, 0.769903f, 0.265751f, 0.143419f, 0.204778f, 0.240835f, -0.051918f, -0.207994f, -0.445719f, -0.150077f, 0.488074f, 0.227978f, -0.063336f, -0.171502f, -0.028501f, -0.338341f, 0.115710f, -0.447416f, 0.166344f, 0.380220f, 0.202347f, -0.012697f, 0.444468f, 0.496879f, -0.315074f, 0.440120f, 0.624389f, 0.662656f, -0.609484f, -0.115184f, -0.292368f, 0.649630f, 0.387438f, 0.153098f, -0.303384f, -0.328465f, 0.295880f, 0.474164f, -0.639366f, 0.130348f, 0.087035f, -0.260146f, -0.085553f, 0.515980f, 0.010756f, -0.233387f, -0.449503f, 0.532472f, -0.592227f, -0.126753f, 0.426178f, -0.476400f, 0.139675f, 0.111742f, 0.031598f, 0.567536f, 0.653157f, 0.576570f, -0.041682f, 0.224096f, 0.484236f, 0.476069f, -0.325716f, -0.068873f, -0.428757f, 0.018620f, 0.174292f, -0.244402f, 0.224678f, -0.004102f, -0.031317f, -0.052356f, -0.272665f, -0.141941f, 0.264732f, 0.532333f, 0.168569f, -0.454987f, 0.384884f, -0.151250f, -0.303167f, 0.176673f, -0.006144f, -0.092208f, 0.460622f, 0.466241f, 0.439975f, 0.010046f, -0.394445f, 0.333330f, 0.002997f, -0.133514f, -0.108135f, -0.056958f, 0.213651f, -0.317671f, 0.065416f, -0.084352f, 0.572375f, 0.274947f, 0.070050f, 0.128533f, 0.420790f, 0.291292f, -0.217999f, 0.017016f, 0.109824f, -0.084894f, 0.253550f, 0.175069f, 0.427716f, -0.075467f, -0.407464f, 0.046162f, -0.320647f, -0.243941f, 0.316708f, 0.037550f, -0.028837f, -0.190607f, -0.247866f, 0.051942f, -0.238174f, -0.446011f, -0.305214f, 0.059017f, 0.269746f, -0.150935f, 0.437639f, -0.200362f, 0.186630f, 0.232954f, -0.256749f, 0.121842f, 0.253602f, -0.179154f, 0.213920f, -0.399499f, 0.156823f, 0.335189f, 0.009003f, 0.024921f, 0.191944f, -0.111757f, 0.321340f, 0.141399f, -0.242116f, 0.451155f, -0.548580f, 0.194980f, 0.325632f, -0.201954f, 0.044732f, -0.200761f, -0.018245f, 0.107875f, 0.105511f, -0.049474f, -0.197629f, -0.788190f, -0.313799f, 0.284167f, -0.440563f, -0.097047f, -1.000656f, 0.183200f, 0.665014f, 0.406326f, -0.663668f, -0.127965f, 0.454860f, 0.961987f, 0.385299f, 0.092006f, -1.030289f, 1.057884f, 0.529372f, -1.078031f, -0.653506f, -0.115604f, 0.630258f, -1.035568f, -1.197171f, -0.337989f, -0.621560f, 0.553048f, -0.334983f, -0.628049f, -0.863443f, 0.503583f, -0.252804f, 0.265948f, 0.127506f, -0.857414f, 0.642928f, -1.055820f, -0.471082f, 0.442357f, 0.382740f, 0.524244f, 0.864663f, 1.115601f, 0.671103f, 0.899500f, 0.994257f, 0.299023f, 0.836744f, 0.771240f, 0.026552f, 0.744121f, -0.478029f, -0.984946f, -0.574507f, -0.673541f, -0.378274f, 0.306443f, -0.549468f, -0.717137f, 1.064212f, -0.614318f, 0.662573f, 0.659419f, 0.219755f, -0.144223f, 0.457038f, -0.723175f, -0.570671f, 0.606713f, -0.399065f, 0.754200f, 0.053851f, -0.267307f, 0.745635f, 1.200282f, 0.674937f, 0.764306f, -0.123530f, -0.476900f, -1.241255f, 0.905939f, -0.681895f, 0.625979f, 0.287771f, -1.117365f, -0.332085f, 0.396306f, 0.497717f, -0.514725f, 0.265633f, -0.160855f, 0.626463f, -0.672098f, 0.158742f, -1.427581f, -0.728676f, -0.618949f, -0.103980f, -0.574322f, 0.279077f, -0.401924f, 0.459405f, -0.778206f, -0.686722f, 0.492167f, -0.640785f, 0.605732f, -0.239303f, 0.233281f, -0.824404f, -0.586339f, 0.586605f, 0.759629f, -0.907674f, 0.608916f, 0.502933f, 0.673079f, 0.690545f, -0.494423f, 0.275000f, -0.384291f, 0.389536f, 0.961176f, -0.429873f, 0.511401f, -0.515156f, -0.326763f, -0.247732f, -1.087649f, -0.422668f, 0.615390f, 0.628782f, -0.765517f, 1.048870f, -0.404499f, 0.485895f, -0.368887f, -0.795667f, -0.593143f, -0.004050f, 0.687422f, -0.350908f, 0.569739f, 0.362098f, 0.847670f, -0.148006f, 0.735710f, 1.089991f, -0.493409f, -0.636184f, 0.902034f, -0.252591f, -0.379729f, -0.299724f, 0.641034f, 0.664624f, 0.266218f, 0.567715f, -0.652887f, 0.676918f, -0.198522f, 0.688580f, 0.681142f, 0.762868f, -0.590452f, -0.381828f, 0.713983f, -0.756600f, 0.728191f, -0.553328f, -0.368128f, -0.422565f, -0.074817f, -0.722534f, 0.665459f, -0.399141f, -0.917055f, 0.479782f, -0.510781f, 0.667328f, 0.700381f, -0.192812f, 0.618844f, 0.093988f, 0.049411f, -1.117599f, -0.812103f, -0.269537f, -0.402823f, -0.112184f, 0.298451f, 0.581222f, -0.399604f, -0.353755f, -0.719216f, -0.673097f, 0.082209f, 0.369964f, 0.260615f, 0.497198f, -0.507266f, -0.130474f, -0.083658f, -0.094054f, 0.260545f, -0.327958f, 0.473024f, -0.402449f, 0.610181f, -0.206352f, 0.371234f, -0.295269f, -0.183044f, -0.177668f, -0.048327f, 0.232479f, -0.054109f, 0.554694f, 0.093118f, -0.040090f, -0.437180f, -0.264648f, 0.109793f, 0.366965f, 0.314724f, 0.052462f, 0.203591f, -0.239163f, 0.585243f, -0.063157f, 0.412076f, -0.229034f, 0.309474f, -0.408792f, 0.197132f, -0.249404f, -0.487947f, 0.176415f, 0.046140f, 0.251206f, 0.377585f, 0.494585f, -0.341708f, -0.161358f, 0.263852f, -0.146807f, -0.285117f, -0.149643f, 0.364669f, 0.410225f, 0.199741f, -0.548215f, -0.366360f, 0.108826f, -0.144004f, 0.442329f, 0.487416f, -0.002240f, 0.188675f, -0.137742f, -0.117285f, -0.415051f, 0.261574f, -0.427039f, 0.196060f, 0.218771f, -0.111127f, -0.592489f, -0.220778f, 0.379565f, 0.134251f, -0.015020f, -0.232662f, -0.070003f, -0.097733f, 0.160063f, 0.537568f, -0.375327f, -0.455637f, -0.193942f, 0.395806f, -0.105998f, -0.317619f, 0.383143f, -0.396417f, -0.285341f, 0.543976f, 0.577016f, -0.651036f, 0.238096f, -0.213513f, -0.506288f, 0.556052f, -0.290431f, -0.306753f, -0.035169f, -0.005780f, -0.342693f, -0.352388f, 0.601195f, 0.114774f, 0.238756f, -0.215838f, 0.002833f, -0.593572f, -0.079907f, -0.356523f, 0.616135f, -0.503268f, -0.315483f, -0.414823f, -0.089724f, 0.602761f, 0.289898f, 0.271197f, -0.601989f, -0.120961f, 0.043914f, -0.099110f, -0.120804f, 0.027913f, 0.576362f, 0.173991f, 0.008049f, -0.477686f, -0.401915f, -0.399891f, -0.113457f, -0.620339f, -0.591284f, -0.279542f, -0.218599f, -0.550562f, 0.085760f, -0.653254f, 0.306051f, -0.405511f, -0.297491f, -0.283135f, 0.195687f, -0.153295f, 0.045374f, 0.728905f, 0.346675f, 0.225786f, 0.164533f, 0.300304f, -0.015038f, -0.191895f, -0.535920f, 0.184540f, -0.096436f, 0.107874f, -0.105221f, -0.377648f, 0.151659f, -0.187924f, 0.281971f, -0.508155f, 0.227135f, 0.725202f, 0.433184f, 0.269870f, 0.370966f, 0.639128f, -0.455635f, 0.562671f, 0.633607f, 0.577414f, -0.585282f, 0.077834f, -0.303876f, 0.547335f, 0.234052f, 0.308271f, -0.353150f, -0.427454f, 0.147346f, 0.348266f, -0.760186f, 0.376038f, -0.291898f, -0.031527f, 0.030262f, 0.506913f, -0.120851f, -0.125261f, -0.499253f, 0.448043f, -0.538298f, -0.264430f, 0.349546f, 0.008442f, 0.239071f, 0.316471f, -0.461767f, 0.473502f, 0.211996f, 0.579442f, -0.039860f, -0.354625f, 0.519396f, -0.301704f, 0.775582f, -0.084490f, 1.031257f, -0.609323f, 0.377300f, -0.145434f, 0.031711f, -0.464065f, 0.031444f, 0.743825f, 0.127569f, 0.685270f, -0.477097f, -1.047870f, -0.233710f, 0.966445f, -0.712429f, 0.291404f, 0.123257f, -0.067945f, -0.189699f, 0.551473f, -0.061543f, -1.376932f, -1.426858f, -0.653163f, 1.320385f, -0.930648f, -0.317964f, 0.078125f, 0.042631f, 0.056123f, 0.071487f, 0.689825f, 0.567428f, 0.556545f, -1.037156f, 0.371548f, -0.565694f, -0.805043f, 0.449385f, -0.696820f, -0.870530f, -0.278494f, 0.152418f, -0.320406f, -0.567541f, 0.348994f, 0.130420f, 0.913758f, 0.868833f, -0.261634f, 0.342187f, -0.131690f, -1.021526f, 0.119257f, 1.328276f, 0.784537f, -0.417156f, 0.613053f, -0.254668f, 0.490760f, 0.274691f, 0.298121f, -0.695181f, 0.280475f, -0.021098f, -0.229248f, -0.624667f, -0.272955f, 0.872436f, -0.784621f, -0.261357f, 0.921156f, 0.254853f, -0.277487f, -0.519426f, -0.666781f, 0.133635f, 0.911081f, -0.580957f, 0.914220f, -1.456379f, -0.251290f, -0.301494f, -0.882185f, 0.042551f, 1.043963f, -0.479742f, 0.727674f, 0.462025f, 0.858563f, -0.323543f, 0.401701f, -0.369005f, 0.446583f, 0.170887f, -0.568493f, -0.341163f, -0.517100f, 0.481708f, -0.742521f, 0.543453f, 0.562995f, 0.742908f, -0.350014f, -0.645997f, 0.602777f, -0.547004f, 0.682134f, -0.086030f, -0.424345f, 0.507893f, 0.002197f, 0.912094f, 0.575695f, -0.470695f, -0.873239f, -0.222530f, 0.673931f, -0.454200f, 0.307206f, 0.438489f, 0.720684f, -0.693946f, 0.044482f, -0.168868f, 0.599386f, -0.450043f, -0.461935f, 0.402395f, -0.327205f, -0.056057f, -0.592306f, 0.566433f, 0.803803f, -0.654899f, -0.084213f, 0.036028f, -0.434900f, -0.558134f, 0.489745f, -0.315094f, 0.640781f, 0.473385f, 0.449929f, 0.890653f, 0.460896f, 0.733620f, -0.385777f, 0.789481f, 0.578830f, 0.963850f, 0.858178f, -0.629727f, 0.075775f, -0.650530f, -0.340514f, -1.050129f, -0.611077f, 0.102249f, 0.311187f, 0.312647f, 0.648968f, -0.679972f, 0.577054f, -0.544729f, 0.415468f, 0.699789f, 0.506282f, 0.285469f, -0.684420f, 0.132826f, 0.564127f, -0.548980f, -0.072968f, -0.366131f, -0.417489f, 0.606965f, -0.399040f, -0.419798f, -0.732374f, 0.486812f, -0.720000f, -0.275645f, 0.407192f, -0.836880f, 0.307130f, -0.439118f, -0.200572f, -0.583610f, -0.358215f, 0.726013f, 0.894112f, 0.993530f, 0.283825f, 0.894763f, -0.575907f, -0.433363f, -0.514207f, -0.230513f, -0.716878f, 0.012818f, -0.627344f, 0.483269f, -0.496756f, 0.032601f, 0.426566f, -0.154202f, 0.348117f, -0.248092f, -0.265205f, 0.332923f, 0.239787f, -0.426053f, -0.380229f, -0.172869f, 0.125888f, 0.440210f, -0.073767f, 0.079876f, -0.286509f, 0.303368f, 0.700454f, -0.678679f, 0.471977f, 0.211045f, 0.342157f, -0.203843f, -0.229187f, 0.811563f, -0.514853f, -0.735159f, -0.634321f, 0.430894f, 0.027396f, -0.110304f, -0.506462f, -0.382313f, -0.078049f, -0.544409f, 0.569874f, -0.580264f, 0.419363f, 0.279528f, 0.642029f, 0.047000f, 0.463052f, -0.208229f, -0.406686f, 0.419273f, 0.768420f, 0.023456f, 0.105706f, -0.040143f, 0.275095f, -0.672104f, -0.137104f, -0.618489f, -0.618758f, -0.030646f, 0.609828f, -0.539188f, 0.235145f, 0.293629f, 0.572368f, 0.518027f, 0.241015f, 0.565766f, 0.499033f, 0.296373f, -0.254922f, -0.839095f, 0.665893f, -0.612806f, 0.899445f, -0.322713f, -0.227734f, -0.278268f, -0.166370f, -0.214682f, -0.075464f, -0.050307f, -0.051701f, -0.660271f, 0.450533f, -0.764379f, -0.272276f, 0.040108f, -0.165332f, -0.258612f, -0.590966f, 0.424661f, 0.061389f, 0.445642f, 0.258555f, -0.284564f, -0.225743f, -0.040808f, -0.089025f, -0.152765f, 0.125688f, -0.299828f, -0.207581f, -0.141475f, -0.047776f, 0.313056f, -0.015031f, 0.071220f, -0.141440f, 0.222028f, -0.188457f, 0.025108f, 0.002623f, -0.414498f, -0.001936f, 0.097210f, -0.016214f, 0.032867f, -0.033109f, -0.178654f, -0.195960f, -0.248119f, 0.115953f, 0.215495f, 0.376052f, 0.163603f, -0.175132f, 0.435813f, -0.153006f, -0.216530f, 0.215246f, -0.279869f, -0.102894f, -0.280027f, -0.227864f, 0.287738f, 0.219414f, 0.497385f, -0.155907f, -0.159260f, -0.138475f, -0.117831f, 0.322728f, 0.066004f, 0.195708f, 0.392066f, -0.234545f, 0.192800f, -0.004366f, -0.247795f, 0.397001f, 0.029402f, 0.147504f, 0.063853f, -0.179125f, -0.125578f, -0.249573f, -0.039886f, -0.267719f, -0.285543f, -0.199278f, 0.043442f, -0.199461f, 0.024675f, -0.007915f, 0.218796f, 0.064521f, 0.418800f, 0.152866f, 0.003912f, -0.050588f, -0.279636f, 0.296349f, 0.047689f, 0.419180f, 0.069546f, 0.159158f, 0.012308f, 0.063202f, 0.371172f, -0.185544f, 0.277966f, 0.015458f, 0.078855f, -0.112072f, 0.134277f, -0.186134f, 0.043976f, -0.353803f, 0.015962f, -0.268396f, 0.235282f, -0.161891f, 0.247688f, -0.316749f, -0.172415f, -1.085527f, -0.255169f, 0.010023f, 1.189720f, -0.293006f, -0.531756f, -1.543398f, 0.868033f, 0.316789f, -0.066905f, 0.237914f, -0.627127f, 0.645826f, 1.147666f, 0.403765f, -1.172048f, -0.706824f, -0.481303f, 0.234147f, -0.802066f, 0.459867f, 0.524288f, -0.952971f, -1.173304f, -0.628304f, -0.180478f, -0.594195f, -0.963854f, -0.785003f, 0.347444f, -0.867393f, -0.417505f, 0.435464f, 0.401652f, -0.579179f, -0.463651f, -0.181921f, -0.238458f, 0.457331f, -0.540282f, 0.245474f, 0.483076f, 1.089904f, 0.247094f, 0.196425f, 1.129177f, 0.969733f, 0.497191f, 0.522633f, -0.309484f, 0.606692f, -0.316739f, -0.752283f, 0.525224f, -0.819447f, -1.080235f, -0.623578f, -0.415133f, 0.030834f, 0.841452f, 0.105026f, 0.362554f, 0.754685f, 0.438807f, 0.591445f, 0.409654f, -0.798570f, -0.652228f, 0.534024f, 0.141227f, 0.729761f, 0.642878f, 0.604539f, 1.170426f, 0.560135f, 0.260278f, 0.975564f, -0.369626f, 0.581263f, -1.312083f, -0.030331f, -0.554807f, 1.198307f, -0.470354f, -0.126760f, -0.773366f, 0.435079f, -0.192951f, -1.063831f, 0.414824f, 0.426044f, 0.496496f, -0.540401f, 0.309875f, -0.549314f, -0.389986f, -0.569934f, 0.480340f, -0.966028f, -0.756756f, -0.271414f, 0.588220f, 0.033932f, 0.227530f, -0.077849f, 0.083581f, 0.663070f, -0.787388f, -0.263760f, -0.408895f, 0.060401f, 0.407437f, -0.401020f, -0.497761f, -0.085010f, 0.343046f, -0.207732f, 0.236139f, 0.499839f, 0.271655f, -0.418439f, -0.297219f, 0.485087f, -0.162118f, 0.353530f, 0.005194f, -0.215674f, -0.241774f, 0.171600f, -0.072662f, -0.280844f, 0.416627f, 0.616109f, -0.511343f, 0.604267f, 0.417681f, -0.102330f, -0.407744f, 0.112114f, 0.239682f, -0.044788f, 0.732612f, -0.257115f, 0.337788f, -0.071375f, -0.336512f, 0.338037f, -0.499880f, -0.380492f, 0.341884f, -0.539905f, 0.242765f, 0.743552f, 0.382521f, 0.472820f, -0.354707f, 0.218094f, -0.482339f, -0.153254f, 0.494115f, -0.343028f, 0.470502f, -0.575630f, -0.379490f, -0.358535f, -0.686643f, -0.186813f, -0.252412f, -0.202129f, -0.161904f, -0.399833f, -0.138931f, -0.410971f, -0.493810f, -0.067057f, -0.508114f, -0.133874f, 0.546957f, 0.170166f, 0.574090f, 0.196682f, 0.536631f, -0.657956f, 0.212003f, -0.474782f, 0.122777f, -0.293946f, 0.612440f, 0.280016f, 0.432772f, 0.708962f, -0.372735f, -0.150512f, 0.311574f, 0.078620f, -0.265734f, -0.352259f, -0.412399f, 0.691048f, 0.603022f, 0.342038f, 0.536961f, 0.107904f, 0.473027f, -0.721459f, 0.318275f, 0.473145f, 0.549318f, -0.276021f, -0.658495f, -0.884820f, 0.602883f, 0.292898f, -0.209772f, 0.058948f, 0.035506f, -0.654204f, 0.452396f, -0.175291f, -0.292113f, 0.237572f, 0.219693f, -0.393914f, -0.142102f, 0.227156f, -0.132584f, -0.000815f, -0.053523f, -0.813809f, -0.307703f, 0.681380f, 0.697158f, 0.310447f, 0.112963f, -0.430516f, 0.055575f, -0.188035f, 0.343214f, 0.380006f, -0.515701f, -0.545821f, -0.340390f, 0.340192f, 0.636737f, 0.604800f, 0.137572f, 0.380950f, -0.146772f, -0.058830f, -0.351774f, 0.292989f, 0.166554f, 0.646932f, 0.501585f, 0.063181f, -0.814991f, -0.491075f, -0.242031f, -0.534970f, 0.232394f, 0.281748f, -0.171050f, -0.596300f, 0.420565f, -0.649377f, -0.087825f, 0.149477f, 0.097451f, 0.039277f, -0.070392f, -0.240511f, -0.437728f, 0.848980f, -0.258824f, -0.148669f, -0.572995f, -0.478505f, 0.637663f, 0.536303f, -0.140026f, -0.211787f, 0.732697f, -0.090715f, -0.631725f, 0.248476f, -0.669042f, -0.118518f, -0.229863f, -0.287944f, -0.453781f, 0.135761f, -0.409658f, -0.153277f, -0.418679f, 0.245228f, -0.523222f, 0.416932f, -0.267543f, 0.152708f, 0.887096f, 0.726752f, -0.346699f, 0.372055f, 0.561917f, 0.019717f, 0.591486f, 0.199929f, 0.145521f, -0.547480f, 0.489790f, 0.356094f, -0.877726f, -0.374764f, -0.125554f, -0.479647f, 0.134922f, -0.159405f, 0.358924f, 0.684808f, 0.101932f, -0.089779f, -0.660145f, 0.513868f, 0.205482f, 0.509442f, 0.613303f, -0.018615f, -0.144983f, 0.028001f, 0.236824f, -0.253749f, -0.595978f, -0.059136f, 0.328336f, 0.421475f, 0.674201f, 0.084262f, 0.329038f, 0.564156f, -0.671859f, -0.230734f, -0.163477f, -0.341250f, -0.337938f, -0.564940f, 0.283309f, 0.234765f, -0.219397f, -0.441894f, 0.155626f, -0.484623f, 0.719134f, 0.547205f, 0.425223f, 0.100413f, 0.312687f, 0.226025f, -0.345051f, 0.622275f, -0.792185f, -0.229737f, -0.892504f, -0.450379f, 0.415969f, -0.591410f, 0.377940f, 0.524799f, -0.306220f, -0.017994f, 0.001827f, 0.281248f, -0.086275f, 0.491833f, -0.175744f, -0.480204f, 0.229429f, -0.690715f, -0.296549f, -0.247852f, 0.290685f, -0.308801f, 0.608346f, -0.494846f, -0.449840f, -0.157050f, 0.837074f, -0.228381f, -0.495256f, 0.721144f, -0.656076f, 0.456971f, -0.452694f, -0.135004f, -0.522090f, 0.668554f, 0.717562f, 0.741751f, 0.898756f, -0.027358f, -0.083049f, -0.662482f, 0.494442f, -1.067944f, -0.185706f, -0.367156f, 0.970970f, 0.447833f, 0.015360f, 0.644774f, -0.273382f, -1.095752f, 0.340206f, -0.925065f, 0.248242f, 0.767568f, -0.067528f, -1.045041f, 0.310094f, 0.817849f, -0.281377f, -0.107337f, 0.529242f, -0.045464f, 1.035472f, 0.396637f, -0.973849f, -0.774539f, -0.329193f, 0.519582f, 1.116620f, -0.408216f, 1.017056f, -0.281932f, -0.214795f, 0.809264f, -0.347473f, 0.993504f, 0.420843f, -0.004042f, -0.658043f, -0.828202f, -0.811647f, -1.157941f, -0.386183f, -0.581259f, -1.351929f, -0.488410f, -0.174495f, -0.624400f, -0.071592f, -0.402127f, 0.271856f, 0.912861f, 0.567188f, 0.669698f, 1.192460f, 0.675492f, 0.039544f, 0.374398f, 0.145637f, 0.778676f, 0.049726f, 0.317447f, -0.876363f, 0.897712f, -0.314171f, 0.669402f, -0.347360f, -0.548207f, 0.198179f, 0.537996f, -0.413019f, -0.798346f, -0.046424f, -0.848661f, -0.780682f, 0.702936f, -0.490421f, 0.586478f, 0.661479f, -1.017145f, 0.817719f, -0.413325f, 0.250066f, 1.405684f, -0.981347f, -0.578215f, 0.039969f, -0.804119f, 0.459792f, 0.060565f, -0.772916f, 0.824175f, 0.345893f, 0.975693f, -0.636446f, 0.638440f, -0.474332f, 0.883853f, 0.616677f, -0.609889f, 0.263919f, -0.684571f, -0.651610f, -0.513412f, -0.504893f, -0.423595f, -0.588557f, 0.586319f, -0.989590f, 0.680641f, 0.154219f, 0.809645f, 0.658552f, -0.753551f, -0.538977f, -0.798066f, -0.292878f, -0.539244f, -0.251347f, 0.677252f, 0.808146f, -0.988419f, 0.854552f, 0.057840f, -0.372630f, -0.519510f, -0.307855f, -0.206536f, -0.631480f, 0.574355f, 0.491546f, 0.453729f, -0.820851f, 0.004542f, -0.401066f, -0.071277f, -0.746367f, -0.548943f, 0.325569f, -0.480593f, 0.717149f, 0.764912f, 0.425609f, 0.696428f, -0.177108f, -0.757008f, -0.487157f, 0.180803f, -0.209699f, 0.123379f, -0.589227f, -0.706366f, 0.432424f, -0.102817f, 0.901309f, 0.948662f, -0.677765f, -0.497194f, 0.129946f, 0.758806f, 0.366250f, 0.459647f, 0.605377f, 0.716569f, -0.123773f, -0.158742f, 0.428420f, 0.232422f, -0.883416f, 0.483441f, -0.775275f, -0.687669f, 0.652094f, -0.721532f, -0.516608f, 0.605608f, 0.760577f, 0.599617f, -0.705909f, 0.707040f, -0.580020f, 0.428952f, 0.088291f, 0.635569f, -0.830829f, 0.516708f, 0.759136f, -0.612277f, 0.494957f, -0.540480f, -0.635216f, -0.413257f, 1.036071f, 0.189957f, -0.396366f, -0.655507f, -0.828676f, 0.943402f, 0.692770f, -0.833943f, 0.528851f, -0.288421f, 0.544861f, -0.944508f, -0.259333f, -1.036967f, -0.540991f, 0.149720f, -0.634715f, 0.642709f, 0.528171f, 0.651952f, 0.433281f, -1.133247f, -0.764353f, 0.714213f, 0.549376f, -1.547744f, -0.614732f, -0.646362f, 0.608144f, -1.217657f, -0.855540f, 0.169099f, -0.112679f, 0.645108f, -0.517674f, 0.192797f, -0.466956f, 0.051420f, 0.416881f, 1.066327f, 0.807083f, -1.092341f, 0.021754f, -1.218299f, -0.156212f, 0.687385f, -1.234687f, -0.471594f, 1.051317f, 1.033391f, 0.008686f, 0.935236f, 1.285447f, 0.921833f, 0.549895f, 0.110853f, 1.014218f, 0.281144f, 0.566074f, -1.217236f, 1.079951f, 0.084843f, -1.340872f, -0.810728f, -0.871828f, -0.382528f, 0.244671f, -1.090413f, 0.924692f, -0.592568f, 1.039507f, -0.030685f, -0.815189f, -0.522608f, -0.285323f, 0.362078f, -0.244278f, 0.249530f, 0.546152f, 0.690991f, -0.005974f, 1.227843f, -0.393429f, 0.855668f, -0.054152f, 0.658849f, -1.490604f, 1.425717f, 0.955759f, 0.530095f, -1.238744f, -1.206851f, 0.461403f, -0.709360f, 0.502016f, 0.579042f, 0.085529f, 0.231077f, 0.139016f, -1.553036f, -0.372783f, -1.160698f, 0.377253f, -0.583575f, 0.480261f, 0.025268f, -0.506408f, 0.594715f, 0.259791f, -0.533934f, -0.155875f, 0.853358f, -0.380620f, 0.208515f, -0.688157f, -0.189536f, -0.490820f, -0.249655f, 0.863688f, -0.397713f, 0.276444f, 0.599431f, 0.598366f, -0.839921f, 0.138407f, 0.522451f, 0.436320f, -0.432748f, -0.000295f, -0.458555f, -0.371209f, -0.255219f, -0.603084f, -0.174932f, 0.648233f, -0.113027f, 0.329090f, 0.219195f, 0.784834f, -0.114726f, -0.663964f, 0.670079f, 0.511955f, -0.330739f, -0.659439f, -0.337806f, 0.572744f, 0.467355f, 0.662584f, -0.609617f, -0.364245f, -0.225470f, 0.516142f, 0.698878f, -0.680851f, -0.311655f, 0.313880f, -0.720649f, -0.658740f, 0.325226f, -0.289661f, 0.839245f, 0.619296f, 0.538658f, 0.621226f, -0.397451f, 0.256370f, -0.227045f, 0.253881f, -0.833494f, -0.613257f, -0.612707f, -0.487749f, 0.238762f, -0.537382f, -0.580754f, -0.041354f, -0.637322f, 0.514482f, -0.673715f, -0.589292f, 0.569324f, -0.596062f, -0.035685f, 0.613666f, 0.197787f, 0.478894f, -0.220776f, 0.416145f, 0.306365f, 0.607471f, 0.099865f, 0.714654f, 0.252362f, 0.514139f, -0.434271f, 0.826616f, -0.294655f, -0.213945f, 0.132134f, 0.047266f, 0.170480f, -0.202037f, -0.346892f, -0.505495f, 0.048185f, 0.476243f, 0.163668f, 0.393557f, 0.069552f, 0.187137f, -0.204094f, -0.214876f, 0.392154f, -0.706112f, -0.224006f, -0.238836f, 0.249460f, 0.372664f, -0.309546f, -0.475103f, 0.073104f, 0.197365f, 0.482936f, -0.271870f, 0.272897f, -0.580084f, 0.257872f, 0.824860f, -0.381691f, -0.389850f, 0.492099f, -0.273199f, -0.421400f, -0.744417f, -0.068977f, 0.437735f, -0.354509f, 0.725322f, 0.686781f, -0.188389f, 0.437323f, 0.409367f, 0.195867f, 0.268059f, 0.558483f, -0.396439f, -0.419827f, 0.193762f, 0.314616f, -0.139447f, -0.132413f, 0.566090f, 0.914286f, -0.337128f, 0.829957f, 0.441010f, -0.485955f, 0.695331f, 0.433338f, 0.006753f, 0.901005f, -0.796246f, 0.623859f, -0.499636f, -0.412985f, 0.335075f, -0.663722f, 0.317218f, -0.725484f, -0.238447f, -0.619071f, -0.580382f, 0.579945f, -0.660100f, 0.256252f, 0.096423f, -0.170175f, 0.441979f, -0.188978f, -0.480585f, 0.767709f, -0.899462f, 0.868660f, 0.268798f, 0.645050f, 0.337028f, -0.782235f, 0.777852f, -0.387701f, -0.255142f, -0.372650f, 0.461582f, -0.847970f, 0.278252f, -0.637802f, -0.152278f, 0.765912f, -0.753153f, 0.206139f, 0.189399f, -0.749984f, 0.339578f, -0.388968f, -0.368496f, 0.427999f, -0.003442f, -0.622656f, -0.435185f, -0.458264f, 0.139141f, 0.317300f, 0.493875f, -0.533108f, 0.569940f, 0.273093f, -0.699067f, -0.074180f, -0.312766f, 0.667061f, 0.729792f, 0.514643f, -0.827066f, -1.306576f, -0.499160f, 0.271107f, -0.345350f, 0.666513f, 0.552787f, -0.858587f, 0.226631f, -0.376773f, -0.542273f, -0.958143f, -0.298169f, -0.158399f, -0.064231f, -0.516377f, -0.454333f, 0.533121f, 0.047360f, 0.213341f, -0.469730f, 0.668529f, 0.153751f, 0.254638f, -0.606055f, -0.187280f, -0.006683f, 0.412482f, 0.226306f, 0.012842f, -0.128578f, -0.066080f, 0.423459f, 0.668339f, -0.869167f, 0.445797f, -0.478514f, -0.287161f, 0.316939f, -0.206427f, -0.051252f, -0.266485f, -0.631955f, -0.238783f, 1.031543f, 0.730061f, 0.305997f, 0.542799f, 0.549201f, 0.749487f, 0.287778f, 0.358676f, 0.004937f, 0.772719f, -0.602481f, 0.435634f, -0.673746f, 0.071207f, 0.939827f, -0.119144f, -0.494803f, 0.724475f, -0.123204f, -0.285940f, -0.715507f, -0.397106f, -0.670425f, 0.652424f, -0.251244f, 0.962464f, -1.167011f, 0.403402f, -0.108780f, -1.123601f, 0.594796f, 0.020502f, 0.288834f, 0.611313f, 0.294206f, 0.274858f, -0.759159f, -0.150100f, -0.618552f, 0.684447f, -0.183619f, 0.578441f, 0.009740f, 0.451816f, 0.661295f, 0.632067f, 0.538362f, 0.357485f, -0.099653f, 0.297542f, 0.588499f, 0.302018f, -0.874031f, -0.641620f, -0.173877f, 0.533053f, -0.435933f, -0.174285f, 0.470296f, 0.407006f, 0.229526f, -0.098078f, -0.611287f, 0.169677f, 0.472260f, 0.155663f, 0.503996f, -0.571181f, -0.137167f, 0.577885f, -0.506872f, -0.480669f, -0.584560f, 0.364812f, 0.453154f, 0.744729f, 0.432286f, 0.318534f, 0.585654f, 0.318610f, -0.475625f, -0.233794f, -0.424759f, 0.089020f, -0.011291f, -0.675680f, 0.037021f, -0.441259f, -0.660494f, 0.036023f, -0.340114f, 0.166460f, 0.474862f, 0.076721f, 0.173298f, -0.499557f, -0.317761f, -0.249404f, -0.089374f, 0.690828f, 0.138388f, 0.328833f, -0.068075f, 0.289572f, 0.170284f, -0.068515f, 0.153508f, 0.419766f, -0.170819f, 0.515452f, -0.312963f, 0.454374f, -0.139692f, -0.164743f, 0.013188f, 0.205029f, 0.391420f, -0.312879f, -0.612907f, -0.616354f, -0.442800f, -0.242636f, 0.269861f, -0.643867f, 0.039487f, 0.457961f, 0.460820f, 0.213202f, -0.392406f, 0.308129f, 0.173250f, 0.284816f, -0.446959f, 0.654941f, -0.691448f, 0.728159f, 0.128322f, 0.650483f, -0.260362f, -0.014779f, -0.335046f, -0.199587f, 0.411207f, 0.812801f, 0.282330f, -0.831645f, 0.457207f, 0.612896f, 0.597402f, 0.142365f, -0.566710f, 0.354163f, -0.288304f, 0.803851f, 0.859336f, 0.189858f, -0.447832f, -0.119599f, 0.305516f, 0.332589f, -0.571147f, 0.353393f, 0.274666f, -0.241944f, -0.694370f, -0.151045f, 0.235546f, -0.218218f, -0.580389f, 0.050597f, -0.101834f, 1.041554f, -0.512559f, 0.336582f, -0.565078f, -0.726257f, 0.824921f, 0.225465f, 0.687367f, 0.629767f, -0.126885f, -0.936992f, -0.078297f, -0.758949f, -0.354890f, 0.551942f, 0.306716f, -0.897658f, -0.447658f, 0.735071f, 0.107075f, -0.782869f, -0.813028f, 0.003981f, 0.429514f, -0.629515f, -0.098290f, 0.199069f, -0.873427f, 0.923986f, 0.337275f, 0.499960f, -0.059055f, -0.469454f, -0.222712f, 0.592972f, 0.173208f, 0.282580f, -0.120607f, -0.487628f, -0.187990f, -0.680071f, -0.239204f, -0.344239f, 0.683242f, 0.071966f, 0.703872f, 0.888744f, -0.003323f, -0.564830f, -0.977774f, -0.612817f, -0.412931f, -0.652950f, -0.241263f, 0.087348f, 0.053164f, -0.173124f, 0.505418f, -0.240746f, -0.278002f, 0.488512f, -0.359550f, 0.372132f, 0.099341f, 0.323553f, 0.779939f, -0.119399f, -0.321818f, 0.480897f, 0.567248f, 0.007814f, -0.471721f, -0.238200f, 0.227980f, 0.592091f, 0.616469f, -0.585961f, -0.450054f, 0.552406f, 0.209441f, 0.400954f, 0.459015f, -0.222652f, -0.329410f, 0.451408f, -0.723556f, -0.412700f, -0.382130f, 0.264473f, -0.535982f, 0.575390f, 0.523014f, -0.279331f, -0.599868f, 0.259935f, -0.037049f, -0.737393f, -0.399786f, -0.563605f, 0.164135f, -0.525865f, 0.212737f, 0.242174f, 0.600887f, 0.114450f, 0.166327f, 0.649680f, 0.548883f, 0.421642f, -0.391382f, -0.452383f, -0.664606f, 0.604072f, -0.113796f, -0.581803f, 0.229575f, -0.018599f, -0.215128f, 0.430389f, -0.226434f, 0.403947f, -0.077801f, 0.074675f, 0.515578f, 0.138619f, -0.560536f, 0.090019f, -0.523068f, 0.392815f, 0.747968f, 0.233405f, 0.503446f, -0.084185f, 0.316779f, 0.149774f, 0.105664f, -0.006444f, -0.231408f, 0.266346f, 0.055046f, -0.027448f, 0.093574f, 0.009794f, -0.223409f, 0.498677f, -0.342242f, 0.621779f, 0.347659f, 0.097994f, -0.334378f, -0.279126f, -0.170010f, -0.029876f, -0.329685f, 0.522177f, -0.697801f, -0.588141f, 0.017564f, -0.406876f, 0.944933f, 0.459307f, -0.355795f, 0.366056f, 0.263247f, 0.469792f, 0.188166f, -0.702260f, -0.316240f, 0.053163f, -0.259559f, -0.134355f, -0.004676f, 0.504299f, -0.273646f, -0.033261f, -0.457699f, 0.156055f, -0.637151f, 0.001447f, -0.080112f, 0.297955f, 0.124411f, -0.333637f, -0.103167f, -0.385269f, 0.244105f, 0.386747f, -0.354524f, -0.098853f, 0.219276f, 0.443456f, -0.438248f, 0.265069f, -0.625231f, 0.084635f, 0.398080f, 0.384269f, 0.365608f, 0.003007f, 0.335566f, 0.203657f, 0.249488f, 0.089641f, 0.164806f, -0.150144f, -0.339391f, -0.103156f, 0.099670f, 0.007447f, -0.018069f, -0.198787f, 0.178832f, -0.172081f, -0.135464f, 0.065670f, -0.107762f, 0.443612f, 0.487790f, 0.038950f, 0.333315f, -0.031812f, -0.042427f, 0.321265f, 0.011741f, 0.421047f, -0.489476f, -0.128906f, 0.076580f, 0.236337f, -0.379690f, -0.464904f, -0.125039f, -0.527414f, 0.409955f, -0.557689f, 0.479494f, -0.498682f, 0.143796f, -0.368504f, 0.431028f, -0.128829f, 0.516818f, 0.582837f, -0.302251f, -0.146664f, 0.204559f, -0.222315f, -0.098502f, 0.134691f, 0.562070f, -0.136899f, 0.183685f, 0.352707f, -0.302384f, -0.413065f, -0.092235f, 0.097118f, 0.324277f, 0.329804f, -0.005777f, -0.075155f, 0.194758f, -0.534883f, -0.127666f, -0.455864f, 0.774995f, 0.029621f, 0.415780f, -0.419431f, 0.058034f, 0.302326f, 0.292220f, 0.862806f, 0.262855f, -0.560605f, -0.087350f, -0.206274f, 0.686855f, -0.521446f, -0.566016f, 0.257032f, 0.609611f, 0.476918f, 0.766935f, 0.104791f, -0.666252f, -0.275344f, 0.127872f, 0.195344f, -0.681027f, -0.388049f, 0.497570f, -0.410807f, -0.739201f, -0.724618f, -0.719677f, 0.247459f, -0.498511f, 0.139543f, -0.396021f, -0.221989f, 0.621458f, -0.184207f, -0.692918f, -0.272561f, 0.228367f, -0.580381f, 0.095730f, 0.242315f, 0.086498f, -0.845439f, 0.934226f, -0.137589f, 0.435255f, 0.632670f, 0.020100f, 0.477034f, 0.095905f, 0.900096f, 0.449507f, -0.947632f, 0.392014f, 0.149586f, 0.273025f, 0.601750f, 0.125086f, -0.301591f, -0.471175f, -0.353022f, 0.101473f, -0.114884f, 0.026740f, -0.766727f, -0.003215f, 0.181752f, -0.259104f, 0.240974f, -0.156137f, 0.283874f, -0.421894f, -0.240915f, 0.834889f, 0.785199f, -0.027886f, 0.090398f, 0.202225f, 0.958663f, 0.372481f, 0.652563f, -0.976692f, -0.795592f, 0.373060f, -0.328585f, 0.374481f, -0.050978f, 0.646087f, -0.597711f, -0.537693f, 0.239404f, -0.362892f, 0.158307f, 0.138485f, -0.720233f, -0.174248f, -0.545089f, 0.385729f, 0.499020f, 0.611861f, 0.308074f, 0.155199f, 0.448993f, -0.320713f, -0.255685f, -0.881601f, 0.302282f, -0.511557f, 1.042501f, 0.062281f, 0.667976f, 0.121260f, -0.461151f, 0.235548f, -0.132242f, 0.349770f, 0.118932f, 0.785530f, 0.510048f, 0.104244f, -0.117094f, -0.035230f, -0.412632f, 0.588922f, 0.365589f, 0.016816f, -0.726721f, -0.337043f, 0.414879f, 0.884632f, -0.197115f, -0.603355f, 0.947503f, -0.119344f, -1.113236f, -0.366530f, -0.449151f, -0.484279f, 0.066127f, -0.370856f, -0.899662f, 0.780614f, 0.405118f, -0.372287f, -0.061537f, -0.513971f, 0.694318f, -0.689169f, -0.981534f, -0.196811f, -0.211045f, 0.214899f, 0.027963f, -0.699447f, -0.451242f, -0.979802f, -0.453959f, 0.914273f, 0.731709f, 0.987089f, 0.061629f, -1.124214f, -0.052089f, 0.428710f, -0.110250f, -0.958842f, -0.030555f, 0.326874f, -0.041983f, 0.880030f, 0.113950f, 0.138161f, -0.914258f, 0.440753f, 0.438677f, -0.957354f, 0.297474f, 0.500791f, -0.462520f, 0.044478f, -0.338185f, 0.323048f, 0.045397f, -0.160965f, 0.010647f, 0.616187f, -0.292099f, 0.351694f, 0.177972f, 0.553245f, 0.271044f, 0.517327f, -0.881206f, 0.243382f, 0.704266f, -0.651843f, 0.026016f, 0.073517f, -0.156856f, 0.106138f, -0.576350f, 0.775404f, 0.400829f, 0.345256f, 0.278181f, 0.081402f, 0.067259f, -0.184497f, -0.356869f, 0.562577f, -0.361902f, 0.262695f, 0.046757f, 0.064456f, 0.127729f, 0.135799f, -0.130912f, 0.174021f, 0.148800f, -0.090139f, -0.357470f, 0.386659f, -0.142078f, -0.388857f, 0.461067f, 0.346979f, -0.182937f, 0.527785f, 0.034406f, 0.417961f, -0.366249f, 0.407645f, -0.129693f, -0.194523f, -0.439271f, -0.312001f, 0.075819f, -0.067578f, -0.045322f, -0.024524f, -0.434881f, 0.418118f, -0.051365f, 0.020120f, -0.337536f, 0.147480f, -0.369083f, -0.322697f, -0.322865f, 0.166085f, -0.261512f, -0.010766f, -0.005377f, 0.117287f, 0.441840f, -0.438686f, -0.176012f, -0.020113f, -0.358757f, 0.686250f, 0.303502f, 0.208319f, 0.293196f, -0.620797f, 0.447695f, -0.022157f, -0.150975f, 0.197213f, -0.110448f, 0.235695f, -0.383344f, 0.459729f, -0.355396f, 0.274866f, -0.012858f, 0.133179f, -0.453167f, 0.049421f, -0.462231f, 0.243787f, -0.283236f, 0.271072f, 0.273410f, -0.406464f, 0.499850f, 0.322551f, 0.371203f, 0.012283f, 0.483320f, -0.492612f, 0.347045f, -0.492124f, -0.472889f, 0.445363f, -0.352744f, 0.247528f, 0.501957f, 0.405692f, 0.234873f, 0.176598f, 0.006866f, -0.408004f, 0.632397f, 0.342180f, 0.512059f, 0.648773f, 0.791803f, -0.435030f, 0.676928f, -0.549224f, 0.480733f, -0.169800f, -0.384690f, 0.029703f, -0.442885f, 0.129691f, 0.715161f, 0.263588f, -0.222795f, 0.606362f, 0.719183f, 0.046820f, -0.550147f, 0.234485f, 0.214635f, 0.081145f, -0.302768f, -0.537055f, -0.239573f, 0.256669f, -0.143703f, 0.359320f, 0.034167f, 0.321713f, -0.320262f, -0.860866f, 0.683335f, 0.398301f, -0.548475f, -0.698453f, -0.407276f, 0.554282f, 0.664070f, 0.824814f, -0.470303f, 0.268937f, -0.507266f, 0.234459f, 0.562843f, -0.401399f, 0.066317f, 0.283123f, -0.573313f, -0.026653f, 0.436455f, -0.629092f, -0.249118f, 0.412648f, 0.535434f, 0.539329f, -0.520733f, 0.345254f, -0.421603f, 0.006312f, -0.026289f, -0.497805f, -0.739572f, -0.067345f, 0.271962f, -0.818434f, 0.165464f, -0.462761f, -0.352294f, 0.443435f, -0.049049f, -0.551009f, 0.545432f, 0.215216f, -0.175551f, 0.448246f, -0.429312f, -0.058973f, -0.060620f, -0.028760f, -0.323030f, 0.660853f, -0.397180f, 0.614552f, 0.294868f, 0.128629f, -0.671958f, 0.168198f, -0.292140f, -0.060815f, 0.567942f, -0.138864f, -0.179101f, -0.363327f, 0.428687f, 0.482343f, -0.653467f, 0.490979f, 0.302077f, 0.397147f, 0.404787f, -0.000649f, 0.085159f, -0.369483f, -0.224642f, 0.398981f, -0.608154f, 0.145367f, 0.175670f, -0.007172f, 0.268580f, -0.053597f, -0.215845f, 0.259387f, 0.298380f, -0.001251f, -0.533380f, 0.470923f, -0.227355f, -0.570137f, 0.346013f, 0.209400f, -0.389438f, 0.525712f, 0.375359f, 0.424776f, -0.237963f, -0.043737f, -0.146379f, -0.228529f, -0.291497f, -0.358405f, 0.234327f, 0.164597f, -0.289372f, -0.035315f, -0.222843f, 0.537946f, 0.218466f, 0.257878f, -0.165281f, 0.325562f, -0.114940f, -0.345654f, -0.155964f, 0.342158f, -0.053446f, -0.057652f, 0.139548f, 0.128577f, 0.302956f, -0.355918f, -0.060369f, -0.129707f, -0.272183f, 0.424979f, 0.154079f, 0.176168f, -0.041710f, -0.450831f, 0.238564f, -0.090403f, -0.205820f, -0.043700f, -0.060113f, 0.296161f, -0.242502f, 0.458171f, -0.086152f, 0.201669f, 0.088265f, 0.266628f, -0.398360f, -0.124848f, -0.417780f, 0.185526f, -0.556193f, 0.376693f, 0.335008f, -0.224472f, 0.385058f, 0.262910f, 0.093300f, 0.308803f, 0.440431f, -0.334153f, 0.409723f, -0.636534f, -0.066821f, 0.593746f, -0.407669f, 0.456870f, 0.114875f, 0.307046f, 0.051847f, 0.296515f, 0.183509f, -0.336295f };
static const float MLP_layer_2_biases[26] = { 0.091069f, -0.073284f, 0.039838f, -0.050844f, 0.012951f, -0.133311f, 0.088080f, 0.092865f, -0.014472f, 0.062605f, 0.086695f, -0.083030f, 0.142766f, -0.027858f, 0.095466f, 0.075568f, 0.079401f, 0.039773f, 0.082875f, -0.171165f, -0.072134f, 0.061557f, 0.049618f, 0.014622f, 0.057265f, 0.075340f };
static const float MLP_layer_2_weights[2600] = { -0.600192f, 0.301690f, -0.683676f, 0.269800f, 0.555778f, -0.346281f, -0.536999f, -0.377293f, -0.374180f, -0.056699f, 0.198073f, 0.271302f, -0.042012f, -0.451495f, -0.382072f, -0.508386f, -0.737471f, 0.296567f, -0.377211f, 0.340100f, 0.321270f, -0.054357f, 0.351193f, 0.276669f, -0.532899f, 0.325732f, 0.188252f, 0.183590f, 0.330933f, -0.023982f, -0.791557f, -0.406075f, 0.224621f, 0.253750f, -0.585756f, -0.006930f, 0.111747f, 0.205390f, -0.708771f, 0.195860f, -0.503376f, 0.401857f, 0.273801f, 0.034755f, -0.268015f, 0.030192f, 0.093469f, 0.156725f, 0.208639f, 0.161543f, -0.598477f, 0.073778f, 0.187287f, -0.167061f, 0.158926f, 0.174473f, -0.071189f, -0.368149f, 0.277967f, -0.652521f, -0.624624f, -0.507851f, 0.424259f, 0.101866f, 0.117458f, 0.080131f, -0.314194f, 0.098028f, -0.650180f, -0.570203f, 0.148164f, 0.499146f, 0.281553f, 0.230217f, 0.431957f, 0.293407f, -0.562608f, -0.045944f, -0.009280f, 0.210552f, 0.499470f, 0.336325f, -0.993170f, -0.039266f, -0.770352f, -0.450313f, -0.236414f, -0.275853f, 0.311130f, -0.078727f, -0.225089f, 0.046053f, 0.410877f, -0.315527f, -0.731162f, 0.007261f, -0.586062f, 0.590669f, 0.259678f, 0.296772f, 0.263139f, 0.310733f, -0.458536f, -0.098511f, -0.487398f, -0.446555f, -0.625210f, 0.095593f, 0.532021f, 0.188292f, 0.218364f, 0.238761f, 0.084852f, 0.299904f, -0.670306f, -0.688347f, 0.188451f, -0.611982f, 0.274007f, -0.251773f, -0.295231f, 0.617924f, 0.425654f, 0.343948f, -0.154126f, -0.769454f, -0.553630f, 0.491248f, -0.357518f, 0.279288f, -0.658710f, 0.380819f, 0.440074f, -0.616909f, -0.108570f, 0.419943f, -0.589996f, -0.357753f, 0.277916f, -0.506868f, 0.270101f, -0.498172f, -0.813420f, 0.757999f, 0.357551f, 0.396021f, 0.082480f, 0.188580f, -0.369120f, -0.123535f, 0.344619f, 0.204568f, 0.085241f, -0.744508f, -0.379924f, 0.393056f, -0.551102f, 0.541000f, 0.443159f, -0.693776f, 0.830271f, 0.342869f, 0.484145f, 0.345601f, 0.182368f, 0.344015f, -0.566512f, -0.162281f, -0.194717f, 0.025062f, -0.569463f, -0.263265f, -0.687234f, -0.350396f, -0.199676f, 0.381966f, -0.630010f, -0.111587f, -0.486020f, 0.313544f, 0.112726f, -0.404710f, 0.429540f, 0.356176f, -0.691573f, -0.490022f, 0.153766f, 0.057249f, -0.331306f, 0.362989f, -0.732125f, -0.466727f, 0.544994f, 0.052854f, 0.350333f, 0.574109f, 0.374645f, -0.132127f, -0.689063f, -0.227991f, 0.174806f, -0.621984f, 0.123935f, 0.337124f, 0.345234f, -0.591008f, -0.122919f, -0.563896f, 0.387693f, -0.470030f, -0.331049f, -0.420759f, -0.509756f, 0.539319f, 0.397639f, 0.270831f, 0.431393f, 0.411553f, -0.300319f, -0.578884f, -0.638145f, 0.452837f, -0.412123f, 0.306287f, 0.089253f, -0.199743f, 0.493129f, 0.471683f, -0.420934f, -0.354248f, -0.439820f, -0.015402f, 0.461522f, -0.593228f, -0.139094f, -0.547743f, -0.123981f, -0.467043f, 0.154003f, -0.352261f, -0.266403f, -0.675811f, 0.390441f, -0.366217f, -0.038759f, -0.631020f, 0.228193f, 0.368913f, 0.131637f, 0.137329f, -0.426602f, 0.289007f, 0.397507f, 0.324983f, 0.220488f, -0.975795f, 0.555223f, 0.116094f, -0.622152f, 0.111654f, 0.424265f, -0.518485f, 0.229472f, 0.458942f, 0.077708f, 0.066819f, -0.696420f, -0.550587f, 0.098360f, 0.013686f, -0.751082f, -0.435803f, 0.439304f, 0.041511f, 0.088205f, 0.001186f, 0.343016f, -0.732947f, -0.186553f, 0.073142f, -0.633408f, 0.427625f, -0.078369f, 0.272232f, 0.213426f, 0.205510f, -0.675251f, 0.255532f, -0.538322f, 0.303526f, -0.315630f, -0.504173f, 0.639454f, 0.114976f, -0.389700f, 0.305387f, -0.374310f, 0.197932f, -0.438167f, -0.517235f, -0.350939f, -0.463216f, 0.655917f, 0.271566f, -0.111621f, -0.691236f, 0.381863f, 0.200086f, -0.413345f, -0.152454f, -0.174974f, 0.512719f, 0.578618f, 0.272087f, -0.463519f, 0.421200f, -0.189817f, 0.261790f, -0.503462f, 0.394227f, -0.599377f, 0.070599f, -0.653876f, 0.154160f, 0.490918f, -0.761312f, 0.383723f, -0.344523f, -0.105442f, 0.075751f, -0.255324f, -0.672326f, 0.204801f, 0.254464f, 0.269960f, -0.746004f, 0.459593f, -0.333602f, 0.230441f, -0.440874f, -0.640055f, -0.599445f, -0.637276f, 0.039003f, -0.160631f, 0.232065f, -0.669148f, -0.549166f, 0.385810f, 0.559145f, -0.069550f, 0.275320f, -0.139145f, 0.349513f, 0.370204f, -0.770395f, 0.344134f, 0.473208f, 0.331109f, 0.523765f, -0.507663f, -0.364827f, 0.437312f, -0.260194f, -0.673697f, 0.260975f, -0.784951f, 0.178015f, 0.143583f, 0.343910f, 0.304166f, 0.330867f, 0.265616f, 0.284921f, 0.285505f, -0.743477f, -0.468557f, -0.723255f, 0.462985f, -0.509290f, -0.567669f, 0.370566f, 0.491289f, -0.628687f, 0.384508f, 0.142997f, 0.181129f, -0.018172f, -0.510063f, -0.556143f, -0.073802f, -0.258251f, 0.364915f, -0.487658f, 0.502449f, -0.467966f, 0.482255f, -0.088765f, -0.316510f, -0.045620f, -0.644276f, 0.276187f, -0.033319f, 0.496678f, -0.395019f, -0.441872f, 0.374178f, 0.107805f, -0.315556f, 0.351888f, -0.554419f, -0.469560f, -0.364984f, 0.410025f, -0.172909f, -0.028598f, 0.053776f, -0.227793f, 0.401462f, 0.511796f, 0.309694f, -0.497094f, 0.588301f, -0.428773f, 0.226133f, 0.340066f, -0.466014f, 0.310138f, 0.701359f, 0.186623f, -0.545530f, -0.519725f, -0.423667f, -0.243750f, 0.061076f, -0.292429f, -0.483331f, -0.642652f, 0.514631f, 0.217693f, -0.053303f, 0.194320f, 0.002450f, 0.391954f, 0.407905f, -0.026188f, -0.516755f, 0.285710f, 0.388971f, 0.314702f, -0.435146f, 0.344468f, 0.439090f, 0.146267f, -0.371223f, 0.701435f, -0.770522f, -0.420327f, -0.133055f, -0.192945f, -0.586916f, 0.370709f, -1.028357f, 0.318236f, -0.492717f, 0.232996f, 0.128583f, -0.726972f, -0.549865f, 0.116046f, -0.411916f, 0.020831f, 0.262667f, 0.459986f, -0.266635f, -0.391354f, 0.440576f, 0.342114f, 0.319382f, -0.554997f, -0.870997f, -0.828906f, 0.586977f, -0.145154f, -0.530329f, 0.310261f, -0.607925f, -0.147064f, 0.351098f, 0.266577f, 0.131872f, 0.303017f, -0.368529f, -0.545183f, -0.326737f, -0.296160f, -0.246741f, 0.263151f, 0.384264f, -0.509691f, 0.245299f, 0.080549f, -0.589775f, -0.130174f, 0.267214f, -0.017042f, 0.093863f, 0.122460f, -0.192914f, 0.228684f, 0.281803f, 0.258049f, -0.023324f, 0.115215f, 0.311537f, -0.413224f, 0.216790f, 0.209682f, -0.569306f, 0.098874f, -0.097952f, 0.287632f, -0.300023f, -0.091700f, 0.261853f, 0.051519f, -0.493400f, -0.511858f, 0.384515f, -0.499673f, -0.546167f, -0.516105f, 0.092962f, -0.605402f, 0.268788f, 0.376088f, -0.407289f, 0.115549f, 0.381338f, -0.642625f, 0.577994f, -0.504107f, 0.361902f, -0.245933f, 0.211646f, 0.385316f, 0.366715f, 0.269777f, -0.262632f, 0.243450f, -0.589946f, 0.292810f, -0.150608f, 0.351545f, 0.372530f, 0.255552f, -0.166802f, 0.378222f, -0.615198f, -0.671461f, -0.545356f, -0.564818f, -0.024397f, 0.336076f, 0.093726f, -0.749298f, 0.177632f, 0.052531f, -0.237685f, -0.536395f, 0.576692f, -0.526560f, -0.255006f, -0.337688f, 0.415053f, 0.058897f, 0.598351f, -0.382347f, 0.381694f, 0.005215f, -0.506643f, -0.363433f, 0.170859f, 0.295285f, -0.345037f, 0.488872f, -0.299171f, -0.020453f, -0.094696f, 0.172153f, -0.403841f, 0.368497f, -0.850426f, 0.448963f, 0.248244f, 0.096537f, -0.258749f, -0.422038f, 0.269172f, -0.510665f, 0.159766f, -0.590184f, 0.615647f, 0.023426f, -0.177567f, 0.426904f, -0.531144f, -0.493052f, 0.487876f, -0.618503f, -0.561133f, 0.422307f, -0.137167f, 0.207244f, 0.082657f, 0.592994f, 0.099485f, 0.267519f, -0.175130f, -0.556371f, -0.214023f, 0.354044f, -0.444072f, -0.410968f, -0.683820f, 0.243168f, 0.386654f, 0.106611f, 0.046218f, 0.292730f, -0.286500f, -0.584994f, 0.391533f, 0.328189f, -0.611024f, -0.651104f, -0.012121f, -0.063053f, 0.176630f, 0.240420f, -0.312170f, 0.415261f, -0.636537f, -0.674246f, 0.291516f, -0.432566f, 0.276002f, 0.373403f, -0.248495f, 0.338450f, 0.235005f, -0.406951f, 0.322602f, 0.020389f, 0.250975f, -0.464791f, -0.545423f, -0.542315f, -0.123183f, -0.577663f, -0.516748f, -0.264262f, 0.476037f, 0.262340f, 0.351509f, 0.043678f, 0.102923f, -0.487119f, -0.196917f, 0.454965f, -0.812572f, -0.108225f, 0.618457f, 0.396129f, -0.567717f, 0.349726f, 0.447143f, -0.245553f, 0.465552f, -0.582457f, 0.168413f, -0.467651f, 0.463863f, -0.554275f, -0.463800f, -0.234695f, -0.056306f, 0.632506f, 0.517361f, 0.491128f, -0.642793f, -0.522910f, 0.450325f, -0.500617f, -0.172314f, 0.382813f, -0.324652f, -0.344432f, -0.284849f, -0.020727f, 0.384285f, -0.309714f, 0.113332f, -0.427357f, -0.830410f, -0.834168f, 0.430010f, -0.530224f, 0.315940f, 0.308876f, -0.423913f, -0.495457f, 0.390568f, 0.303660f, 0.116853f, 0.229531f, -0.427306f, 0.260049f, 0.263178f, -0.340659f, 0.366614f, 0.297111f, -0.239759f, -0.630488f, -0.396776f, -0.004693f, -0.356194f, 0.398965f, -0.552606f, -0.487924f, 0.302517f, -0.435844f, 0.121766f, -0.133910f, -0.522220f, -0.392921f, 0.221704f, 0.273719f, -0.129308f, -0.634853f, 0.259056f, 0.226031f, 0.125021f, 0.335026f, 0.201574f, -0.661874f, 0.139953f, -0.133066f, 0.729417f, -0.655665f, -0.042716f, 0.220801f, 0.026658f, 0.031104f, 0.328235f, -0.495818f, 0.361951f, -0.346528f, -0.550591f, -0.278865f, 0.281924f, -0.642866f, -0.342002f, -0.585259f, 0.176991f, 0.296324f, -1.002078f, 0.636508f, 0.506564f, 0.067152f, 0.208196f, 0.427314f, -0.201630f, 0.198479f, 0.314776f, 0.361140f, -0.149965f, 0.276039f, -0.387275f, 0.142282f, 0.262062f, 0.120787f, -0.182155f, -0.608625f, 0.313446f, 0.185672f, 0.324040f, 0.348714f, 0.019866f, 0.399050f, -0.570136f, 0.095991f, 0.104020f, 0.299600f, -0.629761f, -0.364042f, 0.448687f, -0.540525f, 0.032643f, 0.187022f, -0.421198f, -0.433739f, -0.323826f, -0.054002f, 0.339339f, -0.551302f, -0.497902f, 0.191007f, -0.220290f, 0.144224f, -0.287429f, -0.529758f, 0.436679f, 0.073960f, 0.117307f, 0.269832f, 0.147301f, 0.198854f, -0.539878f, -0.431230f, -0.439418f, 0.008758f, 0.627796f, 0.181954f, -0.344733f, -0.422302f, 0.439847f, 0.142784f, -0.492246f, 0.287842f, -0.109686f, 0.403380f, -0.649819f, 0.405852f, 0.357298f, 0.002835f, -0.224898f, 0.297696f, -0.496788f, -0.399020f, 0.364508f, 0.226663f, -0.628974f, -0.634300f, 0.512094f, -0.360943f, 0.349315f, 0.396414f, -0.122707f, -0.468682f, 0.068346f, -0.689317f, 0.634126f, -0.887296f, 0.165372f, 0.474880f, 0.176040f, 0.429046f, -0.749393f, 0.391141f, 0.175252f, 0.463216f, 0.293284f, 0.228371f, -0.258111f, -0.547408f, 0.182918f, 0.250805f, -0.386876f, -0.518557f, 0.206926f, 0.114649f, 0.353462f, -0.596071f, -0.529899f, 0.556274f, 0.284236f, -0.627570f, -0.674783f, -0.555168f, 0.525853f, -0.767238f, 0.394494f, 0.374992f, -0.614903f, -0.462994f, 0.284616f, 0.376335f, 0.164238f, -0.126557f, -0.130119f, 0.032369f, -0.380694f, 0.314026f, 0.191078f, -0.492000f, -0.696585f, -0.770958f, -0.058876f, 0.224646f, -0.227481f, 0.204841f, -0.370400f, 0.445752f, 0.308626f, 0.055538f, -0.132059f, 0.461172f, -0.461773f, 0.359187f, -0.619739f, 0.223141f, 0.040882f, 0.202682f, -0.328568f, 0.368367f, 0.360264f, 0.255569f, -0.417770f, 0.147077f, 0.266248f, 0.327508f, -0.208008f, -0.463982f, -0.678318f, -0.471547f, -0.775566f, 0.240860f, -0.547647f, 0.210937f, 0.267749f, 0.137680f, 0.276721f, 0.242254f, -0.481011f, 0.131428f, -0.613755f, 0.152284f, -0.652775f, -0.608145f, 0.550564f, 0.397827f, -0.168515f, -0.529026f, 0.323585f, -0.293650f, -0.190788f, -0.355171f, -0.558900f, -0.646950f, 0.508761f, 0.575480f, -0.389733f, 0.395513f, 0.411621f, -0.443415f, 0.466235f, 0.043289f, 0.364398f, -0.535519f, -0.447123f, 0.305729f, -0.578830f, 0.364633f, 0.160628f, -0.640328f, 0.168553f, 0.292044f, -0.525195f, -0.511749f, 0.302412f, -0.535699f, -0.835742f, -0.433674f, 0.236476f, 0.438439f, 0.090733f, 0.420827f, -0.236357f, -0.679150f, 0.176395f, -0.668307f, 0.172117f, 0.336214f, 0.369341f, -0.155088f, -0.159554f, 0.274277f, -0.700010f, 0.432388f, 0.504918f, -0.579161f, -0.002544f, 0.375989f, -0.333416f, -0.393172f, 0.392749f, -0.284845f, -0.647952f, -0.352225f, 0.495562f, -0.145376f, 0.328601f, -0.090332f, -0.568048f, -0.713814f, -0.324974f, -0.665808f, -0.601905f, 0.734886f, -0.169751f, -0.110582f, 0.285459f, 0.328497f, 0.367516f, -0.443581f, -0.676733f, 0.183239f, 0.350904f, -0.492555f, 0.346094f, 0.165223f, -0.568062f, 0.292772f, 0.248177f, 0.153154f, -0.189820f, -0.707501f, -0.921108f, -0.563637f, 0.257294f, 0.124904f, 0.455339f, 0.352374f, 0.366318f, -0.185513f, 0.143349f, 0.336963f, -0.405420f, -0.637795f, 0.107811f, -0.270640f, -0.733027f, -0.387404f, 0.199982f, -0.217732f, 0.415165f, 0.339951f, -0.403043f, 0.454102f, -0.229630f, 0.043396f, 0.428912f, -0.418501f, 0.083553f, -0.458333f, -0.317582f, 0.624112f, 0.272937f, 0.403877f, -0.583746f, -0.522719f, -0.285118f, 0.187145f, 0.248289f, -0.529530f, 0.357122f, -0.429733f, 0.089564f, 0.370507f, -0.954398f, -0.358455f, 0.135613f, 0.352070f, -0.668496f, 0.318309f, 0.225829f, 0.143965f, 0.409981f, -0.767467f, -0.382118f, -0.013675f, 0.355667f, -0.554697f, -0.488432f, 0.279086f, 0.143404f, 0.199154f, -0.807775f, 0.198345f, 0.433068f, -0.076386f, 0.227049f, 0.374516f, -0.317635f, 0.493037f, -0.575318f, 0.080780f, -0.464802f, 0.499194f, 0.405300f, 0.269559f, -0.380835f, 0.408312f, 0.689580f, -0.385607f, -0.158669f, -0.176715f, -0.629331f, 0.237229f, 0.432906f, -0.498570f, -0.695208f, -0.518549f, 0.314931f, -0.649900f, 0.352060f, 0.152980f, 0.365458f, 0.303295f, -0.269554f, 0.272701f, -0.708573f, -0.478509f, 0.256196f, 0.229979f, -0.575232f, -0.058565f, 0.369042f, 0.203016f, -0.158337f, -0.443920f, -0.442481f, 0.335698f, -0.223136f, 0.222745f, 0.173869f, 0.138357f, 0.332927f, -0.078259f, 0.158098f, -0.197506f, -0.443348f, -0.475612f, 0.176477f, 0.377795f, -0.189535f, -0.689867f, 0.125329f, 0.185699f, 0.214697f, 0.281766f, 0.246460f, 0.320939f, -0.474573f, 0.594289f, 0.492230f, 0.011270f, -0.170796f, 0.010611f, 0.455123f, -0.653664f, 0.123968f, -0.622928f, -0.381745f, -0.306348f, -0.547014f, -0.731985f, 0.170292f, -0.440117f, -0.546652f, 0.219727f, -0.502581f, 0.372721f, -1.056868f, 0.410579f, -0.469335f, -0.275186f, 0.330016f, 0.246217f, -0.270647f, 0.210544f, 0.757999f, -0.443370f, -0.164653f, -0.569606f, -0.384645f, 0.045154f, -0.283393f, -0.690749f, 0.331982f, -0.273578f, 0.349132f, 0.520716f, 0.292602f, 0.419174f, -0.441497f, 0.304858f, 0.321410f, 0.382970f, -0.413771f, -0.668736f, -0.050745f, -0.520661f, 0.508359f, 0.207846f, 0.058479f, 0.421051f, 0.690362f, -0.870852f, 0.349488f, -0.629930f, -0.293259f, 0.332005f, -0.776838f, -0.770424f, -0.027684f, 0.197142f, -0.673645f, 0.329147f, 0.532931f, 0.155901f, 0.450912f, -0.296033f, 0.208077f, -0.370234f, 0.102082f, -0.267484f, 0.480223f, -0.077851f, -0.210164f, -0.496469f, -0.477551f, 0.292556f, 0.351883f, 0.531693f, 0.377804f, 0.184345f, -0.209307f, -0.197130f, 0.329176f, -0.416741f, -0.454475f, -0.451685f, -0.472874f, -0.715381f, 0.231922f, -0.281767f, 0.437123f, 0.201004f, 0.295825f, 0.591156f, 0.224054f, 0.155314f, -0.418715f, -0.477697f, 0.234500f, 0.422063f, -0.669920f, -0.615487f, 0.339125f, -0.497148f, 0.211282f, -0.653078f, -0.543166f, -0.713051f, 0.220238f, -0.765983f, 0.027670f, 0.057392f, -0.336126f, 0.505499f, 0.346405f, -0.251675f, 0.177499f, -0.449326f, 0.446772f, -0.187535f, -0.214343f, -0.538094f, 0.253380f, -0.520837f, 0.165200f, 0.003178f, 0.040664f, 0.286152f, 0.199196f, 0.516307f, -0.542745f, 0.145021f, 0.336472f, -0.733844f, -0.594114f, 0.203167f, -0.566749f, 0.722650f, -0.646365f, 0.309024f, 0.305782f, 0.169595f, 0.355307f, 0.456812f, 0.003228f, -0.015446f, 0.042998f, -0.046836f, 0.401757f, 0.342260f, 0.020544f, 0.279755f, -0.591361f, -0.573330f, 0.190181f, 0.225798f, 0.143046f, -0.108081f, -0.533368f, 0.412466f, 0.242263f, -0.659498f, -0.923172f, -0.641237f, 0.363305f, -0.383778f, 0.165058f, -0.166464f, -0.695569f, 0.190726f, 0.271958f, 0.047339f, 0.016849f, -0.398915f, -0.430117f, -0.535152f, 0.333593f, 0.120759f, 0.264127f, 0.078692f, 0.330023f, 0.207404f, 0.165072f, 0.303038f, -0.554310f, 0.160745f, -0.676275f, -0.532721f, 0.076632f, 0.189705f, 0.075841f, 0.285757f, -0.634129f, 0.158056f, -0.632456f, 0.196796f, 0.545553f, 0.205683f, 0.194177f, -0.531423f, -0.150351f, -0.519171f, -0.654216f, -0.580524f, 0.301712f, 0.269720f, -0.842710f, -0.620521f, 0.094839f, 0.192656f, -0.022520f, 0.357576f, -0.505964f, 0.336865f, 0.247563f, 0.000508f, 0.225669f, 0.383364f, -0.403438f, 0.255965f, -0.387024f, 0.498728f, 0.564937f, -0.523130f, -0.535129f, 0.293667f, -0.530345f, -0.287117f, 0.404931f, -0.499513f, -0.375142f, -0.251189f, 0.045072f, 0.329146f, 0.538763f, 0.470860f, 0.417663f, -0.510223f, -0.526993f, -0.429082f, -0.847588f, 0.782055f, -0.445991f, -0.680925f, 0.499589f, 0.197571f, -0.803323f, 0.205020f, 0.373935f, 0.435574f, 0.471339f, -0.608902f, -0.274694f, -0.588039f, 0.401503f, 0.225551f, -0.654030f, 0.152192f, 0.145996f, -0.394284f, 0.388178f, -0.173334f, 0.589882f, 0.196382f, -0.639259f, -0.696307f, 0.163611f, 0.098427f, -0.816389f, 0.191086f, 0.002294f, 0.374810f, 0.136689f, -0.437740f, -0.572244f, -0.803049f, 0.691760f, 0.572648f, 0.238000f, 0.364435f, -0.443731f, 0.326437f, 0.299159f, 0.126579f, -1.063137f, 0.423623f, -0.369901f, 0.061082f, 0.365646f, 0.515357f, -0.464025f, 0.348316f, -0.175179f, 0.479442f, -0.846764f, -0.563259f, 0.429816f, -0.664789f, 0.473853f, -0.321709f, 0.540998f, -0.456724f, 0.263616f, 0.550136f, 0.188394f, 0.284196f, 0.526909f, 0.485757f, -0.353669f, -0.001981f, -0.589358f, -0.168932f, -0.426424f, -0.473591f, 0.171103f, -0.038855f, -0.652234f, 0.256543f, -1.032387f, 0.641248f, -0.684307f, 0.469102f, 0.516944f, -0.497296f, 0.351196f, -0.395163f, -0.758142f, 0.204185f, 0.214636f, -0.327219f, 0.224692f, 0.359825f, -0.486086f, -0.112775f, 0.475893f, 0.360575f, -0.371783f, 0.592834f, -0.722057f, -0.564124f, 0.271570f, 0.525387f, 0.467107f, 0.277268f, -0.293337f, -0.463719f, -0.520762f, 0.478457f, -0.603964f, -0.462783f, -0.041134f, -0.696521f, 0.204955f, -0.696028f, 0.150954f, 0.272262f, -0.602474f, -0.565959f, 0.262015f, -0.555854f, -0.167967f, -0.581706f, 0.286694f, 0.281253f, 0.133879f, 0.193081f, 0.246367f, -0.641038f, 0.121224f, 0.472691f, 0.202543f, 0.122733f, 0.308551f, -0.071228f, -0.555822f, 0.318142f, -0.453324f, 0.276812f, -0.434871f, 0.249333f, -1.122617f, 0.267659f, 0.469203f, 0.330736f, -0.549184f, 0.280001f, 0.247743f, -0.120652f, -0.284016f, -0.943392f, 0.368308f, 0.359932f, -0.459725f, 0.123254f, 0.490995f, -1.000612f, 0.237021f, 0.194646f, 0.186334f, 0.163347f, -0.404490f, 0.196943f, -0.025955f, 0.308496f, -0.559785f, -0.357499f, 0.459645f, 0.382671f, -0.658363f, 0.469205f, -0.361047f, -0.501870f, 0.153739f, -0.504251f, -0.316792f, -0.398027f, 0.577128f, 0.501915f, -0.106129f, 0.229233f, 0.332260f, -0.490430f, 0.402581f, 0.302273f, 0.258043f, -0.440130f, -0.270364f, -0.284087f, -0.973649f, 0.167821f, -0.716991f, 0.348990f, -0.819090f, 0.418046f, 0.187681f, 0.394723f, 0.511517f, 0.222072f, -0.218402f, 0.276695f, -0.330886f, -0.609613f, -0.675412f, -0.085758f, -0.332799f, 0.292438f, 0.672305f, -0.762390f, 0.374021f, -0.333356f, 0.182234f, -0.792875f, 0.604089f, 0.410243f, 0.566674f, -0.529688f, -0.523618f, -0.572076f, -0.214437f, 0.512651f, 0.485895f, 0.449004f, -0.584585f, -0.256700f, 0.308405f, -0.536167f, -0.126719f, 0.259908f, 0.053637f, 0.448371f, -0.531276f, 0.673190f, 0.584660f, -0.268090f, -0.359364f, -0.665201f, 0.397059f, -0.435772f, -0.408336f, -0.617041f, -0.000438f, 0.413353f, 0.031269f, 0.507080f, -0.072574f, 0.144974f, -0.395055f, -0.121606f, 0.189140f, -0.598431f, -0.498407f, 0.283462f, 0.496974f, 0.175256f, 0.266060f, 0.281341f, -0.334967f, -0.454035f, -0.004688f, -0.569969f, -0.689759f, -0.461133f, 0.194634f, -0.382866f, 0.336180f, 0.293545f, 0.215394f, -0.351873f, -0.080194f, -0.455546f, -0.192121f, 0.424882f, -0.774437f, 0.504456f, 0.033486f, -0.529528f, 0.329495f, -0.323211f, -0.235954f, 0.530425f, 0.335043f, 0.394150f, 0.422550f, -0.752226f, 0.289380f, -0.687845f, 0.099941f, 0.428281f, 0.394084f, -0.668375f, 0.279953f, -0.640316f, 0.323432f, -0.323875f, -0.376142f, -0.472991f, 0.296023f, 0.353295f, 0.209399f, -0.225717f, 0.074477f, -0.456896f, -0.249906f, -0.488330f, 0.094426f, 0.274171f, 0.210502f, 0.381408f, -0.365505f, -0.379532f, 0.110286f, 0.399888f, -0.471017f, -0.261541f, -0.247473f, -0.411148f, 0.296457f, -0.255251f, -0.547964f, 0.272263f, 0.135383f, 0.384196f, 0.479210f, 0.193871f, -0.521347f, 0.387711f, 0.401201f, 0.253215f, -0.247238f, 0.084270f, 0.017840f, -0.230366f, 0.349153f, -0.616628f, -0.407874f, 0.298857f, -0.596419f, -0.770744f, 0.302363f, 0.228287f, 0.080241f, 0.121755f, -0.504557f, -0.092107f, 0.350236f, -0.262585f, -0.308696f, -0.233165f, 0.163758f, -0.528759f, -0.230589f, 0.270500f, -0.557881f, -0.444887f, 0.296991f, 0.474819f, -0.170091f, 0.500758f, -0.422755f, 0.307782f, 0.265261f, -0.205102f, 0.501744f, 0.239825f, 0.024585f, -0.368137f, 0.525304f, -0.656684f, -0.148114f, 0.014185f, -0.359326f, 0.326430f, -0.104626f, 0.422319f, 0.111819f, 0.134299f, -0.607303f, 0.517396f, 0.246931f, 0.295340f, -0.234534f, 0.157815f, 0.415062f, -0.460630f, 0.308346f, -0.531718f, -0.572906f, 0.408231f, 0.193604f, -0.492140f, -0.159363f, 0.018701f, 0.238601f, -0.571738f, 0.389018f, -0.546146f, 0.256403f, -0.509713f, 0.228865f, -0.641796f, -0.006550f, -0.537863f, 0.250778f, -0.659894f, 0.260813f, -0.584778f, -0.353141f, -0.348789f, 0.159012f, 0.129991f, 0.293519f, 0.192897f, 0.337077f, -0.363270f, 0.277188f, 0.180879f, 0.081051f, -0.345146f, -0.141370f, 0.316985f, -0.595168f, 0.358265f, 0.453430f, -0.455842f, 0.369053f, -0.374734f, -0.126371f, 0.383213f, -0.488684f, -0.067109f, 0.298201f, -0.501331f, 0.256269f, -0.462501f, 0.321309f, 0.415724f, 0.312245f, 0.361198f, -0.265604f, -0.314603f, 0.147790f, -0.368798f, -0.407113f, -0.474905f, -0.510541f, -0.389206f, 0.343206f, -0.205381f, 0.016861f, -0.478262f, 0.037097f, 0.353541f, 0.092626f, -0.609097f, 0.289097f, -0.699640f, 0.321326f, 0.166922f, 0.046772f, 0.192339f, 0.375325f, 0.097413f, 0.199702f, -0.688518f, 0.303469f, -0.630862f, 0.143919f, 0.253330f, -0.375392f, 0.510683f, -0.777161f, 0.218137f, 0.220818f, 0.179276f, 0.422092f, 0.415621f, 0.248806f, 0.413812f, 0.083034f, -0.696795f, -0.192131f, -0.556144f, 0.264471f, -0.316976f, -0.205053f, 0.545947f, 0.415393f, 0.139265f, 0.246885f, -0.543061f, -0.172967f, -0.609286f, 0.251922f, 0.358549f, -0.491329f, -0.372098f, -0.464565f, -0.417853f, 0.354785f, -0.493736f, 0.514656f, -0.590997f, 0.044147f, -0.606044f, -0.437627f, 0.182080f, -0.554905f, 0.090411f, -0.740401f, -0.422080f, 0.313867f, -0.500230f, 0.231842f, 0.377952f, 0.537672f, 0.291796f, 0.133925f, -0.552437f, 0.276038f, -0.197913f, 0.177695f, 0.318402f, 0.401637f, -0.273770f, 0.144524f, -0.519428f, -0.679177f, 0.159035f, -0.638093f, 0.248014f, -0.755022f, 0.184385f, 0.390709f, 0.336922f, 0.557840f, 0.145187f, -0.062354f, 0.299294f, 0.307176f, -0.414764f, -0.742152f, -0.552113f, -0.433717f, 0.224204f, 0.539539f, -0.506376f, 0.473346f, -0.306718f, 0.121310f, 0.239286f, 0.326655f, 0.065547f, 0.280993f, -0.384351f, -0.564364f, -0.560263f, 0.147886f, 0.408130f, 0.424253f, -0.326985f, -0.134343f, 0.149557f, 0.108359f, -0.300759f, 0.248275f, 0.349263f, -0.114879f, 0.124998f, -0.571491f, -0.533340f, 0.390908f, 0.419656f, -0.360921f, -0.429804f, 0.190653f, -0.364311f, 0.145837f, -0.432908f, 0.505244f, -0.205197f, 0.489577f, -0.592787f, -0.462742f, 0.263786f, -0.487539f, -0.435668f, 0.393031f, 0.451327f, -0.763469f, -0.478298f, 0.150483f, -0.425582f, 0.451754f, 0.141915f, 0.321516f, -0.780370f, 0.244460f, -0.583996f, 0.605282f, 0.521739f, -0.900453f, -0.416743f, 0.401093f, -0.343675f, 0.083956f, 0.136285f, -0.594967f, 0.190971f, -0.333113f, -0.455498f, 0.113924f, 0.255595f, -0.548562f, 0.161504f, 0.248819f, 0.146450f, -0.506838f, -0.885603f, -0.460182f, 0.230962f, 0.435775f, 0.211201f, -0.466154f, 0.146060f, 0.229482f, 0.227204f, 0.183384f, 0.015311f, -0.386191f, 0.294564f, 0.400922f, 0.267255f, 0.506505f, 0.374942f, -0.764042f, -0.529630f, -0.556974f, -0.470660f, 0.574117f, -0.114859f, 0.240423f, 0.205597f, -0.705076f, -0.205063f, -0.308399f, -0.377994f, 0.620081f, 0.144203f, -0.544173f, -0.574908f, 0.369670f, 0.121742f, -0.249084f, 0.036228f, 0.559256f, 0.251248f, -0.360150f, -0.352626f, 0.324121f, -0.079603f, 0.825435f, -0.350811f, 0.587713f, -0.429923f, -0.407834f, -0.526204f, -0.298350f, 0.169709f, -0.500182f, 0.093179f, -0.436179f, 0.013269f, 0.400001f, 0.741463f, -0.257404f, 0.327460f, -0.684368f, -0.508618f, -0.580690f, 0.362690f, -0.230173f, 0.503338f, 0.288947f, -0.446120f, -0.216681f, 0.273856f, -0.774700f, -0.455854f, 0.327092f, 0.264108f, -0.668546f, 0.297882f, 0.432916f, 0.143258f, 0.066024f, 0.341942f, -0.927136f, 0.133500f, 0.252905f, 0.433871f, 0.126608f, 0.171464f, -0.669653f, -0.575703f, 0.336825f, -0.066454f, 0.267540f, -0.324504f, -0.581153f, 0.279533f, 0.419113f, 0.024518f, -0.563961f, -0.564100f, -0.240047f, -0.476146f, 0.314770f, -0.061333f, 0.209094f, 0.367413f, -0.171986f, 0.626114f, -0.538067f, 0.345370f, 0.352467f, 0.053213f, -0.607022f, 0.349139f, 0.031586f, 0.388048f, -0.627323f, 0.161543f, -0.051280f, 0.127560f, 0.289457f, -0.385188f, -0.756086f, -0.606261f, -0.395516f, -0.241579f, 0.355512f, 0.370283f, -0.645207f, -0.509921f, -0.286241f, 0.383232f, 0.287242f, 0.284757f, 0.312630f, 0.267177f, 0.219560f, 0.170059f, 0.453371f, 0.004315f, -0.314424f, -0.283754f, -0.521697f, -0.567786f, 0.322975f, 0.191467f, 0.136820f, -0.406830f, -0.333942f, 0.344656f, 0.512397f, -0.168767f, 0.376311f, 0.220512f, -0.580055f, 0.400070f, 0.303584f, -0.198940f, -0.354854f, -0.977576f, -0.405724f, -0.457427f, -0.149814f, 0.293013f, 0.123639f, 0.325931f, 0.405271f, 0.170520f, -0.097398f, 0.248830f, -0.401009f, -0.718790f, -0.341387f, 0.317294f, -0.669884f, 0.327754f, 0.334585f, 0.267956f, -0.586033f, 0.498498f, -0.358582f, -0.435465f, 0.293731f, -0.611808f, -0.808258f, -0.180425f, 0.629991f, 0.243405f, -0.102222f, 0.254062f, 0.385230f, -0.717794f, 0.291390f, -0.003915f, 0.166173f, -0.255328f, -0.551580f, 0.198375f, -0.683593f, -0.487037f, 0.178402f, 0.203290f, 0.341030f, -0.550402f, -0.520078f, -0.521505f, 0.161257f, 0.259932f, 0.500991f, 0.272573f, 0.654060f, -0.158248f, -0.922353f, -0.656362f, -0.107147f, -0.465840f, -0.886446f, 0.460718f, 0.328402f, 0.102738f, -0.310853f, 0.241007f, -0.424560f, 0.203610f, 0.369058f, -0.424678f, -0.750014f, -0.431288f, 0.243836f, -0.038519f, 0.255604f, 0.250858f, -0.690880f, -0.357568f, 0.538525f, -0.613113f, 0.225419f, -0.018040f, 0.197315f, 0.030251f, 0.351785f, -0.522023f, 0.242295f, 0.358889f, -0.414804f, -0.633824f, -0.059035f, 0.537006f, 0.157411f, -0.598064f, 0.379572f, -0.491508f, 0.300162f, -0.764335f, -0.628323f, 0.284817f, 0.400906f, 0.252558f, 0.306956f, 0.446322f, -0.613313f, -0.081511f, -0.473230f, -0.013086f, -0.684534f, 0.266942f, 0.465961f, -0.484704f, -0.022525f, 0.427630f, -0.259651f, -0.312303f, -0.416147f, 0.410708f, 0.464915f, 0.367112f, -0.024660f, -0.350755f, 0.424687f, 0.371505f, 0.308339f, -0.443023f, -0.228914f, -0.335952f, -0.388943f, -0.456261f, 0.562514f, 0.501986f, 0.383632f, 0.338655f, -0.664552f, 0.162973f, 0.378143f, -0.616606f, -0.411379f, 0.491655f, -0.904020f, 0.154465f, 0.346886f, -0.267511f, -0.239454f, 0.366929f, 0.144495f, -0.514553f, -0.549411f, -0.678654f, -0.309621f, 0.476713f, 0.263560f, 0.234985f, 0.463331f, 0.341253f, -0.212479f, -0.639388f, -0.539033f, -0.266576f, -0.058670f, 0.472370f, 0.211468f, -0.048098f, 0.612774f, 0.433993f, -0.128974f, -0.387409f, -0.633648f, -0.425658f, 0.380937f, 0.296182f, -0.419607f, 0.271396f, 0.394943f, 0.340324f, -0.135341f, 0.287580f, -0.261858f, -0.558911f, 0.472510f, 0.291255f, -0.575966f, -0.334344f, 0.142806f, -1.000465f, 0.494269f, -0.095190f, -0.571193f, 0.155012f, -0.463160f, -0.690223f, 0.117106f, 0.282655f, 0.304956f, -0.068492f, -0.597822f, 0.383111f, 0.388106f, -0.392183f, -0.682250f, 0.281416f, 0.230421f, -0.437868f, 0.551269f, 0.093714f, -0.578454f, 0.090609f, 0.249403f, 0.365301f, 0.456912f, -0.382077f, 0.194480f, -0.456166f, -0.248864f, -0.194698f, 0.462604f, -0.251919f, -0.416930f, -0.801455f, 0.438806f, -0.522538f, -0.006919f, -0.179027f, -0.636907f, 0.155772f, -0.355574f, -0.571898f, 0.717606f, 0.303189f, -0.432661f, 0.327823f, 0.416452f, 0.434447f, -0.532756f, -0.559987f, -0.426660f, -0.340112f, 0.406065f, -0.455162f, -0.497663f, 0.368021f, 0.428611f, -0.144013f, 0.500760f, -0.192124f, 0.250644f, 0.388855f, -0.480839f, -0.625679f, 0.516608f, -0.433615f, -0.206698f, 0.340853f, -0.663628f, -0.194050f, -0.037743f, 0.160694f, -0.625286f, -0.496625f, 0.272443f, -0.136106f, -0.557940f, -0.836432f, -0.239037f, 0.393263f, 0.395141f, 0.274941f, -0.387214f, -0.401558f, 0.291974f, 0.287204f, 0.334784f, 0.194333f, -0.700918f, 0.171055f, -0.683632f, 0.304188f, -0.636556f, -0.342708f, 0.241284f, 0.425130f, -0.616288f, 0.354814f, -0.603709f, -0.429167f, 0.405713f, -0.297439f, -1.155621f, 0.360527f, 0.011854f, 0.477225f, -0.026809f, 0.283826f, -0.002693f, 0.411594f, 0.123171f, 0.208550f, 0.319140f, -0.273146f, -0.516021f, 0.367201f, 0.060183f, -0.528460f, 0.304623f, 0.459700f, 0.273198f, -0.507764f, -0.730050f, -0.526020f, 0.305996f, -0.608101f, -0.612841f, 0.173809f, 0.248849f, 0.213350f, 0.176510f, -0.041683f, 0.218573f, -0.621306f, -0.591873f, 0.304922f, 0.328661f, 0.325110f, 0.250695f, 0.198426f, -0.274194f, 0.298930f, -0.350060f, 0.346028f, 0.331215f, 0.069529f, 0.391520f, -0.040995f, -0.553395f, 0.013113f, -0.090215f, -0.437654f, 0.300669f, 0.250534f, 0.055472f, 0.580385f, 0.371436f, -0.041866f, -0.499215f, 0.009596f, -0.720698f, 0.306407f, -0.015243f, 0.393290f, 0.025599f, -0.086289f, -0.459807f, -0.474629f, 0.263323f, -0.319741f, 0.323608f, 0.422289f, 0.207034f, -0.523822f, 0.242853f, -0.500092f, 0.064876f, -0.221609f, 0.479526f, 0.446520f, 0.476280f, 0.314798f, 0.212301f, -0.544941f, -0.289984f, -0.403807f, -0.242528f, 0.339325f, -0.805238f, 0.023437f, -0.321725f, -0.331402f, 0.288447f, -0.525288f, -0.491919f, 0.347792f, 0.485469f, 0.260345f, -0.198387f, 0.239208f, -0.726147f, 0.531757f, -0.674741f, -0.151818f, 0.315767f, 0.229815f, -0.800164f, -0.342652f, -0.374816f, 0.359617f, 0.565854f, 0.171907f, -0.487935f, -0.797069f, 0.243706f, 0.202735f, 0.110738f, -0.341584f, -0.305865f, 0.216170f, 0.163939f, 0.299770f, 0.020383f, -0.735864f, -0.006889f, 0.425491f, 0.385899f, 0.295023f, -0.127259f, 0.337696f, 0.058187f, 0.456106f, -0.905787f, -0.262594f, -0.704008f, 0.035543f, 0.442465f, -0.298595f, -0.476955f, 0.377432f, -0.908138f, 0.632039f, -0.686407f, -0.148361f, 0.516160f, -0.633392f };
static float MLP_buf1[100];
static float MLP_buf2[100];
static const EmlNetLayer MLP_layers[3] = { 
{ 50, 7, MLP_layer_0_weights, MLP_layer_0_biases, EmlNetActivationLogistic }, 
{ 100, 50, MLP_layer_1_weights, MLP_layer_1_biases, EmlNetActivationLogistic }, 
{ 26, 100, MLP_layer_2_weights, MLP_layer_2_biases, EmlNetActivationSoftmax } };
static EmlNet MLP = { 3, MLP_layers, MLP_buf1, MLP_buf2, 100 };

    int32_t
    MLP_predict(const float *features, int32_t n_features)
    {
        return eml_net_predict(&MLP, features, n_features);
    }
    

    int32_t
    MLP_regress(const float *features, int32_t n_features, float *out, int32_t out_length)
    {
        return eml_net_regress(&MLP, features, n_features, out, out_length);
    }
    

    float
    MLP_regress1(const float *features, int32_t n_features)
    {
        return eml_net_regress1(&MLP, features, n_features);
    }
    